~o
<STREAMINFO> 1 26
<VECSIZE> 26<NULLD><MFCC_E_D><DIAGC>
~h "C"
<BEGINHMM>
<NUMSTATES> 5
<STATE> 2
<MEAN> 26
 -1.375407e+001 -3.862777e+000 -1.929315e+000 -4.566510e+000 -5.211424e+000 -3.982231e+000 -2.750181e+000 -1.415401e+000 -1.330004e+000 -1.118208e+000 -3.098535e+000 -4.907037e-001 3.413758e-001 -2.155814e+000 9.255800e-002 -1.164918e+000 -2.919502e-001 1.594885e+000 5.282143e-001 5.917795e-001 -1.450301e-001 3.355447e-001 -5.356855e-002 1.823416e-001 4.382990e-002 -3.549461e-002
<VARIANCE> 26
 4.298635e+001 5.365331e+001 3.680460e+001 4.614632e+001 3.986458e+001 3.569157e+001 3.251485e+001 3.446555e+001 2.385500e+001 1.945025e+001 2.233382e+001 1.571765e+001 5.651619e-002 5.849442e+000 5.926056e+000 4.347320e+000 6.321072e+000 6.334537e+000 3.890674e+000 4.813678e+000 4.321627e+000 3.423357e+000 2.346628e+000 2.408567e+000 1.841320e+000 5.000000e-002
<GCONST> 1.000515e+002
<STATE> 3
<MEAN> 26
 -2.176262e+001 -4.235105e+000 -6.429973e+000 -8.805420e+000 -2.157653e+000 -5.123922e+000 -4.998632e-001 -1.407578e+000 -1.914827e-001 -1.530402e+000 -2.012523e+000 6.358700e-002 4.506471e-001 1.087660e-001 -4.200861e-001 -1.572856e-001 -3.343913e-001 -2.258036e-001 -5.091301e-002 -1.217849e-002 6.403547e-002 8.030528e-002 -9.689797e-002 -7.941779e-002 -1.140533e-002 9.889393e-003
<VARIANCE> 26
 3.564420e+001 2.347338e+001 2.895708e+001 3.164098e+001 2.656107e+001 3.550368e+001 2.100572e+001 1.647811e+001 1.714828e+001 1.559301e+001 1.191997e+001 1.092138e+001 6.834887e-002 3.229755e+000 1.761076e+000 2.025394e+000 2.594897e+000 1.678680e+000 2.077111e+000 1.964416e+000 1.789028e+000 1.770447e+000 1.856397e+000 1.581188e+000 1.164164e+000 5.000000e-002
<GCONST> 8.651278e+001
<STATE> 4
<MEAN> 26
 -9.248863e+000 -8.382851e+000 -3.504459e+000 -7.111923e+000 -8.492520e+000 -3.925145e+000 -4.399727e+000 8.742431e-001 -1.272984e+000 -1.361601e+000 -3.405767e+000 -8.287531e-001 5.474694e-001 2.849097e+000 -7.477652e-001 5.843968e-001 -3.486184e-001 -1.760465e+000 1.733173e-001 -1.638310e+000 3.524887e-001 -4.813340e-001 1.899920e-001 1.159263e-002 -4.556760e-001 5.658095e-002
<VARIANCE> 26
 7.311059e+001 4.038883e+001 6.939030e+001 3.565501e+001 5.885292e+001 5.172625e+001 5.343826e+001 3.468038e+001 3.416453e+001 2.578710e+001 2.357202e+001 1.675994e+001 5.000000e-002 4.726783e+000 3.766622e+000 4.796629e+000 4.502784e+000 4.552514e+000 5.291040e+000 5.034468e+000 2.803043e+000 3.135998e+000 2.443067e+000 2.473176e+000 2.111621e+000 5.000000e-002
<GCONST> 1.013732e+002
<TRANSP> 5
 0.000000e+000 1.000000e+000 0.000000e+000 0.000000e+000 0.000000e+000
 0.000000e+000 5.315819e-001 4.684181e-001 0.000000e+000 0.000000e+000
 0.000000e+000 0.000000e+000 7.372661e-001 2.627339e-001 0.000000e+000
 0.000000e+000 0.000000e+000 0.000000e+000 6.488658e-001 3.511342e-001
 0.000000e+000 0.000000e+000 0.000000e+000 0.000000e+000 0.000000e+000
<ENDHMM>
