~o
<STREAMINFO> 1 26
<VECSIZE> 26<NULLD><MFCC_E_D><DIAGC>
~h "L"
<BEGINHMM>
<NUMSTATES> 5
<STATE> 2
<MEAN> 26
 1.981930e+000 -1.977892e+000 -7.621824e+000 -1.385178e+001 -1.195659e+001 8.702354e-001 -8.771096e+000 -2.782668e+000 -4.542891e+000 -6.403825e-001 -2.144215e+000 -1.131863e+000 7.019417e-001 5.946880e-001 -1.325066e-001 -1.012206e-001 -6.999946e-001 -2.453657e-001 1.955619e-001 -6.655180e-001 3.249784e-001 -1.955927e-001 -2.518205e-001 2.362643e-001 1.033556e-001 1.907237e-002
<VARIANCE> 26
 1.291565e+001 4.451275e+001 4.557944e+001 7.377132e+001 4.266235e+001 6.362458e+001 3.814077e+001 3.811499e+001 4.568747e+001 4.476873e+001 3.173985e+001 1.585182e+001 5.000000e-002 1.880503e+000 2.807219e+000 3.556749e+000 2.683345e+000 4.275252e+000 4.740196e+000 2.892751e+000 3.718677e+000 2.476738e+000 2.908322e+000 3.248648e+000 9.032291e-001 5.000000e-002
<GCONST> 9.765550e+001
<STATE> 3
<MEAN> 26
 2.836073e+000 -9.933936e+000 -7.693208e+000 -7.716917e+000 -1.367352e+001 -4.473687e+000 -1.131288e+001 4.709805e+000 -1.292442e+000 -1.188595e+000 -9.693558e-001 -1.697484e+000 7.847993e-001 -3.677259e-001 -1.951599e-001 2.103957e-001 1.675666e-001 -1.854229e-001 2.027299e-001 6.463656e-001 -2.924671e-001 -1.671501e-001 2.681926e-001 2.536050e-002 -2.699799e-001 -2.058280e-004
<VARIANCE> 26
 9.260255e+000 4.124241e+001 9.072836e+001 5.755199e+001 3.089672e+001 7.680695e+001 3.179099e+001 6.330888e+001 4.321214e+001 2.583138e+001 1.732714e+001 1.370696e+001 5.000000e-002 3.948508e-001 2.405410e+000 2.273469e+000 2.188559e+000 3.378742e+000 2.866233e+000 2.390139e+000 1.924109e+000 2.174467e+000 1.376373e+000 1.930489e+000 1.570231e+000 5.000000e-002
<GCONST> 9.172072e+001
<STATE> 4
<MEAN> 26
 -1.889235e+000 -5.153368e+000 -3.652716e+000 -8.912801e+000 -1.075351e+001 -3.212692e+000 -8.676349e+000 -1.960798e+000 -3.932117e+000 1.554291e+000 -2.653344e+000 -1.228714e+000 6.942989e-001 -1.842436e+000 7.017330e-002 9.921324e-001 1.032982e+000 3.966353e-001 -8.892781e-001 8.672449e-001 -6.117755e-002 1.450586e-001 1.211188e-001 -2.805556e-001 2.700883e-001 -2.774234e-002
<VARIANCE> 26
 3.113780e+001 5.116027e+001 1.044566e+002 6.245452e+001 7.244110e+001 8.830107e+001 5.124525e+001 6.439021e+001 5.776443e+001 2.077018e+001 3.370559e+001 2.286943e+001 5.000000e-002 4.800716e+000 5.068799e+000 2.364119e+000 4.344148e+000 7.399189e+000 6.559095e+000 5.895915e+000 4.420506e+000 4.168296e+000 2.314400e+000 2.875458e+000 2.285843e+000 5.000000e-002
<GCONST> 1.053658e+002
<TRANSP> 5
 0.000000e+000 1.000000e+000 0.000000e+000 0.000000e+000 0.000000e+000
 0.000000e+000 5.912483e-001 4.087518e-001 0.000000e+000 0.000000e+000
 0.000000e+000 0.000000e+000 5.591201e-001 4.408800e-001 0.000000e+000
 0.000000e+000 0.000000e+000 0.000000e+000 5.381805e-001 4.618195e-001
 0.000000e+000 0.000000e+000 0.000000e+000 0.000000e+000 0.000000e+000
<ENDHMM>
