~o
<STREAMINFO> 1 26
<VECSIZE> 26<NULLD><MFCC_E_D><DIAGC>
~h "N"
<BEGINHMM>
<NUMSTATES> 5
<STATE> 2
<MEAN> 26
 -3.088734e+000 -5.734144e+000 3.179394e+000 -8.017403e-001 -1.160263e+001 1.172673e+000 -9.816503e+000 -6.362814e+000 -4.872107e+000 -2.287025e-001 -5.822271e+000 4.574161e-002 4.697347e-001 -3.142960e-002 6.253693e-001 1.463821e-001 1.088682e+000 1.105729e-002 7.628175e-001 -1.306555e-001 -2.303028e+000 -1.239484e+000 3.961665e-001 2.415632e-001 9.042239e-001 -2.073429e-002
<VARIANCE> 26
 3.385730e+000 1.537004e+001 1.417228e+001 2.526478e+001 2.809096e+001 1.867374e+001 2.616949e+001 5.276120e+001 2.813752e+001 2.770389e+001 1.355357e+001 1.753892e+001 5.000000e-002 1.740524e+000 1.774510e+000 1.939831e+000 2.641166e+000 3.282830e+000 2.098307e+000 3.798938e+000 3.577680e+000 4.305960e+000 2.721448e+000 2.824479e+000 1.954603e+000 5.000000e-002
<GCONST> 8.871918e+001
<STATE> 3
<MEAN> 26
 -3.971992e+000 -2.767159e+000 2.281902e+000 -1.283635e+000 -1.197812e+001 1.384120e+000 -7.957675e+000 -8.464434e+000 -5.114514e+000 -1.442455e+000 -7.015547e+000 3.984120e+000 4.300610e-001 -3.742153e-001 3.867454e-001 -1.194588e+000 -1.002734e+000 6.528007e-001 -6.865721e-001 7.909331e-001 1.339960e+000 1.292655e+000 -1.245501e+000 2.474576e-001 6.297085e-002 5.516042e-003
<VARIANCE> 26
 2.612329e+000 3.191423e+001 1.460874e+001 1.789083e+001 1.949831e+001 1.584032e+001 2.585480e+001 3.760646e+001 2.612568e+001 2.019102e+001 1.461569e+001 1.242157e+001 5.000000e-002 2.143429e+000 2.885597e+000 2.287528e+000 4.026503e+000 3.937847e+000 2.314637e+000 2.252980e+000 4.584803e+000 1.481337e+000 1.156666e+000 1.804047e+000 1.822102e+000 5.000000e-002
<GCONST> 8.618069e+001
<STATE> 4
<MEAN> 26
 -4.873234e+000 -4.969821e+000 -3.448633e+000 -6.508961e+000 -9.411824e+000 -8.987947e-001 -5.215936e+000 -2.059096e+000 -9.069460e-001 -3.953279e+000 -4.265933e+000 3.140118e-001 5.118514e-001 -5.431007e-001 -6.920775e-001 -2.616147e+000 -2.693800e+000 3.455476e-001 -1.545212e-001 6.309844e-001 1.675252e+000 2.329586e+000 -4.998184e-001 6.428345e-001 -1.160638e+000 4.900351e-002
<VARIANCE> 26
 4.937847e+001 3.330382e+001 4.927239e+001 4.999768e+001 3.093248e+001 2.505501e+001 2.537166e+001 4.262382e+001 2.205071e+001 2.461990e+001 1.973528e+001 8.357207e+000 5.000000e-002 7.417719e+000 2.558426e+000 4.106189e+000 2.046287e+000 5.521357e+000 4.486711e+000 2.410733e+000 5.211608e+000 3.379377e+000 1.099382e+000 3.002147e+000 1.986544e+000 5.000000e-002
<GCONST> 9.595972e+001
<TRANSP> 5
 0.000000e+000 1.000000e+000 0.000000e+000 0.000000e+000 0.000000e+000
 0.000000e+000 6.925179e-001 3.074821e-001 0.000000e+000 0.000000e+000
 0.000000e+000 0.000000e+000 5.146196e-001 4.853804e-001 0.000000e+000
 0.000000e+000 0.000000e+000 0.000000e+000 4.074180e-001 5.925819e-001
 0.000000e+000 0.000000e+000 0.000000e+000 0.000000e+000 0.000000e+000
<ENDHMM>
