~o
<STREAMINFO> 1 26
<VECSIZE> 26<NULLD><MFCC_E_D><DIAGC>
~h "S"
<BEGINHMM>
<NUMSTATES> 5
<STATE> 2
<MEAN> 26
 -1.315608e+001 -6.934283e+000 -9.495336e+000 -9.694171e+000 -1.910308e+000 -1.724187e-001 -3.775247e+000 1.922297e+000 2.772973e+000 -1.177893e-001 -6.290562e+000 -3.203680e+000 1.681426e-001 1.050078e-001 -1.162178e-001 -4.380433e-001 2.836713e-001 2.145954e-001 1.049124e+000 2.194840e-002 -1.432968e-001 -4.153704e-001 1.252676e-001 1.230292e-001 1.344023e-001 -3.529361e-002
<VARIANCE> 26
 2.862013e+001 3.228572e+001 1.914546e+001 3.225183e+001 2.336682e+001 3.972031e+001 2.819678e+001 2.340324e+001 1.327346e+001 1.256958e+001 2.677705e+001 5.855503e+001 5.000000e-002 3.512730e+000 2.048589e+000 1.401105e+000 2.293652e+000 1.679867e+000 3.165232e+000 2.260804e+000 3.184428e+000 9.130213e-001 1.472677e+000 2.697071e+000 3.156669e+000 5.000000e-002
<GCONST> 9.007121e+001
<STATE> 3
<MEAN> 26
 -1.655401e+001 -1.907825e+000 -7.337444e+000 -5.579755e+000 -2.785028e+000 1.440067e-002 -7.630988e-001 1.485936e+000 -1.328184e+000 -5.667779e-001 -1.802320e+000 -3.999873e-001 -6.582952e-002 1.045910e-001 2.663200e-001 1.754437e-001 1.027671e-001 -3.339693e-001 9.619159e-002 3.423924e-002 -8.667748e-002 -1.339347e-001 -1.113862e-001 4.126816e-002 -9.294966e-002 -3.674745e-003
<VARIANCE> 26
 8.036212e+000 5.678312e+000 1.115624e+001 1.902058e+001 1.666296e+001 1.278586e+001 1.306750e+001 1.807479e+001 1.204158e+001 1.448805e+001 1.781724e+001 1.155620e+001 5.000000e-002 4.879334e-001 5.393193e-001 9.112387e-001 1.410888e+000 1.199938e+000 1.121722e+000 1.291418e+000 1.957124e+000 1.359318e+000 1.442061e+000 1.823847e+000 1.401845e+000 5.000000e-002
<GCONST> 7.403910e+001
<STATE> 4
<MEAN> 26
 -1.228572e+001 -2.500594e+000 -2.698500e+000 -1.005773e+001 -8.760481e+000 1.208809e+000 -2.135751e+000 1.613134e+000 -3.870435e+000 -2.148690e+000 -2.383384e+000 -2.077898e+000 1.870944e-001 4.991352e-001 -5.392868e-001 5.350401e-001 -7.513064e-001 -8.264084e-002 5.021201e-001 -8.204975e-001 -1.211806e-002 -3.869841e-001 -5.259686e-001 -1.900099e-001 -2.367192e-001 7.392732e-002
<VARIANCE> 26
 4.307583e+001 2.505106e+001 5.715697e+001 2.595522e+001 4.177261e+001 3.644846e+001 2.871371e+001 3.818219e+001 3.951205e+001 1.981242e+001 1.379417e+001 2.141160e+001 7.337491e-002 5.335335e+000 2.571786e+000 4.169108e+000 2.568323e+000 2.993718e+000 1.862896e+000 2.250423e+000 3.340512e+000 2.426172e+000 1.833190e+000 1.486132e+000 2.043138e+000 5.000000e-002
<GCONST> 9.447077e+001
<TRANSP> 5
 0.000000e+000 1.000000e+000 0.000000e+000 0.000000e+000 0.000000e+000
 0.000000e+000 6.418251e-001 3.581749e-001 0.000000e+000 0.000000e+000
 0.000000e+000 0.000000e+000 8.881580e-001 1.118420e-001 0.000000e+000
 0.000000e+000 0.000000e+000 0.000000e+000 6.879274e-001 3.120726e-001
 0.000000e+000 0.000000e+000 0.000000e+000 0.000000e+000 0.000000e+000
<ENDHMM>
