~o
<STREAMINFO> 1 26
<VECSIZE> 26<NULLD><MFCC_E_D><DIAGC>
~h "V"
<BEGINHMM>
<NUMSTATES> 5
<STATE> 2
<MEAN> 26
 5.330570e-001 -7.964975e+000 -4.466592e+000 -1.294545e+001 -1.300836e+001 2.441640e+000 -1.185946e+001 -1.012099e+000 -3.499973e+000 6.782948e-001 -1.253696e+000 -3.382631e+000 7.951860e-001 4.965483e-001 -5.653703e-001 -3.872811e-002 -7.519852e-002 -4.094897e-001 3.125150e-001 -5.245526e-001 1.768062e-001 3.894653e-001 1.861804e-001 -1.631868e-001 -3.198817e-001 1.582653e-002
<VARIANCE> 26
 1.737149e+001 3.286142e+001 1.247059e+002 4.677566e+001 5.600174e+001 1.041006e+002 5.358113e+001 3.405792e+001 4.284333e+001 3.497097e+001 2.348932e+001 2.383274e+001 5.000000e-002 1.485019e+000 1.693054e+000 2.403334e+000 1.785148e+000 2.940770e+000 2.484330e+000 2.337715e+000 2.209872e+000 2.670330e+000 1.748438e+000 1.686906e+000 1.519977e+000 5.000000e-002
<GCONST> 9.512309e+001
<STATE> 3
<MEAN> 26
 1.460095e+000 -1.499418e+001 -6.535146e+000 -8.896389e+000 -1.462841e+001 1.856784e+000 -8.443476e+000 4.358609e+000 7.951416e-001 -7.622563e-001 -6.757019e+000 -6.786398e+000 8.449768e-001 -3.575477e-001 3.742363e-001 8.489280e-001 2.310666e-001 -1.840466e-001 -8.307178e-001 4.480071e-001 3.585815e-001 -2.523460e-001 9.643103e-003 -1.909269e-001 5.006933e-001 -1.548074e-002
<VARIANCE> 26
 1.156990e+001 3.502607e+001 7.185587e+001 1.817421e+001 3.835996e+001 5.881665e+001 3.137690e+001 3.459541e+001 3.857346e+001 2.012925e+001 2.722256e+001 2.368262e+001 5.000000e-002 6.669292e-001 2.024251e+000 2.900922e+000 1.733851e+000 2.403611e+000 2.798133e+000 2.225584e+000 2.538933e+000 1.852940e+000 1.647171e+000 1.944621e+000 2.004440e+000 5.000000e-002
<GCONST> 9.083672e+001
<STATE> 4
<MEAN> 26
 -5.364137e+000 -5.261145e+000 2.261281e+000 -7.959800e+000 -1.237451e+001 -4.636824e+000 -5.514530e+000 1.022002e+000 -3.350021e+000 -3.963783e-002 -3.950217e+000 -1.043319e+000 6.197280e-001 -2.245301e+000 1.826593e+000 -8.713782e-001 1.028919e+000 2.381774e+000 4.340217e-002 1.351104e+000 -1.194564e+000 3.049048e-001 2.139476e-002 2.260054e-001 2.692858e-001 -7.312943e-002
<VARIANCE> 26
 3.744102e+001 3.717603e+001 6.080437e+001 3.610754e+001 6.792094e+001 5.089083e+001 4.724582e+001 4.080236e+001 4.700815e+001 3.636795e+001 2.649531e+001 1.812718e+001 5.000000e-002 4.884672e+000 3.215805e+000 5.280223e+000 3.826206e+000 5.592974e+000 4.398512e+000 5.022749e+000 3.855931e+000 6.055578e+000 3.255538e+000 2.471607e+000 1.742388e+000 5.000000e-002
<GCONST> 1.024243e+002
<TRANSP> 5
 0.000000e+000 1.000000e+000 0.000000e+000 0.000000e+000 0.000000e+000
 0.000000e+000 7.321499e-001 2.678501e-001 0.000000e+000 0.000000e+000
 0.000000e+000 0.000000e+000 7.186214e-001 2.813786e-001 0.000000e+000
 0.000000e+000 0.000000e+000 0.000000e+000 6.189564e-001 3.810436e-001
 0.000000e+000 0.000000e+000 0.000000e+000 0.000000e+000 0.000000e+000
<ENDHMM>
