~h "ah"
<BEGINHMM>
<NUMSTATES> 5
<STATE> 2
<MEAN> 39
 -1.054866e+001 -1.585786e+000 1.532635e+000 4.898661e-002 2.591187e+000 -4.188194e+000 1.650425e+000 3.584352e+000 -8.082810e-001 -5.242408e-001 9.521774e-001 -2.066207e-001 6.765821e+001 -9.893719e-004 4.370896e-003 2.936753e-003 2.220659e-004 -1.452296e-003 2.421478e-003 2.489385e-003 -1.808583e-003 5.971932e-003 7.519505e-003 2.081149e-003 -2.299958e-003 -4.203989e-003 -3.621638e-004 -1.582598e-004 1.881931e-006 5.654030e-005 1.692552e-004 -8.328774e-005 3.929678e-005 4.017694e-004 -1.114904e-004 -2.048553e-004 -4.068760e-004 -2.945460e-004 3.621318e-005
<VARIANCE> 39
 9.135812e+001 2.887483e+001 4.226160e+001 6.238170e+001 6.069485e+001 9.299902e+001 3.194183e+001 4.381314e+001 5.450549e+001 3.285281e+001 2.566368e+001 2.867520e+001 1.318052e+002 2.569712e+000 1.521167e+000 1.581442e+000 2.587913e+000 2.205244e+000 3.263843e+000 1.867969e+000 2.134392e+000 2.626611e+000 1.814599e+000 1.585299e+000 1.594031e+000 2.266492e+000 3.224897e-001 2.537074e-001 2.677446e-001 3.972005e-001 3.461457e-001 4.922199e-001 3.355976e-001 3.652808e-001 4.410312e-001 3.359493e-001 2.872582e-001 2.768144e-001 3.396754e-001
<GCONST> 1.175893e+002
<STATE> 3
<MEAN> 39
 -1.054866e+001 -1.585786e+000 1.532635e+000 4.898661e-002 2.591187e+000 -4.188194e+000 1.650425e+000 3.584352e+000 -8.082810e-001 -5.242408e-001 9.521774e-001 -2.066207e-001 6.765821e+001 -9.893719e-004 4.370896e-003 2.936753e-003 2.220659e-004 -1.452296e-003 2.421478e-003 2.489385e-003 -1.808583e-003 5.971932e-003 7.519505e-003 2.081149e-003 -2.299958e-003 -4.203989e-003 -3.621638e-004 -1.582598e-004 1.881931e-006 5.654030e-005 1.692552e-004 -8.328774e-005 3.929678e-005 4.017694e-004 -1.114904e-004 -2.048553e-004 -4.068760e-004 -2.945460e-004 3.621318e-005
<VARIANCE> 39
 9.135812e+001 2.887483e+001 4.226160e+001 6.238170e+001 6.069485e+001 9.299902e+001 3.194183e+001 4.381314e+001 5.450549e+001 3.285281e+001 2.566368e+001 2.867520e+001 1.318052e+002 2.569712e+000 1.521167e+000 1.581442e+000 2.587913e+000 2.205244e+000 3.263843e+000 1.867969e+000 2.134392e+000 2.626611e+000 1.814599e+000 1.585299e+000 1.594031e+000 2.266492e+000 3.224897e-001 2.537074e-001 2.677446e-001 3.972005e-001 3.461457e-001 4.922199e-001 3.355976e-001 3.652808e-001 4.410312e-001 3.359493e-001 2.872582e-001 2.768144e-001 3.396754e-001
<GCONST> 1.175893e+002
<STATE> 4
<MEAN> 39
 -1.054866e+001 -1.585786e+000 1.532635e+000 4.898661e-002 2.591187e+000 -4.188194e+000 1.650425e+000 3.584352e+000 -8.082810e-001 -5.242408e-001 9.521774e-001 -2.066207e-001 6.765821e+001 -9.893719e-004 4.370896e-003 2.936753e-003 2.220659e-004 -1.452296e-003 2.421478e-003 2.489385e-003 -1.808583e-003 5.971932e-003 7.519505e-003 2.081149e-003 -2.299958e-003 -4.203989e-003 -3.621638e-004 -1.582598e-004 1.881931e-006 5.654030e-005 1.692552e-004 -8.328774e-005 3.929678e-005 4.017694e-004 -1.114904e-004 -2.048553e-004 -4.068760e-004 -2.945460e-004 3.621318e-005
<VARIANCE> 39
 9.135812e+001 2.887483e+001 4.226160e+001 6.238170e+001 6.069485e+001 9.299902e+001 3.194183e+001 4.381314e+001 5.450549e+001 3.285281e+001 2.566368e+001 2.867520e+001 1.318052e+002 2.569712e+000 1.521167e+000 1.581442e+000 2.587913e+000 2.205244e+000 3.263843e+000 1.867969e+000 2.134392e+000 2.626611e+000 1.814599e+000 1.585299e+000 1.594031e+000 2.266492e+000 3.224897e-001 2.537074e-001 2.677446e-001 3.972005e-001 3.461457e-001 4.922199e-001 3.355976e-001 3.652808e-001 4.410312e-001 3.359493e-001 2.872582e-001 2.768144e-001 3.396754e-001
<GCONST> 1.175893e+002
<TRANSP> 5
 0.000000e+000 1.000000e+000 0.000000e+000 0.000000e+000 0.000000e+000
 0.000000e+000 6.000000e-001 4.000000e-001 0.000000e+000 0.000000e+000
 0.000000e+000 0.000000e+000 6.000000e-001 4.000000e-001 0.000000e+000
 0.000000e+000 0.000000e+000 0.000000e+000 7.000000e-001 3.000000e-001
 0.000000e+000 0.000000e+000 0.000000e+000 0.000000e+000 0.000000e+000
<ENDHMM>
~h "ax"
<BEGINHMM>
<NUMSTATES> 5
<STATE> 2
<MEAN> 39
 -1.054866e+001 -1.585786e+000 1.532635e+000 4.898661e-002 2.591187e+000 -4.188194e+000 1.650425e+000 3.584352e+000 -8.082810e-001 -5.242408e-001 9.521774e-001 -2.066207e-001 6.765821e+001 -9.893719e-004 4.370896e-003 2.936753e-003 2.220659e-004 -1.452296e-003 2.421478e-003 2.489385e-003 -1.808583e-003 5.971932e-003 7.519505e-003 2.081149e-003 -2.299958e-003 -4.203989e-003 -3.621638e-004 -1.582598e-004 1.881931e-006 5.654030e-005 1.692552e-004 -8.328774e-005 3.929678e-005 4.017694e-004 -1.114904e-004 -2.048553e-004 -4.068760e-004 -2.945460e-004 3.621318e-005
<VARIANCE> 39
 9.135812e+001 2.887483e+001 4.226160e+001 6.238170e+001 6.069485e+001 9.299902e+001 3.194183e+001 4.381314e+001 5.450549e+001 3.285281e+001 2.566368e+001 2.867520e+001 1.318052e+002 2.569712e+000 1.521167e+000 1.581442e+000 2.587913e+000 2.205244e+000 3.263843e+000 1.867969e+000 2.134392e+000 2.626611e+000 1.814599e+000 1.585299e+000 1.594031e+000 2.266492e+000 3.224897e-001 2.537074e-001 2.677446e-001 3.972005e-001 3.461457e-001 4.922199e-001 3.355976e-001 3.652808e-001 4.410312e-001 3.359493e-001 2.872582e-001 2.768144e-001 3.396754e-001
<GCONST> 1.175893e+002
<STATE> 3
<MEAN> 39
 -1.054866e+001 -1.585786e+000 1.532635e+000 4.898661e-002 2.591187e+000 -4.188194e+000 1.650425e+000 3.584352e+000 -8.082810e-001 -5.242408e-001 9.521774e-001 -2.066207e-001 6.765821e+001 -9.893719e-004 4.370896e-003 2.936753e-003 2.220659e-004 -1.452296e-003 2.421478e-003 2.489385e-003 -1.808583e-003 5.971932e-003 7.519505e-003 2.081149e-003 -2.299958e-003 -4.203989e-003 -3.621638e-004 -1.582598e-004 1.881931e-006 5.654030e-005 1.692552e-004 -8.328774e-005 3.929678e-005 4.017694e-004 -1.114904e-004 -2.048553e-004 -4.068760e-004 -2.945460e-004 3.621318e-005
<VARIANCE> 39
 9.135812e+001 2.887483e+001 4.226160e+001 6.238170e+001 6.069485e+001 9.299902e+001 3.194183e+001 4.381314e+001 5.450549e+001 3.285281e+001 2.566368e+001 2.867520e+001 1.318052e+002 2.569712e+000 1.521167e+000 1.581442e+000 2.587913e+000 2.205244e+000 3.263843e+000 1.867969e+000 2.134392e+000 2.626611e+000 1.814599e+000 1.585299e+000 1.594031e+000 2.266492e+000 3.224897e-001 2.537074e-001 2.677446e-001 3.972005e-001 3.461457e-001 4.922199e-001 3.355976e-001 3.652808e-001 4.410312e-001 3.359493e-001 2.872582e-001 2.768144e-001 3.396754e-001
<GCONST> 1.175893e+002
<STATE> 4
<MEAN> 39
 -1.054866e+001 -1.585786e+000 1.532635e+000 4.898661e-002 2.591187e+000 -4.188194e+000 1.650425e+000 3.584352e+000 -8.082810e-001 -5.242408e-001 9.521774e-001 -2.066207e-001 6.765821e+001 -9.893719e-004 4.370896e-003 2.936753e-003 2.220659e-004 -1.452296e-003 2.421478e-003 2.489385e-003 -1.808583e-003 5.971932e-003 7.519505e-003 2.081149e-003 -2.299958e-003 -4.203989e-003 -3.621638e-004 -1.582598e-004 1.881931e-006 5.654030e-005 1.692552e-004 -8.328774e-005 3.929678e-005 4.017694e-004 -1.114904e-004 -2.048553e-004 -4.068760e-004 -2.945460e-004 3.621318e-005
<VARIANCE> 39
 9.135812e+001 2.887483e+001 4.226160e+001 6.238170e+001 6.069485e+001 9.299902e+001 3.194183e+001 4.381314e+001 5.450549e+001 3.285281e+001 2.566368e+001 2.867520e+001 1.318052e+002 2.569712e+000 1.521167e+000 1.581442e+000 2.587913e+000 2.205244e+000 3.263843e+000 1.867969e+000 2.134392e+000 2.626611e+000 1.814599e+000 1.585299e+000 1.594031e+000 2.266492e+000 3.224897e-001 2.537074e-001 2.677446e-001 3.972005e-001 3.461457e-001 4.922199e-001 3.355976e-001 3.652808e-001 4.410312e-001 3.359493e-001 2.872582e-001 2.768144e-001 3.396754e-001
<GCONST> 1.175893e+002
<TRANSP> 5
 0.000000e+000 1.000000e+000 0.000000e+000 0.000000e+000 0.000000e+000
 0.000000e+000 6.000000e-001 4.000000e-001 0.000000e+000 0.000000e+000
 0.000000e+000 0.000000e+000 6.000000e-001 4.000000e-001 0.000000e+000
 0.000000e+000 0.000000e+000 0.000000e+000 7.000000e-001 3.000000e-001
 0.000000e+000 0.000000e+000 0.000000e+000 0.000000e+000 0.000000e+000
<ENDHMM>
~h "ey"
<BEGINHMM>
<NUMSTATES> 5
<STATE> 2
<MEAN> 39
 -1.054866e+001 -1.585786e+000 1.532635e+000 4.898661e-002 2.591187e+000 -4.188194e+000 1.650425e+000 3.584352e+000 -8.082810e-001 -5.242408e-001 9.521774e-001 -2.066207e-001 6.765821e+001 -9.893719e-004 4.370896e-003 2.936753e-003 2.220659e-004 -1.452296e-003 2.421478e-003 2.489385e-003 -1.808583e-003 5.971932e-003 7.519505e-003 2.081149e-003 -2.299958e-003 -4.203989e-003 -3.621638e-004 -1.582598e-004 1.881931e-006 5.654030e-005 1.692552e-004 -8.328774e-005 3.929678e-005 4.017694e-004 -1.114904e-004 -2.048553e-004 -4.068760e-004 -2.945460e-004 3.621318e-005
<VARIANCE> 39
 9.135812e+001 2.887483e+001 4.226160e+001 6.238170e+001 6.069485e+001 9.299902e+001 3.194183e+001 4.381314e+001 5.450549e+001 3.285281e+001 2.566368e+001 2.867520e+001 1.318052e+002 2.569712e+000 1.521167e+000 1.581442e+000 2.587913e+000 2.205244e+000 3.263843e+000 1.867969e+000 2.134392e+000 2.626611e+000 1.814599e+000 1.585299e+000 1.594031e+000 2.266492e+000 3.224897e-001 2.537074e-001 2.677446e-001 3.972005e-001 3.461457e-001 4.922199e-001 3.355976e-001 3.652808e-001 4.410312e-001 3.359493e-001 2.872582e-001 2.768144e-001 3.396754e-001
<GCONST> 1.175893e+002
<STATE> 3
<MEAN> 39
 -1.054866e+001 -1.585786e+000 1.532635e+000 4.898661e-002 2.591187e+000 -4.188194e+000 1.650425e+000 3.584352e+000 -8.082810e-001 -5.242408e-001 9.521774e-001 -2.066207e-001 6.765821e+001 -9.893719e-004 4.370896e-003 2.936753e-003 2.220659e-004 -1.452296e-003 2.421478e-003 2.489385e-003 -1.808583e-003 5.971932e-003 7.519505e-003 2.081149e-003 -2.299958e-003 -4.203989e-003 -3.621638e-004 -1.582598e-004 1.881931e-006 5.654030e-005 1.692552e-004 -8.328774e-005 3.929678e-005 4.017694e-004 -1.114904e-004 -2.048553e-004 -4.068760e-004 -2.945460e-004 3.621318e-005
<VARIANCE> 39
 9.135812e+001 2.887483e+001 4.226160e+001 6.238170e+001 6.069485e+001 9.299902e+001 3.194183e+001 4.381314e+001 5.450549e+001 3.285281e+001 2.566368e+001 2.867520e+001 1.318052e+002 2.569712e+000 1.521167e+000 1.581442e+000 2.587913e+000 2.205244e+000 3.263843e+000 1.867969e+000 2.134392e+000 2.626611e+000 1.814599e+000 1.585299e+000 1.594031e+000 2.266492e+000 3.224897e-001 2.537074e-001 2.677446e-001 3.972005e-001 3.461457e-001 4.922199e-001 3.355976e-001 3.652808e-001 4.410312e-001 3.359493e-001 2.872582e-001 2.768144e-001 3.396754e-001
<GCONST> 1.175893e+002
<STATE> 4
<MEAN> 39
 -1.054866e+001 -1.585786e+000 1.532635e+000 4.898661e-002 2.591187e+000 -4.188194e+000 1.650425e+000 3.584352e+000 -8.082810e-001 -5.242408e-001 9.521774e-001 -2.066207e-001 6.765821e+001 -9.893719e-004 4.370896e-003 2.936753e-003 2.220659e-004 -1.452296e-003 2.421478e-003 2.489385e-003 -1.808583e-003 5.971932e-003 7.519505e-003 2.081149e-003 -2.299958e-003 -4.203989e-003 -3.621638e-004 -1.582598e-004 1.881931e-006 5.654030e-005 1.692552e-004 -8.328774e-005 3.929678e-005 4.017694e-004 -1.114904e-004 -2.048553e-004 -4.068760e-004 -2.945460e-004 3.621318e-005
<VARIANCE> 39
 9.135812e+001 2.887483e+001 4.226160e+001 6.238170e+001 6.069485e+001 9.299902e+001 3.194183e+001 4.381314e+001 5.450549e+001 3.285281e+001 2.566368e+001 2.867520e+001 1.318052e+002 2.569712e+000 1.521167e+000 1.581442e+000 2.587913e+000 2.205244e+000 3.263843e+000 1.867969e+000 2.134392e+000 2.626611e+000 1.814599e+000 1.585299e+000 1.594031e+000 2.266492e+000 3.224897e-001 2.537074e-001 2.677446e-001 3.972005e-001 3.461457e-001 4.922199e-001 3.355976e-001 3.652808e-001 4.410312e-001 3.359493e-001 2.872582e-001 2.768144e-001 3.396754e-001
<GCONST> 1.175893e+002
<TRANSP> 5
 0.000000e+000 1.000000e+000 0.000000e+000 0.000000e+000 0.000000e+000
 0.000000e+000 6.000000e-001 4.000000e-001 0.000000e+000 0.000000e+000
 0.000000e+000 0.000000e+000 6.000000e-001 4.000000e-001 0.000000e+000
 0.000000e+000 0.000000e+000 0.000000e+000 7.000000e-001 3.000000e-001
 0.000000e+000 0.000000e+000 0.000000e+000 0.000000e+000 0.000000e+000
<ENDHMM>
~h "d"
<BEGINHMM>
<NUMSTATES> 5
<STATE> 2
<MEAN> 39
 -1.054866e+001 -1.585786e+000 1.532635e+000 4.898661e-002 2.591187e+000 -4.188194e+000 1.650425e+000 3.584352e+000 -8.082810e-001 -5.242408e-001 9.521774e-001 -2.066207e-001 6.765821e+001 -9.893719e-004 4.370896e-003 2.936753e-003 2.220659e-004 -1.452296e-003 2.421478e-003 2.489385e-003 -1.808583e-003 5.971932e-003 7.519505e-003 2.081149e-003 -2.299958e-003 -4.203989e-003 -3.621638e-004 -1.582598e-004 1.881931e-006 5.654030e-005 1.692552e-004 -8.328774e-005 3.929678e-005 4.017694e-004 -1.114904e-004 -2.048553e-004 -4.068760e-004 -2.945460e-004 3.621318e-005
<VARIANCE> 39
 9.135812e+001 2.887483e+001 4.226160e+001 6.238170e+001 6.069485e+001 9.299902e+001 3.194183e+001 4.381314e+001 5.450549e+001 3.285281e+001 2.566368e+001 2.867520e+001 1.318052e+002 2.569712e+000 1.521167e+000 1.581442e+000 2.587913e+000 2.205244e+000 3.263843e+000 1.867969e+000 2.134392e+000 2.626611e+000 1.814599e+000 1.585299e+000 1.594031e+000 2.266492e+000 3.224897e-001 2.537074e-001 2.677446e-001 3.972005e-001 3.461457e-001 4.922199e-001 3.355976e-001 3.652808e-001 4.410312e-001 3.359493e-001 2.872582e-001 2.768144e-001 3.396754e-001
<GCONST> 1.175893e+002
<STATE> 3
<MEAN> 39
 -1.054866e+001 -1.585786e+000 1.532635e+000 4.898661e-002 2.591187e+000 -4.188194e+000 1.650425e+000 3.584352e+000 -8.082810e-001 -5.242408e-001 9.521774e-001 -2.066207e-001 6.765821e+001 -9.893719e-004 4.370896e-003 2.936753e-003 2.220659e-004 -1.452296e-003 2.421478e-003 2.489385e-003 -1.808583e-003 5.971932e-003 7.519505e-003 2.081149e-003 -2.299958e-003 -4.203989e-003 -3.621638e-004 -1.582598e-004 1.881931e-006 5.654030e-005 1.692552e-004 -8.328774e-005 3.929678e-005 4.017694e-004 -1.114904e-004 -2.048553e-004 -4.068760e-004 -2.945460e-004 3.621318e-005
<VARIANCE> 39
 9.135812e+001 2.887483e+001 4.226160e+001 6.238170e+001 6.069485e+001 9.299902e+001 3.194183e+001 4.381314e+001 5.450549e+001 3.285281e+001 2.566368e+001 2.867520e+001 1.318052e+002 2.569712e+000 1.521167e+000 1.581442e+000 2.587913e+000 2.205244e+000 3.263843e+000 1.867969e+000 2.134392e+000 2.626611e+000 1.814599e+000 1.585299e+000 1.594031e+000 2.266492e+000 3.224897e-001 2.537074e-001 2.677446e-001 3.972005e-001 3.461457e-001 4.922199e-001 3.355976e-001 3.652808e-001 4.410312e-001 3.359493e-001 2.872582e-001 2.768144e-001 3.396754e-001
<GCONST> 1.175893e+002
<STATE> 4
<MEAN> 39
 -1.054866e+001 -1.585786e+000 1.532635e+000 4.898661e-002 2.591187e+000 -4.188194e+000 1.650425e+000 3.584352e+000 -8.082810e-001 -5.242408e-001 9.521774e-001 -2.066207e-001 6.765821e+001 -9.893719e-004 4.370896e-003 2.936753e-003 2.220659e-004 -1.452296e-003 2.421478e-003 2.489385e-003 -1.808583e-003 5.971932e-003 7.519505e-003 2.081149e-003 -2.299958e-003 -4.203989e-003 -3.621638e-004 -1.582598e-004 1.881931e-006 5.654030e-005 1.692552e-004 -8.328774e-005 3.929678e-005 4.017694e-004 -1.114904e-004 -2.048553e-004 -4.068760e-004 -2.945460e-004 3.621318e-005
<VARIANCE> 39
 9.135812e+001 2.887483e+001 4.226160e+001 6.238170e+001 6.069485e+001 9.299902e+001 3.194183e+001 4.381314e+001 5.450549e+001 3.285281e+001 2.566368e+001 2.867520e+001 1.318052e+002 2.569712e+000 1.521167e+000 1.581442e+000 2.587913e+000 2.205244e+000 3.263843e+000 1.867969e+000 2.134392e+000 2.626611e+000 1.814599e+000 1.585299e+000 1.594031e+000 2.266492e+000 3.224897e-001 2.537074e-001 2.677446e-001 3.972005e-001 3.461457e-001 4.922199e-001 3.355976e-001 3.652808e-001 4.410312e-001 3.359493e-001 2.872582e-001 2.768144e-001 3.396754e-001
<GCONST> 1.175893e+002
<TRANSP> 5
 0.000000e+000 1.000000e+000 0.000000e+000 0.000000e+000 0.000000e+000
 0.000000e+000 6.000000e-001 4.000000e-001 0.000000e+000 0.000000e+000
 0.000000e+000 0.000000e+000 6.000000e-001 4.000000e-001 0.000000e+000
 0.000000e+000 0.000000e+000 0.000000e+000 7.000000e-001 3.000000e-001
 0.000000e+000 0.000000e+000 0.000000e+000 0.000000e+000 0.000000e+000
<ENDHMM>
~h "r"
<BEGINHMM>
<NUMSTATES> 5
<STATE> 2
<MEAN> 39
 -1.054866e+001 -1.585786e+000 1.532635e+000 4.898661e-002 2.591187e+000 -4.188194e+000 1.650425e+000 3.584352e+000 -8.082810e-001 -5.242408e-001 9.521774e-001 -2.066207e-001 6.765821e+001 -9.893719e-004 4.370896e-003 2.936753e-003 2.220659e-004 -1.452296e-003 2.421478e-003 2.489385e-003 -1.808583e-003 5.971932e-003 7.519505e-003 2.081149e-003 -2.299958e-003 -4.203989e-003 -3.621638e-004 -1.582598e-004 1.881931e-006 5.654030e-005 1.692552e-004 -8.328774e-005 3.929678e-005 4.017694e-004 -1.114904e-004 -2.048553e-004 -4.068760e-004 -2.945460e-004 3.621318e-005
<VARIANCE> 39
 9.135812e+001 2.887483e+001 4.226160e+001 6.238170e+001 6.069485e+001 9.299902e+001 3.194183e+001 4.381314e+001 5.450549e+001 3.285281e+001 2.566368e+001 2.867520e+001 1.318052e+002 2.569712e+000 1.521167e+000 1.581442e+000 2.587913e+000 2.205244e+000 3.263843e+000 1.867969e+000 2.134392e+000 2.626611e+000 1.814599e+000 1.585299e+000 1.594031e+000 2.266492e+000 3.224897e-001 2.537074e-001 2.677446e-001 3.972005e-001 3.461457e-001 4.922199e-001 3.355976e-001 3.652808e-001 4.410312e-001 3.359493e-001 2.872582e-001 2.768144e-001 3.396754e-001
<GCONST> 1.175893e+002
<STATE> 3
<MEAN> 39
 -1.054866e+001 -1.585786e+000 1.532635e+000 4.898661e-002 2.591187e+000 -4.188194e+000 1.650425e+000 3.584352e+000 -8.082810e-001 -5.242408e-001 9.521774e-001 -2.066207e-001 6.765821e+001 -9.893719e-004 4.370896e-003 2.936753e-003 2.220659e-004 -1.452296e-003 2.421478e-003 2.489385e-003 -1.808583e-003 5.971932e-003 7.519505e-003 2.081149e-003 -2.299958e-003 -4.203989e-003 -3.621638e-004 -1.582598e-004 1.881931e-006 5.654030e-005 1.692552e-004 -8.328774e-005 3.929678e-005 4.017694e-004 -1.114904e-004 -2.048553e-004 -4.068760e-004 -2.945460e-004 3.621318e-005
<VARIANCE> 39
 9.135812e+001 2.887483e+001 4.226160e+001 6.238170e+001 6.069485e+001 9.299902e+001 3.194183e+001 4.381314e+001 5.450549e+001 3.285281e+001 2.566368e+001 2.867520e+001 1.318052e+002 2.569712e+000 1.521167e+000 1.581442e+000 2.587913e+000 2.205244e+000 3.263843e+000 1.867969e+000 2.134392e+000 2.626611e+000 1.814599e+000 1.585299e+000 1.594031e+000 2.266492e+000 3.224897e-001 2.537074e-001 2.677446e-001 3.972005e-001 3.461457e-001 4.922199e-001 3.355976e-001 3.652808e-001 4.410312e-001 3.359493e-001 2.872582e-001 2.768144e-001 3.396754e-001
<GCONST> 1.175893e+002
<STATE> 4
<MEAN> 39
 -1.054866e+001 -1.585786e+000 1.532635e+000 4.898661e-002 2.591187e+000 -4.188194e+000 1.650425e+000 3.584352e+000 -8.082810e-001 -5.242408e-001 9.521774e-001 -2.066207e-001 6.765821e+001 -9.893719e-004 4.370896e-003 2.936753e-003 2.220659e-004 -1.452296e-003 2.421478e-003 2.489385e-003 -1.808583e-003 5.971932e-003 7.519505e-003 2.081149e-003 -2.299958e-003 -4.203989e-003 -3.621638e-004 -1.582598e-004 1.881931e-006 5.654030e-005 1.692552e-004 -8.328774e-005 3.929678e-005 4.017694e-004 -1.114904e-004 -2.048553e-004 -4.068760e-004 -2.945460e-004 3.621318e-005
<VARIANCE> 39
 9.135812e+001 2.887483e+001 4.226160e+001 6.238170e+001 6.069485e+001 9.299902e+001 3.194183e+001 4.381314e+001 5.450549e+001 3.285281e+001 2.566368e+001 2.867520e+001 1.318052e+002 2.569712e+000 1.521167e+000 1.581442e+000 2.587913e+000 2.205244e+000 3.263843e+000 1.867969e+000 2.134392e+000 2.626611e+000 1.814599e+000 1.585299e+000 1.594031e+000 2.266492e+000 3.224897e-001 2.537074e-001 2.677446e-001 3.972005e-001 3.461457e-001 4.922199e-001 3.355976e-001 3.652808e-001 4.410312e-001 3.359493e-001 2.872582e-001 2.768144e-001 3.396754e-001
<GCONST> 1.175893e+002
<TRANSP> 5
 0.000000e+000 1.000000e+000 0.000000e+000 0.000000e+000 0.000000e+000
 0.000000e+000 6.000000e-001 4.000000e-001 0.000000e+000 0.000000e+000
 0.000000e+000 0.000000e+000 6.000000e-001 4.000000e-001 0.000000e+000
 0.000000e+000 0.000000e+000 0.000000e+000 7.000000e-001 3.000000e-001
 0.000000e+000 0.000000e+000 0.000000e+000 0.000000e+000 0.000000e+000
<ENDHMM>
~h "ia"
<BEGINHMM>
<NUMSTATES> 5
<STATE> 2
<MEAN> 39
 -1.054866e+001 -1.585786e+000 1.532635e+000 4.898661e-002 2.591187e+000 -4.188194e+000 1.650425e+000 3.584352e+000 -8.082810e-001 -5.242408e-001 9.521774e-001 -2.066207e-001 6.765821e+001 -9.893719e-004 4.370896e-003 2.936753e-003 2.220659e-004 -1.452296e-003 2.421478e-003 2.489385e-003 -1.808583e-003 5.971932e-003 7.519505e-003 2.081149e-003 -2.299958e-003 -4.203989e-003 -3.621638e-004 -1.582598e-004 1.881931e-006 5.654030e-005 1.692552e-004 -8.328774e-005 3.929678e-005 4.017694e-004 -1.114904e-004 -2.048553e-004 -4.068760e-004 -2.945460e-004 3.621318e-005
<VARIANCE> 39
 9.135812e+001 2.887483e+001 4.226160e+001 6.238170e+001 6.069485e+001 9.299902e+001 3.194183e+001 4.381314e+001 5.450549e+001 3.285281e+001 2.566368e+001 2.867520e+001 1.318052e+002 2.569712e+000 1.521167e+000 1.581442e+000 2.587913e+000 2.205244e+000 3.263843e+000 1.867969e+000 2.134392e+000 2.626611e+000 1.814599e+000 1.585299e+000 1.594031e+000 2.266492e+000 3.224897e-001 2.537074e-001 2.677446e-001 3.972005e-001 3.461457e-001 4.922199e-001 3.355976e-001 3.652808e-001 4.410312e-001 3.359493e-001 2.872582e-001 2.768144e-001 3.396754e-001
<GCONST> 1.175893e+002
<STATE> 3
<MEAN> 39
 -1.054866e+001 -1.585786e+000 1.532635e+000 4.898661e-002 2.591187e+000 -4.188194e+000 1.650425e+000 3.584352e+000 -8.082810e-001 -5.242408e-001 9.521774e-001 -2.066207e-001 6.765821e+001 -9.893719e-004 4.370896e-003 2.936753e-003 2.220659e-004 -1.452296e-003 2.421478e-003 2.489385e-003 -1.808583e-003 5.971932e-003 7.519505e-003 2.081149e-003 -2.299958e-003 -4.203989e-003 -3.621638e-004 -1.582598e-004 1.881931e-006 5.654030e-005 1.692552e-004 -8.328774e-005 3.929678e-005 4.017694e-004 -1.114904e-004 -2.048553e-004 -4.068760e-004 -2.945460e-004 3.621318e-005
<VARIANCE> 39
 9.135812e+001 2.887483e+001 4.226160e+001 6.238170e+001 6.069485e+001 9.299902e+001 3.194183e+001 4.381314e+001 5.450549e+001 3.285281e+001 2.566368e+001 2.867520e+001 1.318052e+002 2.569712e+000 1.521167e+000 1.581442e+000 2.587913e+000 2.205244e+000 3.263843e+000 1.867969e+000 2.134392e+000 2.626611e+000 1.814599e+000 1.585299e+000 1.594031e+000 2.266492e+000 3.224897e-001 2.537074e-001 2.677446e-001 3.972005e-001 3.461457e-001 4.922199e-001 3.355976e-001 3.652808e-001 4.410312e-001 3.359493e-001 2.872582e-001 2.768144e-001 3.396754e-001
<GCONST> 1.175893e+002
<STATE> 4
<MEAN> 39
 -1.054866e+001 -1.585786e+000 1.532635e+000 4.898661e-002 2.591187e+000 -4.188194e+000 1.650425e+000 3.584352e+000 -8.082810e-001 -5.242408e-001 9.521774e-001 -2.066207e-001 6.765821e+001 -9.893719e-004 4.370896e-003 2.936753e-003 2.220659e-004 -1.452296e-003 2.421478e-003 2.489385e-003 -1.808583e-003 5.971932e-003 7.519505e-003 2.081149e-003 -2.299958e-003 -4.203989e-003 -3.621638e-004 -1.582598e-004 1.881931e-006 5.654030e-005 1.692552e-004 -8.328774e-005 3.929678e-005 4.017694e-004 -1.114904e-004 -2.048553e-004 -4.068760e-004 -2.945460e-004 3.621318e-005
<VARIANCE> 39
 9.135812e+001 2.887483e+001 4.226160e+001 6.238170e+001 6.069485e+001 9.299902e+001 3.194183e+001 4.381314e+001 5.450549e+001 3.285281e+001 2.566368e+001 2.867520e+001 1.318052e+002 2.569712e+000 1.521167e+000 1.581442e+000 2.587913e+000 2.205244e+000 3.263843e+000 1.867969e+000 2.134392e+000 2.626611e+000 1.814599e+000 1.585299e+000 1.594031e+000 2.266492e+000 3.224897e-001 2.537074e-001 2.677446e-001 3.972005e-001 3.461457e-001 4.922199e-001 3.355976e-001 3.652808e-001 4.410312e-001 3.359493e-001 2.872582e-001 2.768144e-001 3.396754e-001
<GCONST> 1.175893e+002
<TRANSP> 5
 0.000000e+000 1.000000e+000 0.000000e+000 0.000000e+000 0.000000e+000
 0.000000e+000 6.000000e-001 4.000000e-001 0.000000e+000 0.000000e+000
 0.000000e+000 0.000000e+000 6.000000e-001 4.000000e-001 0.000000e+000
 0.000000e+000 0.000000e+000 0.000000e+000 7.000000e-001 3.000000e-001
 0.000000e+000 0.000000e+000 0.000000e+000 0.000000e+000 0.000000e+000
<ENDHMM>
~h "n"
<BEGINHMM>
<NUMSTATES> 5
<STATE> 2
<MEAN> 39
 -1.054866e+001 -1.585786e+000 1.532635e+000 4.898661e-002 2.591187e+000 -4.188194e+000 1.650425e+000 3.584352e+000 -8.082810e-001 -5.242408e-001 9.521774e-001 -2.066207e-001 6.765821e+001 -9.893719e-004 4.370896e-003 2.936753e-003 2.220659e-004 -1.452296e-003 2.421478e-003 2.489385e-003 -1.808583e-003 5.971932e-003 7.519505e-003 2.081149e-003 -2.299958e-003 -4.203989e-003 -3.621638e-004 -1.582598e-004 1.881931e-006 5.654030e-005 1.692552e-004 -8.328774e-005 3.929678e-005 4.017694e-004 -1.114904e-004 -2.048553e-004 -4.068760e-004 -2.945460e-004 3.621318e-005
<VARIANCE> 39
 9.135812e+001 2.887483e+001 4.226160e+001 6.238170e+001 6.069485e+001 9.299902e+001 3.194183e+001 4.381314e+001 5.450549e+001 3.285281e+001 2.566368e+001 2.867520e+001 1.318052e+002 2.569712e+000 1.521167e+000 1.581442e+000 2.587913e+000 2.205244e+000 3.263843e+000 1.867969e+000 2.134392e+000 2.626611e+000 1.814599e+000 1.585299e+000 1.594031e+000 2.266492e+000 3.224897e-001 2.537074e-001 2.677446e-001 3.972005e-001 3.461457e-001 4.922199e-001 3.355976e-001 3.652808e-001 4.410312e-001 3.359493e-001 2.872582e-001 2.768144e-001 3.396754e-001
<GCONST> 1.175893e+002
<STATE> 3
<MEAN> 39
 -1.054866e+001 -1.585786e+000 1.532635e+000 4.898661e-002 2.591187e+000 -4.188194e+000 1.650425e+000 3.584352e+000 -8.082810e-001 -5.242408e-001 9.521774e-001 -2.066207e-001 6.765821e+001 -9.893719e-004 4.370896e-003 2.936753e-003 2.220659e-004 -1.452296e-003 2.421478e-003 2.489385e-003 -1.808583e-003 5.971932e-003 7.519505e-003 2.081149e-003 -2.299958e-003 -4.203989e-003 -3.621638e-004 -1.582598e-004 1.881931e-006 5.654030e-005 1.692552e-004 -8.328774e-005 3.929678e-005 4.017694e-004 -1.114904e-004 -2.048553e-004 -4.068760e-004 -2.945460e-004 3.621318e-005
<VARIANCE> 39
 9.135812e+001 2.887483e+001 4.226160e+001 6.238170e+001 6.069485e+001 9.299902e+001 3.194183e+001 4.381314e+001 5.450549e+001 3.285281e+001 2.566368e+001 2.867520e+001 1.318052e+002 2.569712e+000 1.521167e+000 1.581442e+000 2.587913e+000 2.205244e+000 3.263843e+000 1.867969e+000 2.134392e+000 2.626611e+000 1.814599e+000 1.585299e+000 1.594031e+000 2.266492e+000 3.224897e-001 2.537074e-001 2.677446e-001 3.972005e-001 3.461457e-001 4.922199e-001 3.355976e-001 3.652808e-001 4.410312e-001 3.359493e-001 2.872582e-001 2.768144e-001 3.396754e-001
<GCONST> 1.175893e+002
<STATE> 4
<MEAN> 39
 -1.054866e+001 -1.585786e+000 1.532635e+000 4.898661e-002 2.591187e+000 -4.188194e+000 1.650425e+000 3.584352e+000 -8.082810e-001 -5.242408e-001 9.521774e-001 -2.066207e-001 6.765821e+001 -9.893719e-004 4.370896e-003 2.936753e-003 2.220659e-004 -1.452296e-003 2.421478e-003 2.489385e-003 -1.808583e-003 5.971932e-003 7.519505e-003 2.081149e-003 -2.299958e-003 -4.203989e-003 -3.621638e-004 -1.582598e-004 1.881931e-006 5.654030e-005 1.692552e-004 -8.328774e-005 3.929678e-005 4.017694e-004 -1.114904e-004 -2.048553e-004 -4.068760e-004 -2.945460e-004 3.621318e-005
<VARIANCE> 39
 9.135812e+001 2.887483e+001 4.226160e+001 6.238170e+001 6.069485e+001 9.299902e+001 3.194183e+001 4.381314e+001 5.450549e+001 3.285281e+001 2.566368e+001 2.867520e+001 1.318052e+002 2.569712e+000 1.521167e+000 1.581442e+000 2.587913e+000 2.205244e+000 3.263843e+000 1.867969e+000 2.134392e+000 2.626611e+000 1.814599e+000 1.585299e+000 1.594031e+000 2.266492e+000 3.224897e-001 2.537074e-001 2.677446e-001 3.972005e-001 3.461457e-001 4.922199e-001 3.355976e-001 3.652808e-001 4.410312e-001 3.359493e-001 2.872582e-001 2.768144e-001 3.396754e-001
<GCONST> 1.175893e+002
<TRANSP> 5
 0.000000e+000 1.000000e+000 0.000000e+000 0.000000e+000 0.000000e+000
 0.000000e+000 6.000000e-001 4.000000e-001 0.000000e+000 0.000000e+000
 0.000000e+000 0.000000e+000 6.000000e-001 4.000000e-001 0.000000e+000
 0.000000e+000 0.000000e+000 0.000000e+000 7.000000e-001 3.000000e-001
 0.000000e+000 0.000000e+000 0.000000e+000 0.000000e+000 0.000000e+000
<ENDHMM>
~h "ea"
<BEGINHMM>
<NUMSTATES> 5
<STATE> 2
<MEAN> 39
 -1.054866e+001 -1.585786e+000 1.532635e+000 4.898661e-002 2.591187e+000 -4.188194e+000 1.650425e+000 3.584352e+000 -8.082810e-001 -5.242408e-001 9.521774e-001 -2.066207e-001 6.765821e+001 -9.893719e-004 4.370896e-003 2.936753e-003 2.220659e-004 -1.452296e-003 2.421478e-003 2.489385e-003 -1.808583e-003 5.971932e-003 7.519505e-003 2.081149e-003 -2.299958e-003 -4.203989e-003 -3.621638e-004 -1.582598e-004 1.881931e-006 5.654030e-005 1.692552e-004 -8.328774e-005 3.929678e-005 4.017694e-004 -1.114904e-004 -2.048553e-004 -4.068760e-004 -2.945460e-004 3.621318e-005
<VARIANCE> 39
 9.135812e+001 2.887483e+001 4.226160e+001 6.238170e+001 6.069485e+001 9.299902e+001 3.194183e+001 4.381314e+001 5.450549e+001 3.285281e+001 2.566368e+001 2.867520e+001 1.318052e+002 2.569712e+000 1.521167e+000 1.581442e+000 2.587913e+000 2.205244e+000 3.263843e+000 1.867969e+000 2.134392e+000 2.626611e+000 1.814599e+000 1.585299e+000 1.594031e+000 2.266492e+000 3.224897e-001 2.537074e-001 2.677446e-001 3.972005e-001 3.461457e-001 4.922199e-001 3.355976e-001 3.652808e-001 4.410312e-001 3.359493e-001 2.872582e-001 2.768144e-001 3.396754e-001
<GCONST> 1.175893e+002
<STATE> 3
<MEAN> 39
 -1.054866e+001 -1.585786e+000 1.532635e+000 4.898661e-002 2.591187e+000 -4.188194e+000 1.650425e+000 3.584352e+000 -8.082810e-001 -5.242408e-001 9.521774e-001 -2.066207e-001 6.765821e+001 -9.893719e-004 4.370896e-003 2.936753e-003 2.220659e-004 -1.452296e-003 2.421478e-003 2.489385e-003 -1.808583e-003 5.971932e-003 7.519505e-003 2.081149e-003 -2.299958e-003 -4.203989e-003 -3.621638e-004 -1.582598e-004 1.881931e-006 5.654030e-005 1.692552e-004 -8.328774e-005 3.929678e-005 4.017694e-004 -1.114904e-004 -2.048553e-004 -4.068760e-004 -2.945460e-004 3.621318e-005
<VARIANCE> 39
 9.135812e+001 2.887483e+001 4.226160e+001 6.238170e+001 6.069485e+001 9.299902e+001 3.194183e+001 4.381314e+001 5.450549e+001 3.285281e+001 2.566368e+001 2.867520e+001 1.318052e+002 2.569712e+000 1.521167e+000 1.581442e+000 2.587913e+000 2.205244e+000 3.263843e+000 1.867969e+000 2.134392e+000 2.626611e+000 1.814599e+000 1.585299e+000 1.594031e+000 2.266492e+000 3.224897e-001 2.537074e-001 2.677446e-001 3.972005e-001 3.461457e-001 4.922199e-001 3.355976e-001 3.652808e-001 4.410312e-001 3.359493e-001 2.872582e-001 2.768144e-001 3.396754e-001
<GCONST> 1.175893e+002
<STATE> 4
<MEAN> 39
 -1.054866e+001 -1.585786e+000 1.532635e+000 4.898661e-002 2.591187e+000 -4.188194e+000 1.650425e+000 3.584352e+000 -8.082810e-001 -5.242408e-001 9.521774e-001 -2.066207e-001 6.765821e+001 -9.893719e-004 4.370896e-003 2.936753e-003 2.220659e-004 -1.452296e-003 2.421478e-003 2.489385e-003 -1.808583e-003 5.971932e-003 7.519505e-003 2.081149e-003 -2.299958e-003 -4.203989e-003 -3.621638e-004 -1.582598e-004 1.881931e-006 5.654030e-005 1.692552e-004 -8.328774e-005 3.929678e-005 4.017694e-004 -1.114904e-004 -2.048553e-004 -4.068760e-004 -2.945460e-004 3.621318e-005
<VARIANCE> 39
 9.135812e+001 2.887483e+001 4.226160e+001 6.238170e+001 6.069485e+001 9.299902e+001 3.194183e+001 4.381314e+001 5.450549e+001 3.285281e+001 2.566368e+001 2.867520e+001 1.318052e+002 2.569712e+000 1.521167e+000 1.581442e+000 2.587913e+000 2.205244e+000 3.263843e+000 1.867969e+000 2.134392e+000 2.626611e+000 1.814599e+000 1.585299e+000 1.594031e+000 2.266492e+000 3.224897e-001 2.537074e-001 2.677446e-001 3.972005e-001 3.461457e-001 4.922199e-001 3.355976e-001 3.652808e-001 4.410312e-001 3.359493e-001 2.872582e-001 2.768144e-001 3.396754e-001
<GCONST> 1.175893e+002
<TRANSP> 5
 0.000000e+000 1.000000e+000 0.000000e+000 0.000000e+000 0.000000e+000
 0.000000e+000 6.000000e-001 4.000000e-001 0.000000e+000 0.000000e+000
 0.000000e+000 0.000000e+000 6.000000e-001 4.000000e-001 0.000000e+000
 0.000000e+000 0.000000e+000 0.000000e+000 7.000000e-001 3.000000e-001
 0.000000e+000 0.000000e+000 0.000000e+000 0.000000e+000 0.000000e+000
<ENDHMM>
~h "ae"
<BEGINHMM>
<NUMSTATES> 5
<STATE> 2
<MEAN> 39
 -1.054866e+001 -1.585786e+000 1.532635e+000 4.898661e-002 2.591187e+000 -4.188194e+000 1.650425e+000 3.584352e+000 -8.082810e-001 -5.242408e-001 9.521774e-001 -2.066207e-001 6.765821e+001 -9.893719e-004 4.370896e-003 2.936753e-003 2.220659e-004 -1.452296e-003 2.421478e-003 2.489385e-003 -1.808583e-003 5.971932e-003 7.519505e-003 2.081149e-003 -2.299958e-003 -4.203989e-003 -3.621638e-004 -1.582598e-004 1.881931e-006 5.654030e-005 1.692552e-004 -8.328774e-005 3.929678e-005 4.017694e-004 -1.114904e-004 -2.048553e-004 -4.068760e-004 -2.945460e-004 3.621318e-005
<VARIANCE> 39
 9.135812e+001 2.887483e+001 4.226160e+001 6.238170e+001 6.069485e+001 9.299902e+001 3.194183e+001 4.381314e+001 5.450549e+001 3.285281e+001 2.566368e+001 2.867520e+001 1.318052e+002 2.569712e+000 1.521167e+000 1.581442e+000 2.587913e+000 2.205244e+000 3.263843e+000 1.867969e+000 2.134392e+000 2.626611e+000 1.814599e+000 1.585299e+000 1.594031e+000 2.266492e+000 3.224897e-001 2.537074e-001 2.677446e-001 3.972005e-001 3.461457e-001 4.922199e-001 3.355976e-001 3.652808e-001 4.410312e-001 3.359493e-001 2.872582e-001 2.768144e-001 3.396754e-001
<GCONST> 1.175893e+002
<STATE> 3
<MEAN> 39
 -1.054866e+001 -1.585786e+000 1.532635e+000 4.898661e-002 2.591187e+000 -4.188194e+000 1.650425e+000 3.584352e+000 -8.082810e-001 -5.242408e-001 9.521774e-001 -2.066207e-001 6.765821e+001 -9.893719e-004 4.370896e-003 2.936753e-003 2.220659e-004 -1.452296e-003 2.421478e-003 2.489385e-003 -1.808583e-003 5.971932e-003 7.519505e-003 2.081149e-003 -2.299958e-003 -4.203989e-003 -3.621638e-004 -1.582598e-004 1.881931e-006 5.654030e-005 1.692552e-004 -8.328774e-005 3.929678e-005 4.017694e-004 -1.114904e-004 -2.048553e-004 -4.068760e-004 -2.945460e-004 3.621318e-005
<VARIANCE> 39
 9.135812e+001 2.887483e+001 4.226160e+001 6.238170e+001 6.069485e+001 9.299902e+001 3.194183e+001 4.381314e+001 5.450549e+001 3.285281e+001 2.566368e+001 2.867520e+001 1.318052e+002 2.569712e+000 1.521167e+000 1.581442e+000 2.587913e+000 2.205244e+000 3.263843e+000 1.867969e+000 2.134392e+000 2.626611e+000 1.814599e+000 1.585299e+000 1.594031e+000 2.266492e+000 3.224897e-001 2.537074e-001 2.677446e-001 3.972005e-001 3.461457e-001 4.922199e-001 3.355976e-001 3.652808e-001 4.410312e-001 3.359493e-001 2.872582e-001 2.768144e-001 3.396754e-001
<GCONST> 1.175893e+002
<STATE> 4
<MEAN> 39
 -1.054866e+001 -1.585786e+000 1.532635e+000 4.898661e-002 2.591187e+000 -4.188194e+000 1.650425e+000 3.584352e+000 -8.082810e-001 -5.242408e-001 9.521774e-001 -2.066207e-001 6.765821e+001 -9.893719e-004 4.370896e-003 2.936753e-003 2.220659e-004 -1.452296e-003 2.421478e-003 2.489385e-003 -1.808583e-003 5.971932e-003 7.519505e-003 2.081149e-003 -2.299958e-003 -4.203989e-003 -3.621638e-004 -1.582598e-004 1.881931e-006 5.654030e-005 1.692552e-004 -8.328774e-005 3.929678e-005 4.017694e-004 -1.114904e-004 -2.048553e-004 -4.068760e-004 -2.945460e-004 3.621318e-005
<VARIANCE> 39
 9.135812e+001 2.887483e+001 4.226160e+001 6.238170e+001 6.069485e+001 9.299902e+001 3.194183e+001 4.381314e+001 5.450549e+001 3.285281e+001 2.566368e+001 2.867520e+001 1.318052e+002 2.569712e+000 1.521167e+000 1.581442e+000 2.587913e+000 2.205244e+000 3.263843e+000 1.867969e+000 2.134392e+000 2.626611e+000 1.814599e+000 1.585299e+000 1.594031e+000 2.266492e+000 3.224897e-001 2.537074e-001 2.677446e-001 3.972005e-001 3.461457e-001 4.922199e-001 3.355976e-001 3.652808e-001 4.410312e-001 3.359493e-001 2.872582e-001 2.768144e-001 3.396754e-001
<GCONST> 1.175893e+002
<TRANSP> 5
 0.000000e+000 1.000000e+000 0.000000e+000 0.000000e+000 0.000000e+000
 0.000000e+000 6.000000e-001 4.000000e-001 0.000000e+000 0.000000e+000
 0.000000e+000 0.000000e+000 6.000000e-001 4.000000e-001 0.000000e+000
 0.000000e+000 0.000000e+000 0.000000e+000 7.000000e-001 3.000000e-001
 0.000000e+000 0.000000e+000 0.000000e+000 0.000000e+000 0.000000e+000
<ENDHMM>
~h "jh"
<BEGINHMM>
<NUMSTATES> 5
<STATE> 2
<MEAN> 39
 -1.054866e+001 -1.585786e+000 1.532635e+000 4.898661e-002 2.591187e+000 -4.188194e+000 1.650425e+000 3.584352e+000 -8.082810e-001 -5.242408e-001 9.521774e-001 -2.066207e-001 6.765821e+001 -9.893719e-004 4.370896e-003 2.936753e-003 2.220659e-004 -1.452296e-003 2.421478e-003 2.489385e-003 -1.808583e-003 5.971932e-003 7.519505e-003 2.081149e-003 -2.299958e-003 -4.203989e-003 -3.621638e-004 -1.582598e-004 1.881931e-006 5.654030e-005 1.692552e-004 -8.328774e-005 3.929678e-005 4.017694e-004 -1.114904e-004 -2.048553e-004 -4.068760e-004 -2.945460e-004 3.621318e-005
<VARIANCE> 39
 9.135812e+001 2.887483e+001 4.226160e+001 6.238170e+001 6.069485e+001 9.299902e+001 3.194183e+001 4.381314e+001 5.450549e+001 3.285281e+001 2.566368e+001 2.867520e+001 1.318052e+002 2.569712e+000 1.521167e+000 1.581442e+000 2.587913e+000 2.205244e+000 3.263843e+000 1.867969e+000 2.134392e+000 2.626611e+000 1.814599e+000 1.585299e+000 1.594031e+000 2.266492e+000 3.224897e-001 2.537074e-001 2.677446e-001 3.972005e-001 3.461457e-001 4.922199e-001 3.355976e-001 3.652808e-001 4.410312e-001 3.359493e-001 2.872582e-001 2.768144e-001 3.396754e-001
<GCONST> 1.175893e+002
<STATE> 3
<MEAN> 39
 -1.054866e+001 -1.585786e+000 1.532635e+000 4.898661e-002 2.591187e+000 -4.188194e+000 1.650425e+000 3.584352e+000 -8.082810e-001 -5.242408e-001 9.521774e-001 -2.066207e-001 6.765821e+001 -9.893719e-004 4.370896e-003 2.936753e-003 2.220659e-004 -1.452296e-003 2.421478e-003 2.489385e-003 -1.808583e-003 5.971932e-003 7.519505e-003 2.081149e-003 -2.299958e-003 -4.203989e-003 -3.621638e-004 -1.582598e-004 1.881931e-006 5.654030e-005 1.692552e-004 -8.328774e-005 3.929678e-005 4.017694e-004 -1.114904e-004 -2.048553e-004 -4.068760e-004 -2.945460e-004 3.621318e-005
<VARIANCE> 39
 9.135812e+001 2.887483e+001 4.226160e+001 6.238170e+001 6.069485e+001 9.299902e+001 3.194183e+001 4.381314e+001 5.450549e+001 3.285281e+001 2.566368e+001 2.867520e+001 1.318052e+002 2.569712e+000 1.521167e+000 1.581442e+000 2.587913e+000 2.205244e+000 3.263843e+000 1.867969e+000 2.134392e+000 2.626611e+000 1.814599e+000 1.585299e+000 1.594031e+000 2.266492e+000 3.224897e-001 2.537074e-001 2.677446e-001 3.972005e-001 3.461457e-001 4.922199e-001 3.355976e-001 3.652808e-001 4.410312e-001 3.359493e-001 2.872582e-001 2.768144e-001 3.396754e-001
<GCONST> 1.175893e+002
<STATE> 4
<MEAN> 39
 -1.054866e+001 -1.585786e+000 1.532635e+000 4.898661e-002 2.591187e+000 -4.188194e+000 1.650425e+000 3.584352e+000 -8.082810e-001 -5.242408e-001 9.521774e-001 -2.066207e-001 6.765821e+001 -9.893719e-004 4.370896e-003 2.936753e-003 2.220659e-004 -1.452296e-003 2.421478e-003 2.489385e-003 -1.808583e-003 5.971932e-003 7.519505e-003 2.081149e-003 -2.299958e-003 -4.203989e-003 -3.621638e-004 -1.582598e-004 1.881931e-006 5.654030e-005 1.692552e-004 -8.328774e-005 3.929678e-005 4.017694e-004 -1.114904e-004 -2.048553e-004 -4.068760e-004 -2.945460e-004 3.621318e-005
<VARIANCE> 39
 9.135812e+001 2.887483e+001 4.226160e+001 6.238170e+001 6.069485e+001 9.299902e+001 3.194183e+001 4.381314e+001 5.450549e+001 3.285281e+001 2.566368e+001 2.867520e+001 1.318052e+002 2.569712e+000 1.521167e+000 1.581442e+000 2.587913e+000 2.205244e+000 3.263843e+000 1.867969e+000 2.134392e+000 2.626611e+000 1.814599e+000 1.585299e+000 1.594031e+000 2.266492e+000 3.224897e-001 2.537074e-001 2.677446e-001 3.972005e-001 3.461457e-001 4.922199e-001 3.355976e-001 3.652808e-001 4.410312e-001 3.359493e-001 2.872582e-001 2.768144e-001 3.396754e-001
<GCONST> 1.175893e+002
<TRANSP> 5
 0.000000e+000 1.000000e+000 0.000000e+000 0.000000e+000 0.000000e+000
 0.000000e+000 6.000000e-001 4.000000e-001 0.000000e+000 0.000000e+000
 0.000000e+000 0.000000e+000 6.000000e-001 4.000000e-001 0.000000e+000
 0.000000e+000 0.000000e+000 0.000000e+000 7.000000e-001 3.000000e-001
 0.000000e+000 0.000000e+000 0.000000e+000 0.000000e+000 0.000000e+000
<ENDHMM>
~h "ih"
<BEGINHMM>
<NUMSTATES> 5
<STATE> 2
<MEAN> 39
 -1.054866e+001 -1.585786e+000 1.532635e+000 4.898661e-002 2.591187e+000 -4.188194e+000 1.650425e+000 3.584352e+000 -8.082810e-001 -5.242408e-001 9.521774e-001 -2.066207e-001 6.765821e+001 -9.893719e-004 4.370896e-003 2.936753e-003 2.220659e-004 -1.452296e-003 2.421478e-003 2.489385e-003 -1.808583e-003 5.971932e-003 7.519505e-003 2.081149e-003 -2.299958e-003 -4.203989e-003 -3.621638e-004 -1.582598e-004 1.881931e-006 5.654030e-005 1.692552e-004 -8.328774e-005 3.929678e-005 4.017694e-004 -1.114904e-004 -2.048553e-004 -4.068760e-004 -2.945460e-004 3.621318e-005
<VARIANCE> 39
 9.135812e+001 2.887483e+001 4.226160e+001 6.238170e+001 6.069485e+001 9.299902e+001 3.194183e+001 4.381314e+001 5.450549e+001 3.285281e+001 2.566368e+001 2.867520e+001 1.318052e+002 2.569712e+000 1.521167e+000 1.581442e+000 2.587913e+000 2.205244e+000 3.263843e+000 1.867969e+000 2.134392e+000 2.626611e+000 1.814599e+000 1.585299e+000 1.594031e+000 2.266492e+000 3.224897e-001 2.537074e-001 2.677446e-001 3.972005e-001 3.461457e-001 4.922199e-001 3.355976e-001 3.652808e-001 4.410312e-001 3.359493e-001 2.872582e-001 2.768144e-001 3.396754e-001
<GCONST> 1.175893e+002
<STATE> 3
<MEAN> 39
 -1.054866e+001 -1.585786e+000 1.532635e+000 4.898661e-002 2.591187e+000 -4.188194e+000 1.650425e+000 3.584352e+000 -8.082810e-001 -5.242408e-001 9.521774e-001 -2.066207e-001 6.765821e+001 -9.893719e-004 4.370896e-003 2.936753e-003 2.220659e-004 -1.452296e-003 2.421478e-003 2.489385e-003 -1.808583e-003 5.971932e-003 7.519505e-003 2.081149e-003 -2.299958e-003 -4.203989e-003 -3.621638e-004 -1.582598e-004 1.881931e-006 5.654030e-005 1.692552e-004 -8.328774e-005 3.929678e-005 4.017694e-004 -1.114904e-004 -2.048553e-004 -4.068760e-004 -2.945460e-004 3.621318e-005
<VARIANCE> 39
 9.135812e+001 2.887483e+001 4.226160e+001 6.238170e+001 6.069485e+001 9.299902e+001 3.194183e+001 4.381314e+001 5.450549e+001 3.285281e+001 2.566368e+001 2.867520e+001 1.318052e+002 2.569712e+000 1.521167e+000 1.581442e+000 2.587913e+000 2.205244e+000 3.263843e+000 1.867969e+000 2.134392e+000 2.626611e+000 1.814599e+000 1.585299e+000 1.594031e+000 2.266492e+000 3.224897e-001 2.537074e-001 2.677446e-001 3.972005e-001 3.461457e-001 4.922199e-001 3.355976e-001 3.652808e-001 4.410312e-001 3.359493e-001 2.872582e-001 2.768144e-001 3.396754e-001
<GCONST> 1.175893e+002
<STATE> 4
<MEAN> 39
 -1.054866e+001 -1.585786e+000 1.532635e+000 4.898661e-002 2.591187e+000 -4.188194e+000 1.650425e+000 3.584352e+000 -8.082810e-001 -5.242408e-001 9.521774e-001 -2.066207e-001 6.765821e+001 -9.893719e-004 4.370896e-003 2.936753e-003 2.220659e-004 -1.452296e-003 2.421478e-003 2.489385e-003 -1.808583e-003 5.971932e-003 7.519505e-003 2.081149e-003 -2.299958e-003 -4.203989e-003 -3.621638e-004 -1.582598e-004 1.881931e-006 5.654030e-005 1.692552e-004 -8.328774e-005 3.929678e-005 4.017694e-004 -1.114904e-004 -2.048553e-004 -4.068760e-004 -2.945460e-004 3.621318e-005
<VARIANCE> 39
 9.135812e+001 2.887483e+001 4.226160e+001 6.238170e+001 6.069485e+001 9.299902e+001 3.194183e+001 4.381314e+001 5.450549e+001 3.285281e+001 2.566368e+001 2.867520e+001 1.318052e+002 2.569712e+000 1.521167e+000 1.581442e+000 2.587913e+000 2.205244e+000 3.263843e+000 1.867969e+000 2.134392e+000 2.626611e+000 1.814599e+000 1.585299e+000 1.594031e+000 2.266492e+000 3.224897e-001 2.537074e-001 2.677446e-001 3.972005e-001 3.461457e-001 4.922199e-001 3.355976e-001 3.652808e-001 4.410312e-001 3.359493e-001 2.872582e-001 2.768144e-001 3.396754e-001
<GCONST> 1.175893e+002
<TRANSP> 5
 0.000000e+000 1.000000e+000 0.000000e+000 0.000000e+000 0.000000e+000
 0.000000e+000 6.000000e-001 4.000000e-001 0.000000e+000 0.000000e+000
 0.000000e+000 0.000000e+000 6.000000e-001 4.000000e-001 0.000000e+000
 0.000000e+000 0.000000e+000 0.000000e+000 7.000000e-001 3.000000e-001
 0.000000e+000 0.000000e+000 0.000000e+000 0.000000e+000 0.000000e+000
<ENDHMM>
~h "l"
<BEGINHMM>
<NUMSTATES> 5
<STATE> 2
<MEAN> 39
 -1.054866e+001 -1.585786e+000 1.532635e+000 4.898661e-002 2.591187e+000 -4.188194e+000 1.650425e+000 3.584352e+000 -8.082810e-001 -5.242408e-001 9.521774e-001 -2.066207e-001 6.765821e+001 -9.893719e-004 4.370896e-003 2.936753e-003 2.220659e-004 -1.452296e-003 2.421478e-003 2.489385e-003 -1.808583e-003 5.971932e-003 7.519505e-003 2.081149e-003 -2.299958e-003 -4.203989e-003 -3.621638e-004 -1.582598e-004 1.881931e-006 5.654030e-005 1.692552e-004 -8.328774e-005 3.929678e-005 4.017694e-004 -1.114904e-004 -2.048553e-004 -4.068760e-004 -2.945460e-004 3.621318e-005
<VARIANCE> 39
 9.135812e+001 2.887483e+001 4.226160e+001 6.238170e+001 6.069485e+001 9.299902e+001 3.194183e+001 4.381314e+001 5.450549e+001 3.285281e+001 2.566368e+001 2.867520e+001 1.318052e+002 2.569712e+000 1.521167e+000 1.581442e+000 2.587913e+000 2.205244e+000 3.263843e+000 1.867969e+000 2.134392e+000 2.626611e+000 1.814599e+000 1.585299e+000 1.594031e+000 2.266492e+000 3.224897e-001 2.537074e-001 2.677446e-001 3.972005e-001 3.461457e-001 4.922199e-001 3.355976e-001 3.652808e-001 4.410312e-001 3.359493e-001 2.872582e-001 2.768144e-001 3.396754e-001
<GCONST> 1.175893e+002
<STATE> 3
<MEAN> 39
 -1.054866e+001 -1.585786e+000 1.532635e+000 4.898661e-002 2.591187e+000 -4.188194e+000 1.650425e+000 3.584352e+000 -8.082810e-001 -5.242408e-001 9.521774e-001 -2.066207e-001 6.765821e+001 -9.893719e-004 4.370896e-003 2.936753e-003 2.220659e-004 -1.452296e-003 2.421478e-003 2.489385e-003 -1.808583e-003 5.971932e-003 7.519505e-003 2.081149e-003 -2.299958e-003 -4.203989e-003 -3.621638e-004 -1.582598e-004 1.881931e-006 5.654030e-005 1.692552e-004 -8.328774e-005 3.929678e-005 4.017694e-004 -1.114904e-004 -2.048553e-004 -4.068760e-004 -2.945460e-004 3.621318e-005
<VARIANCE> 39
 9.135812e+001 2.887483e+001 4.226160e+001 6.238170e+001 6.069485e+001 9.299902e+001 3.194183e+001 4.381314e+001 5.450549e+001 3.285281e+001 2.566368e+001 2.867520e+001 1.318052e+002 2.569712e+000 1.521167e+000 1.581442e+000 2.587913e+000 2.205244e+000 3.263843e+000 1.867969e+000 2.134392e+000 2.626611e+000 1.814599e+000 1.585299e+000 1.594031e+000 2.266492e+000 3.224897e-001 2.537074e-001 2.677446e-001 3.972005e-001 3.461457e-001 4.922199e-001 3.355976e-001 3.652808e-001 4.410312e-001 3.359493e-001 2.872582e-001 2.768144e-001 3.396754e-001
<GCONST> 1.175893e+002
<STATE> 4
<MEAN> 39
 -1.054866e+001 -1.585786e+000 1.532635e+000 4.898661e-002 2.591187e+000 -4.188194e+000 1.650425e+000 3.584352e+000 -8.082810e-001 -5.242408e-001 9.521774e-001 -2.066207e-001 6.765821e+001 -9.893719e-004 4.370896e-003 2.936753e-003 2.220659e-004 -1.452296e-003 2.421478e-003 2.489385e-003 -1.808583e-003 5.971932e-003 7.519505e-003 2.081149e-003 -2.299958e-003 -4.203989e-003 -3.621638e-004 -1.582598e-004 1.881931e-006 5.654030e-005 1.692552e-004 -8.328774e-005 3.929678e-005 4.017694e-004 -1.114904e-004 -2.048553e-004 -4.068760e-004 -2.945460e-004 3.621318e-005
<VARIANCE> 39
 9.135812e+001 2.887483e+001 4.226160e+001 6.238170e+001 6.069485e+001 9.299902e+001 3.194183e+001 4.381314e+001 5.450549e+001 3.285281e+001 2.566368e+001 2.867520e+001 1.318052e+002 2.569712e+000 1.521167e+000 1.581442e+000 2.587913e+000 2.205244e+000 3.263843e+000 1.867969e+000 2.134392e+000 2.626611e+000 1.814599e+000 1.585299e+000 1.594031e+000 2.266492e+000 3.224897e-001 2.537074e-001 2.677446e-001 3.972005e-001 3.461457e-001 4.922199e-001 3.355976e-001 3.652808e-001 4.410312e-001 3.359493e-001 2.872582e-001 2.768144e-001 3.396754e-001
<GCONST> 1.175893e+002
<TRANSP> 5
 0.000000e+000 1.000000e+000 0.000000e+000 0.000000e+000 0.000000e+000
 0.000000e+000 6.000000e-001 4.000000e-001 0.000000e+000 0.000000e+000
 0.000000e+000 0.000000e+000 6.000000e-001 4.000000e-001 0.000000e+000
 0.000000e+000 0.000000e+000 0.000000e+000 7.000000e-001 3.000000e-001
 0.000000e+000 0.000000e+000 0.000000e+000 0.000000e+000 0.000000e+000
<ENDHMM>
~h "iy"
<BEGINHMM>
<NUMSTATES> 5
<STATE> 2
<MEAN> 39
 -1.054866e+001 -1.585786e+000 1.532635e+000 4.898661e-002 2.591187e+000 -4.188194e+000 1.650425e+000 3.584352e+000 -8.082810e-001 -5.242408e-001 9.521774e-001 -2.066207e-001 6.765821e+001 -9.893719e-004 4.370896e-003 2.936753e-003 2.220659e-004 -1.452296e-003 2.421478e-003 2.489385e-003 -1.808583e-003 5.971932e-003 7.519505e-003 2.081149e-003 -2.299958e-003 -4.203989e-003 -3.621638e-004 -1.582598e-004 1.881931e-006 5.654030e-005 1.692552e-004 -8.328774e-005 3.929678e-005 4.017694e-004 -1.114904e-004 -2.048553e-004 -4.068760e-004 -2.945460e-004 3.621318e-005
<VARIANCE> 39
 9.135812e+001 2.887483e+001 4.226160e+001 6.238170e+001 6.069485e+001 9.299902e+001 3.194183e+001 4.381314e+001 5.450549e+001 3.285281e+001 2.566368e+001 2.867520e+001 1.318052e+002 2.569712e+000 1.521167e+000 1.581442e+000 2.587913e+000 2.205244e+000 3.263843e+000 1.867969e+000 2.134392e+000 2.626611e+000 1.814599e+000 1.585299e+000 1.594031e+000 2.266492e+000 3.224897e-001 2.537074e-001 2.677446e-001 3.972005e-001 3.461457e-001 4.922199e-001 3.355976e-001 3.652808e-001 4.410312e-001 3.359493e-001 2.872582e-001 2.768144e-001 3.396754e-001
<GCONST> 1.175893e+002
<STATE> 3
<MEAN> 39
 -1.054866e+001 -1.585786e+000 1.532635e+000 4.898661e-002 2.591187e+000 -4.188194e+000 1.650425e+000 3.584352e+000 -8.082810e-001 -5.242408e-001 9.521774e-001 -2.066207e-001 6.765821e+001 -9.893719e-004 4.370896e-003 2.936753e-003 2.220659e-004 -1.452296e-003 2.421478e-003 2.489385e-003 -1.808583e-003 5.971932e-003 7.519505e-003 2.081149e-003 -2.299958e-003 -4.203989e-003 -3.621638e-004 -1.582598e-004 1.881931e-006 5.654030e-005 1.692552e-004 -8.328774e-005 3.929678e-005 4.017694e-004 -1.114904e-004 -2.048553e-004 -4.068760e-004 -2.945460e-004 3.621318e-005
<VARIANCE> 39
 9.135812e+001 2.887483e+001 4.226160e+001 6.238170e+001 6.069485e+001 9.299902e+001 3.194183e+001 4.381314e+001 5.450549e+001 3.285281e+001 2.566368e+001 2.867520e+001 1.318052e+002 2.569712e+000 1.521167e+000 1.581442e+000 2.587913e+000 2.205244e+000 3.263843e+000 1.867969e+000 2.134392e+000 2.626611e+000 1.814599e+000 1.585299e+000 1.594031e+000 2.266492e+000 3.224897e-001 2.537074e-001 2.677446e-001 3.972005e-001 3.461457e-001 4.922199e-001 3.355976e-001 3.652808e-001 4.410312e-001 3.359493e-001 2.872582e-001 2.768144e-001 3.396754e-001
<GCONST> 1.175893e+002
<STATE> 4
<MEAN> 39
 -1.054866e+001 -1.585786e+000 1.532635e+000 4.898661e-002 2.591187e+000 -4.188194e+000 1.650425e+000 3.584352e+000 -8.082810e-001 -5.242408e-001 9.521774e-001 -2.066207e-001 6.765821e+001 -9.893719e-004 4.370896e-003 2.936753e-003 2.220659e-004 -1.452296e-003 2.421478e-003 2.489385e-003 -1.808583e-003 5.971932e-003 7.519505e-003 2.081149e-003 -2.299958e-003 -4.203989e-003 -3.621638e-004 -1.582598e-004 1.881931e-006 5.654030e-005 1.692552e-004 -8.328774e-005 3.929678e-005 4.017694e-004 -1.114904e-004 -2.048553e-004 -4.068760e-004 -2.945460e-004 3.621318e-005
<VARIANCE> 39
 9.135812e+001 2.887483e+001 4.226160e+001 6.238170e+001 6.069485e+001 9.299902e+001 3.194183e+001 4.381314e+001 5.450549e+001 3.285281e+001 2.566368e+001 2.867520e+001 1.318052e+002 2.569712e+000 1.521167e+000 1.581442e+000 2.587913e+000 2.205244e+000 3.263843e+000 1.867969e+000 2.134392e+000 2.626611e+000 1.814599e+000 1.585299e+000 1.594031e+000 2.266492e+000 3.224897e-001 2.537074e-001 2.677446e-001 3.972005e-001 3.461457e-001 4.922199e-001 3.355976e-001 3.652808e-001 4.410312e-001 3.359493e-001 2.872582e-001 2.768144e-001 3.396754e-001
<GCONST> 1.175893e+002
<TRANSP> 5
 0.000000e+000 1.000000e+000 0.000000e+000 0.000000e+000 0.000000e+000
 0.000000e+000 6.000000e-001 4.000000e-001 0.000000e+000 0.000000e+000
 0.000000e+000 0.000000e+000 6.000000e-001 4.000000e-001 0.000000e+000
 0.000000e+000 0.000000e+000 0.000000e+000 7.000000e-001 3.000000e-001
 0.000000e+000 0.000000e+000 0.000000e+000 0.000000e+000 0.000000e+000
<ENDHMM>
~h "z"
<BEGINHMM>
<NUMSTATES> 5
<STATE> 2
<MEAN> 39
 -1.054866e+001 -1.585786e+000 1.532635e+000 4.898661e-002 2.591187e+000 -4.188194e+000 1.650425e+000 3.584352e+000 -8.082810e-001 -5.242408e-001 9.521774e-001 -2.066207e-001 6.765821e+001 -9.893719e-004 4.370896e-003 2.936753e-003 2.220659e-004 -1.452296e-003 2.421478e-003 2.489385e-003 -1.808583e-003 5.971932e-003 7.519505e-003 2.081149e-003 -2.299958e-003 -4.203989e-003 -3.621638e-004 -1.582598e-004 1.881931e-006 5.654030e-005 1.692552e-004 -8.328774e-005 3.929678e-005 4.017694e-004 -1.114904e-004 -2.048553e-004 -4.068760e-004 -2.945460e-004 3.621318e-005
<VARIANCE> 39
 9.135812e+001 2.887483e+001 4.226160e+001 6.238170e+001 6.069485e+001 9.299902e+001 3.194183e+001 4.381314e+001 5.450549e+001 3.285281e+001 2.566368e+001 2.867520e+001 1.318052e+002 2.569712e+000 1.521167e+000 1.581442e+000 2.587913e+000 2.205244e+000 3.263843e+000 1.867969e+000 2.134392e+000 2.626611e+000 1.814599e+000 1.585299e+000 1.594031e+000 2.266492e+000 3.224897e-001 2.537074e-001 2.677446e-001 3.972005e-001 3.461457e-001 4.922199e-001 3.355976e-001 3.652808e-001 4.410312e-001 3.359493e-001 2.872582e-001 2.768144e-001 3.396754e-001
<GCONST> 1.175893e+002
<STATE> 3
<MEAN> 39
 -1.054866e+001 -1.585786e+000 1.532635e+000 4.898661e-002 2.591187e+000 -4.188194e+000 1.650425e+000 3.584352e+000 -8.082810e-001 -5.242408e-001 9.521774e-001 -2.066207e-001 6.765821e+001 -9.893719e-004 4.370896e-003 2.936753e-003 2.220659e-004 -1.452296e-003 2.421478e-003 2.489385e-003 -1.808583e-003 5.971932e-003 7.519505e-003 2.081149e-003 -2.299958e-003 -4.203989e-003 -3.621638e-004 -1.582598e-004 1.881931e-006 5.654030e-005 1.692552e-004 -8.328774e-005 3.929678e-005 4.017694e-004 -1.114904e-004 -2.048553e-004 -4.068760e-004 -2.945460e-004 3.621318e-005
<VARIANCE> 39
 9.135812e+001 2.887483e+001 4.226160e+001 6.238170e+001 6.069485e+001 9.299902e+001 3.194183e+001 4.381314e+001 5.450549e+001 3.285281e+001 2.566368e+001 2.867520e+001 1.318052e+002 2.569712e+000 1.521167e+000 1.581442e+000 2.587913e+000 2.205244e+000 3.263843e+000 1.867969e+000 2.134392e+000 2.626611e+000 1.814599e+000 1.585299e+000 1.594031e+000 2.266492e+000 3.224897e-001 2.537074e-001 2.677446e-001 3.972005e-001 3.461457e-001 4.922199e-001 3.355976e-001 3.652808e-001 4.410312e-001 3.359493e-001 2.872582e-001 2.768144e-001 3.396754e-001
<GCONST> 1.175893e+002
<STATE> 4
<MEAN> 39
 -1.054866e+001 -1.585786e+000 1.532635e+000 4.898661e-002 2.591187e+000 -4.188194e+000 1.650425e+000 3.584352e+000 -8.082810e-001 -5.242408e-001 9.521774e-001 -2.066207e-001 6.765821e+001 -9.893719e-004 4.370896e-003 2.936753e-003 2.220659e-004 -1.452296e-003 2.421478e-003 2.489385e-003 -1.808583e-003 5.971932e-003 7.519505e-003 2.081149e-003 -2.299958e-003 -4.203989e-003 -3.621638e-004 -1.582598e-004 1.881931e-006 5.654030e-005 1.692552e-004 -8.328774e-005 3.929678e-005 4.017694e-004 -1.114904e-004 -2.048553e-004 -4.068760e-004 -2.945460e-004 3.621318e-005
<VARIANCE> 39
 9.135812e+001 2.887483e+001 4.226160e+001 6.238170e+001 6.069485e+001 9.299902e+001 3.194183e+001 4.381314e+001 5.450549e+001 3.285281e+001 2.566368e+001 2.867520e+001 1.318052e+002 2.569712e+000 1.521167e+000 1.581442e+000 2.587913e+000 2.205244e+000 3.263843e+000 1.867969e+000 2.134392e+000 2.626611e+000 1.814599e+000 1.585299e+000 1.594031e+000 2.266492e+000 3.224897e-001 2.537074e-001 2.677446e-001 3.972005e-001 3.461457e-001 4.922199e-001 3.355976e-001 3.652808e-001 4.410312e-001 3.359493e-001 2.872582e-001 2.768144e-001 3.396754e-001
<GCONST> 1.175893e+002
<TRANSP> 5
 0.000000e+000 1.000000e+000 0.000000e+000 0.000000e+000 0.000000e+000
 0.000000e+000 6.000000e-001 4.000000e-001 0.000000e+000 0.000000e+000
 0.000000e+000 0.000000e+000 6.000000e-001 4.000000e-001 0.000000e+000
 0.000000e+000 0.000000e+000 0.000000e+000 7.000000e-001 3.000000e-001
 0.000000e+000 0.000000e+000 0.000000e+000 0.000000e+000 0.000000e+000
<ENDHMM>
~h "p"
<BEGINHMM>
<NUMSTATES> 5
<STATE> 2
<MEAN> 39
 -1.054866e+001 -1.585786e+000 1.532635e+000 4.898661e-002 2.591187e+000 -4.188194e+000 1.650425e+000 3.584352e+000 -8.082810e-001 -5.242408e-001 9.521774e-001 -2.066207e-001 6.765821e+001 -9.893719e-004 4.370896e-003 2.936753e-003 2.220659e-004 -1.452296e-003 2.421478e-003 2.489385e-003 -1.808583e-003 5.971932e-003 7.519505e-003 2.081149e-003 -2.299958e-003 -4.203989e-003 -3.621638e-004 -1.582598e-004 1.881931e-006 5.654030e-005 1.692552e-004 -8.328774e-005 3.929678e-005 4.017694e-004 -1.114904e-004 -2.048553e-004 -4.068760e-004 -2.945460e-004 3.621318e-005
<VARIANCE> 39
 9.135812e+001 2.887483e+001 4.226160e+001 6.238170e+001 6.069485e+001 9.299902e+001 3.194183e+001 4.381314e+001 5.450549e+001 3.285281e+001 2.566368e+001 2.867520e+001 1.318052e+002 2.569712e+000 1.521167e+000 1.581442e+000 2.587913e+000 2.205244e+000 3.263843e+000 1.867969e+000 2.134392e+000 2.626611e+000 1.814599e+000 1.585299e+000 1.594031e+000 2.266492e+000 3.224897e-001 2.537074e-001 2.677446e-001 3.972005e-001 3.461457e-001 4.922199e-001 3.355976e-001 3.652808e-001 4.410312e-001 3.359493e-001 2.872582e-001 2.768144e-001 3.396754e-001
<GCONST> 1.175893e+002
<STATE> 3
<MEAN> 39
 -1.054866e+001 -1.585786e+000 1.532635e+000 4.898661e-002 2.591187e+000 -4.188194e+000 1.650425e+000 3.584352e+000 -8.082810e-001 -5.242408e-001 9.521774e-001 -2.066207e-001 6.765821e+001 -9.893719e-004 4.370896e-003 2.936753e-003 2.220659e-004 -1.452296e-003 2.421478e-003 2.489385e-003 -1.808583e-003 5.971932e-003 7.519505e-003 2.081149e-003 -2.299958e-003 -4.203989e-003 -3.621638e-004 -1.582598e-004 1.881931e-006 5.654030e-005 1.692552e-004 -8.328774e-005 3.929678e-005 4.017694e-004 -1.114904e-004 -2.048553e-004 -4.068760e-004 -2.945460e-004 3.621318e-005
<VARIANCE> 39
 9.135812e+001 2.887483e+001 4.226160e+001 6.238170e+001 6.069485e+001 9.299902e+001 3.194183e+001 4.381314e+001 5.450549e+001 3.285281e+001 2.566368e+001 2.867520e+001 1.318052e+002 2.569712e+000 1.521167e+000 1.581442e+000 2.587913e+000 2.205244e+000 3.263843e+000 1.867969e+000 2.134392e+000 2.626611e+000 1.814599e+000 1.585299e+000 1.594031e+000 2.266492e+000 3.224897e-001 2.537074e-001 2.677446e-001 3.972005e-001 3.461457e-001 4.922199e-001 3.355976e-001 3.652808e-001 4.410312e-001 3.359493e-001 2.872582e-001 2.768144e-001 3.396754e-001
<GCONST> 1.175893e+002
<STATE> 4
<MEAN> 39
 -1.054866e+001 -1.585786e+000 1.532635e+000 4.898661e-002 2.591187e+000 -4.188194e+000 1.650425e+000 3.584352e+000 -8.082810e-001 -5.242408e-001 9.521774e-001 -2.066207e-001 6.765821e+001 -9.893719e-004 4.370896e-003 2.936753e-003 2.220659e-004 -1.452296e-003 2.421478e-003 2.489385e-003 -1.808583e-003 5.971932e-003 7.519505e-003 2.081149e-003 -2.299958e-003 -4.203989e-003 -3.621638e-004 -1.582598e-004 1.881931e-006 5.654030e-005 1.692552e-004 -8.328774e-005 3.929678e-005 4.017694e-004 -1.114904e-004 -2.048553e-004 -4.068760e-004 -2.945460e-004 3.621318e-005
<VARIANCE> 39
 9.135812e+001 2.887483e+001 4.226160e+001 6.238170e+001 6.069485e+001 9.299902e+001 3.194183e+001 4.381314e+001 5.450549e+001 3.285281e+001 2.566368e+001 2.867520e+001 1.318052e+002 2.569712e+000 1.521167e+000 1.581442e+000 2.587913e+000 2.205244e+000 3.263843e+000 1.867969e+000 2.134392e+000 2.626611e+000 1.814599e+000 1.585299e+000 1.594031e+000 2.266492e+000 3.224897e-001 2.537074e-001 2.677446e-001 3.972005e-001 3.461457e-001 4.922199e-001 3.355976e-001 3.652808e-001 4.410312e-001 3.359493e-001 2.872582e-001 2.768144e-001 3.396754e-001
<GCONST> 1.175893e+002
<TRANSP> 5
 0.000000e+000 1.000000e+000 0.000000e+000 0.000000e+000 0.000000e+000
 0.000000e+000 6.000000e-001 4.000000e-001 0.000000e+000 0.000000e+000
 0.000000e+000 0.000000e+000 6.000000e-001 4.000000e-001 0.000000e+000
 0.000000e+000 0.000000e+000 0.000000e+000 7.000000e-001 3.000000e-001
 0.000000e+000 0.000000e+000 0.000000e+000 0.000000e+000 0.000000e+000
<ENDHMM>
~h "ao"
<BEGINHMM>
<NUMSTATES> 5
<STATE> 2
<MEAN> 39
 -1.054866e+001 -1.585786e+000 1.532635e+000 4.898661e-002 2.591187e+000 -4.188194e+000 1.650425e+000 3.584352e+000 -8.082810e-001 -5.242408e-001 9.521774e-001 -2.066207e-001 6.765821e+001 -9.893719e-004 4.370896e-003 2.936753e-003 2.220659e-004 -1.452296e-003 2.421478e-003 2.489385e-003 -1.808583e-003 5.971932e-003 7.519505e-003 2.081149e-003 -2.299958e-003 -4.203989e-003 -3.621638e-004 -1.582598e-004 1.881931e-006 5.654030e-005 1.692552e-004 -8.328774e-005 3.929678e-005 4.017694e-004 -1.114904e-004 -2.048553e-004 -4.068760e-004 -2.945460e-004 3.621318e-005
<VARIANCE> 39
 9.135812e+001 2.887483e+001 4.226160e+001 6.238170e+001 6.069485e+001 9.299902e+001 3.194183e+001 4.381314e+001 5.450549e+001 3.285281e+001 2.566368e+001 2.867520e+001 1.318052e+002 2.569712e+000 1.521167e+000 1.581442e+000 2.587913e+000 2.205244e+000 3.263843e+000 1.867969e+000 2.134392e+000 2.626611e+000 1.814599e+000 1.585299e+000 1.594031e+000 2.266492e+000 3.224897e-001 2.537074e-001 2.677446e-001 3.972005e-001 3.461457e-001 4.922199e-001 3.355976e-001 3.652808e-001 4.410312e-001 3.359493e-001 2.872582e-001 2.768144e-001 3.396754e-001
<GCONST> 1.175893e+002
<STATE> 3
<MEAN> 39
 -1.054866e+001 -1.585786e+000 1.532635e+000 4.898661e-002 2.591187e+000 -4.188194e+000 1.650425e+000 3.584352e+000 -8.082810e-001 -5.242408e-001 9.521774e-001 -2.066207e-001 6.765821e+001 -9.893719e-004 4.370896e-003 2.936753e-003 2.220659e-004 -1.452296e-003 2.421478e-003 2.489385e-003 -1.808583e-003 5.971932e-003 7.519505e-003 2.081149e-003 -2.299958e-003 -4.203989e-003 -3.621638e-004 -1.582598e-004 1.881931e-006 5.654030e-005 1.692552e-004 -8.328774e-005 3.929678e-005 4.017694e-004 -1.114904e-004 -2.048553e-004 -4.068760e-004 -2.945460e-004 3.621318e-005
<VARIANCE> 39
 9.135812e+001 2.887483e+001 4.226160e+001 6.238170e+001 6.069485e+001 9.299902e+001 3.194183e+001 4.381314e+001 5.450549e+001 3.285281e+001 2.566368e+001 2.867520e+001 1.318052e+002 2.569712e+000 1.521167e+000 1.581442e+000 2.587913e+000 2.205244e+000 3.263843e+000 1.867969e+000 2.134392e+000 2.626611e+000 1.814599e+000 1.585299e+000 1.594031e+000 2.266492e+000 3.224897e-001 2.537074e-001 2.677446e-001 3.972005e-001 3.461457e-001 4.922199e-001 3.355976e-001 3.652808e-001 4.410312e-001 3.359493e-001 2.872582e-001 2.768144e-001 3.396754e-001
<GCONST> 1.175893e+002
<STATE> 4
<MEAN> 39
 -1.054866e+001 -1.585786e+000 1.532635e+000 4.898661e-002 2.591187e+000 -4.188194e+000 1.650425e+000 3.584352e+000 -8.082810e-001 -5.242408e-001 9.521774e-001 -2.066207e-001 6.765821e+001 -9.893719e-004 4.370896e-003 2.936753e-003 2.220659e-004 -1.452296e-003 2.421478e-003 2.489385e-003 -1.808583e-003 5.971932e-003 7.519505e-003 2.081149e-003 -2.299958e-003 -4.203989e-003 -3.621638e-004 -1.582598e-004 1.881931e-006 5.654030e-005 1.692552e-004 -8.328774e-005 3.929678e-005 4.017694e-004 -1.114904e-004 -2.048553e-004 -4.068760e-004 -2.945460e-004 3.621318e-005
<VARIANCE> 39
 9.135812e+001 2.887483e+001 4.226160e+001 6.238170e+001 6.069485e+001 9.299902e+001 3.194183e+001 4.381314e+001 5.450549e+001 3.285281e+001 2.566368e+001 2.867520e+001 1.318052e+002 2.569712e+000 1.521167e+000 1.581442e+000 2.587913e+000 2.205244e+000 3.263843e+000 1.867969e+000 2.134392e+000 2.626611e+000 1.814599e+000 1.585299e+000 1.594031e+000 2.266492e+000 3.224897e-001 2.537074e-001 2.677446e-001 3.972005e-001 3.461457e-001 4.922199e-001 3.355976e-001 3.652808e-001 4.410312e-001 3.359493e-001 2.872582e-001 2.768144e-001 3.396754e-001
<GCONST> 1.175893e+002
<TRANSP> 5
 0.000000e+000 1.000000e+000 0.000000e+000 0.000000e+000 0.000000e+000
 0.000000e+000 6.000000e-001 4.000000e-001 0.000000e+000 0.000000e+000
 0.000000e+000 0.000000e+000 6.000000e-001 4.000000e-001 0.000000e+000
 0.000000e+000 0.000000e+000 0.000000e+000 7.000000e-001 3.000000e-001
 0.000000e+000 0.000000e+000 0.000000e+000 0.000000e+000 0.000000e+000
<ENDHMM>
~h "g"
<BEGINHMM>
<NUMSTATES> 5
<STATE> 2
<MEAN> 39
 -1.054866e+001 -1.585786e+000 1.532635e+000 4.898661e-002 2.591187e+000 -4.188194e+000 1.650425e+000 3.584352e+000 -8.082810e-001 -5.242408e-001 9.521774e-001 -2.066207e-001 6.765821e+001 -9.893719e-004 4.370896e-003 2.936753e-003 2.220659e-004 -1.452296e-003 2.421478e-003 2.489385e-003 -1.808583e-003 5.971932e-003 7.519505e-003 2.081149e-003 -2.299958e-003 -4.203989e-003 -3.621638e-004 -1.582598e-004 1.881931e-006 5.654030e-005 1.692552e-004 -8.328774e-005 3.929678e-005 4.017694e-004 -1.114904e-004 -2.048553e-004 -4.068760e-004 -2.945460e-004 3.621318e-005
<VARIANCE> 39
 9.135812e+001 2.887483e+001 4.226160e+001 6.238170e+001 6.069485e+001 9.299902e+001 3.194183e+001 4.381314e+001 5.450549e+001 3.285281e+001 2.566368e+001 2.867520e+001 1.318052e+002 2.569712e+000 1.521167e+000 1.581442e+000 2.587913e+000 2.205244e+000 3.263843e+000 1.867969e+000 2.134392e+000 2.626611e+000 1.814599e+000 1.585299e+000 1.594031e+000 2.266492e+000 3.224897e-001 2.537074e-001 2.677446e-001 3.972005e-001 3.461457e-001 4.922199e-001 3.355976e-001 3.652808e-001 4.410312e-001 3.359493e-001 2.872582e-001 2.768144e-001 3.396754e-001
<GCONST> 1.175893e+002
<STATE> 3
<MEAN> 39
 -1.054866e+001 -1.585786e+000 1.532635e+000 4.898661e-002 2.591187e+000 -4.188194e+000 1.650425e+000 3.584352e+000 -8.082810e-001 -5.242408e-001 9.521774e-001 -2.066207e-001 6.765821e+001 -9.893719e-004 4.370896e-003 2.936753e-003 2.220659e-004 -1.452296e-003 2.421478e-003 2.489385e-003 -1.808583e-003 5.971932e-003 7.519505e-003 2.081149e-003 -2.299958e-003 -4.203989e-003 -3.621638e-004 -1.582598e-004 1.881931e-006 5.654030e-005 1.692552e-004 -8.328774e-005 3.929678e-005 4.017694e-004 -1.114904e-004 -2.048553e-004 -4.068760e-004 -2.945460e-004 3.621318e-005
<VARIANCE> 39
 9.135812e+001 2.887483e+001 4.226160e+001 6.238170e+001 6.069485e+001 9.299902e+001 3.194183e+001 4.381314e+001 5.450549e+001 3.285281e+001 2.566368e+001 2.867520e+001 1.318052e+002 2.569712e+000 1.521167e+000 1.581442e+000 2.587913e+000 2.205244e+000 3.263843e+000 1.867969e+000 2.134392e+000 2.626611e+000 1.814599e+000 1.585299e+000 1.594031e+000 2.266492e+000 3.224897e-001 2.537074e-001 2.677446e-001 3.972005e-001 3.461457e-001 4.922199e-001 3.355976e-001 3.652808e-001 4.410312e-001 3.359493e-001 2.872582e-001 2.768144e-001 3.396754e-001
<GCONST> 1.175893e+002
<STATE> 4
<MEAN> 39
 -1.054866e+001 -1.585786e+000 1.532635e+000 4.898661e-002 2.591187e+000 -4.188194e+000 1.650425e+000 3.584352e+000 -8.082810e-001 -5.242408e-001 9.521774e-001 -2.066207e-001 6.765821e+001 -9.893719e-004 4.370896e-003 2.936753e-003 2.220659e-004 -1.452296e-003 2.421478e-003 2.489385e-003 -1.808583e-003 5.971932e-003 7.519505e-003 2.081149e-003 -2.299958e-003 -4.203989e-003 -3.621638e-004 -1.582598e-004 1.881931e-006 5.654030e-005 1.692552e-004 -8.328774e-005 3.929678e-005 4.017694e-004 -1.114904e-004 -2.048553e-004 -4.068760e-004 -2.945460e-004 3.621318e-005
<VARIANCE> 39
 9.135812e+001 2.887483e+001 4.226160e+001 6.238170e+001 6.069485e+001 9.299902e+001 3.194183e+001 4.381314e+001 5.450549e+001 3.285281e+001 2.566368e+001 2.867520e+001 1.318052e+002 2.569712e+000 1.521167e+000 1.581442e+000 2.587913e+000 2.205244e+000 3.263843e+000 1.867969e+000 2.134392e+000 2.626611e+000 1.814599e+000 1.585299e+000 1.594031e+000 2.266492e+000 3.224897e-001 2.537074e-001 2.677446e-001 3.972005e-001 3.461457e-001 4.922199e-001 3.355976e-001 3.652808e-001 4.410312e-001 3.359493e-001 2.872582e-001 2.768144e-001 3.396754e-001
<GCONST> 1.175893e+002
<TRANSP> 5
 0.000000e+000 1.000000e+000 0.000000e+000 0.000000e+000 0.000000e+000
 0.000000e+000 6.000000e-001 4.000000e-001 0.000000e+000 0.000000e+000
 0.000000e+000 0.000000e+000 6.000000e-001 4.000000e-001 0.000000e+000
 0.000000e+000 0.000000e+000 0.000000e+000 7.000000e-001 3.000000e-001
 0.000000e+000 0.000000e+000 0.000000e+000 0.000000e+000 0.000000e+000
<ENDHMM>
~h "s"
<BEGINHMM>
<NUMSTATES> 5
<STATE> 2
<MEAN> 39
 -1.054866e+001 -1.585786e+000 1.532635e+000 4.898661e-002 2.591187e+000 -4.188194e+000 1.650425e+000 3.584352e+000 -8.082810e-001 -5.242408e-001 9.521774e-001 -2.066207e-001 6.765821e+001 -9.893719e-004 4.370896e-003 2.936753e-003 2.220659e-004 -1.452296e-003 2.421478e-003 2.489385e-003 -1.808583e-003 5.971932e-003 7.519505e-003 2.081149e-003 -2.299958e-003 -4.203989e-003 -3.621638e-004 -1.582598e-004 1.881931e-006 5.654030e-005 1.692552e-004 -8.328774e-005 3.929678e-005 4.017694e-004 -1.114904e-004 -2.048553e-004 -4.068760e-004 -2.945460e-004 3.621318e-005
<VARIANCE> 39
 9.135812e+001 2.887483e+001 4.226160e+001 6.238170e+001 6.069485e+001 9.299902e+001 3.194183e+001 4.381314e+001 5.450549e+001 3.285281e+001 2.566368e+001 2.867520e+001 1.318052e+002 2.569712e+000 1.521167e+000 1.581442e+000 2.587913e+000 2.205244e+000 3.263843e+000 1.867969e+000 2.134392e+000 2.626611e+000 1.814599e+000 1.585299e+000 1.594031e+000 2.266492e+000 3.224897e-001 2.537074e-001 2.677446e-001 3.972005e-001 3.461457e-001 4.922199e-001 3.355976e-001 3.652808e-001 4.410312e-001 3.359493e-001 2.872582e-001 2.768144e-001 3.396754e-001
<GCONST> 1.175893e+002
<STATE> 3
<MEAN> 39
 -1.054866e+001 -1.585786e+000 1.532635e+000 4.898661e-002 2.591187e+000 -4.188194e+000 1.650425e+000 3.584352e+000 -8.082810e-001 -5.242408e-001 9.521774e-001 -2.066207e-001 6.765821e+001 -9.893719e-004 4.370896e-003 2.936753e-003 2.220659e-004 -1.452296e-003 2.421478e-003 2.489385e-003 -1.808583e-003 5.971932e-003 7.519505e-003 2.081149e-003 -2.299958e-003 -4.203989e-003 -3.621638e-004 -1.582598e-004 1.881931e-006 5.654030e-005 1.692552e-004 -8.328774e-005 3.929678e-005 4.017694e-004 -1.114904e-004 -2.048553e-004 -4.068760e-004 -2.945460e-004 3.621318e-005
<VARIANCE> 39
 9.135812e+001 2.887483e+001 4.226160e+001 6.238170e+001 6.069485e+001 9.299902e+001 3.194183e+001 4.381314e+001 5.450549e+001 3.285281e+001 2.566368e+001 2.867520e+001 1.318052e+002 2.569712e+000 1.521167e+000 1.581442e+000 2.587913e+000 2.205244e+000 3.263843e+000 1.867969e+000 2.134392e+000 2.626611e+000 1.814599e+000 1.585299e+000 1.594031e+000 2.266492e+000 3.224897e-001 2.537074e-001 2.677446e-001 3.972005e-001 3.461457e-001 4.922199e-001 3.355976e-001 3.652808e-001 4.410312e-001 3.359493e-001 2.872582e-001 2.768144e-001 3.396754e-001
<GCONST> 1.175893e+002
<STATE> 4
<MEAN> 39
 -1.054866e+001 -1.585786e+000 1.532635e+000 4.898661e-002 2.591187e+000 -4.188194e+000 1.650425e+000 3.584352e+000 -8.082810e-001 -5.242408e-001 9.521774e-001 -2.066207e-001 6.765821e+001 -9.893719e-004 4.370896e-003 2.936753e-003 2.220659e-004 -1.452296e-003 2.421478e-003 2.489385e-003 -1.808583e-003 5.971932e-003 7.519505e-003 2.081149e-003 -2.299958e-003 -4.203989e-003 -3.621638e-004 -1.582598e-004 1.881931e-006 5.654030e-005 1.692552e-004 -8.328774e-005 3.929678e-005 4.017694e-004 -1.114904e-004 -2.048553e-004 -4.068760e-004 -2.945460e-004 3.621318e-005
<VARIANCE> 39
 9.135812e+001 2.887483e+001 4.226160e+001 6.238170e+001 6.069485e+001 9.299902e+001 3.194183e+001 4.381314e+001 5.450549e+001 3.285281e+001 2.566368e+001 2.867520e+001 1.318052e+002 2.569712e+000 1.521167e+000 1.581442e+000 2.587913e+000 2.205244e+000 3.263843e+000 1.867969e+000 2.134392e+000 2.626611e+000 1.814599e+000 1.585299e+000 1.594031e+000 2.266492e+000 3.224897e-001 2.537074e-001 2.677446e-001 3.972005e-001 3.461457e-001 4.922199e-001 3.355976e-001 3.652808e-001 4.410312e-001 3.359493e-001 2.872582e-001 2.768144e-001 3.396754e-001
<GCONST> 1.175893e+002
<TRANSP> 5
 0.000000e+000 1.000000e+000 0.000000e+000 0.000000e+000 0.000000e+000
 0.000000e+000 6.000000e-001 4.000000e-001 0.000000e+000 0.000000e+000
 0.000000e+000 0.000000e+000 6.000000e-001 4.000000e-001 0.000000e+000
 0.000000e+000 0.000000e+000 0.000000e+000 7.000000e-001 3.000000e-001
 0.000000e+000 0.000000e+000 0.000000e+000 0.000000e+000 0.000000e+000
<ENDHMM>
~h "t"
<BEGINHMM>
<NUMSTATES> 5
<STATE> 2
<MEAN> 39
 -1.054866e+001 -1.585786e+000 1.532635e+000 4.898661e-002 2.591187e+000 -4.188194e+000 1.650425e+000 3.584352e+000 -8.082810e-001 -5.242408e-001 9.521774e-001 -2.066207e-001 6.765821e+001 -9.893719e-004 4.370896e-003 2.936753e-003 2.220659e-004 -1.452296e-003 2.421478e-003 2.489385e-003 -1.808583e-003 5.971932e-003 7.519505e-003 2.081149e-003 -2.299958e-003 -4.203989e-003 -3.621638e-004 -1.582598e-004 1.881931e-006 5.654030e-005 1.692552e-004 -8.328774e-005 3.929678e-005 4.017694e-004 -1.114904e-004 -2.048553e-004 -4.068760e-004 -2.945460e-004 3.621318e-005
<VARIANCE> 39
 9.135812e+001 2.887483e+001 4.226160e+001 6.238170e+001 6.069485e+001 9.299902e+001 3.194183e+001 4.381314e+001 5.450549e+001 3.285281e+001 2.566368e+001 2.867520e+001 1.318052e+002 2.569712e+000 1.521167e+000 1.581442e+000 2.587913e+000 2.205244e+000 3.263843e+000 1.867969e+000 2.134392e+000 2.626611e+000 1.814599e+000 1.585299e+000 1.594031e+000 2.266492e+000 3.224897e-001 2.537074e-001 2.677446e-001 3.972005e-001 3.461457e-001 4.922199e-001 3.355976e-001 3.652808e-001 4.410312e-001 3.359493e-001 2.872582e-001 2.768144e-001 3.396754e-001
<GCONST> 1.175893e+002
<STATE> 3
<MEAN> 39
 -1.054866e+001 -1.585786e+000 1.532635e+000 4.898661e-002 2.591187e+000 -4.188194e+000 1.650425e+000 3.584352e+000 -8.082810e-001 -5.242408e-001 9.521774e-001 -2.066207e-001 6.765821e+001 -9.893719e-004 4.370896e-003 2.936753e-003 2.220659e-004 -1.452296e-003 2.421478e-003 2.489385e-003 -1.808583e-003 5.971932e-003 7.519505e-003 2.081149e-003 -2.299958e-003 -4.203989e-003 -3.621638e-004 -1.582598e-004 1.881931e-006 5.654030e-005 1.692552e-004 -8.328774e-005 3.929678e-005 4.017694e-004 -1.114904e-004 -2.048553e-004 -4.068760e-004 -2.945460e-004 3.621318e-005
<VARIANCE> 39
 9.135812e+001 2.887483e+001 4.226160e+001 6.238170e+001 6.069485e+001 9.299902e+001 3.194183e+001 4.381314e+001 5.450549e+001 3.285281e+001 2.566368e+001 2.867520e+001 1.318052e+002 2.569712e+000 1.521167e+000 1.581442e+000 2.587913e+000 2.205244e+000 3.263843e+000 1.867969e+000 2.134392e+000 2.626611e+000 1.814599e+000 1.585299e+000 1.594031e+000 2.266492e+000 3.224897e-001 2.537074e-001 2.677446e-001 3.972005e-001 3.461457e-001 4.922199e-001 3.355976e-001 3.652808e-001 4.410312e-001 3.359493e-001 2.872582e-001 2.768144e-001 3.396754e-001
<GCONST> 1.175893e+002
<STATE> 4
<MEAN> 39
 -1.054866e+001 -1.585786e+000 1.532635e+000 4.898661e-002 2.591187e+000 -4.188194e+000 1.650425e+000 3.584352e+000 -8.082810e-001 -5.242408e-001 9.521774e-001 -2.066207e-001 6.765821e+001 -9.893719e-004 4.370896e-003 2.936753e-003 2.220659e-004 -1.452296e-003 2.421478e-003 2.489385e-003 -1.808583e-003 5.971932e-003 7.519505e-003 2.081149e-003 -2.299958e-003 -4.203989e-003 -3.621638e-004 -1.582598e-004 1.881931e-006 5.654030e-005 1.692552e-004 -8.328774e-005 3.929678e-005 4.017694e-004 -1.114904e-004 -2.048553e-004 -4.068760e-004 -2.945460e-004 3.621318e-005
<VARIANCE> 39
 9.135812e+001 2.887483e+001 4.226160e+001 6.238170e+001 6.069485e+001 9.299902e+001 3.194183e+001 4.381314e+001 5.450549e+001 3.285281e+001 2.566368e+001 2.867520e+001 1.318052e+002 2.569712e+000 1.521167e+000 1.581442e+000 2.587913e+000 2.205244e+000 3.263843e+000 1.867969e+000 2.134392e+000 2.626611e+000 1.814599e+000 1.585299e+000 1.594031e+000 2.266492e+000 3.224897e-001 2.537074e-001 2.677446e-001 3.972005e-001 3.461457e-001 4.922199e-001 3.355976e-001 3.652808e-001 4.410312e-001 3.359493e-001 2.872582e-001 2.768144e-001 3.396754e-001
<GCONST> 1.175893e+002
<TRANSP> 5
 0.000000e+000 1.000000e+000 0.000000e+000 0.000000e+000 0.000000e+000
 0.000000e+000 6.000000e-001 4.000000e-001 0.000000e+000 0.000000e+000
 0.000000e+000 0.000000e+000 6.000000e-001 4.000000e-001 0.000000e+000
 0.000000e+000 0.000000e+000 0.000000e+000 7.000000e-001 3.000000e-001
 0.000000e+000 0.000000e+000 0.000000e+000 0.000000e+000 0.000000e+000
<ENDHMM>
~h "b"
<BEGINHMM>
<NUMSTATES> 5
<STATE> 2
<MEAN> 39
 -1.054866e+001 -1.585786e+000 1.532635e+000 4.898661e-002 2.591187e+000 -4.188194e+000 1.650425e+000 3.584352e+000 -8.082810e-001 -5.242408e-001 9.521774e-001 -2.066207e-001 6.765821e+001 -9.893719e-004 4.370896e-003 2.936753e-003 2.220659e-004 -1.452296e-003 2.421478e-003 2.489385e-003 -1.808583e-003 5.971932e-003 7.519505e-003 2.081149e-003 -2.299958e-003 -4.203989e-003 -3.621638e-004 -1.582598e-004 1.881931e-006 5.654030e-005 1.692552e-004 -8.328774e-005 3.929678e-005 4.017694e-004 -1.114904e-004 -2.048553e-004 -4.068760e-004 -2.945460e-004 3.621318e-005
<VARIANCE> 39
 9.135812e+001 2.887483e+001 4.226160e+001 6.238170e+001 6.069485e+001 9.299902e+001 3.194183e+001 4.381314e+001 5.450549e+001 3.285281e+001 2.566368e+001 2.867520e+001 1.318052e+002 2.569712e+000 1.521167e+000 1.581442e+000 2.587913e+000 2.205244e+000 3.263843e+000 1.867969e+000 2.134392e+000 2.626611e+000 1.814599e+000 1.585299e+000 1.594031e+000 2.266492e+000 3.224897e-001 2.537074e-001 2.677446e-001 3.972005e-001 3.461457e-001 4.922199e-001 3.355976e-001 3.652808e-001 4.410312e-001 3.359493e-001 2.872582e-001 2.768144e-001 3.396754e-001
<GCONST> 1.175893e+002
<STATE> 3
<MEAN> 39
 -1.054866e+001 -1.585786e+000 1.532635e+000 4.898661e-002 2.591187e+000 -4.188194e+000 1.650425e+000 3.584352e+000 -8.082810e-001 -5.242408e-001 9.521774e-001 -2.066207e-001 6.765821e+001 -9.893719e-004 4.370896e-003 2.936753e-003 2.220659e-004 -1.452296e-003 2.421478e-003 2.489385e-003 -1.808583e-003 5.971932e-003 7.519505e-003 2.081149e-003 -2.299958e-003 -4.203989e-003 -3.621638e-004 -1.582598e-004 1.881931e-006 5.654030e-005 1.692552e-004 -8.328774e-005 3.929678e-005 4.017694e-004 -1.114904e-004 -2.048553e-004 -4.068760e-004 -2.945460e-004 3.621318e-005
<VARIANCE> 39
 9.135812e+001 2.887483e+001 4.226160e+001 6.238170e+001 6.069485e+001 9.299902e+001 3.194183e+001 4.381314e+001 5.450549e+001 3.285281e+001 2.566368e+001 2.867520e+001 1.318052e+002 2.569712e+000 1.521167e+000 1.581442e+000 2.587913e+000 2.205244e+000 3.263843e+000 1.867969e+000 2.134392e+000 2.626611e+000 1.814599e+000 1.585299e+000 1.594031e+000 2.266492e+000 3.224897e-001 2.537074e-001 2.677446e-001 3.972005e-001 3.461457e-001 4.922199e-001 3.355976e-001 3.652808e-001 4.410312e-001 3.359493e-001 2.872582e-001 2.768144e-001 3.396754e-001
<GCONST> 1.175893e+002
<STATE> 4
<MEAN> 39
 -1.054866e+001 -1.585786e+000 1.532635e+000 4.898661e-002 2.591187e+000 -4.188194e+000 1.650425e+000 3.584352e+000 -8.082810e-001 -5.242408e-001 9.521774e-001 -2.066207e-001 6.765821e+001 -9.893719e-004 4.370896e-003 2.936753e-003 2.220659e-004 -1.452296e-003 2.421478e-003 2.489385e-003 -1.808583e-003 5.971932e-003 7.519505e-003 2.081149e-003 -2.299958e-003 -4.203989e-003 -3.621638e-004 -1.582598e-004 1.881931e-006 5.654030e-005 1.692552e-004 -8.328774e-005 3.929678e-005 4.017694e-004 -1.114904e-004 -2.048553e-004 -4.068760e-004 -2.945460e-004 3.621318e-005
<VARIANCE> 39
 9.135812e+001 2.887483e+001 4.226160e+001 6.238170e+001 6.069485e+001 9.299902e+001 3.194183e+001 4.381314e+001 5.450549e+001 3.285281e+001 2.566368e+001 2.867520e+001 1.318052e+002 2.569712e+000 1.521167e+000 1.581442e+000 2.587913e+000 2.205244e+000 3.263843e+000 1.867969e+000 2.134392e+000 2.626611e+000 1.814599e+000 1.585299e+000 1.594031e+000 2.266492e+000 3.224897e-001 2.537074e-001 2.677446e-001 3.972005e-001 3.461457e-001 4.922199e-001 3.355976e-001 3.652808e-001 4.410312e-001 3.359493e-001 2.872582e-001 2.768144e-001 3.396754e-001
<GCONST> 1.175893e+002
<TRANSP> 5
 0.000000e+000 1.000000e+000 0.000000e+000 0.000000e+000 0.000000e+000
 0.000000e+000 6.000000e-001 4.000000e-001 0.000000e+000 0.000000e+000
 0.000000e+000 0.000000e+000 6.000000e-001 4.000000e-001 0.000000e+000
 0.000000e+000 0.000000e+000 0.000000e+000 7.000000e-001 3.000000e-001
 0.000000e+000 0.000000e+000 0.000000e+000 0.000000e+000 0.000000e+000
<ENDHMM>
~h "ng"
<BEGINHMM>
<NUMSTATES> 5
<STATE> 2
<MEAN> 39
 -1.054866e+001 -1.585786e+000 1.532635e+000 4.898661e-002 2.591187e+000 -4.188194e+000 1.650425e+000 3.584352e+000 -8.082810e-001 -5.242408e-001 9.521774e-001 -2.066207e-001 6.765821e+001 -9.893719e-004 4.370896e-003 2.936753e-003 2.220659e-004 -1.452296e-003 2.421478e-003 2.489385e-003 -1.808583e-003 5.971932e-003 7.519505e-003 2.081149e-003 -2.299958e-003 -4.203989e-003 -3.621638e-004 -1.582598e-004 1.881931e-006 5.654030e-005 1.692552e-004 -8.328774e-005 3.929678e-005 4.017694e-004 -1.114904e-004 -2.048553e-004 -4.068760e-004 -2.945460e-004 3.621318e-005
<VARIANCE> 39
 9.135812e+001 2.887483e+001 4.226160e+001 6.238170e+001 6.069485e+001 9.299902e+001 3.194183e+001 4.381314e+001 5.450549e+001 3.285281e+001 2.566368e+001 2.867520e+001 1.318052e+002 2.569712e+000 1.521167e+000 1.581442e+000 2.587913e+000 2.205244e+000 3.263843e+000 1.867969e+000 2.134392e+000 2.626611e+000 1.814599e+000 1.585299e+000 1.594031e+000 2.266492e+000 3.224897e-001 2.537074e-001 2.677446e-001 3.972005e-001 3.461457e-001 4.922199e-001 3.355976e-001 3.652808e-001 4.410312e-001 3.359493e-001 2.872582e-001 2.768144e-001 3.396754e-001
<GCONST> 1.175893e+002
<STATE> 3
<MEAN> 39
 -1.054866e+001 -1.585786e+000 1.532635e+000 4.898661e-002 2.591187e+000 -4.188194e+000 1.650425e+000 3.584352e+000 -8.082810e-001 -5.242408e-001 9.521774e-001 -2.066207e-001 6.765821e+001 -9.893719e-004 4.370896e-003 2.936753e-003 2.220659e-004 -1.452296e-003 2.421478e-003 2.489385e-003 -1.808583e-003 5.971932e-003 7.519505e-003 2.081149e-003 -2.299958e-003 -4.203989e-003 -3.621638e-004 -1.582598e-004 1.881931e-006 5.654030e-005 1.692552e-004 -8.328774e-005 3.929678e-005 4.017694e-004 -1.114904e-004 -2.048553e-004 -4.068760e-004 -2.945460e-004 3.621318e-005
<VARIANCE> 39
 9.135812e+001 2.887483e+001 4.226160e+001 6.238170e+001 6.069485e+001 9.299902e+001 3.194183e+001 4.381314e+001 5.450549e+001 3.285281e+001 2.566368e+001 2.867520e+001 1.318052e+002 2.569712e+000 1.521167e+000 1.581442e+000 2.587913e+000 2.205244e+000 3.263843e+000 1.867969e+000 2.134392e+000 2.626611e+000 1.814599e+000 1.585299e+000 1.594031e+000 2.266492e+000 3.224897e-001 2.537074e-001 2.677446e-001 3.972005e-001 3.461457e-001 4.922199e-001 3.355976e-001 3.652808e-001 4.410312e-001 3.359493e-001 2.872582e-001 2.768144e-001 3.396754e-001
<GCONST> 1.175893e+002
<STATE> 4
<MEAN> 39
 -1.054866e+001 -1.585786e+000 1.532635e+000 4.898661e-002 2.591187e+000 -4.188194e+000 1.650425e+000 3.584352e+000 -8.082810e-001 -5.242408e-001 9.521774e-001 -2.066207e-001 6.765821e+001 -9.893719e-004 4.370896e-003 2.936753e-003 2.220659e-004 -1.452296e-003 2.421478e-003 2.489385e-003 -1.808583e-003 5.971932e-003 7.519505e-003 2.081149e-003 -2.299958e-003 -4.203989e-003 -3.621638e-004 -1.582598e-004 1.881931e-006 5.654030e-005 1.692552e-004 -8.328774e-005 3.929678e-005 4.017694e-004 -1.114904e-004 -2.048553e-004 -4.068760e-004 -2.945460e-004 3.621318e-005
<VARIANCE> 39
 9.135812e+001 2.887483e+001 4.226160e+001 6.238170e+001 6.069485e+001 9.299902e+001 3.194183e+001 4.381314e+001 5.450549e+001 3.285281e+001 2.566368e+001 2.867520e+001 1.318052e+002 2.569712e+000 1.521167e+000 1.581442e+000 2.587913e+000 2.205244e+000 3.263843e+000 1.867969e+000 2.134392e+000 2.626611e+000 1.814599e+000 1.585299e+000 1.594031e+000 2.266492e+000 3.224897e-001 2.537074e-001 2.677446e-001 3.972005e-001 3.461457e-001 4.922199e-001 3.355976e-001 3.652808e-001 4.410312e-001 3.359493e-001 2.872582e-001 2.768144e-001 3.396754e-001
<GCONST> 1.175893e+002
<TRANSP> 5
 0.000000e+000 1.000000e+000 0.000000e+000 0.000000e+000 0.000000e+000
 0.000000e+000 6.000000e-001 4.000000e-001 0.000000e+000 0.000000e+000
 0.000000e+000 0.000000e+000 6.000000e-001 4.000000e-001 0.000000e+000
 0.000000e+000 0.000000e+000 0.000000e+000 7.000000e-001 3.000000e-001
 0.000000e+000 0.000000e+000 0.000000e+000 0.000000e+000 0.000000e+000
<ENDHMM>
~h "uh"
<BEGINHMM>
<NUMSTATES> 5
<STATE> 2
<MEAN> 39
 -1.054866e+001 -1.585786e+000 1.532635e+000 4.898661e-002 2.591187e+000 -4.188194e+000 1.650425e+000 3.584352e+000 -8.082810e-001 -5.242408e-001 9.521774e-001 -2.066207e-001 6.765821e+001 -9.893719e-004 4.370896e-003 2.936753e-003 2.220659e-004 -1.452296e-003 2.421478e-003 2.489385e-003 -1.808583e-003 5.971932e-003 7.519505e-003 2.081149e-003 -2.299958e-003 -4.203989e-003 -3.621638e-004 -1.582598e-004 1.881931e-006 5.654030e-005 1.692552e-004 -8.328774e-005 3.929678e-005 4.017694e-004 -1.114904e-004 -2.048553e-004 -4.068760e-004 -2.945460e-004 3.621318e-005
<VARIANCE> 39
 9.135812e+001 2.887483e+001 4.226160e+001 6.238170e+001 6.069485e+001 9.299902e+001 3.194183e+001 4.381314e+001 5.450549e+001 3.285281e+001 2.566368e+001 2.867520e+001 1.318052e+002 2.569712e+000 1.521167e+000 1.581442e+000 2.587913e+000 2.205244e+000 3.263843e+000 1.867969e+000 2.134392e+000 2.626611e+000 1.814599e+000 1.585299e+000 1.594031e+000 2.266492e+000 3.224897e-001 2.537074e-001 2.677446e-001 3.972005e-001 3.461457e-001 4.922199e-001 3.355976e-001 3.652808e-001 4.410312e-001 3.359493e-001 2.872582e-001 2.768144e-001 3.396754e-001
<GCONST> 1.175893e+002
<STATE> 3
<MEAN> 39
 -1.054866e+001 -1.585786e+000 1.532635e+000 4.898661e-002 2.591187e+000 -4.188194e+000 1.650425e+000 3.584352e+000 -8.082810e-001 -5.242408e-001 9.521774e-001 -2.066207e-001 6.765821e+001 -9.893719e-004 4.370896e-003 2.936753e-003 2.220659e-004 -1.452296e-003 2.421478e-003 2.489385e-003 -1.808583e-003 5.971932e-003 7.519505e-003 2.081149e-003 -2.299958e-003 -4.203989e-003 -3.621638e-004 -1.582598e-004 1.881931e-006 5.654030e-005 1.692552e-004 -8.328774e-005 3.929678e-005 4.017694e-004 -1.114904e-004 -2.048553e-004 -4.068760e-004 -2.945460e-004 3.621318e-005
<VARIANCE> 39
 9.135812e+001 2.887483e+001 4.226160e+001 6.238170e+001 6.069485e+001 9.299902e+001 3.194183e+001 4.381314e+001 5.450549e+001 3.285281e+001 2.566368e+001 2.867520e+001 1.318052e+002 2.569712e+000 1.521167e+000 1.581442e+000 2.587913e+000 2.205244e+000 3.263843e+000 1.867969e+000 2.134392e+000 2.626611e+000 1.814599e+000 1.585299e+000 1.594031e+000 2.266492e+000 3.224897e-001 2.537074e-001 2.677446e-001 3.972005e-001 3.461457e-001 4.922199e-001 3.355976e-001 3.652808e-001 4.410312e-001 3.359493e-001 2.872582e-001 2.768144e-001 3.396754e-001
<GCONST> 1.175893e+002
<STATE> 4
<MEAN> 39
 -1.054866e+001 -1.585786e+000 1.532635e+000 4.898661e-002 2.591187e+000 -4.188194e+000 1.650425e+000 3.584352e+000 -8.082810e-001 -5.242408e-001 9.521774e-001 -2.066207e-001 6.765821e+001 -9.893719e-004 4.370896e-003 2.936753e-003 2.220659e-004 -1.452296e-003 2.421478e-003 2.489385e-003 -1.808583e-003 5.971932e-003 7.519505e-003 2.081149e-003 -2.299958e-003 -4.203989e-003 -3.621638e-004 -1.582598e-004 1.881931e-006 5.654030e-005 1.692552e-004 -8.328774e-005 3.929678e-005 4.017694e-004 -1.114904e-004 -2.048553e-004 -4.068760e-004 -2.945460e-004 3.621318e-005
<VARIANCE> 39
 9.135812e+001 2.887483e+001 4.226160e+001 6.238170e+001 6.069485e+001 9.299902e+001 3.194183e+001 4.381314e+001 5.450549e+001 3.285281e+001 2.566368e+001 2.867520e+001 1.318052e+002 2.569712e+000 1.521167e+000 1.581442e+000 2.587913e+000 2.205244e+000 3.263843e+000 1.867969e+000 2.134392e+000 2.626611e+000 1.814599e+000 1.585299e+000 1.594031e+000 2.266492e+000 3.224897e-001 2.537074e-001 2.677446e-001 3.972005e-001 3.461457e-001 4.922199e-001 3.355976e-001 3.652808e-001 4.410312e-001 3.359493e-001 2.872582e-001 2.768144e-001 3.396754e-001
<GCONST> 1.175893e+002
<TRANSP> 5
 0.000000e+000 1.000000e+000 0.000000e+000 0.000000e+000 0.000000e+000
 0.000000e+000 6.000000e-001 4.000000e-001 0.000000e+000 0.000000e+000
 0.000000e+000 0.000000e+000 6.000000e-001 4.000000e-001 0.000000e+000
 0.000000e+000 0.000000e+000 0.000000e+000 7.000000e-001 3.000000e-001
 0.000000e+000 0.000000e+000 0.000000e+000 0.000000e+000 0.000000e+000
<ENDHMM>
~h "k"
<BEGINHMM>
<NUMSTATES> 5
<STATE> 2
<MEAN> 39
 -1.054866e+001 -1.585786e+000 1.532635e+000 4.898661e-002 2.591187e+000 -4.188194e+000 1.650425e+000 3.584352e+000 -8.082810e-001 -5.242408e-001 9.521774e-001 -2.066207e-001 6.765821e+001 -9.893719e-004 4.370896e-003 2.936753e-003 2.220659e-004 -1.452296e-003 2.421478e-003 2.489385e-003 -1.808583e-003 5.971932e-003 7.519505e-003 2.081149e-003 -2.299958e-003 -4.203989e-003 -3.621638e-004 -1.582598e-004 1.881931e-006 5.654030e-005 1.692552e-004 -8.328774e-005 3.929678e-005 4.017694e-004 -1.114904e-004 -2.048553e-004 -4.068760e-004 -2.945460e-004 3.621318e-005
<VARIANCE> 39
 9.135812e+001 2.887483e+001 4.226160e+001 6.238170e+001 6.069485e+001 9.299902e+001 3.194183e+001 4.381314e+001 5.450549e+001 3.285281e+001 2.566368e+001 2.867520e+001 1.318052e+002 2.569712e+000 1.521167e+000 1.581442e+000 2.587913e+000 2.205244e+000 3.263843e+000 1.867969e+000 2.134392e+000 2.626611e+000 1.814599e+000 1.585299e+000 1.594031e+000 2.266492e+000 3.224897e-001 2.537074e-001 2.677446e-001 3.972005e-001 3.461457e-001 4.922199e-001 3.355976e-001 3.652808e-001 4.410312e-001 3.359493e-001 2.872582e-001 2.768144e-001 3.396754e-001
<GCONST> 1.175893e+002
<STATE> 3
<MEAN> 39
 -1.054866e+001 -1.585786e+000 1.532635e+000 4.898661e-002 2.591187e+000 -4.188194e+000 1.650425e+000 3.584352e+000 -8.082810e-001 -5.242408e-001 9.521774e-001 -2.066207e-001 6.765821e+001 -9.893719e-004 4.370896e-003 2.936753e-003 2.220659e-004 -1.452296e-003 2.421478e-003 2.489385e-003 -1.808583e-003 5.971932e-003 7.519505e-003 2.081149e-003 -2.299958e-003 -4.203989e-003 -3.621638e-004 -1.582598e-004 1.881931e-006 5.654030e-005 1.692552e-004 -8.328774e-005 3.929678e-005 4.017694e-004 -1.114904e-004 -2.048553e-004 -4.068760e-004 -2.945460e-004 3.621318e-005
<VARIANCE> 39
 9.135812e+001 2.887483e+001 4.226160e+001 6.238170e+001 6.069485e+001 9.299902e+001 3.194183e+001 4.381314e+001 5.450549e+001 3.285281e+001 2.566368e+001 2.867520e+001 1.318052e+002 2.569712e+000 1.521167e+000 1.581442e+000 2.587913e+000 2.205244e+000 3.263843e+000 1.867969e+000 2.134392e+000 2.626611e+000 1.814599e+000 1.585299e+000 1.594031e+000 2.266492e+000 3.224897e-001 2.537074e-001 2.677446e-001 3.972005e-001 3.461457e-001 4.922199e-001 3.355976e-001 3.652808e-001 4.410312e-001 3.359493e-001 2.872582e-001 2.768144e-001 3.396754e-001
<GCONST> 1.175893e+002
<STATE> 4
<MEAN> 39
 -1.054866e+001 -1.585786e+000 1.532635e+000 4.898661e-002 2.591187e+000 -4.188194e+000 1.650425e+000 3.584352e+000 -8.082810e-001 -5.242408e-001 9.521774e-001 -2.066207e-001 6.765821e+001 -9.893719e-004 4.370896e-003 2.936753e-003 2.220659e-004 -1.452296e-003 2.421478e-003 2.489385e-003 -1.808583e-003 5.971932e-003 7.519505e-003 2.081149e-003 -2.299958e-003 -4.203989e-003 -3.621638e-004 -1.582598e-004 1.881931e-006 5.654030e-005 1.692552e-004 -8.328774e-005 3.929678e-005 4.017694e-004 -1.114904e-004 -2.048553e-004 -4.068760e-004 -2.945460e-004 3.621318e-005
<VARIANCE> 39
 9.135812e+001 2.887483e+001 4.226160e+001 6.238170e+001 6.069485e+001 9.299902e+001 3.194183e+001 4.381314e+001 5.450549e+001 3.285281e+001 2.566368e+001 2.867520e+001 1.318052e+002 2.569712e+000 1.521167e+000 1.581442e+000 2.587913e+000 2.205244e+000 3.263843e+000 1.867969e+000 2.134392e+000 2.626611e+000 1.814599e+000 1.585299e+000 1.594031e+000 2.266492e+000 3.224897e-001 2.537074e-001 2.677446e-001 3.972005e-001 3.461457e-001 4.922199e-001 3.355976e-001 3.652808e-001 4.410312e-001 3.359493e-001 2.872582e-001 2.768144e-001 3.396754e-001
<GCONST> 1.175893e+002
<TRANSP> 5
 0.000000e+000 1.000000e+000 0.000000e+000 0.000000e+000 0.000000e+000
 0.000000e+000 6.000000e-001 4.000000e-001 0.000000e+000 0.000000e+000
 0.000000e+000 0.000000e+000 6.000000e-001 4.000000e-001 0.000000e+000
 0.000000e+000 0.000000e+000 0.000000e+000 7.000000e-001 3.000000e-001
 0.000000e+000 0.000000e+000 0.000000e+000 0.000000e+000 0.000000e+000
<ENDHMM>
~h "ay"
<BEGINHMM>
<NUMSTATES> 5
<STATE> 2
<MEAN> 39
 -1.054866e+001 -1.585786e+000 1.532635e+000 4.898661e-002 2.591187e+000 -4.188194e+000 1.650425e+000 3.584352e+000 -8.082810e-001 -5.242408e-001 9.521774e-001 -2.066207e-001 6.765821e+001 -9.893719e-004 4.370896e-003 2.936753e-003 2.220659e-004 -1.452296e-003 2.421478e-003 2.489385e-003 -1.808583e-003 5.971932e-003 7.519505e-003 2.081149e-003 -2.299958e-003 -4.203989e-003 -3.621638e-004 -1.582598e-004 1.881931e-006 5.654030e-005 1.692552e-004 -8.328774e-005 3.929678e-005 4.017694e-004 -1.114904e-004 -2.048553e-004 -4.068760e-004 -2.945460e-004 3.621318e-005
<VARIANCE> 39
 9.135812e+001 2.887483e+001 4.226160e+001 6.238170e+001 6.069485e+001 9.299902e+001 3.194183e+001 4.381314e+001 5.450549e+001 3.285281e+001 2.566368e+001 2.867520e+001 1.318052e+002 2.569712e+000 1.521167e+000 1.581442e+000 2.587913e+000 2.205244e+000 3.263843e+000 1.867969e+000 2.134392e+000 2.626611e+000 1.814599e+000 1.585299e+000 1.594031e+000 2.266492e+000 3.224897e-001 2.537074e-001 2.677446e-001 3.972005e-001 3.461457e-001 4.922199e-001 3.355976e-001 3.652808e-001 4.410312e-001 3.359493e-001 2.872582e-001 2.768144e-001 3.396754e-001
<GCONST> 1.175893e+002
<STATE> 3
<MEAN> 39
 -1.054866e+001 -1.585786e+000 1.532635e+000 4.898661e-002 2.591187e+000 -4.188194e+000 1.650425e+000 3.584352e+000 -8.082810e-001 -5.242408e-001 9.521774e-001 -2.066207e-001 6.765821e+001 -9.893719e-004 4.370896e-003 2.936753e-003 2.220659e-004 -1.452296e-003 2.421478e-003 2.489385e-003 -1.808583e-003 5.971932e-003 7.519505e-003 2.081149e-003 -2.299958e-003 -4.203989e-003 -3.621638e-004 -1.582598e-004 1.881931e-006 5.654030e-005 1.692552e-004 -8.328774e-005 3.929678e-005 4.017694e-004 -1.114904e-004 -2.048553e-004 -4.068760e-004 -2.945460e-004 3.621318e-005
<VARIANCE> 39
 9.135812e+001 2.887483e+001 4.226160e+001 6.238170e+001 6.069485e+001 9.299902e+001 3.194183e+001 4.381314e+001 5.450549e+001 3.285281e+001 2.566368e+001 2.867520e+001 1.318052e+002 2.569712e+000 1.521167e+000 1.581442e+000 2.587913e+000 2.205244e+000 3.263843e+000 1.867969e+000 2.134392e+000 2.626611e+000 1.814599e+000 1.585299e+000 1.594031e+000 2.266492e+000 3.224897e-001 2.537074e-001 2.677446e-001 3.972005e-001 3.461457e-001 4.922199e-001 3.355976e-001 3.652808e-001 4.410312e-001 3.359493e-001 2.872582e-001 2.768144e-001 3.396754e-001
<GCONST> 1.175893e+002
<STATE> 4
<MEAN> 39
 -1.054866e+001 -1.585786e+000 1.532635e+000 4.898661e-002 2.591187e+000 -4.188194e+000 1.650425e+000 3.584352e+000 -8.082810e-001 -5.242408e-001 9.521774e-001 -2.066207e-001 6.765821e+001 -9.893719e-004 4.370896e-003 2.936753e-003 2.220659e-004 -1.452296e-003 2.421478e-003 2.489385e-003 -1.808583e-003 5.971932e-003 7.519505e-003 2.081149e-003 -2.299958e-003 -4.203989e-003 -3.621638e-004 -1.582598e-004 1.881931e-006 5.654030e-005 1.692552e-004 -8.328774e-005 3.929678e-005 4.017694e-004 -1.114904e-004 -2.048553e-004 -4.068760e-004 -2.945460e-004 3.621318e-005
<VARIANCE> 39
 9.135812e+001 2.887483e+001 4.226160e+001 6.238170e+001 6.069485e+001 9.299902e+001 3.194183e+001 4.381314e+001 5.450549e+001 3.285281e+001 2.566368e+001 2.867520e+001 1.318052e+002 2.569712e+000 1.521167e+000 1.581442e+000 2.587913e+000 2.205244e+000 3.263843e+000 1.867969e+000 2.134392e+000 2.626611e+000 1.814599e+000 1.585299e+000 1.594031e+000 2.266492e+000 3.224897e-001 2.537074e-001 2.677446e-001 3.972005e-001 3.461457e-001 4.922199e-001 3.355976e-001 3.652808e-001 4.410312e-001 3.359493e-001 2.872582e-001 2.768144e-001 3.396754e-001
<GCONST> 1.175893e+002
<TRANSP> 5
 0.000000e+000 1.000000e+000 0.000000e+000 0.000000e+000 0.000000e+000
 0.000000e+000 6.000000e-001 4.000000e-001 0.000000e+000 0.000000e+000
 0.000000e+000 0.000000e+000 6.000000e-001 4.000000e-001 0.000000e+000
 0.000000e+000 0.000000e+000 0.000000e+000 7.000000e-001 3.000000e-001
 0.000000e+000 0.000000e+000 0.000000e+000 0.000000e+000 0.000000e+000
<ENDHMM>
~h "ow"
<BEGINHMM>
<NUMSTATES> 5
<STATE> 2
<MEAN> 39
 -1.054866e+001 -1.585786e+000 1.532635e+000 4.898661e-002 2.591187e+000 -4.188194e+000 1.650425e+000 3.584352e+000 -8.082810e-001 -5.242408e-001 9.521774e-001 -2.066207e-001 6.765821e+001 -9.893719e-004 4.370896e-003 2.936753e-003 2.220659e-004 -1.452296e-003 2.421478e-003 2.489385e-003 -1.808583e-003 5.971932e-003 7.519505e-003 2.081149e-003 -2.299958e-003 -4.203989e-003 -3.621638e-004 -1.582598e-004 1.881931e-006 5.654030e-005 1.692552e-004 -8.328774e-005 3.929678e-005 4.017694e-004 -1.114904e-004 -2.048553e-004 -4.068760e-004 -2.945460e-004 3.621318e-005
<VARIANCE> 39
 9.135812e+001 2.887483e+001 4.226160e+001 6.238170e+001 6.069485e+001 9.299902e+001 3.194183e+001 4.381314e+001 5.450549e+001 3.285281e+001 2.566368e+001 2.867520e+001 1.318052e+002 2.569712e+000 1.521167e+000 1.581442e+000 2.587913e+000 2.205244e+000 3.263843e+000 1.867969e+000 2.134392e+000 2.626611e+000 1.814599e+000 1.585299e+000 1.594031e+000 2.266492e+000 3.224897e-001 2.537074e-001 2.677446e-001 3.972005e-001 3.461457e-001 4.922199e-001 3.355976e-001 3.652808e-001 4.410312e-001 3.359493e-001 2.872582e-001 2.768144e-001 3.396754e-001
<GCONST> 1.175893e+002
<STATE> 3
<MEAN> 39
 -1.054866e+001 -1.585786e+000 1.532635e+000 4.898661e-002 2.591187e+000 -4.188194e+000 1.650425e+000 3.584352e+000 -8.082810e-001 -5.242408e-001 9.521774e-001 -2.066207e-001 6.765821e+001 -9.893719e-004 4.370896e-003 2.936753e-003 2.220659e-004 -1.452296e-003 2.421478e-003 2.489385e-003 -1.808583e-003 5.971932e-003 7.519505e-003 2.081149e-003 -2.299958e-003 -4.203989e-003 -3.621638e-004 -1.582598e-004 1.881931e-006 5.654030e-005 1.692552e-004 -8.328774e-005 3.929678e-005 4.017694e-004 -1.114904e-004 -2.048553e-004 -4.068760e-004 -2.945460e-004 3.621318e-005
<VARIANCE> 39
 9.135812e+001 2.887483e+001 4.226160e+001 6.238170e+001 6.069485e+001 9.299902e+001 3.194183e+001 4.381314e+001 5.450549e+001 3.285281e+001 2.566368e+001 2.867520e+001 1.318052e+002 2.569712e+000 1.521167e+000 1.581442e+000 2.587913e+000 2.205244e+000 3.263843e+000 1.867969e+000 2.134392e+000 2.626611e+000 1.814599e+000 1.585299e+000 1.594031e+000 2.266492e+000 3.224897e-001 2.537074e-001 2.677446e-001 3.972005e-001 3.461457e-001 4.922199e-001 3.355976e-001 3.652808e-001 4.410312e-001 3.359493e-001 2.872582e-001 2.768144e-001 3.396754e-001
<GCONST> 1.175893e+002
<STATE> 4
<MEAN> 39
 -1.054866e+001 -1.585786e+000 1.532635e+000 4.898661e-002 2.591187e+000 -4.188194e+000 1.650425e+000 3.584352e+000 -8.082810e-001 -5.242408e-001 9.521774e-001 -2.066207e-001 6.765821e+001 -9.893719e-004 4.370896e-003 2.936753e-003 2.220659e-004 -1.452296e-003 2.421478e-003 2.489385e-003 -1.808583e-003 5.971932e-003 7.519505e-003 2.081149e-003 -2.299958e-003 -4.203989e-003 -3.621638e-004 -1.582598e-004 1.881931e-006 5.654030e-005 1.692552e-004 -8.328774e-005 3.929678e-005 4.017694e-004 -1.114904e-004 -2.048553e-004 -4.068760e-004 -2.945460e-004 3.621318e-005
<VARIANCE> 39
 9.135812e+001 2.887483e+001 4.226160e+001 6.238170e+001 6.069485e+001 9.299902e+001 3.194183e+001 4.381314e+001 5.450549e+001 3.285281e+001 2.566368e+001 2.867520e+001 1.318052e+002 2.569712e+000 1.521167e+000 1.581442e+000 2.587913e+000 2.205244e+000 3.263843e+000 1.867969e+000 2.134392e+000 2.626611e+000 1.814599e+000 1.585299e+000 1.594031e+000 2.266492e+000 3.224897e-001 2.537074e-001 2.677446e-001 3.972005e-001 3.461457e-001 4.922199e-001 3.355976e-001 3.652808e-001 4.410312e-001 3.359493e-001 2.872582e-001 2.768144e-001 3.396754e-001
<GCONST> 1.175893e+002
<TRANSP> 5
 0.000000e+000 1.000000e+000 0.000000e+000 0.000000e+000 0.000000e+000
 0.000000e+000 6.000000e-001 4.000000e-001 0.000000e+000 0.000000e+000
 0.000000e+000 0.000000e+000 6.000000e-001 4.000000e-001 0.000000e+000
 0.000000e+000 0.000000e+000 0.000000e+000 7.000000e-001 3.000000e-001
 0.000000e+000 0.000000e+000 0.000000e+000 0.000000e+000 0.000000e+000
<ENDHMM>
~h "eh"
<BEGINHMM>
<NUMSTATES> 5
<STATE> 2
<MEAN> 39
 -1.054866e+001 -1.585786e+000 1.532635e+000 4.898661e-002 2.591187e+000 -4.188194e+000 1.650425e+000 3.584352e+000 -8.082810e-001 -5.242408e-001 9.521774e-001 -2.066207e-001 6.765821e+001 -9.893719e-004 4.370896e-003 2.936753e-003 2.220659e-004 -1.452296e-003 2.421478e-003 2.489385e-003 -1.808583e-003 5.971932e-003 7.519505e-003 2.081149e-003 -2.299958e-003 -4.203989e-003 -3.621638e-004 -1.582598e-004 1.881931e-006 5.654030e-005 1.692552e-004 -8.328774e-005 3.929678e-005 4.017694e-004 -1.114904e-004 -2.048553e-004 -4.068760e-004 -2.945460e-004 3.621318e-005
<VARIANCE> 39
 9.135812e+001 2.887483e+001 4.226160e+001 6.238170e+001 6.069485e+001 9.299902e+001 3.194183e+001 4.381314e+001 5.450549e+001 3.285281e+001 2.566368e+001 2.867520e+001 1.318052e+002 2.569712e+000 1.521167e+000 1.581442e+000 2.587913e+000 2.205244e+000 3.263843e+000 1.867969e+000 2.134392e+000 2.626611e+000 1.814599e+000 1.585299e+000 1.594031e+000 2.266492e+000 3.224897e-001 2.537074e-001 2.677446e-001 3.972005e-001 3.461457e-001 4.922199e-001 3.355976e-001 3.652808e-001 4.410312e-001 3.359493e-001 2.872582e-001 2.768144e-001 3.396754e-001
<GCONST> 1.175893e+002
<STATE> 3
<MEAN> 39
 -1.054866e+001 -1.585786e+000 1.532635e+000 4.898661e-002 2.591187e+000 -4.188194e+000 1.650425e+000 3.584352e+000 -8.082810e-001 -5.242408e-001 9.521774e-001 -2.066207e-001 6.765821e+001 -9.893719e-004 4.370896e-003 2.936753e-003 2.220659e-004 -1.452296e-003 2.421478e-003 2.489385e-003 -1.808583e-003 5.971932e-003 7.519505e-003 2.081149e-003 -2.299958e-003 -4.203989e-003 -3.621638e-004 -1.582598e-004 1.881931e-006 5.654030e-005 1.692552e-004 -8.328774e-005 3.929678e-005 4.017694e-004 -1.114904e-004 -2.048553e-004 -4.068760e-004 -2.945460e-004 3.621318e-005
<VARIANCE> 39
