~o
<STREAMINFO> 1 39
<VECSIZE> 39<NULLD><MFCC_D_A_0><DIAGC>
~s "silst"
<MEAN> 39
 -1.609089e+001 1.491417e+000 -3.636345e+000 2.012075e-001 -4.260694e-001 1.493145e+000 2.270101e+000 3.973780e+000 2.827237e+000 2.217814e+000 1.357673e+000 1.736768e+000 5.329913e+001 -1.980809e-002 1.876567e-002 -1.314843e-002 3.989540e-003 2.286572e-003 3.378142e-002 1.982472e-002 2.562806e-002 2.516562e-002 2.335167e-002 2.668226e-002 1.739085e-002 -3.281036e-002 -9.860398e-004 -1.574683e-002 1.773807e-002 -4.913122e-003 1.267787e-002 -2.481689e-003 -1.844103e-003 -2.992311e-003 -9.386556e-003 -1.556869e-002 -1.116036e-002 -7.332700e-003 2.275756e-002
<VARIANCE> 39
 1.590617e+000 2.543380e+000 3.628470e+000 4.322361e+000 5.356864e+000 6.537638e+000 7.077242e+000 7.742132e+000 7.690966e+000 8.856513e+000 7.538032e+000 7.643443e+000 2.057232e+000 7.961228e-002 1.605115e-001 2.601033e-001 3.673098e-001 4.732608e-001 5.928951e-001 6.736938e-001 7.278880e-001 7.522394e-001 8.020862e-001 7.552047e-001 7.031676e-001 3.563879e-002 1.620737e-002 3.401613e-002 5.318984e-002 7.626528e-002 9.753796e-002 1.219789e-001 1.382781e-001 1.471477e-001 1.533906e-001 1.639320e-001 1.548220e-001 1.439413e-001 7.938796e-003
<GCONST> 4.555942e+001
~h "b"
<BEGINHMM>
<NUMSTATES> 5
<STATE> 2
<MEAN> 39
 -6.461468e+000 8.096257e+000 5.166162e+000 5.308402e+000 3.839767e+000 -3.583320e+000 1.715381e+000 8.662889e+000 3.142481e+000 6.044223e-001 1.840392e+000 -3.235043e+000 6.263897e+001 -3.018104e-001 2.522722e-001 -8.167618e-001 -1.013698e+000 -1.929995e-001 1.470989e+000 -9.657199e-002 -8.389112e-001 6.048172e-001 -3.002918e-001 -2.521445e-001 4.888388e-001 -1.293424e-001 4.303155e-001 -5.703198e-001 1.514403e-001 -6.379773e-001 -1.117920e-001 -7.637507e-001 -4.504389e-001 -1.025501e-001 -4.767712e-001 -3.592063e-001 3.134095e-002 -1.142181e-001 9.949176e-001
<VARIANCE> 39
 2.277237e+001 1.862027e+001 2.907581e+001 2.581189e+001 1.866436e+001 5.037529e+001 2.088274e+001 1.762641e+001 2.266859e+001 2.874899e+001 1.215900e+001 1.999096e+001 4.819310e+001 1.218741e+000 2.030871e+000 1.391623e+000 9.368331e+000 2.606615e+000 5.941685e+000 4.717417e+000 2.107430e+000 2.610442e+000 2.613254e+000 1.530961e+000 1.607016e+000 7.280057e+000 2.585021e-001 3.135174e-001 1.952804e-001 5.794320e-001 4.919940e-001 9.927464e-001 3.965398e-001 3.654614e-001 6.153402e-001 4.066294e-001 4.117832e-001 2.748767e-001 4.514383e-001
<GCONST> 1.145674e+002
<STATE> 3
<MEAN> 39
 -3.417516e+000 5.042645e+000 2.952555e+000 -5.250169e+000 3.794824e+000 -5.240554e+000 -3.088845e+000 4.175976e+000 2.061449e+000 -5.421394e+000 -6.087285e-001 -3.191446e+000 7.298047e+001 2.382366e+000 -1.157033e+000 1.853345e-001 -3.305984e+000 -9.118356e-001 -2.474010e+000 -2.117452e+000 7.899804e-002 -1.514326e+000 -1.571916e+000 6.090730e-001 -3.709273e-002 3.403618e+000 1.861254e-001 -4.821170e-001 7.619138e-002 5.070602e-001 5.028001e-004 -3.397247e-001 3.925693e-001 5.255647e-001 -8.153969e-001 2.374179e-001 4.011474e-001 2.415515e-003 -1.735441e-001
<VARIANCE> 39
 4.236293e+001 1.527753e+001 1.822657e+001 2.580764e+001 1.694311e+001 6.954881e+001 2.372208e+001 2.616395e+001 2.647466e+001 2.319293e+001 1.937156e+001 2.232338e+001 1.660043e+001 2.137358e+000 3.157721e+000 2.908672e+000 8.365870e+000 4.973234e+000 1.205025e+001 2.565197e+000 3.603356e+000 5.152678e+000 5.101230e+000 3.133523e+000 3.832228e+000 3.978863e+000 5.789242e-001 4.342518e-001 3.187868e-001 5.745623e-001 4.926964e-001 1.302793e+000 6.699877e-001 6.997830e-001 7.365244e-001 5.588570e-001 3.549397e-001 4.690822e-001 4.938806e-001
<GCONST> 1.239940e+002
<STATE> 4
<MEAN> 39
 2.590445e+000 1.182803e+000 1.948991e+000 -1.528550e+001 1.200944e+000 -3.437337e+000 -2.061314e+000 8.099936e+000 -1.115720e+001 -1.488261e+001 7.593838e+000 7.538361e-001 7.822919e+001 1.582258e-001 -7.028709e-001 1.476500e-001 -3.069493e-001 -1.151137e-001 1.165356e-001 7.173544e-001 3.352794e-001 -1.423024e+000 -8.809530e-001 7.623711e-002 7.901797e-001 5.756412e-001 -4.129486e-001 1.733108e-001 9.921736e-002 7.580985e-001 1.334735e-001 1.313443e-001 3.497622e-001 -8.160299e-002 4.556744e-001 3.935733e-001 -4.156706e-001 -5.101523e-002 -3.687342e-001
<VARIANCE> 39
 6.577808e+000 4.773532e+000 1.043449e+001 4.608039e+001 1.700940e+001 6.408928e+001 2.638054e+001 1.721696e+001 5.629288e+001 6.265372e+001 2.600118e+001 2.103377e+001 3.838753e+000 1.229259e+000 1.369645e+000 5.053558e-001 3.654536e+000 1.936021e+000 3.930037e+000 1.663491e+000 1.662418e+000 3.641222e+000 1.934481e+000 3.173482e+000 1.074157e+000 2.018887e+000 1.593297e-001 1.612529e-001 1.263725e-001 4.004908e-001 1.844453e-001 6.381007e-001 4.445328e-001 2.392269e-001 4.770582e-001 4.234931e-001 2.479448e-001 2.598634e-001 2.242988e-001
<GCONST> 1.014295e+002
<TRANSP> 5
 0.000000e+000 1.000000e+000 0.000000e+000 0.000000e+000 0.000000e+000
 0.000000e+000 7.196667e-001 2.803334e-001 0.000000e+000 0.000000e+000
 0.000000e+000 0.000000e+000 5.302346e-001 4.697653e-001 0.000000e+000
 0.000000e+000 0.000000e+000 0.000000e+000 7.399444e-001 2.600556e-001
 0.000000e+000 0.000000e+000 0.000000e+000 0.000000e+000 0.000000e+000
<ENDHMM>
~h "d"
<BEGINHMM>
<NUMSTATES> 5
<STATE> 2
<MEAN> 39
 -5.708728e+000 3.324191e+000 5.029791e+000 8.451538e+000 9.231039e+000 -4.521723e-001 3.826054e+000 4.528075e+000 -4.071481e+000 -2.637494e+000 -1.890821e+000 -3.923933e+000 6.627737e+001 -1.351982e+000 3.511652e-001 1.234607e-002 -9.600065e-001 -9.128990e-001 8.057446e-001 1.814882e-002 -5.708522e-001 1.538623e+000 -4.632530e-001 2.099657e-001 9.468231e-001 -5.988412e-001 2.144614e-003 -6.621861e-001 -2.021420e-001 -5.719711e-001 -6.657856e-001 -5.514415e-001 -1.255631e-001 -4.304452e-001 -1.978462e-001 1.900649e-002 2.188980e-001 3.397593e-001 6.937038e-001
<VARIANCE> 39
 2.279799e+001 4.567008e+001 2.285950e+001 4.738953e+001 6.150198e+001 4.449095e+001 3.622189e+001 4.231487e+001 4.106669e+001 3.785900e+001 4.648030e+001 3.715734e+001 6.649541e+001 1.361627e+000 2.254030e+000 2.037878e+000 5.571620e+000 3.452782e+000 3.877741e+000 2.496035e+000 3.755311e+000 2.969881e+000 3.941789e+000 2.674773e+000 3.934825e+000 4.387148e+000 2.130499e-001 3.968710e-001 5.251007e-001 4.280797e-001 6.601109e-001 8.401822e-001 5.310111e-001 7.369158e-001 6.240821e-001 4.477251e-001 4.418233e-001 6.111343e-001 7.298208e-001
<GCONST> 1.261485e+002
<STATE> 3
<MEAN> 39
 -1.009932e+001 4.329138e+000 6.807413e+000 4.613397e+000 5.519907e+000 3.152836e+000 3.955658e+000 2.205382e+000 7.936105e-001 -4.365304e+000 -1.722964e+000 -1.434252e+000 6.571182e+001 -7.243143e-001 -1.655190e+000 -3.585316e-001 -2.405385e+000 -2.257793e+000 -1.579333e+000 -2.990350e-001 -1.416931e+000 -3.443473e-001 -9.057091e-001 5.932855e-001 1.885917e+000 1.836786e+000 6.352279e-001 -5.608296e-001 -2.733496e-001 1.943188e-001 -5.386715e-002 -8.432589e-001 -1.886547e-002 -8.494269e-002 -8.059711e-001 3.084594e-001 -1.111454e-001 1.862714e-002 4.783517e-001
<VARIANCE> 39
 2.100023e+001 2.357513e+001 3.799125e+001 2.525953e+001 3.435274e+001 2.484565e+001 2.108773e+001 3.292749e+001 2.715150e+001 3.478505e+001 2.222611e+001 1.875895e+001 5.235572e+001 1.948186e+000 2.185948e+000 3.053355e+000 3.915684e+000 4.186977e+000 3.857480e+000 2.439119e+000 2.708501e+000 3.048460e+000 2.305601e+000 2.391825e+000 5.329676e+000 4.969618e+000 3.923716e-001 4.608898e-001 7.019258e-001 4.983951e-001 8.089514e-001 6.810246e-001 6.887701e-001 7.841676e-001 7.080035e-001 9.144333e-001 5.306485e-001 3.525511e-001 8.160207e-001
<GCONST> 1.232945e+002
<STATE> 4
<MEAN> 39
 -1.129052e+001 -8.733480e-001 1.727464e-001 4.449890e-001 -6.779445e-001 -6.971127e-001 3.248188e+000 1.578662e+000 -1.200483e+000 -2.456659e+000 -6.923815e-001 2.997998e+000 6.259815e+001 -1.709828e-001 -6.970344e-001 -2.295963e-001 -5.210447e-001 -2.568981e-001 -5.652454e-001 -3.522607e-001 -4.878471e-001 -5.183081e-002 6.780197e-002 2.065785e-001 4.322052e-001 6.085281e-001 2.312546e-001 7.569227e-002 1.311506e-001 2.969069e-001 4.093670e-001 3.700584e-002 -1.225415e-002 9.166316e-002 -6.307411e-002 1.207376e-001 -2.056087e-002 -2.500730e-001 1.172570e-001
<VARIANCE> 39
 2.917901e+001 2.209315e+001 3.435278e+001 1.873481e+001 1.899675e+001 3.136461e+001 1.916939e+001 2.902705e+001 3.457228e+001 2.942327e+001 2.167483e+001 1.846428e+001 6.690081e+001 1.913229e+000 2.377017e+000 3.560977e+000 2.480582e+000 3.837289e+000 4.379286e+000 2.422144e+000 3.072927e+000 3.253529e+000 2.932000e+000 2.185377e+000 2.851703e+000 6.243283e+000 4.533784e-001 3.512565e-001 5.268876e-001 5.293069e-001 6.239316e-001 7.223312e-001 4.205563e-001 5.140200e-001 6.860847e-001 5.910235e-001 3.898144e-001 4.312550e-001 8.665290e-001
<GCONST> 1.206113e+002
<TRANSP> 5
 0.000000e+000 1.000000e+000 0.000000e+000 0.000000e+000 0.000000e+000
 0.000000e+000 3.964668e-001 6.035331e-001 0.000000e+000 0.000000e+000
 0.000000e+000 0.000000e+000 2.923771e-001 7.076229e-001 0.000000e+000
 0.000000e+000 0.000000e+000 0.000000e+000 7.370098e-001 2.629902e-001
 0.000000e+000 0.000000e+000 0.000000e+000 0.000000e+000 0.000000e+000
<ENDHMM>
~h "f"
<BEGINHMM>
<NUMSTATES> 5
<STATE> 2
<MEAN> 39
 -1.811174e+001 -2.236061e-001 8.795413e-001 -2.352015e+000 5.464563e+000 5.112988e-001 3.808777e+000 -2.656683e+000 3.340443e+000 -2.891104e+000 1.248177e+000 2.351681e+000 6.932978e+001 -2.802122e+000 1.776893e-002 1.780023e-001 -1.397355e+000 5.022824e-002 2.229847e-001 5.478463e-001 -6.144879e-001 1.383360e+000 -4.325277e-002 -3.278470e-001 4.844484e-001 9.188423e-001 -7.450715e-002 -1.008170e-001 7.747754e-002 3.231861e-002 -4.789300e-002 -1.222053e-001 -1.629946e-001 2.001143e-001 -2.958339e-001 1.724674e-001 1.368671e-001 -1.753550e-001 1.031591e-002
<VARIANCE> 39
 4.425549e+001 1.915883e+001 2.139397e+001 2.821762e+001 2.982088e+001 2.568118e+001 2.354553e+001 2.796157e+001 3.411214e+001 2.096963e+001 1.659839e+001 1.251406e+001 4.050814e+001 4.133084e+000 2.329818e+000 1.853146e+000 1.799044e+000 2.326489e+000 2.910794e+000 2.918618e+000 2.636222e+000 4.278428e+000 2.242328e+000 2.441932e+000 1.302805e+000 3.574611e+000 7.628901e-001 4.840618e-001 3.489789e-001 3.292364e-001 3.078421e-001 5.792382e-001 6.251557e-001 4.912752e-001 8.079001e-001 4.010926e-001 3.481940e-001 2.373959e-001 3.862136e-001
<GCONST> 1.150427e+002
<STATE> 3
<MEAN> 39
 -2.972281e+001 3.503100e-001 3.138503e+000 -7.478336e+000 5.398864e+000 1.376707e+000 5.998123e+000 -3.170589e+000 7.561150e+000 -1.008846e+000 6.168308e-001 2.524991e+000 6.968318e+001 -2.565076e-001 -3.798814e-002 9.299304e-002 -1.255849e-001 -9.661832e-002 6.424474e-002 -8.993042e-002 -6.690472e-002 3.037837e-002 7.726893e-002 -4.503340e-002 -9.884296e-002 -1.143496e-001 7.710989e-001 -4.203984e-002 -3.877963e-002 2.133753e-001 -9.949178e-002 -1.167453e-001 -1.624649e-001 2.635622e-002 -1.862668e-001 -1.038253e-001 -9.948163e-003 -3.064384e-002 4.322828e-002
<VARIANCE> 39
 9.138237e+000 9.433421e+000 2.331057e+001 1.364042e+001 9.959609e+000 1.066096e+001 1.241611e+001 1.302402e+001 1.342455e+001 1.532299e+001 1.163441e+001 8.002028e+000 2.443378e+001 2.381913e+000 9.438499e-001 9.807476e-001 8.411233e-001 1.080392e+000 1.169467e+000 1.240044e+000 1.428468e+000 1.257418e+000 1.173645e+000 9.055761e-001 8.581265e-001 6.161290e-001 4.732401e-001 1.953577e-001 2.032082e-001 1.845145e-001 2.352645e-001 2.975672e-001 3.259304e-001 2.873124e-001 3.421056e-001 2.441547e-001 2.010072e-001 1.909887e-001 1.571166e-001
<GCONST> 8.749348e+001
<STATE> 4
<MEAN> 39
 -1.874120e+001 6.469669e-001 3.422125e+000 -6.745485e+000 2.391957e+000 -4.526846e-001 2.165601e+000 -2.559230e+000 6.154780e+000 -2.007990e+000 -5.842612e-001 1.630552e+000 7.070010e+001 6.417970e+000 6.886331e-001 -2.924164e-002 1.028539e+000 -1.456826e+000 -2.958262e+000 -2.507975e+000 1.145561e+000 -9.744140e-001 -1.733705e-001 -2.587107e-001 -4.630741e-001 1.609059e+000 5.707214e-001 -2.264258e-001 -2.603762e-001 3.102421e-002 -1.702156e-001 -1.091875e+000 -2.864876e-001 4.944958e-001 -1.279954e-001 1.351651e-001 1.771967e-001 -7.096825e-002 6.127717e-001
<VARIANCE> 39
 1.140842e+002 2.368763e+001 2.495621e+001 1.788542e+001 2.000473e+001 3.299400e+001 3.306054e+001 1.615323e+001 1.443692e+001 1.300933e+001 1.162329e+001 1.036759e+001 2.776173e+001 7.219798e+000 2.549237e+000 3.482167e+000 1.977809e+000 1.844562e+000 7.269355e+000 2.813105e+000 3.764107e+000 3.305204e+000 1.713691e+000 1.444291e+000 1.310208e+000 3.163407e+000 2.186784e+000 6.124559e-001 4.317698e-001 3.303598e-001 3.399062e-001 7.710488e-001 8.772485e-001 6.182885e-001 9.701624e-001 4.118733e-001 2.199348e-001 2.669437e-001 3.952047e-001
<GCONST> 1.168384e+002
<TRANSP> 5
 0.000000e+000 1.000000e+000 0.000000e+000 0.000000e+000 0.000000e+000
 0.000000e+000 7.819917e-001 2.180083e-001 0.000000e+000 0.000000e+000
 0.000000e+000 0.000000e+000 8.648485e-001 1.351515e-001 0.000000e+000
 0.000000e+000 0.000000e+000 0.000000e+000 5.525588e-001 4.474412e-001
 0.000000e+000 0.000000e+000 0.000000e+000 0.000000e+000 0.000000e+000
<ENDHMM>
~h "g"
<BEGINHMM>
<NUMSTATES> 5
<STATE> 2
<MEAN> 39
 -1.019258e+001 -1.349235e+000 1.496435e+000 -1.000674e-001 2.146475e+000 -4.687040e+000 1.914047e+000 3.619069e+000 -7.628375e-001 -2.998221e-001 7.609732e-001 -3.708823e-001 6.683527e+001 -1.248089e-003 5.227942e-003 2.659844e-003 -3.444016e-004 -8.836363e-004 2.550178e-003 2.931105e-003 -1.472328e-003 6.282371e-003 8.163264e-003 2.528877e-003 -2.038243e-003 -4.746584e-003 -4.418558e-004 -3.045039e-004 -1.408464e-004 -1.038098e-004 9.234394e-005 -3.276009e-004 -3.678608e-005 3.364285e-004 -3.188887e-004 -1.759190e-004 -1.827233e-004 -1.567342e-004 -4.303211e-005
<VARIANCE> 39
 9.167006e+001 2.934647e+001 4.407549e+001 6.457423e+001 6.220945e+001 9.634994e+001 3.252906e+001 4.593910e+001 5.675373e+001 3.253341e+001 2.632482e+001 2.972611e+001 1.312725e+002 2.550928e+000 1.511606e+000 1.606481e+000 2.604123e+000 2.271194e+000 3.390491e+000 1.870607e+000 2.178643e+000 2.666786e+000 1.791392e+000 1.601890e+000 1.612961e+000 2.330216e+000 3.219935e-001 2.495312e-001 2.693298e-001 3.940682e-001 3.531721e-001 5.091046e-001 3.340584e-001 3.702532e-001 4.453263e-001 3.296812e-001 2.885351e-001 2.783844e-001 3.440708e-001
<GCONST> 1.181056e+002
<STATE> 3
<MEAN> 39
 -1.019258e+001 -1.349235e+000 1.496435e+000 -1.000674e-001 2.146475e+000 -4.687040e+000 1.914047e+000 3.619069e+000 -7.628375e-001 -2.998221e-001 7.609732e-001 -3.708823e-001 6.683527e+001 -1.248089e-003 5.227942e-003 2.659844e-003 -3.444016e-004 -8.836363e-004 2.550178e-003 2.931105e-003 -1.472328e-003 6.282371e-003 8.163264e-003 2.528877e-003 -2.038243e-003 -4.746584e-003 -4.418558e-004 -3.045039e-004 -1.408464e-004 -1.038098e-004 9.234394e-005 -3.276009e-004 -3.678608e-005 3.364285e-004 -3.188887e-004 -1.759190e-004 -1.827233e-004 -1.567342e-004 -4.303211e-005
<VARIANCE> 39
 9.167006e+001 2.934647e+001 4.407549e+001 6.457423e+001 6.220945e+001 9.634994e+001 3.252906e+001 4.593910e+001 5.675373e+001 3.253341e+001 2.632482e+001 2.972611e+001 1.312725e+002 2.550928e+000 1.511606e+000 1.606481e+000 2.604123e+000 2.271194e+000 3.390491e+000 1.870607e+000 2.178643e+000 2.666786e+000 1.791392e+000 1.601890e+000 1.612961e+000 2.330216e+000 3.219935e-001 2.495312e-001 2.693298e-001 3.940682e-001 3.531721e-001 5.091046e-001 3.340584e-001 3.702532e-001 4.453263e-001 3.296812e-001 2.885351e-001 2.783844e-001 3.440708e-001
<GCONST> 1.181056e+002
<STATE> 4
<MEAN> 39
 -1.019258e+001 -1.349235e+000 1.496435e+000 -1.000674e-001 2.146475e+000 -4.687040e+000 1.914047e+000 3.619069e+000 -7.628375e-001 -2.998221e-001 7.609732e-001 -3.708823e-001 6.683527e+001 -1.248089e-003 5.227942e-003 2.659844e-003 -3.444016e-004 -8.836363e-004 2.550178e-003 2.931105e-003 -1.472328e-003 6.282371e-003 8.163264e-003 2.528877e-003 -2.038243e-003 -4.746584e-003 -4.418558e-004 -3.045039e-004 -1.408464e-004 -1.038098e-004 9.234394e-005 -3.276009e-004 -3.678608e-005 3.364285e-004 -3.188887e-004 -1.759190e-004 -1.827233e-004 -1.567342e-004 -4.303211e-005
<VARIANCE> 39
 9.167006e+001 2.934647e+001 4.407549e+001 6.457423e+001 6.220945e+001 9.634994e+001 3.252906e+001 4.593910e+001 5.675373e+001 3.253341e+001 2.632482e+001 2.972611e+001 1.312725e+002 2.550928e+000 1.511606e+000 1.606481e+000 2.604123e+000 2.271194e+000 3.390491e+000 1.870607e+000 2.178643e+000 2.666786e+000 1.791392e+000 1.601890e+000 1.612961e+000 2.330216e+000 3.219935e-001 2.495312e-001 2.693298e-001 3.940682e-001 3.531721e-001 5.091046e-001 3.340584e-001 3.702532e-001 4.453263e-001 3.296812e-001 2.885351e-001 2.783844e-001 3.440708e-001
<GCONST> 1.181056e+002
<TRANSP> 5
 0.000000e+000 1.000000e+000 0.000000e+000 0.000000e+000 0.000000e+000
 0.000000e+000 6.000000e-001 4.000000e-001 0.000000e+000 0.000000e+000
 0.000000e+000 0.000000e+000 6.000000e-001 4.000000e-001 0.000000e+000
 0.000000e+000 0.000000e+000 0.000000e+000 7.000000e-001 3.000000e-001
 0.000000e+000 0.000000e+000 0.000000e+000 0.000000e+000 0.000000e+000
<ENDHMM>
~h "k"
<BEGINHMM>
<NUMSTATES> 5
<STATE> 2
<MEAN> 39
 -9.428958e+000 8.896614e-001 3.155779e+000 2.575011e+000 2.699821e+000 -4.971540e+000 4.660628e-001 5.008502e+000 -6.728539e-001 8.477721e-001 2.765061e+000 -3.260981e+000 6.508635e+001 -1.432118e+000 1.027788e-001 -1.972212e+000 -2.236270e+000 -1.479003e+000 6.459827e-001 3.558142e-001 -3.815110e-001 6.346812e-001 -7.091788e-001 -3.922205e-001 8.653569e-001 -8.152192e-001 -5.573703e-002 -4.855861e-001 1.812857e-002 -7.016038e-001 7.059308e-002 -2.541261e-001 -3.868981e-002 -2.486527e-001 -1.568805e-001 -3.745585e-001 -1.575032e-001 1.564181e-001 1.264531e+000
<VARIANCE> 39
 3.161375e+001 2.813253e+001 4.549086e+001 7.597902e+001 1.128834e+002 6.940153e+001 3.412558e+001 5.129426e+001 6.656284e+001 2.634187e+001 2.916603e+001 3.092240e+001 4.103103e+001 1.964488e+000 2.523867e+000 3.282537e+000 7.239705e+000 5.902755e+000 4.280438e+000 4.344783e+000 4.001525e+000 3.783348e+000 3.331823e+000 2.961419e+000 2.028847e+000 1.004528e+001 2.546166e-001 3.216481e-001 1.079934e+000 9.818550e-001 1.247283e+000 8.350858e-001 9.125856e-001 6.929955e-001 6.059145e-001 6.256788e-001 4.716640e-001 3.971206e-001 1.056601e+000
<GCONST> 1.330753e+002
<STATE> 3
<MEAN> 39
 -1.505809e+001 -2.582797e+000 -8.183412e-001 -1.145804e+001 1.473815e+000 -2.385403e+000 3.102002e+000 1.463094e+000 3.324567e-001 -5.780479e+000 -8.310761e-001 4.254766e-001 7.597073e+001 -2.297323e-001 -8.704462e-001 9.029313e-001 -7.881789e-001 4.301372e-001 6.650725e-001 -2.018384e-001 -8.681110e-001 6.611631e-001 -8.112256e-001 -3.692327e-001 9.739340e-001 2.438041e+000 5.961887e-001 7.886763e-002 7.161763e-001 1.520148e+000 2.112150e-001 3.894383e-002 -2.755420e-001 2.877709e-001 1.750188e-001 8.577136e-001 4.362317e-001 -1.272632e-001 -1.042118e+000
<VARIANCE> 39
 9.553654e+000 1.749774e+001 2.067688e+001 3.740379e+001 5.447467e+001 2.544348e+001 5.720604e+001 6.398610e+001 2.251915e+001 2.858186e+001 2.476572e+001 2.636448e+001 3.481878e+001 2.812399e+000 2.141796e+000 3.447332e+000 1.077005e+001 6.036677e+000 5.789931e+000 4.451852e+000 3.606290e+000 3.897567e+000 4.812733e+000 2.880531e+000 2.386339e+000 7.533264e+000 4.083920e-001 3.729324e-001 9.320638e-001 9.189773e-001 1.076734e+000 8.501843e-001 9.062570e-001 6.863651e-001 6.107053e-001 8.192220e-001 5.369792e-001 5.488938e-001 1.224934e+000
<GCONST> 1.296928e+002
<STATE> 4
<MEAN> 39
 -1.286281e+001 -5.011740e+000 9.189933e-001 -4.564199e+000 2.882773e+000 1.172616e+000 9.130830e-001 4.196912e-001 2.069848e+000 -2.693910e+000 1.691745e+000 3.496624e+000 6.902777e+001 1.013059e+000 3.402929e-001 5.694362e-001 1.310081e+000 -1.770829e-001 5.588607e-002 1.480286e-001 5.785155e-001 4.303704e-001 1.245239e+000 3.682545e-001 -1.165748e-001 -8.665500e-001 2.189918e-001 2.383518e-001 -1.930921e-001 -5.218020e-003 -2.993121e-001 -4.812297e-001 9.152840e-002 1.735797e-001 -4.056791e-001 9.203900e-002 -8.372535e-002 -2.652783e-001 5.500600e-002
<VARIANCE> 39
 1.762904e+001 2.278935e+001 2.256989e+001 2.122357e+001 3.304495e+001 2.394750e+001 2.942251e+001 4.736931e+001 4.499089e+001 2.035366e+001 2.558158e+001 1.473514e+001 5.888201e+001 3.320858e+000 1.953990e+000 2.706327e+000 3.141547e+000 1.855861e+000 3.578987e+000 1.681110e+000 2.554808e+000 2.630157e+000 2.540044e+000 2.642101e+000 2.035146e+000 2.373678e+000 3.200371e-001 3.694767e-001 4.280578e-001 4.992397e-001 5.237731e-001 6.885638e-001 4.191918e-001 5.113344e-001 7.190118e-001 4.524865e-001 4.275874e-001 3.447974e-001 5.217497e-001
<GCONST> 1.164667e+002
<TRANSP> 5
 0.000000e+000 1.000000e+000 0.000000e+000 0.000000e+000 0.000000e+000
 0.000000e+000 7.617797e-001 2.382203e-001 0.000000e+000 0.000000e+000
 0.000000e+000 0.000000e+000 6.613967e-001 3.386033e-001 0.000000e+000
 0.000000e+000 0.000000e+000 0.000000e+000 7.134550e-001 2.865450e-001
 0.000000e+000 0.000000e+000 0.000000e+000 0.000000e+000 0.000000e+000
<ENDHMM>
~h "l"
<BEGINHMM>
<NUMSTATES> 5
<STATE> 2
<MEAN> 39
 -7.407442e-001 -2.340842e-001 3.802054e+000 5.121037e+000 6.875583e+000 -2.998470e+000 6.899931e-001 6.832510e+000 -4.622403e+000 -4.243228e+000 -5.526462e+000 -3.809020e+000 7.179363e+001 8.788414e-001 -5.618701e-001 -3.193092e-002 9.674174e-001 5.270196e-001 -7.402015e-001 -3.154755e-002 2.642288e-001 -9.444565e-001 -4.512287e-001 -9.707755e-001 -7.630733e-001 9.314628e-001 -3.370877e-001 -1.945007e-001 9.964414e-002 -2.575878e-001 -3.531903e-001 -4.568124e-001 1.527388e-002 1.758780e-001 9.570558e-002 -5.079617e-002 2.131158e-001 1.233378e-001 1.007717e-001
<VARIANCE> 39
 1.956853e+001 2.946161e+001 2.704110e+001 4.495945e+001 5.920172e+001 7.365771e+001 3.539629e+001 3.219175e+001 7.147583e+001 5.287675e+001 4.435091e+001 5.097524e+001 6.042482e+001 2.733807e+000 1.878437e+000 2.120119e+000 2.489676e+000 3.350766e+000 5.314774e+000 2.969575e+000 2.617326e+000 4.933284e+000 3.303075e+000 2.776008e+000 2.181452e+000 2.011421e+000 3.312085e-001 3.248851e-001 4.499768e-001 5.764225e-001 4.336225e-001 8.799646e-001 5.476661e-001 5.898775e-001 8.116646e-001 6.489007e-001 4.898750e-001 4.206302e-001 2.555416e-001
<GCONST> 1.248817e+002
<STATE> 3
<MEAN> 39
 7.069066e-001 -4.439213e+000 4.457571e+000 5.108992e+000 3.375808e+000 -1.329990e+001 4.204824e-001 9.962146e+000 -6.450680e+000 -6.358997e+000 -8.585994e+000 -6.947871e+000 7.771519e+001 -1.126047e-001 -5.319521e-001 -1.548058e-001 -1.159083e+000 -1.677606e+000 -1.878028e+000 2.303271e-001 -6.435632e-002 4.255253e-001 -6.882560e-002 1.008101e+000 1.085414e+000 1.187499e+000 -5.358344e-002 -1.709900e-002 -1.719542e-001 -4.834005e-001 -2.070657e-001 1.015930e-001 6.846984e-002 -1.296833e-001 2.755067e-001 2.825393e-001 3.326357e-001 3.997336e-001 7.060032e-002
<VARIANCE> 39
 5.578585e+000 9.812148e+000 2.507583e+001 2.981339e+001 6.118966e+001 5.567143e+001 2.946165e+001 4.102071e+001 2.808298e+001 3.860906e+001 5.747894e+001 5.804522e+001 2.362742e+001 5.305642e-001 7.035238e-001 1.997906e+000 3.229160e+000 3.328031e+000 4.059993e+000 1.780704e+000 3.854997e+000 2.395777e+000 3.078530e+000 3.702343e+000 4.788499e+000 1.037994e+000 1.281578e-001 1.210522e-001 2.907441e-001 3.805032e-001 5.407358e-001 5.633343e-001 3.198367e-001 5.191818e-001 4.264657e-001 5.108224e-001 6.172794e-001 5.798123e-001 1.653635e-001
<GCONST> 1.124076e+002
<STATE> 4
<MEAN> 39
 8.323750e-001 -5.142007e+000 8.336837e-001 -4.325642e+000 -4.195270e+000 -2.061607e+001 2.034578e+000 8.263620e+000 -3.775592e-001 1.337219e+000 -4.339517e+000 -2.890701e-001 8.227972e+001 -1.036885e-001 1.644240e-001 9.536323e-002 -2.577869e-001 -3.017444e-001 -1.477514e-001 2.257144e-001 6.962236e-002 5.408470e-001 3.040413e-001 -1.214265e-001 7.632538e-002 -1.785305e-001 -4.790137e-002 6.873299e-002 1.335310e-002 1.391857e-001 1.474602e-001 2.281797e-001 2.778143e-002 -2.629929e-002 -3.946465e-002 -2.888144e-002 -2.671325e-002 -6.459370e-002 -1.280420e-001
<VARIANCE> 39
 4.310191e+000 4.391425e+001 4.088459e+001 1.780114e+001 4.029146e+001 5.495013e+001 3.518485e+001 4.851113e+001 3.755682e+001 6.072334e+001 2.476057e+001 2.907329e+001 4.268895e+001 3.212598e-001 1.022537e+000 9.862178e-001 1.780813e+000 1.298310e+000 2.381773e+000 1.269729e+000 1.485414e+000 1.398250e+000 1.515435e+000 1.354092e+000 1.524815e+000 7.955126e-001 7.058674e-002 9.080261e-002 1.119825e-001 1.928528e-001 1.891111e-001 3.284635e-001 2.014046e-001 2.106534e-001 2.286057e-001 2.103367e-001 2.052825e-001 2.478681e-001 6.651638e-002
<GCONST> 9.563387e+001
<TRANSP> 5
 0.000000e+000 1.000000e+000 0.000000e+000 0.000000e+000 0.000000e+000
 0.000000e+000 7.214810e-001 2.785190e-001 0.000000e+000 0.000000e+000
 0.000000e+000 0.000000e+000 7.318911e-001 2.681090e-001 0.000000e+000
 0.000000e+000 0.000000e+000 0.000000e+000 8.300823e-001 1.699177e-001
 0.000000e+000 0.000000e+000 0.000000e+000 0.000000e+000 0.000000e+000
<ENDHMM>
~h "m"
<BEGINHMM>
<NUMSTATES> 5
<STATE> 2
<MEAN> 39
 -3.653468e+000 1.829840e+000 3.753699e+000 9.349310e+000 5.139884e+000 -5.237332e+000 8.572137e+000 8.590819e+000 -2.069597e+000 7.738694e-001 -7.018480e-001 -4.126422e+000 6.803995e+001 1.598395e+000 2.350271e-001 8.578117e-001 3.560150e+000 2.083840e+000 1.386372e+000 1.844801e+000 1.145273e-001 -1.999975e+000 6.040106e-001 -8.745762e-001 -2.516791e+000 -1.599411e-001 1.765586e-002 -4.849603e-001 -2.130266e-001 -2.696471e-001 -5.928627e-002 -1.419649e-001 -1.419560e-001 -2.584082e-002 -2.667933e-002 -3.033653e-002 -1.104841e-002 -1.342702e-001 3.976586e-001
<VARIANCE> 39
 4.706236e+001 1.862981e+001 2.501143e+001 2.970232e+001 5.806477e+001 9.280122e+001 1.429753e+001 1.692997e+001 2.581825e+001 3.382536e+001 2.271181e+001 2.129922e+001 7.321651e+001 4.808381e+000 1.134899e+000 1.748247e+000 1.729545e+000 2.746296e+000 7.062355e+000 1.799726e+000 2.925608e+000 2.995523e+000 2.135996e+000 1.844019e+000 1.527205e+000 5.212671e+000 3.967433e-001 2.334005e-001 3.944727e-001 4.333040e-001 3.388802e-001 5.141602e-001 3.407109e-001 3.533973e-001 5.648816e-001 3.404701e-001 3.008806e-001 3.148577e-001 2.671959e-001
<GCONST> 1.150293e+002
<STATE> 3
<MEAN> 39
 9.579253e-001 -5.627404e-001 3.710711e+000 1.597462e+001 6.208409e+000 -5.240372e+000 1.303736e+001 9.929124e+000 -5.882401e+000 3.106264e+000 -3.357730e+000 -1.065283e+001 6.923434e+001 1.378218e-001 -4.040084e-001 1.925635e-001 9.600752e-001 9.691563e-001 5.718358e-001 2.470672e-001 -2.508556e-001 -6.336366e-001 2.708528e-001 -8.433945e-003 -1.155813e+000 1.144583e-001 -2.578607e-001 1.686811e-001 -8.676213e-002 -8.564473e-001 -4.081423e-001 -5.603493e-001 -5.951301e-001 7.502452e-002 4.427058e-001 -2.235778e-001 3.226618e-001 6.399842e-001 1.411761e-001
<VARIANCE> 39
 2.618243e+000 9.100707e+000 6.256532e+000 9.034966e+000 4.073077e+001 1.881297e+001 1.130810e+001 1.423609e+001 2.300481e+001 1.480273e+001 1.241548e+001 1.053090e+001 1.016523e+001 1.212950e+000 1.046834e+000 9.507574e-001 1.485651e+000 1.503687e+000 4.992528e+000 1.110842e+000 1.151900e+000 1.580869e+000 8.548776e-001 1.161964e+000 1.369230e+000 1.751156e+000 1.832654e-001 1.528621e-001 1.178330e-001 2.295448e-001 1.941840e-001 3.837299e-001 2.100360e-001 2.065731e-001 3.582735e-001 2.283430e-001 1.752698e-001 2.625766e-001 1.967146e-001
<GCONST> 8.767321e+001
<STATE> 4
<MEAN> 39
 -4.543917e-001 7.871513e-001 4.707673e+000 1.475762e+001 9.627862e+000 -5.027235e+000 9.591887e+000 9.510730e+000 -6.831659e+000 1.719385e+000 -1.717705e-001 -1.082376e+001 6.947778e+001 -3.513652e-001 7.598875e-001 -7.800261e-002 -1.441997e+000 -2.915928e-001 -6.528740e-001 -1.280359e+000 1.314288e-001 9.299101e-001 -6.253191e-001 5.616474e-001 1.044022e+000 1.950675e-001 -4.342471e-002 -4.633445e-002 -1.743446e-001 -6.630728e-001 -4.269465e-001 -3.029981e-001 -2.625471e-001 4.211330e-002 4.209080e-001 -1.796434e-001 -7.180572e-002 4.234365e-001 2.055662e-001
<VARIANCE> 39
 5.137725e+000 1.904341e+001 6.439941e+000 1.567180e+001 4.042584e+001 2.654121e+001 2.003714e+001 2.060447e+001 3.865057e+001 2.120279e+001 2.206153e+001 1.587967e+001 1.688164e+001 6.119951e-001 1.336224e+000 8.557493e-001 2.876540e+000 3.656164e+000 4.694821e+000 1.676070e+000 1.199180e+000 2.302709e+000 1.224749e+000 1.202282e+000 1.955085e+000 1.598235e+000 7.462220e-002 2.504860e-001 1.453349e-001 5.495274e-001 4.308729e-001 4.456879e-001 3.387860e-001 3.590888e-001 3.749638e-001 2.383382e-001 2.555078e-001 3.312862e-001 1.755747e-001
<GCONST> 9.898327e+001
<TRANSP> 5
 0.000000e+000 1.000000e+000 0.000000e+000 0.000000e+000 0.000000e+000
 0.000000e+000 4.555668e-001 5.444333e-001 0.000000e+000 0.000000e+000
 0.000000e+000 0.000000e+000 6.965117e-001 3.034883e-001 0.000000e+000
 0.000000e+000 0.000000e+000 0.000000e+000 7.641922e-001 2.358077e-001
 0.000000e+000 0.000000e+000 0.000000e+000 0.000000e+000 0.000000e+000
<ENDHMM>
~h "n"
<BEGINHMM>
<NUMSTATES> 5
<STATE> 2
<MEAN> 39
 -1.946308e+000 -1.627079e+000 3.895188e+000 6.333148e+000 8.333152e+000 -6.805324e+000 5.451084e+000 2.572066e+000 -9.206798e+000 -4.898151e-001 2.693496e+000 -2.465895e+000 7.482554e+001 -1.678136e-001 9.227907e-001 8.676718e-001 1.444286e+000 9.108244e-001 1.780170e+000 1.906779e-001 -3.498937e-001 8.901249e-002 5.443884e-001 -6.525914e-001 -1.123303e+000 -1.354473e+000 -3.418046e-002 3.433838e-004 -1.592065e-002 8.966112e-002 -6.341721e-002 9.762955e-002 -1.361424e-001 1.162916e-001 2.311347e-001 9.643036e-002 -1.818618e-001 -1.669888e-002 -1.413586e-001
<VARIANCE> 39
 9.764051e+000 2.207334e+001 2.181910e+001 2.476502e+001 4.500051e+001 5.667730e+001 3.652805e+001 3.802750e+001 3.647779e+001 2.944592e+001 2.882553e+001 3.235488e+001 3.404417e+001 1.101438e+000 1.063529e+000 1.685936e+000 2.963604e+000 2.293230e+000 3.429067e+000 1.919836e+000 1.865423e+000 2.033342e+000 1.794513e+000 1.892279e+000 2.293633e+000 1.467103e+000 1.723172e-001 1.874717e-001 2.785437e-001 3.393766e-001 3.037238e-001 5.372394e-001 3.884985e-001 3.347260e-001 4.453962e-001 2.734822e-001 3.335914e-001 3.375297e-001 1.664303e-001
<GCONST> 1.082918e+002
<STATE> 3
<MEAN> 39
 -1.169315e+000 1.843777e+000 6.022109e+000 1.440106e+001 1.154633e+001 3.329990e-001 5.514487e+000 2.626325e+000 -7.470619e+000 2.699098e+000 -1.846823e+000 -8.901485e+000 6.850318e+001 -3.038619e-001 6.739988e-001 4.810647e-001 8.247222e-001 5.212545e-001 8.126908e-001 -2.386655e-001 1.305075e-003 5.090607e-001 1.352977e-001 -5.027622e-001 -4.340792e-001 -7.974806e-001 -3.693729e-001 -6.877309e-002 -9.868877e-002 -7.512403e-001 -2.718409e-001 -2.678769e-001 -4.298463e-002 1.018570e-001 3.055091e-001 -3.982965e-001 2.785898e-001 5.623137e-001 2.703563e-001
<VARIANCE> 39
 4.833337e+000 1.323910e+001 1.016063e+001 2.181405e+001 3.828190e+001 2.250760e+001 2.573341e+001 2.629975e+001 2.021729e+001 1.696272e+001 3.219580e+001 1.911243e+001 1.936485e+001 1.176168e+000 1.416607e+000 1.201023e+000 2.378917e+000 1.707760e+000 2.624403e+000 1.489319e+000 1.460106e+000 2.350986e+000 1.569067e+000 1.407731e+000 1.943060e+000 1.812825e+000 1.762635e-001 2.230642e-001 2.389819e-001 3.868040e-001 3.567358e-001 4.197860e-001 2.816233e-001 3.420791e-001 3.564978e-001 2.956223e-001 3.110687e-001 3.276376e-001 2.118541e-001
<GCONST> 1.005385e+002
<STATE> 4
<MEAN> 39
 -6.458081e+000 5.344296e+000 6.969976e+000 1.167167e+001 1.011770e+001 4.671260e+000 6.198629e+000 3.488080e+000 -9.503325e-001 2.198196e+000 -1.333997e+000 -4.846292e+000 6.330023e+001 -1.492738e+000 -6.135562e-002 -4.144721e-001 -1.566173e+000 -5.307142e-001 1.792374e-002 -3.257641e-001 2.261178e-001 1.246075e+000 -5.686047e-001 3.224123e-001 1.013585e+000 -3.190304e-001 -1.366742e-001 -5.147155e-001 -2.778389e-001 -4.958336e-001 -3.515310e-001 -6.289939e-001 -1.764748e-001 -1.515680e-001 -1.876075e-001 -1.006268e-001 1.539570e-001 1.671345e-001 4.083038e-001
<VARIANCE> 39
 1.781791e+001 1.675912e+001 1.631887e+001 2.677039e+001 2.901086e+001 3.537952e+001 2.327861e+001 2.687439e+001 3.505638e+001 1.850144e+001 2.221865e+001 2.537089e+001 4.432971e+001 1.880678e+000 1.827132e+000 1.891327e+000 2.831078e+000 2.862567e+000 3.338037e+000 1.910104e+000 2.447409e+000 2.927482e+000 2.213881e+000 1.873676e+000 2.054186e+000 2.090225e+000 2.729625e-001 3.263448e-001 3.141825e-001 5.538104e-001 3.600587e-001 4.852739e-001 3.495212e-001 4.790196e-001 4.239326e-001 3.231355e-001 3.318801e-001 5.031224e-001 2.747281e-001
<GCONST> 1.113266e+002
<TRANSP> 5
 0.000000e+000 1.000000e+000 0.000000e+000 0.000000e+000 0.000000e+000
 0.000000e+000 6.416663e-001 3.583337e-001 0.000000e+000 0.000000e+000
 0.000000e+000 0.000000e+000 6.951534e-001 3.048466e-001 0.000000e+000
 0.000000e+000 0.000000e+000 0.000000e+000 5.990525e-001 4.009475e-001
 0.000000e+000 0.000000e+000 0.000000e+000 0.000000e+000 0.000000e+000
<ENDHMM>
~h "p"
<BEGINHMM>
<NUMSTATES> 5
<STATE> 2
<MEAN> 39
 -6.689546e+000 2.744575e+000 9.766114e-001 1.125858e+001 1.196655e+001 4.182635e-001 9.476995e-001 1.487585e+000 -6.446710e+000 -1.679117e+000 1.905612e+000 -3.909100e+000 6.397225e+001 -1.793931e+000 2.254866e-001 -9.646158e-001 -7.433072e-001 -2.336785e+000 8.304437e-001 -5.508369e-001 -1.897701e-001 1.432846e+000 6.808873e-002 -3.895549e-001 4.486095e-001 -2.595239e+000 -1.904178e-001 -5.998501e-001 6.440467e-002 -8.318251e-001 2.380388e-002 -4.764296e-001 -3.451940e-001 -4.481775e-001 -6.443898e-002 -2.152659e-001 -1.135230e-001 1.311187e-001 8.898903e-001
<VARIANCE> 39
 1.480436e+001 1.183659e+001 1.005285e+001 2.504930e+001 3.383860e+001 2.073139e+001 1.443007e+001 2.248858e+001 4.832566e+001 1.701809e+001 1.518745e+001 9.768159e+000 4.560423e+001 1.010605e+000 2.235802e+000 1.001885e+000 4.912058e+000 1.505984e+000 3.353761e+000 2.723007e+000 3.738384e+000 3.554069e+000 1.784162e+000 1.105341e+000 9.782595e-001 3.009645e+000 2.754622e-001 3.209228e-001 1.759946e-001 6.932047e-001 3.764080e-001 3.521068e-001 6.574352e-001 6.504315e-001 7.776809e-001 4.603859e-001 2.072287e-001 2.422054e-001 6.822491e-001
<GCONST> 1.078137e+002
<STATE> 3
<MEAN> 39
 -1.381653e+001 2.940228e-001 -1.614126e+000 -9.848258e-001 5.002995e+000 3.591635e-001 -5.128372e-001 -2.882515e-001 -5.098665e-001 -4.125900e+000 -2.066058e-001 1.387260e-001 6.574117e+001 -1.131185e-001 -1.494252e-001 4.028954e-001 -2.626366e+000 -5.156075e-001 2.976164e-001 6.709676e-001 5.785128e-001 1.993098e+000 -3.392130e-001 1.041020e-001 1.342685e+000 2.188554e+000 7.713907e-001 9.775342e-002 3.869663e-001 3.199526e-001 7.674363e-002 -1.860698e-001 2.195256e-001 6.136245e-001 3.168055e-001 4.178170e-001 2.865815e-001 7.444045e-002 2.495463e-001
<VARIANCE> 39
 9.356055e+000 1.116913e+001 1.048674e+001 2.980867e+001 1.416343e+001 1.420678e+001 1.923719e+001 1.788744e+001 3.051770e+001 1.502875e+001 1.397424e+001 1.928753e+001 5.727456e+001 2.602557e+000 1.362935e+000 1.486631e+000 4.050698e+000 2.272460e+000 2.378377e+000 1.507241e+000 2.824960e+000 4.659467e+000 1.962516e+000 2.670611e+000 1.653982e+000 4.774193e+000 3.143148e-001 3.473095e-001 3.462952e-001 4.460096e-001 5.065657e-001 4.364897e-001 3.856653e-001 5.584137e-001 7.051671e-001 3.715737e-001 3.510521e-001 3.329441e-001 1.030674e+000
<GCONST> 1.098659e+002
<STATE> 4
<MEAN> 39
 -8.129251e+000 -3.483108e-001 1.770921e+000 -6.946417e+000 1.974833e+000 -9.227769e-001 1.316521e+000 6.088566e+000 1.004201e+001 -7.687106e-001 2.512967e+000 4.203792e+000 7.183499e+001 2.130767e+000 -5.062971e-002 6.731691e-001 -2.330567e-001 -1.340134e+000 -1.693152e+000 2.134895e-001 1.597674e+000 1.181831e+000 1.213773e+000 -1.832432e-001 1.918660e-001 6.771454e-001 1.346286e-001 -7.417828e-003 -3.859025e-001 6.037905e-001 -7.129759e-002 -5.471687e-001 -1.151453e-001 -3.538053e-001 -1.023964e+000 -5.149747e-002 -4.087779e-001 -4.256690e-001 -2.841843e-001
<VARIANCE> 39
 1.672806e+001 2.563967e+001 1.596744e+001 1.617949e+001 9.633739e+000 2.929628e+001 2.045151e+001 2.190090e+001 4.465332e+001 1.758614e+001 3.083835e+001 1.847249e+001 1.684672e+001 1.281196e+000 2.612656e+000 1.911219e+000 2.441192e+000 1.019495e+000 3.187701e+000 1.867345e+000 2.951489e+000 6.067191e+000 1.349935e+000 2.975459e+000 2.112482e+000 2.737903e+000 2.529714e-001 5.131950e-001 3.533806e-001 4.313537e-001 2.305612e-001 3.711811e-001 4.045447e-001 4.748020e-001 5.420252e-001 2.828291e-001 5.163968e-001 3.662363e-001 4.271731e-001
<GCONST> 1.090355e+002
<TRANSP> 5
 0.000000e+000 1.000000e+000 0.000000e+000 0.000000e+000 0.000000e+000
 0.000000e+000 7.496955e-001 2.503044e-001 0.000000e+000 0.000000e+000
 0.000000e+000 0.000000e+000 7.537597e-001 2.462403e-001 0.000000e+000
 0.000000e+000 0.000000e+000 0.000000e+000 6.977173e-001 3.022826e-001
 0.000000e+000 0.000000e+000 0.000000e+000 0.000000e+000 0.000000e+000
<ENDHMM>
~h "r"
<BEGINHMM>
<NUMSTATES> 5
<STATE> 2
<MEAN> 39
 -3.005029e+000 2.522850e+000 5.831536e+000 -4.095067e+000 6.541016e+000 1.955761e+000 3.271871e+000 2.337230e+000 -2.245306e+000 -4.876733e+000 -4.864093e+000 -2.338810e-001 7.376608e+001 1.324456e+000 -1.290693e-001 -2.288598e-001 -3.194349e-001 2.530940e-001 -1.068280e+000 -5.580118e-001 6.079987e-001 -8.335096e-001 -8.589387e-001 -3.714412e-003 -2.657628e-001 1.216035e+000 -3.819368e-001 -3.617541e-001 -2.302756e-001 -1.055574e-001 -9.337198e-002 -1.882881e-001 2.515207e-002 8.413231e-002 5.970301e-002 -2.798669e-002 1.556212e-001 5.704342e-002 -4.851732e-002
<VARIANCE> 39
 3.354762e+001 3.856575e+001 4.566638e+001 3.627650e+001 4.397355e+001 9.719523e+001 5.986683e+001 5.289434e+001 5.300064e+001 2.710962e+001 4.925239e+001 1.856383e+001 3.653802e+001 5.226833e+000 3.107975e+000 3.163428e+000 1.682428e+000 2.755765e+000 8.237901e+000 3.379389e+000 5.028933e+000 5.741776e+000 2.898657e+000 3.126776e+000 1.366316e+000 2.524260e+000 9.639026e-001 4.666345e-001 2.494270e-001 3.415480e-001 5.326746e-001 6.066571e-001 7.264404e-001 6.626632e-001 6.171835e-001 4.361004e-001 4.082542e-001 3.001352e-001 2.554118e-001
<GCONST> 1.260684e+002
<STATE> 3
<MEAN> 39
 1.574575e+000 2.341278e+000 1.744182e+000 -7.671049e+000 7.824416e+000 -5.101760e+000 -3.031211e+000 7.591690e+000 -7.137927e+000 -1.003467e+001 -1.944450e-001 -1.348574e+000 7.675640e+001 3.460897e-001 -1.053637e+000 -8.966168e-001 2.617449e-001 7.843962e-002 -1.469671e+000 -1.488382e-001 1.556034e-001 -8.154718e-001 -4.166871e-001 3.766916e-001 1.487581e-001 9.448792e-001 -4.732379e-001 -2.382522e-001 1.613669e-001 1.934535e-001 -2.002535e-001 1.583277e-001 3.481774e-001 -4.431077e-001 4.088482e-001 4.653966e-001 -4.211470e-003 1.847103e-001 -1.397132e-001
<VARIANCE> 39
 6.021692e+000 3.050942e+001 2.104943e+001 4.345390e+001 5.395674e+001 7.333242e+001 3.612599e+001 4.105154e+001 7.290490e+001 5.674825e+001 3.992814e+001 1.961285e+001 2.338838e+001 6.218679e-001 2.409736e+000 1.721063e+000 2.350287e+000 2.137968e+000 5.981430e+000 2.651560e+000 4.471479e+000 3.731829e+000 2.682019e+000 2.851732e+000 2.232100e+000 1.339492e+000 3.824580e-001 2.202079e-001 2.321724e-001 2.579724e-001 4.117559e-001 8.425777e-001 5.172287e-001 6.871083e-001 7.911035e-001 5.761659e-001 5.151494e-001 2.799082e-001 2.476641e-001
<GCONST> 1.172069e+002
<STATE> 4
<MEAN> 39
 3.278488e+000 2.911403e-001 -1.783655e+000 -9.068959e+000 2.706422e+000 -8.261336e+000 -2.016163e+000 3.196584e+000 -7.800248e+000 -4.081911e+000 -7.035153e-001 1.799845e+000 7.813531e+001 -1.183312e-001 -3.319688e-001 7.356616e-003 6.055125e-001 -2.998791e-001 -6.697326e-001 7.890335e-002 -4.627384e-001 6.654105e-001 7.405092e-001 -2.707497e-001 2.114158e-001 7.580981e-003 -1.085138e-001 -1.166671e-003 1.230395e-001 1.343838e-001 -8.445557e-003 1.025224e-002 3.267328e-002 1.067910e-002 1.678283e-001 3.583102e-002 -5.128728e-002 -6.758735e-002 -8.775701e-002
<VARIANCE> 39
 4.984994e+000 1.539658e+001 1.661045e+001 5.078776e+001 7.534746e+001 4.826437e+001 2.782357e+001 4.898400e+001 9.413596e+001 6.686375e+001 3.662592e+001 2.214169e+001 1.253322e+001 2.339435e-001 1.292141e+000 1.282487e+000 1.540964e+000 1.782230e+000 2.179114e+000 1.838672e+000 2.663970e+000 2.681686e+000 1.883648e+000 1.942527e+000 1.483763e+000 4.795066e-001 6.509283e-002 1.458068e-001 1.609419e-001 1.654596e-001 2.401973e-001 4.315998e-001 3.211017e-001 3.201631e-001 4.210271e-001 2.846914e-001 2.671564e-001 2.454869e-001 9.922162e-002
<GCONST> 1.005385e+002
<TRANSP> 5
 0.000000e+000 1.000000e+000 0.000000e+000 0.000000e+000 0.000000e+000
 0.000000e+000 6.038492e-001 3.961509e-001 0.000000e+000 0.000000e+000
 0.000000e+000 0.000000e+000 5.321324e-001 4.678676e-001 0.000000e+000
 0.000000e+000 0.000000e+000 0.000000e+000 7.899091e-001 2.100909e-001
 0.000000e+000 0.000000e+000 0.000000e+000 0.000000e+000 0.000000e+000
<ENDHMM>
~h "s"
<BEGINHMM>
<NUMSTATES> 5
<STATE> 2
<MEAN> 39
 -1.184409e+001 -1.717345e+000 1.065659e+001 -3.755270e+000 1.374900e+000 1.149437e+000 3.639850e+000 -1.332005e+000 -1.717414e+000 -2.547562e+000 1.526769e+000 4.939535e-001 7.472817e+001 -4.263706e+000 -1.738871e-001 1.596197e+000 -2.754820e+000 4.920302e-001 2.227484e+000 -6.122811e-001 -4.509965e-001 1.965223e+000 -7.608621e-002 1.067285e+000 1.277228e-001 5.731256e-001 -7.038059e-001 -3.588135e-001 -6.217039e-001 -8.044493e-001 -2.466177e-001 -6.225996e-001 -4.051276e-001 1.109011e-001 6.571422e-002 3.128975e-002 1.975593e-001 -9.363813e-002 2.681371e-001
<VARIANCE> 39
 6.377374e+001 1.632679e+001 2.974660e+001 3.925212e+001 4.810580e+001 5.103197e+001 2.590140e+001 3.493440e+001 5.541307e+001 2.728100e+001 3.204743e+001 2.253270e+001 5.441388e+001 6.319602e+000 4.038704e+000 4.234134e+000 6.537367e+000 5.158083e+000 6.103535e+000 2.598959e+000 3.004720e+000 5.441888e+000 2.366564e+000 3.288229e+000 2.128808e+000 2.953649e+000 8.095179e-001 4.478751e-001 5.730491e-001 7.905810e-001 6.754098e-001 9.139051e-001 4.350084e-001 4.840676e-001 1.183613e+000 3.948878e-001 5.392132e-001 3.383235e-001 1.999432e-001
<GCONST> 1.279327e+002
<STATE> 3
<MEAN> 39
 -2.680220e+001 -5.774403e+000 9.620519e+000 -1.620998e+001 -8.765901e-001 1.823529e+000 -1.412037e+000 -3.830170e+000 1.331910e+000 -2.689666e+000 4.815229e+000 -7.654980e-002 7.734370e+001 -2.909645e+000 -6.097045e-001 -4.264704e-001 -2.557807e+000 -7.463340e-001 -8.397827e-001 -9.285335e-001 -3.830914e-001 -1.728575e-001 -1.497063e-001 1.065707e-001 -5.818663e-001 1.056422e+000 8.155003e-001 3.586566e-001 -2.951029e-001 8.164555e-001 1.511564e-001 -2.103713e-001 3.093107e-001 3.065709e-001 -3.075993e-001 3.201962e-002 -3.446966e-001 -2.636427e-002 -4.304676e-001
<VARIANCE> 39
 1.436619e+001 1.012195e+001 1.511128e+001 1.318741e+001 1.805264e+001 2.253192e+001 2.235962e+001 1.901276e+001 2.492411e+001 1.781426e+001 1.221695e+001 1.149181e+001 2.666022e+001 2.201561e+000 1.180767e+000 2.897043e+000 2.090075e+000 1.580308e+000 1.417174e+000 1.898467e+000 1.753414e+000 1.721894e+000 1.259889e+000 1.180773e+000 8.908705e-001 2.620715e+000 5.171872e-001 2.892362e-001 5.023952e-001 3.400836e-001 5.280928e-001 6.308823e-001 3.507797e-001 4.110925e-001 6.031956e-001 2.396500e-001 2.809313e-001 2.281472e-001 1.299147e-001
<GCONST> 1.014643e+002
<STATE> 4
<MEAN> 39
 -3.166695e+001 -4.782856e+000 7.990223e+000 -1.752386e+001 1.782115e+000 9.577956e-001 -5.975078e-001 -9.978340e-001 3.076838e-001 -1.847226e+000 2.996370e+000 -1.029795e+000 7.690600e+001 6.062591e-001 3.154551e-001 -1.673452e-001 6.576274e-001 3.162983e-001 -1.117299e-001 2.489736e-001 3.180131e-001 -5.578259e-002 6.967482e-002 -2.497439e-001 9.687173e-002 -5.750196e-001 5.879420e-001 5.199958e-002 1.122691e-002 4.093507e-001 1.109419e-002 -4.666096e-002 7.922776e-002 3.031802e-002 -6.117301e-002 -1.950894e-002 1.932995e-003 7.076030e-002 -1.038943e-001
<VARIANCE> 39
 2.292715e+001 1.141619e+001 2.475709e+001 2.046590e+001 2.534730e+001 1.888984e+001 2.314862e+001 1.884800e+001 1.709619e+001 2.002592e+001 1.378636e+001 1.094546e+001 2.297214e+001 4.266416e+000 9.512039e-001 1.119274e+000 2.342370e+000 1.345707e+000 1.321429e+000 1.309629e+000 1.494838e+000 1.394385e+000 1.424352e+000 9.952434e-001 8.788782e-001 1.630987e+000 5.124688e-001 1.684919e-001 2.129564e-001 4.540998e-001 3.180583e-001 2.951907e-001 2.778244e-001 2.731244e-001 3.215927e-001 2.696110e-001 2.071699e-001 1.774423e-001 2.001250e-001
<GCONST> 9.727518e+001
<TRANSP> 5
 0.000000e+000 1.000000e+000 0.000000e+000 0.000000e+000 0.000000e+000
 0.000000e+000 6.498055e-001 3.501944e-001 0.000000e+000 0.000000e+000
 0.000000e+000 0.000000e+000 6.554397e-001 3.445603e-001 0.000000e+000
 0.000000e+000 0.000000e+000 0.000000e+000 8.985765e-001 1.014235e-001
 0.000000e+000 0.000000e+000 0.000000e+000 0.000000e+000 0.000000e+000
<ENDHMM>
~h "t"
<BEGINHMM>
<NUMSTATES> 5
<STATE> 2
<MEAN> 39
 -1.234321e+001 1.072242e-001 2.076766e+000 3.189042e-001 2.272751e+000 -1.432817e+000 1.705083e+000 2.398163e+000 -2.693104e+000 -1.975517e+000 2.254683e+000 1.030277e+000 6.365532e+001 -1.148323e+000 -5.553200e-001 -3.326983e-001 -5.171937e-001 -4.998863e-001 -1.506031e-001 -7.517409e-001 -6.288169e-001 1.052341e+000 -2.812173e-001 1.379262e-002 2.232290e-001 3.153149e-001 -1.721249e-001 -4.903106e-001 3.740593e-001 -3.454826e-001 1.566866e-001 -2.161433e-001 7.938348e-003 -3.494343e-001 6.994987e-002 -1.699525e-001 -6.343061e-002 -7.996877e-002 1.197739e+000
<VARIANCE> 39
 4.730902e+001 1.716544e+001 3.790060e+001 6.537499e+001 6.450425e+001 3.679071e+001 2.961450e+001 3.943249e+001 5.800430e+001 4.875528e+001 2.160575e+001 2.495761e+001 6.279162e+001 3.792509e+000 3.021334e+000 4.205182e+000 6.191621e+000 4.547854e+000 4.467088e+000 3.011318e+000 3.673202e+000 4.546032e+000 3.651154e+000 2.608855e+000 2.310431e+000 1.228772e+001 3.679381e-001 3.726323e-001 8.477068e-001 6.204510e-001 8.194159e-001 8.534922e-001 7.199016e-001 5.945511e-001 7.382395e-001 6.401086e-001 4.723166e-001 4.016442e-001 1.097367e+000
<GCONST> 1.314767e+002
<STATE> 3
<MEAN> 39
 -1.991874e+001 -6.188552e+000 5.970433e+000 -6.131229e+000 2.520014e+000 -2.185664e+000 8.190825e-001 -2.831186e+000 2.811636e+000 -4.472480e+000 2.150189e+000 1.560656e+000 7.687258e+001 -7.272336e-001 -1.185847e+000 1.156223e+000 -9.972038e-001 5.680035e-001 4.570380e-001 4.576457e-001 -9.462721e-001 5.062495e-001 -1.434658e-001 2.360515e-002 3.524482e-001 1.968617e+000 9.209553e-001 5.168765e-001 -1.257823e-001 6.707587e-001 1.706799e-001 9.469543e-002 2.167202e-001 5.243210e-001 -4.040610e-001 4.090337e-001 -7.034190e-002 -2.039600e-001 -1.174915e+000
<VARIANCE> 39
 2.562939e+001 1.442363e+001 1.449061e+001 2.590831e+001 1.993165e+001 2.228439e+001 2.667804e+001 2.393667e+001 2.482475e+001 2.153987e+001 1.719222e+001 1.523638e+001 1.623462e+001 3.273967e+000 1.889376e+000 2.697281e+000 4.871339e+000 3.030309e+000 3.351500e+000 3.534482e+000 3.059795e+000 3.735632e+000 3.377634e+000 1.894335e+000 1.986596e+000 7.279774e+000 4.322633e-001 3.673570e-001 5.522844e-001 8.001311e-001 8.881149e-001 6.823920e-001 5.367945e-001 6.044101e-001 8.461973e-001 5.227923e-001 4.621004e-001 4.462773e-001 7.306054e-001
<GCONST> 1.186612e+002
<STATE> 4
<MEAN> 39
 -1.405455e+001 -4.488500e+000 7.059942e+000 -4.350545e-001 6.808698e+000 -6.878676e-001 9.373871e-001 -1.829674e+000 4.623559e-001 -1.721624e+000 2.498408e+000 2.214658e-001 7.291272e+001 1.874014e+000 4.293429e-001 1.310179e-001 1.440610e+000 6.923099e-001 -5.681660e-001 -3.273443e-002 6.103740e-001 -1.204975e+000 4.292877e-001 9.078909e-002 -7.980752e-001 -6.215268e-001 2.256681e-001 1.355658e-001 -2.403302e-001 8.570500e-002 -1.752630e-001 -3.870606e-001 -2.451946e-001 2.777023e-001 -3.369437e-001 -5.089495e-002 -2.366335e-002 -1.786949e-001 -4.912481e-002
<VARIANCE> 39
 4.268017e+001 1.959656e+001 2.206878e+001 6.910019e+001 5.085462e+001 2.694911e+001 3.310527e+001 2.889333e+001 4.625898e+001 3.041685e+001 2.218179e+001 3.595300e+001 4.206193e+001 2.566628e+000 2.551947e+000 2.373189e+000 3.081187e+000 3.040038e+000 4.029387e+000 2.215003e+000 2.810203e+000 4.821087e+000 2.760265e+000 2.702573e+000 2.023438e+000 3.897374e+000 7.649652e-001 5.622087e-001 4.013898e-001 7.348903e-001 4.845576e-001 6.348927e-001 5.558686e-001 4.939075e-001 9.284416e-001 5.007620e-001 3.737855e-001 4.733568e-001 5.732189e-001
<GCONST> 1.237523e+002
<TRANSP> 5
 0.000000e+000 1.000000e+000 0.000000e+000 0.000000e+000 0.000000e+000
 0.000000e+000 7.323822e-001 2.676178e-001 0.000000e+000 0.000000e+000
 0.000000e+000 0.000000e+000 6.403289e-001 3.596711e-001 0.000000e+000
 0.000000e+000 0.000000e+000 0.000000e+000 6.213955e-001 3.786045e-001
 0.000000e+000 0.000000e+000 0.000000e+000 0.000000e+000 0.000000e+000
<ENDHMM>
~h "v"
<BEGINHMM>
<NUMSTATES> 5
<STATE> 2
<MEAN> 39
 2.912193e-001 -4.988409e+000 4.498575e-001 1.088802e+000 -5.156667e-001 -1.439184e+001 5.182718e+000 6.566636e+000 -9.400448e+000 -5.468719e+000 -1.207007e+000 -4.216221e+000 8.176721e+001 -6.009629e-002 4.631893e-001 1.892879e-001 2.977484e-001 3.043270e-001 5.843892e-001 3.022960e-001 -3.553801e-002 -6.452278e-002 -1.141853e-001 -1.449201e-001 -1.276316e-001 -4.831708e-001 -3.294363e-002 6.428339e-003 2.453185e-002 -2.536247e-002 3.908873e-002 4.175052e-002 -1.433811e-002 -4.791851e-002 4.122893e-002 7.083054e-002 7.446598e-002 6.194077e-002 -8.927763e-003
<VARIANCE> 39
 3.334885e+000 1.319209e+001 1.237701e+001 2.911792e+001 2.786274e+001 2.627174e+001 1.473424e+001 2.398137e+001 2.790170e+001 2.663641e+001 1.652338e+001 2.212923e+001 2.376071e+001 1.843536e-001 7.140777e-001 3.678147e-001 1.106063e+000 9.494455e-001 1.311801e+000 9.415177e-001 1.617301e+000 1.327981e+000 1.369896e+000 1.136980e+000 2.011866e+000 9.790668e-001 4.068979e-002 8.221671e-002 5.900603e-002 1.527492e-001 1.373010e-001 1.954769e-001 1.634240e-001 1.919831e-001 2.161722e-001 1.674628e-001 1.849086e-001 2.164653e-001 1.156711e-001
<GCONST> 8.242725e+001
<STATE> 3
<MEAN> 39
 8.594428e-001 8.418304e-001 5.321816e-002 3.981766e+000 3.494588e+000 -6.315581e+000 7.428140e+000 2.778397e+000 -8.455947e+000 -4.030468e+000 -1.889723e+000 -1.193789e+000 7.292567e+001 -6.062364e-001 9.344947e-001 1.858687e-001 2.957700e-001 3.903359e-001 8.603587e-001 7.209175e-001 4.979186e-001 1.164677e+000 -2.360702e-001 3.890857e-001 -3.463398e-001 -9.973270e-001 -2.140056e-001 -1.712341e-001 1.821081e-001 -1.530187e-001 3.848476e-002 -1.531920e-001 -2.272943e-001 -1.308673e-001 1.270972e-001 1.609440e-001 1.602517e-001 6.862667e-002 1.957141e-001
<VARIANCE> 39
 7.817877e+000 2.511309e+001 1.232415e+001 5.740513e+001 2.959389e+001 4.766945e+001 2.550705e+001 6.005520e+001 3.567704e+001 2.689083e+001 1.907577e+001 1.124589e+001 2.442924e+001 1.082330e+000 1.661358e+000 4.772997e-001 1.722086e+000 2.162089e+000 1.840974e+000 1.510065e+000 2.529789e+000 4.343364e+000 1.846687e+000 1.611472e+000 1.302864e+000 1.259071e+000 1.528577e-001 2.646481e-001 1.076142e-001 1.951863e-001 3.579045e-001 3.393268e-001 2.050755e-001 4.778201e-001 4.214323e-001 2.657445e-001 3.319057e-001 3.628871e-001 1.683943e-001
<GCONST> 1.021126e+002
<STATE> 4
<MEAN> 39
 -6.763717e+000 6.755717e+000 3.567678e+000 -2.727860e-001 2.263080e+000 -4.105603e+000 5.355480e+000 5.566034e+000 1.358473e+000 -7.104850e-001 -2.678780e+000 -1.167548e+000 6.488880e+001 -6.533043e-001 -1.448004e-001 -1.847531e-001 -2.721702e-001 -4.938880e-002 3.791090e-001 -2.899933e-001 1.123062e-001 1.500519e-001 3.043455e-001 9.776893e-002 1.576104e-001 -6.388417e-001 8.077350e-002 -1.180272e-001 -4.501395e-002 8.117940e-002 -4.087319e-002 -7.007971e-002 -9.192605e-002 -1.235271e-001 -2.153616e-001 4.778347e-002 -4.662665e-002 -5.978544e-002 1.706953e-002
<VARIANCE> 39
 3.378363e+001 2.559098e+001 2.325805e+001 3.140824e+001 3.378313e+001 6.757968e+001 2.433259e+001 2.512189e+001 3.690669e+001 2.515645e+001 2.519105e+001 2.030302e+001 3.942648e+001 2.094445e+000 1.089137e+000 2.037519e+000 2.171937e+000 1.928752e+000 3.748206e+000 2.140546e+000 2.266951e+000 3.519818e+000 1.711387e+000 1.850450e+000 2.128961e+000 7.799417e-001 3.440693e-001 2.024544e-001 3.483290e-001 4.157614e-001 3.193943e-001 7.705513e-001 4.282704e-001 3.864014e-001 7.548265e-001 3.513149e-001 3.433561e-001 4.605131e-001 1.607057e-001
<GCONST> 1.119179e+002
<TRANSP> 5
 0.000000e+000 1.000000e+000 0.000000e+000 0.000000e+000 0.000000e+000
 0.000000e+000 8.368723e-001 1.631278e-001 0.000000e+000 0.000000e+000
 0.000000e+000 0.000000e+000 6.492392e-001 3.507608e-001 0.000000e+000
 0.000000e+000 0.000000e+000 0.000000e+000 7.881086e-001 2.118914e-001
 0.000000e+000 0.000000e+000 0.000000e+000 0.000000e+000 0.000000e+000
<ENDHMM>
~h "w"
<BEGINHMM>
<NUMSTATES> 5
<STATE> 2
<MEAN> 39
 -1.304393e+001 -1.980308e+000 1.925994e+000 -1.963324e+000 3.656898e+000 -3.364558e-001 4.238490e-001 1.576626e-001 -5.391043e-001 -9.432616e-001 1.792081e+000 1.934833e+000 6.223553e+001 1.163247e+000 1.248404e+000 5.258564e-001 3.357369e-001 -4.324660e-001 -1.112740e-001 -1.812648e-001 3.757774e-001 -3.576816e-001 2.252519e-002 -5.774251e-001 -4.552982e-001 -2.344715e-001 3.147831e-001 1.659202e-001 9.607881e-002 1.288546e-001 -2.371031e-001 -6.976308e-001 -1.571880e-001 2.532375e-001 5.016119e-002 -1.800307e-001 -1.538370e-001 -1.841021e-001 2.980428e-001
<VARIANCE> 39
 1.048888e+002 2.925592e+001 1.441289e+001 3.077943e+001 3.908379e+001 4.814214e+001 3.078051e+001 5.480360e+001 9.720114e+001 2.155832e+001 1.725714e+001 1.668380e+001 2.260568e+002 3.315982e+000 3.372983e+000 2.562037e+000 2.867773e+000 3.431653e+000 5.080518e+000 2.491814e+000 2.068015e+000 2.503444e+000 3.755159e+000 2.157016e+000 1.871436e+000 2.815135e+000 3.288623e-001 5.151893e-001 4.118691e-001 5.326185e-001 5.445666e-001 1.247293e+000 6.319901e-001 6.121447e-001 6.208224e-001 6.256430e-001 3.917555e-001 3.191800e-001 6.733741e-001
<GCONST> 1.250318e+002
<STATE> 3
<MEAN> 39
 -1.233236e+000 -2.881059e-002 4.831055e+000 -1.333907e+000 4.359226e+000 -3.420387e+000 8.199334e-001 -1.334835e+000 -9.138230e+000 -3.906156e+000 -6.212448e-001 -2.428190e+000 7.576169e+001 6.095114e-001 2.051728e+000 1.386195e+000 -6.666982e-001 -1.180080e+000 -1.324440e+000 -1.444414e-001 2.438935e+000 1.826217e+000 -1.350353e-001 -1.384073e+000 -1.922003e+000 -4.657157e-001 -4.822123e-002 -6.229008e-002 1.413010e-002 2.334698e-001 2.727040e-002 -1.003517e+000 -3.490913e-001 1.993738e-001 3.781222e-001 6.339185e-001 1.854679e-001 3.380008e-002 1.262583e-001
<VARIANCE> 39
 1.986333e+001 2.525405e+001 1.688526e+001 1.690354e+001 3.110618e+001 2.903683e+001 1.496917e+001 4.243348e+001 9.686839e+001 2.087707e+001 4.039386e+001 3.507816e+001 4.348920e+001 2.757651e+000 7.357013e-001 1.454434e+000 3.069307e+000 2.078857e+000 5.769652e+000 2.776641e+000 3.405696e+000 5.159195e+000 3.615403e+000 1.779173e+000 1.823813e+000 1.805467e+000 6.840827e-002 3.767510e-001 2.355762e-001 3.768013e-001 4.817089e-001 4.098625e-001 3.420129e-001 6.497633e-001 1.072456e+000 7.369820e-001 5.470718e-001 4.799048e-001 3.768018e-001
<GCONST> 1.153230e+002
<STATE> 4
<MEAN> 39
 -1.238490e+000 8.376753e+000 1.233857e+001 9.543261e-001 2.859908e+000 -1.772054e+001 -5.801209e+000 6.397414e+000 -2.997547e+000 1.889331e+000 -1.916886e+000 -4.995264e+000 7.228262e+001 4.701777e-001 -2.663249e-001 2.504576e-001 4.173980e-001 -8.641747e-001 -2.782269e+000 -8.958030e-001 4.184387e-001 4.314621e-001 2.852060e-001 -4.332184e-002 3.513577e-001 8.465621e-001 -3.452857e-002 -6.283671e-001 -4.491967e-001 -1.549749e-001 -2.674197e-001 1.950268e-001 3.480051e-001 -1.468312e-001 6.585784e-003 -2.237530e-001 1.284334e-001 2.856287e-001 3.593596e-001
<VARIANCE> 39
 5.629485e+000 1.647133e+001 2.069397e+001 1.656650e+001 1.884366e+001 6.986021e+001 2.828352e+001 1.863412e+001 2.382930e+001 2.197630e+001 2.375791e+001 2.746175e+001 2.293666e+001 1.292587e+000 2.414978e+000 1.952296e+000 1.517630e+000 3.667832e+000 4.352710e+000 2.300741e+000 2.284373e+000 2.553734e+000 3.940012e+000 1.686765e+000 1.915764e+000 2.716070e+000 1.339666e-001 1.554139e-001 1.975578e-001 3.493713e-001 5.754303e-001 6.476448e-001 4.380248e-001 5.274577e-001 6.724491e-001 5.463786e-001 3.120883e-001 3.617781e-001 1.227243e-001
<GCONST> 1.082258e+002
<TRANSP> 5
 0.000000e+000 1.000000e+000 0.000000e+000 0.000000e+000 0.000000e+000
 0.000000e+000 4.861279e-001 5.138721e-001 0.000000e+000 0.000000e+000
 0.000000e+000 0.000000e+000 6.067872e-001 3.932129e-001 0.000000e+000
 0.000000e+000 0.000000e+000 0.000000e+000 8.122635e-001 1.877365e-001
 0.000000e+000 0.000000e+000 0.000000e+000 0.000000e+000 0.000000e+000
<ENDHMM>
~h "y"
<BEGINHMM>
<NUMSTATES> 5
<STATE> 2
<MEAN> 39
 -5.950297e+000 1.781685e+000 8.853834e+000 6.887192e+000 1.249504e+001 -1.774447e+000 1.636852e+000 4.743755e+000 -7.206271e+000 -3.190013e+000 1.831690e+000 -6.300559e+000 7.100092e+001 2.200491e-001 -1.137441e+000 1.739854e+000 6.131841e-001 1.303740e+000 -7.848479e-001 -7.595606e-001 -2.428697e-001 -1.758488e+000 -1.327131e+000 9.632428e-001 2.762647e-001 2.108421e+000 4.475824e-002 -6.451484e-001 -2.894397e-001 -2.974560e-001 -8.001125e-002 -3.472661e-001 -2.467612e-001 -9.812719e-002 3.698827e-002 -5.021167e-002 2.873202e-001 2.189841e-001 2.015716e-001
<VARIANCE> 39
 3.599264e+001 2.209426e+001 4.270971e+001 9.031042e+001 3.753343e+001 3.146206e+001 1.659807e+001 3.094692e+001 3.539469e+001 3.250839e+001 2.860459e+001 2.980816e+001 6.504659e+001 2.851775e+000 1.414424e+000 4.199325e+000 5.501045e+000 3.368414e+000 3.556401e+000 1.560861e+000 2.714671e+000 3.186036e+000 2.097501e+000 3.423815e+000 3.472201e+000 2.176410e+000 2.841247e-001 3.454668e-001 4.577011e-001 4.608864e-001 3.294533e-001 4.149014e-001 2.136366e-001 5.468751e-001 5.811067e-001 4.172776e-001 3.075289e-001 3.570363e-001 3.361625e-001
<GCONST> 1.187845e+002
<STATE> 3
<MEAN> 39
 -8.797260e+000 -4.926896e+000 1.463634e+001 1.231178e+001 1.586525e+001 -3.891479e+000 4.996393e-001 1.015790e+000 -4.732986e+000 -7.088116e+000 2.714252e+000 -3.930174e+000 7.656772e+001 2.984852e-001 -1.252451e+000 -4.130870e-001 -7.780091e-001 3.274294e-001 -8.321055e-001 -9.610823e-001 -4.394864e-001 -7.663534e-001 -2.392888e-001 8.970278e-001 4.148469e-001 1.361063e+000 2.190471e-001 2.105683e-001 -4.899915e-001 -2.244906e-001 -1.847480e-001 -1.454035e-003 1.052390e-001 -2.566829e-003 -8.770771e-002 2.524231e-001 -9.246084e-002 3.762149e-002 -2.220123e-001
<VARIANCE> 39
 3.018772e+001 1.096297e+001 4.524894e+001 5.613055e+001 2.041555e+001 2.523788e+001 3.812001e+001 2.571252e+001 4.696341e+001 1.547306e+001 3.417301e+001 1.164235e+001 1.986202e+001 1.846467e+000 2.190063e+000 3.146387e+000 1.876113e+000 1.665169e+000 3.761081e+000 2.086291e+000 1.976324e+000 4.549742e+000 1.906985e+000 1.776710e+000 1.937916e+000 8.184446e-001 2.948023e-001 3.195262e-001 2.718261e-001 2.765492e-001 3.591634e-001 5.585530e-001 4.034916e-001 3.670891e-001 7.549974e-001 1.813062e-001 2.759674e-001 2.788888e-001 1.775801e-001
<GCONST> 1.088875e+002
<STATE> 4
<MEAN> 39
 -1.254031e+000 -5.815795e+000 3.514508e+000 6.582627e-001 1.259147e+001 -7.998488e+000 -4.983999e+000 3.501170e+000 -1.328407e+001 -6.181715e+000 7.950272e+000 -2.007770e+000 8.094232e+001 6.047668e-001 1.147501e-001 -9.495408e-001 -1.504703e+000 -1.636625e+000 -9.648623e-001 3.161719e-002 8.050173e-001 6.576549e-001 6.763706e-002 -5.440059e-001 3.404879e-001 3.253239e-001 -7.777267e-003 2.063605e-001 1.126425e-001 -4.412691e-002 -3.751898e-001 -1.684963e-001 2.318706e-001 3.537261e-001 6.239597e-001 7.855843e-002 -2.939013e-001 -2.640605e-001 -1.799192e-001
<VARIANCE> 39
 6.404866e+000 1.061410e+001 2.112249e+001 3.056928e+001 4.116126e+001 4.384821e+001 1.358765e+001 3.699625e+001 2.908715e+001 2.097217e+001 3.431686e+001 1.772187e+001 1.039033e+001 4.995422e-001 6.884540e-001 7.411363e-001 1.680064e+000 2.258884e+000 1.913983e+000 1.610865e+000 2.535279e+000 4.272744e+000 1.807490e+000 2.369246e+000 1.736832e+000 3.075156e-001 7.392478e-002 1.723419e-001 1.529734e-001 3.005635e-001 3.339336e-001 3.951197e-001 2.848901e-001 3.457643e-001 5.070533e-001 2.889617e-001 5.125287e-001 2.590670e-001 8.279856e-002
<GCONST> 9.733582e+001
<TRANSP> 5
 0.000000e+000 1.000000e+000 0.000000e+000 0.000000e+000 0.000000e+000
 0.000000e+000 2.981810e-001 7.018191e-001 0.000000e+000 0.000000e+000
 0.000000e+000 0.000000e+000 7.117892e-001 2.882108e-001 0.000000e+000
 0.000000e+000 0.000000e+000 0.000000e+000 7.923380e-001 2.076620e-001
 0.000000e+000 0.000000e+000 0.000000e+000 0.000000e+000 0.000000e+000
<ENDHMM>
~h "z"
<BEGINHMM>
<NUMSTATES> 5
<STATE> 2
<MEAN> 39
 -1.652856e+001 -2.246553e+000 1.389050e+001 -4.950958e+000 5.294084e+000 2.463354e+000 1.548581e+000 -1.575717e+000 -3.304248e+000 -4.395750e+000 1.702243e+000 -2.682474e+000 7.677206e+001 -3.779348e+000 -2.543419e-002 1.272202e-001 -3.392847e+000 -1.487140e+000 1.254067e+000 2.090469e-001 2.008565e-001 1.812009e+000 2.281500e-001 4.702263e-001 3.835741e-001 1.140101e-001 1.786875e-001 -2.294960e-001 -3.862658e-001 3.170885e-001 1.416889e-001 -6.362742e-001 -1.170364e-001 3.038167e-002 -4.454929e-001 8.849264e-002 -2.204790e-001 -2.135712e-001 -3.902394e-002
<VARIANCE> 39
 1.194805e+002 1.473913e+001 2.502260e+001 7.375113e+001 4.429983e+001 7.581531e+001 1.351942e+001 2.862819e+001 4.441788e+001 2.599090e+001 2.904265e+001 1.219857e+001 2.075190e+001 4.959788e+000 2.497713e+000 3.164021e+000 6.604681e+000 3.633358e+000 5.951099e+000 2.057042e+000 2.572646e+000 5.131513e+000 1.458737e+000 2.525206e+000 1.306025e+000 9.773280e-001 1.072531e+000 3.605381e-001 4.224108e-001 1.202617e+000 6.277140e-001 7.839581e-001 2.551711e-001 4.003543e-001 8.802624e-001 4.254707e-001 3.546390e-001 2.792059e-001 1.955648e-001
<GCONST> 1.206388e+002
<STATE> 3
<MEAN> 39
 -2.798119e+001 -5.648449e+000 1.247943e+001 -1.498046e+001 -3.182355e-001 1.599015e+000 4.734271e-001 -1.119140e+000 -1.227793e+000 -3.792302e+000 2.207615e+000 -1.518547e+000 7.465892e+001 7.697690e-001 1.619671e-001 -1.306379e-001 5.623500e-001 2.618895e-001 2.844852e-001 3.877045e-001 -2.767611e-002 -1.357685e-002 6.040298e-002 -1.329424e-001 2.121928e-001 -9.459245e-001 6.008481e-001 1.944115e-001 3.826056e-003 5.630316e-001 2.874960e-001 8.100000e-002 2.301148e-002 1.809645e-001 1.193212e-002 9.083734e-002 -9.504432e-002 -8.978531e-002 -2.283864e-001
<VARIANCE> 39
 1.128670e+002 1.284111e+001 2.118730e+001 3.949860e+001 1.841159e+001 3.340027e+001 2.032731e+001 1.559522e+001 2.309833e+001 1.695332e+001 1.633233e+001 1.332377e+001 1.896907e+001 3.178073e+000 1.090855e+000 1.204163e+000 1.732405e+000 2.052210e+000 1.504299e+000 1.432945e+000 1.167532e+000 1.813039e+000 1.762967e+000 1.190150e+000 9.878796e-001 7.037569e-001 3.347035e-001 1.793139e-001 2.363573e-001 3.520770e-001 3.329190e-001 2.635068e-001 2.449804e-001 3.353593e-001 3.562877e-001 3.389995e-001 2.634718e-001 3.042859e-001 8.481518e-002
<GCONST> 9.941814e+001
<STATE> 4
<MEAN> 39
 -1.547124e+001 -9.764073e-001 8.164302e+000 -5.136641e+000 3.362906e+000 2.570703e+000 2.518196e+000 1.427674e+000 -3.181156e+000 -2.783159e+000 5.591241e-001 -1.497987e-001 6.695645e+001 1.278790e+000 8.138355e-001 -7.818776e-001 1.860493e+000 8.078185e-001 1.513340e-001 -1.768594e-002 5.922108e-001 7.107667e-002 5.879684e-001 -7.309124e-002 -3.215898e-001 -1.164570e+000 -1.297046e-001 -2.244823e-001 -1.776327e-002 1.027388e-001 1.179610e-002 -2.251900e-001 -1.430395e-001 -1.518615e-002 -2.030661e-002 9.199723e-002 -6.501157e-002 -1.836230e-001 1.916783e-001
<VARIANCE> 39
 5.917464e+001 3.159838e+001 5.301354e+001 3.027868e+001 5.077871e+001 4.240448e+001 3.486077e+001 2.360590e+001 3.288050e+001 3.193203e+001 1.671264e+001 1.894491e+001 7.863386e+001 5.401910e+000 2.426404e+000 2.549982e+000 3.541136e+000 4.550131e+000 3.345488e+000 2.352952e+000 3.118591e+000 3.389494e+000 3.806356e+000 2.241314e+000 1.912402e+000 2.590601e+000 6.331980e-001 3.648429e-001 4.019290e-001 5.611576e-001 5.909485e-001 3.996177e-001 4.613031e-001 5.806943e-001 6.013865e-001 5.360762e-001 4.611920e-001 3.693604e-001 3.747185e-001
<GCONST> 1.229141e+002
<TRANSP> 5
 0.000000e+000 1.000000e+000 0.000000e+000 0.000000e+000 0.000000e+000
 0.000000e+000 6.586394e-001 3.413605e-001 0.000000e+000 0.000000e+000
 0.000000e+000 0.000000e+000 7.651400e-001 2.348600e-001 0.000000e+000
 0.000000e+000 0.000000e+000 0.000000e+000 6.965603e-001 3.034397e-001
 0.000000e+000 0.000000e+000 0.000000e+000 0.000000e+000 0.000000e+000
<ENDHMM>
~h "aa"
<BEGINHMM>
<NUMSTATES> 5
<STATE> 2
<MEAN> 39
 9.187526e-001 -3.788775e+000 -5.915972e-002 -7.148374e+000 -4.377041e+000 -1.684163e+001 2.038527e+000 1.052363e+001 8.730983e+000 2.016165e+000 -1.385567e+000 2.365242e+000 8.011060e+001 6.846485e-001 -1.362678e+000 -1.199666e+000 -6.728039e-001 -5.076298e-001 -1.333107e+000 -1.266397e-001 2.723373e-001 -8.253307e-001 -1.128954e-001 2.552937e-001 -2.221277e-001 1.207950e+000 -1.735251e-001 8.674845e-002 -1.615475e-001 1.743592e-002 2.758285e-001 6.152198e-001 -1.773560e-002 -1.744634e-001 -2.655389e-001 -1.217915e-001 2.632641e-001 -1.306999e-002 -2.837916e-001
<VARIANCE> 39
 3.145288e+000 2.147352e+001 1.283982e+001 1.188492e+001 1.039993e+001 2.500530e+001 1.368774e+001 1.893851e+001 2.629802e+001 9.975336e+000 1.138065e+001 9.760008e+000 2.122821e+001 5.398330e-001 1.261380e+000 9.823424e-001 1.466639e+000 1.253867e+000 2.592456e+000 1.024327e+000 1.453614e+000 2.340748e+000 1.076514e+000 1.384045e+000 1.061776e+000 8.391212e-001 1.200347e-001 3.827180e-001 1.921919e-001 2.940808e-001 1.654392e-001 3.299173e-001 2.352312e-001 2.003619e-001 3.129126e-001 1.765398e-001 2.249972e-001 2.262255e-001 1.174009e-001
<GCONST> 8.813049e+001
<STATE> 3
<MEAN> 39
 3.348547e+000 -5.174544e+000 -5.096141e+000 -1.027427e+001 -4.864053e+000 -1.449127e+001 3.411679e+000 8.262292e+000 -4.473578e-001 9.263401e-001 1.310984e+000 3.322426e+000 8.136534e+001 6.365224e-002 4.820959e-001 1.604002e-001 -4.342476e-001 1.106599e-001 1.441428e+000 3.560473e-001 -9.095200e-001 -1.603644e+000 -7.122701e-001 2.243304e-001 6.809809e-001 -2.751028e-001 -1.705804e-001 1.426185e-001 3.689869e-001 4.912734e-002 1.301190e-001 3.070588e-001 9.817864e-003 -5.783878e-002 -7.199121e-002 -2.917337e-001 -5.193468e-002 4.347061e-002 -8.600621e-002
<VARIANCE> 39
 5.851762e+000 8.520623e+000 8.499749e+000 1.812910e+001 9.542509e+000 3.618139e+001 1.421035e+001 2.552450e+001 2.848926e+001 1.433496e+001 1.357054e+001 1.939027e+001 9.905925e+000 4.384118e-001 2.989358e-001 1.437381e+000 8.741744e-001 7.367451e-001 1.751998e+000 8.010153e-001 1.016815e+000 1.672303e+000 1.604331e+000 5.549837e-001 8.071476e-001 1.548338e-001 3.754079e-002 7.950315e-002 9.200557e-002 1.379975e-001 1.497745e-001 2.279443e-001 1.634618e-001 2.286659e-001 1.391615e-001 1.939020e-001 1.085519e-001 1.579709e-001 4.637810e-002
<GCONST> 7.521068e+001
<STATE> 4
<MEAN> 39
 1.937046e+000 3.430189e-001 -1.179548e+000 -1.365014e+001 9.211665e-001 4.172658e-001 4.605801e+000 5.263219e+000 -1.205939e+001 -1.141170e+001 3.332604e+000 7.266391e+000 7.728635e+001 -1.095033e+000 1.361965e+000 6.236617e-001 1.457681e+000 2.015108e+000 1.643659e+000 1.190123e-002 -2.279504e-001 -1.072125e-001 -1.494747e+000 -3.828833e-001 -3.920238e-001 -1.155276e+000 -2.978644e-001 -1.854218e-001 -5.132604e-002 7.247452e-001 -2.039465e-002 -6.315510e-001 -2.929330e-001 -2.509264e-001 9.324003e-001 8.779303e-001 -3.951152e-002 -3.240988e-001 1.001050e-001
<VARIANCE> 39
 5.940128e+000 2.127191e+001 9.127754e+000 2.557569e+001 3.449548e+001 6.181808e+001 1.357269e+001 2.315689e+001 4.603239e+001 4.062503e+001 1.664263e+001 1.674543e+001 1.978910e+001 8.244112e-001 1.202817e+000 1.489225e+000 3.412656e+000 1.888879e+000 2.916883e+000 1.400021e+000 2.424832e+000 7.037467e+000 4.817588e+000 1.502727e+000 1.198285e+000 9.794285e-001 1.232652e-001 5.504954e-001 2.722532e-001 3.602402e-001 7.936905e-001 5.763234e-001 3.572365e-001 5.793960e-001 6.380889e-001 6.644943e-001 4.103521e-001 2.228496e-001 5.555544e-001
<GCONST> 1.089632e+002
<TRANSP> 5
 0.000000e+000 1.000000e+000 0.000000e+000 0.000000e+000 0.000000e+000
 0.000000e+000 7.694642e-001 2.305358e-001 0.000000e+000 0.000000e+000
 0.000000e+000 0.000000e+000 8.530494e-001 1.469506e-001 0.000000e+000
 0.000000e+000 0.000000e+000 0.000000e+000 6.761742e-001 3.238258e-001
 0.000000e+000 0.000000e+000 0.000000e+000 0.000000e+000 0.000000e+000
<ENDHMM>
~h "ae"
<BEGINHMM>
<NUMSTATES> 5
<STATE> 2
<MEAN> 39
 -9.331167e+000 -2.342633e-001 2.366870e+000 -2.092211e+000 -4.492420e+000 -6.535102e+000 5.398749e+000 1.047222e+000 -2.899355e-001 -1.665585e+000 -3.788014e+000 4.817221e+000 6.527091e+001 -3.106974e-001 -2.023493e-001 -1.711715e+000 -1.726678e-001 -1.038701e+000 -2.417468e-001 -6.765051e-002 8.066259e-001 5.437634e-001 1.029539e+000 4.440815e-001 -3.441888e-001 -1.567001e+000 3.776992e-002 -1.038148e-001 2.640563e-002 2.487074e-001 2.265868e-001 2.447328e-001 1.611626e-001 2.667473e-001 2.443169e-001 9.805065e-002 3.178917e-002 -3.789307e-001 2.492190e-001
<VARIANCE> 39
 2.726369e+001 1.280770e+001 2.833797e+001 1.634863e+001 2.900318e+001 3.064421e+001 3.425821e+001 1.857928e+001 3.154820e+001 2.454193e+001 3.692001e+001 1.989654e+001 6.865207e+001 3.818462e+000 1.708372e+000 1.703411e+000 1.784414e+000 2.715395e+000 3.910091e+000 3.606805e+000 1.866618e+000 3.386090e+000 2.718193e+000 3.501747e+000 2.483126e+000 3.448079e+000 8.083189e-001 4.535268e-001 4.668335e-001 6.282059e-001 7.210974e-001 9.197749e-001 9.909749e-001 3.751886e-001 7.139398e-001 7.195480e-001 8.494273e-001 1.093711e+000 1.172397e+000
<GCONST> 1.230632e+002
<STATE> 3
<MEAN> 39
 -5.854095e+000 -3.670599e+000 -3.403988e+000 -1.702794e+000 -8.302760e+000 -8.264500e+000 1.053001e+001 6.895079e+000 3.895588e+000 2.746650e+000 -3.253334e+000 3.390608e+000 6.742294e+001 2.196716e+000 -1.182365e+000 -6.837683e-001 7.399508e-002 -2.316458e-001 -1.722643e+000 1.434236e+000 1.116789e+000 1.508553e-001 4.744689e-001 -4.539281e-001 4.283968e-001 2.603466e+000 6.772135e-002 -1.041852e-002 1.569970e-001 -2.501849e-002 5.420698e-001 -3.403775e-002 -3.460183e-001 -1.738981e-001 -3.043871e-001 -3.098673e-001 1.157359e-001 1.776872e-001 2.928421e-001
<VARIANCE> 39
 3.716402e+001 2.273725e+001 1.219429e+001 1.652680e+001 3.582446e+001 2.935145e+001 3.663638e+001 3.443263e+001 2.727904e+001 1.512496e+001 2.674100e+001 1.182213e+001 7.188533e+001 2.504948e+000 2.168875e+000 1.332075e+000 1.445310e+000 4.100370e+000 2.827161e+000 3.753869e+000 3.183031e+000 2.841871e+000 1.860274e+000 1.981694e+000 1.377026e+000 3.775438e+000 7.135336e-001 4.430992e-001 2.544399e-001 2.879522e-001 5.356441e-001 6.104926e-001 7.629068e-001 5.919496e-001 5.364310e-001 2.934207e-001 5.036124e-001 2.653569e-001 7.968729e-001
<GCONST> 1.153838e+002
<STATE> 4
<MEAN> 39
 1.382921e+000 -9.611176e+000 -6.480433e+000 -1.452008e+000 -1.047163e-001 -1.341855e+001 7.173484e+000 5.920278e+000 -3.173038e+000 1.257787e+000 2.803433e+000 4.405791e+000 8.198961e+001 -1.069685e-002 3.086336e-001 1.578775e-001 2.839154e-001 9.413952e-001 1.761008e-001 -1.429195e-001 -4.056492e-001 -8.431016e-001 -4.148303e-001 5.308595e-001 -2.051984e-001 2.052714e-001 -2.338196e-001 3.649423e-001 2.941732e-001 2.665952e-001 1.148295e-001 4.674679e-001 -2.625324e-004 -1.701857e-001 -1.391464e-002 6.887089e-003 -1.291430e-001 -3.400185e-001 -4.876039e-001
<VARIANCE> 39
 5.983952e+000 1.180966e+001 1.254183e+001 1.964594e+001 2.692436e+001 1.624796e+001 4.260101e+001 2.865133e+001 3.083048e+001 2.547365e+001 3.585722e+001 1.427772e+001 2.013993e+001 5.655735e-001 1.715221e+000 1.223215e+000 1.870276e+000 1.803200e+000 1.906928e+000 1.500149e+000 2.808867e+000 1.527754e+000 1.245835e+000 1.323433e+000 1.270475e+000 1.329184e+000 1.644238e-001 1.548244e-001 1.305085e-001 2.466302e-001 2.220398e-001 3.882730e-001 2.366163e-001 4.119667e-001 2.417301e-001 2.444289e-001 3.587005e-001 2.719931e-001 2.100428e-001
<GCONST> 9.685321e+001
<TRANSP> 5
 0.000000e+000 1.000000e+000 0.000000e+000 0.000000e+000 0.000000e+000
 0.000000e+000 7.099923e-001 2.900077e-001 0.000000e+000 0.000000e+000
 0.000000e+000 0.000000e+000 7.544873e-001 2.455127e-001 0.000000e+000
 0.000000e+000 0.000000e+000 0.000000e+000 8.568479e-001 1.431521e-001
 0.000000e+000 0.000000e+000 0.000000e+000 0.000000e+000 0.000000e+000
<ENDHMM>
~h "ah"
<BEGINHMM>
<NUMSTATES> 5
<STATE> 2
<MEAN> 39
 -5.880086e+000 1.402329e+000 2.523652e+000 -3.012671e+000 -3.302101e+000 -1.240110e+001 3.535970e+000 6.915963e+000 -8.742498e-001 -1.134188e+000 -1.716569e+000 6.043419e-003 6.976086e+001 6.764315e-001 -1.400215e+000 -3.267611e-001 -7.590921e-001 -1.094268e+000 -1.643410e+000 7.238834e-001 2.457284e-001 -1.113561e-001 8.102678e-001 -5.668510e-001 4.366466e-001 1.682361e+000 3.065344e-001 -2.281351e-001 1.673718e-001 2.429056e-001 -3.495643e-002 -2.018376e-001 1.154721e-001 2.569395e-001 -1.916632e-001 -3.056196e-002 -2.138627e-001 -3.446599e-001 4.099486e-001
<VARIANCE> 39
 5.187210e+001 4.272417e+001 2.540463e+001 4.108058e+001 3.287091e+001 1.187661e+002 4.688472e+001 4.588160e+001 5.111374e+001 3.222466e+001 2.341069e+001 2.387497e+001 1.278466e+002 4.947974e+000 1.659139e+000 2.345268e+000 4.069402e+000 5.953846e+000 8.291755e+000 4.912128e+000 4.081697e+000 8.631674e+000 4.900642e+000 3.284600e+000 1.958100e+000 6.650139e+000 7.319500e-001 2.815287e-001 2.980097e-001 9.867442e-001 9.061332e-001 1.538557e+000 8.358266e-001 5.666308e-001 1.328984e+000 8.969764e-001 4.965870e-001 6.078213e-001 1.357924e+000
<GCONST> 1.356828e+002
<STATE> 3
<MEAN> 39
 -9.815809e-001 -5.146203e+000 2.959221e+000 -3.650198e+000 -8.656253e+000 -2.331279e+001 5.623647e+000 9.961523e+000 1.791465e-001 1.309587e+000 -4.977854e+000 1.436376e+000 7.959032e+001 7.085159e-001 -1.115082e+000 -7.026230e-001 -5.715996e-001 -2.449409e-001 -8.236479e-001 7.591850e-001 9.529291e-001 3.222518e-001 2.898272e-001 -3.429157e-001 1.836835e-001 1.425779e+000 -2.685895e-001 2.711400e-001 9.322531e-002 1.800694e-001 5.795680e-001 7.921052e-001 -2.480280e-001 -2.755620e-001 -2.472465e-001 -4.263885e-001 1.319333e-001 -1.895187e-001 -4.341278e-001
<VARIANCE> 39
 6.623548e+000 1.108290e+001 2.006582e+001 1.456265e+001 4.304109e+001 6.849361e+001 2.980238e+001 5.031378e+001 2.858411e+001 1.331486e+001 3.095732e+001 2.287849e+001 4.153647e+001 1.511638e+000 1.038534e+000 1.570082e+000 1.530037e+000 3.360011e+000 5.765019e+000 3.001598e+000 1.908497e+000 2.107951e+000 1.493841e+000 1.665064e+000 1.036050e+000 4.944520e+000 2.550512e-001 1.258993e-001 2.536368e-001 4.129703e-001 4.669350e-001 5.440178e-001 4.401337e-001 3.104000e-001 4.465830e-001 3.342138e-001 3.440332e-001 2.622450e-001 5.942380e-001
<GCONST> 1.086271e+002
<STATE> 4
<MEAN> 39
 5.838823e-001 -7.022931e+000 3.753956e-003 -3.952535e+000 -3.043726e+000 -2.133768e+001 6.581303e+000 1.187219e+001 -3.824597e+000 -1.650274e+000 -3.064933e+000 8.256665e-001 8.319384e+001 -7.692833e-002 3.010009e-001 1.989290e-003 4.829383e-001 7.491799e-001 8.632467e-001 1.665486e-001 -6.007975e-001 -9.024252e-001 -5.066139e-001 5.042661e-001 -3.058692e-001 -2.573728e-001 -7.995573e-002 2.058058e-001 1.378547e-001 1.983204e-001 7.294219e-002 1.613784e-001 3.625487e-002 -1.253380e-001 -3.148097e-002 -7.978880e-002 3.864467e-002 -1.176431e-001 -2.317384e-001
<VARIANCE> 39
 3.621704e+000 6.075659e+000 1.045402e+001 7.340451e+000 1.352751e+001 4.170619e+001 2.018842e+001 6.617847e+001 3.422945e+001 1.202209e+001 2.584726e+001 1.980816e+001 1.041277e+001 1.883874e-001 4.292597e-001 4.383979e-001 6.980689e-001 1.034198e+000 9.952902e-001 9.675875e-001 1.609233e+000 1.165867e+000 7.433410e-001 9.279152e-001 9.751351e-001 2.893380e-001 4.245647e-002 6.960016e-002 7.029895e-002 1.039020e-001 1.463711e-001 1.857903e-001 1.693502e-001 3.045292e-001 2.733889e-001 1.569327e-001 1.395545e-001 1.333131e-001 8.067903e-002
<GCONST> 7.556874e+001
<TRANSP> 5
 0.000000e+000 1.000000e+000 0.000000e+000 0.000000e+000 0.000000e+000
 0.000000e+000 5.153760e-001 4.846240e-001 0.000000e+000 0.000000e+000
 0.000000e+000 0.000000e+000 6.532527e-001 3.467473e-001 0.000000e+000
 0.000000e+000 0.000000e+000 0.000000e+000 8.901572e-001 1.098428e-001
 0.000000e+000 0.000000e+000 0.000000e+000 0.000000e+000 0.000000e+000
<ENDHMM>
~h "ao"
<BEGINHMM>
<NUMSTATES> 5
<STATE> 2
<MEAN> 39
 -5.569137e-001 -2.033590e+000 3.641047e+000 -3.181703e+000 -5.356854e+000 -2.211585e+001 -3.679730e+000 9.835137e+000 2.304849e+000 -1.261593e+000 -3.407324e-001 -1.971970e+000 8.089404e+001 2.023209e+000 -3.484603e-001 -4.696870e-001 9.053699e-002 -1.607191e+000 -4.175365e+000 -6.452257e-001 1.489469e+000 1.737965e+000 1.115292e+000 2.074565e-001 -5.715154e-001 1.393813e+000 -1.009085e+000 -1.939129e-001 -1.173772e-001 -1.341074e-001 3.278011e-001 7.356012e-001 3.190512e-001 -5.078304e-001 9.418959e-002 1.024007e-002 2.228912e-001 1.259456e-001 -2.148663e-001
<VARIANCE> 39
 2.579642e+001 1.578103e+001 3.202430e+001 1.296980e+001 2.891618e+001 9.693710e+001 4.453941e+001 2.565276e+001 3.339581e+001 3.282843e+001 1.589745e+001 1.630622e+001 3.921165e+001 7.148795e+000 1.258720e+000 2.112449e+000 2.053144e+000 2.491064e+000 7.438233e+000 3.681747e+000 2.732437e+000 3.003944e+000 2.883058e+000 1.639723e+000 1.187596e+000 3.006186e+000 1.040142e+000 3.373140e-001 4.083724e-001 4.523712e-001 3.753689e-001 1.491164e+000 8.085041e-001 3.755767e-001 4.069071e-001 5.465403e-001 2.527251e-001 1.609077e-001 3.634380e-001
<GCONST> 1.175132e+002
<STATE> 3
<MEAN> 39
 1.308329e+000 -3.734349e+000 2.861999e+000 -4.094243e+000 -1.065990e+001 -2.905408e+001 -4.565664e+000 1.154337e+001 6.120021e+000 3.103894e+000 2.610740e+000 -3.123262e+000 8.232905e+001 8.176463e-002 7.093847e-002 5.958926e-003 -1.320310e-001 -2.166609e-001 5.649988e-002 1.181730e-002 3.356064e-002 -2.096064e-002 2.860189e-001 7.787590e-002 1.937274e-002 -1.931610e-001 -3.272650e-003 5.310654e-002 4.655788e-002 -3.992997e-003 1.011958e-001 2.388492e-001 3.012349e-002 -5.286731e-002 -2.294074e-001 -8.193842e-002 -7.428613e-002 2.147199e-002 -6.435381e-002
<VARIANCE> 39
 4.157714e+000 1.057909e+001 1.853678e+001 7.883444e+000 3.009329e+001 2.964203e+001 2.599376e+001 2.379922e+001 1.106760e+001 1.219338e+001 2.148735e+001 1.443142e+001 6.711934e+000 8.699752e-002 1.491623e-001 5.584776e-001 4.060340e-001 6.605238e-001 1.606459e+000 5.913402e-001 6.424222e-001 1.536168e+000 6.184777e-001 6.708748e-001 6.054995e-001 1.143535e-001 1.654461e-002 2.397576e-002 6.351909e-002 7.818840e-002 9.547143e-002 1.724948e-001 1.035589e-001 1.154204e-001 1.970871e-001 1.089578e-001 7.317934e-002 9.828550e-002 1.608447e-002
<GCONST> 6.177861e+001
<STATE> 4
<MEAN> 39
 2.114672e+000 1.823000e+000 1.928268e+000 -7.536673e+000 -1.067514e+001 -1.893965e+001 -4.298278e-001 8.140279e+000 2.307829e-001 2.983975e+000 1.889511e+000 -9.396600e-001 7.674185e+001 -4.770983e-001 8.686647e-001 3.896533e-001 1.664423e-001 3.432640e-001 1.919141e+000 1.227281e+000 -1.981567e-001 -5.131648e-001 -7.492042e-001 -7.349588e-001 2.892020e-001 -8.538532e-001 -2.752632e-001 6.549797e-002 4.264341e-002 1.703085e-001 1.127075e-001 2.760865e-001 6.257575e-002 6.605349e-002 2.201125e-001 -1.395041e-001 3.941054e-002 9.892710e-002 -1.722479e-001
<VARIANCE> 39
 7.798897e+000 3.004408e+001 3.566203e+001 2.605674e+001 1.997458e+001 7.623418e+001 2.878180e+001 3.404019e+001 3.372115e+001 2.980198e+001 3.279342e+001 2.259674e+001 3.609735e+001 7.111005e-001 9.053595e-001 1.284274e+000 1.705320e+000 1.727732e+000 2.806353e+000 1.434212e+000 1.514355e+000 2.264717e+000 2.420265e+000 1.225674e+000 9.441409e-001 8.717505e-001 8.788652e-002 1.403621e-001 2.424924e-001 2.414682e-001 2.815140e-001 4.656688e-001 2.755557e-001 2.787225e-001 3.650025e-001 2.695668e-001 3.302509e-001 1.822672e-001 1.518724e-001
<GCONST> 1.008536e+002
<TRANSP> 5
 0.000000e+000 1.000000e+000 0.000000e+000 0.000000e+000 0.000000e+000
 0.000000e+000 6.646982e-001 3.353018e-001 0.000000e+000 0.000000e+000
 0.000000e+000 0.000000e+000 9.184725e-001 8.152745e-002 0.000000e+000
 0.000000e+000 0.000000e+000 0.000000e+000 8.306316e-001 1.693685e-001
 0.000000e+000 0.000000e+000 0.000000e+000 0.000000e+000 0.000000e+000
<ENDHMM>
~h "aw"
<BEGINHMM>
<NUMSTATES> 5
<STATE> 2
<MEAN> 39
 -2.215397e+001 -2.452768e+000 5.434282e+000 -8.696339e+000 6.285152e+000 -1.069910e+000 1.722656e+000 9.068198e-001 2.188685e+000 -2.634404e+000 9.585102e-001 4.564424e-001 7.105495e+001 4.760430e+000 7.155192e-001 6.170735e-001 1.136145e+000 -3.005068e+000 -2.790733e+000 -3.603402e-001 6.276937e-001 -4.559793e-001 -2.064174e+000 -5.397512e-001 -7.183465e-001 1.692526e+000 1.143041e+000 -1.357962e-001 1.429852e-002 1.604837e-001 -1.046078e+000 -1.243230e+000 6.578032e-002 8.221054e-001 -8.865328e-002 -4.303316e-001 1.103622e-001 -2.474675e-001 9.407097e-001
<VARIANCE> 39
 5.075473e+001 1.324787e+001 1.063080e+001 1.030576e+001 2.432350e+001 2.801535e+001 2.042568e+001 2.181450e+001 1.403558e+001 1.937508e+001 1.152916e+001 7.875778e+000 2.354405e+001 4.944084e+000 1.746142e+000 9.754506e-001 1.714539e+000 3.510734e+000 4.312392e+000 1.368154e+000 2.840799e+000 1.677435e+000 3.523992e+000 1.638014e+000 1.394243e+000 2.338393e+000 5.741505e-001 3.955759e-001 2.457720e-001 3.031495e-001 4.601974e-001 5.502698e-001 3.271949e-001 4.762616e-001 2.931589e-001 5.413238e-001 3.091428e-001 2.184037e-001 2.384261e-001
<GCONST> 1.056967e+002
<STATE> 3
<MEAN> 39
 -2.636629e+000 -2.616547e+000 5.751344e+000 -5.649187e+000 -7.604744e+000 -1.782325e+001 1.219057e+000 9.751883e+000 8.724685e-001 -1.076084e+001 1.567269e+000 -3.370745e+000 8.169976e+001 3.407956e+000 -1.636991e+000 -7.593411e-001 -3.216853e-002 -3.395309e+000 -4.674491e+000 2.859590e-001 2.900366e+000 7.427965e-001 2.811925e-001 6.712591e-001 -9.270902e-001 2.302309e+000 -1.329379e+000 -2.975399e-001 -6.995194e-002 -2.651816e-001 4.748820e-001 6.133775e-001 6.723808e-002 -2.226491e-001 5.739142e-001 1.158176e+000 -6.712396e-002 3.194090e-001 -7.511828e-001
<VARIANCE> 39
 1.085055e+001 1.746710e+001 9.478374e+000 9.453956e+000 1.897970e+001 3.700217e+001 1.483988e+001 2.477139e+001 1.568363e+001 1.479032e+001 1.213675e+001 7.972915e+000 1.462783e+001 5.707006e+000 1.021976e+000 8.620683e-001 1.106030e+000 2.226330e+000 3.543056e+000 1.257154e+000 1.950412e+000 2.067877e+000 5.202873e+000 1.321918e+000 1.052826e+000 2.271952e+000 2.698026e-001 4.559688e-001 3.065905e-001 2.627716e-001 3.244395e-001 6.864404e-001 2.461019e-001 5.496458e-001 2.917984e-001 4.124055e-001 3.686907e-001 2.065729e-001 2.730136e-001
<GCONST> 1.006782e+002
<STATE> 4
<MEAN> 39
 -1.032790e+000 -3.979332e+000 8.666046e+000 -3.516410e+000 -9.279467e+000 -2.277977e+001 2.318918e+000 1.463862e+001 -1.901891e-001 -5.907674e+000 -2.958464e+000 -5.022462e+000 8.010283e+001 -1.502500e-002 1.576425e-001 1.811279e-001 3.165677e-001 4.975590e-001 5.115610e-001 1.316957e-001 -2.789628e-001 -7.238479e-001 -8.263598e-002 -3.515961e-001 7.842506e-002 -2.304201e-001 -6.408549e-002 1.212471e-001 -8.668939e-003 4.072887e-002 1.752414e-001 2.637993e-001 5.456910e-002 -1.882305e-001 -7.732317e-002 -5.974543e-002 3.816377e-002 2.707378e-002 -7.793580e-002
<VARIANCE> 39
 5.106520e+000 1.053491e+001 1.155872e+001 1.270776e+001 6.207143e+001 5.661888e+001 1.445875e+001 1.447296e+001 5.855471e+001 3.393457e+001 2.643948e+001 1.536556e+001 1.884097e+001 3.363919e-001 9.209209e-001 8.616198e-001 8.562751e-001 3.108501e+000 4.099680e+000 1.353878e+000 2.149244e+000 2.605366e+000 2.590446e+000 1.248780e+000 1.737510e+000 1.436548e+000 8.003091e-002 2.055298e-001 1.516049e-001 1.807944e-001 3.745528e-001 6.054725e-001 2.742741e-001 3.369028e-001 4.630792e-001 4.223366e-001 2.181635e-001 3.084542e-001 3.334295e-001
<GCONST> 9.888259e+001
<TRANSP> 5
 0.000000e+000 1.000000e+000 0.000000e+000 0.000000e+000 0.000000e+000
 0.000000e+000 6.223111e-001 3.776889e-001 0.000000e+000 0.000000e+000
 0.000000e+000 0.000000e+000 6.821333e-001 3.178667e-001 0.000000e+000
 0.000000e+000 0.000000e+000 0.000000e+000 9.458261e-001 5.417398e-002
 0.000000e+000 0.000000e+000 0.000000e+000 0.000000e+000 0.000000e+000
<ENDHMM>
~h "ax"
<BEGINHMM>
<NUMSTATES> 5
<STATE> 2
<MEAN> 39
 -9.460876e+000 -2.672218e+000 4.945262e+000 1.408062e+000 6.597544e+000 -1.237618e+000 2.094674e+000 2.992296e+000 -3.279036e+000 -5.605258e+000 9.183224e-001 1.807368e-001 7.491608e+001 4.624495e-001 -1.334255e-001 7.649787e-002 1.470107e-001 -1.679726e-001 -6.485581e-001 2.035315e-002 7.660446e-002 -3.494252e-001 -3.003141e-001 -2.201269e-001 -3.823353e-002 7.544339e-001 -2.594204e-002 -5.876854e-002 -1.282135e-001 -3.212343e-002 -7.131320e-002 -5.012829e-002 -6.723344e-002 -1.201753e-002 3.579730e-002 7.534000e-002 4.709852e-002 -1.687570e-002 -7.182463e-002
<VARIANCE> 39
 8.521538e+001 5.092949e+001 2.817283e+001 5.672073e+001 3.990733e+001 7.418633e+001 3.584748e+001 4.536332e+001 6.214381e+001 4.785729e+001 2.370505e+001 2.515557e+001 7.512157e+001 5.698266e+000 3.223391e+000 2.940723e+000 3.571992e+000 2.925906e+000 5.020763e+000 2.439805e+000 3.095547e+000 5.354497e+000 4.054383e+000 2.158955e+000 1.980352e+000 3.881541e+000 7.121939e-001 5.865536e-001 6.192647e-001 6.164486e-001 4.732122e-001 7.175399e-001 4.578631e-001 5.607608e-001 8.610277e-001 7.565464e-001 4.123250e-001 3.254799e-001 5.579858e-001
<GCONST> 1.300862e+002
<STATE> 3
<MEAN> 39
 -1.059840e+000 -4.248229e+000 4.177449e+000 -2.420524e+000 1.491448e+000 -9.690560e+000 2.029912e+000 6.122616e+000 -8.836164e+000 -9.398246e+000 -1.357743e-001 6.289571e-001 8.155782e+001 3.240019e-002 1.781967e-002 -1.842197e-001 3.027330e-001 -1.596143e-001 2.546021e-001 3.583016e-001 -1.243774e-001 -1.649344e-002 5.640306e-001 -3.020302e-001 2.692831e-001 -5.242424e-001 -2.929566e-001 3.259357e-001 8.458139e-002 1.199196e-001 1.704663e-001 6.086188e-001 1.460496e-001 -2.266253e-001 3.532099e-001 1.714612e-001 -2.184855e-004 -7.195946e-002 -4.766007e-001
<VARIANCE> 39
 1.100631e+001 1.453189e+001 1.082950e+001 3.205614e+001 2.439635e+001 4.330779e+001 2.480922e+001 2.970376e+001 2.841384e+001 5.998453e+001 2.640328e+001 1.913598e+001 2.851061e+001 1.401420e+000 1.302542e+000 1.000820e+000 2.318439e+000 1.202869e+000 3.432987e+000 2.091294e+000 2.070625e+000 2.970042e+000 3.099263e+000 1.249550e+000 1.384831e+000 2.246693e+000 2.118592e-001 2.159910e-001 1.616869e-001 3.578498e-001 2.031387e-001 5.587493e-001 3.298159e-001 3.361220e-001 4.887333e-001 4.715116e-001 2.853091e-001 2.505014e-001 2.671749e-001
<GCONST> 1.053526e+002
<STATE> 4
<MEAN> 39
 -8.864599e-002 3.034824e+000 -2.048239e-001 -7.254596e+000 -1.157257e+000 -1.945820e-001 5.404817e+000 1.275473e+000 -9.061179e+000 -3.223684e+000 -1.915464e+000 4.464808e+000 7.093272e+001 -6.074486e-001 4.862087e-001 -8.343171e-002 4.273989e-001 2.142624e-001 6.015559e-001 4.539359e-001 -2.145013e-001 4.946066e-001 3.241455e-001 8.803716e-002 -1.713061e-002 -9.974366e-001 -9.238397e-002 -1.133556e-002 9.340761e-003 3.030878e-002 9.566897e-002 -3.719083e-002 -8.767283e-002 5.868207e-002 7.452225e-002 -1.052516e-002 4.875223e-002 -9.793447e-002 -4.711159e-002
<VARIANCE> 39
 3.565631e+001 3.428810e+001 1.766202e+001 6.320461e+001 2.499195e+001 5.651986e+001 2.635996e+001 3.423873e+001 3.126983e+001 2.545944e+001 2.136904e+001 1.644535e+001 5.551889e+001 1.292974e+000 1.435209e+000 9.738752e-001 1.450719e+000 1.583301e+000 1.871932e+000 1.906086e+000 1.936158e+000 2.879944e+000 1.993591e+000 1.253706e+000 1.085160e+000 9.060032e-001 1.038054e-001 1.908019e-001 1.695369e-001 3.402320e-001 2.672648e-001 3.300225e-001 2.938892e-001 2.390188e-001 3.442032e-001 2.549771e-001 2.292044e-001 2.231560e-001 1.308789e-001
<GCONST> 1.024353e+002
<TRANSP> 5
 0.000000e+000 1.000000e+000 0.000000e+000 0.000000e+000 0.000000e+000
 0.000000e+000 7.820808e-001 2.179192e-001 0.000000e+000 0.000000e+000
 0.000000e+000 0.000000e+000 6.501239e-001 3.498761e-001 0.000000e+000
 0.000000e+000 0.000000e+000 0.000000e+000 7.734422e-001 2.265578e-001
 0.000000e+000 0.000000e+000 0.000000e+000 0.000000e+000 0.000000e+000
<ENDHMM>
~h "ay"
<BEGINHMM>
<NUMSTATES> 5
<STATE> 2
<MEAN> 39
 -4.259896e+000 -1.909425e+000 -9.144571e-001 -7.355257e-001 -3.892041e+000 -9.902918e+000 5.589027e+000 8.514865e+000 4.286953e+000 9.370787e-002 2.807602e-001 -1.729523e-001 7.276031e+001 2.245755e+000 -1.657988e+000 -1.614957e+000 -1.138064e+000 -2.490640e+000 -3.204330e+000 1.128764e+000 1.300785e+000 4.949266e-001 -3.378269e-001 -5.785324e-001 8.461356e-001 2.841101e+000 6.693517e-002 -3.893249e-001 -2.275143e-001 1.880903e-001 3.019320e-001 2.489493e-001 1.341476e-001 -3.088905e-002 -1.677868e-002 1.475485e-001 -2.170144e-001 -3.090701e-002 -1.867625e-002
<VARIANCE> 39
 5.478133e+001 2.189576e+001 2.380402e+001 2.565352e+001 5.702657e+001 1.099264e+002 3.311248e+001 3.140575e+001 5.565097e+001 2.513599e+001 4.606667e+001 1.428347e+001 9.522483e+001 4.069042e+000 2.333529e+000 2.095548e+000 6.233695e+000 2.767980e+000 4.664124e+000 2.393641e+000 3.914951e+000 3.974862e+000 2.187142e+000 3.868620e+000 3.358942e+000 2.903004e+000 9.687211e-001 3.713857e-001 3.922681e-001 7.448301e-001 7.406619e-001 1.573389e+000 5.435875e-001 5.224451e-001 4.845349e-001 5.669612e-001 6.879688e-001 5.347987e-001 6.221922e-001
<GCONST> 1.284447e+002
<STATE> 3
<MEAN> 39
 2.729660e+000 -9.829832e+000 -6.144161e+000 -3.459163e+000 -7.569778e+000 -1.825014e+001 9.067186e+000 1.326991e+001 6.242190e+000 -7.071631e-001 -3.464177e+000 6.351600e-001 8.228600e+001 3.479594e-001 -9.618727e-001 -9.206276e-001 -4.102068e-001 2.519742e-001 3.977273e-001 3.611647e-001 -2.268019e-001 1.461653e-001 2.596138e-002 -3.078491e-001 2.599423e-001 6.166512e-001 -2.332888e-001 3.145666e-001 1.621177e-001 1.562139e-001 4.188407e-001 5.013437e-001 -2.719703e-001 -4.064474e-001 -2.972792e-001 5.059386e-002 2.802749e-001 -7.029985e-002 -3.156580e-001
<VARIANCE> 39
 3.171399e+000 8.520341e+000 1.274773e+001 9.082853e+000 3.458438e+001 4.133713e+001 2.810571e+001 4.173156e+001 4.320480e+001 1.330481e+001 2.862364e+001 1.739195e+001 9.194970e+000 4.359930e-001 9.253700e-001 5.673543e-001 8.097001e-001 1.364141e+000 2.176299e+000 1.314849e+000 2.226691e+000 1.363094e+000 1.218660e+000 1.302989e+000 7.333763e-001 1.077295e+000 1.353606e-001 1.307254e-001 1.171642e-001 2.436894e-001 2.096492e-001 4.837746e-001 2.210630e-001 3.102383e-001 2.783097e-001 2.099292e-001 2.961225e-001 1.933086e-001 1.688221e-001
<GCONST> 8.981628e+001
<STATE> 4
<MEAN> 39
 1.919469e+000 -1.046974e+001 -6.826271e+000 -1.638715e+000 1.495822e+000 -1.275701e+001 3.027937e+000 1.231702e+000 -3.968881e+000 1.446000e+000 4.025454e+000 3.579520e+000 8.300634e+001 -2.701027e-001 3.383374e-001 6.760752e-001 6.085956e-001 1.113638e+000 2.964218e-001 -9.204845e-001 -1.239422e+000 -1.424400e+000 5.810297e-002 6.874108e-001 4.100261e-002 -2.198133e-001 -5.014670e-002 1.266333e-001 1.920803e-001 7.472890e-002 -2.915545e-002 -1.507348e-002 3.342538e-002 7.577302e-002 2.433510e-002 -9.037444e-002 -1.558047e-001 -1.384766e-001 -9.027816e-002
<VARIANCE> 39
 4.040712e+000 8.606876e+000 2.131332e+001 2.646718e+001 3.867588e+001 1.782799e+001 3.440238e+001 7.558628e+001 5.951186e+001 1.657608e+001 3.422179e+001 1.796316e+001 9.244960e+000 2.488817e-001 3.952050e-001 1.187901e+000 1.254208e+000 1.087063e+000 1.395188e+000 1.438608e+000 1.949987e+000 1.730650e+000 1.147975e+000 2.761791e+000 1.359750e+000 2.367341e-001 3.662320e-002 5.354020e-002 1.440533e-001 1.707789e-001 1.452111e-001 2.524829e-001 2.327027e-001 2.723332e-001 2.842800e-001 1.822065e-001 3.988334e-001 2.255215e-001 2.214617e-002
<GCONST> 8.641353e+001
<TRANSP> 5
 0.000000e+000 1.000000e+000 0.000000e+000 0.000000e+000 0.000000e+000
 0.000000e+000 6.739049e-001 3.260951e-001 0.000000e+000 0.000000e+000
 0.000000e+000 0.000000e+000 8.166972e-001 1.833028e-001 0.000000e+000
 0.000000e+000 0.000000e+000 0.000000e+000 9.108802e-001 8.911978e-002
 0.000000e+000 0.000000e+000 0.000000e+000 0.000000e+000 0.000000e+000
<ENDHMM>
~h "ch"
<BEGINHMM>
<NUMSTATES> 5
<STATE> 2
<MEAN> 39
 3.092735e-001 -5.065997e+000 -7.268375e+000 -8.730383e+000 9.610221e-001 -1.408206e+001 2.655946e+000 1.369187e+001 2.746637e+000 1.041910e+000 -3.896210e+000 7.855273e-001 7.837863e+001 1.298532e-002 6.496481e-001 7.566890e-003 -3.552236e-001 7.506325e-001 1.141131e+000 1.935363e-001 -1.053226e+000 -9.484327e-001 6.682603e-002 4.611349e-002 4.838093e-001 -4.486442e-001 -2.079696e-002 9.954491e-002 6.019359e-002 8.980621e-002 -1.015827e-002 1.165296e-001 7.808424e-003 1.597382e-003 -1.991038e-002 2.057894e-002 -1.026667e-002 5.629672e-002 -1.474303e-001
<VARIANCE> 39
 5.778455e+001 2.016954e+001 2.682189e+001 3.136220e+001 2.334949e+001 9.805917e+001 1.164190e+001 8.924755e+001 5.214759e+001 4.219181e+001 2.507882e+001 1.993535e+001 6.082102e+001 4.945573e-001 8.285322e-001 9.472257e-001 1.097250e+000 2.108895e+000 2.625166e+000 1.416610e+000 1.347263e+000 2.527859e+000 2.345019e+000 9.655644e-001 1.226723e+000 8.705032e-001 8.548629e-002 1.039847e-001 1.251767e-001 1.901210e-001 2.639492e-001 3.138581e-001 2.361039e-001 2.098816e-001 5.943781e-001 4.222037e-001 2.075959e-001 1.582887e-001 9.173977e-002
<GCONST> 1.003448e+002
<STATE> 3
<MEAN> 39
 -1.046342e+001 2.240792e-001 -2.296060e+000 -3.590524e+000 4.489753e+000 1.332316e+000 3.073560e+000 3.551022e+000 -4.948340e-001 -3.816159e+000 -1.342693e+000 3.165969e+000 6.846980e+001 -1.449127e+000 -1.078800e+000 -2.527283e-001 1.871084e-001 -1.616926e-001 2.111584e-001 -5.129127e-001 -1.029716e+000 1.017419e+000 -1.129801e-001 -1.562230e-001 3.435682e-001 3.837937e-001 -2.711608e-001 -5.663092e-001 2.285506e-001 -9.407438e-002 -8.745220e-002 -2.458264e-001 -2.095512e-001 -1.552647e-001 1.329523e-001 9.842633e-002 8.907853e-002 5.172229e-002 4.932975e-001
<VARIANCE> 39
 7.989585e+001 3.665944e+001 4.517881e+001 7.086864e+001 2.233671e+001 3.763083e+001 2.538660e+001 2.985998e+001 6.618513e+001 3.062037e+001 2.543532e+001 2.574261e+001 5.560399e+001 4.287915e+000 5.343828e+000 4.447121e+000 5.690363e+000 3.338367e+000 4.041865e+000 3.096785e+000 4.240620e+000 5.223966e+000 3.840476e+000 2.503598e+000 1.988483e+000 8.137191e+000 4.658189e-001 5.651071e-001 1.073138e+000 1.230896e+000 8.141402e-001 6.743886e-001 7.181785e-001 6.886745e-001 1.227891e+000 7.982037e-001 5.044693e-001 3.971688e-001 9.129594e-001
<GCONST> 1.333742e+002
<STATE> 4
<MEAN> 39
 -2.022389e+001 -1.423930e+001 2.181978e+000 -3.843997e+000 5.585099e+000 2.378981e-002 -2.680021e+000 -5.714840e+000 8.641836e-002 -3.696430e+000 2.823292e-001 5.648626e+000 7.802111e+001 3.639817e-001 1.313273e-002 8.931681e-001 5.346276e-001 5.334796e-001 -3.707163e-002 -9.020942e-002 -7.825336e-003 -3.991989e-001 2.454226e-001 2.439840e-001 -1.796963e-002 3.530678e-002 6.968876e-001 7.223973e-001 -2.765785e-001 1.785246e-001 -3.084495e-002 -5.309300e-003 2.463528e-001 3.592562e-001 -1.588450e-001 -1.025164e-003 5.667361e-003 -1.493982e-001 -5.122665e-001
<VARIANCE> 39
 1.784203e+001 1.831423e+001 1.887764e+001 4.714223e+001 1.066850e+001 1.905295e+001 2.145387e+001 2.843352e+001 3.757125e+001 1.322149e+001 1.869180e+001 1.317648e+001 4.984523e+001 5.463576e+000 5.481697e+000 2.337236e+000 1.915922e+000 1.162585e+000 1.666152e+000 2.690134e+000 2.076620e+000 1.777582e+000 1.580919e+000 1.802347e+000 8.157986e-001 3.943811e+000 5.738578e-001 3.691462e-001 3.261256e-001 4.102062e-001 2.320529e-001 2.688743e-001 4.462625e-001 2.653696e-001 5.015246e-001 4.353161e-001 3.911150e-001 1.582261e-001 5.429627e-001
<GCONST> 1.082939e+002
<TRANSP> 5
 0.000000e+000 1.000000e+000 0.000000e+000 0.000000e+000 0.000000e+000
 0.000000e+000 7.422624e-001 2.577376e-001 0.000000e+000 0.000000e+000
 0.000000e+000 0.000000e+000 8.284419e-001 1.715581e-001 0.000000e+000
 0.000000e+000 0.000000e+000 0.000000e+000 8.385360e-001 1.614640e-001
 0.000000e+000 0.000000e+000 0.000000e+000 0.000000e+000 0.000000e+000
<ENDHMM>
~h "dh"
<BEGINHMM>
<NUMSTATES> 5
<STATE> 2
<MEAN> 39
 -1.431733e+001 -3.529121e+000 -5.090305e+000 1.358911e+000 2.964811e-001 1.951535e-001 -2.458032e-001 2.976288e+000 5.974613e-001 -1.511561e+000 -2.497254e-001 3.647491e+000 5.834776e+001 -2.909625e-002 1.036949e-001 3.298422e-002 -2.391211e-002 -2.622017e-002 -1.400858e-002 6.942470e-003 -1.701153e-002 -1.789122e-002 8.368958e-003 2.807900e-002 3.352689e-002 -5.565824e-002 -1.678048e-002 2.240867e-002 2.553120e-002 -9.847263e-003 9.808343e-003 9.810988e-003 3.872374e-003 2.328036e-003 2.494588e-003 1.397741e-002 -2.536278e-004 -2.810409e-002 -1.037612e-002
<VARIANCE> 39
 2.298028e+000 1.003992e+001 3.514593e+000 4.492565e+000 8.233715e+000 8.552588e+000 8.627677e+000 7.164186e+000 8.940484e+000 1.137269e+001 6.366636e+000 6.986362e+000 8.649627e+000 8.695918e-002 2.653070e-001 2.754085e-001 4.389404e-001 5.356566e-001 7.346341e-001 6.378963e-001 6.735859e-001 7.544011e-001 7.971101e-001 5.742046e-001 7.099592e-001 7.973692e-002 1.371271e-002 3.077152e-002 5.221789e-002 8.478580e-002 1.201977e-001 1.500915e-001 1.176215e-001 1.238100e-001 1.501339e-001 1.598450e-001 1.234292e-001 1.405600e-001 8.028532e-003
<GCONST> 5.089001e+001
<STATE> 3
<MEAN> 39
 -1.608855e+001 1.787182e+000 -3.919310e+000 5.258739e-003 -3.243476e-002 1.413553e+000 2.112752e+000 4.348826e+000 2.975236e+000 2.291014e+000 1.590306e+000 2.050642e+000 5.339628e+001 -1.254947e-001 5.346251e-002 1.490130e-001 -1.613036e-002 8.853883e-002 2.128278e-001 2.380212e-001 2.391499e-002 4.407969e-002 3.979343e-001 1.868655e-001 -2.224061e-001 -5.657491e-002 9.793719e-003 -5.081403e-002 6.503854e-002 -3.216212e-002 -8.893323e-003 -3.725950e-003 -1.485969e-002 -3.131124e-002 -5.877762e-002 -1.524071e-002 -8.168165e-003 -5.676426e-002 7.578173e-002
<VARIANCE> 39
 1.365280e+000 2.573685e+000 2.022973e+000 4.367946e+000 5.973301e+000 6.072427e+000 6.897913e+000 6.212378e+000 8.577507e+000 1.012304e+001 6.852845e+000 6.475865e+000 3.718667e+000 1.386912e-001 2.536693e-001 2.939319e-001 4.097566e-001 1.160417e+000 5.754643e-001 7.454464e-001 5.754167e-001 1.041589e+000 1.039065e+000 8.893868e-001 8.404133e-001 1.072208e-001 2.914458e-002 5.725334e-002 8.373877e-002 1.118900e-001 2.058515e-001 1.046165e-001 1.736172e-001 1.471225e-001 1.808461e-001 1.968353e-001 1.874858e-001 1.884591e-001 2.365135e-002
<GCONST> 5.387848e+001
<STATE> 4
<MEAN> 39
 -1.650865e+001 1.099605e+000 -2.135299e+000 -2.065316e-002 4.833012e-001 2.820809e+000 3.127861e+000 2.946289e+000 9.671391e-001 3.656770e+000 2.560103e+000 5.342980e-001 5.569441e+001 2.120663e-001 3.920957e-001 1.730596e+000 1.495607e-001 8.860917e-001 9.040331e-001 5.695440e-001 1.335820e-001 -4.243404e-003 -7.365623e-001 -3.677297e-001 -3.123707e-001 9.478222e-001 3.809964e-001 1.503156e-001 4.029535e-001 2.813438e-001 4.607726e-001 2.234629e-001 1.859803e-001 1.047961e-001 -8.171929e-002 -6.055108e-001 -1.329261e-001 1.911612e-001 4.565691e-001
<VARIANCE> 39
 4.216815e+000 3.022764e+000 7.829379e+000 4.531989e+000 1.633990e+001 7.418863e+000 5.805800e+000 5.556832e+000 1.260281e+001 1.497046e+001 7.758430e+000 4.422004e+000 1.063953e+001 1.991773e+000 2.797580e+000 1.605667e+000 2.681301e+000 2.444020e+000 1.549754e+000 1.290995e+000 1.454628e+000 1.626996e+000 2.195437e+000 1.280145e+000 1.978295e+000 7.156500e-001 1.839075e-001 3.405460e-001 2.108929e-001 1.727554e-001 5.125790e-001 2.597045e-001 1.877232e-001 2.036999e-001 3.996682e-001 3.803722e-001 1.962768e-001 1.738045e-001 1.123473e-001
<GCONST> 8.539912e+001
<TRANSP> 5
 0.000000e+000 1.000000e+000 0.000000e+000 0.000000e+000 0.000000e+000
 0.000000e+000 9.572847e-001 4.271532e-002 0.000000e+000 0.000000e+000
 0.000000e+000 0.000000e+000 8.705908e-001 1.294092e-001 0.000000e+000
 0.000000e+000 0.000000e+000 0.000000e+000 6.529638e-001 3.470361e-001
 0.000000e+000 0.000000e+000 0.000000e+000 0.000000e+000 0.000000e+000
<ENDHMM>
~h "ea"
<BEGINHMM>
<NUMSTATES> 5
<STATE> 2
<MEAN> 39
 6.195272e-002 -7.321268e+000 -1.634780e+000 -1.995648e+000 -1.345443e+000 -1.552656e+001 1.206567e+001 8.788671e+000 -1.809042e+000 -3.951214e+000 -2.161082e+000 4.255881e+000 8.275105e+001 -1.167138e-001 2.884706e-001 -1.169623e-002 5.502804e-002 1.063485e-001 1.314484e-001 9.798606e-002 -5.669404e-001 -5.530584e-001 -1.633709e-001 1.810381e-001 3.659799e-002 -2.369131e-001 -2.258358e-002 1.944365e-003 -4.321472e-002 1.640412e-002 -9.779887e-002 3.058604e-003 7.260382e-003 -7.580573e-002 8.297802e-002 1.118916e-001 -3.133230e-002 5.719299e-002 -1.370296e-001
<VARIANCE> 39
