~o
<STREAMINFO> 1 39
<VECSIZE> 39<NULLD><MFCC_D_A_0><DIAGC>
~s "silst"
<MEAN> 39
 -1.605674e+001 1.319970e+000 -3.641982e+000 2.399611e-001 -3.363921e-001 1.411452e+000 2.256516e+000 3.883081e+000 2.736471e+000 2.097965e+000 1.270185e+000 1.734335e+000 5.349091e+001 -2.044835e-002 2.473256e-002 -1.629258e-002 7.213950e-003 -1.028434e-003 2.939756e-002 1.660058e-002 2.978595e-002 2.976947e-002 3.030700e-002 3.314571e-002 2.100024e-002 -3.990559e-002 -1.482590e-003 -1.498091e-002 1.950507e-002 -6.374944e-003 1.166468e-002 -2.231762e-003 -1.766961e-003 -1.770551e-003 -6.795373e-003 -1.384152e-002 -1.102720e-002 -7.553219e-003 2.330287e-002
<VARIANCE> 39
 1.819224e+000 3.103694e+000 4.179981e+000 4.485729e+000 5.629972e+000 6.802655e+000 7.143413e+000 8.106476e+000 8.110363e+000 9.762018e+000 7.784277e+000 7.866244e+000 2.414986e+000 8.396301e-002 1.735319e-001 2.701703e-001 3.721468e-001 4.771637e-001 5.956080e-001 6.716737e-001 7.300344e-001 7.615178e-001 8.167194e-001 7.583881e-001 7.043507e-001 4.175430e-002 1.698715e-002 3.574125e-002 5.527946e-002 7.708213e-002 9.814491e-002 1.224271e-001 1.378205e-001 1.479702e-001 1.549331e-001 1.672439e-001 1.549067e-001 1.440804e-001 9.041979e-003
<GCONST> 4.729682e+001
~h "b"
<BEGINHMM>
<NUMSTATES> 5
<STATE> 2
<MEAN> 39
 -6.594619e+000 8.234631e+000 4.956911e+000 5.244578e+000 3.805372e+000 -3.151063e+000 1.820025e+000 8.391360e+000 3.303887e+000 6.221931e-001 1.696017e+000 -3.190072e+000 6.248395e+001 -2.195230e-001 1.385377e-001 -8.324686e-001 -1.325838e+000 -2.990063e-001 1.320987e+000 -3.083302e-001 -9.507147e-001 5.675038e-001 -3.994857e-001 -2.366850e-001 5.292667e-001 9.986559e-002 4.570257e-001 -6.007836e-001 1.663925e-001 -6.372724e-001 -9.154256e-002 -7.839253e-001 -4.606504e-001 -8.091459e-002 -5.177336e-001 -3.749809e-001 6.258355e-002 -1.132711e-001 1.021927e+000
<VARIANCE> 39
 2.275456e+001 1.763180e+001 2.676313e+001 2.665472e+001 1.857987e+001 4.579649e+001 1.846976e+001 1.714582e+001 2.028748e+001 2.819830e+001 1.241946e+001 1.969876e+001 4.696836e+001 1.325156e+000 1.935070e+000 1.278663e+000 1.052971e+001 2.893411e+000 5.740141e+000 5.121086e+000 1.996300e+000 2.627248e+000 2.658232e+000 1.557069e+000 1.617548e+000 7.229162e+000 2.629090e-001 3.318430e-001 1.889655e-001 5.758585e-001 4.913279e-001 9.688372e-001 3.838601e-001 3.783858e-001 6.464187e-001 3.981047e-001 4.234062e-001 2.750972e-001 4.098951e-001
<GCONST> 1.142381e+002
<STATE> 3
<MEAN> 39
 -2.923889e+000 4.707202e+000 2.597763e+000 -5.874176e+000 3.490550e+000 -5.570992e+000 -3.471225e+000 4.349413e+000 1.612484e+000 -5.312242e+000 -3.807757e-001 -2.676051e+000 7.311343e+001 2.407438e+000 -1.276199e+000 1.305980e-001 -3.187564e+000 -8.988881e-001 -2.578149e+000 -1.949002e+000 3.089216e-001 -1.709531e+000 -1.439178e+000 6.813111e-001 2.376150e-002 3.410495e+000 1.301024e-001 -4.032283e-001 1.022265e-001 6.054492e-001 -1.995579e-003 -3.027210e-001 4.768428e-001 5.467868e-001 -7.438082e-001 2.392740e-001 3.730790e-001 -4.456429e-002 -2.239641e-001
<VARIANCE> 39
 4.564178e+001 1.479979e+001 1.625523e+001 2.921306e+001 1.614946e+001 7.982700e+001 2.463743e+001 2.506153e+001 3.071245e+001 2.293864e+001 2.231275e+001 1.982028e+001 1.754292e+001 2.113169e+000 3.402152e+000 2.576427e+000 6.883025e+000 4.432408e+000 1.213860e+001 2.252733e+000 3.601084e+000 4.999145e+000 5.107067e+000 3.383692e+000 3.466146e+000 4.104595e+000 5.981880e-001 4.051144e-001 3.120160e-001 6.569186e-001 4.967994e-001 1.450971e+000 7.033741e-001 6.716596e-001 7.619857e-001 5.382782e-001 3.614053e-001 4.581037e-001 5.157425e-001
<GCONST> 1.240665e+002
<STATE> 4
<MEAN> 39
 2.478207e+000 1.021558e+000 1.880704e+000 -1.515993e+001 1.134301e+000 -3.431804e+000 -1.886441e+000 8.253133e+000 -1.113842e+001 -1.480752e+001 7.370805e+000 9.749963e-001 7.828478e+001 5.560455e-002 -6.302462e-001 1.937063e-001 -1.048820e-001 -1.206688e-001 1.508054e-001 7.549555e-001 2.608198e-001 -1.223010e+000 -7.707094e-001 -5.448321e-002 6.804882e-001 5.269177e-001 -4.010515e-001 1.901790e-001 1.045863e-001 7.023517e-001 1.257974e-001 1.329382e-001 3.131818e-001 -1.340866e-001 4.703848e-001 3.965207e-001 -3.951171e-001 -7.451741e-002 -3.579291e-001
<VARIANCE> 39
 8.085806e+000 5.361707e+000 9.955183e+000 4.525736e+001 1.625619e+001 6.282510e+001 2.720204e+001 1.773773e+001 5.737455e+001 6.687836e+001 2.671442e+001 2.005791e+001 4.097978e+000 1.405849e+000 1.311366e+000 6.561272e-001 3.809206e+000 2.041023e+000 3.796427e+000 1.565104e+000 1.688613e+000 4.260623e+000 2.370779e+000 3.091277e+000 1.476729e+000 1.936365e+000 1.540970e-001 1.658679e-001 1.226676e-001 4.152044e-001 1.769697e-001 6.583005e-001 4.274253e-001 2.567799e-001 5.560748e-001 4.545849e-001 2.627065e-001 2.484952e-001 2.328299e-001
<GCONST> 1.030856e+002
<TRANSP> 5
 0.000000e+000 1.000000e+000 0.000000e+000 0.000000e+000 0.000000e+000
 0.000000e+000 7.167130e-001 2.832871e-001 0.000000e+000 0.000000e+000
 0.000000e+000 0.000000e+000 5.119921e-001 4.880079e-001 0.000000e+000
 0.000000e+000 0.000000e+000 0.000000e+000 7.462168e-001 2.537832e-001
 0.000000e+000 0.000000e+000 0.000000e+000 0.000000e+000 0.000000e+000
<ENDHMM>
~h "d"
<BEGINHMM>
<NUMSTATES> 5
<STATE> 2
<MEAN> 39
 -5.713955e+000 3.804911e+000 5.175131e+000 8.779757e+000 9.558970e+000 2.512421e-001 4.261253e+000 4.453897e+000 -3.849077e+000 -1.672446e+000 -2.364150e+000 -4.638285e+000 6.566338e+001 -1.387849e+000 4.431743e-001 2.654800e-001 -1.047359e+000 -6.163765e-001 8.924670e-001 -4.267928e-002 -4.940168e-001 1.547035e+000 -7.692952e-001 1.827673e-001 8.560738e-001 -3.175102e-001 -4.379220e-002 -6.295065e-001 -1.688120e-001 -5.908498e-001 -7.193291e-001 -5.572483e-001 -1.069162e-001 -4.261256e-001 -1.345665e-001 -6.050088e-002 2.369809e-001 4.400109e-001 7.184459e-001
<VARIANCE> 39
 2.641122e+001 3.849137e+001 2.278889e+001 4.693762e+001 4.885368e+001 4.322097e+001 3.034434e+001 3.588412e+001 4.091454e+001 3.548331e+001 4.941517e+001 4.034761e+001 6.527781e+001 1.446405e+000 2.221015e+000 1.792303e+000 4.728165e+000 2.657603e+000 3.589488e+000 2.182751e+000 3.493343e+000 3.232935e+000 4.104507e+000 2.591824e+000 3.694860e+000 3.606119e+000 2.501371e-001 3.956062e-001 5.139735e-001 4.582313e-001 6.256374e-001 7.615859e-001 4.789105e-001 7.111478e-001 6.463599e-001 4.722070e-001 4.620201e-001 7.323263e-001 6.782955e-001
<GCONST> 1.247639e+002
<STATE> 3
<MEAN> 39
 -1.044945e+001 4.111176e+000 7.408485e+000 5.006123e+000 7.015452e+000 3.948920e+000 3.906827e+000 1.914141e+000 1.277051e+000 -3.864384e+000 -2.202814e+000 -2.013703e+000 6.647527e+001 -7.317182e-001 -1.509961e+000 -1.223935e-001 -2.297097e+000 -2.187842e+000 -1.370868e+000 -3.462960e-001 -1.443040e+000 -2.077476e-001 -1.071661e+000 5.326960e-001 1.858787e+000 1.982630e+000 6.760099e-001 -5.813857e-001 -2.939408e-001 1.362360e-001 -1.234110e-001 -9.108342e-001 -3.160978e-002 -3.700426e-002 -8.838710e-001 1.749924e-001 -1.737210e-004 4.637723e-002 5.067899e-001
<VARIANCE> 39
 2.261834e+001 2.804877e+001 3.579062e+001 3.146210e+001 3.831381e+001 2.150911e+001 2.376437e+001 4.129543e+001 2.814385e+001 3.218812e+001 2.105833e+001 2.123694e+001 5.705356e+001 2.578454e+000 2.340609e+000 2.851415e+000 3.949580e+000 3.987971e+000 4.552224e+000 2.565135e+000 2.992650e+000 3.879789e+000 2.654147e+000 2.616130e+000 4.705767e+000 4.170156e+000 3.782536e-001 4.694228e-001 6.858807e-001 5.000850e-001 8.328725e-001 6.103895e-001 5.871430e-001 8.579334e-001 7.003738e-001 9.255062e-001 5.015290e-001 3.999864e-001 7.164038e-001
<GCONST> 1.246078e+002
<STATE> 4
<MEAN> 39
 -8.924726e+000 -1.408238e+000 3.290514e+000 7.949984e-001 1.443948e-001 -2.948150e+000 3.668442e+000 1.897557e+000 -2.938861e+000 -5.326717e+000 -1.020192e+000 2.016206e+000 6.934469e+001 -1.820844e-002 -6.878840e-001 -3.456849e-001 -5.205161e-001 -3.834195e-001 -7.164187e-001 -3.043464e-001 -3.637184e-001 -2.708573e-001 1.566400e-002 2.991842e-001 5.486928e-001 4.775747e-001 1.631950e-001 8.777627e-002 3.785715e-002 2.550126e-001 3.768501e-001 5.494805e-002 -3.441212e-002 9.028426e-002 -2.312634e-002 1.835614e-001 -1.008788e-002 -2.296191e-001 5.084379e-003
<VARIANCE> 39
 4.112597e+001 2.450401e+001 3.263202e+001 2.539492e+001 2.215773e+001 4.345100e+001 2.272456e+001 3.371871e+001 3.719703e+001 4.283478e+001 2.279773e+001 2.126228e+001 1.093077e+002 2.850863e+000 2.935702e+000 3.727835e+000 3.308723e+000 4.220744e+000 5.930400e+000 2.946654e+000 3.519776e+000 3.811676e+000 3.213990e+000 2.179486e+000 3.160796e+000 8.262515e+000 5.438935e-001 4.688994e-001 6.003625e-001 6.231557e-001 6.745572e-001 9.447356e-001 5.612770e-001 5.754676e-001 7.964053e-001 6.437508e-001 4.118851e-001 4.079424e-001 1.018573e+000
<GCONST> 1.274550e+002
<TRANSP> 5
 0.000000e+000 1.000000e+000 0.000000e+000 0.000000e+000 0.000000e+000
 0.000000e+000 3.669544e-001 6.330457e-001 0.000000e+000 0.000000e+000
 0.000000e+000 0.000000e+000 3.770396e-001 6.229605e-001 0.000000e+000
 0.000000e+000 0.000000e+000 0.000000e+000 7.212140e-001 2.787860e-001
 0.000000e+000 0.000000e+000 0.000000e+000 0.000000e+000 0.000000e+000
<ENDHMM>
~h "f"
<BEGINHMM>
<NUMSTATES> 5
<STATE> 2
<MEAN> 39
 -1.834628e+001 -6.662258e-001 4.122300e-001 -2.714788e+000 4.761003e+000 1.092282e+000 4.554095e+000 -1.993618e+000 4.587217e+000 -2.255285e+000 9.507723e-001 2.841581e+000 6.811047e+001 -2.731118e+000 -5.416859e-003 1.012850e-001 -1.279814e+000 3.850389e-001 3.450154e-002 5.288088e-001 -6.917333e-001 1.139927e+000 -1.256115e-001 -2.447300e-001 4.141205e-001 1.183351e+000 -1.352082e-001 -3.245784e-002 3.241916e-002 -8.186702e-003 -1.059576e-001 -1.306090e-001 -1.913937e-001 1.465743e-001 -3.323954e-001 1.529001e-001 1.299264e-001 -1.783992e-001 -3.510953e-002
<VARIANCE> 39
 3.236927e+001 1.835033e+001 2.228149e+001 2.158817e+001 2.752240e+001 2.047175e+001 2.067473e+001 2.253148e+001 2.391254e+001 1.893377e+001 1.534822e+001 1.168255e+001 4.092817e+001 4.251469e+000 1.975194e+000 1.680589e+000 1.814524e+000 1.973733e+000 2.420361e+000 2.400688e+000 2.455758e+000 3.402176e+000 2.209106e+000 2.213474e+000 1.355578e+000 3.322504e+000 5.668000e-001 4.517933e-001 3.132113e-001 2.446532e-001 2.803601e-001 5.307726e-001 5.324947e-001 4.247040e-001 7.387711e-001 3.910303e-001 3.320673e-001 2.595673e-001 3.669152e-001
<GCONST> 1.106133e+002
<STATE> 3
<MEAN> 39
 -2.962649e+001 5.036201e-001 3.138166e+000 -7.567916e+000 5.438685e+000 1.264044e+000 5.816568e+000 -3.343328e+000 7.531508e+000 -1.193761e+000 5.744098e-001 2.374397e+000 6.958692e+001 -7.540920e-002 -6.409471e-002 1.352166e-002 -1.492922e-001 -2.113009e-001 -4.177997e-002 -2.328292e-001 -1.479448e-001 -3.270547e-002 1.357318e-002 -8.938576e-002 -8.865871e-002 -8.072387e-002 8.708701e-001 -4.114468e-002 -1.584188e-002 2.410773e-001 -1.161458e-001 -1.571916e-001 -1.703316e-001 8.322100e-002 -2.043949e-001 -8.234414e-002 -1.985492e-003 -4.071509e-002 1.036004e-001
<VARIANCE> 39
 9.764378e+000 9.820120e+000 2.238970e+001 1.471744e+001 1.055792e+001 1.107450e+001 1.322397e+001 1.394771e+001 1.476226e+001 1.568778e+001 1.148739e+001 7.691031e+000 2.402423e+001 3.731547e+000 9.763826e-001 9.179784e-001 1.074314e+000 1.165309e+000 1.119146e+000 1.315755e+000 1.477206e+000 1.273013e+000 1.149724e+000 9.285988e-001 8.127664e-001 5.556142e-001 5.340965e-001 2.203143e-001 2.069519e-001 2.059728e-001 2.330904e-001 3.473734e-001 3.699746e-001 3.286721e-001 4.061446e-001 2.574488e-001 2.082763e-001 1.815266e-001 1.533657e-001
<GCONST> 8.951915e+001
<STATE> 4
<MEAN> 39
 -1.482276e+001 1.424912e+000 2.847720e+000 -6.025236e+000 1.582414e+000 -3.023494e+000 2.801306e-001 -2.069611e+000 5.441486e+000 -2.148688e+000 -1.219078e+000 1.326544e+000 7.185044e+001 6.378692e+000 4.490219e-001 -1.380911e-001 8.141705e-001 -1.682369e+000 -3.692045e+000 -2.549928e+000 1.459695e+000 -8.783119e-001 -2.900804e-002 -2.295188e-001 -4.920058e-001 2.103711e+000 2.668750e-002 -4.365778e-001 -1.929120e-001 -4.888936e-002 -6.901062e-002 -7.796127e-001 8.155219e-002 4.901365e-001 5.987008e-002 1.721222e-001 2.575074e-001 2.818320e-003 4.777728e-001
<VARIANCE> 39
 1.423011e+002 2.395517e+001 2.321490e+001 1.794783e+001 2.602348e+001 5.865704e+001 4.156274e+001 2.776807e+001 1.653018e+001 1.343098e+001 1.171021e+001 1.118591e+001 2.710723e+001 8.670375e+000 2.781917e+000 3.969659e+000 2.602010e+000 1.728279e+000 8.483569e+000 3.186280e+000 4.136559e+000 4.126235e+000 1.782445e+000 1.595092e+000 1.388192e+000 2.541937e+000 2.591118e+000 5.738317e-001 4.643914e-001 3.415619e-001 3.502319e-001 1.175494e+000 1.070752e+000 5.871475e-001 9.143227e-001 3.819448e-001 1.904852e-001 2.942903e-001 4.595349e-001
<GCONST> 1.208011e+002
<TRANSP> 5
 0.000000e+000 1.000000e+000 0.000000e+000 0.000000e+000 0.000000e+000
 0.000000e+000 7.575939e-001 2.424061e-001 0.000000e+000 0.000000e+000
 0.000000e+000 0.000000e+000 8.677984e-001 1.322016e-001 0.000000e+000
 0.000000e+000 0.000000e+000 0.000000e+000 5.543492e-001 4.456508e-001
 0.000000e+000 0.000000e+000 0.000000e+000 0.000000e+000 0.000000e+000
<ENDHMM>
~h "g"
<BEGINHMM>
<NUMSTATES> 5
<STATE> 2
<MEAN> 39
 -1.019258e+001 -1.349235e+000 1.496435e+000 -1.000674e-001 2.146475e+000 -4.687040e+000 1.914047e+000 3.619069e+000 -7.628375e-001 -2.998221e-001 7.609732e-001 -3.708823e-001 6.683527e+001 -1.248089e-003 5.227942e-003 2.659844e-003 -3.444016e-004 -8.836363e-004 2.550178e-003 2.931105e-003 -1.472328e-003 6.282371e-003 8.163264e-003 2.528877e-003 -2.038243e-003 -4.746584e-003 -4.418558e-004 -3.045039e-004 -1.408464e-004 -1.038098e-004 9.234394e-005 -3.276009e-004 -3.678608e-005 3.364285e-004 -3.188887e-004 -1.759190e-004 -1.827233e-004 -1.567342e-004 -4.303211e-005
<VARIANCE> 39
 9.167006e+001 2.934647e+001 4.407549e+001 6.457423e+001 6.220945e+001 9.634994e+001 3.252906e+001 4.593910e+001 5.675373e+001 3.253341e+001 2.632482e+001 2.972611e+001 1.312725e+002 2.550928e+000 1.511606e+000 1.606481e+000 2.604123e+000 2.271194e+000 3.390491e+000 1.870607e+000 2.178643e+000 2.666786e+000 1.791392e+000 1.601890e+000 1.612961e+000 2.330216e+000 3.219935e-001 2.495312e-001 2.693298e-001 3.940682e-001 3.531721e-001 5.091046e-001 3.340584e-001 3.702532e-001 4.453263e-001 3.296812e-001 2.885351e-001 2.783844e-001 3.440708e-001
<GCONST> 1.181056e+002
<STATE> 3
<MEAN> 39
 -1.019258e+001 -1.349235e+000 1.496435e+000 -1.000674e-001 2.146475e+000 -4.687040e+000 1.914047e+000 3.619069e+000 -7.628375e-001 -2.998221e-001 7.609732e-001 -3.708823e-001 6.683527e+001 -1.248089e-003 5.227942e-003 2.659844e-003 -3.444016e-004 -8.836363e-004 2.550178e-003 2.931105e-003 -1.472328e-003 6.282371e-003 8.163264e-003 2.528877e-003 -2.038243e-003 -4.746584e-003 -4.418558e-004 -3.045039e-004 -1.408464e-004 -1.038098e-004 9.234394e-005 -3.276009e-004 -3.678608e-005 3.364285e-004 -3.188887e-004 -1.759190e-004 -1.827233e-004 -1.567342e-004 -4.303211e-005
<VARIANCE> 39
 9.167006e+001 2.934647e+001 4.407549e+001 6.457423e+001 6.220945e+001 9.634994e+001 3.252906e+001 4.593910e+001 5.675373e+001 3.253341e+001 2.632482e+001 2.972611e+001 1.312725e+002 2.550928e+000 1.511606e+000 1.606481e+000 2.604123e+000 2.271194e+000 3.390491e+000 1.870607e+000 2.178643e+000 2.666786e+000 1.791392e+000 1.601890e+000 1.612961e+000 2.330216e+000 3.219935e-001 2.495312e-001 2.693298e-001 3.940682e-001 3.531721e-001 5.091046e-001 3.340584e-001 3.702532e-001 4.453263e-001 3.296812e-001 2.885351e-001 2.783844e-001 3.440708e-001
<GCONST> 1.181056e+002
<STATE> 4
<MEAN> 39
 -1.019258e+001 -1.349235e+000 1.496435e+000 -1.000674e-001 2.146475e+000 -4.687040e+000 1.914047e+000 3.619069e+000 -7.628375e-001 -2.998221e-001 7.609732e-001 -3.708823e-001 6.683527e+001 -1.248089e-003 5.227942e-003 2.659844e-003 -3.444016e-004 -8.836363e-004 2.550178e-003 2.931105e-003 -1.472328e-003 6.282371e-003 8.163264e-003 2.528877e-003 -2.038243e-003 -4.746584e-003 -4.418558e-004 -3.045039e-004 -1.408464e-004 -1.038098e-004 9.234394e-005 -3.276009e-004 -3.678608e-005 3.364285e-004 -3.188887e-004 -1.759190e-004 -1.827233e-004 -1.567342e-004 -4.303211e-005
<VARIANCE> 39
 9.167006e+001 2.934647e+001 4.407549e+001 6.457423e+001 6.220945e+001 9.634994e+001 3.252906e+001 4.593910e+001 5.675373e+001 3.253341e+001 2.632482e+001 2.972611e+001 1.312725e+002 2.550928e+000 1.511606e+000 1.606481e+000 2.604123e+000 2.271194e+000 3.390491e+000 1.870607e+000 2.178643e+000 2.666786e+000 1.791392e+000 1.601890e+000 1.612961e+000 2.330216e+000 3.219935e-001 2.495312e-001 2.693298e-001 3.940682e-001 3.531721e-001 5.091046e-001 3.340584e-001 3.702532e-001 4.453263e-001 3.296812e-001 2.885351e-001 2.783844e-001 3.440708e-001
<GCONST> 1.181056e+002
<TRANSP> 5
 0.000000e+000 1.000000e+000 0.000000e+000 0.000000e+000 0.000000e+000
 0.000000e+000 6.000000e-001 4.000000e-001 0.000000e+000 0.000000e+000
 0.000000e+000 0.000000e+000 6.000000e-001 4.000000e-001 0.000000e+000
 0.000000e+000 0.000000e+000 0.000000e+000 7.000000e-001 3.000000e-001
 0.000000e+000 0.000000e+000 0.000000e+000 0.000000e+000 0.000000e+000
<ENDHMM>
~h "k"
<BEGINHMM>
<NUMSTATES> 5
<STATE> 2
<MEAN> 39
 -9.283015e+000 1.263965e+000 2.807422e+000 1.356384e+000 1.059546e+000 -5.334618e+000 1.047041e+000 6.076731e+000 3.707683e-002 7.190521e-001 2.302638e+000 -2.999966e+000 6.492882e+001 -1.435995e+000 -1.134245e-002 -1.910643e+000 -2.348310e+000 -1.435213e+000 6.389803e-001 4.247226e-001 -3.649394e-001 5.323098e-001 -8.338174e-001 -4.073372e-001 9.240114e-001 -6.520064e-001 -3.342641e-002 -4.781516e-001 6.891679e-002 -6.033770e-001 1.637351e-001 -2.169027e-001 -7.812364e-002 -2.886500e-001 -1.596021e-001 -3.190981e-001 -1.172814e-001 1.457993e-001 1.241309e+000
<VARIANCE> 39
 3.386800e+001 2.845080e+001 3.991094e+001 8.435126e+001 1.043638e+002 7.405904e+001 3.961371e+001 4.435836e+001 6.495658e+001 2.849206e+001 3.017802e+001 3.099376e+001 4.020134e+001 2.027762e+000 2.414803e+000 3.614730e+000 7.476721e+000 6.331843e+000 4.419867e+000 4.663601e+000 3.918935e+000 3.920403e+000 3.628210e+000 3.063577e+000 2.117686e+000 9.282028e+000 2.853402e-001 3.344598e-001 1.008465e+000 1.199129e+000 1.280587e+000 8.332832e-001 9.908926e-001 6.483862e-001 6.273351e-001 7.215317e-001 5.205323e-001 4.173778e-001 1.142053e+000
<GCONST> 1.343041e+002
<STATE> 3
<MEAN> 39
 -1.495522e+001 -2.816027e+000 -7.936810e-001 -1.067739e+001 1.940226e+000 -2.343462e+000 2.789320e+000 1.142706e+000 1.080723e-001 -5.634568e+000 -5.833719e-001 5.928138e-001 7.561817e+001 -1.485968e-001 -8.067061e-001 8.604608e-001 -5.978444e-001 5.272404e-001 6.037688e-001 -3.026335e-001 -8.714214e-001 7.222661e-001 -5.840141e-001 -2.194381e-001 8.804353e-001 2.271425e+000 5.639858e-001 1.151334e-001 6.525113e-001 1.361684e+000 1.020866e-001 1.392347e-002 -2.382759e-001 3.254455e-001 2.038172e-001 8.322319e-001 4.028102e-001 -1.201273e-001 -1.010192e+000
<VARIANCE> 39
 9.154631e+000 1.510577e+001 2.199922e+001 4.081011e+001 4.986414e+001 2.366432e+001 5.307894e+001 5.841826e+001 2.372281e+001 2.883693e+001 2.498620e+001 2.684706e+001 4.040749e+001 2.762088e+000 2.170065e+000 3.340374e+000 1.051271e+001 5.314297e+000 5.678311e+000 4.084817e+000 3.807021e+000 3.740266e+000 4.894535e+000 3.226698e+000 2.386881e+000 8.946104e+000 3.750376e-001 3.621117e-001 1.038692e+000 1.065769e+000 1.054115e+000 9.154587e-001 8.685446e-001 6.773870e-001 5.787464e-001 8.209341e-001 5.510824e-001 5.454535e-001 1.392479e+000
<GCONST> 1.298192e+002
<STATE> 4
<MEAN> 39
 -1.273651e+001 -4.735482e+000 5.310367e-001 -4.452142e+000 2.811256e+000 1.194120e+000 9.454491e-001 5.224840e-001 1.905857e+000 -2.425618e+000 1.666976e+000 3.353985e+000 6.865087e+001 9.657360e-001 3.558648e-001 4.437245e-001 1.160911e+000 -2.789431e-001 -2.264584e-002 1.608243e-001 5.825418e-001 4.083750e-001 1.165942e+000 2.725211e-001 -1.497356e-001 -7.947019e-001 1.856343e-001 1.837401e-001 -1.546912e-001 -4.452012e-003 -2.583023e-001 -4.472894e-001 9.356818e-002 1.423244e-001 -4.063654e-001 3.443571e-002 -8.746826e-002 -2.366424e-001 1.073401e-001
<VARIANCE> 39
 1.907015e+001 2.401309e+001 2.325738e+001 1.969914e+001 3.356109e+001 2.223834e+001 2.733918e+001 4.742712e+001 4.438742e+001 2.012454e+001 2.650884e+001 1.525156e+001 6.091176e+001 3.311855e+000 1.934092e+000 2.749567e+000 3.307875e+000 2.132690e+000 3.649497e+000 1.705074e+000 2.614331e+000 2.734085e+000 2.475502e+000 2.363975e+000 2.025011e+000 2.741228e+000 3.448372e-001 3.882045e-001 4.721892e-001 5.802645e-001 5.633494e-001 6.492935e-001 4.012902e-001 4.967227e-001 6.991851e-001 4.420236e-001 4.319115e-001 3.541462e-001 4.686182e-001
<GCONST> 1.169845e+002
<TRANSP> 5
 0.000000e+000 1.000000e+000 0.000000e+000 0.000000e+000 0.000000e+000
 0.000000e+000 7.485563e-001 2.514437e-001 0.000000e+000 0.000000e+000
 0.000000e+000 0.000000e+000 6.681960e-001 3.318040e-001 0.000000e+000
 0.000000e+000 0.000000e+000 0.000000e+000 7.061728e-001 2.938272e-001
 0.000000e+000 0.000000e+000 0.000000e+000 0.000000e+000 0.000000e+000
<ENDHMM>
~h "l"
<BEGINHMM>
<NUMSTATES> 5
<STATE> 2
<MEAN> 39
 -7.950922e-001 -5.252263e-002 3.678666e+000 5.122166e+000 6.913072e+000 -2.870639e+000 3.344667e-001 6.708893e+000 -4.219074e+000 -4.012288e+000 -5.970189e+000 -4.239103e+000 7.155991e+001 9.267598e-001 -5.603665e-001 9.110156e-002 1.009705e+000 5.709507e-001 -8.828680e-001 -3.796487e-002 3.621268e-001 -9.880643e-001 -5.199151e-001 -1.101192e+000 -7.728143e-001 1.019346e+000 -3.352062e-001 -1.982552e-001 9.674419e-002 -2.870534e-001 -4.065508e-001 -4.732169e-001 9.080635e-002 1.691493e-001 5.911649e-002 -5.658668e-002 2.574752e-001 1.523853e-001 1.088100e-001
<VARIANCE> 39
 2.168748e+001 2.762950e+001 2.573831e+001 4.555073e+001 5.975517e+001 7.001392e+001 3.463989e+001 3.483744e+001 6.813954e+001 5.010969e+001 4.807254e+001 5.520184e+001 6.224588e+001 2.862163e+000 1.963069e+000 2.006289e+000 2.508385e+000 3.284683e+000 5.001845e+000 2.992762e+000 2.728407e+000 5.074541e+000 3.424265e+000 2.702667e+000 2.165880e+000 1.968853e+000 3.678778e-001 3.498505e-001 4.568454e-001 5.720125e-001 4.451900e-001 8.822960e-001 5.618810e-001 6.475761e-001 8.631045e-001 6.357746e-001 5.191110e-001 4.792163e-001 2.661992e-001
<GCONST> 1.256129e+002
<STATE> 3
<MEAN> 39
 9.739653e-001 -4.726457e+000 3.835242e+000 4.764337e+000 3.693823e+000 -1.293771e+001 2.096629e-001 9.388847e+000 -6.277442e+000 -6.012974e+000 -7.758688e+000 -5.321886e+000 7.788186e+001 -1.424808e-001 -5.814072e-001 -1.533584e-001 -1.217383e+000 -1.583893e+000 -1.769502e+000 1.997958e-001 -2.456945e-002 4.519045e-001 -1.892704e-002 1.098758e+000 1.057844e+000 1.206477e+000 -7.080372e-002 -1.359914e-002 -1.218489e-001 -3.928835e-001 -1.471429e-001 1.513684e-001 7.892387e-002 -6.581237e-002 2.486231e-001 2.305854e-001 2.715380e-001 2.533786e-001 2.148129e-002
<VARIANCE> 39
 5.825203e+000 1.031114e+001 2.461307e+001 3.113167e+001 7.217947e+001 6.149628e+001 2.943913e+001 4.146337e+001 3.274146e+001 3.896840e+001 6.134008e+001 6.094657e+001 2.296427e+001 5.546377e-001 7.689362e-001 1.872370e+000 3.338903e+000 3.391990e+000 3.616129e+000 1.783685e+000 3.461923e+000 2.460085e+000 3.089199e+000 3.741116e+000 4.679514e+000 9.800586e-001 1.303663e-001 1.187344e-001 2.945813e-001 4.390029e-001 5.931705e-001 5.253867e-001 2.967100e-001 5.350927e-001 4.471234e-001 5.435848e-001 6.239464e-001 6.864261e-001 1.760116e-001
<GCONST> 1.133901e+002
<STATE> 4
<MEAN> 39
 3.436007e-001 -4.622477e+000 1.401402e+000 -3.260049e+000 -2.587767e+000 -1.890419e+001 1.776618e+000 7.415320e+000 -1.311690e+000 8.625479e-001 -3.666304e+000 -7.673272e-001 8.153821e+001 -1.163772e-001 2.471896e-001 5.654985e-002 -1.526243e-001 -2.432974e-001 2.191827e-002 2.505274e-001 1.194716e-001 4.046513e-001 1.705841e-001 -9.211719e-002 -1.418673e-002 -2.875481e-001 -3.097090e-002 7.917480e-002 -9.143832e-004 9.679986e-002 7.333513e-002 1.381935e-001 1.403441e-002 -2.950552e-002 -4.209181e-002 -3.034507e-002 -2.587625e-002 -3.335815e-002 -1.121748e-001
<VARIANCE> 39
 6.007758e+000 4.838180e+001 4.299979e+001 2.843469e+001 6.038314e+001 6.653032e+001 3.787112e+001 4.510818e+001 6.256770e+001 6.089952e+001 2.689933e+001 2.643286e+001 5.391982e+001 3.906931e-001 9.072611e-001 9.714094e-001 1.366302e+000 1.452688e+000 2.799363e+000 1.330390e+000 1.470153e+000 1.331598e+000 1.378721e+000 1.297345e+000 1.224499e+000 6.659031e-001 6.469877e-002 9.305576e-002 1.219801e-001 2.190998e-001 1.799433e-001 3.836313e-001 2.067914e-001 2.103816e-001 2.191125e-001 1.987072e-001 1.941327e-001 2.213638e-001 7.013664e-002
<GCONST> 9.750150e+001
<TRANSP> 5
 0.000000e+000 1.000000e+000 0.000000e+000 0.000000e+000 0.000000e+000
 0.000000e+000 6.986878e-001 3.013122e-001 0.000000e+000 0.000000e+000
 0.000000e+000 0.000000e+000 7.275473e-001 2.724527e-001 0.000000e+000
 0.000000e+000 0.000000e+000 0.000000e+000 8.586603e-001 1.413397e-001
 0.000000e+000 0.000000e+000 0.000000e+000 0.000000e+000 0.000000e+000
<ENDHMM>
~h "m"
<BEGINHMM>
<NUMSTATES> 5
<STATE> 2
<MEAN> 39
 -3.146016e+000 1.693384e+000 3.052784e+000 9.728348e+000 3.593010e+000 -5.923092e+000 9.085939e+000 8.872833e+000 -1.605768e+000 1.904236e+000 -9.939927e-001 -3.800286e+000 6.742793e+001 1.122189e+000 2.151976e-001 1.070010e+000 3.396664e+000 2.107754e+000 1.874760e+000 1.772947e+000 2.916524e-002 -1.667182e+000 7.148449e-001 -7.882935e-001 -2.481971e+000 -3.888706e-001 1.002187e-001 -3.807060e-001 -1.488808e-001 -2.743767e-001 8.645542e-004 -2.109229e-001 -1.955484e-001 4.537593e-002 -2.294049e-003 -1.434833e-001 -1.906336e-002 -1.572643e-001 4.667220e-001
<VARIANCE> 39
 5.049302e+001 1.673628e+001 1.799022e+001 2.391803e+001 5.062653e+001 8.842926e+001 1.367587e+001 1.540693e+001 2.261177e+001 2.806705e+001 1.651613e+001 1.934837e+001 6.893374e+001 4.139960e+000 9.204611e-001 1.532031e+000 1.898057e+000 2.466796e+000 6.528440e+000 1.660280e+000 2.851932e+000 2.607984e+000 1.864683e+000 1.503075e+000 1.471400e+000 4.353514e+000 3.541578e-001 2.182647e-001 2.887630e-001 4.046737e-001 2.818445e-001 4.883479e-001 3.696097e-001 3.319493e-001 5.444114e-001 2.561721e-001 2.744523e-001 2.923951e-001 2.116449e-001
<GCONST> 1.104435e+002
<STATE> 3
<MEAN> 39
 6.160145e-001 -2.628486e-001 3.954218e+000 1.613005e+001 7.387368e+000 -4.126358e+000 1.283201e+001 9.277116e+000 -6.350899e+000 2.883442e+000 -3.461788e+000 -1.065706e+001 6.906715e+001 4.808986e-001 -5.673162e-001 1.378726e-001 1.202801e+000 1.022301e+000 3.628514e-001 4.118058e-001 -2.085140e-001 -9.335269e-001 2.614749e-001 -1.447001e-001 -1.388444e+000 3.959976e-001 -3.583564e-001 9.514704e-002 -1.450575e-001 -9.467275e-001 -4.582263e-001 -5.696000e-001 -6.478558e-001 2.908592e-002 5.270330e-001 -2.039164e-001 3.869506e-001 7.008188e-001 1.339733e-001
<VARIANCE> 39
 3.894555e+000 1.102512e+001 7.462640e+000 9.692545e+000 4.236262e+001 2.092077e+001 1.419067e+001 1.593371e+001 2.217789e+001 1.474680e+001 1.343699e+001 9.336520e+000 1.278356e+001 2.171928e+000 1.129948e+000 1.151410e+000 1.679446e+000 1.761074e+000 5.348706e+000 1.287752e+000 1.351258e+000 2.370494e+000 1.022417e+000 1.435718e+000 1.502470e+000 2.389735e+000 2.126445e-001 2.439301e-001 1.730142e-001 2.277949e-001 2.156946e-001 4.113603e-001 1.984956e-001 2.294972e-001 3.740751e-001 2.657415e-001 1.732602e-001 2.686154e-001 2.407828e-001
<GCONST> 9.347212e+001
<STATE> 4
<MEAN> 39
 -4.939207e-001 1.041089e+000 4.677994e+000 1.460989e+001 9.048005e+000 -4.933173e+000 9.757310e+000 9.471120e+000 -6.103928e+000 1.991926e+000 -7.453113e-001 -1.061068e+001 6.940171e+001 -3.571188e-001 6.234784e-001 -7.809223e-002 -1.247412e+000 -2.440566e-001 -5.185534e-001 -1.070308e+000 1.261638e-001 8.681473e-001 -4.997162e-001 4.837002e-001 8.851300e-001 1.308163e-001 -4.712205e-002 -3.297484e-002 -1.708060e-001 -6.046371e-001 -3.823934e-001 -2.931880e-001 -2.379776e-001 3.705908e-002 3.428288e-001 -1.716412e-001 -3.668084e-002 3.947776e-001 1.729325e-001
<VARIANCE> 39
 5.810886e+000 1.923615e+001 6.591886e+000 1.767322e+001 4.131808e+001 2.913765e+001 1.899187e+001 1.971130e+001 3.932535e+001 1.984071e+001 2.021846e+001 1.709880e+001 1.588225e+001 5.617365e-001 1.259611e+000 8.798005e-001 3.050135e+000 3.485829e+000 4.578591e+000 1.678190e+000 1.133206e+000 2.232091e+000 1.271808e+000 1.135721e+000 2.226143e+000 1.522429e+000 7.344630e-002 2.418994e-001 1.459578e-001 4.992416e-001 3.998324e-001 4.373647e-001 3.147759e-001 3.393322e-001 3.627330e-001 2.264249e-001 2.402355e-001 3.126145e-001 1.578383e-001
<GCONST> 9.832145e+001
<TRANSP> 5
 0.000000e+000 1.000000e+000 0.000000e+000 0.000000e+000 0.000000e+000
 0.000000e+000 4.287242e-001 5.712758e-001 0.000000e+000 0.000000e+000
 0.000000e+000 0.000000e+000 6.152361e-001 3.847639e-001 0.000000e+000
 0.000000e+000 0.000000e+000 0.000000e+000 8.106195e-001 1.893805e-001
 0.000000e+000 0.000000e+000 0.000000e+000 0.000000e+000 0.000000e+000
<ENDHMM>
~h "n"
<BEGINHMM>
<NUMSTATES> 5
<STATE> 2
<MEAN> 39
 -2.126985e+000 -1.583496e+000 4.186356e+000 6.517672e+000 8.312210e+000 -6.531123e+000 5.396669e+000 2.975170e+000 -9.068768e+000 -2.732674e-001 2.634651e+000 -2.864304e+000 7.459998e+001 -2.038846e-001 8.643530e-001 8.611804e-001 1.439626e+000 9.853274e-001 1.704440e+000 8.223279e-002 -3.233601e-001 1.581466e-001 5.461174e-001 -6.684195e-001 -1.115148e+000 -1.299308e+000 -2.695985e-002 -1.033986e-002 -3.446943e-002 7.182245e-002 -4.970100e-002 7.942165e-002 -1.422685e-001 8.202203e-002 2.303710e-001 7.634609e-002 -1.691170e-001 -5.556270e-006 -1.055343e-001
<VARIANCE> 39
 1.128205e+001 2.120347e+001 2.099921e+001 2.628633e+001 4.988719e+001 6.005833e+001 3.750319e+001 4.075770e+001 3.963409e+001 3.008376e+001 2.943991e+001 3.099868e+001 3.837499e+001 1.072110e+000 1.016853e+000 1.725061e+000 2.906137e+000 2.265269e+000 3.498192e+000 1.827881e+000 1.894586e+000 1.993849e+000 1.862001e+000 1.901379e+000 2.272772e+000 1.429929e+000 1.737291e-001 1.730577e-001 2.531037e-001 3.394161e-001 3.002957e-001 5.130612e-001 3.727577e-001 3.498691e-001 4.436436e-001 2.859649e-001 3.072622e-001 3.380436e-001 1.616429e-001
<GCONST> 1.084782e+002
<STATE> 3
<MEAN> 39
 -1.404485e+000 1.539903e+000 6.146221e+000 1.404566e+001 1.131423e+001 6.184858e-002 5.534695e+000 2.605803e+000 -7.264869e+000 2.669138e+000 -2.017169e+000 -8.683513e+000 6.881682e+001 -2.456709e-001 6.462184e-001 4.961689e-001 9.214169e-001 6.264915e-001 8.539258e-001 -2.400176e-001 -2.409148e-002 4.355558e-001 2.431451e-001 -5.125298e-001 -5.375445e-001 -7.906352e-001 -3.705821e-001 -5.783764e-002 -1.491857e-001 -7.737875e-001 -2.906369e-001 -2.914025e-001 -4.790325e-002 1.047885e-001 2.936434e-001 -4.121616e-001 2.894140e-001 5.808781e-001 2.644218e-001
<VARIANCE> 39
 7.095387e+000 1.367350e+001 1.091442e+001 2.321888e+001 3.924300e+001 2.513386e+001 2.657221e+001 2.947461e+001 2.221197e+001 1.685093e+001 3.168806e+001 2.007094e+001 2.200857e+001 1.388113e+000 1.476540e+000 1.194096e+000 2.493595e+000 1.798534e+000 2.857749e+000 1.560264e+000 1.514931e+000 2.617841e+000 1.560664e+000 1.455432e+000 2.036464e+000 1.990919e+000 1.973935e-001 2.424392e-001 2.454267e-001 3.806008e-001 3.624131e-001 4.300026e-001 2.923877e-001 3.676145e-001 3.924262e-001 2.962917e-001 3.209259e-001 3.305251e-001 2.174866e-001
<GCONST> 1.028841e+002
<STATE> 4
<MEAN> 39
 -5.786671e+000 5.094704e+000 6.848293e+000 1.206602e+001 1.040136e+001 4.485711e+000 6.029566e+000 3.380924e+000 -1.734718e+000 2.187072e+000 -1.319188e+000 -5.206239e+000 6.393911e+001 -1.370399e+000 6.808815e-002 -3.183200e-001 -1.461561e+000 -4.788029e-001 9.850671e-002 -3.380883e-001 2.717185e-001 1.261971e+000 -6.068858e-001 2.643128e-001 1.005696e+000 -2.942246e-001 -1.613708e-001 -5.026962e-001 -2.641617e-001 -5.650442e-001 -3.645962e-001 -6.411141e-001 -1.663433e-001 -1.286252e-001 -1.608944e-001 -1.481829e-001 1.755909e-001 2.088780e-001 4.233186e-001
<VARIANCE> 39
 1.831879e+001 1.792837e+001 1.541897e+001 2.708824e+001 3.112767e+001 3.742616e+001 2.511034e+001 2.567540e+001 3.723078e+001 1.800248e+001 2.287960e+001 2.736467e+001 4.457592e+001 1.901702e+000 1.820039e+000 1.877350e+000 2.905305e+000 2.889953e+000 3.093907e+000 1.811446e+000 2.316390e+000 2.831760e+000 2.108789e+000 1.729006e+000 2.006107e+000 2.158294e+000 2.753794e-001 3.054291e-001 3.065747e-001 5.371900e-001 3.492422e-001 4.902678e-001 3.346726e-001 4.569319e-001 4.522820e-001 3.424405e-001 3.314609e-001 5.097300e-001 2.691472e-001
<GCONST> 1.112650e+002
<TRANSP> 5
 0.000000e+000 1.000000e+000 0.000000e+000 0.000000e+000 0.000000e+000
 0.000000e+000 6.188564e-001 3.811436e-001 0.000000e+000 0.000000e+000
 0.000000e+000 0.000000e+000 6.538249e-001 3.461750e-001 0.000000e+000
 0.000000e+000 0.000000e+000 0.000000e+000 5.722312e-001 4.277688e-001
 0.000000e+000 0.000000e+000 0.000000e+000 0.000000e+000 0.000000e+000
<ENDHMM>
~h "p"
<BEGINHMM>
<NUMSTATES> 5
<STATE> 2
<MEAN> 39
 -9.577943e+000 9.841275e-001 -4.961534e-001 7.073243e+000 8.048705e+000 1.154703e+000 2.443438e-001 1.621679e+000 -4.176867e+000 -2.416572e+000 1.498815e+000 -1.861694e+000 6.228488e+001 -1.300746e+000 -1.534031e-001 -6.974562e-001 -1.244681e+000 -1.596867e+000 1.642630e-001 -6.371939e-001 -3.452870e-001 8.873623e-001 -1.773505e-001 -2.801727e-001 4.264461e-001 -1.168035e+000 5.442669e-002 -2.946066e-001 1.003081e-001 -6.072603e-001 1.976666e-001 -3.234663e-001 -9.705845e-002 -2.516688e-001 -7.015577e-002 -1.710075e-001 -2.846990e-002 1.443148e-001 8.594144e-001
<VARIANCE> 39
 1.543370e+001 1.952251e+001 1.199006e+001 5.896750e+001 3.291915e+001 1.585111e+001 1.522201e+001 1.773458e+001 3.053527e+001 1.694193e+001 1.162784e+001 1.771438e+001 3.482862e+001 1.410626e+000 1.156076e+000 1.124350e+000 4.022164e+000 2.214785e+000 2.234404e+000 2.033324e+000 2.571098e+000 2.853557e+000 1.625119e+000 1.230949e+000 8.079460e-001 4.462611e+000 2.727674e-001 3.763093e-001 1.977535e-001 7.066239e-001 2.264931e-001 3.618243e-001 6.074951e-001 6.826991e-001 5.594970e-001 3.229442e-001 2.143654e-001 1.953161e-001 5.809186e-001
<GCONST> 1.061509e+002
<STATE> 3
<MEAN> 39
 -1.332745e+001 7.110839e-001 -1.197275e+000 -2.506964e-001 5.764892e+000 6.666628e-002 -2.710886e-001 -2.500698e-001 -3.776264e-001 -3.859139e+000 -1.444250e-001 -2.082509e-001 6.646306e+001 -2.230252e-001 -1.118447e-001 5.182361e-001 -2.387115e+000 -4.900301e-001 3.902956e-001 6.104812e-001 3.899143e-001 2.078803e+000 -1.758068e-001 1.275814e-001 1.323595e+000 2.052742e+000 7.387900e-001 3.365295e-002 3.590508e-001 2.614851e-001 9.417690e-003 -2.304187e-001 1.726571e-001 6.418811e-001 3.305192e-001 4.198863e-001 2.707304e-001 3.359005e-002 1.922718e-001
<VARIANCE> 39
 1.692148e+001 1.125406e+001 1.402099e+001 4.345901e+001 2.817459e+001 1.527685e+001 2.333319e+001 2.183324e+001 3.860941e+001 1.808976e+001 1.650100e+001 1.956583e+001 5.417940e+001 3.293797e+000 1.488843e+000 1.773320e+000 5.379623e+000 3.896739e+000 2.547293e+000 1.798519e+000 3.474168e+000 5.561128e+000 2.299014e+000 2.781801e+000 2.110579e+000 6.553340e+000 4.397113e-001 4.304763e-001 4.174748e-001 6.941285e-001 7.728309e-001 5.089274e-001 4.925288e-001 5.959846e-001 8.293374e-001 4.870453e-001 4.055792e-001 3.541270e-001 1.177732e+000
<GCONST> 1.183811e+002
<STATE> 4
<MEAN> 39
 -8.018091e+000 4.984042e-001 1.808306e+000 -6.992600e+000 2.251805e+000 -1.187128e+000 1.325441e+000 6.183389e+000 1.009795e+001 -1.181849e+000 1.470247e+000 3.835905e+000 7.137663e+001 2.367251e+000 5.397017e-002 7.834521e-001 -1.628997e-001 -1.166869e+000 -1.828201e+000 1.785613e-001 1.797171e+000 1.282138e+000 1.127820e+000 3.140989e-002 4.255758e-001 8.286359e-001 1.554206e-001 -1.193178e-001 -4.027596e-001 6.211926e-001 -1.067318e-001 -5.644115e-001 -1.509196e-001 -3.230253e-001 -1.039013e+000 4.692856e-003 -3.207805e-001 -4.375546e-001 -2.738432e-001
<VARIANCE> 39
 1.704997e+001 1.834027e+001 1.561029e+001 1.618990e+001 8.990059e+000 2.687968e+001 2.086909e+001 2.328261e+001 4.193084e+001 1.706050e+001 3.055167e+001 1.968273e+001 1.728345e+001 1.094281e+000 2.425402e+000 1.879678e+000 2.327698e+000 1.242900e+000 3.379978e+000 1.988393e+000 2.773605e+000 6.807044e+000 1.487657e+000 2.834000e+000 1.637224e+000 2.949582e+000 2.484964e-001 4.286233e-001 3.304976e-001 4.300361e-001 2.649243e-001 3.706117e-001 3.916081e-001 5.038019e-001 5.377395e-001 3.439823e-001 4.926103e-001 3.047849e-001 5.295013e-001
<GCONST> 1.086223e+002
<TRANSP> 5
 0.000000e+000 1.000000e+000 0.000000e+000 0.000000e+000 0.000000e+000
 0.000000e+000 7.818211e-001 2.181790e-001 0.000000e+000 0.000000e+000
 0.000000e+000 0.000000e+000 7.102478e-001 2.897523e-001 0.000000e+000
 0.000000e+000 0.000000e+000 0.000000e+000 6.730262e-001 3.269738e-001
 0.000000e+000 0.000000e+000 0.000000e+000 0.000000e+000 0.000000e+000
<ENDHMM>
~h "r"
<BEGINHMM>
<NUMSTATES> 5
<STATE> 2
<MEAN> 39
 -8.158994e-001 2.135777e+000 1.668384e+000 -5.513343e+000 5.069986e+000 -5.223775e+000 -7.908528e-001 5.166994e+000 -2.456684e+000 -4.060353e+000 -2.431901e-001 4.396244e-001 7.506823e+001 1.675660e+000 2.364779e-002 -4.250648e-001 -2.801934e-001 3.375957e-001 -1.187191e+000 -4.263153e-001 7.992963e-001 -9.544772e-001 -9.311298e-001 -1.597257e-001 -2.480559e-001 1.225379e+000 -6.426988e-001 -4.679179e-001 -8.696011e-002 -2.012348e-001 -2.308104e-001 2.616502e-001 2.942128e-001 -1.767133e-001 1.333784e-001 -4.288151e-002 -1.084815e-001 5.671416e-002 -1.140865e-001
<VARIANCE> 39
 3.330079e+001 4.661583e+001 3.452380e+001 4.949181e+001 4.774054e+001 1.008160e+002 4.298690e+001 5.258810e+001 5.820890e+001 3.021505e+001 3.702663e+001 2.161541e+001 4.885200e+001 3.761224e+000 4.466246e+000 3.008548e+000 1.719138e+000 2.622448e+000 7.089028e+000 2.932122e+000 3.718593e+000 5.663765e+000 3.495280e+000 3.259737e+000 1.594656e+000 2.787755e+000 9.398922e-001 4.151903e-001 2.637790e-001 3.236777e-001 4.950571e-001 6.575291e-001 7.074754e-001 5.343086e-001 5.675375e-001 3.901642e-001 4.261436e-001 3.218972e-001 3.496175e-001
<GCONST> 1.261103e+002
<STATE> 3
<MEAN> 39
 1.040372e+000 2.251024e+000 1.845056e+000 -6.355616e+000 6.807116e+000 -4.021322e+000 -5.146651e-001 6.230746e+000 -5.632103e+000 -7.802675e+000 -2.350407e+000 -5.041788e-001 7.582442e+001 3.422978e-001 -9.702424e-001 -3.108436e-001 -1.874130e-001 -8.821709e-002 -6.887983e-001 1.013371e-001 -1.314397e-001 -5.318910e-001 -5.384008e-001 -2.351030e-001 8.399276e-002 9.871185e-001 -5.241457e-001 -2.146490e-001 1.406300e-001 1.982195e-001 -1.983607e-001 1.654102e-001 1.941730e-001 -2.376868e-001 3.643032e-001 3.808416e-001 1.529800e-001 1.136203e-001 -2.473314e-001
<VARIANCE> 39
 1.031893e+001 3.262370e+001 2.674794e+001 4.255814e+001 5.621577e+001 1.008416e+002 3.916560e+001 4.285489e+001 7.948069e+001 4.883861e+001 4.887547e+001 2.030766e+001 2.647919e+001 9.526904e-001 2.690036e+000 2.187854e+000 2.523064e+000 2.048636e+000 5.161071e+000 2.443030e+000 4.650867e+000 4.364809e+000 2.213253e+000 3.110005e+000 2.079682e+000 1.798569e+000 3.086189e-001 3.517911e-001 2.916605e-001 2.983393e-001 4.113987e-001 8.126475e-001 3.441658e-001 5.516012e-001 7.016374e-001 4.117266e-001 5.178743e-001 3.311305e-001 2.701158e-001
<GCONST> 1.194694e+002
<STATE> 4
<MEAN> 39
 1.957088e+000 4.335181e-001 4.958633e-001 -8.435396e+000 3.987118e+000 -5.088244e+000 -8.334656e-001 2.558401e+000 -7.106646e+000 -5.618926e+000 -2.293962e+000 1.191416e+000 7.772771e+001 -6.821451e-002 -3.491957e-001 -6.340771e-002 5.392166e-001 -1.826274e-001 -7.560071e-001 -6.694771e-002 -4.146008e-001 2.922491e-001 5.041857e-001 -4.271051e-002 1.484741e-001 1.499230e-001 -5.116254e-002 -1.176270e-004 4.555250e-002 1.255921e-001 1.437021e-003 -9.086682e-002 -6.778684e-003 3.559416e-002 7.912177e-002 7.069764e-002 2.328900e-002 -4.421087e-002 -4.783994e-002
<VARIANCE> 39
 1.877455e+001 1.667530e+001 3.906408e+001 4.716432e+001 7.341451e+001 7.053365e+001 4.137510e+001 5.001586e+001 8.572205e+001 6.609749e+001 4.211912e+001 2.325863e+001 1.219060e+001 5.866452e-001 1.359414e+000 1.544149e+000 1.634881e+000 1.794987e+000 2.762594e+000 2.122682e+000 3.166278e+000 3.345069e+000 2.148019e+000 2.078818e+000 1.480529e+000 5.972399e-001 9.533077e-002 1.647788e-001 2.077095e-001 1.757849e-001 2.743907e-001 4.334432e-001 3.832450e-001 4.681223e-001 4.687736e-001 3.659043e-001 2.830830e-001 2.680302e-001 8.329230e-002
<GCONST> 1.078087e+002
<TRANSP> 5
 0.000000e+000 1.000000e+000 0.000000e+000 0.000000e+000 0.000000e+000
 0.000000e+000 2.470478e-001 7.529522e-001 0.000000e+000 0.000000e+000
 0.000000e+000 0.000000e+000 4.622464e-001 5.377536e-001 0.000000e+000
 0.000000e+000 0.000000e+000 0.000000e+000 8.253952e-001 1.746048e-001
 0.000000e+000 0.000000e+000 0.000000e+000 0.000000e+000 0.000000e+000
<ENDHMM>
~h "s"
<BEGINHMM>
<NUMSTATES> 5
<STATE> 2
<MEAN> 39
 -1.282087e+001 -1.347315e+000 1.010912e+001 -4.063715e+000 1.512345e+000 1.876006e+000 3.171610e+000 -1.108080e+000 -1.009016e+000 -2.358697e+000 1.885305e+000 7.795938e-001 7.337613e+001 -4.177524e+000 -4.881507e-001 1.604501e+000 -2.943131e+000 4.234515e-001 1.912685e+000 -6.865926e-001 -4.793925e-001 1.761203e+000 -1.345190e-001 1.069352e+000 6.242038e-002 8.757291e-001 -6.179472e-001 -3.926004e-001 -5.719219e-001 -7.369745e-001 -2.806574e-001 -7.014034e-001 -3.646923e-001 6.612888e-002 -4.309034e-002 3.034279e-002 1.287560e-001 -1.289172e-001 3.171481e-001
<VARIANCE> 39
 5.602822e+001 1.441913e+001 3.676769e+001 3.334977e+001 3.815453e+001 4.251049e+001 2.348577e+001 3.213430e+001 4.785963e+001 2.564369e+001 2.800296e+001 1.916166e+001 7.150502e+001 6.883973e+000 3.919174e+000 4.393626e+000 6.119314e+000 4.739709e+000 5.727964e+000 2.657422e+000 3.096164e+000 6.098025e+000 2.349974e+000 3.296989e+000 2.108286e+000 3.054221e+000 7.573872e-001 4.173193e-001 6.680006e-001 7.853806e-001 6.307970e-001 8.125532e-001 4.247740e-001 4.886459e-001 1.054405e+000 4.017213e-001 5.101836e-001 3.097996e-001 2.156036e-001
<GCONST> 1.266062e+002
<STATE> 3
<MEAN> 39
 -2.686049e+001 -5.893900e+000 9.604943e+000 -1.611251e+001 -9.500106e-001 1.866910e+000 -1.390273e+000 -3.961326e+000 1.306584e+000 -2.744150e+000 4.877872e+000 -9.215569e-002 7.732912e+001 -2.874716e+000 -6.190510e-001 -3.882295e-001 -2.509471e+000 -7.248535e-001 -7.997925e-001 -9.043669e-001 -3.426469e-001 -1.457197e-001 -1.372661e-001 9.042241e-002 -5.816827e-001 1.039860e+000 8.079153e-001 3.715338e-001 -2.984278e-001 8.026392e-001 1.657100e-001 -1.970681e-001 3.165659e-001 3.216729e-001 -2.910658e-001 3.453821e-002 -3.402563e-001 -2.771914e-002 -4.275081e-001
<VARIANCE> 39
 1.446564e+001 1.022519e+001 1.543826e+001 1.361995e+001 1.874743e+001 2.365640e+001 2.246431e+001 1.938811e+001 2.463788e+001 1.812019e+001 1.213943e+001 1.139171e+001 2.653135e+001 2.202173e+000 1.189296e+000 2.918719e+000 2.136355e+000 1.619024e+000 1.489750e+000 1.911055e+000 1.784616e+000 1.714553e+000 1.277373e+000 1.151994e+000 8.735449e-001 2.581440e+000 5.069646e-001 2.883885e-001 4.989910e-001 3.439374e-001 5.203721e-001 6.392446e-001 3.588783e-001 4.130698e-001 5.996299e-001 2.397601e-001 2.762635e-001 2.275117e-001 1.335734e-001
<GCONST> 1.017270e+002
<STATE> 4
<MEAN> 39
 -3.174588e+001 -4.755757e+000 8.044199e+000 -1.761760e+001 1.881081e+000 9.079620e-001 -5.896134e-001 -1.062977e+000 2.784401e-001 -1.878387e+000 2.990101e+000 -1.008192e+000 7.703800e+001 6.727213e-001 3.202479e-001 -1.490857e-001 6.922590e-001 3.146468e-001 -1.343328e-001 2.428306e-001 3.177413e-001 -9.467980e-002 4.486579e-002 -2.692598e-001 1.076454e-001 -5.605742e-001 6.020190e-001 4.618527e-002 1.840458e-003 4.198594e-001 2.132735e-003 -5.594806e-002 7.584075e-002 3.317486e-002 -7.065539e-002 -1.711237e-002 2.664486e-003 6.441391e-002 -1.045121e-001
<VARIANCE> 39
 2.163942e+001 1.152832e+001 2.485714e+001 1.915773e+001 2.511947e+001 1.877014e+001 2.343236e+001 1.837305e+001 1.705970e+001 2.029438e+001 1.375415e+001 1.098779e+001 2.133798e+001 4.730114e+000 9.300868e-001 1.066674e+000 2.526453e+000 1.382191e+000 1.352611e+000 1.313660e+000 1.537906e+000 1.424629e+000 1.441553e+000 1.018771e+000 8.870845e-001 1.678446e+000 5.020905e-001 1.713997e-001 2.164031e-001 4.534250e-001 3.201081e-001 2.992994e-001 2.776705e-001 2.767667e-001 3.230336e-001 2.720860e-001 2.097318e-001 1.763457e-001 2.036677e-001
<GCONST> 9.744133e+001
<TRANSP> 5
 0.000000e+000 1.000000e+000 0.000000e+000 0.000000e+000 0.000000e+000
 0.000000e+000 6.407723e-001 3.592277e-001 0.000000e+000 0.000000e+000
 0.000000e+000 0.000000e+000 6.612338e-001 3.387662e-001 0.000000e+000
 0.000000e+000 0.000000e+000 0.000000e+000 8.983818e-001 1.016183e-001
 0.000000e+000 0.000000e+000 0.000000e+000 0.000000e+000 0.000000e+000
<ENDHMM>
~h "t"
<BEGINHMM>
<NUMSTATES> 5
<STATE> 2
<MEAN> 39
 -1.213299e+001 3.452419e-001 1.948378e+000 9.561864e-002 1.848404e+000 -1.396042e+000 1.933302e+000 2.625714e+000 -2.666192e+000 -2.009614e+000 2.294049e+000 1.182127e+000 6.358577e+001 -1.212111e+000 -6.582062e-001 -3.353263e-001 -5.876679e-001 -5.113876e-001 -2.173934e-001 -7.818152e-001 -6.520368e-001 1.013418e+000 -3.379381e-001 9.942710e-003 2.487400e-001 4.032145e-001 -1.657058e-001 -5.064521e-001 4.099797e-001 -3.438168e-001 1.953782e-001 -2.098783e-001 4.971690e-003 -3.606160e-001 7.109450e-002 -1.624327e-001 -5.632411e-002 -8.943989e-002 1.229979e+000
<VARIANCE> 39
 4.653857e+001 1.652205e+001 3.730528e+001 6.486872e+001 6.020335e+001 3.707264e+001 2.989079e+001 4.045943e+001 5.597358e+001 4.889296e+001 2.215925e+001 2.401585e+001 6.305346e+001 3.767170e+000 2.970308e+000 4.333891e+000 6.367228e+000 4.697743e+000 4.330789e+000 3.123523e+000 3.735927e+000 4.654121e+000 3.780607e+000 2.566767e+000 2.336620e+000 1.167025e+001 3.842804e-001 3.832098e-001 8.354532e-001 6.257070e-001 8.064874e-001 8.648792e-001 7.270219e-001 6.190226e-001 7.566864e-001 6.537697e-001 4.776999e-001 4.017889e-001 1.079146e+000
<GCONST> 1.315749e+002
<STATE> 3
<MEAN> 39
 -1.963614e+001 -5.934246e+000 5.846208e+000 -5.514954e+000 2.783401e+000 -1.996994e+000 3.483364e-001 -2.692639e+000 2.988817e+000 -4.194568e+000 2.274477e+000 1.469614e+000 7.654215e+001 -7.856000e-001 -1.262635e+000 1.264669e+000 -1.001065e+000 6.273268e-001 4.302024e-001 3.808151e-001 -1.047722e+000 5.288098e-001 -1.611839e-001 6.437164e-002 3.176056e-001 2.200541e+000 8.967029e-001 4.968705e-001 -1.124108e-001 6.508468e-001 1.742941e-001 7.160098e-002 2.788252e-001 4.871334e-001 -4.590042e-001 3.716365e-001 -7.759453e-002 -2.115570e-001 -1.100737e+000
<VARIANCE> 39
 2.628645e+001 1.437115e+001 1.540004e+001 2.697580e+001 2.144378e+001 2.290945e+001 2.538704e+001 2.423726e+001 2.667810e+001 2.463787e+001 1.647188e+001 1.535409e+001 2.042286e+001 3.512761e+000 1.869661e+000 2.686013e+000 5.293067e+000 3.338733e+000 3.435621e+000 3.696335e+000 3.093187e+000 3.925999e+000 3.586587e+000 1.951129e+000 2.117799e+000 7.072435e+000 4.577831e-001 3.707420e-001 5.609208e-001 8.711770e-001 9.074983e-001 7.097808e-001 5.228919e-001 6.157031e-001 8.573245e-001 5.832947e-001 4.460856e-001 4.746834e-001 8.859439e-001
<GCONST> 1.203011e+002
<STATE> 4
<MEAN> 39
 -1.471812e+001 -4.582512e+000 7.135015e+000 -1.240291e+000 6.170636e+000 -7.285002e-001 1.293651e+000 -1.876481e+000 4.347880e-001 -1.958357e+000 2.539472e+000 5.295544e-001 7.297386e+001 1.740751e+000 4.111038e-001 5.474277e-002 1.254747e+000 5.607957e-001 -5.077969e-001 3.688565e-002 6.129169e-001 -1.108526e+000 4.194690e-001 7.809331e-002 -6.774941e-001 -6.659647e-001 2.444582e-001 1.536705e-001 -2.781560e-001 9.799002e-002 -1.708308e-001 -3.379813e-001 -2.586359e-001 2.785262e-001 -2.719132e-001 -1.502141e-002 -4.577733e-002 -1.694289e-001 -1.350798e-001
<VARIANCE> 39
 4.798648e+001 1.949636e+001 2.104001e+001 7.260069e+001 5.132803e+001 2.679965e+001 3.248961e+001 2.775323e+001 4.216917e+001 2.951694e+001 2.166582e+001 3.520597e+001 4.234488e+001 2.510405e+000 2.517056e+000 2.249978e+000 3.161656e+000 2.792217e+000 4.131328e+000 2.314300e+000 2.769603e+000 4.738115e+000 2.762139e+000 2.633894e+000 2.059106e+000 4.023005e+000 7.442562e-001 5.655738e-001 4.056583e-001 7.136025e-001 4.944445e-001 6.233047e-001 5.084534e-001 5.122316e-001 8.582376e-001 5.027775e-001 3.689777e-001 4.363642e-001 6.824698e-001
<GCONST> 1.234771e+002
<TRANSP> 5
 0.000000e+000 1.000000e+000 0.000000e+000 0.000000e+000 0.000000e+000
 0.000000e+000 7.213465e-001 2.786535e-001 0.000000e+000 0.000000e+000
 0.000000e+000 0.000000e+000 6.272041e-001 3.727959e-001 0.000000e+000
 0.000000e+000 0.000000e+000 0.000000e+000 6.295918e-001 3.704082e-001
 0.000000e+000 0.000000e+000 0.000000e+000 0.000000e+000 0.000000e+000
<ENDHMM>
~h "v"
<BEGINHMM>
<NUMSTATES> 5
<STATE> 2
<MEAN> 39
 3.505397e-001 -5.424029e+000 -1.482484e-001 5.860463e-001 -8.537591e-001 -1.469658e+001 5.540719e+000 6.656188e+000 -9.058228e+000 -4.854684e+000 -1.127196e+000 -3.446653e+000 8.196327e+001 -5.732046e-002 4.429979e-001 1.963952e-001 3.225994e-001 2.741773e-001 5.795452e-001 3.093872e-001 -2.452506e-002 -3.835735e-002 -2.201070e-001 -1.419467e-001 -1.871081e-001 -4.850375e-001 -4.146770e-002 3.707870e-002 4.801165e-002 5.368255e-003 6.559364e-002 5.659454e-002 -2.809526e-002 -3.008154e-002 3.704183e-003 5.446318e-002 7.428549e-002 9.156331e-003 -3.521848e-002
<VARIANCE> 39
 3.298812e+000 1.400384e+001 1.302254e+001 2.912793e+001 2.653337e+001 2.782957e+001 1.323296e+001 2.793042e+001 3.097670e+001 2.788531e+001 1.637415e+001 2.448962e+001 2.339598e+001 2.036335e-001 7.110892e-001 3.521385e-001 1.095511e+000 1.013262e+000 1.261683e+000 9.339198e-001 1.491876e+000 1.456772e+000 1.450374e+000 1.118176e+000 1.939529e+000 9.469101e-001 4.259638e-002 8.847197e-002 5.459937e-002 1.526067e-001 1.336493e-001 1.866246e-001 1.577024e-001 1.776058e-001 2.339189e-001 1.783873e-001 1.824114e-001 2.267715e-001 1.105890e-001
<GCONST> 8.283437e+001
<STATE> 3
<MEAN> 39
 7.088739e-001 6.700734e-001 -3.518480e-002 3.179429e+000 3.089779e+000 -7.433394e+000 6.785210e+000 4.112520e+000 -6.797171e+000 -3.743368e+000 -2.350227e+000 -1.790831e+000 7.319219e+001 -5.893704e-001 8.189203e-001 2.117155e-001 4.449726e-001 4.916347e-001 7.701685e-001 6.177790e-001 6.459296e-001 9.520870e-001 -2.434971e-001 4.713514e-001 -4.370170e-001 -9.179240e-001 -2.062092e-001 -1.705595e-001 1.331999e-001 -1.359733e-001 1.579197e-002 -1.004638e-001 -1.879131e-001 -1.095321e-001 5.928808e-002 1.414996e-001 2.248520e-001 1.450768e-001 1.822813e-001
<VARIANCE> 39
 8.931947e+000 3.054003e+001 1.328791e+001 5.200648e+001 3.241518e+001 5.476114e+001 1.930856e+001 6.383512e+001 4.673862e+001 2.529682e+001 1.888975e+001 1.209226e+001 2.868680e+001 1.264997e+000 2.020854e+000 4.644035e-001 1.822529e+000 2.379145e+000 2.702268e+000 1.760410e+000 2.760831e+000 4.856713e+000 1.719728e+000 1.725309e+000 1.423476e+000 1.380244e+000 1.966519e-001 2.935730e-001 1.252448e-001 2.521178e-001 3.721743e-001 5.781777e-001 2.996905e-001 4.728458e-001 4.930092e-001 2.607502e-001 3.621517e-001 3.894230e-001 2.120081e-001
<GCONST> 1.064836e+002
<STATE> 4
<MEAN> 39
 -6.933145e+000 5.715812e+000 2.690125e+000 4.048960e-001 3.011559e+000 -3.011600e+000 6.430641e+000 4.622999e+000 4.137723e-001 -1.377615e+000 -2.353612e+000 -7.569045e-001 6.524741e+001 -7.048388e-001 -6.380526e-002 -1.257606e-001 -2.841616e-001 1.436990e-002 5.200618e-001 -1.508728e-001 1.405350e-001 1.473735e-001 3.533593e-001 1.308276e-001 9.722924e-002 -7.094702e-001 7.959134e-002 -1.081729e-001 -1.590524e-002 7.689662e-002 -7.957886e-004 -5.682437e-002 -1.300901e-001 -1.585698e-001 -2.066987e-001 7.228276e-002 -7.368088e-002 -8.139500e-002 1.121566e-003
<VARIANCE> 39
 3.810057e+001 2.894020e+001 2.240003e+001 3.627331e+001 3.087952e+001 5.118967e+001 2.410418e+001 3.175211e+001 4.449002e+001 2.483410e+001 2.467052e+001 2.073881e+001 4.167030e+001 2.091281e+000 1.170675e+000 2.157841e+000 2.202585e+000 1.883001e+000 3.189285e+000 2.006597e+000 2.294231e+000 3.618593e+000 1.839309e+000 1.778854e+000 2.232368e+000 6.911535e-001 3.545179e-001 2.113158e-001 3.833750e-001 4.169589e-001 3.158297e-001 6.052494e-001 3.976537e-001 4.105385e-001 7.391503e-001 3.625950e-001 2.956171e-001 4.523566e-001 1.408650e-001
<GCONST> 1.118617e+002
<TRANSP> 5
 0.000000e+000 1.000000e+000 0.000000e+000 0.000000e+000 0.000000e+000
 0.000000e+000 8.562028e-001 1.437973e-001 0.000000e+000 0.000000e+000
 0.000000e+000 0.000000e+000 5.817328e-001 4.182672e-001 0.000000e+000
 0.000000e+000 0.000000e+000 0.000000e+000 7.796721e-001 2.203279e-001
 0.000000e+000 0.000000e+000 0.000000e+000 0.000000e+000 0.000000e+000
<ENDHMM>
~h "w"
<BEGINHMM>
<NUMSTATES> 5
<STATE> 2
<MEAN> 39
 -1.327245e+001 -2.236073e+000 1.731606e+000 -1.886940e+000 3.635035e+000 -4.247277e-001 -5.446372e-002 -1.683419e-001 -8.723173e-001 -1.055699e+000 1.801767e+000 1.886523e+000 6.183459e+001 9.725643e-001 1.092142e+000 5.302401e-001 1.602357e-001 -3.689834e-001 7.463726e-002 -4.237860e-003 4.776093e-001 -3.152657e-001 -1.203713e-001 -6.483918e-001 -5.035725e-001 -2.043312e-001 2.983083e-001 1.795217e-001 1.008789e-001 1.209876e-001 -2.094099e-001 -6.034130e-001 -7.420570e-002 2.581959e-001 5.129105e-002 -1.549985e-001 -1.551263e-001 -2.038546e-001 2.594678e-001
<VARIANCE> 39
 1.123082e+002 2.797967e+001 1.535419e+001 2.851752e+001 3.958473e+001 4.931803e+001 3.226096e+001 5.384058e+001 1.029293e+002 2.272598e+001 2.023910e+001 1.687709e+001 2.388633e+002 3.426488e+000 3.523447e+000 2.365961e+000 2.882928e+000 3.410186e+000 5.091911e+000 2.455922e+000 2.014439e+000 2.442973e+000 3.687897e+000 2.048779e+000 1.932472e+000 2.683578e+000 3.662736e-001 5.451815e-001 4.421887e-001 4.794427e-001 5.666778e-001 1.202153e+000 6.136150e-001 5.963249e-001 7.052258e-001 6.537305e-001 4.192311e-001 3.351420e-001 6.723310e-001
<GCONST> 1.256560e+002
<STATE> 3
<MEAN> 39
 -1.923058e+000 -9.457221e-001 3.889380e+000 -7.553431e-001 4.888170e+000 -2.924079e+000 1.137473e+000 -2.175001e+000 -9.881866e+000 -3.544493e+000 2.756488e-001 -8.104680e-001 7.535950e+001 8.745797e-001 1.970640e+000 1.331711e+000 -7.540661e-001 -1.326664e+000 -9.136157e-001 6.806490e-002 2.308236e+000 1.395142e+000 -7.557595e-001 -1.528990e+000 -1.994068e+000 -2.583226e-001 -2.330779e-002 -7.948726e-004 8.914390e-002 1.313726e-001 -1.307105e-001 -1.055575e+000 -3.100468e-001 3.658227e-001 6.314555e-001 4.930059e-001 5.628545e-002 -1.831537e-001 2.021086e-001
<VARIANCE> 39
 2.701064e+001 2.208702e+001 1.272304e+001 1.563053e+001 3.501983e+001 3.062307e+001 1.615098e+001 4.403773e+001 1.107109e+002 2.257831e+001 3.672446e+001 2.593843e+001 5.438653e+001 3.199555e+000 9.237679e-001 1.774706e+000 3.692867e+000 1.915209e+000 5.523610e+000 2.730858e+000 3.327440e+000 5.211819e+000 2.358770e+000 1.987090e+000 1.924368e+000 1.792089e+000 7.221524e-002 3.990843e-001 1.980819e-001 3.055533e-001 4.501765e-001 4.505109e-001 3.465093e-001 5.441019e-001 8.979403e-001 7.581398e-001 5.162581e-001 3.069949e-001 4.755036e-001
<GCONST> 1.149628e+002
<STATE> 4
<MEAN> 39
 -1.153117e+000 7.953967e+000 1.179748e+001 4.239240e-001 2.743419e+000 -1.629245e+001 -5.114941e+000 5.881658e+000 -3.196280e+000 1.318115e+000 -2.298439e+000 -5.072852e+000 7.248818e+001 4.348456e-001 2.865985e-002 4.000360e-001 3.882766e-001 -9.012279e-001 -2.773698e+000 -8.911162e-001 6.166192e-001 6.795382e-001 5.078641e-001 -1.311472e-001 1.569284e-001 6.285416e-001 -2.921813e-002 -5.918934e-001 -4.145654e-001 -5.531559e-002 -1.937012e-001 6.190982e-002 2.376419e-001 -1.876071e-001 -5.737770e-002 -7.874811e-002 2.005769e-001 3.370768e-001 3.290450e-001
<VARIANCE> 39
 6.154208e+000 1.907646e+001 2.090429e+001 1.876896e+001 1.777433e+001 8.651794e+001 2.976445e+001 1.918593e+001 2.557843e+001 2.629873e+001 2.331260e+001 2.691918e+001 2.525644e+001 1.349071e+000 2.980004e+000 2.064405e+000 1.523225e+000 3.665944e+000 4.194293e+000 2.349777e+000 2.944789e+000 3.491580e+000 3.995569e+000 1.616813e+000 2.266540e+000 2.796463e+000 1.230760e-001 1.567378e-001 2.052162e-001 4.055450e-001 6.105880e-001 7.630666e-001 5.106169e-001 5.443756e-001 6.826022e-001 6.963735e-001 3.335532e-001 3.802159e-001 1.361528e-001
<GCONST> 1.111685e+002
<TRANSP> 5
 0.000000e+000 1.000000e+000 0.000000e+000 0.000000e+000 0.000000e+000
 0.000000e+000 4.478149e-001 5.521851e-001 0.000000e+000 0.000000e+000
 0.000000e+000 0.000000e+000 4.855294e-001 5.144706e-001 0.000000e+000
 0.000000e+000 0.000000e+000 0.000000e+000 8.284834e-001 1.715166e-001
 0.000000e+000 0.000000e+000 0.000000e+000 0.000000e+000 0.000000e+000
<ENDHMM>
~h "y"
<BEGINHMM>
<NUMSTATES> 5
<STATE> 2
<MEAN> 39
 -5.978138e+000 1.831634e+000 7.974050e+000 7.154427e+000 1.202114e+001 -1.692452e+000 1.764436e+000 5.037081e+000 -6.365291e+000 -2.294057e+000 1.392106e+000 -5.921878e+000 6.972269e+001 3.895036e-001 -8.581940e-001 1.904707e+000 6.046873e-001 1.500047e+000 -8.763408e-001 -7.473493e-001 -9.386209e-002 -1.807229e+000 -1.301409e+000 7.815428e-001 1.635569e-001 2.081791e+000 3.215741e-002 -6.046625e-001 -2.583739e-001 -2.799634e-001 -4.959676e-002 -3.813650e-001 -2.171918e-001 -1.277881e-001 -5.555774e-002 -1.362945e-001 2.807305e-001 2.192765e-001 2.729153e-001
<VARIANCE> 39
 4.250122e+001 1.972521e+001 4.188992e+001 8.150782e+001 3.900871e+001 3.206419e+001 1.806722e+001 3.070420e+001 3.586374e+001 3.349054e+001 2.620305e+001 3.011861e+001 7.203165e+001 2.838168e+000 1.614193e+000 4.637427e+000 6.607577e+000 2.735129e+000 3.561576e+000 1.833883e+000 2.338155e+000 3.124129e+000 2.247137e+000 3.189846e+000 3.514762e+000 2.248522e+000 2.677867e-001 3.327889e-001 4.428337e-001 4.542844e-001 3.270898e-001 4.051106e-001 1.924914e-001 5.488120e-001 5.238186e-001 4.289998e-001 3.377418e-001 3.520592e-001 3.635083e-001
<GCONST> 1.189616e+002
<STATE> 3
<MEAN> 39
 -8.582147e+000 -3.851805e+000 1.439309e+001 1.246585e+001 1.617238e+001 -2.901593e+000 8.682440e-001 1.588512e+000 -4.590842e+000 -6.878146e+000 2.390686e+000 -4.211907e+000 7.544109e+001 9.260778e-002 -1.208421e+000 -1.774447e-001 -5.909165e-001 3.115110e-001 -6.312605e-001 -8.970057e-001 -4.824395e-001 -6.135109e-001 -3.713675e-001 8.676946e-001 3.763932e-001 1.400166e+000 1.943959e-001 1.358766e-001 -4.669838e-001 -2.033605e-001 -1.855041e-001 -3.815866e-002 6.222705e-002 -2.872447e-002 -9.231544e-002 2.492866e-001 -5.891176e-002 2.832218e-002 -1.753184e-001
<VARIANCE> 39
 3.277431e+001 1.608692e+001 5.192334e+001 5.829905e+001 2.289256e+001 1.797713e+001 3.621532e+001 2.542112e+001 4.400967e+001 1.501941e+001 3.020754e+001 1.350865e+001 1.980274e+001 1.923274e+000 2.348956e+000 3.273527e+000 2.276783e+000 1.865905e+000 3.202010e+000 2.196217e+000 2.181246e+000 4.406436e+000 1.897162e+000 1.829290e+000 1.891875e+000 9.216039e-001 3.547191e-001 3.962176e-001 3.826111e-001 3.960389e-001 3.693841e-001 5.025080e-001 4.213184e-001 3.985278e-001 7.378826e-001 1.793106e-001 2.515661e-001 2.832986e-001 1.947426e-001
<GCONST> 1.108327e+002
<STATE> 4
<MEAN> 39
 -1.485012e+000 -5.646681e+000 3.701162e+000 1.080181e+000 1.292151e+001 -7.950596e+000 -4.679255e+000 3.457186e+000 -1.304903e+001 -6.471856e+000 7.820827e+000 -2.303586e+000 8.094201e+001 6.654755e-001 5.257151e-002 -9.826311e-001 -1.510457e+000 -1.555744e+000 -1.067355e+000 -3.016800e-002 7.380547e-001 4.449357e-001 9.892426e-002 -3.999581e-001 3.370113e-001 3.783757e-001 -1.199658e-002 1.962567e-001 1.147806e-001 -6.840536e-002 -3.961040e-001 -1.296995e-001 2.188955e-001 3.443911e-001 6.119472e-001 1.193164e-001 -2.786589e-001 -2.313624e-001 -1.873066e-001
<VARIANCE> 39
 7.400753e+000 1.075817e+001 2.358892e+001 3.602779e+001 4.034575e+001 4.295213e+001 1.361165e+001 3.720938e+001 3.018052e+001 2.001580e+001 3.526677e+001 1.711944e+001 9.721273e+000 5.739061e-001 7.997671e-001 8.478382e-001 1.705445e+000 2.494898e+000 2.419021e+000 1.666542e+000 2.613533e+000 4.605604e+000 1.933696e+000 2.647175e+000 1.835483e+000 3.706352e-001 8.422141e-002 1.796510e-001 1.635732e-001 2.948400e-001 3.471682e-001 4.496769e-001 3.005224e-001 3.546767e-001 5.395996e-001 2.876619e-001 5.352677e-001 2.799638e-001 8.741365e-002
<GCONST> 9.968295e+001
<TRANSP> 5
 0.000000e+000 1.000000e+000 0.000000e+000 0.000000e+000 0.000000e+000
 0.000000e+000 2.574233e-001 7.425768e-001 0.000000e+000 0.000000e+000
 0.000000e+000 0.000000e+000 7.189415e-001 2.810585e-001 0.000000e+000
 0.000000e+000 0.000000e+000 0.000000e+000 8.049850e-001 1.950150e-001
 0.000000e+000 0.000000e+000 0.000000e+000 0.000000e+000 0.000000e+000
<ENDHMM>
~h "z"
<BEGINHMM>
<NUMSTATES> 5
<STATE> 2
<MEAN> 39
 -2.407956e+001 -3.341162e+000 1.377299e+001 -1.103289e+001 2.296660e+000 3.052080e+000 7.032728e-001 -1.324576e+000 -1.587909e+000 -3.883365e+000 2.069443e+000 -2.495030e+000 7.667650e+001 -2.362773e+000 -2.256578e-001 -3.912368e-002 -2.053783e+000 -9.670483e-001 5.012494e-001 6.507255e-002 1.294859e-001 8.630617e-001 1.264437e-001 2.690500e-001 2.559416e-001 -8.140486e-002 5.062851e-001 -8.576597e-002 -1.984179e-001 4.893622e-001 2.210462e-001 -3.335560e-001 -1.042886e-002 -1.921649e-002 -2.970884e-001 5.255791e-002 -9.953048e-002 -9.114673e-002 -1.087062e-001
<VARIANCE> 39
 1.495442e+002 1.314416e+001 2.358003e+001 7.412484e+001 3.406461e+001 5.480442e+001 1.622729e+001 2.080458e+001 2.806845e+001 1.970817e+001 2.409101e+001 1.160599e+001 1.396360e+001 6.677227e+000 1.517892e+000 2.098256e+000 6.866343e+000 3.035728e+000 3.785033e+000 1.471506e+000 1.880153e+000 3.801719e+000 1.205806e+000 1.902136e+000 1.121631e+000 7.444305e-001 7.456996e-001 3.077262e-001 4.168669e-001 7.502027e-001 4.629904e-001 7.348716e-001 2.251312e-001 2.820404e-001 6.653329e-001 3.076091e-001 3.214380e-001 2.473740e-001 1.275168e-001
<GCONST> 1.124475e+002
<STATE> 3
<MEAN> 39
 -2.327030e+001 -6.150483e+000 1.167734e+001 -1.256797e+001 -2.148506e-001 -3.446113e-002 1.263071e+000 -7.060446e-001 -1.840481e+000 -4.265872e+000 1.181649e+000 -5.470701e-001 7.355491e+001 1.519861e+000 4.686663e-001 -2.708769e-001 1.098383e+000 5.951343e-001 5.771973e-001 6.375357e-001 -1.888194e-001 -1.332785e-002 1.352007e-001 -2.105896e-001 2.433276e-001 -1.226748e+000 4.355707e-001 2.881149e-001 -6.468202e-002 5.662981e-001 3.556107e-001 4.264656e-002 -2.460612e-002 3.264353e-001 -3.520470e-002 1.003075e-001 -1.777694e-001 -2.671407e-001 -2.953775e-001
<VARIANCE> 39
 1.379374e+002 1.494510e+001 2.087978e+001 4.816265e+001 2.368876e+001 3.960054e+001 2.110589e+001 2.111685e+001 3.285582e+001 2.071244e+001 2.270780e+001 1.383947e+001 2.479519e+001 3.425562e+000 1.249218e+000 1.256166e+000 1.818620e+000 2.597126e+000 1.857572e+000 1.984830e+000 1.608806e+000 2.434510e+000 2.292687e+000 1.542222e+000 1.236440e+000 8.591236e-001 3.435613e-001 1.733081e-001 2.390782e-001 3.588160e-001 3.996390e-001 2.785302e-001 2.961900e-001 4.092079e-001 4.841102e-001 4.467712e-001 3.051445e-001 3.545982e-001 9.884880e-002
<GCONST> 1.062249e+002
<STATE> 4
<MEAN> 39
 -1.518057e+001 -8.210093e-001 8.270526e+000 -4.943343e+000 3.581825e+000 2.501765e+000 2.716569e+000 1.367548e+000 -3.465120e+000 -2.837752e+000 5.102129e-001 -3.538967e-001 6.722736e+001 1.251560e+000 8.290222e-001 -8.103309e-001 1.863153e+000 8.803645e-001 2.275173e-001 -1.046096e-002 5.527235e-001 6.170553e-002 6.272615e-001 -3.767069e-002 -3.701819e-001 -1.161522e+000 -1.284066e-001 -2.294496e-001 -2.734500e-002 1.181203e-001 2.321970e-003 -2.311247e-001 -1.644629e-001 5.324382e-003 5.269053e-003 1.095200e-001 -6.475609e-002 -1.819743e-001 1.829601e-001
<VARIANCE> 39
 6.130065e+001 3.146219e+001 5.407212e+001 2.942515e+001 5.018709e+001 4.451707e+001 3.431683e+001 2.405326e+001 3.150649e+001 3.385279e+001 1.700798e+001 1.875400e+001 7.852982e+001 5.432210e+000 2.515791e+000 2.603951e+000 3.517802e+000 4.566328e+000 3.400288e+000 2.316296e+000 3.088931e+000 3.512198e+000 3.889628e+000 2.232044e+000 1.976638e+000 2.660338e+000 6.442345e-001 3.569556e-001 4.062988e-001 5.784198e-001 5.880747e-001 3.968174e-001 4.550802e-001 5.951585e-001 5.763393e-001 5.497833e-001 4.686731e-001 3.762774e-001 3.775001e-001
<GCONST> 1.232216e+002
<TRANSP> 5
 0.000000e+000 1.000000e+000 0.000000e+000 0.000000e+000 0.000000e+000
 0.000000e+000 7.718111e-001 2.281889e-001 0.000000e+000 0.000000e+000
 0.000000e+000 0.000000e+000 6.220697e-001 3.779303e-001 0.000000e+000
 0.000000e+000 0.000000e+000 0.000000e+000 6.806815e-001 3.193185e-001
 0.000000e+000 0.000000e+000 0.000000e+000 0.000000e+000 0.000000e+000
<ENDHMM>
~h "aa"
<BEGINHMM>
<NUMSTATES> 5
<STATE> 2
<MEAN> 39
 7.035544e-001 -2.462430e+000 3.377509e-001 -6.917884e+000 -4.300494e+000 -1.640771e+001 2.082546e+000 1.002735e+001 9.482471e+000 2.499884e+000 -1.346382e+000 2.588227e+000 7.886064e+001 7.942463e-001 -1.390875e+000 -1.186395e+000 -6.158359e-001 -6.598002e-001 -1.575677e+000 -1.438202e-001 1.930009e-001 -1.010057e+000 8.354485e-004 1.769369e-001 -2.420658e-001 1.333409e+000 -2.331021e-001 -2.349112e-002 -1.853745e-001 -7.269953e-002 3.256027e-001 6.500414e-001 -8.594723e-002 -1.844332e-001 -2.732139e-001 -1.945683e-001 3.151422e-001 -9.728225e-003 -2.326054e-001
<VARIANCE> 39
 3.613709e+000 1.677425e+001 1.415826e+001 1.200968e+001 1.077639e+001 2.663991e+001 1.431494e+001 1.588107e+001 2.760123e+001 9.260612e+000 9.998364e+000 1.042398e+001 1.680215e+001 5.816619e-001 1.458353e+000 9.959003e-001 1.542532e+000 1.302900e+000 2.428784e+000 9.993682e-001 1.548513e+000 2.044653e+000 1.010261e+000 1.527953e+000 1.102888e+000 8.276990e-001 1.214310e-001 3.904981e-001 2.114664e-001 2.606905e-001 1.672647e-001 3.162548e-001 2.356248e-001 2.277322e-001 3.531904e-001 1.567838e-001 1.931667e-001 2.245556e-001 1.320272e-001
<GCONST> 8.805972e+001
<STATE> 3
<MEAN> 39
 3.459925e+000 -4.833127e+000 -5.007050e+000 -1.057665e+001 -4.693913e+000 -1.410839e+001 2.913538e+000 8.008908e+000 -5.063065e-001 7.608488e-001 1.833684e+000 3.699017e+000 8.085083e+001 9.409486e-002 4.190475e-001 1.441439e-001 -4.990979e-001 1.094964e-001 1.568600e+000 3.568887e-001 -8.799794e-001 -1.680119e+000 -8.381062e-001 2.640594e-001 7.056587e-001 -2.387413e-001 -1.672621e-001 1.692324e-001 3.604428e-001 5.769697e-002 1.386465e-001 3.619663e-001 3.187894e-002 -3.219469e-002 -7.867736e-002 -2.924152e-001 -6.127922e-002 2.256336e-002 -1.163355e-001
<VARIANCE> 39
 6.049009e+000 6.266550e+000 8.500714e+000 1.868779e+001 9.149496e+000 3.757426e+001 1.217072e+001 2.626960e+001 3.272161e+001 1.454235e+001 1.230160e+001 1.901705e+001 7.794585e+000 4.863553e-001 4.027493e-001 1.525631e+000 8.304725e-001 6.865306e-001 1.502862e+000 8.252814e-001 1.099600e+000 1.735031e+000 1.590084e+000 5.745639e-001 7.777853e-001 1.990822e-001 4.320171e-002 9.303242e-002 1.037592e-001 1.515229e-001 1.440891e-001 2.149635e-001 1.620042e-001 2.266268e-001 1.441051e-001 1.967511e-001 1.188364e-001 1.765034e-001 6.014564e-002
<GCONST> 7.611030e+001
<STATE> 4
<MEAN> 39
 1.934001e+000 5.284243e-001 -1.222982e+000 -1.350492e+001 9.655588e-001 4.435923e-001 4.676057e+000 5.281826e+000 -1.195500e+001 -1.143465e+001 3.237429e+000 7.299388e+000 7.713483e+001 -1.117916e+000 1.319107e+000 6.205019e-001 1.460413e+000 1.996196e+000 1.606942e+000 5.141970e-003 -1.710084e-001 -7.307310e-003 -1.463404e+000 -4.056109e-001 -4.239032e-001 -1.142241e+000 -3.077906e-001 -2.063596e-001 -2.624165e-002 7.319822e-001 -3.495853e-002 -6.301644e-001 -2.961744e-001 -2.760216e-001 9.276227e-001 8.976739e-001 -2.735532e-002 -3.409520e-001 1.193207e-001
<VARIANCE> 39
 5.831081e+000 2.042616e+001 9.023854e+000 2.673458e+001 3.420611e+001 6.589154e+001 1.343139e+001 2.339293e+001 4.840696e+001 4.128989e+001 1.760743e+001 1.592670e+001 1.928653e+001 8.543949e-001 1.387727e+000 1.572448e+000 3.546656e+000 1.981657e+000 2.992834e+000 1.394150e+000 2.423124e+000 7.119371e+000 4.927495e+000 1.519429e+000 1.230891e+000 1.099870e+000 1.161635e-001 5.463760e-001 2.752352e-001 3.607940e-001 7.879266e-001 5.899169e-001 3.651486e-001 5.857702e-001 6.527000e-001 6.396728e-001 4.207417e-001 2.126941e-001 5.531779e-001
<GCONST> 1.095205e+002
<TRANSP> 5
 0.000000e+000 1.000000e+000 0.000000e+000 0.000000e+000 0.000000e+000
 0.000000e+000 7.236630e-001 2.763370e-001 0.000000e+000 0.000000e+000
 0.000000e+000 0.000000e+000 8.429412e-001 1.570587e-001 0.000000e+000
 0.000000e+000 0.000000e+000 0.000000e+000 6.713700e-001 3.286300e-001
 0.000000e+000 0.000000e+000 0.000000e+000 0.000000e+000 0.000000e+000
<ENDHMM>
~h "ae"
<BEGINHMM>
<NUMSTATES> 5
<STATE> 2
<MEAN> 39
 -9.127419e+000 -1.657271e-001 3.013474e+000 -1.719616e+000 -3.808155e+000 -6.646112e+000 5.657866e+000 5.219618e-001 -8.931719e-001 -2.358927e+000 -3.683958e+000 5.237227e+000 6.594873e+001 -2.257066e-001 -3.558789e-001 -1.816981e+000 -3.280108e-001 -1.206414e+000 -4.288547e-001 -3.090270e-002 8.281726e-001 5.142078e-001 1.026014e+000 3.764026e-001 -1.413073e-001 -1.488563e+000 -1.533312e-002 -7.584939e-002 -2.770779e-002 3.028000e-001 2.346317e-001 3.145774e-001 7.510298e-002 3.274485e-001 3.106641e-001 2.312315e-001 1.762307e-002 -5.424000e-001 8.870252e-002
<VARIANCE> 39
 2.673517e+001 1.326410e+001 2.795385e+001 1.753568e+001 3.305030e+001 2.962852e+001 3.335928e+001 1.745793e+001 3.105782e+001 2.359055e+001 4.231495e+001 2.103226e+001 6.616123e+001 4.048830e+000 2.007385e+000 1.761947e+000 2.081531e+000 3.150482e+000 4.325399e+000 3.608590e+000 1.711562e+000 3.743172e+000 2.929481e+000 3.686344e+000 3.324761e+000 3.352846e+000 7.881657e-001 4.307801e-001 4.443808e-001 6.963637e-001 7.846751e-001 8.738876e-001 9.124627e-001 3.459463e-001 6.550042e-001 7.085519e-001 8.328857e-001 1.143767e+000 1.166914e+000
<GCONST> 1.240698e+002
<STATE> 3
<MEAN> 39
 -6.998992e+000 -3.578824e+000 -3.107340e+000 -2.016681e+000 -7.919782e+000 -7.115647e+000 9.378586e+000 6.440841e+000 4.012236e+000 2.593194e+000 -2.571862e+000 3.210594e+000 6.661532e+001 1.950093e+000 -1.038419e+000 -7.472083e-001 5.648869e-002 -5.294055e-001 -1.461043e+000 1.465520e+000 1.095414e+000 2.647893e-001 6.578665e-001 -5.084347e-001 2.000619e-001 2.153823e+000 2.112522e-001 -1.241371e-003 1.754626e-001 1.343252e-003 4.730570e-001 -1.542095e-001 -1.779713e-001 -1.537138e-001 -2.984568e-001 -3.167371e-001 1.001471e-002 2.098458e-001 4.445098e-001
<VARIANCE> 39
 3.484521e+001 2.568415e+001 1.193519e+001 1.807285e+001 3.773468e+001 3.337764e+001 3.962175e+001 3.106417e+001 3.074664e+001 1.498728e+001 3.104464e+001 1.306013e+001 7.651714e+001 3.222222e+000 2.507208e+000 1.393970e+000 1.552882e+000 3.474749e+000 3.374619e+000 3.669044e+000 3.197859e+000 2.935481e+000 1.717641e+000 2.411125e+000 1.682549e+000 5.435678e+000 6.402473e-001 5.574151e-001 2.781456e-001 2.796437e-001 5.798644e-001 5.975952e-001 8.819246e-001 5.670661e-001 6.002201e-001 3.017419e-001 6.242533e-001 3.134130e-001 7.582521e-001
<GCONST> 1.181205e+002
<STATE> 4
<MEAN> 39
 1.258838e+000 -9.051196e+000 -6.165337e+000 -1.109038e+000 -2.495421e-001 -1.327556e+001 7.673574e+000 5.738173e+000 -3.017454e+000 1.398234e+000 2.448110e+000 4.359239e+000 8.134285e+001 8.621225e-002 3.362474e-001 1.758739e-001 4.152404e-001 1.005471e+000 1.887027e-001 -1.350560e-001 -3.845864e-001 -8.395974e-001 -3.605592e-001 4.971165e-001 -2.758156e-001 2.026262e-001 -2.612272e-001 3.344350e-001 2.916802e-001 2.836000e-001 1.338470e-001 4.867203e-001 -4.056419e-002 -1.575160e-001 -2.917208e-003 -4.488442e-003 -1.415705e-001 -3.385969e-001 -5.087194e-001
<VARIANCE> 39
 5.818293e+000 1.481609e+001 1.321113e+001 1.831369e+001 2.932127e+001 1.635155e+001 4.140007e+001 3.001468e+001 3.221969e+001 2.446907e+001 3.673320e+001 1.316646e+001 2.340020e+001 7.952609e-001 1.833435e+000 1.355624e+000 2.149442e+000 1.985392e+000 2.516214e+000 1.494857e+000 2.865571e+000 1.565874e+000 1.339282e+000 1.380133e+000 1.689778e+000 1.842384e+000 1.888732e-001 1.679891e-001 1.381179e-001 2.638304e-001 2.309506e-001 3.971013e-001 2.826547e-001 4.382394e-001 2.681352e-001 2.526188e-001 4.203716e-001 2.867236e-001 2.160521e-001
<GCONST> 1.000522e+002
<TRANSP> 5
 0.000000e+000 1.000000e+000 0.000000e+000 0.000000e+000 0.000000e+000
 0.000000e+000 6.767336e-001 3.232665e-001 0.000000e+000 0.000000e+000
 0.000000e+000 0.000000e+000 7.543501e-001 2.456499e-001 0.000000e+000
 0.000000e+000 0.000000e+000 0.000000e+000 8.647042e-001 1.352959e-001
 0.000000e+000 0.000000e+000 0.000000e+000 0.000000e+000 0.000000e+000
<ENDHMM>
~h "ah"
<BEGINHMM>
<NUMSTATES> 5
<STATE> 2
<MEAN> 39
 -5.821651e+000 1.927961e+000 3.429629e+000 -5.667160e-001 -1.220378e+000 -1.005411e+001 3.565841e+000 6.962333e+000 -1.167874e+000 -2.987348e+000 -2.197228e+000 -9.960477e-001 6.854537e+001 4.797015e-001 -1.113456e+000 -3.238785e-001 -7.795224e-001 -1.152741e+000 -1.634566e+000 5.560984e-001 5.461287e-002 -6.445866e-002 4.006013e-001 -5.479202e-001 4.921843e-001 1.549464e+000 3.389327e-001 -3.333651e-001 4.717501e-002 -2.012518e-002 -2.221825e-001 -4.425662e-001 6.215926e-002 1.350759e-001 -2.547774e-001 4.732671e-002 -2.351829e-002 -1.201110e-001 6.184565e-001
<VARIANCE> 39
 4.850943e+001 4.148234e+001 3.406116e+001 7.223170e+001 4.524477e+001 1.091269e+002 4.947855e+001 4.562502e+001 4.643011e+001 5.074647e+001 3.184579e+001 2.412637e+001 1.064987e+002 4.382872e+000 2.014516e+000 2.401464e+000 4.119743e+000 5.813120e+000 7.602370e+000 4.981156e+000 3.925602e+000 7.810399e+000 3.935480e+000 3.487680e+000 2.227698e+000 6.502719e+000 6.456857e-001 2.921360e-001 3.566834e-001 1.002286e+000 8.230597e-001 1.243798e+000 8.407413e-001 5.758454e-001 1.138722e+000 8.056241e-001 5.712234e-001 5.146585e-001 1.039758e+000
<GCONST> 1.363056e+002
<STATE> 3
<MEAN> 39
 -1.026521e+000 -4.743255e+000 3.379006e+000 -2.227329e+000 -7.318223e+000 -2.184460e+001 4.732649e+000 9.125354e+000 -1.996863e+000 -1.603590e-001 -4.340962e+000 9.943348e-001 7.896525e+001 8.807580e-001 -1.314599e+000 -9.561930e-001 -8.185889e-001 -6.786793e-001 -1.611406e+000 5.376534e-001 8.926249e-001 2.735550e-001 7.974412e-001 -2.125381e-001 5.492729e-001 1.748408e+000 -2.850001e-001 2.602901e-001 8.310674e-002 1.365337e-001 5.603690e-001 8.209804e-001 -8.580936e-002 -1.446056e-001 -4.509193e-002 -3.007849e-001 4.398418e-002 -1.508517e-001 -4.865818e-001
<VARIANCE> 39
 7.145116e+000 1.421079e+001 2.474122e+001 2.149047e+001 5.281014e+001 7.558157e+001 3.522433e+001 4.736298e+001 4.560037e+001 2.501366e+001 3.410255e+001 2.208889e+001 3.591591e+001 1.754846e+000 1.326268e+000 2.093855e+000 2.891516e+000 3.519311e+000 6.138510e+000 3.297745e+000 2.458888e+000 3.179503e+000 2.631315e+000 2.100525e+000 1.747991e+000 5.458499e+000 2.677676e-001 1.656503e-001 2.950527e-001 4.909954e-001 6.091347e-001 7.107428e-001 5.684153e-001 4.218822e-001 6.256092e-001 4.637583e-001 4.247752e-001 3.331205e-001 6.280623e-001
<GCONST> 1.174930e+002
<STATE> 4
<MEAN> 39
 5.101216e-001 -6.869256e+000 2.133201e-001 -3.650634e+000 -3.163803e+000 -2.127342e+001 6.684153e+000 1.114097e+001 -4.154623e+000 -1.383159e+000 -3.333291e+000 1.088239e+000 8.300220e+001 -7.525001e-002 2.958621e-001 8.068848e-004 4.339842e-001 7.183847e-001 8.547907e-001 2.457225e-001 -5.333225e-001 -8.087131e-001 -4.963523e-001 4.167650e-001 -2.817381e-001 -2.390439e-001 -9.025314e-002 2.050365e-001 1.358216e-001 1.961190e-001 8.449736e-002 2.086026e-001 9.049857e-003 -1.213516e-001 -1.284795e-002 -8.655375e-002 5.807345e-002 -1.120865e-001 -2.556091e-001
<VARIANCE> 39
 3.386092e+000 6.168183e+000 1.091818e+001 8.913684e+000 1.582417e+001 4.832726e+001 1.934430e+001 6.954119e+001 3.773963e+001 1.200553e+001 2.438162e+001 2.129395e+001 1.222542e+001 2.288047e-001 5.927245e-001 4.896555e-001 8.662202e-001 1.153846e+000 1.199098e+000 1.110731e+000 1.682929e+000 1.284286e+000 8.430429e-001 1.000723e+000 1.027561e+000 4.813942e-001 4.558687e-002 6.910435e-002 7.066219e-002 1.155392e-001 1.574307e-001 2.085789e-001 1.751853e-001 3.005443e-001 2.855462e-001 1.787491e-001 1.449799e-001 1.442263e-001 1.064836e-001
<GCONST> 7.947002e+001
<TRANSP> 5
 0.000000e+000 1.000000e+000 0.000000e+000 0.000000e+000 0.000000e+000
 0.000000e+000 5.287157e-001 4.712843e-001 0.000000e+000 0.000000e+000
 0.000000e+000 0.000000e+000 6.287122e-001 3.712878e-001 0.000000e+000
 0.000000e+000 0.000000e+000 0.000000e+000 8.935190e-001 1.064810e-001
 0.000000e+000 0.000000e+000 0.000000e+000 0.000000e+000 0.000000e+000
<ENDHMM>
~h "ao"
<BEGINHMM>
<NUMSTATES> 5
<STATE> 2
<MEAN> 39
 -5.733471e-001 -2.066714e+000 3.443177e+000 -3.038251e+000 -5.406925e+000 -2.225588e+001 -3.986017e+000 1.023940e+001 1.709945e+000 -1.036035e+000 -3.648082e-001 -1.891931e+000 8.040082e+001 1.714487e+000 -5.709421e-001 -5.967207e-001 -1.047381e-001 -1.630524e+000 -4.105202e+000 -4.983726e-001 1.499066e+000 1.882536e+000 1.231924e+000 3.423144e-001 -4.721695e-001 1.513552e+000 -1.002073e+000 -1.687762e-001 -1.082221e-001 -1.385334e-001 3.491787e-001 8.111106e-001 3.470120e-001 -5.764810e-001 1.496151e-001 -2.411587e-002 2.324620e-001 1.246678e-001 -2.272236e-001
<VARIANCE> 39
 2.670676e+001 1.365813e+001 2.981711e+001 1.293973e+001 2.877369e+001 8.876888e+001 4.311141e+001 2.451381e+001 3.441737e+001 3.070109e+001 1.568069e+001 1.531207e+001 5.243541e+001 5.228655e+000 1.115449e+000 1.830670e+000 1.617456e+000 2.484695e+000 6.825519e+000 2.816898e+000 2.488689e+000 2.832423e+000 2.686547e+000 1.362603e+000 1.131262e+000 3.331667e+000 1.101152e+000 2.890638e-001 4.120997e-001 5.092304e-001 3.846557e-001 1.521564e+000 7.820977e-001 3.881312e-001 3.490204e-001 5.629784e-001 2.604439e-001 1.750824e-001 4.166946e-001
<GCONST> 1.160123e+002
<STATE> 3
<MEAN> 39
 1.842512e+000 -3.206731e+000 1.533402e+000 -4.566543e+000 -8.448997e+000 -2.870430e+001 -5.617533e+000 1.102793e+001 6.389199e+000 2.722003e+000 3.290066e+000 -3.572721e+000 8.218537e+001 9.565476e-002 5.119919e-002 -4.634557e-002 -1.168388e-001 -3.473584e-001 -1.260583e-001 4.972236e-002 7.336817e-002 2.055244e-001 3.991265e-001 1.000282e-001 3.721727e-002 -1.919690e-001 -3.276677e-002 7.699454e-002 7.144286e-002 2.579528e-002 1.349868e-001 3.374178e-001 5.930046e-002 -8.542731e-002 -3.114568e-001 -1.044812e-001 -8.935757e-002 3.153083e-002 -9.290674e-002
<VARIANCE> 39
 3.429600e+000 8.677366e+000 1.400291e+001 7.604909e+000 1.293347e+001 3.213697e+001 2.519071e+001 2.509049e+001 1.120552e+001 1.341912e+001 1.914260e+001 1.596063e+001 6.529066e+000 1.073763e-001 1.381401e-001 6.365637e-001 4.208434e-001 8.527565e-001 1.977948e+000 7.151084e-001 7.468513e-001 2.132814e+000 6.889620e-001 8.531929e-001 6.467360e-001 1.583277e-001 2.763047e-002 3.350353e-002 6.964916e-002 1.037919e-001 1.090747e-001 2.299098e-001 1.320874e-001 1.334046e-001 2.220305e-001 1.291188e-001 7.838841e-002 1.026696e-001 3.172339e-002
<GCONST> 6.567933e+001
<STATE> 4
<MEAN> 39
 1.158351e+000 -7.725336e-001 3.600359e+000 -5.682800e+000 -1.297673e+001 -2.277234e+001 -5.917985e-001 1.008383e+001 2.337400e+000 3.890975e+000 1.276034e+000 -1.054141e+000 7.852666e+001 -2.254747e-001 5.475979e-001 2.343762e-001 6.756559e-004 2.484874e-001 1.310142e+000 6.742189e-001 -2.387445e-001 -4.188705e-001 -3.458332e-001 -4.083915e-001 1.388980e-001 -5.786869e-001 -1.384662e-001 5.557306e-002 3.257867e-002 8.225649e-002 7.118148e-002 1.635712e-001 4.642779e-002 4.867968e-002 9.008331e-002 -1.071338e-001 -1.136949e-003 6.612493e-002 -9.434038e-002
<VARIANCE> 39
 8.144716e+000 3.846930e+001 3.442756e+001 2.211838e+001 3.350487e+001 1.025296e+002 2.841270e+001 3.166600e+001 2.769788e+001 1.477060e+001 2.817623e+001 1.919375e+001 3.915110e+001 4.405036e-001 7.478298e-001 8.953676e-001 9.452974e-001 1.204273e+000 2.594502e+000 1.395559e+000 9.907268e-001 1.496874e+000 1.259794e+000 8.502003e-001 7.994564e-001 5.065164e-001 8.418814e-002 9.363102e-002 1.321700e-001 1.608154e-001 1.750459e-001 3.440633e-001 1.908673e-001 1.745440e-001 2.365421e-001 1.704337e-001 2.047833e-001 1.336484e-001 8.426205e-002
<GCONST> 9.054334e+001
<TRANSP> 5
 0.000000e+000 1.000000e+000 0.000000e+000 0.000000e+000 0.000000e+000
 0.000000e+000 5.938491e-001 4.061509e-001 0.000000e+000 0.000000e+000
 0.000000e+000 0.000000e+000 8.948746e-001 1.051254e-001 0.000000e+000
 0.000000e+000 0.000000e+000 0.000000e+000 8.817692e-001 1.182307e-001
 0.000000e+000 0.000000e+000 0.000000e+000 0.000000e+000 0.000000e+000
<ENDHMM>
~h "aw"
<BEGINHMM>
<NUMSTATES> 5
<STATE> 2
<MEAN> 39
 -2.287030e+001 -2.624985e+000 5.382264e+000 -8.835607e+000 7.035575e+000 -8.010416e-001 1.705798e+000 1.176723e+000 2.135294e+000 -2.496931e+000 1.358297e+000 7.324897e-001 7.104330e+001 4.340058e+000 7.528056e-001 5.614560e-001 1.038141e+000 -2.570031e+000 -2.432047e+000 -4.894751e-001 4.972180e-001 -4.671561e-001 -2.071279e+000 -5.053740e-001 -6.385950e-001 1.449307e+000 1.215387e+000 -7.696359e-002 2.894001e-002 2.176350e-001 -1.074935e+000 -1.202711e+000 7.167821e-002 7.461024e-001 -1.611810e-001 -4.585941e-001 2.768262e-002 -2.982817e-001 9.237100e-001
<VARIANCE> 39
 5.118333e+001 1.215506e+001 9.370278e+000 9.936449e+000 1.973740e+001 2.276440e+001 2.306984e+001 2.219339e+001 1.380359e+001 2.073696e+001 1.039496e+001 1.011736e+001 2.196086e+001 5.119668e+000 1.629625e+000 1.255756e+000 1.832700e+000 4.189357e+000 4.015328e+000 2.006380e+000 3.399510e+000 1.598221e+000 3.303997e+000 1.697731e+000 1.553499e+000 1.915001e+000 4.693209e-001 3.306923e-001 2.082619e-001 2.816701e-001 4.584193e-001 6.803774e-001 3.892363e-001 5.498278e-001 2.845512e-001 5.990547e-001 2.468138e-001 2.698931e-001 2.847277e-001
<GCONST> 1.062328e+002
<STATE> 3
<MEAN> 39
 -3.904207e+000 -1.500826e+000 6.449877e+000 -5.421547e+000 -6.089451e+000 -1.544090e+001 7.778894e-001 8.127497e+000 3.246880e-001 -1.101776e+001 7.361363e-001 -2.957670e+000 8.058978e+001 4.146847e+000 -1.464853e+000 -7.826037e-001 1.512100e-001 -3.688590e+000 -5.189981e+000 1.926991e-001 3.072987e+000 3.137776e-001 -3.946134e-001 7.536080e-001 -1.059548e+000 2.805414e+000 -1.267044e+000 -4.885224e-001 -2.297192e-001 -3.523089e-001 3.575653e-001 3.749757e-001 1.678767e-001 -1.959257e-002 6.326543e-001 1.188426e+000 1.050891e-001 2.280629e-001 -5.657771e-001
<VARIANCE> 39
 2.150009e+001 1.854585e+001 1.054498e+001 9.502072e+000 2.583625e+001 4.831253e+001 1.406956e+001 3.357704e+001 1.461313e+001 1.457701e+001 1.205781e+001 8.224401e+000 2.001651e+001 5.597596e+000 1.558923e+000 1.047650e+000 1.279483e+000 2.446244e+000 2.731106e+000 1.292783e+000 1.666383e+000 1.856439e+000 5.187682e+000 1.356440e+000 1.040259e+000 1.599163e+000 4.019353e-001 3.821020e-001 2.511234e-001 2.346963e-001 4.701375e-001 8.715397e-001 2.448605e-001 7.005643e-001 2.740497e-001 4.242268e-001 3.637509e-001 2.159679e-001 4.115806e-001
<GCONST> 1.037760e+002
<STATE> 4
<MEAN> 39
 -1.038298e+000 -4.034922e+000 8.501403e+000 -3.676818e+000 -9.337309e+000 -2.289475e+001 2.288651e+000 1.467718e+001 -2.087734e-002 -5.944927e+000 -2.733748e+000 -5.017218e+000 8.023779e+001 9.208238e-003 9.852428e-002 1.662892e-001 2.908145e-001 4.124141e-001 4.030452e-001 1.338203e-001 -2.086986e-001 -6.392324e-001 -9.011985e-003 -3.509020e-001 6.975967e-002 -2.074584e-001 -8.675444e-002 1.273007e-001 1.129133e-002 4.325762e-002 1.787116e-001 2.893429e-001 4.549634e-002 -2.082700e-001 -7.480005e-002 -4.058596e-002 1.890490e-002 4.489323e-002 -1.022628e-001
<VARIANCE> 39
 5.084136e+000 1.045371e+001 1.225858e+001 1.285629e+001 6.106724e+001 5.447675e+001 1.474805e+001 1.390298e+001 5.707222e+001 3.314178e+001 2.696640e+001 1.513904e+001 1.910629e+001 3.491088e-001 9.810860e-001 8.593686e-001 8.626905e-001 3.288665e+000 4.231805e+000 1.335487e+000 2.156501e+000 2.833525e+000 2.759126e+000 1.231134e+000 1.688732e+000 1.417367e+000 1.025768e-001 2.035604e-001 1.625381e-001 1.783503e-001 3.712201e-001 6.184577e-001 2.757492e-001 3.381189e-001 4.548486e-001 4.320429e-001 2.270883e-001 3.093301e-001 3.519607e-001
<GCONST> 9.952673e+001
<TRANSP> 5
 0.000000e+000 1.000000e+000 0.000000e+000 0.000000e+000 0.000000e+000
 0.000000e+000 6.030750e-001 3.969249e-001 0.000000e+000 0.000000e+000
 0.000000e+000 0.000000e+000 6.599150e-001 3.400850e-001 0.000000e+000
 0.000000e+000 0.000000e+000 0.000000e+000 9.469843e-001 5.301569e-002
 0.000000e+000 0.000000e+000 0.000000e+000 0.000000e+000 0.000000e+000
<ENDHMM>
~h "ax"
<BEGINHMM>
<NUMSTATES> 5
<STATE> 2
<MEAN> 39
 -9.570446e+000 -4.031942e+000 3.494880e+000 1.390557e+000 4.186778e+000 -4.012926e+000 1.483087e+000 4.073690e+000 -1.194706e+000 -3.703880e+000 9.317090e-001 7.178745e-001 7.490112e+001 7.071087e-001 -2.132298e-001 1.419872e-001 1.591751e-001 -3.227522e-001 -6.941105e-001 7.605097e-002 7.561909e-002 -3.257077e-001 -1.394266e-001 -2.101355e-001 -4.292687e-002 8.796855e-001 -7.495183e-002 -4.821792e-003 -7.282528e-002 -1.781443e-002 2.773695e-002 1.229008e-001 -2.916908e-002 -6.398061e-002 6.857735e-002 4.685672e-002 1.379773e-002 2.689455e-002 -9.768574e-002
<VARIANCE> 39
 9.618251e+001 4.712980e+001 2.814767e+001 4.646382e+001 7.908722e+001 8.016910e+001 3.387196e+001 5.207936e+001 7.211895e+001 5.284927e+001 2.430823e+001 2.306957e+001 9.611851e+001 5.376781e+000 3.209247e+000 3.202001e+000 2.519030e+000 3.864384e+000 4.516623e+000 2.300199e+000 3.109590e+000 4.596848e+000 3.718458e+000 2.370689e+000 1.946295e+000 4.654898e+000 7.731890e-001 6.040177e-001 5.966942e-001 4.745850e-001 6.494530e-001 7.446979e-001 4.544957e-001 5.277653e-001 7.278715e-001 6.414702e-001 4.460038e-001 3.393328e-001 6.284015e-001
<GCONST> 1.310202e+002
<STATE> 3
<MEAN> 39
 -1.207237e+000 -1.266674e+000 4.008400e+000 2.372192e-001 1.919517e+000 -7.451663e+000 4.559032e+000 4.612567e+000 -8.319685e+000 -4.022447e+000 -6.049286e-001 1.761201e+000 7.620645e+001 -4.798548e-001 3.843403e-001 -6.597850e-002 2.639661e-001 1.993644e-001 6.688085e-001 4.392619e-001 -3.146259e-001 4.440709e-001 3.410527e-001 -7.992958e-002 8.451279e-002 -7.425469e-001 -2.382724e-001 1.338500e-001 4.589166e-003 2.187033e-002 1.315097e-001 3.117836e-001 1.859314e-002 -1.091256e-001 2.738999e-001 8.867162e-002 4.568982e-002 -1.123531e-001 -2.963857e-001
<VARIANCE> 39
 1.881597e+001 3.457371e+001 1.379146e+001 4.922810e+001 6.468051e+001 7.741819e+001 4.324676e+001 5.622820e+001 4.430644e+001 6.229746e+001 2.773719e+001 2.534979e+001 6.485621e+001 1.522497e+000 1.314846e+000 1.322862e+000 2.320469e+000 1.980310e+000 2.749273e+000 2.543884e+000 2.452419e+000 2.892486e+000 2.673068e+000 1.412211e+000 1.256392e+000 1.680402e+000 2.149306e-001 2.241428e-001 2.308825e-001 4.405944e-001 3.251285e-001 6.406174e-001 3.643905e-001 3.926505e-001 4.923767e-001 3.937133e-001 3.119181e-001 2.774831e-001 2.352945e-001
<GCONST> 1.137539e+002
<STATE> 4
<MEAN> 39
 -1.459017e+000 3.551776e-001 2.921225e-001 -5.500592e+000 -3.736161e+000 -4.845250e+000 5.583543e+000 4.701228e+000 -3.386027e+000 -2.216297e+000 -1.898810e+000 3.046594e+000 7.170682e+001 -4.393867e-001 3.200639e-001 5.256268e-002 3.393833e-001 3.819092e-001 5.416316e-001 2.740853e-001 1.118399e-003 1.614328e-001 2.080732e-001 8.791407e-002 -1.068295e-001 -6.459026e-001 -5.967738e-002 2.505117e-002 2.642848e-002 4.781052e-002 8.013985e-002 4.446418e-002 -5.533160e-002 2.895036e-002 1.426777e-002 3.259545e-003 1.663024e-002 -6.995210e-002 -7.283530e-002
<VARIANCE> 39
 4.667330e+001 4.287354e+001 2.139750e+001 5.151280e+001 5.210823e+001 1.412290e+002 2.449931e+001 4.830331e+001 8.596081e+001 3.160332e+001 2.132366e+001 1.799341e+001 8.911797e+001 1.121782e+000 1.158848e+000 8.099767e-001 1.278535e+000 1.122989e+000 1.558312e+000 1.268307e+000 1.628171e+000 2.420326e+000 1.706356e+000 1.224196e+000 1.023873e+000 7.392204e-001 9.727371e-002 1.545707e-001 1.329136e-001 2.548627e-001 1.859529e-001 2.812093e-001 2.216410e-001 2.278240e-001 3.373842e-001 2.506671e-001 2.356421e-001 1.836063e-001 9.773044e-002
<GCONST> 1.020793e+002
<TRANSP> 5
 0.000000e+000 1.000000e+000 0.000000e+000 0.000000e+000 0.000000e+000
 0.000000e+000 7.867079e-001 2.132921e-001 0.000000e+000 0.000000e+000
 0.000000e+000 0.000000e+000 5.715978e-001 4.284022e-001 0.000000e+000
 0.000000e+000 0.000000e+000 0.000000e+000 8.062390e-001 1.937611e-001
 0.000000e+000 0.000000e+000 0.000000e+000 0.000000e+000 0.000000e+000
<ENDHMM>
~h "ay"
<BEGINHMM>
<NUMSTATES> 5
<STATE> 2
<MEAN> 39
 -5.826696e+000 -1.414750e+000 -2.793992e-001 -1.266665e+000 -2.506315e+000 -8.239245e+000 5.297607e+000 8.293818e+000 3.847705e+000 -2.769253e-001 7.252401e-001 -2.326042e-001 7.149503e+001 2.189036e+000 -1.544679e+000 -1.572631e+000 -1.116124e+000 -2.550598e+000 -3.232429e+000 1.102852e+000 1.408933e+000 4.444805e-001 -3.376580e-001 -5.336928e-001 7.717537e-001 2.673656e+000 2.329879e-001 -4.287188e-001 -2.607338e-001 2.385211e-001 1.451353e-001 7.614248e-002 1.904315e-001 -1.731061e-002 1.683991e-002 1.799982e-001 -3.010279e-001 -2.887302e-002 9.293857e-002
<VARIANCE> 39
 6.232724e+001 2.082096e+001 2.146626e+001 2.837371e+001 5.204733e+001 1.133111e+002 3.016140e+001 3.258170e+001 5.678515e+001 2.921205e+001 4.585884e+001 1.410990e+001 1.072973e+002 3.910854e+000 2.149665e+000 2.386259e+000 6.444949e+000 2.681924e+000 4.770655e+000 2.575614e+000 3.452689e+000 4.029822e+000 2.515720e+000 4.482263e+000 3.673397e+000 2.872072e+000 8.489339e-001 3.031161e-001 3.645795e-001 7.368909e-001 7.485527e-001 1.591541e+000 5.802577e-001 5.560881e-001 5.581669e-001 6.210837e-001 7.343918e-001 5.534439e-001 5.931651e-001
<GCONST> 1.290512e+002
<STATE> 3
<MEAN> 39
 2.447567e+000 -9.137609e+000 -5.613721e+000 -2.944729e+000 -8.019454e+000 -1.794797e+001 8.616282e+000 1.277953e+001 6.025901e+000 -3.904591e-001 -2.981276e+000 9.936994e-001 8.179494e+001 5.809125e-001 -1.341607e+000 -1.116900e+000 -5.568095e-001 7.757664e-003 9.325515e-002 4.757835e-001 1.278805e-001 3.722053e-001 -3.148875e-002 -5.017437e-001 2.601311e-001 1.016930e+000 -3.378622e-001 3.771628e-001 2.007478e-001 1.792144e-001 5.769150e-001 6.790332e-001 -2.652792e-001 -4.628870e-001 -2.938902e-001 6.029385e-002 2.332423e-001 -1.319256e-001 -4.595798e-001
<VARIANCE> 39
 4.235409e+000 1.070980e+001 1.341259e+001 1.038947e+001 3.962967e+001 4.762726e+001 3.024192e+001 4.260144e+001 4.745533e+001 1.296993e+001 3.437505e+001 1.634088e+001 1.257382e+001 9.183341e-001 1.222217e+000 6.777069e-001 9.094527e-001 1.655372e+000 3.070127e+000 1.556698e+000 2.405960e+000 1.484682e+000 1.395066e+000 1.368607e+000 8.364735e-001 1.888515e+000 2.518112e-001 1.928745e-001 1.470830e-001 3.180221e-001 2.502281e-001 5.875320e-001 2.606227e-001 3.500715e-001 3.491443e-001 2.494677e-001 3.470511e-001 2.318052e-001 1.838529e-001
<GCONST> 9.744177e+001
<STATE> 4
<MEAN> 39
 1.995118e+000 -1.044147e+001 -6.753613e+000 -1.939250e+000 4.658390e-001 -1.356241e+001 3.911193e+000 2.908154e+000 -2.599453e+000 1.134077e+000 2.888596e+000 2.999203e+000 8.292290e+001 -2.229198e-001 2.695136e-001 5.112514e-001 5.033472e-001 1.025667e+000 3.500586e-001 -7.445911e-001 -1.170242e+000 -1.228488e+000 7.315667e-002 5.766025e-001 6.346311e-002 -1.918440e-001 -4.880184e-002 1.225109e-001 1.708426e-001 6.202979e-002 -9.830211e-003 8.992092e-003 -5.010352e-003 4.257142e-002 -1.050784e-002 -6.908230e-002 -9.227382e-002 -1.049622e-001 -8.199921e-002
<VARIANCE> 39
 4.274708e+000 8.919103e+000 2.032624e+001 2.641998e+001 4.644403e+001 2.320141e+001 3.759134e+001 9.254488e+001 6.866441e+001 1.714235e+001 4.009841e+001 2.002795e+001 9.505003e+000 2.507128e-001 4.485167e-001 1.245337e+000 1.202479e+000 1.081870e+000 1.366812e+000 1.519644e+000 1.929527e+000 1.848431e+000 1.102768e+000 2.581063e+000 1.254818e+000 2.568967e-001 3.527371e-002 5.578246e-002 1.373249e-001 1.608238e-001 1.379001e-001 2.340738e-001 2.320751e-001 2.771299e-001 2.780173e-001 1.765393e-001 3.983746e-001 2.121804e-001 2.418560e-002
<GCONST> 8.753782e+001
<TRANSP> 5
 0.000000e+000 1.000000e+000 0.000000e+000 0.000000e+000 0.000000e+000
 0.000000e+000 6.592728e-001 3.407272e-001 0.000000e+000 0.000000e+000
 0.000000e+000 0.000000e+000 7.599986e-001 2.400014e-001 0.000000e+000
 0.000000e+000 0.000000e+000 0.000000e+000 9.246307e-001 7.536929e-002
 0.000000e+000 0.000000e+000 0.000000e+000 0.000000e+000 0.000000e+000
<ENDHMM>
~h "ch"
<BEGINHMM>
<NUMSTATES> 5
<STATE> 2
<MEAN> 39
 3.045661e-001 -6.526173e+000 -6.637996e+000 -8.408663e+000 6.212974e-002 -1.462110e+001 2.087003e+000 1.367489e+001 3.458731e+000 4.528489e-001 -3.690509e+000 5.472276e-001 7.968600e+001 5.558557e-002 3.963659e-001 -8.301526e-003 -3.167724e-001 5.495933e-001 9.539909e-001 2.404595e-002 -8.939800e-001 -9.221101e-001 1.172722e-001 1.236911e-001 3.348925e-001 -3.551020e-001 -3.465522e-002 1.445929e-001 7.469463e-002 1.141368e-001 7.393498e-002 8.638677e-002 6.502000e-002 -7.818677e-002 -1.419883e-001 1.290361e-002 -5.692062e-003 8.467637e-002 -1.143363e-001
<VARIANCE> 39
 4.713960e+001 2.066806e+001 2.413510e+001 3.109512e+001 2.303477e+001 9.045863e+001 1.162327e+001 8.004585e+001 3.906455e+001 4.075050e+001 2.411333e+001 1.535374e+001 6.689291e+001 3.786046e-001 1.106851e+000 9.174457e-001 9.840431e-001 1.751511e+000 2.584998e+000 1.219520e+000 1.439405e+000 2.268734e+000 1.814208e+000 1.052598e+000 1.202313e+000 7.395848e-001 7.827190e-002 7.464107e-002 1.174792e-001 1.882972e-001 2.291342e-001 2.893068e-001 2.343528e-001 1.705825e-001 4.393598e-001 4.248109e-001 1.993744e-001 1.604185e-001 7.735205e-002
<GCONST> 9.702914e+001
<STATE> 3
<MEAN> 39
 -8.451257e+000 3.479886e-001 -2.591514e+000 -4.871453e+000 3.960433e+000 4.030821e-001 3.264753e+000 3.471805e+000 -2.071770e+000 -3.475937e+000 -1.513354e+000 3.889464e+000 6.952186e+001 -1.741277e+000 -9.408433e-001 -9.054461e-002 1.287413e-001 1.122888e-001 4.576464e-001 -4.663620e-001 -8.474463e-001 8.783311e-001 -2.178958e-001 -1.867882e-001 3.902153e-001 1.846935e-001 -2.895133e-001 -5.720831e-001 1.916120e-001 -9.283242e-002 -4.730412e-002 -2.102441e-001 -2.031392e-001 -7.612172e-002 2.085357e-001 4.223652e-002 1.460761e-001 1.272534e-002 4.521588e-001
<VARIANCE> 39
 7.787950e+001 4.106901e+001 4.131271e+001 7.097384e+001 2.150487e+001 4.059823e+001 2.761771e+001 2.251068e+001 7.042973e+001 2.738838e+001 2.539836e+001 2.587761e+001 6.480670e+001 3.888551e+000 5.601331e+000 4.191742e+000 5.836928e+000 3.221486e+000 3.346884e+000 3.092963e+000 3.370759e+000 6.296687e+000 3.672945e+000 2.184526e+000 2.045401e+000 7.749071e+000 4.350485e-001 5.241753e-001 9.596191e-001 1.183635e+000 7.383246e-001 6.883199e-001 6.380274e-001 6.155946e-001 1.392307e+000 6.797515e-001 4.899549e-001 4.246877e-001 9.280266e-001
<GCONST> 1.321840e+002
<STATE> 4
<MEAN> 39
 -1.949452e+001 -1.330815e+001 8.513088e-001 -5.301327e+000 5.642999e+000 1.261214e+000 -2.088958e+000 -4.393715e+000 -1.937936e+000 -4.011618e+000 7.258306e-001 5.902670e+000 7.490681e+001 1.140212e-001 -1.342174e-001 6.970529e-001 5.412476e-001 3.910114e-001 3.960961e-002 -1.942224e-002 3.120291e-002 -2.552417e-001 1.147705e-001 3.654282e-001 1.094665e-001 -1.142913e-002 5.953820e-001 6.677686e-001 -2.197776e-001 1.690210e-001 -1.028187e-001 -6.376432e-002 2.047970e-001 3.050154e-001 -5.961202e-003 5.713202e-002 -4.622104e-002 -1.486167e-001 -4.252608e-001
<VARIANCE> 39
 1.581026e+001 2.510661e+001 1.894296e+001 3.804583e+001 9.934293e+000 1.835806e+001 1.606339e+001 2.378482e+001 2.793676e+001 1.124751e+001 1.644933e+001 1.418438e+001 5.983060e+001 4.077918e+000 4.629697e+000 2.594561e+000 1.198163e+000 1.180133e+000 1.876376e+000 2.193705e+000 2.161069e+000 1.812133e+000 1.193593e+000 1.791783e+000 8.904924e-001 3.009973e+000 5.767545e-001 4.096982e-001 3.687076e-001 3.946670e-001 2.376712e-001 3.487426e-001 4.063694e-001 3.823171e-001 3.355870e-001 2.995808e-001 3.840546e-001 2.202939e-001 3.931398e-001
<GCONST> 1.060280e+002
<TRANSP> 5
 0.000000e+000 1.000000e+000 0.000000e+000 0.000000e+000 0.000000e+000
 0.000000e+000 7.632654e-001 2.367346e-001 0.000000e+000 0.000000e+000
 0.000000e+000 0.000000e+000 7.881837e-001 2.118163e-001 0.000000e+000
 0.000000e+000 0.000000e+000 0.000000e+000 7.860475e-001 2.139525e-001
 0.000000e+000 0.000000e+000 0.000000e+000 0.000000e+000 0.000000e+000
<ENDHMM>
~h "dh"
<BEGINHMM>
<NUMSTATES> 5
<STATE> 2
<MEAN> 39
 -1.445985e+001 -2.718771e+000 -5.085954e+000 1.138141e+000 2.662247e-001 3.722591e-001 -6.324136e-002 3.134214e+000 7.287949e-001 -1.191971e+000 1.161953e-001 3.392937e+000 5.793102e+001 -3.810726e-002 1.154235e-001 4.676853e-002 -8.976568e-003 1.235415e-003 2.801962e-002 3.820878e-002 1.292543e-002 2.295960e-002 4.336954e-002 4.016115e-002 2.548846e-002 -6.981824e-002 -1.631462e-002 6.135398e-003 2.653645e-002 -8.255908e-003 1.489429e-002 1.128444e-002 1.622730e-002 1.265900e-002 1.506387e-002 2.874826e-002 2.000380e-003 -2.329539e-002 -3.512104e-004
<VARIANCE> 39
 2.285468e+000 1.087275e+001 3.850908e+000 4.482219e+000 7.276823e+000 8.126760e+000 8.376717e+000 7.207705e+000 8.351309e+000 1.108502e+001 6.276058e+000 7.467897e+000 1.065144e+001 9.194002e-002 2.635237e-001 2.781634e-001 4.027339e-001 5.336565e-001 7.190378e-001 7.031764e-001 6.958214e-001 7.770246e-001 7.777352e-001 5.619787e-001 6.991861e-001 8.482520e-002 1.401509e-002 3.347304e-002 5.160107e-002 7.808269e-002 1.199412e-001 1.440890e-001 1.396435e-001 1.341061e-001 1.520752e-001 1.529302e-001 1.178355e-001 1.355812e-001 9.610225e-003
<GCONST> 5.141569e+001
<STATE> 3
<MEAN> 39
 -1.628081e+001 1.413953e+000 -3.751203e+000 3.960824e-001 6.067757e-001 1.590804e+000 2.443919e+000 4.200768e+000 3.055562e+000 3.084517e+000 2.238559e+000 2.411698e+000 5.389126e+001 -1.396884e-001 1.065548e-001 1.859870e-001 -5.559178e-002 4.085279e-002 2.678371e-001 3.826141e-001 1.670790e-002 2.959395e-002 5.611308e-001 2.623195e-001 -2.458073e-001 -4.982200e-002 2.395991e-003 -3.759924e-002 1.469019e-001 -8.146481e-002 -2.969517e-002 -2.225279e-002 -8.068039e-002 -1.241063e-001 -1.224591e-001 -1.310626e-001 -6.331110e-002 -1.123290e-001 1.214627e-001
<VARIANCE> 39
 1.301112e+000 3.557601e+000 2.316766e+000 5.403106e+000 6.202425e+000 6.108372e+000 7.903977e+000 6.675233e+000 1.053481e+001 1.078520e+001 7.286066e+000 6.664243e+000 7.173776e+000 2.089465e-001 2.241668e-001 3.907391e-001 5.410823e-001 1.531600e+000 5.732346e-001 8.159247e-001 5.343934e-001 1.126272e+000 1.240544e+000 9.543360e-001 1.092121e+000 1.497020e-001 4.314754e-002 6.787037e-002 1.400405e-001 1.546507e-001 2.633568e-001 1.103933e-001 1.834939e-001 1.744816e-001 1.841607e-001 2.299482e-001 2.172526e-001 2.412161e-001 5.254816e-002
<GCONST> 6.112288e+001
<STATE> 4
<MEAN> 39
 -1.606898e+001 1.339407e+000 -2.364102e+000 1.414170e-001 -3.374042e-001 2.761217e+000 2.934319e+000 2.979203e+000 1.271402e+000 4.108838e+000 3.081753e+000 6.689292e-001 5.477028e+001 5.616969e-002 6.038788e-001 1.738083e+000 -2.388441e-001 9.783365e-001 8.369242e-001 6.364365e-001 -2.553635e-001 -3.295161e-001 -3.036796e-001 -8.914988e-002 -7.009487e-001 7.997804e-001 3.824963e-001 3.298850e-001 5.005424e-001 2.605751e-001 5.527361e-001 2.265661e-001 2.112739e-001 1.261968e-002 -8.355320e-002 -6.123611e-001 -1.737274e-001 8.120134e-002 4.691938e-001
<VARIANCE> 39
 2.192011e+000 2.167915e+000 7.313474e+000 4.079068e+000 1.107165e+001 6.416068e+000 4.883639e+000 5.435348e+000 1.211220e+001 1.077384e+001 7.580539e+000 5.893228e+000 8.458056e+000 1.531318e+000 1.318143e+000 1.469959e+000 2.721909e+000 1.525617e+000 1.737582e+000 1.085596e+000 1.142891e+000 1.067885e+000 1.642258e+000 1.094039e+000 1.087887e+000 3.397717e-001 2.033539e-001 1.867031e-001 1.764105e-001 2.190947e-001 3.812377e-001 2.359344e-001 1.408988e-001 1.764866e-001 3.715582e-001 3.047923e-001 1.620576e-001 7.273451e-002 8.897456e-002
<GCONST> 7.624981e+001
<TRANSP> 5
 0.000000e+000 1.000000e+000 0.000000e+000 0.000000e+000 0.000000e+000
 0.000000e+000 9.599332e-001 4.006682e-002 0.000000e+000 0.000000e+000
 0.000000e+000 0.000000e+000 7.393638e-001 2.606362e-001 0.000000e+000
 0.000000e+000 0.000000e+000 0.000000e+000 5.009570e-001 4.990431e-001
 0.000000e+000 0.000000e+000 0.000000e+000 0.000000e+000 0.000000e+000
<ENDHMM>
~h "ea"
<BEGINHMM>
<NUMSTATES> 5
<STATE> 2
<MEAN> 39
 -2.488285e-003 -7.605686e+000 -1.429219e+000 -2.273193e+000 -1.978337e+000 -1.579005e+001 1.222590e+001 9.156094e+000 -1.029057e+000 -3.692998e+000 -2.763066e+000 4.284921e+000 8.293896e+001 -9.501044e-002 2.268620e-001 -2.101124e-002 1.320792e-002 1.812443e-001 1.204759e-001 9.376954e-002 -5.361829e-001 -5.915459e-001 -1.789970e-001 1.777948e-001 8.047862e-002 -1.832288e-001 -2.989971e-002 3.070374e-002 -3.674429e-002 4.062672e-002 -8.442929e-002 5.466647e-002 1.316806e-002 -8.695588e-002 7.898991e-002 8.362287e-002 -1.810525e-002 3.577787e-002 -1.709978e-001
<VARIANCE> 39
