~o
<STREAMINFO> 1 39
<VECSIZE> 39<NULLD><MFCC_D_A_0><DIAGC>
~h "b"
<BEGINHMM>
<NUMSTATES> 5
<STATE> 2
<MEAN> 39
 -6.770105e+000 -6.999057e-001 1.810134e+000 -2.542410e+000 1.148392e+000 -6.206237e+000 1.399983e+000 5.230241e+000 -1.802464e+000 -1.541445e+000 7.967791e-001 -6.788838e-001 7.086407e+001 4.509178e-002 1.710334e-002 -3.001214e-003 -5.074634e-002 -1.093224e-002 -3.686668e-003 1.080801e-002 -2.508062e-002 -3.218856e-002 -2.408034e-002 3.242059e-002 1.422483e-002 4.275644e-002 -5.416965e-003 -1.002468e-004 3.024573e-003 3.488201e-003 3.144769e-003 2.113681e-003 -3.083882e-004 -3.182054e-003 -1.129012e-003 -9.867883e-004 1.088071e-003 -1.329765e-003 -2.818297e-003
<VARIANCE> 39
 9.587955e+001 3.480669e+001 5.221460e+001 7.350201e+001 5.449541e+001 1.259889e+002 4.069360e+001 4.715254e+001 6.448713e+001 4.035098e+001 2.785796e+001 3.395281e+001 1.074566e+002 2.660725e+000 1.746213e+000 1.701872e+000 3.298089e+000 2.386257e+000 4.450974e+000 2.403885e+000 2.500448e+000 3.026244e+000 2.212541e+000 1.843690e+000 1.635267e+000 3.350692e+000 3.511731e-001 2.779983e-001 2.752935e-001 5.008377e-001 3.767239e-001 6.339414e-001 4.127676e-001 4.245173e-001 4.934603e-001 3.856228e-001 3.292782e-001 2.646533e-001 5.483828e-001
<GCONST> 1.232796e+002
<STATE> 3
<MEAN> 39
 -6.632187e+000 -6.377948e-001 1.819154e+000 -2.743932e+000 1.125392e+000 -6.198525e+000 1.438434e+000 5.084262e+000 -1.933934e+000 -1.645669e+000 9.255911e-001 -6.226068e-001 7.103761e+001 2.069800e-002 1.439291e-002 1.277390e-002 -3.482322e-002 3.031479e-003 6.857726e-003 6.947019e-003 -3.799614e-002 -3.318168e-002 -2.574855e-002 3.379165e-002 7.242704e-003 3.161104e-002 -6.642943e-003 -7.100700e-004 4.057810e-003 4.605928e-003 3.749195e-003 2.523773e-003 -1.535366e-003 -2.489980e-003 5.822233e-004 1.919830e-004 2.540325e-004 -2.223212e-003 -3.586588e-003
<VARIANCE> 39
 9.363910e+001 3.510341e+001 5.123223e+001 7.415819e+001 5.476856e+001 1.257222e+002 3.933963e+001 4.732621e+001 6.579591e+001 4.117461e+001 2.824011e+001 3.405150e+001 1.068553e+002 2.604838e+000 1.746828e+000 1.687417e+000 3.254101e+000 2.352503e+000 4.474757e+000 2.366291e+000 2.519475e+000 3.070928e+000 2.238947e+000 1.893526e+000 1.643582e+000 3.412743e+000 3.436750e-001 2.775389e-001 2.730649e-001 4.990077e-001 3.699042e-001 6.481698e-001 4.075228e-001 4.301114e-001 4.983219e-001 3.872046e-001 3.373087e-001 2.700505e-001 5.518160e-001
<GCONST> 1.233286e+002
<STATE> 4
<MEAN> 39
 -6.541931e+000 -5.853870e-001 1.798530e+000 -2.917363e+000 1.256082e+000 -6.048019e+000 1.545579e+000 4.817812e+000 -2.054216e+000 -1.700035e+000 1.108430e+000 -5.696295e-001 7.120869e+001 -2.223343e-002 3.319061e-003 2.832725e-002 -7.497278e-003 1.817779e-002 2.941071e-002 5.698855e-003 -4.696854e-002 -1.834664e-002 -1.752406e-002 2.748980e-002 1.462489e-003 4.720588e-003 -8.315971e-003 -1.674527e-003 2.220443e-003 6.076708e-003 3.104469e-003 3.678462e-003 -9.045791e-004 -1.236154e-004 3.403337e-003 2.193632e-003 -4.454367e-004 -1.528812e-003 -6.871355e-003
<VARIANCE> 39
 9.052104e+001 3.524152e+001 4.953331e+001 7.561456e+001 5.690910e+001 1.238164e+002 3.751627e+001 4.724783e+001 6.683507e+001 4.129440e+001 2.894504e+001 3.406050e+001 1.090803e+002 2.480798e+000 1.696570e+000 1.640884e+000 3.147559e+000 2.280106e+000 4.353441e+000 2.294374e+000 2.542288e+000 3.091800e+000 2.187734e+000 1.950441e+000 1.624992e+000 3.264743e+000 3.258482e-001 2.700077e-001 2.623676e-001 4.896409e-001 3.558542e-001 6.456518e-001 3.976663e-001 4.373466e-001 4.957102e-001 3.749667e-001 3.471567e-001 2.730793e-001 5.194288e-001
<GCONST> 1.228121e+002
<TRANSP> 5
 0.000000e+000 1.000000e+000 0.000000e+000 0.000000e+000 0.000000e+000
 0.000000e+000 7.449478e-001 2.550522e-001 0.000000e+000 0.000000e+000
 0.000000e+000 0.000000e+000 7.449480e-001 2.550520e-001 0.000000e+000
 0.000000e+000 0.000000e+000 0.000000e+000 8.697582e-001 1.302418e-001
 0.000000e+000 0.000000e+000 0.000000e+000 0.000000e+000 0.000000e+000
<ENDHMM>
~h "d"
<BEGINHMM>
<NUMSTATES> 5
<STATE> 2
<MEAN> 39
 -8.090650e+000 -1.406484e+000 2.795262e+000 1.773505e+000 2.945282e+000 -4.693224e+000 2.458604e+000 3.800149e+000 -2.297482e+000 -1.651474e+000 -3.479022e-001 -1.020204e+000 6.901064e+001 -1.314346e-002 -1.477792e-002 2.352650e-003 3.898663e-002 5.451796e-002 3.950321e-002 -2.239787e-002 -6.534310e-002 -2.051581e-002 9.781146e-003 1.999063e-002 9.889528e-003 -1.912617e-003 -1.531771e-003 -1.285661e-003 -2.122162e-004 -1.262375e-003 7.694814e-004 -1.205608e-003 -1.189830e-003 -2.550136e-004 3.718095e-004 7.177685e-004 1.332851e-003 6.881513e-005 9.415129e-004
<VARIANCE> 39
 7.600671e+001 3.183035e+001 4.126048e+001 7.306511e+001 6.544732e+001 8.970733e+001 3.925317e+001 4.861346e+001 5.294395e+001 3.537270e+001 3.163640e+001 3.691807e+001 1.121920e+002 2.757499e+000 1.974213e+000 1.811231e+000 3.579463e+000 3.126011e+000 4.033604e+000 2.137401e+000 2.671040e+000 3.098398e+000 2.206432e+000 1.898027e+000 2.356197e+000 3.097893e+000 3.655160e-001 3.370361e-001 3.015601e-001 5.310397e-001 4.798002e-001 6.203601e-001 3.898620e-001 4.761066e-001 5.411395e-001 4.132310e-001 3.484530e-001 3.921958e-001 4.878094e-001
<GCONST> 1.243933e+002
<STATE> 3
<MEAN> 39
 -8.153648e+000 -1.474748e+000 2.812509e+000 1.921274e+000 3.173692e+000 -4.554510e+000 2.359528e+000 3.543957e+000 -2.379053e+000 -1.610945e+000 -2.674874e-001 -9.852231e-001 6.902179e+001 -2.045600e-002 -1.814939e-002 1.723873e-003 3.235882e-002 5.747092e-002 3.497522e-002 -2.694233e-002 -6.183733e-002 -1.802203e-002 1.295702e-002 2.426561e-002 6.343495e-003 6.223824e-004 -1.178873e-003 1.987545e-004 -2.526937e-004 -1.080400e-003 1.006051e-003 -8.401466e-004 -6.380820e-004 9.934466e-004 3.792738e-004 1.199904e-003 3.788470e-004 -1.398790e-003 6.669812e-005
<VARIANCE> 39
 7.446355e+001 3.206256e+001 4.050704e+001 7.292085e+001 6.547827e+001 8.758411e+001 3.924170e+001 4.794730e+001 5.357337e+001 3.525699e+001 3.178168e+001 3.697964e+001 1.117722e+002 2.779464e+000 1.983482e+000 1.850990e+000 3.634800e+000 3.115335e+000 4.028905e+000 2.119985e+000 2.676970e+000 3.163116e+000 2.209044e+000 1.918024e+000 2.349860e+000 3.221808e+000 3.690034e-001 3.387660e-001 3.085363e-001 5.367382e-001 4.797827e-001 6.244289e-001 3.862211e-001 4.797169e-001 5.517660e-001 4.130793e-001 3.533710e-001 3.906467e-001 5.055859e-001
<GCONST> 1.245589e+002
<STATE> 4
<MEAN> 39
 -8.323508e+000 -1.572615e+000 2.819583e+000 2.168601e+000 3.625782e+000 -4.475327e+000 2.138977e+000 3.183042e+000 -2.623274e+000 -1.463544e+000 -1.315875e-001 -9.483102e-001 6.897331e+001 -3.306864e-002 -1.419396e-002 -6.499892e-003 1.987704e-002 5.098818e-002 3.033487e-002 -2.502353e-002 -4.177594e-002 -3.739498e-003 2.297703e-002 2.459572e-002 -1.837868e-003 -1.279762e-002 -9.741886e-004 1.818024e-003 -1.532858e-003 -1.591968e-003 -1.086229e-003 -4.138713e-004 9.518341e-004 2.992380e-003 2.071321e-003 1.974001e-003 -2.456324e-004 -1.436756e-003 -2.524710e-003
<VARIANCE> 39
 7.106799e+001 3.221441e+001 3.945880e+001 7.137727e+001 6.545858e+001 8.608791e+001 4.016523e+001 4.665549e+001 5.487785e+001 3.519681e+001 3.163102e+001 3.696462e+001 1.138387e+002 2.692607e+000 1.930585e+000 1.840745e+000 3.545143e+000 2.962654e+000 3.968806e+000 2.063941e+000 2.614438e+000 3.167097e+000 2.158089e+000 1.893124e+000 2.268486e+000 3.267342e+000 3.596493e-001 3.295089e-001 3.069484e-001 5.231215e-001 4.601331e-001 6.151656e-001 3.735301e-001 4.691615e-001 5.506309e-001 4.009148e-001 3.482400e-001 3.759405e-001 5.029052e-001
<GCONST> 1.239349e+002
<TRANSP> 5
 0.000000e+000 1.000000e+000 0.000000e+000 0.000000e+000 0.000000e+000
 0.000000e+000 7.382782e-001 2.617219e-001 0.000000e+000 0.000000e+000
 0.000000e+000 0.000000e+000 7.382790e-001 2.617210e-001 0.000000e+000
 0.000000e+000 0.000000e+000 0.000000e+000 8.656058e-001 1.343942e-001
 0.000000e+000 0.000000e+000 0.000000e+000 0.000000e+000 0.000000e+000
<ENDHMM>
~h "f"
<BEGINHMM>
<NUMSTATES> 5
<STATE> 2
<MEAN> 39
 -1.334671e+001 -1.532346e+000 7.738382e-001 -1.492078e+000 3.532694e+000 -3.328705e+000 1.462621e+000 1.136209e+000 4.442708e-001 -1.427995e+000 1.778129e+000 7.345708e-001 6.912770e+001 -5.603483e-002 -2.826860e-002 3.486631e-002 -3.404147e-002 1.933308e-002 -7.507709e-002 -9.452901e-003 -5.638131e-002 4.119539e-002 -1.140058e-002 -8.782449e-003 -8.601906e-003 1.804315e-001 2.442606e-003 -1.050225e-003 1.386493e-003 1.301443e-004 -2.370130e-003 -5.375541e-003 -1.171927e-003 5.333554e-003 4.160577e-004 8.230677e-004 1.811136e-004 -1.813523e-003 2.966846e-003
<VARIANCE> 39
 1.204184e+002 2.493536e+001 3.325099e+001 4.534546e+001 5.230648e+001 8.227720e+001 3.315476e+001 4.365064e+001 6.405102e+001 2.979555e+001 2.248262e+001 2.319934e+001 1.171881e+002 4.867585e+000 1.692124e+000 1.588826e+000 2.133734e+000 2.046706e+000 3.380090e+000 2.227164e+000 2.194033e+000 3.702654e+000 1.754655e+000 1.549441e+000 1.369692e+000 2.646154e+000 6.115733e-001 2.938557e-001 2.976221e-001 3.317211e-001 3.234471e-001 5.394780e-001 4.037168e-001 3.910625e-001 5.988622e-001 3.246567e-001 2.827043e-001 2.391544e-001 4.077621e-001
<GCONST> 1.188168e+002
<STATE> 3
<MEAN> 39
 -1.345223e+001 -1.650804e+000 9.242571e-001 -1.629016e+000 3.557849e+000 -3.753465e+000 1.383142e+000 9.894521e-001 5.804632e-001 -1.462611e+000 1.774856e+000 6.518018e-001 6.992319e+001 -2.022362e-002 -2.915861e-002 3.616238e-002 -2.782065e-002 6.950254e-003 -9.331166e-002 -1.655655e-002 -2.574761e-002 2.718690e-002 -4.354121e-003 -2.548367e-003 -2.032075e-002 1.729675e-001 9.546723e-003 -3.492984e-006 5.419610e-005 2.076511e-003 -2.359667e-003 -2.997323e-003 -8.013257e-004 7.434818e-003 -4.790900e-003 1.528106e-003 1.397484e-003 -2.770679e-003 -3.274398e-003
<VARIANCE> 39
 1.298515e+002 2.487524e+001 3.284512e+001 4.696135e+001 5.446828e+001 8.916024e+001 3.483574e+001 4.549445e+001 6.551522e+001 3.019456e+001 2.243652e+001 2.368568e+001 1.102906e+002 5.127063e+000 1.708657e+000 1.619939e+000 2.171110e+000 2.086223e+000 3.551166e+000 2.271909e+000 2.223642e+000 3.729757e+000 1.776874e+000 1.532902e+000 1.373011e+000 2.665525e+000 6.401173e-001 2.961922e-001 3.040516e-001 3.364353e-001 3.281246e-001 5.618845e-001 4.088879e-001 3.938272e-001 6.024681e-001 3.274331e-001 2.794461e-001 2.386897e-001 4.118351e-001
<GCONST> 1.195119e+002
<STATE> 4
<MEAN> 39
 -1.302835e+001 -1.636706e+000 1.062097e+000 -1.785274e+000 3.299316e+000 -4.470560e+000 1.300469e+000 1.328237e+000 6.459168e-001 -1.427889e+000 1.952340e+000 3.549522e-001 7.092685e+001 7.638057e-002 -2.723593e-002 1.844908e-002 -2.383059e-003 -4.592304e-003 -8.003471e-002 -1.240764e-002 1.960609e-002 -3.687787e-002 1.089000e-002 1.568916e-002 -2.802454e-002 1.081224e-001 9.780101e-003 5.200474e-004 -1.656186e-003 3.501013e-003 4.513832e-005 4.246141e-003 1.908940e-003 4.604064e-003 -7.700848e-003 1.076161e-003 8.633172e-004 -3.877593e-004 -9.496235e-003
<VARIANCE> 39
 1.404199e+002 2.578876e+001 3.142009e+001 4.955064e+001 6.018507e+001 1.041217e+002 3.790384e+001 4.769418e+001 6.616875e+001 3.299260e+001 2.288187e+001 2.535350e+001 1.072893e+002 5.149360e+000 1.677021e+000 1.550943e+000 2.165072e+000 2.046901e+000 3.527858e+000 2.290434e+000 2.182708e+000 3.653295e+000 1.755692e+000 1.452737e+000 1.378109e+000 2.423162e+000 6.423411e-001 2.874072e-001 2.896380e-001 3.341724e-001 3.223027e-001 5.406782e-001 4.044950e-001 3.795156e-001 5.882040e-001 3.161445e-001 2.625122e-001 2.361429e-001 3.713437e-001
<GCONST> 1.194841e+002
<TRANSP> 5
 0.000000e+000 1.000000e+000 0.000000e+000 0.000000e+000 0.000000e+000
 0.000000e+000 7.535511e-001 2.464488e-001 0.000000e+000 0.000000e+000
 0.000000e+000 0.000000e+000 7.535514e-001 2.464486e-001 0.000000e+000
 0.000000e+000 0.000000e+000 0.000000e+000 8.874528e-001 1.125472e-001
 0.000000e+000 0.000000e+000 0.000000e+000 0.000000e+000 0.000000e+000
<ENDHMM>
~h "g"
<BEGINHMM>
<NUMSTATES> 5
<STATE> 2
<MEAN> 39
 -1.054866e+001 -1.585786e+000 1.532635e+000 4.898661e-002 2.591187e+000 -4.188194e+000 1.650425e+000 3.584352e+000 -8.082810e-001 -5.242408e-001 9.521774e-001 -2.066207e-001 6.765821e+001 -9.893719e-004 4.370896e-003 2.936753e-003 2.220659e-004 -1.452296e-003 2.421478e-003 2.489385e-003 -1.808583e-003 5.971932e-003 7.519505e-003 2.081149e-003 -2.299958e-003 -4.203989e-003 -3.621638e-004 -1.582598e-004 1.881931e-006 5.654030e-005 1.692552e-004 -8.328774e-005 3.929678e-005 4.017694e-004 -1.114904e-004 -2.048553e-004 -4.068760e-004 -2.945460e-004 3.621318e-005
<VARIANCE> 39
 9.135812e+001 2.887483e+001 4.226160e+001 6.238169e+001 6.069485e+001 9.299902e+001 3.194183e+001 4.381314e+001 5.450549e+001 3.285281e+001 2.566368e+001 2.867520e+001 1.318052e+002 2.569712e+000 1.521167e+000 1.581442e+000 2.587913e+000 2.205244e+000 3.263843e+000 1.867969e+000 2.134392e+000 2.626611e+000 1.814599e+000 1.585299e+000 1.594031e+000 2.266492e+000 3.224897e-001 2.537074e-001 2.677446e-001 3.972005e-001 3.461457e-001 4.922199e-001 3.355976e-001 3.652808e-001 4.410312e-001 3.359493e-001 2.872582e-001 2.768144e-001 3.396754e-001
<GCONST> 1.175893e+002
<STATE> 3
<MEAN> 39
 -1.054866e+001 -1.585786e+000 1.532635e+000 4.898661e-002 2.591187e+000 -4.188194e+000 1.650425e+000 3.584352e+000 -8.082810e-001 -5.242408e-001 9.521774e-001 -2.066207e-001 6.765821e+001 -9.893719e-004 4.370896e-003 2.936753e-003 2.220659e-004 -1.452296e-003 2.421478e-003 2.489385e-003 -1.808583e-003 5.971932e-003 7.519505e-003 2.081149e-003 -2.299958e-003 -4.203989e-003 -3.621638e-004 -1.582598e-004 1.881931e-006 5.654030e-005 1.692552e-004 -8.328774e-005 3.929678e-005 4.017694e-004 -1.114904e-004 -2.048553e-004 -4.068760e-004 -2.945460e-004 3.621318e-005
<VARIANCE> 39
 9.135812e+001 2.887483e+001 4.226160e+001 6.238169e+001 6.069485e+001 9.299902e+001 3.194183e+001 4.381314e+001 5.450549e+001 3.285281e+001 2.566368e+001 2.867520e+001 1.318052e+002 2.569712e+000 1.521167e+000 1.581442e+000 2.587913e+000 2.205244e+000 3.263843e+000 1.867969e+000 2.134392e+000 2.626611e+000 1.814599e+000 1.585299e+000 1.594031e+000 2.266492e+000 3.224897e-001 2.537074e-001 2.677446e-001 3.972005e-001 3.461457e-001 4.922199e-001 3.355976e-001 3.652808e-001 4.410312e-001 3.359493e-001 2.872582e-001 2.768144e-001 3.396754e-001
<GCONST> 1.175893e+002
<STATE> 4
<MEAN> 39
 -1.054866e+001 -1.585786e+000 1.532635e+000 4.898661e-002 2.591187e+000 -4.188194e+000 1.650425e+000 3.584352e+000 -8.082810e-001 -5.242408e-001 9.521774e-001 -2.066207e-001 6.765821e+001 -9.893719e-004 4.370896e-003 2.936753e-003 2.220659e-004 -1.452296e-003 2.421478e-003 2.489385e-003 -1.808583e-003 5.971932e-003 7.519505e-003 2.081149e-003 -2.299958e-003 -4.203989e-003 -3.621638e-004 -1.582598e-004 1.881931e-006 5.654030e-005 1.692552e-004 -8.328774e-005 3.929678e-005 4.017694e-004 -1.114904e-004 -2.048553e-004 -4.068760e-004 -2.945460e-004 3.621318e-005
<VARIANCE> 39
 9.135812e+001 2.887483e+001 4.226160e+001 6.238169e+001 6.069485e+001 9.299902e+001 3.194183e+001 4.381314e+001 5.450549e+001 3.285281e+001 2.566368e+001 2.867520e+001 1.318052e+002 2.569712e+000 1.521167e+000 1.581442e+000 2.587913e+000 2.205244e+000 3.263843e+000 1.867969e+000 2.134392e+000 2.626611e+000 1.814599e+000 1.585299e+000 1.594031e+000 2.266492e+000 3.224897e-001 2.537074e-001 2.677446e-001 3.972005e-001 3.461457e-001 4.922199e-001 3.355976e-001 3.652808e-001 4.410312e-001 3.359493e-001 2.872582e-001 2.768144e-001 3.396754e-001
<GCONST> 1.175893e+002
<TRANSP> 5
 0.000000e+000 1.000000e+000 0.000000e+000 0.000000e+000 0.000000e+000
 0.000000e+000 6.000000e-001 4.000000e-001 0.000000e+000 0.000000e+000
 0.000000e+000 0.000000e+000 6.000000e-001 4.000000e-001 0.000000e+000
 0.000000e+000 0.000000e+000 0.000000e+000 7.000000e-001 3.000000e-001
 0.000000e+000 0.000000e+000 0.000000e+000 0.000000e+000 0.000000e+000
<ENDHMM>
~h "k"
<BEGINHMM>
<NUMSTATES> 5
<STATE> 2
<MEAN> 39
 -1.048505e+001 -2.367759e+000 2.228029e+000 -1.762869e+000 1.196842e+000 -5.586633e+000 1.632360e+000 3.936188e+000 -1.394048e-001 -3.634986e-001 1.051775e+000 -3.842168e-001 7.042036e+001 -2.080521e-002 -3.426813e-003 2.524303e-004 1.047013e-003 5.368600e-003 2.542193e-002 1.189265e-002 -1.123809e-002 6.293531e-003 2.109304e-002 -4.696274e-003 1.567392e-002 -2.812060e-002 -1.940827e-003 2.110685e-003 -1.034298e-003 -3.700484e-003 -3.784250e-003 2.303420e-003 -5.227737e-004 -3.340125e-004 2.005025e-003 -5.824004e-004 -1.919350e-003 2.513166e-003 -3.107573e-003
<VARIANCE> 39
 1.071992e+002 2.934254e+001 4.436962e+001 7.031793e+001 6.816958e+001 1.031609e+002 3.120271e+001 5.434600e+001 5.576838e+001 3.121986e+001 2.833974e+001 2.775053e+001 1.224434e+002 3.257504e+000 1.724206e+000 2.164545e+000 3.596445e+000 2.760389e+000 4.166560e+000 2.096594e+000 2.519569e+000 2.876239e+000 2.141162e+000 1.707349e+000 1.647241e+000 3.575662e+000 4.022114e-001 2.931892e-001 3.988289e-001 5.857483e-001 4.553008e-001 6.245697e-001 3.961213e-001 4.395261e-001 4.927000e-001 4.091489e-001 3.125306e-001 2.944836e-001 6.195952e-001
<GCONST> 1.239557e+002
<STATE> 3
<MEAN> 39
 -1.058377e+001 -2.367171e+000 2.217520e+000 -1.806428e+000 1.178848e+000 -5.475538e+000 1.668877e+000 3.891227e+000 -8.773011e-002 -2.807395e-001 1.019982e+000 -3.031884e-001 7.030811e+001 -2.763969e-002 5.963006e-003 -3.617919e-003 -1.202030e-002 -9.363242e-003 3.365908e-002 1.044393e-002 -1.081918e-002 1.406519e-002 2.011495e-002 -1.113982e-002 2.337132e-002 -4.059865e-002 -7.878253e-004 2.787825e-003 -1.191346e-003 -2.347904e-003 -3.292837e-003 2.084008e-003 -3.388043e-004 5.953273e-005 1.433946e-003 -6.217286e-004 -1.492430e-003 1.374664e-003 -3.579784e-003
<VARIANCE> 39
 1.069984e+002 2.931159e+001 4.386981e+001 6.966038e+001 6.703113e+001 1.034265e+002 3.084098e+001 5.478609e+001 5.476823e+001 3.028013e+001 2.817778e+001 2.665840e+001 1.217947e+002 3.133187e+000 1.699647e+000 2.164929e+000 3.559748e+000 2.706601e+000 4.089525e+000 2.070207e+000 2.496327e+000 2.857885e+000 2.068206e+000 1.681204e+000 1.624552e+000 3.605446e+000 3.858306e-001 2.887417e-001 3.995647e-001 5.831562e-001 4.487821e-001 6.155699e-001 3.914098e-001 4.389259e-001 4.935536e-001 3.939331e-001 3.080882e-001 2.910524e-001 6.275980e-001
<GCONST> 1.234775e+002
<STATE> 4
<MEAN> 39
 -1.102470e+001 -2.344790e+000 2.137633e+000 -2.048729e+000 1.180984e+000 -5.029753e+000 1.719806e+000 3.793811e+000 -3.564340e-002 -1.842075e-001 1.026615e+000 -1.714350e-001 7.016522e+001 -2.479367e-002 2.075538e-002 -6.120245e-003 -1.738191e-002 -2.172078e-002 3.999480e-002 5.942953e-003 -6.819949e-003 1.799361e-002 1.800915e-002 -1.430529e-002 2.519604e-002 -6.041223e-002 1.347398e-003 2.830102e-003 -1.216828e-003 1.203003e-003 -9.768477e-004 1.522540e-003 -8.137657e-004 5.152046e-004 8.427074e-005 -7.165819e-004 -7.682710e-005 -4.171746e-004 -5.236170e-003
<VARIANCE> 39
 1.108102e+002 2.881218e+001 4.383775e+001 6.930730e+001 6.323120e+001 1.028192e+002 3.003684e+001 5.321747e+001 5.185097e+001 2.913599e+001 2.777146e+001 2.504606e+001 1.222421e+002 2.948546e+000 1.638007e+000 2.094315e+000 3.435097e+000 2.572350e+000 3.866801e+000 2.003324e+000 2.386945e+000 2.763368e+000 1.954068e+000 1.630885e+000 1.565078e+000 3.405485e+000 3.586936e-001 2.787729e-001 3.841752e-001 5.612394e-001 4.301900e-001 5.854937e-001 3.789032e-001 4.249860e-001 4.826172e-001 3.693631e-001 2.996958e-001 2.814352e-001 5.937372e-001
<GCONST> 1.220909e+002
<TRANSP> 5
 0.000000e+000 1.000000e+000 0.000000e+000 0.000000e+000 0.000000e+000
 0.000000e+000 7.406333e-001 2.593666e-001 0.000000e+000 0.000000e+000
 0.000000e+000 0.000000e+000 7.406338e-001 2.593662e-001 0.000000e+000
 0.000000e+000 0.000000e+000 0.000000e+000 8.669935e-001 1.330065e-001
 0.000000e+000 0.000000e+000 0.000000e+000 0.000000e+000 0.000000e+000
<ENDHMM>
~h "l"
<BEGINHMM>
<NUMSTATES> 5
<STATE> 2
<MEAN> 39
 -7.809895e+000 -2.762186e+000 2.344220e+000 -7.524624e-001 1.048443e+000 -7.354155e+000 1.267014e+000 4.880554e+000 -1.617895e+000 -1.060223e+000 -6.271971e-001 -2.737474e-001 7.175330e+001 3.828791e-002 -1.073264e-002 5.086624e-002 5.826024e-002 2.522460e-002 -4.482167e-002 -6.287160e-003 -1.392903e-002 -3.636101e-002 2.918969e-003 -1.647272e-002 -1.481561e-002 4.811305e-002 -6.992478e-003 -7.020029e-005 -2.879410e-003 -3.143919e-004 4.915461e-004 5.466434e-003 2.705289e-003 -2.586832e-003 1.549159e-003 3.503945e-003 4.416954e-003 -2.846803e-004 -7.550484e-003
<VARIANCE> 39
 9.948415e+001 3.326696e+001 4.613251e+001 6.892216e+001 7.466134e+001 1.205394e+002 2.965115e+001 5.363261e+001 5.972389e+001 4.199636e+001 3.629673e+001 2.991615e+001 1.220604e+002 2.647211e+000 1.369500e+000 1.693269e+000 2.896477e+000 2.318485e+000 3.549737e+000 1.757972e+000 2.018470e+000 2.535501e+000 1.760267e+000 1.867462e+000 1.733169e+000 1.989790e+000 3.000914e-001 2.209789e-001 2.733506e-001 4.328953e-001 3.386640e-001 5.359516e-001 3.164661e-001 3.265677e-001 4.235156e-001 3.129502e-001 3.108221e-001 2.945884e-001 2.741325e-001
<GCONST> 1.190262e+002
<STATE> 3
<MEAN> 39
 -7.685912e+000 -2.811064e+000 2.558670e+000 -5.067435e-001 1.118235e+000 -7.555113e+000 1.239326e+000 4.814973e+000 -1.722500e+000 -1.005157e+000 -6.366112e-001 -3.201782e-001 7.191305e+001 6.253887e-003 -3.786075e-003 3.933142e-002 5.570136e-002 2.735760e-002 -1.680506e-002 4.398022e-004 -2.260724e-002 -2.137513e-002 1.599490e-002 -1.334861e-003 -1.429319e-002 7.563137e-003 -6.961931e-003 1.452623e-003 -3.214098e-003 -1.663828e-003 -3.005417e-004 6.339558e-003 2.091609e-003 -8.336020e-004 3.590176e-003 3.147871e-003 3.066249e-003 -3.426242e-004 -8.833454e-003
<VARIANCE> 39
 9.692017e+001 3.459832e+001 4.629546e+001 6.866445e+001 7.834344e+001 1.227098e+002 2.950109e+001 5.357735e+001 5.976510e+001 4.058004e+001 3.534007e+001 2.964626e+001 1.185947e+002 2.495854e+000 1.351778e+000 1.681273e+000 2.800031e+000 2.308202e+000 3.573648e+000 1.736207e+000 2.001758e+000 2.481329e+000 1.730724e+000 1.824483e+000 1.743146e+000 1.957760e+000 2.814846e-001 2.158190e-001 2.703763e-001 4.139940e-001 3.374822e-001 5.369911e-001 3.136035e-001 3.255757e-001 4.141409e-001 3.041170e-001 3.025284e-001 2.937797e-001 2.653577e-001
<GCONST> 1.185269e+002
<STATE> 4
<MEAN> 39
 -7.570670e+000 -2.840870e+000 2.925629e+000 1.877532e-001 1.284475e+000 -7.995241e+000 1.036476e+000 4.885555e+000 -1.850328e+000 -8.432539e-001 -4.932097e-001 -4.813521e-001 7.191350e+001 -4.168015e-002 2.697791e-002 2.701204e-002 4.751513e-002 2.140731e-002 3.133434e-002 8.506590e-003 -2.910930e-002 6.089721e-003 2.358927e-002 1.453248e-003 -1.047494e-002 -7.481302e-002 -6.021036e-003 3.257719e-003 -3.949701e-003 -2.229969e-003 -8.122199e-004 7.941077e-003 2.121223e-003 1.710164e-004 2.702942e-003 4.893856e-004 1.432888e-004 -1.581033e-004 -1.047717e-002
<VARIANCE> 39
 8.851461e+001 3.808570e+001 5.035174e+001 6.857940e+001 9.513741e+001 1.316094e+002 2.921527e+001 5.247914e+001 5.875460e+001 3.827241e+001 3.122753e+001 2.989628e+001 1.202509e+002 2.036565e+000 1.275000e+000 1.551508e+000 2.442987e+000 2.188918e+000 3.407251e+000 1.620830e+000 1.913083e+000 2.286710e+000 1.618358e+000 1.653805e+000 1.644272e+000 1.764595e+000 2.311893e-001 1.975991e-001 2.463901e-001 3.587807e-001 3.129012e-001 4.986508e-001 2.909508e-001 3.117267e-001 3.803723e-001 2.799764e-001 2.746294e-001 2.755145e-001 2.240431e-001
<GCONST> 1.162818e+002
<TRANSP> 5
 0.000000e+000 1.000000e+000 0.000000e+000 0.000000e+000 0.000000e+000
 0.000000e+000 7.536688e-001 2.463312e-001 0.000000e+000 0.000000e+000
 0.000000e+000 0.000000e+000 7.536684e-001 2.463317e-001 0.000000e+000
 0.000000e+000 0.000000e+000 0.000000e+000 8.866189e-001 1.133812e-001
 0.000000e+000 0.000000e+000 0.000000e+000 0.000000e+000 0.000000e+000
<ENDHMM>
~h "m"
<BEGINHMM>
<NUMSTATES> 5
<STATE> 2
<MEAN> 39
 -8.648093e+000 -1.847065e+000 1.315408e+000 1.395029e+000 3.129087e+000 -5.008271e+000 2.057569e+000 4.305046e+000 -1.013866e+000 -4.594082e-001 1.065753e+000 -7.562699e-001 6.844075e+001 3.273741e-002 8.497065e-003 2.303992e-002 6.889131e-003 3.432534e-002 2.017828e-003 9.069961e-003 1.503121e-002 -2.379978e-002 1.249708e-002 6.868775e-004 -1.783076e-002 4.400607e-002 6.974537e-004 -5.641038e-004 -1.236670e-003 -2.271362e-003 -1.257616e-003 -3.632746e-003 -2.482760e-004 2.284077e-003 1.134628e-003 3.187151e-004 -6.982458e-004 5.313697e-004 1.851991e-003
<VARIANCE> 39
 1.005233e+002 2.924373e+001 4.005651e+001 8.187395e+001 7.211977e+001 9.512840e+001 4.179599e+001 5.053882e+001 6.225933e+001 2.814975e+001 2.729166e+001 3.422974e+001 1.169348e+002 2.723615e+000 1.541085e+000 1.699271e+000 3.447220e+000 2.556861e+000 3.256566e+000 2.144001e+000 1.949494e+000 2.876673e+000 1.677534e+000 1.506892e+000 1.728097e+000 2.241595e+000 3.289588e-001 2.716884e-001 2.943374e-001 4.935585e-001 3.834224e-001 4.887455e-001 3.731228e-001 3.337982e-001 4.742965e-001 3.185314e-001 2.726952e-001 2.863055e-001 3.601145e-001
<GCONST> 1.198451e+002
<STATE> 3
<MEAN> 39
 -8.492498e+000 -1.831329e+000 1.395833e+000 1.399912e+000 3.279081e+000 -5.058192e+000 2.063923e+000 4.372182e+000 -1.123994e+000 -4.054395e-001 1.066754e+000 -8.305455e-001 6.867493e+001 3.101337e-002 6.488327e-003 1.723764e-002 -7.315094e-003 2.319363e-002 -1.304340e-002 5.401910e-003 1.943319e-002 -1.505211e-002 1.205653e-002 -2.619390e-003 -1.219594e-002 4.773396e-002 -5.184226e-004 -7.156722e-004 -1.116245e-003 -2.995079e-003 -2.691987e-003 -3.951076e-003 -4.031013e-004 1.290101e-003 1.993155e-003 -6.060876e-004 -7.576921e-004 1.046662e-003 1.157758e-003
<VARIANCE> 39
 1.007129e+002 3.041098e+001 3.993473e+001 8.516929e+001 7.273344e+001 9.431094e+001 4.192429e+001 5.076492e+001 6.321319e+001 2.865099e+001 2.811962e+001 3.452886e+001 1.162598e+002 2.749698e+000 1.565018e+000 1.701370e+000 3.471136e+000 2.591011e+000 3.328061e+000 2.166657e+000 1.983103e+000 2.885671e+000 1.675897e+000 1.522796e+000 1.758368e+000 2.242955e+000 3.312754e-001 2.756415e-001 2.950750e-001 4.951607e-001 3.876851e-001 4.964399e-001 3.773431e-001 3.358099e-001 4.752217e-001 3.179373e-001 2.754968e-001 2.916814e-001 3.585967e-001
<GCONST> 1.202176e+002
<STATE> 4
<MEAN> 39
 -8.269837e+000 -1.905427e+000 1.288499e+000 1.576484e+000 3.588405e+000 -5.433314e+000 1.972486e+000 4.520410e+000 -1.336725e+000 3.005087e-003 1.054705e+000 -9.622768e-001 6.903753e+001 3.375670e-003 4.915629e-003 1.068770e-002 -4.377804e-002 -8.975716e-003 -1.969879e-002 -8.267700e-003 9.985908e-003 9.065513e-003 4.659756e-003 -1.096551e-002 8.747145e-003 3.185562e-002 -4.224983e-003 -3.431879e-004 -9.627639e-004 -4.088842e-003 -5.004170e-003 -6.535380e-004 -7.532301e-004 -4.845290e-004 3.426975e-003 -1.217637e-003 -1.832241e-004 2.161543e-003 -2.613351e-003
<VARIANCE> 39
 9.802831e+001 3.269476e+001 4.022694e+001 8.827263e+001 7.326171e+001 9.923834e+001 4.169483e+001 5.217436e+001 6.386996e+001 3.047358e+001 3.030210e+001 3.413211e+001 1.186930e+002 2.586527e+000 1.541228e+000 1.624355e+000 3.301529e+000 2.514711e+000 3.296392e+000 2.069784e+000 2.001018e+000 2.787517e+000 1.653818e+000 1.520157e+000 1.727827e+000 2.099068e+000 3.086987e-001 2.674925e-001 2.782960e-001 4.677090e-001 3.730835e-001 4.822351e-001 3.586812e-001 3.316761e-001 4.567187e-001 3.121591e-001 2.736505e-001 2.867331e-001 3.253110e-001
<GCONST> 1.196335e+002
<TRANSP> 5
 0.000000e+000 1.000000e+000 0.000000e+000 0.000000e+000 0.000000e+000
 0.000000e+000 7.498450e-001 2.501549e-001 0.000000e+000 0.000000e+000
 0.000000e+000 0.000000e+000 7.498444e-001 2.501557e-001 0.000000e+000
 0.000000e+000 0.000000e+000 0.000000e+000 8.809041e-001 1.190959e-001
 0.000000e+000 0.000000e+000 0.000000e+000 0.000000e+000 0.000000e+000
<ENDHMM>
~h "n"
<BEGINHMM>
<NUMSTATES> 5
<STATE> 2
<MEAN> 39
 -8.414935e+000 -1.961551e+000 2.456450e+000 2.535883e+000 4.096457e+000 -4.954426e+000 2.381645e+000 3.760941e+000 -2.046678e+000 -2.733612e-001 7.551930e-001 -1.261353e+000 6.961559e+001 -3.515004e-002 2.796138e-002 3.757323e-004 1.346501e-002 1.168997e-002 6.002109e-002 8.600487e-003 -1.796834e-002 2.004537e-002 1.709580e-002 3.096586e-004 1.594890e-005 -6.827954e-002 -4.796945e-003 -8.245324e-004 -9.457128e-004 -3.838226e-003 -1.349114e-003 6.282810e-004 -2.295012e-003 -1.728038e-004 1.462966e-003 -9.585836e-004 5.995726e-004 2.025212e-003 -1.843243e-003
<VARIANCE> 39
 8.188544e+001 3.230318e+001 4.065108e+001 6.442235e+001 7.074422e+001 9.265463e+001 3.739994e+001 4.417451e+001 5.780359e+001 3.053777e+001 2.953075e+001 3.217159e+001 1.215749e+002 2.516062e+000 1.739682e+000 1.618967e+000 2.870885e+000 2.485736e+000 3.526700e+000 1.951343e+000 2.276384e+000 2.760194e+000 1.865932e+000 1.727444e+000 1.952646e+000 2.166202e+000 3.219447e-001 2.846563e-001 2.665327e-001 4.347079e-001 3.702413e-001 5.266923e-001 3.449318e-001 3.846156e-001 4.595763e-001 3.522881e-001 3.138275e-001 3.378052e-001 3.195058e-001
<GCONST> 1.196559e+002
<STATE> 3
<MEAN> 39
 -8.590855e+000 -1.850540e+000 2.458577e+000 2.577079e+000 4.147207e+000 -4.695675e+000 2.402046e+000 3.684737e+000 -1.954794e+000 -2.111853e-001 7.581944e-001 -1.257354e+000 6.932347e+001 -5.328314e-002 2.257902e-002 -4.134339e-003 -3.214400e-003 3.717549e-003 5.983976e-002 -1.196206e-003 -1.768130e-002 2.651885e-002 1.242180e-002 2.848428e-003 8.258299e-003 -7.349776e-002 -3.318623e-003 -1.545097e-003 -1.068049e-003 -3.960777e-003 -1.842196e-003 -9.505381e-004 -2.140924e-003 5.143912e-004 1.092139e-003 -1.083175e-003 8.020166e-004 2.077746e-003 -3.831786e-004
<VARIANCE> 39
 8.249967e+001 3.234748e+001 4.046511e+001 6.504028e+001 6.967685e+001 9.096258e+001 3.720277e+001 4.356436e+001 5.705199e+001 3.036650e+001 2.929875e+001 3.189277e+001 1.221367e+002 2.512504e+000 1.741245e+000 1.610179e+000 2.896015e+000 2.483618e+000 3.480565e+000 1.955547e+000 2.270085e+000 2.773539e+000 1.851802e+000 1.724308e+000 1.950217e+000 2.131394e+000 3.201278e-001 2.857137e-001 2.650570e-001 4.354032e-001 3.691034e-001 5.234224e-001 3.459928e-001 3.856748e-001 4.611197e-001 3.501346e-001 3.130888e-001 3.377091e-001 3.154019e-001
<GCONST> 1.195246e+002
<STATE> 4
<MEAN> 39
 -9.034898e+000 -1.712056e+000 2.369379e+000 2.543375e+000 4.274634e+000 -4.243958e+000 2.383609e+000 3.613228e+000 -1.801727e+000 -1.566561e-001 8.790292e-001 -1.149496e+000 6.888171e+001 -7.289296e-002 1.281900e-002 -1.403567e-002 -2.893905e-002 -1.734916e-002 5.125723e-002 -1.230660e-002 -1.175513e-002 3.856257e-002 7.804604e-003 6.045699e-003 2.007807e-002 -7.993256e-002 -1.311373e-003 -1.736989e-003 -1.435927e-003 -3.549168e-003 -2.710741e-003 -2.459462e-003 -1.375124e-003 1.262021e-003 7.126824e-004 -7.258441e-004 7.265746e-004 1.674846e-003 2.641088e-004
<VARIANCE> 39
 8.332774e+001 3.225392e+001 4.008934e+001 6.492203e+001 6.808074e+001 9.004401e+001 3.673586e+001 4.228598e+001 5.558411e+001 3.060931e+001 2.837176e+001 3.091207e+001 1.261811e+002 2.453044e+000 1.690462e+000 1.583699e+000 2.839697e+000 2.401838e+000 3.341313e+000 1.932185e+000 2.216810e+000 2.741955e+000 1.815748e+000 1.682156e+000 1.880330e+000 2.027817e+000 3.132575e-001 2.779677e-001 2.620116e-001 4.247874e-001 3.564180e-001 5.041948e-001 3.427807e-001 3.795944e-001 4.555246e-001 3.433276e-001 3.062810e-001 3.269736e-001 2.968643e-001
<GCONST> 1.187241e+002
<TRANSP> 5
 0.000000e+000 1.000000e+000 0.000000e+000 0.000000e+000 0.000000e+000
 0.000000e+000 7.462857e-001 2.537143e-001 0.000000e+000 0.000000e+000
 0.000000e+000 0.000000e+000 7.462854e-001 2.537145e-001 0.000000e+000
 0.000000e+000 0.000000e+000 0.000000e+000 8.765007e-001 1.234993e-001
 0.000000e+000 0.000000e+000 0.000000e+000 0.000000e+000 0.000000e+000
<ENDHMM>
~h "p"
<BEGINHMM>
<NUMSTATES> 5
<STATE> 2
<MEAN> 39
 -1.017309e+001 -1.676339e+000 -4.760313e-002 -3.477708e-001 2.934493e+000 -3.013965e+000 8.809987e-001 2.847278e+000 -3.329841e-001 -2.684720e-001 1.249619e+000 1.035273e+000 6.696434e+001 1.087361e-001 -4.713194e-002 2.539859e-002 -4.195219e-002 1.191415e-002 -9.151094e-002 9.788535e-003 1.364669e-002 2.069551e-003 1.414440e-002 1.776064e-002 3.235823e-003 2.060164e-001 5.964116e-003 -1.657014e-003 -4.570113e-004 -6.885469e-004 -8.670435e-004 -2.660787e-004 2.162691e-003 1.109959e-003 -4.651045e-003 -2.858876e-003 -1.390494e-004 1.014190e-004 5.588852e-003
<VARIANCE> 39
 7.108181e+001 2.575151e+001 2.840485e+001 6.089817e+001 5.172264e+001 6.490614e+001 2.174268e+001 3.444098e+001 6.023715e+001 2.740832e+001 1.974838e+001 2.583152e+001 1.189717e+002 2.466360e+000 1.772110e+000 1.679935e+000 2.743287e+000 2.693559e+000 3.030754e+000 1.680685e+000 2.377475e+000 3.336533e+000 2.020588e+000 1.557788e+000 1.639532e+000 3.694448e+000 3.298098e-001 3.187411e-001 3.001088e-001 4.141015e-001 4.287723e-001 4.600968e-001 3.291934e-001 4.429705e-001 5.287796e-001 3.767801e-001 2.979652e-001 2.810258e-001 5.733119e-001
<GCONST> 1.179098e+002
<STATE> 3
<MEAN> 39
 -9.716807e+000 -1.874887e+000 6.601036e-002 -4.930634e-001 2.991515e+000 -3.375251e+000 9.331416e-001 2.897404e+000 -3.802374e-001 -2.343593e-001 1.299276e+000 1.015366e+000 6.779409e+001 1.270557e-001 -4.759876e-002 2.093364e-002 -4.365771e-002 8.614336e-003 -9.020324e-002 1.871526e-002 1.899085e-002 -1.677841e-002 9.585721e-004 1.559933e-002 1.109880e-003 2.140620e-001 3.648511e-003 6.481888e-004 -1.089968e-003 4.930658e-004 -6.803143e-004 4.351283e-004 2.101803e-003 1.258874e-003 -5.364654e-003 -3.274018e-003 -5.746345e-004 -9.486449e-004 3.784968e-004
<VARIANCE> 39
 7.278062e+001 2.656568e+001 2.823548e+001 6.271911e+001 5.401435e+001 6.804825e+001 2.270206e+001 3.502217e+001 6.360101e+001 2.845438e+001 2.020545e+001 2.724736e+001 1.203286e+002 2.493598e+000 1.812798e+000 1.716031e+000 2.802981e+000 2.728576e+000 3.119882e+000 1.721088e+000 2.398358e+000 3.474949e+000 2.077117e+000 1.613916e+000 1.683224e+000 3.705780e+000 3.329203e-001 3.269107e-001 3.039840e-001 4.260528e-001 4.274251e-001 4.622842e-001 3.349316e-001 4.443121e-001 5.502069e-001 3.841920e-001 3.090675e-001 2.881564e-001 5.763794e-001
<GCONST> 1.188259e+002
<STATE> 4
<MEAN> 39
 -9.348899e+000 -2.094467e+000 1.815702e-001 -5.214316e-001 3.141100e+000 -3.744989e+000 1.063030e+000 3.003279e+000 -5.915018e-001 -8.211598e-002 1.345774e+000 8.359426e-001 6.869332e+001 1.360290e-001 -3.049292e-002 1.853717e-002 -4.799495e-002 -1.095917e-003 -8.540118e-002 2.722044e-002 3.333472e-002 -3.541842e-002 -1.775255e-002 4.831774e-003 -7.380559e-003 1.915720e-001 4.973585e-004 3.439397e-003 -8.126067e-004 5.206670e-004 -1.441447e-003 1.962638e-004 6.334679e-004 2.112372e-003 -3.578082e-003 -2.703497e-003 -1.013311e-003 -1.292511e-003 -4.858289e-003
<VARIANCE> 39
 7.471942e+001 2.706872e+001 2.726198e+001 6.312988e+001 5.664893e+001 7.209829e+001 2.423647e+001 3.415039e+001 6.682544e+001 2.997156e+001 2.036769e+001 2.905776e+001 1.200436e+002 2.434119e+000 1.740014e+000 1.682160e+000 2.811168e+000 2.661546e+000 3.101924e+000 1.764399e+000 2.282820e+000 3.571783e+000 2.065597e+000 1.623752e+000 1.678695e+000 3.516008e+000 3.245281e-001 3.129389e-001 2.958803e-001 4.355910e-001 4.076117e-001 4.456334e-001 3.384298e-001 4.212836e-001 5.652002e-001 3.779508e-001 3.076939e-001 2.856430e-001 5.487676e-001
<GCONST> 1.187420e+002
<TRANSP> 5
 0.000000e+000 1.000000e+000 0.000000e+000 0.000000e+000 0.000000e+000
 0.000000e+000 7.352690e-001 2.647310e-001 0.000000e+000 0.000000e+000
 0.000000e+000 0.000000e+000 7.352684e-001 2.647316e-001 0.000000e+000
 0.000000e+000 0.000000e+000 0.000000e+000 8.610193e-001 1.389807e-001
 0.000000e+000 0.000000e+000 0.000000e+000 0.000000e+000 0.000000e+000
<ENDHMM>
~h "r"
<BEGINHMM>
<NUMSTATES> 5
<STATE> 2
<MEAN> 39
 -7.871648e+000 -1.899590e+000 3.293824e-001 -1.257526e+000 3.784971e+000 -4.808477e+000 7.345666e-001 1.857784e+000 -1.794243e+000 -1.261112e+000 6.343501e-001 5.109873e-001 7.032848e+001 6.345980e-002 3.338981e-002 4.076565e-002 1.785012e-002 3.434817e-002 -5.169786e-003 1.392905e-002 -3.535878e-003 -1.096366e-002 -1.362128e-002 -3.377962e-002 -1.430156e-002 2.282683e-002 -4.204502e-003 -7.279835e-004 1.006411e-003 2.979971e-003 -1.933347e-003 1.625636e-003 1.795009e-003 1.029576e-003 2.905293e-003 2.215134e-003 2.474490e-003 -2.865116e-004 -4.867231e-003
<VARIANCE> 39
 9.424210e+001 3.231356e+001 4.149784e+001 6.305229e+001 6.492595e+001 8.308773e+001 3.657650e+001 4.945034e+001 7.849995e+001 3.803653e+001 3.131575e+001 2.754808e+001 1.146413e+002 2.879441e+000 1.771484e+000 1.839932e+000 2.308586e+000 2.240692e+000 3.373865e+000 2.138853e+000 2.508003e+000 3.334714e+000 1.944703e+000 1.849024e+000 1.557812e+000 2.485337e+000 3.667522e-001 3.004660e-001 3.015856e-001 3.516990e-001 3.569129e-001 5.110469e-001 3.744065e-001 4.171495e-001 5.184268e-001 3.485920e-001 3.188677e-001 2.619485e-001 3.897245e-001
<GCONST> 1.206382e+002
<STATE> 3
<MEAN> 39
 -7.626962e+000 -1.785406e+000 5.058329e-001 -1.174393e+000 3.893857e+000 -4.852262e+000 8.054896e-001 1.862104e+000 -1.799818e+000 -1.288381e+000 5.121824e-001 4.366403e-001 7.040377e+001 4.234565e-002 2.636183e-002 4.101940e-002 2.859107e-002 2.167339e-002 -4.229809e-003 1.900499e-002 8.180006e-004 3.823670e-003 -6.025229e-004 -2.148609e-002 -1.552146e-002 2.249669e-003 -6.406144e-003 -1.756732e-003 5.667322e-005 1.548300e-003 -3.454108e-003 6.501642e-004 8.017269e-004 1.278098e-003 3.970026e-003 2.575797e-003 3.245417e-003 -1.310397e-004 -5.051468e-003
<VARIANCE> 39
 9.238206e+001 3.189937e+001 4.163216e+001 6.442167e+001 6.551732e+001 8.603230e+001 3.691921e+001 5.063266e+001 7.816733e+001 3.997348e+001 3.270448e+001 2.771662e+001 1.104218e+002 2.849823e+000 1.782353e+000 1.873273e+000 2.336590e+000 2.242785e+000 3.472010e+000 2.143826e+000 2.559537e+000 3.357252e+000 1.967879e+000 1.881003e+000 1.553092e+000 2.436260e+000 3.623335e-001 3.018838e-001 3.069536e-001 3.568248e-001 3.604541e-001 5.217251e-001 3.758399e-001 4.262742e-001 5.217314e-001 3.537686e-001 3.242996e-001 2.600560e-001 3.837220e-001
<GCONST> 1.209511e+002
<STATE> 4
<MEAN> 39
 -7.390487e+000 -1.549873e+000 6.783193e-001 -1.070536e+000 3.882849e+000 -5.079109e+000 9.426324e-001 2.088768e+000 -1.748370e+000 -1.184504e+000 4.146824e-001 2.409395e-001 7.027233e+001 5.135997e-003 1.656141e-002 3.010364e-002 3.817849e-002 -9.530116e-003 -1.902788e-002 1.603893e-002 1.394514e-002 3.177113e-002 2.917190e-002 1.117930e-003 -1.610453e-002 -3.882251e-002 -7.382202e-003 -5.692021e-004 -8.807635e-004 3.852467e-006 -4.200891e-003 7.091418e-004 -7.553615e-004 1.967448e-003 3.775008e-003 2.475500e-003 3.460499e-003 4.518876e-004 -6.302534e-003
<VARIANCE> 39
 8.764211e+001 3.183900e+001 4.084350e+001 6.376931e+001 6.628957e+001 9.425725e+001 3.730989e+001 5.033998e+001 7.637580e+001 4.368644e+001 3.423640e+001 2.728677e+001 1.092442e+002 2.623407e+000 1.720182e+000 1.810014e+000 2.264129e+000 2.188491e+000 3.586798e+000 2.145757e+000 2.568630e+000 3.248020e+000 1.972192e+000 1.898235e+000 1.514595e+000 2.227566e+000 3.329833e-001 2.860475e-001 2.944489e-001 3.456996e-001 3.584806e-001 5.214700e-001 3.741098e-001 4.280130e-001 5.036842e-001 3.532612e-001 3.265098e-001 2.540282e-001 3.476316e-001
<GCONST> 1.203817e+002
<TRANSP> 5
 0.000000e+000 1.000000e+000 0.000000e+000 0.000000e+000 0.000000e+000
 0.000000e+000 7.503209e-001 2.496792e-001 0.000000e+000 0.000000e+000
 0.000000e+000 0.000000e+000 7.503212e-001 2.496788e-001 0.000000e+000
 0.000000e+000 0.000000e+000 0.000000e+000 8.798297e-001 1.201703e-001
 0.000000e+000 0.000000e+000 0.000000e+000 0.000000e+000 0.000000e+000
<ENDHMM>
~h "s"
<BEGINHMM>
<NUMSTATES> 5
<STATE> 2
<MEAN> 39
 -1.453641e+001 -2.361868e+000 3.092346e+000 -3.149181e+000 1.834134e+000 -2.423109e+000 1.656928e+000 2.292066e+000 -8.992710e-001 -1.214361e+000 1.578718e+000 -3.494205e-001 6.934033e+001 -9.279714e-002 -2.573562e-002 8.416641e-002 -1.023511e-001 9.500211e-003 -5.784446e-003 -3.036455e-002 -1.313900e-002 -4.217729e-003 6.431999e-003 1.409229e-002 -3.083480e-002 1.137342e-001 1.012255e-003 -1.155268e-003 -1.102431e-003 2.509189e-003 3.932585e-003 -2.408015e-003 -2.364031e-003 1.411432e-003 -2.503514e-003 -7.862626e-004 -3.520098e-004 -1.847799e-003 3.575159e-003
<VARIANCE> 39
 1.333591e+002 2.371733e+001 4.555738e+001 9.885914e+001 4.668909e+001 7.587962e+001 2.880732e+001 4.084271e+001 4.533956e+001 3.298162e+001 2.347661e+001 2.356358e+001 1.272098e+002 4.373242e+000 1.536101e+000 2.047993e+000 3.886854e+000 2.111141e+000 3.125971e+000 1.736029e+000 2.011955e+000 2.575349e+000 1.739247e+000 1.599711e+000 1.527153e+000 2.544992e+000 4.869612e-001 2.678995e-001 3.467099e-001 5.316932e-001 3.542116e-001 4.881637e-001 3.155226e-001 3.558064e-001 4.668325e-001 3.287299e-001 3.019668e-001 2.694812e-001 3.477184e-001
<GCONST> 1.191986e+002
<STATE> 3
<MEAN> 39
 -1.488929e+001 -2.477103e+000 3.426088e+000 -3.526067e+000 1.919936e+000 -2.477275e+000 1.510070e+000 2.256362e+000 -9.508464e-001 -1.227583e+000 1.632212e+000 -5.037638e-001 6.986348e+001 -6.910488e-002 -2.460304e-002 6.727775e-002 -7.193742e-002 2.697615e-002 -1.973694e-002 -3.826688e-002 -3.637237e-003 -1.860327e-002 3.998212e-003 1.349147e-002 -3.640534e-002 1.147154e-001 6.953741e-003 7.269087e-004 -5.131900e-003 8.970140e-003 4.189814e-003 -3.709614e-003 -1.095523e-003 2.388154e-003 -3.985653e-003 -1.619944e-004 8.532431e-005 -1.232548e-003 -6.683417e-004
<VARIANCE> 39
 1.401100e+002 2.328515e+001 4.504164e+001 1.029684e+002 4.689449e+001 7.596667e+001 2.935280e+001 4.179302e+001 4.502269e+001 3.331177e+001 2.367440e+001 2.356914e+001 1.216717e+002 4.511196e+000 1.552292e+000 2.022285e+000 3.908082e+000 2.109601e+000 3.111503e+000 1.746019e+000 2.046126e+000 2.550198e+000 1.738917e+000 1.619164e+000 1.512552e+000 2.617541e+000 5.010436e-001 2.708874e-001 3.387025e-001 5.302752e-001 3.577045e-001 4.866783e-001 3.174235e-001 3.604138e-001 4.641077e-001 3.290923e-001 3.054290e-001 2.663189e-001 3.533590e-001
<GCONST> 1.193956e+002
<STATE> 4
<MEAN> 39
 -1.514917e+001 -2.703599e+000 3.966274e+000 -3.776675e+000 2.268685e+000 -2.849497e+000 1.140304e+000 2.402266e+000 -1.286817e+000 -1.431445e+000 1.801844e+000 -8.390632e-001 7.086366e+001 2.435330e-002 -9.252500e-003 2.346049e-002 2.610506e-002 5.648041e-002 -4.429554e-002 -3.782306e-002 1.213779e-002 -4.532514e-002 6.475262e-003 1.526700e-002 -3.673226e-002 7.525443e-002 1.201176e-002 2.118735e-003 -6.996265e-003 1.407273e-002 3.242204e-003 -3.024358e-003 1.486018e-003 1.767154e-003 -3.397397e-003 1.610095e-003 7.910333e-004 4.932033e-004 -7.024262e-003
<VARIANCE> 39
 1.483081e+002 2.297368e+001 4.589240e+001 1.057657e+002 4.915927e+001 7.878603e+001 3.050486e+001 4.443933e+001 4.598606e+001 3.474995e+001 2.376119e+001 2.496313e+001 1.160032e+002 4.689467e+000 1.551056e+000 1.942190e+000 3.884356e+000 2.066610e+000 3.034355e+000 1.738527e+000 2.042150e+000 2.502456e+000 1.742767e+000 1.615854e+000 1.442533e+000 2.586242e+000 5.210905e-001 2.694283e-001 3.227000e-001 5.258021e-001 3.536792e-001 4.722939e-001 3.152264e-001 3.570702e-001 4.542080e-001 3.284605e-001 3.037967e-001 2.526862e-001 3.502007e-001
<GCONST> 1.194352e+002
<TRANSP> 5
 0.000000e+000 1.000000e+000 0.000000e+000 0.000000e+000 0.000000e+000
 0.000000e+000 7.535961e-001 2.464039e-001 0.000000e+000 0.000000e+000
 0.000000e+000 0.000000e+000 7.535959e-001 2.464041e-001 0.000000e+000
 0.000000e+000 0.000000e+000 0.000000e+000 8.830443e-001 1.169557e-001
 0.000000e+000 0.000000e+000 0.000000e+000 0.000000e+000 0.000000e+000
<ENDHMM>
~h "t"
<BEGINHMM>
<NUMSTATES> 5
<STATE> 2
<MEAN> 39
 -9.592735e+000 -2.248077e+000 2.488977e+000 -3.012333e-001 3.042657e+000 -5.286408e+000 1.250698e+000 2.850396e+000 -1.550626e+000 -1.153860e+000 1.311716e+000 -2.753698e-001 7.035896e+001 -1.774983e-002 -2.199238e-003 3.265385e-002 5.031014e-003 1.104680e-002 1.325623e-003 -1.153388e-002 7.423525e-003 8.716432e-003 9.581462e-003 6.709321e-003 -1.889040e-002 -1.022740e-002 5.142421e-004 1.571928e-003 -1.192636e-003 1.341325e-003 -4.548035e-004 -9.866582e-005 1.642947e-004 3.117607e-003 1.935258e-003 8.767881e-004 -9.749530e-005 -9.363946e-004 -2.973198e-003
<VARIANCE> 39
 9.452275e+001 2.962528e+001 4.253989e+001 6.936520e+001 6.709651e+001 9.293613e+001 3.601579e+001 4.926125e+001 6.400517e+001 3.737464e+001 2.716869e+001 3.109569e+001 1.199316e+002 3.019891e+000 1.876039e+000 1.839585e+000 2.964731e+000 2.481544e+000 3.927120e+000 2.270311e+000 2.534628e+000 3.134984e+000 2.022217e+000 1.755601e+000 1.748068e+000 3.404744e+000 3.808919e-001 3.101455e-001 3.215431e-001 4.620996e-001 4.008426e-001 5.983100e-001 4.028179e-001 4.286588e-001 5.186412e-001 3.689840e-001 3.167261e-001 2.996687e-001 5.470843e-001
<GCONST> 1.229422e+002
<STATE> 3
<MEAN> 39
 -9.660348e+000 -2.242158e+000 2.611750e+000 -2.667861e-001 3.089123e+000 -5.275668e+000 1.201012e+000 2.903894e+000 -1.492911e+000 -1.108452e+000 1.339011e+000 -3.577349e-001 7.029226e+001 -1.479753e-002 5.149296e-003 2.581894e-002 1.053548e-002 7.367199e-003 -7.513545e-004 -9.806190e-003 2.061343e-002 1.722793e-002 1.459276e-002 5.508050e-003 -2.110418e-002 -2.367361e-002 4.798388e-004 1.644541e-003 -1.773913e-003 1.044912e-003 -9.569637e-004 -5.872382e-004 5.553685e-004 2.741873e-003 2.107170e-003 9.367134e-004 -2.412170e-004 -5.261461e-004 -2.733092e-003
<VARIANCE> 39
 9.376778e+001 2.915371e+001 4.253856e+001 6.808060e+001 6.744039e+001 9.275536e+001 3.616130e+001 4.923907e+001 6.377145e+001 3.682285e+001 2.718211e+001 3.125584e+001 1.191096e+002 2.992731e+000 1.847468e+000 1.836197e+000 2.926237e+000 2.462672e+000 3.908713e+000 2.267239e+000 2.526397e+000 3.098500e+000 2.001647e+000 1.740306e+000 1.733622e+000 3.369754e+000 3.795547e-001 3.063863e-001 3.216040e-001 4.581966e-001 3.980284e-001 5.963104e-001 4.021562e-001 4.260129e-001 5.153719e-001 3.654848e-001 3.143203e-001 2.964959e-001 5.446972e-001
<GCONST> 1.227001e+002
<STATE> 4
<MEAN> 39
 -9.925320e+000 -2.177490e+000 2.829224e+000 -1.334276e-001 3.369573e+000 -5.204741e+000 1.011122e+000 3.035720e+000 -1.417464e+000 -1.068857e+000 1.438628e+000 -5.423822e-001 7.018790e+001 -1.075884e-002 2.054695e-002 9.716620e-003 1.710073e-002 5.728838e-004 2.378540e-004 -9.265225e-004 3.379263e-002 2.993405e-002 2.733450e-002 1.261621e-003 -2.122073e-002 -4.914170e-002 8.748920e-005 1.571450e-003 -2.365241e-003 1.397709e-004 -1.337059e-003 5.490376e-004 1.600387e-003 9.767718e-004 1.576177e-003 1.011905e-003 -6.601560e-004 2.887956e-004 -2.852845e-003
<VARIANCE> 39
 9.318396e+001 2.860392e+001 4.299448e+001 6.580939e+001 6.728044e+001 9.422024e+001 3.770005e+001 4.845797e+001 6.300236e+001 3.653632e+001 2.702316e+001 3.128782e+001 1.192047e+002 2.912624e+000 1.757733e+000 1.797261e+000 2.808481e+000 2.346871e+000 3.787308e+000 2.246376e+000 2.431900e+000 2.962296e+000 1.947577e+000 1.690753e+000 1.674719e+000 3.181793e+000 3.722932e-001 2.916749e-001 3.163464e-001 4.427837e-001 3.825016e-001 5.773292e-001 3.984334e-001 4.100984e-001 4.960793e-001 3.539717e-001 3.047604e-001 2.862179e-001 5.138422e-001
<GCONST> 1.217734e+002
<TRANSP> 5
 0.000000e+000 1.000000e+000 0.000000e+000 0.000000e+000 0.000000e+000
 0.000000e+000 7.380654e-001 2.619346e-001 0.000000e+000 0.000000e+000
 0.000000e+000 0.000000e+000 7.380636e-001 2.619364e-001 0.000000e+000
 0.000000e+000 0.000000e+000 0.000000e+000 8.668112e-001 1.331889e-001
 0.000000e+000 0.000000e+000 0.000000e+000 0.000000e+000 0.000000e+000
<ENDHMM>
~h "v"
<BEGINHMM>
<NUMSTATES> 5
<STATE> 2
<MEAN> 39
 -5.330028e+000 -1.375955e+000 3.325947e+000 1.647671e+000 3.322364e+000 -8.793844e+000 2.038037e+000 4.285836e+000 -4.572920e+000 -1.163978e+000 -1.182138e-001 -2.424230e+000 7.387030e+001 2.874950e-002 1.076300e-001 2.908255e-002 1.503323e-001 2.780382e-002 1.033847e-001 4.802816e-002 2.980810e-002 3.218275e-002 2.254470e-002 4.635068e-003 -3.553551e-002 -2.066734e-001 -1.666480e-002 -4.551825e-003 -7.682983e-003 -6.855438e-003 1.261225e-003 1.350865e-002 -1.919217e-004 -5.153578e-004 4.654848e-003 1.218445e-003 6.331303e-003 6.687310e-003 -1.345481e-002
<VARIANCE> 39
 8.484386e+001 4.367867e+001 3.629556e+001 8.478523e+001 7.554216e+001 1.109706e+002 4.453267e+001 5.157599e+001 6.057983e+001 3.508160e+001 2.834078e+001 3.150636e+001 8.384513e+001 3.046918e+000 1.497883e+000 1.457041e+000 3.305302e+000 2.382667e+000 3.435130e+000 1.975341e+000 2.234746e+000 2.866034e+000 1.803035e+000 1.581192e+000 1.773771e+000 1.840624e+000 3.921285e-001 2.232321e-001 2.326610e-001 5.112601e-001 3.473885e-001 4.726711e-001 3.087286e-001 3.439591e-001 4.922230e-001 3.285342e-001 2.620700e-001 2.973858e-001 2.403986e-001
<GCONST> 1.191329e+002
<STATE> 3
<MEAN> 39
 -5.378564e+000 -8.997335e-001 3.391820e+000 2.134636e+000 3.402091e+000 -8.233567e+000 2.291834e+000 4.399310e+000 -4.332985e+000 -1.049730e+000 -8.972037e-002 -2.486519e+000 7.287714e+001 -4.564225e-002 8.656671e-002 -2.289692e-003 1.172032e-001 3.632559e-002 1.580959e-001 4.235075e-002 2.756955e-002 5.202381e-002 3.041974e-002 3.187205e-002 -9.777185e-003 -2.565039e-001 -1.614253e-002 -5.289954e-003 -7.568385e-003 -8.336859e-003 1.371436e-003 1.252440e-002 -1.425530e-003 -3.414830e-003 3.707994e-003 1.191952e-003 5.403582e-003 6.628218e-003 -1.021828e-002
<VARIANCE> 39
 7.651583e+001 4.284258e+001 3.576115e+001 7.818495e+001 7.233031e+001 1.108399e+002 4.565329e+001 4.968315e+001 5.845144e+001 3.283019e+001 2.764567e+001 3.107598e+001 9.118799e+001 2.796188e+000 1.503567e+000 1.489156e+000 3.259669e+000 2.349294e+000 3.470665e+000 2.013553e+000 2.220688e+000 2.862154e+000 1.785420e+000 1.568088e+000 1.766347e+000 1.785156e+000 3.669939e-001 2.256031e-001 2.387442e-001 5.067392e-001 3.468674e-001 4.844106e-001 3.141108e-001 3.502765e-001 4.970606e-001 3.290317e-001 2.588390e-001 2.997196e-001 2.360341e-001
<GCONST> 1.186891e+002
<STATE> 4
<MEAN> 39
 -6.233525e+000 -4.382484e-001 3.122740e+000 2.397238e+000 3.748533e+000 -6.847808e+000 2.668608e+000 4.311712e+000 -3.902353e+000 -9.021584e-001 1.360300e-001 -2.152767e+000 7.117339e+001 -1.458819e-001 6.458391e-002 -4.056151e-002 4.865486e-002 2.846826e-002 2.131047e-001 2.810998e-002 1.920536e-002 9.109385e-002 4.355957e-002 5.412431e-002 2.530182e-002 -3.037644e-001 -1.025061e-002 -4.422896e-003 -4.147069e-003 -5.819582e-003 4.329934e-004 4.254413e-003 -4.023928e-003 -4.006090e-003 2.682899e-003 4.886071e-004 2.714631e-003 3.800967e-003 -2.696552e-003
<VARIANCE> 39
 7.278966e+001 3.922196e+001 3.447858e+001 6.842090e+001 6.590086e+001 1.098742e+002 4.482642e+001 4.642279e+001 5.482381e+001 3.017770e+001 2.583518e+001 2.987705e+001 1.116222e+002 2.375466e+000 1.422213e+000 1.459304e+000 3.009030e+000 2.206023e+000 3.197269e+000 1.967780e+000 2.135308e+000 2.756169e+000 1.726966e+000 1.498309e+000 1.649833e+000 1.613717e+000 3.215679e-001 2.138711e-001 2.372327e-001 4.659644e-001 3.347624e-001 4.577567e-001 3.060649e-001 3.493970e-001 4.797357e-001 3.209328e-001 2.475287e-001 2.845764e-001 2.133887e-001
<GCONST> 1.166738e+002
<TRANSP> 5
 0.000000e+000 1.000000e+000 0.000000e+000 0.000000e+000 0.000000e+000
 0.000000e+000 7.552276e-001 2.447723e-001 0.000000e+000 0.000000e+000
 0.000000e+000 0.000000e+000 7.552283e-001 2.447717e-001 0.000000e+000
 0.000000e+000 0.000000e+000 0.000000e+000 8.841233e-001 1.158767e-001
 0.000000e+000 0.000000e+000 0.000000e+000 0.000000e+000 0.000000e+000
<ENDHMM>
~h "w"
<BEGINHMM>
<NUMSTATES> 5
<STATE> 2
<MEAN> 39
 -1.024188e+001 -1.808075e+000 -9.586804e-001 2.410342e-001 1.294993e+000 -4.035958e+000 1.882785e+000 4.088982e+000 5.969710e-001 -2.649935e-001 6.703146e-001 8.616679e-001 6.536153e+001 1.212863e-001 -6.111132e-002 7.254755e-002 -7.560362e-004 4.891223e-002 -1.468670e-001 -3.714114e-002 -4.268341e-002 -6.716523e-002 -1.076627e-002 -3.971625e-004 -2.637652e-002 2.470002e-001 -4.812525e-004 7.801762e-003 5.435011e-003 1.554783e-003 1.899894e-003 4.328238e-004 1.124317e-005 1.238559e-003 -3.120294e-003 2.484293e-003 -1.056233e-003 -3.433845e-003 -6.177627e-003
<VARIANCE> 39
 7.161299e+001 2.787288e+001 4.307103e+001 3.587166e+001 4.086789e+001 8.785294e+001 2.914230e+001 3.917995e+001 5.096667e+001 2.525227e+001 2.129753e+001 3.004553e+001 1.569465e+002 1.668605e+000 1.558720e+000 1.496259e+000 1.881708e+000 1.817027e+000 3.003975e+000 1.721239e+000 1.815511e+000 2.467718e+000 1.724054e+000 1.645329e+000 1.512181e+000 2.265430e+000 2.275082e-001 2.572596e-001 2.275276e-001 3.185480e-001 2.906621e-001 4.632981e-001 3.065380e-001 3.076675e-001 3.801111e-001 3.298409e-001 2.929753e-001 2.670069e-001 3.221114e-001
<GCONST> 1.129411e+002
<STATE> 3
<MEAN> 39
 -9.744902e+000 -1.937646e+000 -5.639789e-001 2.695866e-001 1.527246e+000 -4.655502e+000 1.725462e+000 3.960941e+000 2.790793e-001 -2.865438e-001 6.536021e-001 6.871861e-001 6.629153e+001 1.196952e-001 -2.600127e-002 9.266807e-002 6.068335e-003 5.092341e-002 -1.505305e-001 -3.282360e-002 -3.079331e-002 -7.175727e-002 1.158667e-003 -8.364495e-003 -3.903209e-002 2.212059e-001 -9.090652e-004 9.046859e-003 5.109914e-003 1.692903e-003 -4.528390e-004 1.504439e-004 1.756614e-003 2.867595e-003 -3.136429e-004 3.318793e-003 -2.299302e-003 -3.409606e-003 -7.825366e-003
<VARIANCE> 39
 7.377774e+001 2.958868e+001 4.776453e+001 3.719133e+001 4.270102e+001 9.494141e+001 3.053180e+001 4.264535e+001 5.370261e+001 2.580204e+001 2.212291e+001 3.180764e+001 1.593802e+002 1.685240e+000 1.602983e+000 1.541951e+000 1.900324e+000 1.842911e+000 3.085924e+000 1.784985e+000 1.849769e+000 2.517113e+000 1.770155e+000 1.681371e+000 1.548599e+000 2.198514e+000 2.241099e-001 2.600327e-001 2.284476e-001 3.157489e-001 2.893600e-001 4.652861e-001 3.177524e-001 3.064876e-001 3.811429e-001 3.394549e-001 2.967240e-001 2.700750e-001 3.094203e-001
<GCONST> 1.138810e+002
<STATE> 4
<MEAN> 39
 -8.868294e+000 -1.660367e+000 7.305676e-001 4.177027e-001 1.973958e+000 -6.104842e+000 1.481956e+000 4.262518e+000 -3.879403e-001 -4.359141e-001 6.071438e-001 6.968719e-002 6.795481e+001 1.116301e-001 7.942133e-003 1.080495e-001 1.471566e-002 3.536116e-002 -1.572021e-001 -1.305014e-002 -3.976732e-003 -5.755163e-002 1.230879e-002 -2.366621e-002 -4.883843e-002 1.899405e-001 -2.786564e-003 4.584566e-003 1.030156e-003 5.571430e-004 -3.391483e-003 2.108474e-003 2.910500e-003 2.076291e-003 3.347790e-003 2.068426e-003 -2.047120e-003 -7.219055e-004 -7.060669e-003
<VARIANCE> 39
 7.429780e+001 3.434840e+001 5.805087e+001 3.757732e+001 4.679642e+001 1.196946e+002 3.717262e+001 5.021644e+001 5.707088e+001 2.706468e+001 2.270143e+001 3.475011e+001 1.574012e+002 1.641812e+000 1.698884e+000 1.657059e+000 1.910540e+000 1.876976e+000 3.380231e+000 1.956445e+000 1.916365e+000 2.575460e+000 1.783424e+000 1.703595e+000 1.557524e+000 2.128597e+000 2.097259e-001 2.570201e-001 2.345558e-001 3.115053e-001 2.895702e-001 4.781918e-001 3.355458e-001 3.087102e-001 3.836653e-001 3.400369e-001 2.992748e-001 2.663425e-001 2.854078e-001
<GCONST> 1.154461e+002
<TRANSP> 5
 0.000000e+000 1.000000e+000 0.000000e+000 0.000000e+000 0.000000e+000
 0.000000e+000 7.422731e-001 2.577269e-001 0.000000e+000 0.000000e+000
 0.000000e+000 0.000000e+000 7.422743e-001 2.577257e-001 0.000000e+000
 0.000000e+000 0.000000e+000 0.000000e+000 8.733677e-001 1.266322e-001
 0.000000e+000 0.000000e+000 0.000000e+000 0.000000e+000 0.000000e+000
<ENDHMM>
~h "y"
<BEGINHMM>
<NUMSTATES> 5
<STATE> 2
<MEAN> 39
 -6.460736e+000 -2.398390e+000 2.548109e+000 3.342240e-001 4.129943e+000 -6.449334e+000 8.913871e-001 5.095238e+000 -2.700643e+000 -2.164052e+000 1.755107e+000 -2.028234e+000 7.130726e+001 5.337261e-002 -1.950637e-002 1.042465e-001 1.881823e-002 4.336403e-002 -8.210988e-002 -2.317347e-002 -1.654799e-002 -2.408766e-002 -5.637106e-002 -1.998282e-002 -3.368260e-002 1.398153e-001 -3.264387e-003 -2.574938e-003 -5.618289e-003 -2.165185e-003 -4.224987e-003 -2.780859e-004 -1.247757e-003 -5.956602e-003 1.264257e-003 2.888905e-003 -7.703929e-004 6.730361e-003 -1.785243e-003
<VARIANCE> 39
 6.818941e+001 2.524723e+001 5.974776e+001 6.812204e+001 8.716139e+001 9.531730e+001 3.025949e+001 4.566000e+001 6.549493e+001 3.408549e+001 3.402568e+001 3.567377e+001 1.140307e+002 1.982856e+000 1.810955e+000 2.284768e+000 2.592976e+000 3.150980e+000 3.453254e+000 1.918679e+000 2.375142e+000 3.244467e+000 2.311618e+000 2.118401e+000 1.728547e+000 2.871735e+000 2.732611e-001 2.979283e-001 3.548171e-001 3.648526e-001 4.406423e-001 5.055320e-001 3.595362e-001 3.869525e-001 5.002834e-001 4.111766e-001 3.928642e-001 2.839589e-001 4.248054e-001
<GCONST> 1.219161e+002
<STATE> 3
<MEAN> 39
 -6.227808e+000 -2.544342e+000 2.891072e+000 3.847541e-001 4.265878e+000 -6.872770e+000 7.762814e-001 4.957667e+000 -2.815752e+000 -2.368015e+000 1.669926e+000 -2.090244e+000 7.195567e+001 3.749491e-002 -2.801505e-002 5.025125e-002 -8.184957e-003 9.557537e-003 -8.053276e-002 -2.687689e-002 -4.106810e-002 -1.843927e-002 -3.255046e-002 -1.633537e-002 4.623159e-003 1.165764e-001 -4.351994e-003 -1.504257e-003 -1.327742e-002 -6.364676e-003 -7.741496e-003 1.917604e-003 -3.771117e-004 -5.935770e-003 1.540789e-003 6.398703e-003 1.015747e-003 9.108875e-003 -7.171140e-003
<VARIANCE> 39
 6.566004e+001 2.563323e+001 6.077087e+001 7.186716e+001 8.940688e+001 9.741762e+001 3.079093e+001 4.943796e+001 6.640768e+001 3.415996e+001 3.505172e+001 3.600464e+001 1.057862e+002 1.936167e+000 1.817643e+000 2.366183e+000 2.578217e+000 3.167925e+000 3.542968e+000 1.986341e+000 2.401401e+000 3.271054e+000 2.312577e+000 2.134581e+000 1.695535e+000 2.924945e+000 2.646202e-001 2.991565e-001 3.667948e-001 3.610120e-001 4.441678e-001 5.138369e-001 3.706210e-001 3.866087e-001 5.051755e-001 4.075039e-001 3.937637e-001 2.794135e-001 4.342213e-001
<GCONST> 1.222463e+002
<STATE> 4
<MEAN> 39
 -6.079965e+000 -2.938932e+000 2.864895e+000 2.826806e-001 4.214809e+000 -7.777004e+000 6.629640e-001 4.549977e+000 -2.925041e+000 -2.330170e+000 1.636631e+000 -1.829423e+000 7.287772e+001 1.783240e-002 -2.502908e-002 -7.124208e-002 -7.920185e-002 -6.503322e-002 -6.996809e-002 -1.274233e-002 -6.065455e-002 -4.756889e-003 3.704639e-002 -6.045747e-003 6.879432e-002 5.110606e-002 -6.386365e-003 2.513855e-003 -1.328462e-002 -7.417390e-003 -8.104418e-003 8.088103e-003 2.505481e-003 -2.716200e-003 3.493570e-003 8.541545e-003 1.061230e-003 7.647890e-003 -1.468928e-002
<VARIANCE> 39
 6.283717e+001 2.692050e+001 5.937719e+001 7.157180e+001 8.926241e+001 1.064421e+002 3.077064e+001 5.854502e+001 6.558291e+001 3.440667e+001 3.558908e+001 3.701774e+001 1.009720e+002 1.828829e+000 1.746229e+000 2.407710e+000 2.477198e+000 3.147152e+000 3.653986e+000 2.067240e+000 2.426917e+000 3.265631e+000 2.243719e+000 2.101136e+000 1.599742e+000 2.886453e+000 2.450074e-001 2.845492e-001 3.662212e-001 3.439630e-001 4.419732e-001 5.127805e-001 3.835147e-001 3.814692e-001 5.088176e-001 3.916122e-001 3.842235e-001 2.661294e-001 4.278547e-001
<GCONST> 1.220227e+002
<TRANSP> 5
 0.000000e+000 1.000000e+000 0.000000e+000 0.000000e+000 0.000000e+000
 0.000000e+000 7.518857e-001 2.481143e-001 0.000000e+000 0.000000e+000
 0.000000e+000 0.000000e+000 7.518852e-001 2.481148e-001 0.000000e+000
 0.000000e+000 0.000000e+000 0.000000e+000 8.779691e-001 1.220309e-001
 0.000000e+000 0.000000e+000 0.000000e+000 0.000000e+000 0.000000e+000
<ENDHMM>
~h "z"
<BEGINHMM>
<NUMSTATES> 5
<STATE> 2
<MEAN> 39
 -1.107574e+001 -2.340862e+000 6.585552e+000 -1.720437e+000 2.401137e+000 -5.871416e+000 1.257478e+000 3.789150e+000 -2.053875e+000 -2.778723e+000 4.008032e-001 -1.801751e+000 7.193504e+001 4.646464e-002 1.871705e-002 -3.269610e-002 -2.078053e-002 -8.527012e-002 8.713325e-003 4.161458e-002 3.517082e-002 1.115556e-002 3.695014e-003 -2.469601e-002 1.742896e-002 -2.979626e-002 6.369668e-003 3.697225e-003 -6.926010e-003 8.971848e-003 4.290018e-003 9.369403e-004 2.085337e-003 -8.000446e-004 -6.251951e-004 3.746887e-003 -2.537496e-003 2.865025e-003 -8.350987e-003
<VARIANCE> 39
 1.296570e+002 2.632027e+001 4.409550e+001 9.286701e+001 8.850359e+001 1.169932e+002 3.538378e+001 5.782148e+001 5.157056e+001 3.824696e+001 2.889227e+001 3.274522e+001 8.622311e+001 4.574378e+000 1.825590e+000 1.765950e+000 3.734537e+000 3.330206e+000 5.069667e+000 2.314681e+000 2.696863e+000 2.942122e+000 2.497133e+000 1.691451e+000 2.105681e+000 2.435215e+000 5.144663e-001 3.088782e-001 2.840269e-001 5.104067e-001 4.538468e-001 7.399091e-001 4.148131e-001 4.335057e-001 5.148096e-001 4.789634e-001 3.087660e-001 3.705695e-001 3.665692e-001
<GCONST> 1.255667e+002
<STATE> 3
<MEAN> 39
 -1.088791e+001 -2.253331e+000 6.453060e+000 -1.785773e+000 2.098973e+000 -5.822257e+000 1.426509e+000 3.929443e+000 -2.000269e+000 -2.751283e+000 2.871319e-001 -1.724824e+000 7.178895e+001 7.274804e-002 3.403833e-002 -5.870907e-002 1.675958e-002 -6.555966e-002 1.001565e-002 5.049273e-002 3.151166e-002 9.153490e-003 1.943245e-002 -3.498725e-002 2.705233e-002 -6.149650e-002 4.799315e-003 3.631137e-003 -5.132985e-003 9.136212e-003 5.989954e-003 -1.519206e-004 2.281776e-003 -2.158648e-003 4.431496e-004 4.716069e-003 -2.192666e-003 1.944475e-003 -6.911557e-003
<VARIANCE> 39
 1.275371e+002 2.557967e+001 4.337262e+001 9.240467e+001 8.808247e+001 1.178800e+002 3.570161e+001 5.729094e+001 5.150132e+001 3.887705e+001 2.929929e+001 3.308627e+001 8.832774e+001 4.475632e+000 1.806544e+000 1.782419e+000 3.803601e+000 3.409714e+000 4.991352e+000 2.270391e+000 2.689990e+000 2.956539e+000 2.508918e+000 1.705019e+000 2.156616e+000 2.448693e+000 5.083177e-001 3.090547e-001 2.845932e-001 5.232102e-001 4.660936e-001 7.300395e-001 4.093399e-001 4.365238e-001 5.168523e-001 4.791597e-001 3.112954e-001 3.782005e-001 3.697389e-001
<GCONST> 1.256582e+002
<STATE> 4
<MEAN> 39
 -1.089867e+001 -1.989986e+000 6.203004e+000 -1.730656e+000 2.119190e+000 -5.413791e+000 1.686406e+000 3.848149e+000 -2.105515e+000 -2.494584e+000 2.778288e-001 -1.561349e+000 7.125312e+001 1.035968e-001 4.790232e-002 -7.364534e-002 5.716169e-002 -2.966029e-002 -4.052364e-003 5.792602e-002 2.440747e-002 3.114600e-003 3.680526e-002 -4.335659e-002 2.983094e-002 -7.240304e-002 2.753917e-003 2.503858e-003 -2.714623e-003 7.497766e-003 5.645072e-003 -1.835805e-003 8.875075e-004 -2.811922e-003 8.346844e-004 3.961786e-003 -1.329333e-003 2.597331e-004 -3.971318e-003
<VARIANCE> 39
 1.230864e+002 2.580502e+001 4.481839e+001 9.167725e+001 8.601370e+001 1.172255e+002 3.631607e+001 5.478802e+001 5.357505e+001 3.953907e+001 2.991277e+001 3.276378e+001 9.624334e+001 4.284510e+000 1.767356e+000 1.842538e+000 3.838541e+000 3.394642e+000 4.782608e+000 2.186867e+000 2.616411e+000 2.927571e+000 2.474688e+000 1.729500e+000 2.159377e+000 2.445355e+000 4.941147e-001 3.054573e-001 2.890434e-001 5.322317e-001 4.704497e-001 6.980675e-001 3.942122e-001 4.323810e-001 5.064058e-001 4.664172e-001 3.165220e-001 3.779836e-001 3.662244e-001
<GCONST> 1.254766e+002
<TRANSP> 5
 0.000000e+000 1.000000e+000 0.000000e+000 0.000000e+000 0.000000e+000
 0.000000e+000 7.419432e-001 2.580568e-001 0.000000e+000 0.000000e+000
 0.000000e+000 0.000000e+000 7.419434e-001 2.580567e-001 0.000000e+000
 0.000000e+000 0.000000e+000 0.000000e+000 8.708760e-001 1.291240e-001
 0.000000e+000 0.000000e+000 0.000000e+000 0.000000e+000 0.000000e+000
<ENDHMM>
~h "aa"
<BEGINHMM>
<NUMSTATES> 5
<STATE> 2
<MEAN> 39
 -8.692475e+000 -2.655065e+000 4.134597e-001 -2.112989e+000 2.339292e+000 -4.579292e+000 1.647365e+000 4.464741e+000 -2.535495e-001 -1.084298e+000 9.384547e-001 1.050564e+000 7.020961e+001 6.241129e-002 -1.997628e-002 -1.660095e-002 2.674412e-002 4.352687e-002 -4.207017e-002 1.848345e-002 -7.258788e-003 -4.131033e-002 1.061215e-002 1.492845e-002 -2.162723e-002 6.863495e-002 -2.423940e-003 1.419495e-003 1.372401e-003 4.423626e-003 -3.604356e-004 1.148917e-003 4.035969e-004 -5.021919e-004 3.460580e-004 1.644496e-003 -1.700597e-004 -2.626360e-003 -4.671658e-003
<VARIANCE> 39
 9.195490e+001 2.695090e+001 3.651661e+001 7.598649e+001 5.055264e+001 7.779111e+001 2.345395e+001 4.125978e+001 5.187315e+001 2.964741e+001 2.114567e+001 2.840009e+001 1.137514e+002 2.152233e+000 1.701732e+000 1.927041e+000 3.141920e+000 2.770542e+000 3.062951e+000 1.702605e+000 2.330880e+000 3.676421e+000 2.098263e+000 1.508980e+000 1.623269e+000 3.062554e+000 2.703482e-001 2.804297e-001 3.217965e-001 4.662445e-001 4.250778e-001 4.338923e-001 3.239910e-001 4.105736e-001 5.914585e-001 3.610702e-001 2.887575e-001 2.680881e-001 4.522723e-001
<GCONST> 1.186368e+002
<STATE> 3
<MEAN> 39
 -8.489944e+000 -2.731011e+000 3.395766e-001 -2.024725e+000 2.496951e+000 -4.710313e+000 1.710192e+000 4.403132e+000 -4.048913e-001 -1.041816e+000 9.825215e-001 9.735416e-001 7.042345e+001 4.915866e-002 -1.260195e-002 -1.113531e-002 4.065764e-002 3.968563e-002 -3.249671e-002 1.900934e-002 -1.053900e-002 -3.600438e-002 1.750413e-002 1.490056e-002 -2.939342e-002 4.455580e-002 -3.114297e-003 1.505593e-003 1.975401e-003 3.348125e-003 -1.507285e-003 1.037491e-003 2.269613e-004 2.491274e-004 2.027744e-003 1.928849e-003 -1.438241e-004 -2.483527e-003 -5.091651e-003
<VARIANCE> 39
 9.221320e+001 2.766134e+001 3.577552e+001 7.564721e+001 5.090437e+001 7.800206e+001 2.459565e+001 4.183448e+001 5.276016e+001 3.097482e+001 2.139293e+001 2.920865e+001 1.104856e+002 2.115594e+000 1.728731e+000 1.883359e+000 3.117475e+000 2.755239e+000 3.055070e+000 1.729834e+000 2.362204e+000 3.714111e+000 2.125457e+000 1.506411e+000 1.649056e+000 2.955989e+000 2.690275e-001 2.819397e-001 3.129559e-001 4.591873e-001 4.168370e-001 4.299125e-001 3.268130e-001 4.149336e-001 5.977888e-001 3.637112e-001 2.876200e-001 2.709683e-001 4.375543e-001
<GCONST> 1.187130e+002
<STATE> 4
<MEAN> 39
 -8.448266e+000 -2.905730e+000 2.458572e-002 -2.258414e+000 2.610891e+000 -4.789208e+000 1.878556e+000 4.348364e+000 -6.215937e-001 -8.913419e-001 8.432151e-001 9.976721e-001 7.065501e+001 3.103975e-003 2.410682e-005 -1.937031e-003 4.384546e-002 2.908159e-002 1.175506e-002 1.016425e-002 -3.356925e-002 -2.496442e-002 1.749463e-002 1.624904e-002 -2.409859e-002 -1.552336e-002 -3.945660e-003 1.611626e-003 2.012358e-003 1.906674e-003 -2.889035e-003 1.837981e-003 -2.566908e-004 8.707752e-004 3.073144e-003 9.373979e-004 -9.063096e-005 -1.263925e-003 -5.562389e-003
<VARIANCE> 39
 9.574350e+001 3.060026e+001 3.581679e+001 7.434478e+001 4.848856e+001 7.996861e+001 2.593911e+001 4.594909e+001 5.178034e+001 3.222688e+001 2.234100e+001 2.973641e+001 1.049086e+002 2.089438e+000 1.799769e+000 1.808311e+000 3.042406e+000 2.615118e+000 2.943966e+000 1.736791e+000 2.382507e+000 3.612210e+000 2.038363e+000 1.478849e+000 1.641639e+000 2.714177e+000 2.628587e-001 2.778352e-001 3.036777e-001 4.574545e-001 3.939627e-001 4.143058e-001 3.249764e-001 4.088584e-001 5.871223e-001 3.439408e-001 2.802781e-001 2.705332e-001 3.950997e-001
<GCONST> 1.183082e+002
<TRANSP> 5
 0.000000e+000 1.000000e+000 0.000000e+000 0.000000e+000 0.000000e+000
 0.000000e+000 7.382846e-001 2.617154e-001 0.000000e+000 0.000000e+000
 0.000000e+000 0.000000e+000 7.382848e-001 2.617153e-001 0.000000e+000
 0.000000e+000 0.000000e+000 0.000000e+000 8.670714e-001 1.329286e-001
 0.000000e+000 0.000000e+000 0.000000e+000 0.000000e+000 0.000000e+000
<ENDHMM>
~h "ae"
<BEGINHMM>
<NUMSTATES> 5
<STATE> 2
<MEAN> 39
 -7.204520e+000 -2.363977e+000 2.292535e+000 1.269076e+000 1.206286e+000 -7.022780e+000 3.438153e+000 4.297325e+000 -5.172502e-001 -3.792898e-001 -1.162251e+000 -4.050145e-001 7.082427e+001 6.712789e-002 -6.442405e-002 -2.196908e-002 1.261775e-002 4.633220e-002 -4.330451e-002 2.780816e-002 -4.463787e-002 -5.301953e-002 1.507195e-002 2.900655e-002 6.497118e-003 1.545944e-001 1.477715e-003 8.916730e-004 -2.945152e-004 -2.359754e-003 -2.622408e-004 -1.560625e-004 -6.777890e-004 2.555297e-003 -4.092493e-003 -2.504703e-003 2.929444e-003 -1.873563e-003 -5.107398e-006
<VARIANCE> 39
 7.992687e+001 3.543005e+001 5.054251e+001 7.101447e+001 7.508414e+001 9.296006e+001 3.895294e+001 4.902503e+001 5.131126e+001 3.221982e+001 3.355255e+001 3.931069e+001 1.036457e+002 3.419846e+000 2.346396e+000 1.994820e+000 3.689728e+000 3.765599e+000 4.780923e+000 2.375974e+000 2.669582e+000 2.872869e+000 2.384728e+000 2.086488e+000 2.857371e+000 3.437458e+000 4.558621e-001 3.941039e-001 3.201327e-001 5.674279e-001 5.604433e-001 7.373219e-001 4.493737e-001 4.524463e-001 4.893838e-001 4.630346e-001 3.887839e-001 5.003883e-001 5.327939e-001
<GCONST> 1.275637e+002
<STATE> 3
<MEAN> 39
 -6.895900e+000 -2.589283e+000 2.201231e+000 1.310647e+000 1.375363e+000 -7.207202e+000 3.553024e+000 4.158057e+000 -7.686154e-001 -3.374588e-001 -1.046904e+000 -3.962286e-001 7.142189e+001 6.963655e-002 -5.385060e-002 -1.915981e-002 4.399779e-003 4.559075e-002 -3.569528e-002 2.428714e-002 -3.715360e-002 -6.488809e-002 5.049386e-003 3.680171e-002 -6.263960e-004 1.459661e-001 1.001629e-003 2.790001e-003 6.750081e-004 -1.625969e-003 -1.492891e-004 2.348952e-003 -7.181918e-004 1.805667e-003 -2.985542e-003 -2.393848e-003 1.793660e-003 -1.930743e-003 -2.595389e-003
<VARIANCE> 39
 8.017088e+001 3.602425e+001 5.076558e+001 7.431861e+001 7.588991e+001 9.017588e+001 4.050409e+001 4.942664e+001 5.271572e+001 3.209405e+001 3.452887e+001 3.926978e+001 1.000521e+002 3.475364e+000 2.347856e+000 2.029805e+000 3.780655e+000 3.769302e+000 4.741942e+000 2.411766e+000 2.691697e+000 2.902673e+000 2.341813e+000 2.092733e+000 2.828522e+000 3.425648e+000 4.640974e-001 3.920150e-001 3.249154e-001 5.803418e-001 5.669868e-001 7.318581e-001 4.568120e-001 4.555085e-001 4.905393e-001 4.544870e-001 3.884885e-001 4.938794e-001 5.318564e-001
<GCONST> 1.277775e+002
<STATE> 4
<MEAN> 39
 -6.354667e+000 -2.879633e+000 1.850249e+000 1.427693e+000 1.730235e+000 -7.412554e+000 3.807922e+000 3.981079e+000 -1.407321e+000 -2.012249e-001 -7.612767e-001 -4.007595e-001 7.219514e+001 7.091921e-002 -2.823954e-002 -7.863674e-003 1.104969e-002 5.480220e-002 -1.144130e-002 1.875275e-002 -4.157146e-002 -7.580705e-002 -4.080486e-003 3.870939e-002 -1.246192e-002 1.215499e-001 -1.704032e-003 3.461767e-003 2.004421e-003 8.876056e-004 1.305235e-003 5.156400e-003 -1.586043e-003 -7.357445e-004 -6.140687e-004 -1.597527e-003 6.558837e-004 -1.811547e-003 -5.343347e-003
<VARIANCE> 39
 7.676736e+001 3.567595e+001 5.084322e+001 7.616805e+001 7.513197e+001 8.608274e+001 4.299488e+001 4.877306e+001 5.443754e+001 3.257444e+001 3.658650e+001 3.879605e+001 9.723772e+001 3.286660e+000 2.268697e+000 2.048501e+000 3.741078e+000 3.610464e+000 4.561487e+000 2.413034e+000 2.692795e+000 2.878472e+000 2.308873e+000 2.099983e+000 2.751412e+000 3.382891e+000 4.418608e-001 3.764855e-001 3.265396e-001 5.770814e-001 5.466837e-001 7.032060e-001 4.584718e-001 4.549420e-001 4.839166e-001 4.452631e-001 3.913817e-001 4.779615e-001 5.260147e-001
<GCONST> 1.273383e+002
<TRANSP> 5
 0.000000e+000 1.000000e+000 0.000000e+000 0.000000e+000 0.000000e+000
 0.000000e+000 7.322748e-001 2.677251e-001 0.000000e+000 0.000000e+000
 0.000000e+000 0.000000e+000 7.322752e-001 2.677248e-001 0.000000e+000
 0.000000e+000 0.000000e+000 0.000000e+000 8.574889e-001 1.425111e-001
 0.000000e+000 0.000000e+000 0.000000e+000 0.000000e+000 0.000000e+000
<ENDHMM>
~h "ah"
<BEGINHMM>
<NUMSTATES> 5
<STATE> 2
<MEAN> 39
 -5.736950e+000 -1.059166e+000 3.840945e+000 8.089699e-001 -8.041048e-002 -1.014176e+001 2.661597e+000 7.190335e+000 -1.637327e+000 -7.151511e-001 -9.408627e-001 -1.270976e+000 7.124115e+001 1.093057e-001 -5.728555e-003 7.167831e-002 -9.687318e-003 2.747915e-002 -1.300851e-001 4.393627e-002 5.292353e-002 -7.635336e-002 -2.571522e-002 -5.166291e-002 -5.146420e-002 1.848613e-001 -5.560447e-003 -7.636784e-004 -4.535265e-003 -3.174771e-003 -1.608290e-003 4.351056e-003 2.584995e-003 -2.082121e-003 5.403460e-003 -1.454616e-003 -1.260797e-003 4.167312e-003 -5.687558e-003
<VARIANCE> 39
 6.815856e+001 3.697445e+001 4.999586e+001 5.361713e+001 7.213403e+001 1.596171e+002 4.165010e+001 5.638441e+001 5.903392e+001 2.912017e+001 2.659540e+001 3.176692e+001 1.131126e+002 2.062262e+000 1.843378e+000 2.039914e+000 2.951513e+000 2.979808e+000 5.203563e+000 2.343888e+000 2.608138e+000 3.198949e+000 2.066245e+000 1.624628e+000 1.864496e+000 3.058676e+000 2.583208e-001 2.675480e-001 2.924828e-001 4.421756e-001 4.272643e-001 7.054361e-001 3.889393e-001 4.237473e-001 5.358352e-001 3.776397e-001 2.621732e-001 2.826625e-001 4.239922e-001
<GCONST> 1.224524e+002
<STATE> 3
<MEAN> 39
 -5.302078e+000 -1.096700e+000 4.063127e+000 7.103249e-001 -1.205397e-002 -1.064279e+001 2.854913e+000 7.405428e+000 -1.899357e+000 -8.353098e-001 -1.158498e+000 -1.429499e+000 7.196619e+001 8.282015e-002 -6.614500e-003 5.227158e-002 -2.031410e-002 2.512714e-002 -9.228520e-002 4.777468e-002 3.921018e-002 -5.825932e-002 -3.062714e-002 -5.050986e-002 -3.669857e-002 1.507784e-001 -6.299844e-003 5.861342e-004 -3.366155e-003 -6.780913e-004 6.051585e-004 1.008316e-002 5.862850e-005 -3.529784e-003 3.995452e-003 -2.006051e-003 3.501129e-004 2.611708e-003 -8.913485e-003
<VARIANCE> 39
 6.670369e+001 3.794748e+001 4.752275e+001 5.419198e+001 7.095383e+001 1.579072e+002 4.409414e+001 5.790607e+001 5.876475e+001 2.854250e+001 2.781361e+001 3.134760e+001 1.074102e+002 2.096346e+000 1.883312e+000 2.000330e+000 2.943337e+000 2.983525e+000 5.380188e+000 2.408351e+000 2.680451e+000 3.195592e+000 2.052990e+000 1.683624e+000 1.862324e+000 3.194190e+000 2.601145e-001 2.708900e-001 2.859440e-001 4.405943e-001 4.308682e-001 7.317761e-001 3.984611e-001 4.379628e-001 5.352952e-001 3.771855e-001 2.699324e-001 2.806968e-001 4.376924e-001
<GCONST> 1.227503e+002
<STATE> 4
<MEAN> 39
 -4.805782e+000 -7.898704e-001 4.252386e+000 8.627511e-001 1.420226e-001 -1.134731e+001 3.302224e+000 8.024472e+000 -2.194021e+000 -9.915719e-001 -1.318030e+000 -1.520888e+000 7.250826e+001 1.898704e-002 7.426112e-003 1.371233e-002 -1.818591e-002 4.386054e-002 3.918182e-002 2.347596e-002 -5.300157e-003 -2.893289e-002 -3.302357e-002 -2.137118e-002 -2.079745e-002 3.145534e-002 -9.610889e-003 2.398374e-003 -2.962166e-003 2.393790e-003 3.667534e-003 1.650963e-002 -4.031357e-003 -6.597979e-003 2.947154e-003 -1.049146e-003 4.407386e-003 9.928282e-004 -1.594131e-002
<VARIANCE> 39
 6.297611e+001 4.056941e+001 4.580662e+001 5.480426e+001 6.630630e+001 1.736861e+002 4.923314e+001 6.081898e+001 5.536848e+001 2.715960e+001 2.750608e+001 2.748963e+001 1.058270e+002 1.941932e+000 1.836877e+000 1.951871e+000 2.796363e+000 2.732609e+000 5.334098e+000 2.448869e+000 2.596670e+000 3.096787e+000 1.908062e+000 1.667172e+000 1.717831e+000 2.943174e+000 2.390068e-001 2.545042e-001 2.714314e-001 4.128861e-001 3.930236e-001 7.044095e-001 4.000401e-001 4.280043e-001 5.169944e-001 3.469228e-001 2.716486e-001 2.621278e-001 3.824300e-001
<GCONST> 1.213600e+002
<TRANSP> 5
 0.000000e+000 1.000000e+000 0.000000e+000 0.000000e+000 0.000000e+000
 0.000000e+000 7.451470e-001 2.548530e-001 0.000000e+000 0.000000e+000
 0.000000e+000 0.000000e+000 7.451465e-001 2.548535e-001 0.000000e+000
 0.000000e+000 0.000000e+000 0.000000e+000 8.808010e-001 1.191991e-001
 0.000000e+000 0.000000e+000 0.000000e+000 0.000000e+000 0.000000e+000
<ENDHMM>
~h "ao"
<BEGINHMM>
<NUMSTATES> 5
<STATE> 2
<MEAN> 39
 -9.259710e+000 -2.150059e+000 1.558653e+000 -3.207884e+000 -2.008077e+000 -9.314611e+000 2.469584e-001 5.323579e+000 1.726456e+000 -2.741692e-001 1.727483e+000 -3.899756e-002 7.141724e+001 7.048920e-002 2.536835e-002 2.198273e-002 -5.041254e-002 -9.416323e-002 -6.324378e-002 1.926468e-002 4.067259e-002 -1.715720e-002 4.575443e-002 4.038693e-003 1.379921e-002 1.820941e-002 -3.187126e-003 2.107251e-003 -1.537103e-003 2.328149e-003 8.186806e-003 1.192677e-002 5.052138e-003 -7.299415e-005 -5.299665e-003 -3.277826e-003 -1.615834e-003 -7.167013e-005 -5.958355e-003
<VARIANCE> 39
 1.140426e+002 3.691544e+001 3.596172e+001 3.676833e+001 8.044923e+001 1.863425e+002 3.542980e+001 3.858775e+001 3.866374e+001 3.806197e+001 3.011071e+001 2.748118e+001 1.185298e+002 3.292944e+000 1.598712e+000 1.659363e+000 2.072490e+000 2.221784e+000 4.510510e+000 1.995411e+000 2.101141e+000 2.296918e+000 2.164741e+000 1.704231e+000 1.302511e+000 2.304520e+000 3.841176e-001 2.460964e-001 2.976239e-001 3.341478e-001 3.492814e-001 5.860760e-001 3.543690e-001 3.583923e-001 3.905919e-001 3.834242e-001 3.006179e-001 2.262342e-001 3.433045e-001
<GCONST> 1.187306e+002
<STATE> 3
<MEAN> 39
 -9.007319e+000 -1.962256e+000 1.659431e+000 -3.418801e+000 -2.309776e+000 -9.395134e+000 4.139448e-001 5.496325e+000 1.584454e+000 -8.655211e-002 1.712375e+000 4.154594e-002 7.139289e+001 3.761480e-002 3.574306e-002 1.484912e-002 -3.782908e-002 -4.859307e-002 2.288124e-003 4.031690e-002 3.515957e-002 -3.196998e-002 3.046430e-002 -4.647622e-003 1.659255e-002 -1.399572e-002 -6.633000e-003 1.215490e-003 -1.248151e-003 3.282802e-003 9.359749e-003 1.221445e-002 3.571146e-003 -1.434204e-003 -2.693244e-003 -3.344189e-003 -1.403276e-003 2.863487e-004 -5.475080e-003
<VARIANCE> 39
 1.115057e+002 3.770804e+001 3.721575e+001 3.837433e+001 7.876218e+001 1.865940e+002 3.499806e+001 3.824427e+001 3.766566e+001 3.832384e+001 2.926873e+001 2.553675e+001 1.200083e+002 3.194689e+000 1.585943e+000 1.631753e+000 2.139393e+000 2.265481e+000 4.496492e+000 1.947978e+000 2.094332e+000 2.326426e+000 2.161525e+000 1.628823e+000 1.271729e+000 2.341856e+000 3.701314e-001 2.421769e-001 2.867982e-001 3.438136e-001 3.600698e-001 5.774030e-001 3.455023e-001 3.567108e-001 4.029259e-001 3.807871e-001 2.874155e-001 2.236356e-001 3.474505e-001
<GCONST> 1.184841e+002
<STATE> 4
<MEAN> 39
 -9.073497e+000 -1.406972e+000 2.094868e+000 -3.815623e+000 -2.730388e+000 -9.129036e+000 7.632665e-001 5.733521e+000 1.451102e+000 2.127448e-001 1.577762e+000 2.586796e-001 7.130042e+001 -5.345623e-002 4.665777e-002 -1.773175e-003 5.243132e-003 4.705577e-002 1.297933e-001 5.417822e-002 8.323803e-003 -3.296389e-002 5.361648e-003 -2.174474e-002 2.135324e-002 -1.044450e-001 -7.274814e-003 -1.480351e-003 -1.770691e-003 5.598795e-003 8.467223e-003 9.205908e-003 -6.508350e-004 -3.193230e-003 -4.267654e-004 -2.349220e-003 -8.737308e-005 -6.682880e-004 -6.820558e-003
<VARIANCE> 39
 1.143922e+002 3.758242e+001 4.205034e+001 4.087879e+001 7.668359e+001 1.864123e+002 3.652332e+001 3.755503e+001 3.604537e+001 3.743769e+001 2.673340e+001 2.248567e+001 1.219171e+002 3.091931e+000 1.525543e+000 1.585305e+000 2.189847e+000 2.235950e+000 4.194396e+000 1.847724e+000 1.949845e+000 2.307892e+000 2.061266e+000 1.487448e+000 1.186054e+000 2.104007e+000 3.448887e-001 2.310798e-001 2.598540e-001 3.506240e-001 3.599134e-001 5.382411e-001 3.174145e-001 3.350820e-001 4.117870e-001 3.617093e-001 2.662362e-001 2.116410e-001 3.041080e-001
<GCONST> 1.171027e+002
<TRANSP> 5
 0.000000e+000 1.000000e+000 0.000000e+000 0.000000e+000 0.000000e+000
 0.000000e+000 7.732118e-001 2.267881e-001 0.000000e+000 0.000000e+000
 0.000000e+000 0.000000e+000 7.732123e-001 2.267877e-001 0.000000e+000
 0.000000e+000 0.000000e+000 0.000000e+000 9.049789e-001 9.502108e-002
 0.000000e+000 0.000000e+000 0.000000e+000 0.000000e+000 0.000000e+000
<ENDHMM>
~h "aw"
<BEGINHMM>
<NUMSTATES> 5
<STATE> 2
<MEAN> 39
 -1.071285e+001 -1.039052e+000 5.260534e+000 -2.364937e+000 9.596889e-001 -6.917079e+000 1.643426e+000 6.526890e+000 2.820343e-001 -3.306976e+000 -2.831209e-001 -1.502240e+000 7.149119e+001 1.483880e-001 -2.653681e-003 6.345066e-002 3.824316e-002 -6.377500e-002 -1.247327e-001 3.957902e-002 5.594963e-002 -2.498469e-002 -2.043324e-002 -4.122319e-002 -5.573804e-002 1.446845e-001 4.725133e-003 -5.511690e-004 -2.541095e-003 2.720835e-003 -3.163669e-003 5.457534e-004 1.576283e-003 -1.242036e-003 -9.548903e-004 1.559688e-003 -8.504707e-004 -2.174905e-004 -3.348337e-003
<VARIANCE> 39
 1.150951e+002 2.393691e+001 4.008971e+001 4.732281e+001 6.811172e+001 1.340210e+002 4.321553e+001 5.593323e+001 3.628870e+001 3.773537e+001 2.249555e+001 3.341833e+001 8.978377e+001 4.283220e+000 1.944904e+000 1.647312e+000 2.545878e+000 3.211811e+000 6.123264e+000 3.331227e+000 3.533563e+000 2.333405e+000 2.912740e+000 1.687645e+000 2.434647e+000 2.864987e+000 5.089731e-001 3.403504e-001 2.791223e-001 4.419037e-001 4.259779e-001 9.010509e-001 5.960043e-001 5.523081e-001 4.137085e-001 5.544539e-001 3.301713e-001 4.223422e-001 4.911453e-001
<GCONST> 1.257101e+002
<STATE> 3
<MEAN> 39
 -1.008535e+001 -1.057591e+000 5.514598e+000 -2.219302e+000 6.656952e-001 -7.427058e+000 1.794860e+000 6.762741e+000 1.914670e-001 -3.385848e+000 -4.426981e-001 -1.734099e+000 7.204737e+001 1.647744e-001 -6.055643e-003 5.399020e-002 4.969846e-002 -7.265025e-002 -1.234282e-001 4.600388e-002 5.050230e-002 -2.878347e-002 -1.418584e-002 -4.552380e-002 -5.539056e-002 1.315848e-001 2.563964e-003 -6.654192e-004 -2.693656e-003 3.125450e-003 -7.641631e-004 1.704883e-003 1.804641e-003 -2.373021e-003 -1.082740e-003 1.982996e-003 -1.140973e-003 7.927543e-004 -4.252685e-003
<VARIANCE> 39
 1.130713e+002 2.453613e+001 3.855597e+001 4.919392e+001 7.367821e+001 1.376863e+002 4.364058e+001 5.625485e+001 3.682734e+001 3.774947e+001 2.318408e+001 3.397284e+001 8.637750e+001 4.302119e+000 1.979413e+000 1.646567e+000 2.616428e+000 3.418867e+000 6.216693e+000 3.334488e+000 3.546791e+000 2.391749e+000 3.003367e+000 1.697590e+000 2.507843e+000 2.871709e+000 5.113148e-001 3.441346e-001 2.772518e-001 4.508049e-001 4.464208e-001 9.052818e-001 5.980570e-001 5.514034e-001 4.235190e-001 5.723419e-001 3.301716e-001 4.349005e-001 4.921882e-001
<GCONST> 1.262541e+002
<STATE> 4
<MEAN> 39
 -9.326529e+000 -1.083257e+000 5.793738e+000 -2.109143e+000 2.304013e-001 -8.033179e+000 2.097193e+000 7.030621e+000 6.659895e-002 -3.366457e+000 -6.117743e-001 -2.004038e+000 7.271165e+001 1.699880e-001 -1.514911e-002 4.601887e-002 6.567987e-002 -6.409062e-002 -1.191689e-001 5.425451e-002 3.897321e-002 -3.749494e-002 -7.496004e-003 -5.395350e-002 -4.983169e-002 1.167815e-001 -1.920262e-003 -8.421818e-004 -3.319895e-003 3.797898e-003 4.173867e-003 4.598970e-003 1.901234e-003 -4.581867e-003 -2.055253e-003 2.102694e-003 -1.413616e-003 2.531586e-003 -5.428972e-003
<VARIANCE> 39
 1.076815e+002 2.580616e+001 3.693713e+001 5.055601e+001 7.926587e+001 1.445111e+002 4.433659e+001 5.593319e+001 3.838736e+001 3.787637e+001 2.444048e+001 3.454699e+001 8.452370e+001 4.204986e+000 2.040310e+000 1.669816e+000 2.654242e+000 3.623504e+000 6.303903e+000 3.381254e+000 3.507197e+000 2.508211e+000 3.104016e+000 1.706093e+000 2.579565e+000 2.883581e+000 5.013390e-001 3.512915e-001 2.799790e-001 4.523759e-001 4.700257e-001 9.076509e-001 6.052544e-001 5.442096e-001 4.433042e-001 5.920975e-001 3.260348e-001 4.460562e-001 4.922089e-001
<GCONST> 1.268523e+002
<TRANSP> 5
 0.000000e+000 1.000000e+000 0.000000e+000 0.000000e+000 0.000000e+000
 0.000000e+000 7.334296e-001 2.665704e-001 0.000000e+000 0.000000e+000
 0.000000e+000 0.000000e+000 7.334300e-001 2.665700e-001 0.000000e+000
 0.000000e+000 0.000000e+000 0.000000e+000 8.587248e-001 1.412751e-001
 0.000000e+000 0.000000e+000 0.000000e+000 0.000000e+000 0.000000e+000
<ENDHMM>
~h "ax"
<BEGINHMM>
<NUMSTATES> 5
<STATE> 2
<MEAN> 39
 -7.725500e+000 -1.409097e+000 1.179779e+000 -8.683565e-001 1.955436e+000 -4.440787e+000 2.148630e+000 4.266211e+000 -1.917208e+000 -1.482240e+000 4.837616e-001 1.053540e-001 6.937303e+001 -1.738760e-002 3.311134e-002 1.871628e-002 3.149673e-002 5.965353e-003 4.910996e-002 2.514273e-002 -1.460739e-002 2.934780e-002 6.123898e-003 -6.723732e-003 1.391051e-004 -5.004176e-002 -2.687687e-003 5.600569e-004 4.714198e-004 2.550648e-003 1.792371e-004 -8.080292e-004 -1.249892e-003 2.630040e-004 2.619751e-003 1.497415e-003 3.933303e-004 -1.390871e-003 -2.854706e-003
<VARIANCE> 39
 8.392184e+001 3.136638e+001 3.730893e+001 6.826521e+001 5.914593e+001 9.237383e+001 3.242915e+001 4.375335e+001 5.796319e+001 3.979435e+001 2.882912e+001 2.901425e+001 1.270164e+002 2.510111e+000 1.677656e+000 1.682720e+000 3.184116e+000 2.586552e+000 3.521442e+000 2.052716e+000 2.319859e+000 3.107178e+000 2.124444e+000 1.772371e+000 1.734926e+000 2.593809e+000 3.332281e-001 2.888239e-001 2.936898e-001 4.984589e-001 4.006564e-001 5.383862e-001 3.729768e-001 4.178919e-001 5.269825e-001 3.789798e-001 3.143539e-001 3.027200e-001 4.117889e-001
<GCONST> 1.209205e+002
<STATE> 3
<MEAN> 39
 -7.811649e+000 -1.275752e+000 1.268987e+000 -7.390495e-001 1.956329e+000 -4.287460e+000 2.229198e+000 4.222055e+000 -1.760811e+000 -1.426925e+000 4.613115e-001 9.756967e-002 6.915791e+001 -2.816750e-002 3.418091e-002 1.766158e-002 3.969419e-002 4.682241e-003 4.477842e-002 1.865818e-002 -1.338279e-002 3.866069e-002 1.266551e-002 -2.980177e-003 -4.044109e-003 -6.311647e-002 -2.850448e-003 -3.333676e-004 -1.139741e-003 1.083407e-003 -8.942647e-004 -9.740954e-004 -2.053612e-003 -1.402117e-004 1.930246e-003 1.213480e-003 1.147188e-003 -3.431436e-004 -3.248278e-003
<VARIANCE> 39
 8.277113e+001 3.124010e+001 3.670269e+001 6.825807e+001 5.886183e+001 9.194632e+001 3.222448e+001 4.338443e+001 5.773676e+001 4.071913e+001 2.912160e+001 2.869892e+001 1.277733e+002 2.508265e+000 1.668575e+000 1.683617e+000 3.155829e+000 2.536507e+000 3.476332e+000 2.051341e+000 2.273871e+000 3.083360e+000 2.110199e+000 1.761741e+000 1.730026e+000 2.533258e+000 3.293748e-001 2.871958e-001 2.924652e-001 4.928685e-001 3.931990e-001 5.315014e-001 3.741897e-001 4.075172e-001 5.253300e-001 3.757194e-001 3.132377e-001 3.032158e-001 3.978683e-001
<GCONST> 1.206372e+002
<STATE> 4
<MEAN> 39
 -8.086496e+000 -1.028165e+000 1.282591e+000 -5.623283e-001 1.913478e+000 -4.054090e+000 2.334144e+000 4.164339e+000 -1.308646e+000 -1.187781e+000 4.249250e-001 1.519737e-001 6.868066e+001 -4.977357e-002 3.581588e-002 6.905409e-003 4.178396e-002 1.259262e-003 4.538167e-002 7.019646e-003 -7.359412e-003 4.605545e-002 1.924460e-002 9.570865e-003 -4.949507e-003 -8.986674e-002 -3.306333e-003 -9.542833e-004 -2.709116e-003 -8.873250e-004 -7.795619e-004 5.810516e-004 -1.652832e-003 4.650396e-005 7.293336e-005 -1.336316e-004 1.933228e-003 8.794958e-004 -3.078945e-003
<VARIANCE> 39
 8.113050e+001 3.121567e+001 3.522849e+001 6.692903e+001 5.897255e+001 9.317519e+001 3.188583e+001 4.110460e+001 5.673189e+001 4.177740e+001 2.850611e+001 2.758731e+001 1.335688e+002 2.464629e+000 1.604147e+000 1.615622e+000 2.994908e+000 2.344414e+000 3.285185e+000 1.983278e+000 2.127320e+000 2.915284e+000 2.010010e+000 1.678871e+000 1.658585e+000 2.336833e+000 3.173606e-001 2.768510e-001 2.786590e-001 4.668218e-001 3.660014e-001 5.015838e-001 3.629845e-001 3.792313e-001 4.991490e-001 3.585862e-001 2.997416e-001 2.923090e-001 3.611846e-001
<GCONST> 1.191524e+002
<TRANSP> 5
 0.000000e+000 1.000000e+000 0.000000e+000 0.000000e+000 0.000000e+000
 0.000000e+000 7.399797e-001 2.600203e-001 0.000000e+000 0.000000e+000
 0.000000e+000 0.000000e+000 7.399794e-001 2.600206e-001 0.000000e+000
 0.000000e+000 0.000000e+000 0.000000e+000 8.680296e-001 1.319704e-001
 0.000000e+000 0.000000e+000 0.000000e+000 0.000000e+000 0.000000e+000
<ENDHMM>
~h "ay"
<BEGINHMM>
<NUMSTATES> 5
<STATE> 2
<MEAN> 39
 -8.596766e+000 -2.670875e+000 -8.950913e-001 1.281980e+000 2.382813e+000 -4.828197e+000 2.473765e+000 4.287355e+000 5.108953e-001 4.855930e-001 6.100634e-001 2.350098e-001 6.774956e+001 1.088871e-001 -6.314068e-002 -1.688858e-002 -1.315614e-002 -1.748418e-002 -1.302167e-001 1.753754e-002 5.985659e-003 4.661813e-003 -5.940610e-003 5.110529e-003 9.948396e-003 1.687121e-001 -6.394843e-003 -2.509085e-003 -3.799319e-003 -6.376351e-003 -1.997841e-003 1.629999e-004 -1.017057e-003 -3.359213e-003 -1.236044e-003 -3.343401e-003 -8.044798e-004 3.444660e-003 -1.857218e-003
<VARIANCE> 39
 7.836600e+001 3.699429e+001 4.190947e+001 5.477070e+001 5.675379e+001 9.159049e+001 3.233076e+001 5.021707e+001 4.501889e+001 2.252552e+001 2.387796e+001 2.794022e+001 1.490132e+002 1.960348e+000 1.626488e+000 1.653562e+000 2.255073e+000 2.173935e+000 3.355514e+000 1.806676e+000 2.488292e+000 2.535030e+000 1.598738e+000 1.754824e+000 1.700117e+000 2.162106e+000 2.546510e-001 2.511078e-001 2.555799e-001 3.458648e-001 3.215320e-001 4.845614e-001 3.190371e-001 3.770191e-001 4.200305e-001 3.063281e-001 3.195261e-001 3.041317e-001 2.918794e-001
<GCONST> 1.162288e+002
<STATE> 3
<MEAN> 39
 -8.232739e+000 -2.935240e+000 -9.811978e-001 1.173158e+000 2.314451e+000 -5.305697e+000 2.512034e+000 4.244727e+000 4.942971e-001 4.691320e-001 6.411176e-001 3.127778e-001 6.837129e+001 7.392611e-002 -5.852532e-002 -2.003880e-002 -3.221569e-002 -1.922090e-002 -1.051988e-001 5.586494e-003 -1.594240e-002 -1.185382e-003 -7.496545e-003 5.435145e-003 2.110571e-002 1.371106e-001 -8.756100e-003 1.320482e-003 1.843759e-004 -4.647201e-003 2.945030e-004 6.387786e-003 -3.318026e-003 -5.540749e-003 -1.615164e-003 -1.437717e-004 5.586219e-004 2.127435e-003 -7.044706e-003
<VARIANCE> 39
 7.858095e+001 3.773831e+001 4.382083e+001 5.459125e+001 5.873703e+001 9.273919e+001 3.357336e+001 5.240855e+001 4.660460e+001 2.290785e+001 2.442338e+001 2.812906e+001 1.509220e+002 1.936867e+000 1.618616e+000 1.658629e+000 2.242156e+000 2.163297e+000 3.400769e+000 1.833755e+000 2.509408e+000 2.526115e+000 1.609860e+000 1.782717e+000 1.677182e+000 2.152662e+000 2.509535e-001 2.461476e-001 2.534635e-001 3.455835e-001 3.200257e-001 4.912657e-001 3.205699e-001 3.736794e-001 4.124784e-001 3.072993e-001 3.214158e-001 3.003050e-001 2.870319e-001
<GCONST> 1.164497e+002
<STATE> 4
<MEAN> 39
 -7.621398e+000 -3.256577e+000 -1.020560e+000 9.818982e-001 2.377177e+000 -5.912584e+000 2.434034e+000 3.882602e+000 1.875302e-001 5.461782e-001 7.494731e-001 4.134517e-001 6.941960e+001 -1.605322e-003 -2.769436e-003 1.634243e-002 -3.468667e-002 7.319757e-003 -1.784487e-002 -2.971301e-002 -6.448113e-002 -2.180685e-002 9.317124e-003 1.364515e-002 1.651711e-002 3.345143e-002 -9.503406e-003 7.140803e-003 4.932097e-003 -9.220284e-004 2.623346e-003 1.020811e-002 -4.129459e-003 -4.320502e-003 -1.938321e-003 1.580207e-003 1.293648e-003 -1.207124e-003 -1.204627e-002
<VARIANCE> 39
 7.947859e+001 3.920723e+001 4.610392e+001 5.455671e+001 6.094291e+001 9.149796e+001 3.500114e+001 5.739143e+001 4.866187e+001 2.458680e+001 2.610717e+001 2.834369e+001 1.518667e+002 1.836557e+000 1.562586e+000 1.653150e+000 2.212057e+000 2.091806e+000 3.283019e+000 1.861907e+000 2.567253e+000 2.513434e+000 1.642788e+000 1.815861e+000 1.661193e+000 2.013320e+000 2.335735e-001 2.345046e-001 2.473433e-001 3.393699e-001 3.075960e-001 4.778261e-001 3.201461e-001 3.725108e-001 3.977863e-001 3.079028e-001 3.222283e-001 2.954713e-001 2.669011e-001
<GCONST> 1.163655e+002
<TRANSP> 5
 0.000000e+000 1.000000e+000 0.000000e+000 0.000000e+000 0.000000e+000
 0.000000e+000 7.478315e-001 2.521685e-001 0.000000e+000 0.000000e+000
 0.000000e+000 0.000000e+000 7.478312e-001 2.521688e-001 0.000000e+000
 0.000000e+000 0.000000e+000 0.000000e+000 8.765988e-001 1.234012e-001
 0.000000e+000 0.000000e+000 0.000000e+000 0.000000e+000 0.000000e+000
<ENDHMM>
~h "ch"
<BEGINHMM>
<NUMSTATES> 5
<STATE> 2
<MEAN> 39
 -1.294586e+001 -2.653500e+000 -2.198264e+000 -5.754533e-001 2.633739e+000 -1.125090e+000 1.592991e+000 4.111861e+000 5.913722e-001 -9.143859e-002 6.042938e-001 2.421949e+000 6.568456e+001 1.687981e-002 -4.283777e-002 -1.364378e-003 -3.844926e-003 7.158336e-004 2.963215e-002 -1.108818e-002 -3.785827e-002 -1.101220e-002 -6.220102e-002 6.226180e-003 2.218567e-002 5.058296e-002 -4.002448e-003 -2.091489e-003 1.600076e-003 1.127767e-004 5.348353e-003 -3.959236e-003 -2.727758e-003 2.412027e-003 -2.185248e-003 -3.231797e-004 9.901411e-004 -2.022026e-003 2.693817e-003
<VARIANCE> 39
 6.505306e+001 2.526638e+001 2.341826e+001 4.048420e+001 2.298233e+001 5.476359e+001 2.101994e+001 3.182323e+001 3.156306e+001 2.474454e+001 1.614793e+001 1.896994e+001 1.011235e+002 1.602313e+000 1.382703e+000 1.279965e+000 1.877166e+000 1.625178e+000 2.133201e+000 1.470452e+000 1.598372e+000 2.200840e+000 1.487434e+000 1.221840e+000 1.416868e+000 1.698544e+000 2.110483e-001 2.248477e-001 2.499593e-001 3.440980e-001 2.872621e-001 3.399889e-001 2.759214e-001 2.788955e-001 3.769667e-001 2.907731e-001 2.315382e-001 2.654593e-001 2.627361e-001
<GCONST> 1.058869e+002
<STATE> 3
<MEAN> 39
 -1.294480e+001 -2.868567e+000 -2.181993e+000 -5.799666e-001 2.718117e+000 -1.006431e+000 1.478252e+000 3.914481e+000 4.917629e-001 -3.956680e-001 6.550336e-001 2.510225e+000 6.588882e+001 1.094845e-002 -4.492241e-002 5.851991e-003 1.109828e-003 1.946154e-002 1.696470e-002 -2.044310e-002 -3.235301e-002 -2.043371e-002 -6.458614e-002 9.410021e-003 1.210950e-002 5.762786e-002 -9.038417e-004 -1.060955e-003 1.776780e-003 1.114225e-003 5.072413e-003 -3.028318e-003 -2.486109e-003 8.132065e-004 -2.643066e-003 -5.801998e-004 6.882137e-004 -2.429490e-003 2.594118e-003
<VARIANCE> 39
 6.385390e+001 2.675513e+001 2.345675e+001 4.065635e+001 2.289437e+001 5.344980e+001 2.148432e+001 3.161922e+001 3.274424e+001 2.634582e+001 1.578821e+001 1.939859e+001 1.013301e+002 1.688014e+000 1.454649e+000 1.348908e+000 1.888851e+000 1.638308e+000 2.187814e+000 1.481394e+000 1.595827e+000 2.254652e+000 1.551217e+000 1.220162e+000 1.417396e+000 1.748086e+000 2.271649e-001 2.360752e-001 2.652865e-001 3.459434e-001 2.942336e-001 3.468805e-001 2.759492e-001 2.758395e-001 3.865762e-001 3.048626e-001 2.283904e-001 2.660059e-001 2.694648e-001
<GCONST> 1.066210e+002
<STATE> 4
<MEAN> 39
 -1.314767e+001 -3.302340e+000 -2.228323e+000 -6.719923e-001 3.298670e+000 -5.960162e-001 1.080394e+000 3.185611e+000 -3.966260e-002 -1.085216e+000 8.617144e-001 2.904877e+000 6.619067e+001 1.456139e-002 -3.128757e-002 2.810120e-002 3.732431e-002 4.102301e-002 -7.311738e-003 -4.437980e-002 -3.880423e-002 -2.423472e-002 -5.780508e-002 1.892721e-002 4.442054e-003 6.040239e-002 2.152807e-003 9.156779e-004 1.940337e-003 3.115433e-003 2.549858e-003 -3.476728e-003 -2.183629e-003 7.462504e-005 -4.938110e-004 1.310503e-003 3.065076e-004 -1.122379e-003 2.870367e-003
<VARIANCE> 39
 5.977884e+001 3.225638e+001 2.266756e+001 3.983644e+001 2.335432e+001 4.947901e+001 2.198299e+001 3.356689e+001 3.371101e+001 2.924974e+001 1.518292e+001 1.836470e+001 1.012664e+002 1.777266e+000 1.680211e+000 1.526533e+000 1.830208e+000 1.600632e+000 2.094589e+000 1.520998e+000 1.666860e+000 2.248738e+000 1.754729e+000 1.217913e+000 1.353720e+000 1.857368e+000 2.528419e-001 2.633845e-001 3.060862e-001 3.437552e-001 2.991920e-001 3.357053e-001 2.850563e-001 2.823766e-001 3.948086e-001 3.479724e-001 2.330609e-001 2.551273e-001 2.760876e-001
<GCONST> 1.077257e+002
<TRANSP> 5
 0.000000e+000 1.000000e+000 0.000000e+000 0.000000e+000 0.000000e+000
 0.000000e+000 7.613853e-001 2.386147e-001 0.000000e+000 0.000000e+000
 0.000000e+000 0.000000e+000 7.613852e-001 2.386148e-001 0.000000e+000
 0.000000e+000 0.000000e+000 0.000000e+000 8.970063e-001 1.029937e-001
 0.000000e+000 0.000000e+000 0.000000e+000 0.000000e+000 0.000000e+000
<ENDHMM>
~h "dh"
<BEGINHMM>
<NUMSTATES> 5
<STATE> 2
<MEAN> 39
 -1.344952e+001 -3.335457e+000 -1.044015e+000 1.336190e+000 3.346614e+000 -1.209660e+000 -4.725790e-002 3.405451e+000 -5.361924e-001 -2.217641e+000 9.295112e-001 1.964700e+000 6.452895e+001 9.942750e-002 -1.439363e-002 3.236857e-002 -2.396608e-003 2.249274e-002 -5.509543e-002 -1.018981e-003 -5.668584e-003 -7.377231e-002 -6.811498e-002 -1.908442e-002 1.461012e-005 1.447342e-001 5.818667e-003 2.562833e-003 2.020955e-003 6.861186e-003 2.561246e-003 5.446928e-003 7.830936e-003 -3.932396e-003 -4.805739e-003 -1.248093e-004 2.309110e-003 4.461126e-004 5.262132e-003
<VARIANCE> 39
 4.573809e+001 2.943358e+001 3.363865e+001 2.238410e+001 4.300517e+001 3.436806e+001 1.689688e+001 2.491529e+001 3.645644e+001 2.882879e+001 1.641911e+001 1.507543e+001 1.602390e+002 1.965031e+000 1.666436e+000 1.556617e+000 1.329188e+000 1.917227e+000 2.021206e+000 1.321920e+000 2.093065e+000 2.362899e+000 1.982163e+000 1.533003e+000 1.273422e+000 1.573780e+000 2.692118e-001 2.854086e-001 2.956836e-001 2.467523e-001 3.469478e-001 3.794163e-001 2.460389e-001 3.894289e-001 4.370710e-001 4.023743e-001 3.045782e-001 2.478760e-001 2.259364e-001
<GCONST> 1.079789e+002
<STATE> 3
<MEAN> 39
 -1.300617e+001 -3.333139e+000 -8.992758e-001 1.391561e+000 3.456692e+000 -1.384250e+000 7.214546e-004 3.387117e+000 -8.769422e-001 -2.448860e+000 9.117291e-001 1.945364e+000 6.510216e+001 1.181886e-001 1.458974e-003 4.636315e-002 1.844650e-002 3.842447e-002 -4.302097e-002 1.476081e-002 -4.951282e-003 -9.001201e-002 -6.185620e-002 1.424086e-003 -7.764292e-003 1.609992e-001 4.744279e-003 3.901712e-003 4.357197e-003 4.521817e-003 4.689703e-003 2.532647e-003 3.295208e-003 8.285883e-004 -5.144874e-003 4.336890e-004 5.483137e-003 -2.843389e-003 5.235004e-003
<VARIANCE> 39
 4.850686e+001 2.984216e+001 3.565756e+001 2.244699e+001 4.485145e+001 3.806936e+001 1.805938e+001 2.545888e+001 3.886243e+001 3.006503e+001 1.679146e+001 1.591728e+001 1.666232e+002 2.050674e+000 1.722523e+000 1.587908e+000 1.402688e+000 1.967663e+000 2.162910e+000 1.352008e+000 2.099773e+000 2.438731e+000 2.107980e+000 1.553456e+000 1.349069e+000 1.677564e+000 2.842870e-001 2.945452e-001 3.030997e-001 2.585543e-001 3.496920e-001 3.971718e-001 2.491246e-001 3.889902e-001 4.496738e-001 4.271212e-001 3.057232e-001 2.633169e-001 2.346643e-001
<GCONST> 1.094763e+002
<STATE> 4
<MEAN> 39
 -1.190705e+001 -3.428742e+000 -2.597792e-001 1.722321e+000 4.030306e+000 -1.964797e+000 2.933979e-003 3.442480e+000 -1.655401e+000 -2.815116e+000 1.113866e+000 1.667222e+000 6.698939e+001 1.314769e-001 1.604934e-002 6.461679e-002 2.872013e-002 5.835824e-002 -4.945035e-002 1.286656e-002 6.272384e-003 -1.041095e-001 -4.162771e-002 3.529729e-002 -4.390227e-002 1.678877e-001 1.915606e-003 1.529163e-003 3.537438e-003 1.434900e-003 2.574850e-003 -5.905346e-004 2.726742e-004 1.539308e-003 -2.099064e-003 -2.585104e-005 3.821450e-003 -4.995776e-003 3.132123e-003
<VARIANCE> 39
 5.459418e+001 3.102274e+001 3.873906e+001 2.393892e+001 5.011954e+001 4.873307e+001 2.060802e+001 2.549737e+001 4.257964e+001 3.168224e+001 1.900358e+001 1.762051e+001 1.870309e+002 2.157289e+000 1.726604e+000 1.558842e+000 1.581108e+000 2.064364e+000 2.413415e+000 1.428453e+000 2.112930e+000 2.571099e+000 2.179966e+000 1.544165e+000 1.416690e+000 1.844781e+000 3.051754e-001 2.903116e-001 2.961746e-001 2.818121e-001 3.614311e-001 4.219080e-001 2.642878e-001 3.939323e-001 4.771869e-001 4.339619e-001 2.959235e-001 2.694699e-001 2.457362e-001
<GCONST> 1.117507e+002
<TRANSP> 5
 0.000000e+000 1.000000e+000 0.000000e+000 0.000000e+000 0.000000e+000
 0.000000e+000 7.453624e-001 2.546376e-001 0.000000e+000 0.000000e+000
 0.000000e+000 0.000000e+000 7.453631e-001 2.546370e-001 0.000000e+000
 0.000000e+000 0.000000e+000 0.000000e+000 8.720645e-001 1.279354e-001
 0.000000e+000 0.000000e+000 0.000000e+000 0.000000e+000 0.000000e+000
<ENDHMM>
~h "ea"
<BEGINHMM>
<NUMSTATES> 5
<STATE> 2
<MEAN> 39
 -3.200156e+000 -5.762764e+000 8.777595e-001 -2.124211e-001 5.759165e-001 -1.312713e+001 4.795283e+000 1.608689e+000 -1.524135e+000 -2.266425e-001 4.343874e-001 2.644044e+000 7.813336e+001 1.307530e-001 -5.960143e-002 -2.428349e-001 -9.467085e-002 -7.080796e-002 -3.155601e-002 3.371488e-002 -1.322134e-001 -5.798037e-002 1.010094e-001 8.690337e-002 1.851946e-001 4.537740e-002 -5.600175e-003 9.650331e-003 2.527613e-003 1.149789e-003 -2.061206e-003 1.913090e-002 -2.326424e-003 1.072309e-002 8.064161e-003 1.721980e-003 7.125693e-004 -1.570384e-003 -2.255358e-002
<VARIANCE> 39
 4.396792e+001 3.812546e+001 6.050480e+001 4.137326e+001 7.082662e+001 6.582998e+001 5.710656e+001 5.918797e+001 5.616507e+001 3.592929e+001 3.539035e+001 3.521608e+001 6.203773e+001 2.345858e+000 1.625014e+000 1.658671e+000 2.066107e+000 2.623638e+000 4.303418e+000 2.791134e+000 2.250853e+000 2.861515e+000 1.828143e+000 1.576505e+000 1.419993e+000 3.408784e+000 3.863864e-001 2.601736e-001 2.382736e-001 3.763350e-001 3.994825e-001 6.418870e-001 4.734802e-001 3.098323e-001 4.508871e-001 3.182158e-001 2.351136e-001 2.368745e-001 4.957607e-001
<GCONST> 1.193635e+002
<STATE> 3
<MEAN> 39
 -2.706395e+000 -5.861944e+000 -1.062657e-001 -6.574988e-001 1.484239e-001 -1.306066e+001 4.950384e+000 1.209360e+000 -1.607157e+000 2.827021e-001 7.607523e-001 3.413718e+000 7.804745e+001 9.599637e-002 -1.624086e-002 -2.066138e-001 -8.220154e-002 -7.175551e-002 6.000985e-002 2.735287e-002 -8.008398e-002 -1.931617e-002 8.902919e-002 8.377839e-002 1.665112e-001 -4.354494e-002 -8.648586e-003 8.350429e-003 8.278984e-003 2.143350e-003 2.779909e-003 1.724397e-002 -5.018844e-003 1.229119e-002 7.349980e-003 -5.114094e-003 8.255658e-004 -5.963685e-003 -1.738324e-002
<VARIANCE> 39
