~o
<STREAMINFO> 1 39
<VECSIZE> 39<NULLD><MFCC_D_A_0><DIAGC>
~s "silst"
<MEAN> 39
 -1.609950e+001 1.418688e+000 -3.626694e+000 2.235866e-001 -3.680834e-001 1.480653e+000 2.279927e+000 3.935750e+000 2.788485e+000 2.168678e+000 1.320395e+000 1.731410e+000 5.342872e+001 -2.066948e-002 2.183344e-002 -1.315019e-002 4.750437e-003 2.085247e-003 3.359886e-002 1.819115e-002 2.754087e-002 2.737805e-002 2.620577e-002 2.756947e-002 1.695705e-002 -3.579251e-002 -1.283828e-003 -1.593942e-002 1.851722e-002 -5.190832e-003 1.204033e-002 -2.387582e-003 -1.694415e-003 -2.737926e-003 -9.212637e-003 -1.514845e-002 -1.126819e-002 -7.257823e-003 2.295400e-002
<VARIANCE> 39
 1.697557e+000 2.706074e+000 3.877251e+000 4.398201e+000 5.521092e+000 6.660398e+000 7.076563e+000 7.910259e+000 7.857136e+000 9.220657e+000 7.657462e+000 7.690781e+000 2.438305e+000 8.097945e-002 1.636991e-001 2.634204e-001 3.677618e-001 4.728768e-001 5.919341e-001 6.703910e-001 7.299667e-001 7.596838e-001 8.106870e-001 7.580875e-001 6.992393e-001 3.755970e-002 1.646751e-002 3.435520e-002 5.378915e-002 7.616851e-002 9.748246e-002 1.215828e-001 1.377266e-001 1.475194e-001 1.545642e-001 1.654524e-001 1.555481e-001 1.432829e-001 8.237350e-003
<GCONST> 4.629556e+001
~h "b"
<BEGINHMM>
<NUMSTATES> 5
<STATE> 2
<MEAN> 39
 -6.541672e+000 8.187401e+000 5.052701e+000 5.365479e+000 3.799799e+000 -3.303895e+000 1.847819e+000 8.574228e+000 3.254801e+000 7.048884e-001 1.786520e+000 -3.188870e+000 6.244527e+001 -2.635777e-001 1.978860e-001 -8.223556e-001 -1.150710e+000 -2.337645e-001 1.379764e+000 -1.998733e-001 -8.880317e-001 5.779821e-001 -3.299657e-001 -2.589934e-001 4.895559e-001 -2.620602e-002 4.408268e-001 -5.839469e-001 1.603409e-001 -6.473069e-001 -1.023734e-001 -7.815349e-001 -4.604425e-001 -9.720217e-002 -4.957691e-001 -3.730382e-001 4.156470e-002 -1.139285e-001 1.016434e+000
<VARIANCE> 39
 2.266624e+001 1.810895e+001 2.776727e+001 2.566311e+001 1.854561e+001 4.648006e+001 1.922572e+001 1.702905e+001 2.146496e+001 2.815546e+001 1.225968e+001 1.961000e+001 4.625446e+001 1.262260e+000 1.979189e+000 1.335751e+000 9.688782e+000 2.708915e+000 5.794812e+000 4.876935e+000 2.044100e+000 2.602189e+000 2.624238e+000 1.526643e+000 1.590656e+000 7.186666e+000 2.602338e-001 3.224935e-001 1.911773e-001 5.696138e-001 4.978215e-001 9.753293e-001 3.846692e-001 3.668808e-001 6.365461e-001 3.992897e-001 4.164433e-001 2.736229e-001 4.183869e-001
<GCONST> 1.140552e+002
<STATE> 3
<MEAN> 39
 -3.235294e+000 4.978707e+000 2.828974e+000 -5.536226e+000 3.742834e+000 -5.328579e+000 -3.256743e+000 4.188275e+000 1.872952e+000 -5.380043e+000 -5.617094e-001 -3.045630e+000 7.303016e+001 2.389239e+000 -1.203143e+000 1.716382e-001 -3.282128e+000 -9.010788e-001 -2.503981e+000 -2.042473e+000 1.604988e-001 -1.613742e+000 -1.542433e+000 6.483880e-001 -1.092665e-002 3.404952e+000 1.635499e-001 -4.591294e-001 8.828098e-002 5.403102e-001 -6.307971e-003 -3.296489e-001 4.213988e-001 5.371585e-001 -7.876813e-001 2.334324e-001 3.959064e-001 -1.102893e-002 -1.885742e-001
<VARIANCE> 39
 4.350657e+001 1.480929e+001 1.737995e+001 2.712407e+001 1.650967e+001 7.211879e+001 2.386212e+001 2.538660e+001 2.815031e+001 2.201710e+001 2.083436e+001 2.173920e+001 1.632928e+001 2.119786e+000 3.204617e+000 2.817496e+000 7.904818e+000 4.777684e+000 1.208917e+001 2.392180e+000 3.597168e+000 5.008007e+000 5.141873e+000 3.257553e+000 3.819996e+000 4.017892e+000 5.917404e-001 4.169723e-001 3.164885e-001 6.006364e-001 4.911160e-001 1.308076e+000 6.765825e-001 6.899078e-001 7.365400e-001 5.329412e-001 3.572334e-001 4.690066e-001 4.826568e-001
<GCONST> 1.238021e+002
<STATE> 4
<MEAN> 39
 2.578323e+000 1.117453e+000 1.927695e+000 -1.530532e+001 1.167590e+000 -3.425561e+000 -2.018998e+000 8.129416e+000 -1.115554e+001 -1.483830e+001 7.537092e+000 8.323705e-001 7.825691e+001 1.374197e-001 -6.816154e-001 1.627340e-001 -2.537197e-001 -1.123732e-001 1.377891e-001 7.371702e-001 3.225077e-001 -1.384164e+000 -8.681188e-001 3.766863e-002 7.750986e-001 5.552101e-001 -4.095566e-001 1.816656e-001 9.716971e-002 7.493782e-001 1.309443e-001 1.291026e-001 3.389290e-001 -9.740409e-002 4.613976e-001 3.936212e-001 -4.134634e-001 -5.680623e-002 -3.668540e-001
<VARIANCE> 39
 7.097848e+000 4.862966e+000 1.047447e+001 4.534058e+001 1.679995e+001 6.424834e+001 2.646525e+001 1.728731e+001 5.653543e+001 6.394984e+001 2.618085e+001 2.074545e+001 3.804896e+000 1.218030e+000 1.344466e+000 5.319490e-001 3.488710e+000 1.962026e+000 3.902022e+000 1.632088e+000 1.664503e+000 3.608225e+000 1.972764e+000 3.110051e+000 1.116606e+000 2.014091e+000 1.564295e-001 1.645475e-001 1.247939e-001 3.866738e-001 1.842583e-001 6.453446e-001 4.386619e-001 2.405077e-001 4.802261e-001 4.388604e-001 2.459826e-001 2.585906e-001 2.287036e-001
<GCONST> 1.015157e+002
<TRANSP> 5
 0.000000e+000 1.000000e+000 0.000000e+000 0.000000e+000 0.000000e+000
 0.000000e+000 7.158593e-001 2.841408e-001 0.000000e+000 0.000000e+000
 0.000000e+000 0.000000e+000 5.261979e-001 4.738021e-001 0.000000e+000
 0.000000e+000 0.000000e+000 0.000000e+000 7.403119e-001 2.596880e-001
 0.000000e+000 0.000000e+000 0.000000e+000 0.000000e+000 0.000000e+000
<ENDHMM>
~h "d"
<BEGINHMM>
<NUMSTATES> 5
<STATE> 2
<MEAN> 39
 -5.824759e+000 3.442034e+000 5.081424e+000 8.587340e+000 9.757317e+000 -7.431898e-002 3.839130e+000 4.449722e+000 -3.844381e+000 -2.128946e+000 -2.028821e+000 -4.273499e+000 6.610671e+001 -1.384607e+000 3.955184e-001 1.486362e-001 -1.057918e+000 -8.244254e-001 8.924042e-001 7.436437e-002 -5.657448e-001 1.579411e+000 -5.984212e-001 1.644690e-001 9.521600e-001 -4.273146e-001 -1.242008e-002 -6.399946e-001 -1.839528e-001 -5.623710e-001 -7.224883e-001 -5.663115e-001 -1.159191e-001 -4.207007e-001 -1.750148e-001 -2.211452e-002 2.315621e-001 3.830937e-001 6.901046e-001
<VARIANCE> 39
 2.510732e+001 4.317155e+001 2.309786e+001 4.628796e+001 5.492749e+001 4.478516e+001 3.435301e+001 4.057226e+001 4.191980e+001 3.764493e+001 4.735317e+001 3.917093e+001 6.920464e+001 1.390121e+000 2.231161e+000 1.885808e+000 5.041012e+000 3.167420e+000 3.779906e+000 2.289083e+000 3.690609e+000 3.149690e+000 4.012117e+000 2.704202e+000 3.822574e+000 3.909432e+000 2.267519e-001 4.124996e-001 5.248080e-001 4.374577e-001 6.275376e-001 7.983525e-001 4.890810e-001 7.311127e-001 6.375817e-001 4.731365e-001 4.463397e-001 6.797943e-001 7.219049e-001
<GCONST> 1.257732e+002
<STATE> 3
<MEAN> 39
 -1.056119e+001 4.152387e+000 7.187555e+000 4.590270e+000 6.379765e+000 3.966382e+000 4.089683e+000 1.937921e+000 1.261092e+000 -4.095216e+000 -2.001066e+000 -1.678763e+000 6.620047e+001 -6.509343e-001 -1.579296e+000 -2.239179e-001 -2.341461e+000 -2.225027e+000 -1.529235e+000 -3.372014e-001 -1.404810e+000 -3.508560e-001 -1.044233e+000 5.653492e-001 1.845021e+000 1.957401e+000 6.909265e-001 -5.593698e-001 -2.749150e-001 1.812106e-001 -8.597186e-002 -9.105464e-001 -5.633640e-002 -4.182791e-002 -8.742505e-001 1.982352e-001 -4.449524e-002 2.015599e-002 4.991199e-001
<VARIANCE> 39
 2.190311e+001 2.595096e+001 3.698683e+001 2.846561e+001 3.464577e+001 2.175801e+001 2.334821e+001 3.704829e+001 2.685516e+001 3.401214e+001 2.107614e+001 1.843705e+001 5.513210e+001 2.360049e+000 2.222473e+000 2.811233e+000 3.864651e+000 3.943209e+000 4.027293e+000 2.448367e+000 2.592539e+000 3.405557e+000 2.483749e+000 2.414854e+000 4.835668e+000 4.197465e+000 3.825360e-001 4.590753e-001 6.744040e-001 4.881193e-001 8.066579e-001 6.217204e-001 6.340725e-001 8.196821e-001 7.102123e-001 9.479151e-001 5.157033e-001 3.466786e-001 7.488965e-001
<GCONST> 1.232383e+002
<STATE> 4
<MEAN> 39
 -9.740804e+000 -1.294698e+000 1.992603e+000 4.803878e-001 -1.657235e-001 -2.236835e+000 3.521555e+000 2.001336e+000 -2.487062e+000 -4.065712e+000 -9.135869e-001 2.332308e+000 6.659834e+001 -6.342086e-002 -6.850294e-001 -2.888665e-001 -4.672806e-001 -3.242846e-001 -6.809281e-001 -3.028370e-001 -4.076569e-001 -1.894066e-001 6.065948e-002 2.664247e-001 4.880926e-001 5.162267e-001 1.772609e-001 8.831575e-002 7.748401e-002 2.764218e-001 3.936802e-001 5.824170e-002 -2.472670e-002 8.356358e-002 -2.657741e-002 1.643447e-001 -1.817591e-002 -2.376898e-001 4.676173e-002
<VARIANCE> 39
 3.621683e+001 2.332202e+001 3.460903e+001 2.250701e+001 2.060529e+001 4.078566e+001 2.155557e+001 3.177221e+001 3.692185e+001 3.886427e+001 2.193703e+001 2.081305e+001 1.028507e+002 2.388687e+000 2.697671e+000 3.611483e+000 2.966810e+000 4.041651e+000 5.366157e+000 2.741954e+000 3.320165e+000 3.573401e+000 3.048688e+000 2.143592e+000 3.012676e+000 7.419922e+000 4.982624e-001 4.127524e-001 5.565248e-001 5.920961e-001 6.569121e-001 8.511215e-001 5.089386e-001 5.478266e-001 7.344486e-001 6.056541e-001 3.965710e-001 4.119497e-001 9.725136e-001
<GCONST> 1.249410e+002
<TRANSP> 5
 0.000000e+000 1.000000e+000 0.000000e+000 0.000000e+000 0.000000e+000
 0.000000e+000 3.765586e-001 6.234413e-001 0.000000e+000 0.000000e+000
 0.000000e+000 0.000000e+000 3.412558e-001 6.587442e-001 0.000000e+000
 0.000000e+000 0.000000e+000 0.000000e+000 7.374479e-001 2.625521e-001
 0.000000e+000 0.000000e+000 0.000000e+000 0.000000e+000 0.000000e+000
<ENDHMM>
~h "f"
<BEGINHMM>
<NUMSTATES> 5
<STATE> 2
<MEAN> 39
 -1.817621e+001 -3.995300e-001 6.480246e-001 -2.518774e+000 5.132529e+000 7.050864e-001 4.195818e+000 -2.334080e+000 4.006733e+000 -2.584067e+000 1.071473e+000 2.590325e+000 6.883190e+001 -2.792333e+000 9.383867e-003 1.392901e-001 -1.330566e+000 2.095397e-001 1.663204e-001 5.401045e-001 -6.575231e-001 1.276064e+000 -9.490970e-002 -2.737196e-001 4.460193e-001 1.043337e+000 -1.030372e-001 -7.125504e-002 6.524979e-002 8.820817e-003 -6.994413e-002 -1.250465e-001 -1.807490e-001 1.759286e-001 -3.413217e-001 1.656304e-001 1.376668e-001 -1.813816e-001 -1.446061e-002
<VARIANCE> 39
 3.705450e+001 1.925211e+001 2.187207e+001 2.526998e+001 2.892372e+001 2.471574e+001 2.190533e+001 2.540280e+001 2.830540e+001 2.073132e+001 1.564460e+001 1.201833e+001 4.095325e+001 4.139091e+000 2.068210e+000 1.789286e+000 1.802438e+000 2.109707e+000 2.798260e+000 2.656315e+000 2.598859e+000 3.833099e+000 2.240331e+000 2.377559e+000 1.307929e+000 3.470764e+000 6.541604e-001 4.693722e-001 3.419967e-001 3.016474e-001 2.794403e-001 5.668783e-001 5.834455e-001 4.663745e-001 7.576292e-001 3.988436e-001 3.412838e-001 2.422594e-001 3.899594e-001
<GCONST> 1.131067e+002
<STATE> 3
<MEAN> 39
 -2.972788e+001 4.276750e-001 3.139562e+000 -7.528473e+000 5.440083e+000 1.348395e+000 5.923800e+000 -3.234061e+000 7.546243e+000 -1.105632e+000 6.064877e-001 2.454102e+000 6.963268e+001 -1.687470e-001 -5.721053e-002 5.828288e-002 -1.286715e-001 -1.439323e-001 1.505261e-002 -1.575110e-001 -1.042415e-001 -7.014835e-003 5.016875e-002 -6.598753e-002 -9.248509e-002 -1.101217e-001 8.244855e-001 -4.547516e-002 -2.940727e-002 2.275251e-001 -1.107293e-001 -1.386207e-001 -1.679987e-001 4.833834e-002 -1.955977e-001 -9.405734e-002 -6.154072e-003 -3.339150e-002 7.213715e-002
<VARIANCE> 39
 9.063656e+000 9.492866e+000 2.287686e+001 1.419602e+001 1.030583e+001 1.069285e+001 1.270936e+001 1.339018e+001 1.409004e+001 1.541812e+001 1.161589e+001 7.826216e+000 2.401267e+001 2.961841e+000 9.622144e-001 9.571977e-001 9.617524e-001 1.126944e+000 1.132490e+000 1.264428e+000 1.446822e+000 1.258985e+000 1.163319e+000 9.117134e-001 8.383335e-001 5.999519e-001 5.081970e-001 2.098063e-001 2.032501e-001 1.924074e-001 2.361191e-001 3.193203e-001 3.455843e-001 3.013374e-001 3.783655e-001 2.529658e-001 2.042567e-001 1.871666e-001 1.578074e-001
<GCONST> 8.845422e+001
<STATE> 4
<MEAN> 39
 -1.662206e+001 1.114712e+000 3.170275e+000 -6.496913e+000 1.911418e+000 -1.675662e+000 1.054712e+000 -2.261211e+000 5.716461e+000 -2.151701e+000 -9.670169e-001 1.447088e+000 7.109759e+001 6.465883e+000 5.940819e-001 -1.065520e-001 9.130175e-001 -1.601982e+000 -3.392597e+000 -2.569000e+000 1.306295e+000 -9.253928e-001 -9.190302e-002 -2.767659e-001 -4.797057e-001 1.848785e+000 2.890628e-001 -3.450313e-001 -2.496057e-001 -1.653902e-003 -1.201115e-001 -9.576466e-001 -8.362500e-002 5.005825e-001 -7.742494e-004 1.608735e-001 2.174146e-001 -2.471043e-002 5.594383e-001
<VARIANCE> 39
 1.342862e+002 2.389598e+001 2.351035e+001 1.733659e+001 2.247144e+001 4.490149e+001 3.976531e+001 2.165142e+001 1.469114e+001 1.288305e+001 1.139239e+001 1.102483e+001 2.762942e+001 7.517306e+000 2.718868e+000 3.753193e+000 2.291337e+000 1.748294e+000 7.851754e+000 2.816986e+000 3.985497e+000 3.554375e+000 1.712476e+000 1.514449e+000 1.284479e+000 3.125273e+000 2.496540e+000 5.981962e-001 4.411650e-001 3.247792e-001 3.453427e-001 9.605957e-001 1.020869e+000 6.037253e-001 9.157180e-001 3.869759e-001 2.105450e-001 2.826400e-001 4.133983e-001
<GCONST> 1.187773e+002
<TRANSP> 5
 0.000000e+000 1.000000e+000 0.000000e+000 0.000000e+000 0.000000e+000
 0.000000e+000 7.714348e-001 2.285652e-001 0.000000e+000 0.000000e+000
 0.000000e+000 0.000000e+000 8.663559e-001 1.336441e-001 0.000000e+000
 0.000000e+000 0.000000e+000 0.000000e+000 5.512851e-001 4.487149e-001
 0.000000e+000 0.000000e+000 0.000000e+000 0.000000e+000 0.000000e+000
<ENDHMM>
~h "g"
<BEGINHMM>
<NUMSTATES> 5
<STATE> 2
<MEAN> 39
 -1.019258e+001 -1.349235e+000 1.496435e+000 -1.000674e-001 2.146475e+000 -4.687040e+000 1.914047e+000 3.619069e+000 -7.628375e-001 -2.998221e-001 7.609732e-001 -3.708823e-001 6.683527e+001 -1.248089e-003 5.227942e-003 2.659844e-003 -3.444016e-004 -8.836363e-004 2.550178e-003 2.931105e-003 -1.472328e-003 6.282371e-003 8.163264e-003 2.528877e-003 -2.038243e-003 -4.746584e-003 -4.418558e-004 -3.045039e-004 -1.408464e-004 -1.038098e-004 9.234394e-005 -3.276009e-004 -3.678608e-005 3.364285e-004 -3.188887e-004 -1.759190e-004 -1.827233e-004 -1.567342e-004 -4.303211e-005
<VARIANCE> 39
 9.167006e+001 2.934647e+001 4.407549e+001 6.457423e+001 6.220945e+001 9.634994e+001 3.252906e+001 4.593910e+001 5.675373e+001 3.253341e+001 2.632482e+001 2.972611e+001 1.312725e+002 2.550928e+000 1.511606e+000 1.606481e+000 2.604123e+000 2.271194e+000 3.390491e+000 1.870607e+000 2.178643e+000 2.666786e+000 1.791392e+000 1.601890e+000 1.612961e+000 2.330216e+000 3.219935e-001 2.495312e-001 2.693298e-001 3.940682e-001 3.531721e-001 5.091046e-001 3.340584e-001 3.702532e-001 4.453263e-001 3.296812e-001 2.885351e-001 2.783844e-001 3.440708e-001
<GCONST> 1.181056e+002
<STATE> 3
<MEAN> 39
 -1.019258e+001 -1.349235e+000 1.496435e+000 -1.000674e-001 2.146475e+000 -4.687040e+000 1.914047e+000 3.619069e+000 -7.628375e-001 -2.998221e-001 7.609732e-001 -3.708823e-001 6.683527e+001 -1.248089e-003 5.227942e-003 2.659844e-003 -3.444016e-004 -8.836363e-004 2.550178e-003 2.931105e-003 -1.472328e-003 6.282371e-003 8.163264e-003 2.528877e-003 -2.038243e-003 -4.746584e-003 -4.418558e-004 -3.045039e-004 -1.408464e-004 -1.038098e-004 9.234394e-005 -3.276009e-004 -3.678608e-005 3.364285e-004 -3.188887e-004 -1.759190e-004 -1.827233e-004 -1.567342e-004 -4.303211e-005
<VARIANCE> 39
 9.167006e+001 2.934647e+001 4.407549e+001 6.457423e+001 6.220945e+001 9.634994e+001 3.252906e+001 4.593910e+001 5.675373e+001 3.253341e+001 2.632482e+001 2.972611e+001 1.312725e+002 2.550928e+000 1.511606e+000 1.606481e+000 2.604123e+000 2.271194e+000 3.390491e+000 1.870607e+000 2.178643e+000 2.666786e+000 1.791392e+000 1.601890e+000 1.612961e+000 2.330216e+000 3.219935e-001 2.495312e-001 2.693298e-001 3.940682e-001 3.531721e-001 5.091046e-001 3.340584e-001 3.702532e-001 4.453263e-001 3.296812e-001 2.885351e-001 2.783844e-001 3.440708e-001
<GCONST> 1.181056e+002
<STATE> 4
<MEAN> 39
 -1.019258e+001 -1.349235e+000 1.496435e+000 -1.000674e-001 2.146475e+000 -4.687040e+000 1.914047e+000 3.619069e+000 -7.628375e-001 -2.998221e-001 7.609732e-001 -3.708823e-001 6.683527e+001 -1.248089e-003 5.227942e-003 2.659844e-003 -3.444016e-004 -8.836363e-004 2.550178e-003 2.931105e-003 -1.472328e-003 6.282371e-003 8.163264e-003 2.528877e-003 -2.038243e-003 -4.746584e-003 -4.418558e-004 -3.045039e-004 -1.408464e-004 -1.038098e-004 9.234394e-005 -3.276009e-004 -3.678608e-005 3.364285e-004 -3.188887e-004 -1.759190e-004 -1.827233e-004 -1.567342e-004 -4.303211e-005
<VARIANCE> 39
 9.167006e+001 2.934647e+001 4.407549e+001 6.457423e+001 6.220945e+001 9.634994e+001 3.252906e+001 4.593910e+001 5.675373e+001 3.253341e+001 2.632482e+001 2.972611e+001 1.312725e+002 2.550928e+000 1.511606e+000 1.606481e+000 2.604123e+000 2.271194e+000 3.390491e+000 1.870607e+000 2.178643e+000 2.666786e+000 1.791392e+000 1.601890e+000 1.612961e+000 2.330216e+000 3.219935e-001 2.495312e-001 2.693298e-001 3.940682e-001 3.531721e-001 5.091046e-001 3.340584e-001 3.702532e-001 4.453263e-001 3.296812e-001 2.885351e-001 2.783844e-001 3.440708e-001
<GCONST> 1.181056e+002
<TRANSP> 5
 0.000000e+000 1.000000e+000 0.000000e+000 0.000000e+000 0.000000e+000
 0.000000e+000 6.000000e-001 4.000000e-001 0.000000e+000 0.000000e+000
 0.000000e+000 0.000000e+000 6.000000e-001 4.000000e-001 0.000000e+000
 0.000000e+000 0.000000e+000 0.000000e+000 7.000000e-001 3.000000e-001
 0.000000e+000 0.000000e+000 0.000000e+000 0.000000e+000 0.000000e+000
<ENDHMM>
~h "k"
<BEGINHMM>
<NUMSTATES> 5
<STATE> 2
<MEAN> 39
 -9.344427e+000 9.803731e-001 3.008603e+000 2.211006e+000 2.136983e+000 -5.112123e+000 5.673615e-001 5.324949e+000 -4.147657e-001 8.306193e-001 2.624763e+000 -3.124891e+000 6.499531e+001 -1.441772e+000 8.012921e-002 -1.945067e+000 -2.247585e+000 -1.459708e+000 6.264138e-001 3.685487e-001 -3.922345e-001 5.983324e-001 -7.333709e-001 -3.881623e-001 8.750432e-001 -7.583882e-001 -5.268875e-002 -4.800578e-001 2.768940e-002 -6.832833e-001 9.902744e-002 -2.432353e-001 -4.636182e-002 -2.648878e-001 -1.540608e-001 -3.595759e-001 -1.392261e-001 1.532824e-001 1.267311e+000
<VARIANCE> 39
 3.307443e+001 2.785831e+001 4.351046e+001 7.724057e+001 1.094748e+002 7.166167e+001 3.562645e+001 4.912086e+001 6.582124e+001 2.663543e+001 2.928383e+001 3.103422e+001 4.086510e+001 1.984436e+000 2.516163e+000 3.459226e+000 7.323732e+000 6.025379e+000 4.312789e+000 4.425556e+000 4.025223e+000 3.837596e+000 3.373469e+000 2.965112e+000 2.034929e+000 9.917346e+000 2.653604e-001 3.261141e-001 1.066080e+000 1.023508e+000 1.236094e+000 8.279488e-001 9.349568e-001 6.774749e-001 6.138236e-001 6.496991e-001 4.933830e-001 4.037338e-001 1.076396e+000
<GCONST> 1.334273e+002
<STATE> 3
<MEAN> 39
 -1.503472e+001 -2.670713e+000 -7.923535e-001 -1.126988e+001 1.600351e+000 -2.441461e+000 3.031799e+000 1.370129e+000 2.585991e-001 -5.772268e+000 -8.184088e-001 4.611427e-001 7.600647e+001 -1.932769e-001 -8.582865e-001 9.085176e-001 -7.134929e-001 4.497077e-001 6.754711e-001 -2.259922e-001 -8.546334e-001 6.776035e-001 -7.479376e-001 -3.163196e-001 9.593415e-001 2.336545e+000 5.922832e-001 8.939047e-002 6.937964e-001 1.478661e+000 1.782322e-001 3.943835e-002 -2.646680e-001 2.990915e-001 1.831303e-001 8.592042e-001 4.318529e-001 -1.256319e-001 -1.058894e+000
<VARIANCE> 39
 9.393679e+000 1.696401e+001 2.057636e+001 3.836855e+001 5.361728e+001 2.413860e+001 5.590492e+001 6.293743e+001 2.249283e+001 2.846345e+001 2.450286e+001 2.653864e+001 3.428855e+001 2.785765e+000 2.116858e+000 3.328801e+000 1.075161e+001 5.812339e+000 5.702897e+000 4.312884e+000 3.559698e+000 3.816610e+000 4.859452e+000 2.989258e+000 2.375453e+000 8.036922e+000 4.019068e-001 3.697754e-001 9.651436e-001 9.687791e-001 1.081516e+000 8.538364e-001 8.923813e-001 6.848804e-001 6.071455e-001 8.038498e-001 5.328150e-001 5.459824e-001 1.208930e+000
<GCONST> 1.294662e+002
<STATE> 4
<MEAN> 39
 -1.278920e+001 -4.950755e+000 8.650769e-001 -4.546065e+000 2.877515e+000 1.207402e+000 9.448127e-001 4.714763e-001 2.103859e+000 -2.607643e+000 1.733272e+000 3.463787e+000 6.897697e+001 1.019709e+000 3.588360e-001 5.470129e-001 1.280067e+000 -2.091065e-001 1.620790e-002 1.549965e-001 5.840935e-001 4.171237e-001 1.237794e+000 3.446324e-001 -1.451954e-001 -8.445151e-001 2.107239e-001 2.251685e-001 -1.853179e-001 -9.588725e-003 -2.920870e-001 -4.854304e-001 8.868811e-002 1.593946e-001 -4.185981e-001 7.307359e-002 -9.113771e-002 -2.589142e-001 8.265819e-002
<VARIANCE> 39
 1.795294e+001 2.329491e+001 2.275978e+001 2.107605e+001 3.297039e+001 2.335307e+001 2.907656e+001 4.755498e+001 4.519160e+001 2.011165e+001 2.620792e+001 1.490619e+001 5.833413e+001 3.329835e+000 1.938681e+000 2.730861e+000 3.220792e+000 1.894995e+000 3.637790e+000 1.689531e+000 2.589527e+000 2.684896e+000 2.530671e+000 2.562485e+000 2.030276e+000 2.475222e+000 3.222182e-001 3.802048e-001 4.399319e-001 5.152718e-001 5.298719e-001 6.762110e-001 4.140205e-001 5.049953e-001 7.176202e-001 4.451624e-001 4.306438e-001 3.447408e-001 4.843289e-001
<GCONST> 1.165792e+002
<TRANSP> 5
 0.000000e+000 1.000000e+000 0.000000e+000 0.000000e+000 0.000000e+000
 0.000000e+000 7.585058e-001 2.414941e-001 0.000000e+000 0.000000e+000
 0.000000e+000 0.000000e+000 6.656051e-001 3.343949e-001 0.000000e+000
 0.000000e+000 0.000000e+000 0.000000e+000 7.078356e-001 2.921644e-001
 0.000000e+000 0.000000e+000 0.000000e+000 0.000000e+000 0.000000e+000
<ENDHMM>
~h "l"
<BEGINHMM>
<NUMSTATES> 5
<STATE> 2
<MEAN> 39
 -7.589999e-001 -1.109812e-001 3.769709e+000 4.990645e+000 6.831105e+000 -2.885061e+000 4.982351e-001 6.779270e+000 -4.340897e+000 -4.086380e+000 -5.700346e+000 -4.019344e+000 7.174431e+001 9.098340e-001 -5.533469e-001 -2.236240e-003 9.907756e-001 5.136240e-001 -8.044604e-001 -6.941706e-005 2.982453e-001 -9.765077e-001 -4.655048e-001 -1.038921e+000 -7.734137e-001 9.500843e-001 -3.418497e-001 -1.993291e-001 9.587197e-002 -2.703442e-001 -3.789680e-001 -4.791803e-001 5.247914e-002 1.805657e-001 7.886246e-002 -4.368168e-002 2.227593e-001 1.358408e-001 1.026880e-001
<VARIANCE> 39
 1.994509e+001 2.852249e+001 2.674436e+001 4.533622e+001 5.983126e+001 7.030252e+001 3.502674e+001 3.335313e+001 7.078187e+001 5.171251e+001 4.490758e+001 5.319655e+001 6.071986e+001 2.789493e+000 1.937925e+000 2.109670e+000 2.480742e+000 3.356204e+000 5.234500e+000 2.944764e+000 2.678754e+000 4.989508e+000 3.333680e+000 2.675756e+000 2.204772e+000 2.000308e+000 3.447734e-001 3.373905e-001 4.619333e-001 5.860437e-001 4.366904e-001 8.695896e-001 5.536728e-001 6.087823e-001 8.229130e-001 6.446835e-001 5.026319e-001 4.470411e-001 2.598410e-001
<GCONST> 1.251842e+002
<STATE> 3
<MEAN> 39
 7.695373e-001 -4.546658e+000 4.311800e+000 4.882512e+000 3.413158e+000 -1.314807e+001 4.075075e-001 9.726822e+000 -6.516344e+000 -6.311690e+000 -8.143727e+000 -6.385875e+000 7.784708e+001 -1.203639e-001 -5.364470e-001 -1.640058e-001 -1.141840e+000 -1.584389e+000 -1.803730e+000 2.287500e-001 -6.321063e-002 3.968185e-001 -3.531750e-002 1.014702e+000 1.035738e+000 1.161554e+000 -6.374070e-002 -2.268509e-002 -1.515160e-001 -4.382105e-001 -1.653896e-001 1.150140e-001 5.922017e-002 -1.037705e-001 2.641598e-001 2.520178e-001 3.008955e-001 3.456647e-001 5.695555e-002
<VARIANCE> 39
 5.678591e+000 9.813598e+000 2.538362e+001 2.990079e+001 6.452295e+001 5.967881e+001 2.936235e+001 4.116311e+001 2.979374e+001 3.874252e+001 5.876074e+001 5.995804e+001 2.309984e+001 5.460955e-001 7.233516e-001 1.965629e+000 3.243793e+000 3.384740e+000 4.060061e+000 1.791842e+000 3.694673e+000 2.372342e+000 3.062083e+000 3.669724e+000 4.741346e+000 1.022447e+000 1.283492e-001 1.188776e-001 2.916234e-001 3.979969e-001 5.506547e-001 5.549169e-001 3.115392e-001 5.213013e-001 4.368303e-001 5.307832e-001 6.119944e-001 6.009020e-001 1.660104e-001
<GCONST> 1.127399e+002
<STATE> 4
<MEAN> 39
 7.725762e-001 -4.762007e+000 1.053890e+000 -4.098871e+000 -3.966963e+000 -2.030107e+001 1.908924e+000 7.767295e+000 -4.099079e-001 1.432550e+000 -4.271405e+000 -3.264743e-001 8.195129e+001 -1.249660e-001 1.914874e-001 1.048300e-001 -2.199054e-001 -2.964576e-001 -1.311639e-001 2.393806e-001 9.700315e-002 5.289652e-001 2.673384e-001 -1.412169e-001 5.453571e-002 -2.159808e-001 -4.707821e-002 7.824095e-002 1.013093e-002 1.270392e-001 1.322015e-001 2.253179e-001 2.251402e-002 -3.508328e-002 -3.004190e-002 -3.392366e-002 -2.411311e-002 -5.928601e-002 -1.280835e-001
<VARIANCE> 39
 4.656390e+000 4.449001e+001 4.137413e+001 1.947835e+001 4.169440e+001 5.958258e+001 3.476622e+001 4.169344e+001 4.224120e+001 6.169670e+001 2.595472e+001 2.918434e+001 4.739355e+001 3.614200e-001 1.013744e+000 9.614561e-001 1.614356e+000 1.395459e+000 2.551857e+000 1.321903e+000 1.462860e+000 1.416538e+000 1.554767e+000 1.365914e+000 1.467179e+000 7.715575e-001 6.722234e-002 9.288023e-002 1.137506e-001 2.090940e-001 1.820397e-001 3.449488e-001 2.015651e-001 2.096088e-001 2.331259e-001 2.080526e-001 2.109666e-001 2.545104e-001 6.959701e-002
<GCONST> 9.638132e+001
<TRANSP> 5
 0.000000e+000 1.000000e+000 0.000000e+000 0.000000e+000 0.000000e+000
 0.000000e+000 7.109705e-001 2.890295e-001 0.000000e+000 0.000000e+000
 0.000000e+000 0.000000e+000 7.403839e-001 2.596161e-001 0.000000e+000
 0.000000e+000 0.000000e+000 0.000000e+000 8.288168e-001 1.711832e-001
 0.000000e+000 0.000000e+000 0.000000e+000 0.000000e+000 0.000000e+000
<ENDHMM>
~h "m"
<BEGINHMM>
<NUMSTATES> 5
<STATE> 2
<MEAN> 39
 -3.383306e+000 1.778491e+000 3.372707e+000 9.541463e+000 4.790403e+000 -5.692852e+000 8.646075e+000 8.613494e+000 -1.950843e+000 1.184468e+000 -7.735376e-001 -3.891535e+000 6.800979e+001 1.375610e+000 2.877555e-001 9.589280e-001 3.503425e+000 2.081811e+000 1.659301e+000 1.876119e+000 1.079339e-001 -1.868562e+000 6.606237e-001 -8.598839e-001 -2.527063e+000 -3.335701e-001 5.454783e-002 -4.607365e-001 -1.706537e-001 -2.574527e-001 -3.334665e-002 -1.410795e-001 -1.667042e-001 -3.888424e-003 -9.805455e-003 -7.481550e-002 -1.288499e-002 -1.630534e-001 4.280112e-001
<VARIANCE> 39
 4.798142e+001 1.788176e+001 2.229051e+001 2.464728e+001 5.798180e+001 9.245292e+001 1.326051e+001 1.597228e+001 2.590382e+001 3.188289e+001 1.981871e+001 1.973584e+001 7.176283e+001 4.581370e+000 1.048719e+000 1.620337e+000 1.807453e+000 2.778222e+000 6.791313e+000 1.670356e+000 2.985467e+000 2.904533e+000 2.058304e+000 1.747917e+000 1.442900e+000 4.925148e+000 3.703279e-001 2.288773e-001 3.666866e-001 4.083652e-001 3.163204e-001 4.862669e-001 3.496446e-001 3.437573e-001 5.644555e-001 3.076344e-001 2.871009e-001 2.876033e-001 2.386123e-001
<GCONST> 1.131028e+002
<STATE> 3
<MEAN> 39
 8.424941e-001 -4.698100e-001 3.789448e+000 1.604908e+001 6.724138e+000 -4.721714e+000 1.293456e+001 9.600657e+000 -6.213316e+000 2.981419e+000 -3.375374e+000 -1.064677e+001 6.923780e+001 2.857157e-001 -4.962875e-001 1.743363e-001 1.097874e+000 9.882410e-001 5.210342e-001 3.316640e-001 -2.389719e-001 -7.472625e-001 2.905970e-001 -8.708042e-002 -1.293490e+000 2.318686e-001 -3.083037e-001 1.350187e-001 -1.189652e-001 -9.121688e-001 -4.306806e-001 -5.872540e-001 -6.383193e-001 5.482213e-002 4.945958e-001 -2.196666e-001 3.598522e-001 6.798737e-001 1.449700e-001
<VARIANCE> 39
 3.031020e+000 9.667495e+000 6.692043e+000 9.493042e+000 4.340613e+001 1.997114e+001 1.310601e+001 1.559097e+001 2.209761e+001 1.486840e+001 1.329680e+001 9.986402e+000 1.108677e+001 1.636251e+000 1.099209e+000 1.068894e+000 1.579345e+000 1.653694e+000 5.309190e+000 1.233534e+000 1.230684e+000 1.932825e+000 9.040934e-001 1.307402e+000 1.441880e+000 2.089175e+000 1.991070e-001 1.885321e-001 1.406406e-001 2.287963e-001 2.091237e-001 3.977329e-001 2.001130e-001 2.199543e-001 3.681044e-001 2.507425e-001 1.756137e-001 2.676899e-001 2.205855e-001
<GCONST> 9.072922e+001
<STATE> 4
<MEAN> 39
 -5.640739e-001 1.071657e+000 4.687987e+000 1.470775e+001 9.318691e+000 -4.704811e+000 9.668833e+000 9.388702e+000 -6.215516e+000 1.970363e+000 -6.318045e-001 -1.067708e+001 6.932885e+001 -3.763072e-001 6.524616e-001 -7.296353e-002 -1.272731e+000 -2.462129e-001 -5.164288e-001 -1.115317e+000 1.278385e-001 8.696460e-001 -5.251842e-001 4.868283e-001 9.044001e-001 1.085879e-001 -4.727917e-002 -3.355213e-002 -1.674474e-001 -6.125805e-001 -3.886173e-001 -2.927442e-001 -2.455898e-001 3.284152e-002 3.553359e-001 -1.688685e-001 -4.170513e-002 3.919129e-001 1.766292e-001
<VARIANCE> 39
 6.121807e+000 1.926578e+001 6.564811e+000 1.645022e+001 4.074379e+001 2.912467e+001 1.936091e+001 2.042346e+001 3.995387e+001 2.031167e+001 2.091213e+001 1.692252e+001 1.615694e+001 5.625597e-001 1.301817e+000 8.573960e-001 2.895013e+000 3.417679e+000 4.389870e+000 1.687140e+000 1.145769e+000 2.190209e+000 1.256100e+000 1.161862e+000 2.063725e+000 1.490902e+000 7.250179e-002 2.388379e-001 1.475246e-001 5.145675e-001 4.074672e-001 4.305878e-001 3.137786e-001 3.433759e-001 3.684553e-001 2.310166e-001 2.429892e-001 3.195563e-001 1.631469e-001
<GCONST> 9.835440e+001
<TRANSP> 5
 0.000000e+000 1.000000e+000 0.000000e+000 0.000000e+000 0.000000e+000
 0.000000e+000 4.389654e-001 5.610346e-001 0.000000e+000 0.000000e+000
 0.000000e+000 0.000000e+000 6.541112e-001 3.458888e-001 0.000000e+000
 0.000000e+000 0.000000e+000 0.000000e+000 7.973843e-001 2.026157e-001
 0.000000e+000 0.000000e+000 0.000000e+000 0.000000e+000 0.000000e+000
<ENDHMM>
~h "n"
<BEGINHMM>
<NUMSTATES> 5
<STATE> 2
<MEAN> 39
 -2.040613e+000 -1.626038e+000 3.995658e+000 6.336208e+000 8.258497e+000 -6.676149e+000 5.398536e+000 2.744350e+000 -9.106367e+000 -5.529945e-001 2.639709e+000 -2.580952e+000 7.476699e+001 -1.784047e-001 9.008387e-001 8.665252e-001 1.418231e+000 9.504303e-001 1.751723e+000 1.419154e-001 -3.141982e-001 9.780575e-002 5.306268e-001 -6.464975e-001 -1.117285e+000 -1.326894e+000 -3.067217e-002 -4.650756e-003 -2.711384e-002 8.086713e-002 -4.695154e-002 8.731315e-002 -1.355236e-001 9.678806e-002 2.347530e-001 9.625502e-002 -1.750084e-001 -9.926349e-003 -1.239113e-001
<VARIANCE> 39
 1.081322e+001 2.172423e+001 2.151303e+001 2.513421e+001 4.788551e+001 5.829226e+001 3.628062e+001 3.980574e+001 3.754424e+001 2.999791e+001 2.898532e+001 3.186934e+001 3.654298e+001 1.096313e+000 1.043597e+000 1.692235e+000 2.989321e+000 2.288774e+000 3.424891e+000 1.879827e+000 1.907105e+000 2.049894e+000 1.846712e+000 1.897593e+000 2.319824e+000 1.450920e+000 1.749047e-001 1.831339e-001 2.699614e-001 3.372549e-001 3.041194e-001 5.247728e-001 3.854044e-001 3.481734e-001 4.433828e-001 2.773836e-001 3.178881e-001 3.415398e-001 1.631985e-001
<GCONST> 1.085596e+002
<STATE> 3
<MEAN> 39
 -1.242661e+000 1.695899e+000 6.034047e+000 1.429281e+001 1.149749e+001 2.426362e-001 5.479889e+000 2.666140e+000 -7.388544e+000 2.643115e+000 -1.933196e+000 -8.873085e+000 6.865662e+001 -2.776999e-001 6.511874e-001 4.794517e-001 8.616477e-001 5.737573e-001 8.211035e-001 -2.541314e-001 -3.757745e-003 4.841678e-001 1.831051e-001 -5.065537e-001 -4.812141e-001 -7.829755e-001 -3.702144e-001 -6.043879e-002 -1.158113e-001 -7.630501e-001 -2.835785e-001 -2.694341e-001 -3.782580e-002 9.707230e-002 3.042901e-001 -4.069995e-001 2.818841e-001 5.747073e-001 2.704124e-001
<VARIANCE> 39
 5.788238e+000 1.332228e+001 1.068238e+001 2.243193e+001 3.889374e+001 2.350176e+001 2.631043e+001 2.736365e+001 2.069779e+001 1.721716e+001 3.190844e+001 1.927433e+001 2.070108e+001 1.238230e+000 1.438878e+000 1.198558e+000 2.414809e+000 1.752164e+000 2.696268e+000 1.518474e+000 1.482370e+000 2.415892e+000 1.571526e+000 1.410264e+000 1.972124e+000 1.873331e+000 1.826211e-001 2.291796e-001 2.358705e-001 3.845130e-001 3.604954e-001 4.222777e-001 2.848736e-001 3.557910e-001 3.687389e-001 2.930150e-001 3.155921e-001 3.240399e-001 2.143567e-001
<GCONST> 1.014246e+002
<STATE> 4
<MEAN> 39
 -6.245202e+000 5.281261e+000 6.981047e+000 1.180972e+001 1.024250e+001 4.630917e+000 6.125132e+000 3.475942e+000 -1.170059e+000 2.177495e+000 -1.366602e+000 -5.004858e+000 6.355581e+001 -1.474876e+000 -1.233483e-002 -3.872217e-001 -1.549269e+000 -5.104442e-001 4.526808e-002 -3.137665e-001 2.459724e-001 1.274286e+000 -5.794281e-001 3.142042e-001 1.043915e+000 -3.031915e-001 -1.482736e-001 -5.227116e-001 -2.754591e-001 -5.255870e-001 -3.632008e-001 -6.431947e-001 -1.772940e-001 -1.484197e-001 -1.826707e-001 -1.177571e-001 1.698776e-001 1.840688e-001 4.185784e-001
<VARIANCE> 39
 1.774335e+001 1.717794e+001 1.608010e+001 2.688794e+001 3.025349e+001 3.632447e+001 2.410445e+001 2.649872e+001 3.558955e+001 1.869027e+001 2.244379e+001 2.553902e+001 4.525980e+001 1.900016e+000 1.838369e+000 1.879159e+000 2.870166e+000 2.911738e+000 3.263265e+000 1.885234e+000 2.424573e+000 2.889524e+000 2.190710e+000 1.837558e+000 1.984070e+000 2.117789e+000 2.745518e-001 3.156765e-001 3.074099e-001 5.471097e-001 3.530548e-001 4.814481e-001 3.470156e-001 4.780155e-001 4.402632e-001 3.319460e-001 3.395543e-001 5.050385e-001 2.710607e-001
<GCONST> 1.113991e+002
<TRANSP> 5
 0.000000e+000 1.000000e+000 0.000000e+000 0.000000e+000 0.000000e+000
 0.000000e+000 6.378176e-001 3.621824e-001 0.000000e+000 0.000000e+000
 0.000000e+000 0.000000e+000 6.796890e-001 3.203109e-001 0.000000e+000
 0.000000e+000 0.000000e+000 0.000000e+000 5.865106e-001 4.134894e-001
 0.000000e+000 0.000000e+000 0.000000e+000 0.000000e+000 0.000000e+000
<ENDHMM>
~h "p"
<BEGINHMM>
<NUMSTATES> 5
<STATE> 2
<MEAN> 39
 -7.614607e+000 2.402084e+000 7.482466e-001 1.065143e+001 1.115726e+001 3.752900e-001 5.780671e-001 1.493667e+000 -5.944007e+000 -1.632979e+000 1.877459e+000 -3.807213e+000 6.335738e+001 -1.736231e+000 -9.699687e-003 -9.372538e-001 -1.041832e+000 -2.241283e+000 6.027135e-001 -6.851836e-001 -3.007372e-001 1.321539e+000 -6.313904e-002 -4.153042e-001 4.548823e-001 -2.189165e+000 -7.369593e-002 -5.243127e-001 6.714942e-002 -8.172519e-001 1.043030e-001 -4.341601e-001 -2.673198e-001 -4.076317e-001 -9.831430e-002 -2.448414e-001 -9.680758e-002 1.488126e-001 9.772781e-001
<VARIANCE> 39
 1.716315e+001 1.315967e+001 1.001031e+001 3.096722e+001 3.228185e+001 2.059633e+001 1.456250e+001 2.065231e+001 4.350082e+001 1.547822e+001 1.389017e+001 9.865458e+000 4.106647e+001 1.116792e+000 1.770242e+000 1.050638e+000 4.887106e+000 1.633106e+000 3.088574e+000 2.223500e+000 3.290376e+000 3.525092e+000 1.791908e+000 1.141152e+000 9.028778e-001 3.869807e+000 3.257523e-001 3.723275e-001 1.797655e-001 6.848043e-001 3.194344e-001 3.652023e-001 6.772851e-001 6.997662e-001 7.567902e-001 4.192194e-001 2.098882e-001 2.371368e-001 5.562006e-001
<GCONST> 1.075048e+002
<STATE> 3
<MEAN> 39
 -1.385199e+001 4.256841e-001 -1.603007e+000 -1.310741e+000 4.899574e+000 4.758371e-001 -4.523812e-001 -3.064099e-001 -2.982643e-001 -4.254441e+000 -2.993789e-001 2.095067e-001 6.604360e+001 -1.151550e-001 -1.302934e-001 4.936869e-001 -2.660845e+000 -4.679021e-001 3.758261e-001 7.465168e-001 5.675430e-001 2.101941e+000 -2.999629e-001 1.609832e-001 1.430198e+000 2.339660e+000 7.957847e-001 8.877277e-002 4.028299e-001 3.474619e-001 6.105397e-002 -2.188570e-001 2.211165e-001 6.662166e-001 3.655523e-001 4.728366e-001 3.013991e-001 6.552780e-002 2.052360e-001
<VARIANCE> 39
 9.809614e+000 1.054608e+001 1.127403e+001 3.020983e+001 1.456479e+001 1.397309e+001 2.080952e+001 1.865550e+001 3.154025e+001 1.586901e+001 1.481257e+001 1.973456e+001 5.747417e+001 2.687088e+000 1.393310e+000 1.426350e+000 4.134701e+000 2.365646e+000 2.513625e+000 1.528215e+000 2.952805e+000 4.729826e+000 2.000148e+000 2.774146e+000 1.745996e+000 4.671852e+000 3.129455e-001 3.670568e-001 3.652189e-001 4.551632e-001 5.332887e-001 4.681021e-001 4.041566e-001 5.461057e-001 7.088076e-001 3.504221e-001 3.729225e-001 3.546534e-001 1.047183e+000
<GCONST> 1.108931e+002
<STATE> 4
<MEAN> 39
 -8.141421e+000 -1.725389e-001 1.659995e+000 -7.005177e+000 2.132258e+000 -8.445565e-001 1.240278e+000 6.033721e+000 9.957960e+000 -1.056964e+000 2.224840e+000 4.072957e+000 7.168127e+001 2.190723e+000 -6.383684e-003 7.123767e-001 -2.391819e-001 -1.256814e+000 -1.723431e+000 1.959222e-001 1.658018e+000 1.253448e+000 1.186805e+000 -1.149969e-001 2.935256e-001 7.341617e-001 1.429427e-001 -3.618640e-002 -3.749521e-001 6.287805e-001 -8.552594e-002 -5.609670e-001 -1.198512e-001 -3.398367e-001 -1.017845e+000 -2.086417e-002 -3.765525e-001 -4.258894e-001 -2.871456e-001
<VARIANCE> 39
 1.612200e+001 2.401427e+001 1.609043e+001 1.610216e+001 9.396688e+000 2.869252e+001 1.999414e+001 2.207203e+001 4.358587e+001 1.717379e+001 3.175805e+001 1.871161e+001 1.623158e+001 1.244033e+000 2.555711e+000 1.925241e+000 2.501449e+000 1.023860e+000 3.174887e+000 1.953967e+000 2.964387e+000 6.166493e+000 1.373943e+000 2.927910e+000 1.935116e+000 2.855413e+000 2.531655e-001 4.781765e-001 3.523211e-001 4.306738e-001 2.357499e-001 3.648346e-001 4.077822e-001 4.817044e-001 5.348532e-001 3.061410e-001 5.222820e-001 3.449785e-001 4.614265e-001
<GCONST> 1.088823e+002
<TRANSP> 5
 0.000000e+000 1.000000e+000 0.000000e+000 0.000000e+000 0.000000e+000
 0.000000e+000 7.528409e-001 2.471592e-001 0.000000e+000 0.000000e+000
 0.000000e+000 0.000000e+000 7.222687e-001 2.777313e-001 0.000000e+000
 0.000000e+000 0.000000e+000 0.000000e+000 6.928497e-001 3.071503e-001
 0.000000e+000 0.000000e+000 0.000000e+000 0.000000e+000 0.000000e+000
<ENDHMM>
~h "r"
<BEGINHMM>
<NUMSTATES> 5
<STATE> 2
<MEAN> 39
 -2.070306e+000 2.497833e+000 3.783056e+000 -4.150420e+000 6.109540e+000 -2.014651e+000 1.051558e+000 3.814105e+000 -1.736720e+000 -4.404265e+000 -2.538471e+000 -9.485254e-002 7.438937e+001 1.807488e+000 4.542176e-002 -4.210290e-001 -2.665312e-001 3.164386e-001 -1.288721e+000 -5.988642e-001 7.803878e-001 -1.122026e+000 -9.818625e-001 -7.507969e-002 -2.966699e-001 1.368340e+000 -5.990191e-001 -4.960204e-001 -1.649193e-001 -2.315397e-001 -1.572564e-001 6.419387e-002 2.039518e-001 -9.742253e-002 1.189361e-001 -6.940515e-002 3.028841e-002 7.569370e-002 -5.722409e-002
<VARIANCE> 39
 3.630633e+001 3.902079e+001 4.294058e+001 4.777161e+001 4.818485e+001 1.037860e+002 6.114015e+001 6.083949e+001 6.764637e+001 2.837022e+001 4.893270e+001 1.779307e+001 4.470988e+001 4.568671e+000 3.889744e+000 2.990368e+000 1.920573e+000 2.578035e+000 8.020779e+000 3.123866e+000 4.963578e+000 6.154670e+000 3.229426e+000 3.680571e+000 1.414047e+000 3.005181e+000 9.760455e-001 4.371678e-001 2.302894e-001 3.378541e-001 5.167698e-001 6.202399e-001 7.476166e-001 6.423784e-001 6.085854e-001 4.171276e-001 4.474432e-001 3.093908e-001 3.353437e-001
<GCONST> 1.278452e+002
<STATE> 3
<MEAN> 39
 1.273277e+000 2.719492e+000 1.994027e+000 -6.643271e+000 7.731992e+000 -3.659328e+000 -1.442629e+000 6.838388e+000 -6.490665e+000 -9.364539e+000 -1.923450e+000 -9.773863e-001 7.574929e+001 3.114272e-001 -1.115432e+000 -5.257861e-001 6.583557e-002 1.578882e-003 -1.005790e+000 -1.043037e-003 -9.982469e-002 -7.221533e-001 -5.342031e-001 4.367961e-002 1.258660e-001 9.919505e-001 -4.835612e-001 -2.319961e-001 1.677210e-001 2.139910e-001 -1.851974e-001 1.142875e-001 2.469931e-001 -3.225749e-001 3.311268e-001 4.190581e-001 1.213039e-001 1.500244e-001 -1.794112e-001
<VARIANCE> 39
 6.473265e+000 3.084669e+001 2.093373e+001 4.118926e+001 5.527659e+001 8.983076e+001 3.732629e+001 3.851097e+001 6.982143e+001 5.335065e+001 4.644677e+001 1.854790e+001 2.496100e+001 6.672506e-001 2.419131e+000 1.903928e+000 2.455013e+000 2.073285e+000 5.469636e+000 2.405094e+000 4.487619e+000 3.955663e+000 2.323860e+000 2.999420e+000 2.066555e+000 1.324566e+000 3.609812e-001 2.748812e-001 2.585355e-001 2.641035e-001 3.995369e-001 8.782316e-001 3.962272e-001 6.486053e-001 7.267170e-001 4.798316e-001 5.307133e-001 2.843432e-001 2.660225e-001
<GCONST> 1.171958e+002
<STATE> 4
<MEAN> 39
 2.637426e+000 4.575152e-001 -3.662241e-001 -8.836834e+000 3.231562e+000 -6.204713e+000 -1.290544e+000 2.707230e+000 -7.585616e+000 -4.709676e+000 -1.636082e+000 1.395817e+000 7.779507e+001 -1.462320e-001 -3.552722e-001 2.193210e-002 5.461257e-001 -2.309411e-001 -6.429778e-001 2.137755e-002 -4.518577e-001 5.390382e-001 6.338110e-001 -1.674432e-001 1.627170e-001 8.503925e-002 -7.711227e-002 6.209744e-003 6.275017e-002 1.310451e-001 1.994757e-002 -5.714698e-002 -6.775143e-003 4.350390e-002 1.192369e-001 3.500820e-002 -1.427561e-002 -5.282827e-002 -6.275564e-002
<VARIANCE> 39
 1.141663e+001 1.555059e+001 3.333625e+001 4.823009e+001 7.324823e+001 6.447980e+001 3.596031e+001 4.846028e+001 8.499905e+001 6.354565e+001 4.084713e+001 2.337916e+001 1.148842e+001 3.386377e-001 1.266034e+000 1.397945e+000 1.576222e+000 1.741608e+000 2.135059e+000 1.971077e+000 2.793644e+000 2.690559e+000 1.884727e+000 1.929818e+000 1.480761e+000 5.030434e-001 6.932126e-002 1.511040e-001 1.894237e-001 1.691266e-001 2.554828e-001 4.007798e-001 3.674219e-001 3.653712e-001 4.176218e-001 3.046894e-001 2.729180e-001 2.633057e-001 8.980487e-002
<GCONST> 1.036171e+002
<TRANSP> 5
 0.000000e+000 1.000000e+000 0.000000e+000 0.000000e+000 0.000000e+000
 0.000000e+000 3.839829e-001 6.160171e-001 0.000000e+000 0.000000e+000
 0.000000e+000 0.000000e+000 5.200695e-001 4.799305e-001 0.000000e+000
 0.000000e+000 0.000000e+000 0.000000e+000 8.088441e-001 1.911558e-001
 0.000000e+000 0.000000e+000 0.000000e+000 0.000000e+000 0.000000e+000
<ENDHMM>
~h "s"
<BEGINHMM>
<NUMSTATES> 5
<STATE> 2
<MEAN> 39
 -1.212453e+001 -1.548746e+000 1.056112e+001 -3.934641e+000 1.321980e+000 1.334442e+000 3.539339e+000 -1.236516e+000 -1.471470e+000 -2.492678e+000 1.589053e+000 5.668139e-001 7.433794e+001 -4.260537e+000 -2.758054e-001 1.586569e+000 -2.816540e+000 4.969075e-001 2.129378e+000 -6.257474e-001 -4.646987e-001 1.908651e+000 -1.056832e-001 1.076452e+000 1.198639e-001 6.656786e-001 -6.715445e-001 -3.805692e-001 -6.105454e-001 -7.743940e-001 -2.546696e-001 -6.529057e-001 -3.975353e-001 9.653626e-002 3.049373e-002 3.023001e-002 1.831363e-001 -1.032968e-001 2.876902e-001
<VARIANCE> 39
 6.181153e+001 1.542469e+001 3.116434e+001 3.781098e+001 4.598999e+001 4.897235e+001 2.567631e+001 3.409449e+001 5.303043e+001 2.707713e+001 3.078087e+001 2.221153e+001 5.825659e+001 6.456577e+000 4.059117e+000 4.295303e+000 6.518265e+000 5.107327e+000 6.138924e+000 2.664074e+000 3.071151e+000 5.622836e+000 2.349201e+000 3.317615e+000 2.107947e+000 3.019456e+000 7.893617e-001 4.306258e-001 6.016243e-001 7.979843e-001 6.656524e-001 8.733079e-001 4.382182e-001 4.826379e-001 1.140277e+000 3.939894e-001 5.373491e-001 3.317584e-001 2.024573e-001
<GCONST> 1.277112e+002
<STATE> 3
<MEAN> 39
 -2.682627e+001 -5.817057e+000 9.580285e+000 -1.619242e+001 -9.056373e-001 1.844803e+000 -1.441566e+000 -3.898057e+000 1.306633e+000 -2.713824e+000 4.825344e+000 -8.217653e-002 7.734394e+001 -2.888101e+000 -6.096027e-001 -4.132142e-001 -2.533576e+000 -7.393420e-001 -8.258406e-001 -9.204190e-001 -3.648856e-001 -1.685567e-001 -1.454156e-001 9.844591e-002 -5.784369e-001 1.052581e+000 8.105852e-001 3.653381e-001 -2.928705e-001 8.127175e-001 1.591937e-001 -2.031019e-001 3.133360e-001 3.133377e-001 -2.990103e-001 3.257640e-002 -3.430328e-001 -2.748801e-002 -4.304208e-001
<VARIANCE> 39
 1.431675e+001 1.014346e+001 1.519244e+001 1.335725e+001 1.813072e+001 2.305015e+001 2.241272e+001 1.917861e+001 2.480606e+001 1.788049e+001 1.221850e+001 1.144591e+001 2.664385e+001 2.183457e+000 1.185115e+000 2.891359e+000 2.098307e+000 1.584390e+000 1.429977e+000 1.894580e+000 1.763228e+000 1.711601e+000 1.262885e+000 1.167501e+000 8.855110e-001 2.599343e+000 5.122986e-001 2.878903e-001 5.001456e-001 3.410822e-001 5.219271e-001 6.291735e-001 3.518929e-001 4.113228e-001 5.983374e-001 2.400749e-001 2.797350e-001 2.295359e-001 1.306562e-001
<GCONST> 1.014719e+002
<STATE> 4
<MEAN> 39
 -3.175119e+001 -4.780671e+000 8.037352e+000 -1.760308e+001 1.822077e+000 9.391963e-001 -5.932649e-001 -1.044259e+000 2.954950e-001 -1.862025e+000 3.012213e+000 -1.020359e+000 7.699784e+001 6.222464e-001 3.139578e-001 -1.602353e-001 6.653075e-001 3.171154e-001 -1.165421e-001 2.505057e-001 3.159059e-001 -7.007169e-002 5.979215e-002 -2.573995e-001 1.004974e-001 -5.695537e-001 5.971127e-001 5.076930e-002 6.376708e-003 4.143658e-001 5.206662e-003 -5.014529e-002 7.911008e-002 3.351453e-002 -6.355483e-002 -1.827754e-002 5.830566e-004 6.849951e-002 -1.075293e-001
<VARIANCE> 39
 2.190338e+001 1.144990e+001 2.476772e+001 1.953268e+001 2.534540e+001 1.889750e+001 2.323232e+001 1.843272e+001 1.709848e+001 2.009969e+001 1.375194e+001 1.097944e+001 2.185271e+001 4.388777e+000 9.372744e-001 1.095225e+000 2.388157e+000 1.347546e+000 1.329584e+000 1.308976e+000 1.500726e+000 1.394286e+000 1.427217e+000 9.975756e-001 8.805462e-001 1.636367e+000 5.044293e-001 1.687859e-001 2.139208e-001 4.519985e-001 3.175422e-001 2.945916e-001 2.769601e-001 2.738671e-001 3.203751e-001 2.693457e-001 2.076917e-001 1.771300e-001 1.975605e-001
<GCONST> 9.711874e+001
<TRANSP> 5
 0.000000e+000 1.000000e+000 0.000000e+000 0.000000e+000 0.000000e+000
 0.000000e+000 6.471874e-001 3.528126e-001 0.000000e+000 0.000000e+000
 0.000000e+000 0.000000e+000 6.583397e-001 3.416604e-001 0.000000e+000
 0.000000e+000 0.000000e+000 0.000000e+000 8.978456e-001 1.021545e-001
 0.000000e+000 0.000000e+000 0.000000e+000 0.000000e+000 0.000000e+000
<ENDHMM>
~h "t"
<BEGINHMM>
<NUMSTATES> 5
<STATE> 2
<MEAN> 39
 -1.223748e+001 2.529476e-001 1.961532e+000 1.172904e-001 2.108996e+000 -1.384928e+000 1.788518e+000 2.461876e+000 -2.808092e+000 -2.042107e+000 2.361532e+000 1.146055e+000 6.361425e+001 -1.163473e+000 -5.963897e-001 -3.283308e-001 -5.207757e-001 -5.061311e-001 -1.844667e-001 -7.604719e-001 -6.253126e-001 1.038697e+000 -3.084833e-001 -9.322368e-003 2.305181e-001 3.484709e-001 -1.725695e-001 -5.026413e-001 3.938216e-001 -3.406747e-001 1.723974e-001 -2.123505e-001 5.975324e-003 -3.548171e-001 7.900567e-002 -1.654331e-001 -6.480965e-002 -8.846659e-002 1.219526e+000
<VARIANCE> 39
 4.799382e+001 1.641529e+001 3.736003e+001 6.596641e+001 6.257193e+001 3.605147e+001 2.957232e+001 3.954922e+001 5.776268e+001 4.950875e+001 2.141054e+001 2.397961e+001 6.308634e+001 3.764174e+000 2.961161e+000 4.268019e+000 6.276431e+000 4.620983e+000 4.388331e+000 3.076159e+000 3.692331e+000 4.608969e+000 3.708405e+000 2.578684e+000 2.300203e+000 1.205195e+001 3.708675e-001 3.686832e-001 8.363113e-001 6.250037e-001 8.124992e-001 8.576071e-001 7.184229e-001 6.025652e-001 7.472304e-001 6.468537e-001 4.721031e-001 3.966325e-001 1.075791e+000
<GCONST> 1.313664e+002
<STATE> 3
<MEAN> 39
 -1.985175e+001 -6.121435e+000 5.902419e+000 -5.896458e+000 2.544772e+000 -2.150522e+000 6.409930e-001 -2.786149e+000 2.971735e+000 -4.392206e+000 2.152425e+000 1.507950e+000 7.678178e+001 -7.876558e-001 -1.244510e+000 1.201307e+000 -1.027673e+000 5.761770e-001 4.574261e-001 4.163722e-001 -9.962246e-001 5.306353e-001 -1.650207e-001 3.669361e-002 3.499485e-001 2.083907e+000 9.134353e-001 5.085710e-001 -1.181142e-001 6.582298e-001 1.810424e-001 9.718674e-002 2.446077e-001 5.110163e-001 -4.251773e-001 3.964586e-001 -6.924570e-002 -2.027555e-001 -1.150873e+000
<VARIANCE> 39
 2.590803e+001 1.456044e+001 1.501154e+001 2.660227e+001 2.039605e+001 2.265897e+001 2.626816e+001 2.411670e+001 2.612808e+001 2.248118e+001 1.709098e+001 1.529691e+001 1.736575e+001 3.286956e+000 1.849992e+000 2.689137e+000 4.985041e+000 3.131213e+000 3.383646e+000 3.641459e+000 3.048895e+000 3.830004e+000 3.460452e+000 1.907413e+000 2.030566e+000 7.127523e+000 4.423516e-001 3.669089e-001 5.585729e-001 8.267277e-001 8.957200e-001 6.846253e-001 5.324683e-001 6.048708e-001 8.451533e-001 5.517489e-001 4.574353e-001 4.575578e-001 7.843509e-001
<GCONST> 1.192714e+002
<STATE> 4
<MEAN> 39
 -1.439367e+001 -4.536704e+000 7.087924e+000 -7.523936e-001 6.594136e+000 -6.750364e-001 1.062381e+000 -1.884974e+000 4.473581e-001 -1.824174e+000 2.520888e+000 3.349416e-001 7.303825e+001 1.834283e+000 4.168003e-001 1.025531e-001 1.366611e+000 6.585293e-001 -5.344028e-001 -8.445326e-003 6.007755e-001 -1.169642e+000 4.309647e-001 9.035467e-002 -7.561092e-001 -6.374437e-001 2.377003e-001 1.449764e-001 -2.564863e-001 9.459558e-002 -1.716749e-001 -3.672419e-001 -2.469266e-001 2.774190e-001 -3.155107e-001 -3.277256e-002 -3.205774e-002 -1.773672e-001 -8.818784e-002
<VARIANCE> 39
 4.539509e+001 1.954031e+001 2.156783e+001 6.996490e+001 5.070509e+001 2.694682e+001 3.270497e+001 2.838743e+001 4.406468e+001 3.009964e+001 2.184216e+001 3.561630e+001 4.163987e+001 2.529274e+000 2.506878e+000 2.328619e+000 3.151472e+000 2.936227e+000 4.054157e+000 2.274481e+000 2.803446e+000 4.766642e+000 2.751045e+000 2.671669e+000 2.056096e+000 3.953243e+000 7.576855e-001 5.641528e-001 3.992247e-001 7.214400e-001 4.901706e-001 6.281807e-001 5.371041e-001 4.975555e-001 9.096597e-001 5.050781e-001 3.680031e-001 4.653936e-001 6.158994e-001
<GCONST> 1.236157e+002
<TRANSP> 5
 0.000000e+000 1.000000e+000 0.000000e+000 0.000000e+000 0.000000e+000
 0.000000e+000 7.273285e-001 2.726716e-001 0.000000e+000 0.000000e+000
 0.000000e+000 0.000000e+000 6.345170e-001 3.654830e-001 0.000000e+000
 0.000000e+000 0.000000e+000 0.000000e+000 6.275538e-001 3.724462e-001
 0.000000e+000 0.000000e+000 0.000000e+000 0.000000e+000 0.000000e+000
<ENDHMM>
~h "v"
<BEGINHMM>
<NUMSTATES> 5
<STATE> 2
<MEAN> 39
 2.781878e-001 -5.231134e+000 1.599557e-001 8.414139e-001 -6.173444e-001 -1.449325e+001 5.337241e+000 6.444232e+000 -9.283317e+000 -5.235433e+000 -1.053709e+000 -3.837622e+000 8.193371e+001 -5.849116e-002 4.559829e-001 1.974324e-001 3.015365e-001 2.660985e-001 5.644119e-001 3.073350e-001 -3.327187e-002 -3.965034e-002 -1.737368e-001 -1.463623e-001 -1.354472e-001 -4.817768e-001 -3.209984e-002 1.826859e-002 3.714402e-002 -9.062089e-003 5.118832e-002 4.480468e-002 -1.969323e-002 -3.712201e-002 1.734830e-002 6.515312e-002 6.351885e-002 3.920019e-002 -2.213768e-002
<VARIANCE> 39
 3.300720e+000 1.311631e+001 1.283606e+001 2.901953e+001 2.712426e+001 2.604110e+001 1.369387e+001 2.341137e+001 2.892171e+001 2.705665e+001 1.696516e+001 2.363043e+001 2.336012e+001 1.870526e-001 6.963558e-001 3.584939e-001 1.102578e+000 9.588689e-001 1.281067e+000 9.129404e-001 1.556007e+000 1.398215e+000 1.434291e+000 1.161131e+000 1.982300e+000 9.578539e-001 4.022003e-002 8.150689e-002 5.807431e-002 1.526410e-001 1.341069e-001 1.934184e-001 1.588333e-001 1.903181e-001 2.200826e-001 1.664782e-001 1.842346e-001 2.200912e-001 1.127706e-001
<GCONST> 8.228828e+001
<STATE> 3
<MEAN> 39
 9.197223e-001 5.370837e-001 -2.117067e-001 4.002885e+000 3.448495e+000 -6.698816e+000 7.422867e+000 3.025303e+000 -8.051216e+000 -4.017749e+000 -1.995619e+000 -1.234266e+000 7.318114e+001 -5.981461e-001 9.194412e-001 1.925311e-001 3.164568e-001 4.565829e-001 8.626736e-001 7.077515e-001 5.541693e-001 1.066471e+000 -2.820201e-001 4.383871e-001 -3.540745e-001 -9.767666e-001 -2.107965e-001 -1.752723e-001 1.843285e-001 -1.466179e-001 3.295631e-002 -1.469891e-001 -2.319318e-001 -1.245517e-001 9.279551e-002 1.625901e-001 1.797363e-001 6.662413e-002 1.950712e-001
<VARIANCE> 39
 8.142151e+000 2.461961e+001 1.157388e+001 5.391557e+001 3.168416e+001 4.858487e+001 2.179226e+001 6.240361e+001 3.977118e+001 2.611156e+001 1.904430e+001 1.176329e+001 2.518024e+001 1.100044e+000 1.709366e+000 4.463339e-001 1.714266e+000 2.198358e+000 1.915529e+000 1.507947e+000 2.581817e+000 4.436838e+000 1.768241e+000 1.615133e+000 1.341609e+000 1.296691e+000 1.595432e-001 2.708869e-001 1.045732e-001 2.037017e-001 3.676663e-001 3.688459e-001 2.084715e-001 4.974287e-001 4.488488e-001 2.672097e-001 3.402023e-001 3.799558e-001 1.750778e-001
<GCONST> 1.026415e+002
<STATE> 4
<MEAN> 39
 -6.677756e+000 6.672093e+000 3.488297e+000 -2.195263e-001 2.315684e+000 -3.963538e+000 5.600708e+000 5.489503e+000 1.355958e+000 -8.269895e-001 -2.705563e+000 -1.115270e+000 6.505205e+001 -6.662816e-001 -1.159890e-001 -1.617619e-001 -2.727828e-001 -1.673725e-002 4.213413e-001 -2.604911e-001 1.204691e-001 1.423479e-001 3.277736e-001 9.545821e-002 1.361546e-001 -6.618160e-001 7.656386e-002 -1.135238e-001 -3.869019e-002 8.475518e-002 -2.052022e-002 -5.860179e-002 -1.026022e-001 -1.319011e-001 -2.205300e-001 5.400161e-002 -6.127864e-002 -6.890368e-002 5.020861e-003
<VARIANCE> 39
 3.436050e+001 2.690426e+001 2.289930e+001 3.221739e+001 3.407841e+001 6.395146e+001 2.275872e+001 2.505335e+001 3.854061e+001 2.558002e+001 2.540043e+001 2.030800e+001 4.000367e+001 2.122166e+000 1.105037e+000 2.032140e+000 2.172184e+000 1.916584e+000 3.701231e+000 2.122611e+000 2.278113e+000 3.573917e+000 1.725183e+000 1.816888e+000 2.176235e+000 7.342352e-001 3.462035e-001 2.018791e-001 3.496538e-001 4.158165e-001 3.161772e-001 7.438735e-001 4.211229e-001 3.841857e-001 7.690922e-001 3.489200e-001 3.350465e-001 4.648623e-001 1.565686e-001
<GCONST> 1.118410e+002
<TRANSP> 5
 0.000000e+000 1.000000e+000 0.000000e+000 0.000000e+000 0.000000e+000
 0.000000e+000 8.456959e-001 1.543041e-001 0.000000e+000 0.000000e+000
 0.000000e+000 0.000000e+000 6.315314e-001 3.684686e-001 0.000000e+000
 0.000000e+000 0.000000e+000 0.000000e+000 7.856456e-001 2.143544e-001
 0.000000e+000 0.000000e+000 0.000000e+000 0.000000e+000 0.000000e+000
<ENDHMM>
~h "w"
<BEGINHMM>
<NUMSTATES> 5
<STATE> 2
<MEAN> 39
 -1.313529e+001 -2.136642e+000 1.853228e+000 -1.930031e+000 3.680928e+000 -4.316930e-001 2.565034e-001 3.776267e-003 -6.251746e-001 -9.825956e-001 1.780173e+000 1.975358e+000 6.214701e+001 1.100386e+000 1.198721e+000 4.992507e-001 2.899866e-001 -4.006767e-001 -4.017971e-002 -1.479554e-001 3.891945e-001 -3.386271e-001 9.769693e-003 -5.850084e-001 -4.573704e-001 -2.449140e-001 3.167336e-001 1.754689e-001 9.556512e-002 1.208263e-001 -2.288802e-001 -6.561477e-001 -1.329475e-001 2.630171e-001 4.986262e-002 -1.721119e-001 -1.538536e-001 -1.941817e-001 2.838654e-001
<VARIANCE> 39
 1.074267e+002 2.843210e+001 1.464118e+001 3.014966e+001 3.942068e+001 4.928825e+001 3.119544e+001 5.419217e+001 9.865247e+001 2.212842e+001 1.840828e+001 1.657510e+001 2.308710e+002 3.302911e+000 3.396089e+000 2.422905e+000 2.816647e+000 3.446968e+000 5.022745e+000 2.464469e+000 2.059262e+000 2.491198e+000 3.679144e+000 2.111900e+000 1.873804e+000 2.753044e+000 3.391602e-001 5.262784e-001 4.209018e-001 5.321463e-001 5.466897e-001 1.237939e+000 6.242616e-001 6.045263e-001 6.229368e-001 6.379272e-001 4.012847e-001 3.292117e-001 6.663615e-001
<GCONST> 1.251276e+002
<STATE> 3
<MEAN> 39
 -1.457868e+000 -5.174560e-001 4.441992e+000 -1.060291e+000 4.650393e+000 -3.047871e+000 8.925989e-001 -1.824660e+000 -9.653714e+000 -3.832879e+000 -4.780194e-002 -1.906181e+000 7.565993e+001 6.877367e-001 2.047198e+000 1.359319e+000 -7.157914e-001 -1.300961e+000 -1.108760e+000 -3.687478e-002 2.426996e+000 1.768028e+000 -3.934762e-001 -1.459565e+000 -1.946743e+000 -4.216828e-001 -3.612287e-002 -1.815641e-002 4.838810e-002 1.929986e-001 -2.817250e-002 -1.023545e+000 -3.397588e-001 2.728828e-001 4.926246e-001 6.001055e-001 1.219455e-001 -4.932082e-002 1.399470e-001
<VARIANCE> 39
 2.239910e+001 2.316870e+001 1.496759e+001 1.627692e+001 3.180498e+001 2.838828e+001 1.601608e+001 4.171380e+001 9.789287e+001 2.214152e+001 3.798854e+001 3.185149e+001 4.645139e+001 2.877238e+000 8.136516e-001 1.494761e+000 3.187399e+000 1.883830e+000 5.596101e+000 2.679296e+000 3.387642e+000 5.407838e+000 3.101402e+000 1.739554e+000 1.846083e+000 1.765519e+000 6.574599e-002 3.662949e-001 2.091215e-001 3.631601e-001 4.820638e-001 4.244950e-001 3.582118e-001 5.912209e-001 9.493836e-001 7.757322e-001 5.395127e-001 4.113548e-001 4.115855e-001
<GCONST> 1.147387e+002
<STATE> 4
<MEAN> 39
 -1.214194e+000 8.256817e+000 1.216666e+001 7.426019e-001 2.799524e+000 -1.724648e+001 -5.566353e+000 6.255166e+000 -2.983005e+000 1.681350e+000 -2.141517e+000 -5.045129e+000 7.235940e+001 4.636859e-001 -1.602862e-001 3.119337e-001 4.038362e-001 -8.506701e-001 -2.794410e+000 -9.006314e-001 4.897019e-001 4.864266e-001 3.796032e-001 -6.679458e-002 2.712117e-001 7.725643e-001 -3.257200e-002 -6.210237e-001 -4.429708e-001 -1.162695e-001 -2.404828e-001 1.433912e-001 3.139511e-001 -1.666261e-001 -3.168581e-002 -1.777316e-001 1.622317e-001 3.132702e-001 3.530254e-001
<VARIANCE> 39
 5.852127e+000 1.727383e+001 2.079523e+001 1.781513e+001 1.844077e+001 7.495020e+001 2.899524e+001 1.898869e+001 2.496402e+001 2.295219e+001 2.382648e+001 2.759783e+001 2.418324e+001 1.328094e+000 2.616999e+000 2.043444e+000 1.541878e+000 3.697080e+000 4.334015e+000 2.353719e+000 2.448525e+000 2.759776e+000 4.053440e+000 1.665264e+000 2.050117e+000 2.761743e+000 1.302011e-001 1.503946e-001 2.015092e-001 3.731686e-001 5.846293e-001 6.956580e-001 4.621136e-001 5.405458e-001 7.087975e-001 5.851371e-001 3.223815e-001 3.733832e-001 1.240796e-001
<GCONST> 1.094611e+002
<TRANSP> 5
 0.000000e+000 1.000000e+000 0.000000e+000 0.000000e+000 0.000000e+000
 0.000000e+000 4.723662e-001 5.276338e-001 0.000000e+000 0.000000e+000
 0.000000e+000 0.000000e+000 5.750546e-001 4.249454e-001 0.000000e+000
 0.000000e+000 0.000000e+000 0.000000e+000 8.193409e-001 1.806591e-001
 0.000000e+000 0.000000e+000 0.000000e+000 0.000000e+000 0.000000e+000
<ENDHMM>
~h "y"
<BEGINHMM>
<NUMSTATES> 5
<STATE> 2
<MEAN> 39
 -5.847761e+000 1.852922e+000 8.425753e+000 7.091081e+000 1.221397e+001 -1.796543e+000 1.757791e+000 4.735022e+000 -6.890919e+000 -2.798948e+000 1.607066e+000 -6.204301e+000 7.053513e+001 3.048549e-001 -1.045996e+000 1.768218e+000 6.692924e-001 1.381871e+000 -8.528362e-001 -7.470020e-001 -2.061089e-001 -1.776508e+000 -1.344517e+000 9.201913e-001 2.450709e-001 2.129603e+000 1.435366e-002 -6.363190e-001 -2.774880e-001 -3.370456e-001 -7.106316e-002 -3.634912e-001 -2.439985e-001 -9.162542e-002 3.286701e-003 -8.999753e-002 2.934382e-001 2.280005e-001 2.287345e-001
<VARIANCE> 39
 3.869976e+001 2.243195e+001 4.359354e+001 8.979261e+001 3.605342e+001 3.161219e+001 1.705577e+001 3.163476e+001 3.694822e+001 3.307574e+001 2.794407e+001 2.950607e+001 6.773711e+001 2.868475e+000 1.432850e+000 4.508033e+000 5.739466e+000 3.177488e+000 3.521704e+000 1.643960e+000 2.522014e+000 3.134475e+000 2.120425e+000 3.349495e+000 3.522058e+000 2.199515e+000 2.679714e-001 3.539003e-001 4.569564e-001 4.446081e-001 3.341342e-001 4.107887e-001 2.121789e-001 5.596051e-001 5.759249e-001 4.134974e-001 3.128013e-001 3.407274e-001 3.527676e-001
<GCONST> 1.189563e+002
<STATE> 3
<MEAN> 39
 -8.746661e+000 -4.545832e+000 1.452658e+001 1.251586e+001 1.596065e+001 -3.436213e+000 7.300500e-001 1.227047e+000 -4.644794e+000 -7.007852e+000 2.524835e+000 -3.949528e+000 7.612115e+001 2.158853e-001 -1.252461e+000 -2.933259e-001 -7.220916e-001 3.351392e-001 -7.744460e-001 -9.447728e-001 -4.287470e-001 -7.223665e-001 -2.950179e-001 8.749442e-001 3.668289e-001 1.393761e+000 2.072364e-001 1.786385e-001 -4.726396e-001 -2.346724e-001 -1.731738e-001 -2.764881e-002 8.922725e-002 -1.471364e-002 -9.092233e-002 2.534947e-001 -7.341236e-002 3.484685e-002 -2.059737e-001
<VARIANCE> 39
 3.136027e+001 1.158247e+001 4.880485e+001 5.679930e+001 2.145534e+001 2.082921e+001 3.713041e+001 2.485434e+001 4.566270e+001 1.547915e+001 3.180686e+001 1.219880e+001 1.970555e+001 1.944203e+000 2.234159e+000 3.314643e+000 1.902029e+000 1.674609e+000 3.632238e+000 2.082753e+000 2.020275e+000 4.570634e+000 1.919441e+000 1.795375e+000 1.863212e+000 8.396974e-001 3.295685e-001 3.344808e-001 3.093329e-001 2.983326e-001 3.407451e-001 5.207230e-001 3.910193e-001 3.646235e-001 7.602103e-001 1.817498e-001 2.574556e-001 2.745172e-001 1.774257e-001
<GCONST> 1.090657e+002
<STATE> 4
<MEAN> 39
 -1.356694e+000 -5.707423e+000 3.599247e+000 8.221608e-001 1.287451e+001 -7.939106e+000 -4.840503e+000 3.533743e+000 -1.318973e+001 -6.394471e+000 7.965297e+000 -2.117651e+000 8.091755e+001 6.252648e-001 8.879410e-002 -9.451895e-001 -1.516489e+000 -1.591503e+000 -9.690974e-001 -1.129578e-002 7.736124e-001 5.354939e-001 7.633457e-002 -4.806756e-001 3.556949e-001 3.430557e-001 -6.939003e-003 2.073632e-001 1.105395e-001 -5.774038e-002 -3.932277e-001 -1.381523e-001 2.232673e-001 3.451490e-001 6.147764e-001 1.021420e-001 -2.903873e-001 -2.528976e-001 -1.835314e-001
<VARIANCE> 39
 6.633714e+000 1.080038e+001 2.244837e+001 3.192438e+001 3.935511e+001 4.298240e+001 1.365172e+001 3.725053e+001 2.955481e+001 2.045073e+001 3.463396e+001 1.743756e+001 1.013562e+001 5.108501e-001 7.707018e-001 7.672451e-001 1.723208e+000 2.388121e+000 2.080761e+000 1.622395e+000 2.592143e+000 4.198010e+000 1.860786e+000 2.518263e+000 1.835095e+000 3.377172e-001 7.728190e-002 1.791484e-001 1.601807e-001 2.855358e-001 3.377566e-001 4.338743e-001 2.860605e-001 3.523915e-001 5.231785e-001 2.919859e-001 5.267150e-001 2.725143e-001 8.628032e-002
<GCONST> 9.834988e+001
<TRANSP> 5
 0.000000e+000 1.000000e+000 0.000000e+000 0.000000e+000 0.000000e+000
 0.000000e+000 2.617406e-001 7.382594e-001 0.000000e+000 0.000000e+000
 0.000000e+000 0.000000e+000 7.131808e-001 2.868192e-001 0.000000e+000
 0.000000e+000 0.000000e+000 0.000000e+000 7.974414e-001 2.025585e-001
 0.000000e+000 0.000000e+000 0.000000e+000 0.000000e+000 0.000000e+000
<ENDHMM>
~h "z"
<BEGINHMM>
<NUMSTATES> 5
<STATE> 2
<MEAN> 39
 -2.193025e+001 -2.777696e+000 1.391225e+001 -9.172133e+000 3.571827e+000 2.818121e+000 1.060402e+000 -1.489580e+000 -2.172271e+000 -4.120072e+000 2.141489e+000 -2.669416e+000 7.692394e+001 -2.930215e+000 -1.417230e-001 9.476792e-003 -2.581657e+000 -1.207298e+000 6.893774e-001 1.522511e-001 1.607870e-001 1.172494e+000 1.287553e-001 3.385206e-001 3.135106e-001 -2.509292e-002 4.307183e-001 -1.385185e-001 -2.473187e-001 4.756956e-001 2.121863e-001 -4.364029e-001 -3.436350e-002 2.925098e-005 -3.502090e-001 6.472956e-002 -1.517822e-001 -1.339431e-001 -8.499250e-002
<VARIANCE> 39
 1.508634e+002 1.342796e+001 2.427433e+001 8.365717e+001 3.665458e+001 6.053593e+001 1.412973e+001 2.214585e+001 3.318211e+001 2.146820e+001 2.432708e+001 1.101573e+001 1.578517e+001 6.210133e+000 1.913414e+000 2.556019e+000 6.902758e+000 3.152871e+000 4.690578e+000 1.715572e+000 2.039928e+000 4.507509e+000 1.304031e+000 2.163018e+000 1.137124e+000 8.492081e-001 8.798010e-001 3.417696e-001 4.401459e-001 9.039727e-001 5.250008e-001 7.838213e-001 2.432149e-001 3.164506e-001 7.192959e-001 3.570825e-001 3.286809e-001 2.609165e-001 1.513462e-001
<GCONST> 1.157968e+002
<STATE> 3
<MEAN> 39
 -2.573526e+001 -6.131462e+000 1.206552e+001 -1.382310e+001 -5.000839e-001 1.009789e+000 7.154688e-001 -7.907797e-001 -1.403767e+000 -3.956466e+000 1.766081e+000 -9.714124e-001 7.386445e+001 1.233948e+000 2.923134e-001 -1.947716e-001 8.898550e-001 4.502233e-001 4.694568e-001 4.743851e-001 -1.020938e-001 1.109643e-002 1.573205e-001 -1.868678e-001 2.308114e-001 -1.086233e+000 5.037946e-001 2.354767e-001 -4.865602e-002 5.258950e-001 2.942821e-001 5.382816e-002 -1.644513e-002 2.409411e-001 -2.117534e-002 9.787755e-002 -1.385658e-001 -1.723685e-001 -2.594928e-001
<VARIANCE> 39
 1.260947e+002 1.289411e+001 2.073214e+001 4.361871e+001 2.080231e+001 3.797123e+001 2.254030e+001 1.830163e+001 2.799982e+001 1.864295e+001 1.876662e+001 1.389149e+001 2.162414e+001 3.097034e+000 1.177896e+000 1.185102e+000 1.676657e+000 2.287777e+000 1.614953e+000 1.715811e+000 1.380660e+000 2.115592e+000 1.983488e+000 1.306576e+000 1.126237e+000 8.073879e-001 3.272176e-001 1.682048e-001 2.297071e-001 3.627130e-001 3.621452e-001 2.652146e-001 2.617493e-001 3.779870e-001 4.336564e-001 3.956239e-001 2.767148e-001 3.343868e-001 9.013560e-002
<GCONST> 1.026335e+002
<STATE> 4
<MEAN> 39
 -1.527953e+001 -8.362484e-001 8.184923e+000 -5.001720e+000 3.419728e+000 2.527310e+000 2.601568e+000 1.475827e+000 -3.324783e+000 -2.761927e+000 5.336913e-001 -2.166426e-001 6.697107e+001 1.239228e+000 8.198552e-001 -7.824120e-001 1.872145e+000 8.593605e-001 1.936859e-001 -1.288303e-002 5.647168e-001 6.364816e-002 5.966427e-001 -5.791595e-002 -3.536748e-001 -1.154904e+000 -1.304899e-001 -2.313180e-001 -2.158352e-002 1.109667e-001 1.485272e-002 -2.235137e-001 -1.498756e-001 -1.685049e-002 -1.476712e-002 9.067033e-002 -7.265528e-002 -1.863399e-001 1.933808e-001
<VARIANCE> 39
 5.985342e+001 3.140429e+001 5.384390e+001 2.930446e+001 5.059612e+001 4.342166e+001 3.464850e+001 2.384651e+001 3.228910e+001 3.285748e+001 1.699571e+001 1.898403e+001 7.931195e+001 5.415246e+000 2.460768e+000 2.564254e+000 3.531109e+000 4.509129e+000 3.319587e+000 2.303473e+000 3.023465e+000 3.427980e+000 3.848600e+000 2.244763e+000 1.940772e+000 2.612851e+000 6.307027e-001 3.602622e-001 4.048017e-001 5.671034e-001 5.878204e-001 3.964766e-001 4.599623e-001 5.911811e-001 5.839841e-001 5.424153e-001 4.663739e-001 3.719313e-001 3.781086e-001
<GCONST> 1.229739e+002
<TRANSP> 5
 0.000000e+000 1.000000e+000 0.000000e+000 0.000000e+000 0.000000e+000
 0.000000e+000 7.348704e-001 2.651296e-001 0.000000e+000 0.000000e+000
 0.000000e+000 0.000000e+000 6.980057e-001 3.019943e-001 0.000000e+000
 0.000000e+000 0.000000e+000 0.000000e+000 6.881483e-001 3.118518e-001
 0.000000e+000 0.000000e+000 0.000000e+000 0.000000e+000 0.000000e+000
<ENDHMM>
~h "aa"
<BEGINHMM>
<NUMSTATES> 5
<STATE> 2
<MEAN> 39
 8.064561e-001 -3.064022e+000 1.243655e-001 -6.922896e+000 -4.368620e+000 -1.675273e+001 2.131322e+000 1.031703e+001 9.221710e+000 2.271902e+000 -1.330527e+000 2.462038e+000 7.941934e+001 7.498218e-001 -1.383589e+000 -1.249468e+000 -6.530948e-001 -5.867474e-001 -1.471843e+000 -1.231263e-001 2.487039e-001 -8.969423e-001 -6.763218e-002 2.286381e-001 -2.321367e-001 1.285410e+000 -2.022740e-001 3.810348e-002 -1.745243e-001 -3.283127e-002 3.012171e-001 6.488140e-001 -5.794006e-002 -1.715128e-001 -2.788442e-001 -1.563085e-001 2.898613e-001 -1.151891e-002 -2.662588e-001
<VARIANCE> 39
 3.391809e+000 1.862658e+001 1.376275e+001 1.167373e+001 1.042872e+001 2.578324e+001 1.416037e+001 1.728172e+001 2.624948e+001 9.458244e+000 1.086509e+001 1.001032e+001 1.861156e+001 5.535634e-001 1.349378e+000 8.805920e-001 1.504070e+000 1.286674e+000 2.515100e+000 1.023430e+000 1.519613e+000 2.222738e+000 1.047293e+000 1.476928e+000 1.082555e+000 8.153223e-001 1.236698e-001 3.959188e-001 2.054025e-001 2.759181e-001 1.651855e-001 3.153943e-001 2.356983e-001 2.119335e-001 3.262677e-001 1.714218e-001 2.155361e-001 2.220069e-001 1.261860e-001
<GCONST> 8.800791e+001
<STATE> 3
<MEAN> 39
 3.384958e+000 -5.009267e+000 -5.140060e+000 -1.032127e+001 -4.886315e+000 -1.437445e+001 3.393242e+000 8.164135e+000 -3.776383e-001 9.359328e-001 1.385489e+000 3.426126e+000 8.118805e+001 7.727692e-002 4.589838e-001 1.541982e-001 -4.603577e-001 8.736199e-002 1.474538e+000 3.543059e-001 -8.792946e-001 -1.608006e+000 -7.332311e-001 2.319043e-001 6.701290e-001 -2.689449e-001 -1.691365e-001 1.509263e-001 3.710133e-001 5.229944e-002 1.268982e-001 3.202187e-001 1.808791e-002 -4.955341e-002 -7.650734e-002 -2.858705e-001 -5.293607e-002 3.526868e-002 -9.498924e-002
<VARIANCE> 39
 5.816327e+000 7.189252e+000 8.334016e+000 1.837198e+001 9.413051e+000 3.667780e+001 1.349149e+001 2.555657e+001 3.017099e+001 1.427259e+001 1.379985e+001 1.903756e+001 8.870809e+000 4.575672e-001 3.535387e-001 1.486534e+000 8.629484e-001 7.311981e-001 1.682862e+000 8.113104e-001 1.052859e+000 1.704972e+000 1.644889e+000 5.572441e-001 7.895909e-001 1.751170e-001 3.942182e-002 8.528513e-002 9.579588e-002 1.457612e-001 1.503848e-001 2.377938e-001 1.618449e-001 2.299333e-001 1.455511e-001 1.979724e-001 1.125527e-001 1.647933e-001 5.068167e-002
<GCONST> 7.578818e+001
<STATE> 4
<MEAN> 39
 1.915125e+000 4.178666e-001 -1.186235e+000 -1.361177e+001 9.466779e-001 4.028495e-001 4.676902e+000 5.282751e+000 -1.191797e+001 -1.142436e+001 3.269259e+000 7.270424e+000 7.722767e+001 -1.106639e+000 1.333499e+000 6.289771e-001 1.440367e+000 2.005588e+000 1.617927e+000 2.793632e-004 -1.890349e-001 -6.012969e-002 -1.467862e+000 -3.927633e-001 -4.108283e-001 -1.142115e+000 -3.006399e-001 -1.942984e-001 -4.262014e-002 7.301660e-001 -2.492436e-002 -6.312160e-001 -2.948681e-001 -2.676967e-001 9.221208e-001 8.878360e-001 -3.332628e-002 -3.334267e-001 1.104632e-001
<VARIANCE> 39
 5.886335e+000 2.096498e+001 8.824412e+000 2.557214e+001 3.412661e+001 6.510810e+001 1.346901e+001 2.312377e+001 4.900510e+001 4.098470e+001 1.722585e+001 1.642166e+001 1.971610e+001 8.325694e-001 1.309079e+000 1.528971e+000 3.531539e+000 1.952116e+000 2.976622e+000 1.400292e+000 2.432008e+000 7.059721e+000 4.885186e+000 1.510899e+000 1.202877e+000 1.037167e+000 1.208000e-001 5.488562e-001 2.699048e-001 3.581586e-001 7.913902e-001 5.833653e-001 3.621620e-001 5.753560e-001 6.554644e-001 6.543231e-001 4.149210e-001 2.128198e-001 5.529787e-001
<GCONST> 1.092654e+002
<TRANSP> 5
 0.000000e+000 1.000000e+000 0.000000e+000 0.000000e+000 0.000000e+000
 0.000000e+000 7.457374e-001 2.542626e-001 0.000000e+000 0.000000e+000
 0.000000e+000 0.000000e+000 8.521678e-001 1.478322e-001 0.000000e+000
 0.000000e+000 0.000000e+000 0.000000e+000 6.732897e-001 3.267103e-001
 0.000000e+000 0.000000e+000 0.000000e+000 0.000000e+000 0.000000e+000
<ENDHMM>
~h "ae"
<BEGINHMM>
<NUMSTATES> 5
<STATE> 2
<MEAN> 39
 -9.112904e+000 -3.087285e-001 2.762993e+000 -1.914316e+000 -4.071481e+000 -6.708039e+000 5.568108e+000 5.912556e-001 -6.983998e-001 -2.006187e+000 -3.776842e+000 5.121253e+000 6.594049e+001 -2.672172e-001 -2.681868e-001 -1.791926e+000 -2.672794e-001 -1.124731e+000 -3.796894e-001 -2.877673e-002 8.313294e-001 5.546142e-001 1.051500e+000 4.082159e-001 -2.483176e-001 -1.532189e+000 -7.455735e-003 -7.908825e-002 -2.687629e-004 2.785615e-001 2.434206e-001 3.045144e-001 9.454463e-002 3.067941e-001 2.776166e-001 1.520076e-001 5.153944e-002 -4.760973e-001 1.488323e-001
<VARIANCE> 39
 2.753455e+001 1.327043e+001 2.778708e+001 1.754484e+001 3.173372e+001 2.988783e+001 3.453486e+001 1.793013e+001 3.279023e+001 2.417428e+001 4.085144e+001 2.084197e+001 6.824052e+001 3.911304e+000 1.764639e+000 1.719891e+000 1.978391e+000 2.930525e+000 4.137464e+000 3.597294e+000 1.811122e+000 3.520690e+000 2.832623e+000 3.535871e+000 2.857684e+000 3.372329e+000 8.005325e-001 4.341983e-001 4.585889e-001 6.687173e-001 7.550007e-001 8.769755e-001 9.516991e-001 3.447373e-001 6.986054e-001 7.414082e-001 8.344759e-001 1.141687e+000 1.145690e+000
<GCONST> 1.237145e+002
<STATE> 3
<MEAN> 39
 -6.439657e+000 -3.441027e+000 -3.235918e+000 -1.772658e+000 -8.096640e+000 -7.781823e+000 9.879623e+000 6.582374e+000 3.842572e+000 2.718444e+000 -2.944440e+000 3.285148e+000 6.688897e+001 2.025995e+000 -1.082166e+000 -7.065899e-001 6.794674e-002 -3.651083e-001 -1.550049e+000 1.434439e+000 1.105923e+000 1.795827e-001 5.340687e-001 -4.481599e-001 3.224800e-001 2.317892e+000 1.443834e-001 -3.056779e-002 1.620649e-001 -1.683646e-002 4.983404e-001 -1.001577e-001 -2.450763e-001 -1.565865e-001 -2.985941e-001 -3.147367e-001 5.711073e-002 1.948208e-001 3.850921e-001
<VARIANCE> 39
 3.627116e+001 2.345018e+001 1.188686e+001 1.671329e+001 3.645371e+001 3.034697e+001 3.812553e+001 3.277880e+001 2.880613e+001 1.492477e+001 2.798727e+001 1.190192e+001 7.574654e+001 2.998679e+000 2.359660e+000 1.339806e+000 1.434568e+000 3.840039e+000 3.176267e+000 3.731550e+000 3.142629e+000 2.889636e+000 1.761497e+000 2.167416e+000 1.506212e+000 4.893241e+000 6.750211e-001 4.899729e-001 2.632883e-001 2.674457e-001 5.583635e-001 6.029025e-001 8.378851e-001 5.802587e-001 5.664756e-001 2.919073e-001 5.478892e-001 2.761159e-001 7.879052e-001
<GCONST> 1.165288e+002
<STATE> 4
<MEAN> 39
 1.333933e+000 -9.384528e+000 -6.373794e+000 -1.382612e+000 -1.092238e-001 -1.337233e+001 7.342675e+000 5.832030e+000 -3.141669e+000 1.251577e+000 2.725141e+000 4.399247e+000 8.174771e+001 2.835601e-002 3.250334e-001 1.616548e-001 3.133224e-001 9.533273e-001 1.835042e-001 -1.399928e-001 -3.846609e-001 -8.420507e-001 -4.118194e-001 5.116060e-001 -2.264739e-001 2.057752e-001 -2.437952e-001 3.544714e-001 2.924541e-001 2.739757e-001 1.198539e-001 4.770751e-001 -2.001471e-002 -1.632879e-001 -1.189197e-002 4.225234e-003 -1.328077e-001 -3.397839e-001 -4.974384e-001
<VARIANCE> 39
 5.955960e+000 1.296627e+001 1.259910e+001 1.929543e+001 2.788555e+001 1.613233e+001 4.247599e+001 2.883092e+001 3.053388e+001 2.520718e+001 3.591951e+001 1.398186e+001 2.130625e+001 6.436112e-001 1.773710e+000 1.267572e+000 1.943040e+000 1.851754e+000 2.129247e+000 1.527264e+000 2.849713e+000 1.563155e+000 1.283051e+000 1.347564e+000 1.396959e+000 1.500305e+000 1.783022e-001 1.583685e-001 1.326689e-001 2.520038e-001 2.270102e-001 3.878062e-001 2.567616e-001 4.189602e-001 2.449787e-001 2.461781e-001 3.807313e-001 2.773669e-001 2.135105e-001
<GCONST> 9.804604e+001
<TRANSP> 5
 0.000000e+000 1.000000e+000 0.000000e+000 0.000000e+000 0.000000e+000
 0.000000e+000 6.846076e-001 3.153924e-001 0.000000e+000 0.000000e+000
 0.000000e+000 0.000000e+000 7.556419e-001 2.443581e-001 0.000000e+000
 0.000000e+000 0.000000e+000 0.000000e+000 8.580566e-001 1.419434e-001
 0.000000e+000 0.000000e+000 0.000000e+000 0.000000e+000 0.000000e+000
<ENDHMM>
~h "ah"
<BEGINHMM>
<NUMSTATES> 5
<STATE> 2
<MEAN> 39
 -5.738310e+000 1.342141e+000 2.554962e+000 -2.270595e+000 -2.752623e+000 -1.183077e+001 3.545048e+000 6.858725e+000 -1.155865e+000 -1.715815e+000 -1.654182e+000 -1.944788e-001 6.961342e+001 6.078957e-001 -1.259923e+000 -3.596312e-001 -8.325359e-001 -1.095004e+000 -1.611842e+000 5.376361e-001 1.836652e-001 3.457581e-002 6.478429e-001 -5.430297e-001 4.842437e-001 1.609190e+000 3.235923e-001 -2.475022e-001 1.344806e-001 1.663163e-001 -8.812216e-002 -2.790331e-001 8.722752e-002 1.936461e-001 -2.090224e-001 -3.258139e-005 -1.587800e-001 -2.798287e-001 4.622237e-001
<VARIANCE> 39
 5.083823e+001 4.457905e+001 2.743562e+001 5.274112e+001 3.121064e+001 1.148718e+002 4.792074e+001 4.779415e+001 5.125689e+001 3.637289e+001 2.856186e+001 2.303267e+001 1.225766e+002 4.612332e+000 1.671349e+000 2.415040e+000 4.222300e+000 5.522803e+000 8.031032e+000 5.285221e+000 3.953152e+000 8.506690e+000 4.587344e+000 3.578063e+000 2.275926e+000 6.426008e+000 6.694162e-001 2.522823e-001 3.032750e-001 1.011701e+000 8.383560e-001 1.431997e+000 8.225469e-001 5.593346e-001 1.238445e+000 8.392370e-001 5.179454e-001 5.790378e-001 1.214867e+000
<GCONST> 1.357229e+002
<STATE> 3
<MEAN> 39
 -9.631132e-001 -5.010307e+000 2.892371e+000 -3.353869e+000 -8.205693e+000 -2.281078e+001 5.238957e+000 9.257353e+000 -4.367082e-001 9.881697e-001 -4.567902e+000 1.449042e+000 7.937751e+001 7.985119e-001 -1.174670e+000 -7.432894e-001 -6.116773e-001 -4.480665e-001 -1.097953e+000 7.744936e-001 9.604644e-001 3.449103e-001 4.647877e-001 -3.810887e-001 2.426941e-001 1.506862e+000 -2.827287e-001 2.654796e-001 9.854606e-002 1.835344e-001 5.906083e-001 7.966343e-001 -1.797632e-001 -2.349806e-001 -2.069605e-001 -4.153468e-001 1.110163e-001 -1.975247e-001 -4.470426e-001
<VARIANCE> 39
 6.959112e+000 1.191008e+001 2.253278e+001 1.589045e+001 4.944868e+001 7.021696e+001 3.253612e+001 5.168618e+001 3.555717e+001 1.585030e+001 3.331195e+001 2.199304e+001 3.995919e+001 1.652356e+000 1.207329e+000 1.715978e+000 1.894934e+000 3.398554e+000 5.794428e+000 3.088033e+000 2.113210e+000 2.292812e+000 1.831414e+000 1.832663e+000 1.157444e+000 5.324820e+000 2.643315e-001 1.278982e-001 2.669224e-001 4.346459e-001 5.057983e-001 5.702040e-001 5.009736e-001 3.441092e-001 5.272452e-001 3.852835e-001 3.560638e-001 2.850643e-001 6.114127e-001
<GCONST> 1.118432e+002
<STATE> 4
<MEAN> 39
 5.584837e-001 -7.057345e+000 4.913734e-002 -3.842712e+000 -3.068188e+000 -2.123532e+001 6.552728e+000 1.135152e+001 -4.032132e+000 -1.545920e+000 -3.024750e+000 8.955383e-001 8.316126e+001 -9.460010e-002 3.020693e-001 2.233916e-002 4.877312e-001 7.665889e-001 8.740586e-001 1.958729e-001 -5.780107e-001 -8.958026e-001 -5.495511e-001 4.681157e-001 -3.184163e-001 -2.396463e-001 -8.809365e-002 2.099657e-001 1.366453e-001 2.067067e-001 8.027292e-002 1.950070e-001 1.919177e-002 -1.258491e-001 -2.331596e-002 -8.640940e-002 5.100852e-002 -1.101540e-001 -2.532048e-001
<VARIANCE> 39
 3.437205e+000 5.789412e+000 1.060149e+001 7.770020e+000 1.475299e+001 4.425227e+001 1.989432e+001 7.000552e+001 3.528495e+001 1.213052e+001 2.633588e+001 2.019237e+001 1.028136e+001 2.009562e-001 4.988454e-001 4.625034e-001 7.800813e-001 1.061903e+000 1.079055e+000 1.017691e+000 1.623587e+000 1.215347e+000 7.766559e-001 9.580760e-001 9.760107e-001 3.524953e-001 4.356544e-002 6.989232e-002 6.871312e-002 1.093666e-001 1.504639e-001 1.998525e-001 1.759636e-001 3.087638e-001 2.851903e-001 1.665372e-001 1.464609e-001 1.381145e-001 9.558863e-002
<GCONST> 7.721892e+001
<TRANSP> 5
 0.000000e+000 1.000000e+000 0.000000e+000 0.000000e+000 0.000000e+000
 0.000000e+000 5.050113e-001 4.949887e-001 0.000000e+000 0.000000e+000
 0.000000e+000 0.000000e+000 6.240703e-001 3.759296e-001 0.000000e+000
 0.000000e+000 0.000000e+000 0.000000e+000 8.882783e-001 1.117217e-001
 0.000000e+000 0.000000e+000 0.000000e+000 0.000000e+000 0.000000e+000
<ENDHMM>
~h "ao"
<BEGINHMM>
<NUMSTATES> 5
<STATE> 2
<MEAN> 39
 -6.612362e-001 -2.060853e+000 3.727481e+000 -3.146861e+000 -5.241310e+000 -2.207129e+001 -3.734981e+000 9.954028e+000 1.939112e+000 -1.271654e+000 -3.608352e-001 -1.958843e+000 8.082109e+001 1.977769e+000 -4.253446e-001 -5.352020e-001 4.634403e-002 -1.641243e+000 -4.125034e+000 -5.658708e-001 1.495147e+000 1.774614e+000 1.147992e+000 2.248702e-001 -5.533172e-001 1.428570e+000 -1.015196e+000 -1.789821e-001 -1.072761e-001 -1.450202e-001 3.421706e-001 7.822381e-001 3.237839e-001 -5.320897e-001 1.215110e-001 7.026410e-003 2.297137e-001 1.176993e-001 -2.277599e-001
<VARIANCE> 39
 2.710720e+001 1.417159e+001 3.196251e+001 1.295209e+001 2.917246e+001 1.003396e+002 4.499364e+001 2.588016e+001 3.456769e+001 3.376358e+001 1.520308e+001 1.446244e+001 4.158032e+001 6.823390e+000 1.212075e+000 2.037283e+000 2.093469e+000 2.489589e+000 7.253177e+000 3.404382e+000 2.703998e+000 3.018835e+000 2.872751e+000 1.627080e+000 1.209560e+000 3.123838e+000 1.050346e+000 3.080338e-001 4.117264e-001 4.739551e-001 3.835435e-001 1.560986e+000 8.141128e-001 3.896258e-001 3.800245e-001 5.683051e-001 2.630156e-001 1.658437e-001 3.874790e-001
<GCONST> 1.174949e+002
<STATE> 3
<MEAN> 39
 1.490915e+000 -3.812353e+000 2.436969e+000 -4.272485e+000 -1.017148e+001 -2.870970e+001 -4.790675e+000 1.152949e+001 6.187231e+000 2.885563e+000 2.838299e+000 -3.273307e+000 8.232843e+001 8.530767e-002 4.296291e-002 -2.289553e-002 -1.198355e-001 -2.677180e-001 2.117549e-002 4.423069e-002 4.619299e-002 8.506040e-002 3.069374e-001 8.023170e-002 4.362023e-002 -1.774014e-001 -1.122042e-002 5.709588e-002 5.474874e-002 8.616531e-003 1.040528e-001 2.511196e-001 3.732751e-002 -6.750026e-002 -2.480026e-001 -9.184920e-002 -7.501778e-002 2.511090e-002 -6.489987e-002
<VARIANCE> 39
 3.764468e+000 1.080791e+001 1.692088e+001 7.597472e+000 2.844315e+001 2.919966e+001 2.559499e+001 2.411801e+001 1.034295e+001 1.252510e+001 2.075918e+001 1.453102e+001 6.212986e+000 9.303957e-002 1.363262e-001 5.476046e-001 4.070221e-001 7.197983e-001 1.755591e+000 6.082301e-001 6.566374e-001 1.753253e+000 6.204021e-001 7.106147e-001 5.881832e-001 1.182129e-001 1.703976e-002 2.467280e-002 6.408415e-002 8.554506e-002 9.909518e-002 1.879182e-001 1.107585e-001 1.141967e-001 1.981752e-001 1.126938e-001 7.462129e-002 9.992719e-002 1.718635e-002
<GCONST> 6.221282e+001
<STATE> 4
<MEAN> 39
 1.600954e+000 1.416439e+000 2.574699e+000 -6.753806e+000 -1.138005e+001 -2.028425e+001 -2.223103e-001 8.604656e+000 1.019982e+000 3.857618e+000 1.493507e+000 -6.593255e-001 7.689207e+001 -3.398516e-001 7.684662e-001 3.309732e-001 6.281745e-002 3.267855e-001 1.686952e+000 9.631520e-001 -2.678600e-001 -4.976670e-001 -5.714483e-001 -6.092452e-001 2.053937e-001 -7.785631e-001 -2.154967e-001 7.516435e-002 4.746062e-002 1.414412e-001 9.214107e-002 2.340469e-001 6.729612e-002 8.888322e-002 1.424961e-001 -1.331606e-001 9.624575e-003 8.231267e-002 -1.469668e-001
<VARIANCE> 39
 9.496353e+000 3.150107e+001 3.939674e+001 2.507585e+001 2.545395e+001 1.122058e+002 3.326874e+001 3.240991e+001 3.101053e+001 1.856044e+001 3.116994e+001 2.345706e+001 4.128627e+001 5.338376e-001 8.296773e-001 1.177011e+000 1.294705e+000 1.464081e+000 2.950788e+000 1.719345e+000 1.263663e+000 2.061488e+000 1.869474e+000 1.053409e+000 1.026167e+000 6.126136e-001 1.038317e-001 1.336249e-001 1.813710e-001 2.117089e-001 2.254736e-001 4.718553e-001 2.510431e-001 2.442261e-001 3.194731e-001 2.303863e-001 2.791060e-001 1.546366e-001 1.263578e-001
<GCONST> 9.827715e+001
<TRANSP> 5
 0.000000e+000 1.000000e+000 0.000000e+000 0.000000e+000 0.000000e+000
 0.000000e+000 6.367295e-001 3.632704e-001 0.000000e+000 0.000000e+000
 0.000000e+000 0.000000e+000 9.153615e-001 8.463853e-002 0.000000e+000
 0.000000e+000 0.000000e+000 0.000000e+000 8.386295e-001 1.613705e-001
 0.000000e+000 0.000000e+000 0.000000e+000 0.000000e+000 0.000000e+000
<ENDHMM>
~h "aw"
<BEGINHMM>
<NUMSTATES> 5
<STATE> 2
<MEAN> 39
 -2.267499e+001 -2.575064e+000 5.471829e+000 -8.744637e+000 6.612528e+000 -6.742223e-001 1.800455e+000 8.255298e-001 2.090060e+000 -2.548634e+000 1.075727e+000 5.666329e-001 7.094865e+001 4.608530e+000 7.193606e-001 5.987876e-001 1.063320e+000 -2.797393e+000 -2.611075e+000 -4.649550e-001 5.745619e-001 -4.842254e-001 -2.122874e+000 -5.045958e-001 -7.029417e-001 1.592595e+000 1.185622e+000 -9.443453e-002 1.659484e-002 1.909923e-001 -1.065492e+000 -1.244830e+000 6.544117e-002 7.891510e-001 -1.068047e-001 -4.398036e-001 7.722237e-002 -2.564193e-001 9.410565e-001
<VARIANCE> 39
 4.633277e+001 1.231506e+001 9.975652e+000 1.029346e+001 2.177990e+001 2.172292e+001 2.047242e+001 1.949854e+001 1.353648e+001 1.936160e+001 1.152358e+001 8.878161e+000 2.051942e+001 5.089562e+000 1.648250e+000 1.064172e+000 1.778662e+000 3.986022e+000 4.058140e+000 1.728730e+000 3.177660e+000 1.711903e+000 3.286451e+000 1.689432e+000 1.435479e+000 2.188715e+000 5.035492e-001 3.577539e-001 2.347073e-001 2.929303e-001 4.355281e-001 5.524954e-001 3.435160e-001 4.939250e-001 2.790400e-001 5.501026e-001 2.895725e-001 2.408044e-001 2.343061e-001
<GCONST> 1.050931e+002
<STATE> 3
<MEAN> 39
 -2.906296e+000 -1.892011e+000 6.019018e+000 -5.524167e+000 -6.638648e+000 -1.685281e+001 9.034957e-001 9.298149e+000 4.600123e-001 -1.102760e+001 1.093104e+000 -3.162542e+000 8.141511e+001 3.621684e+000 -1.585617e+000 -8.731871e-001 3.064661e-002 -3.440847e+000 -4.964515e+000 2.286592e-001 3.007823e+000 5.714289e-001 1.241058e-003 7.379079e-001 -9.419569e-001 2.544631e+000 -1.312023e+000 -4.097428e-001 -1.317330e-001 -3.061030e-001 3.924393e-001 5.262389e-001 1.461845e-001 -1.748793e-001 6.305985e-001 1.211917e+000 9.200938e-003 2.675405e-001 -6.786826e-001
<VARIANCE> 39
 1.211783e+001 1.929772e+001 1.049113e+001 9.163082e+000 2.688204e+001 4.055231e+001 1.640412e+001 2.741801e+001 1.665145e+001 1.334467e+001 1.163286e+001 7.947968e+000 1.661434e+001 5.776308e+000 1.216165e+000 9.890711e-001 1.232843e+000 2.849797e+000 3.249048e+000 1.397781e+000 1.829634e+000 2.011031e+000 4.948007e+000 1.305430e+000 1.089703e+000 1.878662e+000 3.099000e-001 4.210928e-001 2.932079e-001 2.539741e-001 4.659531e-001 7.761591e-001 2.875909e-001 6.204942e-001 2.852167e-001 3.719012e-001 3.580039e-001 2.094451e-001 3.331467e-001
<GCONST> 1.028264e+002
<STATE> 4
<MEAN> 39
 -1.026485e+000 -4.004585e+000 8.570457e+000 -3.597850e+000 -9.294202e+000 -2.282396e+001 2.277947e+000 1.464592e+001 -9.729495e-002 -5.913099e+000 -2.827405e+000 -5.024082e+000 8.017504e+001 -3.578923e-003 1.291552e-001 1.748884e-001 3.063574e-001 4.510183e-001 4.575578e-001 1.374132e-001 -2.474140e-001 -6.776596e-001 -3.522822e-002 -3.511590e-001 7.581756e-002 -2.231200e-001 -7.388426e-002 1.258668e-001 2.680276e-003 4.311135e-002 1.782508e-001 2.764283e-001 5.058317e-002 -1.949286e-001 -7.937315e-002 -5.342193e-002 2.745148e-002 3.596054e-002 -9.012391e-002
<VARIANCE> 39
 5.092046e+000 1.048064e+001 1.199738e+001 1.290484e+001 6.149097e+001 5.559941e+001 1.471309e+001 1.434526e+001 5.793057e+001 3.359069e+001 2.699801e+001 1.518532e+001 1.901397e+001 3.421343e-001 9.515606e-001 8.547961e-001 8.551100e-001 3.201475e+000 4.182337e+000 1.353203e+000 2.153910e+000 2.732762e+000 2.715073e+000 1.236465e+000 1.716504e+000 1.421930e+000 8.913637e-002 2.049562e-001 1.575451e-001 1.794385e-001 3.713100e-001 6.096939e-001 2.750061e-001 3.400163e-001 4.572133e-001 4.249857e-001 2.239545e-001 3.097812e-001 3.398975e-001
<GCONST> 9.924863e+001
<TRANSP> 5
 0.000000e+000 1.000000e+000 0.000000e+000 0.000000e+000 0.000000e+000
 0.000000e+000 6.233844e-001 3.766156e-001 0.000000e+000 0.000000e+000
 0.000000e+000 0.000000e+000 6.732727e-001 3.267274e-001 0.000000e+000
 0.000000e+000 0.000000e+000 0.000000e+000 9.465990e-001 5.340101e-002
 0.000000e+000 0.000000e+000 0.000000e+000 0.000000e+000 0.000000e+000
<ENDHMM>
~h "ax"
<BEGINHMM>
<NUMSTATES> 5
<STATE> 2
<MEAN> 39
 -9.819887e+000 -3.932942e+000 4.061377e+000 1.819434e+000 4.962399e+000 -3.281785e+000 1.468760e+000 3.802152e+000 -1.083524e+000 -4.270103e+000 1.103810e+000 7.386907e-001 7.503638e+001 6.631497e-001 -1.902952e-001 1.472113e-001 2.086175e-001 -3.206722e-001 -6.778582e-001 7.630229e-002 8.162786e-002 -2.773476e-001 -1.729548e-001 -1.982683e-001 -6.539962e-002 8.618472e-001 -5.386030e-002 -4.473882e-002 -1.086570e-001 -3.719323e-002 -1.620420e-002 4.736083e-002 -4.908957e-002 -3.766414e-002 4.488166e-002 6.250741e-002 2.442832e-002 1.312440e-002 -5.465362e-002
<VARIANCE> 39
 9.566663e+001 4.967825e+001 3.100132e+001 4.771004e+001 7.706306e+001 7.836350e+001 3.488129e+001 5.349593e+001 6.988835e+001 5.506919e+001 2.455997e+001 2.374386e+001 9.050241e+001 5.838519e+000 3.475460e+000 3.215616e+000 2.796588e+000 3.879498e+000 4.659410e+000 2.316535e+000 3.316854e+000 4.917308e+000 3.715170e+000 2.420771e+000 2.017793e+000 4.644787e+000 7.840956e-001 6.279558e-001 6.344718e-001 5.038895e-001 6.358651e-001 6.978534e-001 4.546704e-001 5.847084e-001 7.867711e-001 6.966016e-001 4.575588e-001 3.582271e-001 6.000547e-001
<GCONST> 1.320703e+002
<STATE> 3
<MEAN> 39
 -1.013601e+000 -2.230716e+000 3.896939e+000 -2.915378e-001 1.051323e+000 -8.793775e+000 4.066092e+000 5.448705e+000 -8.355147e+000 -5.482594e+000 -4.706062e-001 1.511844e+000 7.791894e+001 -2.798958e-001 2.457453e-001 -1.838396e-001 2.368057e-001 3.882048e-002 4.438956e-001 2.776850e-001 -2.461000e-001 2.582155e-001 4.547493e-001 -1.370248e-001 1.054378e-001 -6.278238e-001 -2.663513e-001 1.928676e-001 5.668181e-002 5.479197e-002 1.538761e-001 4.599728e-001 6.430460e-002 -1.828425e-001 3.111858e-001 9.188570e-002 5.251635e-003 -1.119553e-001 -3.604495e-001
<VARIANCE> 39
 1.405020e+001 2.872637e+001 1.124377e+001 4.081304e+001 4.959349e+001 6.645922e+001 3.705201e+001 4.840909e+001 4.146542e+001 6.688122e+001 2.556591e+001 2.476903e+001 6.258643e+001 1.389527e+000 1.260759e+000 1.204348e+000 2.317336e+000 1.836520e+000 2.951919e+000 2.315040e+000 2.223076e+000 2.955682e+000 2.652965e+000 1.432380e+000 1.439627e+000 1.901404e+000 1.947241e-001 2.310447e-001 2.012639e-001 3.561639e-001 2.957895e-001 6.413339e-001 3.502878e-001 3.631659e-001 4.584410e-001 3.789994e-001 3.133485e-001 2.539543e-001 2.538969e-001
<GCONST> 1.111425e+002
<STATE> 4
<MEAN> 39
 -9.066226e-001 4.477830e-001 3.750373e-001 -5.692142e+000 -4.024571e+000 -5.211454e+000 5.718230e+000 4.633263e+000 -3.664450e+000 -2.016289e+000 -2.073925e+000 3.042337e+000 7.214980e+001 -4.346411e-001 3.469494e-001 1.698023e-002 3.583850e-001 3.541036e-001 5.667389e-001 2.891923e-001 -8.102214e-002 1.478587e-001 1.918330e-001 5.319508e-002 -1.208249e-001 -6.919127e-001 -6.776135e-002 3.108191e-002 2.912067e-002 5.027780e-002 1.007932e-001 4.723160e-002 -4.553259e-002 3.561241e-002 2.831683e-002 -7.400173e-003 2.362475e-002 -6.066845e-002 -7.182355e-002
<VARIANCE> 39
 4.107251e+001 4.283143e+001 2.044785e+001 5.220809e+001 5.191434e+001 1.421146e+002 2.524158e+001 5.097659e+001 8.740447e+001 3.173610e+001 2.152746e+001 1.834347e+001 8.120772e+001 1.103114e+000 1.150653e+000 8.144113e-001 1.214929e+000 1.218352e+000 1.588225e+000 1.396618e+000 1.729273e+000 2.661854e+000 1.759979e+000 1.217380e+000 1.008016e+000 7.454984e-001 8.995657e-002 1.551264e-001 1.293430e-001 2.654119e-001 1.976316e-001 2.837977e-001 2.331037e-001 2.192768e-001 3.117932e-001 2.400573e-001 2.263253e-001 1.883736e-001 1.092550e-001
<GCONST> 1.022580e+002
<TRANSP> 5
 0.000000e+000 1.000000e+000 0.000000e+000 0.000000e+000 0.000000e+000
 0.000000e+000 7.950556e-001 2.049443e-001 0.000000e+000 0.000000e+000
 0.000000e+000 0.000000e+000 6.198791e-001 3.801209e-001 0.000000e+000
 0.000000e+000 0.000000e+000 0.000000e+000 8.066460e-001 1.933540e-001
 0.000000e+000 0.000000e+000 0.000000e+000 0.000000e+000 0.000000e+000
<ENDHMM>
~h "ay"
<BEGINHMM>
<NUMSTATES> 5
<STATE> 2
<MEAN> 39
 -4.926466e+000 -1.467158e+000 -4.587006e-001 -1.024388e+000 -2.987364e+000 -9.063844e+000 5.408751e+000 8.221243e+000 3.835387e+000 -2.268432e-001 1.569564e-001 -3.167359e-001 7.242945e+001 2.210261e+000 -1.558224e+000 -1.666176e+000 -1.116857e+000 -2.453467e+000 -3.325005e+000 1.060948e+000 1.352648e+000 3.866996e-001 -3.343959e-001 -4.808688e-001 8.823582e-001 2.773458e+000 1.461509e-001 -4.327560e-001 -2.484573e-001 1.975266e-001 2.231571e-001 1.475363e-001 1.764361e-001 -2.833422e-002 1.034877e-002 1.714243e-001 -2.341081e-001 -7.295310e-003 4.126566e-002
<VARIANCE> 39
 5.658440e+001 1.944020e+001 2.481713e+001 2.721304e+001 5.858591e+001 1.123092e+002 3.142367e+001 3.356867e+001 5.826502e+001 2.979272e+001 4.759604e+001 1.370265e+001 9.915557e+001 4.003243e+000 2.312571e+000 2.242244e+000 6.311400e+000 2.982975e+000 4.802447e+000 2.625502e+000 3.728116e+000 4.398814e+000 2.419362e+000 4.309376e+000 3.384717e+000 2.755683e+000 9.327268e-001 3.382232e-001 3.768300e-001 7.277274e-001 7.410658e-001 1.606683e+000 5.653310e-001 5.648367e-001 5.806840e-001 6.101252e-001 7.156062e-001 5.210477e-001 5.941232e-001
<GCONST> 1.294024e+002
<STATE> 3
<MEAN> 39
 2.613127e+000 -9.478122e+000 -5.806101e+000 -3.243530e+000 -7.612555e+000 -1.820694e+001 8.766597e+000 1.313787e+001 5.969305e+000 -5.974290e-001 -3.149641e+000 8.287920e-001 8.206482e+001 4.739788e-001 -1.197188e+000 -1.022822e+000 -4.964611e-001 1.179680e-001 2.317104e-001 4.592204e-001 -1.708871e-002 2.770181e-001 1.033204e-002 -4.270376e-001 2.529582e-001 8.073941e-001 -2.856798e-001 3.595434e-001 1.831077e-001 1.827662e-001 5.002151e-001 6.074581e-001 -2.737177e-001 -4.543236e-001 -2.999876e-001 5.661655e-002 2.560404e-001 -1.071812e-001 -3.963344e-001
<VARIANCE> 39
 3.283144e+000 8.868136e+000 1.352375e+001 1.006256e+001 3.893861e+001 4.518210e+001 2.963163e+001 4.285118e+001 4.574192e+001 1.308240e+001 3.183207e+001 1.718661e+001 1.079087e+001 6.020758e-001 1.058955e+000 6.137374e-001 8.838910e-001 1.512618e+000 2.613012e+000 1.479991e+000 2.413516e+000 1.484456e+000 1.380748e+000 1.343256e+000 7.987299e-001 1.501605e+000 1.782642e-001 1.405366e-001 1.344291e-001 2.885714e-001 2.315855e-001 5.598567e-001 2.473191e-001 3.314671e-001 3.222547e-001 2.321590e-001 3.363049e-001 2.207373e-001 1.836891e-001
<GCONST> 9.407066e+001
<STATE> 4
<MEAN> 39
 1.986665e+000 -1.054124e+001 -6.840126e+000 -1.927534e+000 7.012940e-001 -1.330236e+001 3.644357e+000 2.435776e+000 -2.983594e+000 1.210001e+000 3.244867e+000 3.217820e+000 8.303896e+001 -2.415839e-001 2.897463e-001 5.678402e-001 5.490375e-001 1.065293e+000 3.311657e-001 -8.279841e-001 -1.219228e+000 -1.314379e+000 7.132054e-002 6.429383e-001 6.511699e-002 -1.947846e-001 -4.884259e-002 1.215661e-001 1.798037e-001 6.623292e-002 -1.851075e-002 -3.142211e-003 8.340314e-003 5.749768e-002 3.325676e-003 -7.341494e-002 -1.181409e-001 -1.194091e-001 -8.314472e-002
<VARIANCE> 39
 4.089173e+000 8.649496e+000 2.032641e+001 2.615039e+001 4.356317e+001 2.125794e+001 3.684984e+001 8.742501e+001 6.630379e+001 1.683830e+001 3.860543e+001 1.929478e+001 9.124361e+000 2.442669e-001 4.064170e-001 1.230080e+000 1.220262e+000 1.068817e+000 1.354873e+000 1.461163e+000 1.882668e+000 1.778646e+000 1.109728e+000 2.609410e+000 1.284002e+000 2.392657e-001 3.501284e-002 5.351462e-002 1.383204e-001 1.596068e-001 1.380605e-001 2.387674e-001 2.299153e-001 2.670086e-001 2.770609e-001 1.777858e-001 3.951168e-001 2.159507e-001 2.238546e-002
<GCONST> 8.663960e+001
<TRANSP> 5
 0.000000e+000 1.000000e+000 0.000000e+000 0.000000e+000 0.000000e+000
 0.000000e+000 6.710063e-001 3.289937e-001 0.000000e+000 0.000000e+000
 0.000000e+000 0.000000e+000 7.870499e-001 2.129501e-001 0.000000e+000
 0.000000e+000 0.000000e+000 0.000000e+000 9.187972e-001 8.120278e-002
 0.000000e+000 0.000000e+000 0.000000e+000 0.000000e+000 0.000000e+000
<ENDHMM>
~h "ch"
<BEGINHMM>
<NUMSTATES> 5
<STATE> 2
<MEAN> 39
 6.957650e-004 -5.942072e+000 -6.555824e+000 -8.661627e+000 5.345674e-001 -1.413904e+001 2.249247e+000 1.344996e+001 3.047264e+000 6.750330e-001 -3.557564e+000 7.104700e-001 7.910851e+001 2.285289e-002 5.181779e-001 2.797020e-002 -2.965299e-001 6.743377e-001 1.026078e+000 1.204505e-001 -9.156436e-001 -9.210428e-001 8.746808e-002 1.344904e-001 4.060262e-001 -3.687561e-001 -8.900020e-003 1.272587e-001 4.332604e-002 1.076720e-001 2.123724e-002 1.015346e-001 1.282888e-002 -4.359180e-002 -7.511427e-002 6.129233e-003 -1.445982e-002 7.885069e-002 -1.369874e-001
<VARIANCE> 39
 5.761395e+001 2.370880e+001 2.664708e+001 3.111154e+001 2.382244e+001 9.491828e+001 1.278278e+001 8.188543e+001 4.367461e+001 4.206091e+001 2.415119e+001 1.739218e+001 7.204990e+001 4.309502e-001 8.243697e-001 9.073008e-001 9.820559e-001 1.982265e+000 2.524632e+000 1.333878e+000 1.528654e+000 2.610220e+000 1.962157e+000 9.237818e-001 1.292702e+000 7.960306e-001 7.596616e-002 8.623362e-002 1.161039e-001 1.804156e-001 2.400401e-001 2.924090e-001 2.340646e-001 1.943014e-001 4.820023e-001 4.144810e-001 1.935005e-001 1.675278e-001 7.603163e-002
<GCONST> 9.862588e+001
<STATE> 3
<MEAN> 39
 -1.028602e+001 4.184636e-002 -2.359167e+000 -3.603806e+000 4.352771e+000 1.182454e+000 3.037351e+000 3.365634e+000 -6.072934e-001 -3.592849e+000 -1.312325e+000 3.378356e+000 6.871239e+001 -1.425532e+000 -1.052665e+000 -2.221998e-001 1.974635e-001 -8.774616e-002 2.136058e-001 -4.833730e-001 -9.795362e-001 9.567887e-001 -1.872571e-001 -1.901707e-001 3.376525e-001 4.138398e-001 -2.641776e-001 -5.476116e-001 2.239161e-001 -9.197193e-002 -8.720426e-002 -2.370629e-001 -2.109359e-001 -1.377406e-001 1.405817e-001 7.988777e-002 8.718291e-002 3.159031e-002 4.628783e-001
<VARIANCE> 39
 8.069824e+001 3.828488e+001 4.317438e+001 7.144562e+001 2.201289e+001 3.849815e+001 2.513309e+001 2.884078e+001 6.911902e+001 2.868118e+001 2.482010e+001 2.468443e+001 6.091637e+001 4.192159e+000 5.412558e+000 4.380201e+000 5.619896e+000 3.252218e+000 3.820096e+000 3.006664e+000 4.202225e+000 5.252213e+000 3.699438e+000 2.415831e+000 1.944902e+000 8.130506e+000 4.583630e-001 5.565719e-001 1.051937e+000 1.199304e+000 7.921786e-001 6.704509e-001 6.930882e-001 6.929677e-001 1.262070e+000 7.419327e-001 5.014017e-001 4.008180e-001 9.354067e-001
<GCONST> 1.329490e+002
<STATE> 4
<MEAN> 39
 -2.021717e+001 -1.400527e+001 1.913531e+000 -4.007660e+000 5.546045e+000 2.226977e-001 -2.583627e+000 -5.502535e+000 -1.459951e-001 -3.703300e+000 3.495727e-001 5.615755e+000 7.740344e+001 2.767183e-001 -1.733514e-002 8.423492e-001 4.864246e-001 5.309904e-001 -1.101383e-002 -8.923291e-002 1.010757e-002 -3.633732e-001 2.469098e-001 2.274101e-001 6.468371e-003 9.328683e-003 6.793540e-001 7.211550e-001 -2.676576e-001 1.800239e-001 -3.653061e-002 -1.216351e-002 2.322907e-001 3.432967e-001 -1.219954e-001 2.915868e-002 -5.691491e-003 -1.465502e-001 -5.259473e-001
<VARIANCE> 39
 1.765771e+001 2.237636e+001 1.883473e+001 4.549411e+001 1.053074e+001 1.889233e+001 2.078465e+001 2.932179e+001 3.691716e+001 1.335911e+001 1.808736e+001 1.354912e+001 5.730602e+001 4.878270e+000 5.036000e+000 2.376928e+000 1.728328e+000 1.102456e+000 1.673802e+000 2.632315e+000 2.057836e+000 1.823265e+000 1.597566e+000 1.725825e+000 7.953801e-001 3.719790e+000 5.832860e-001 3.685356e-001 3.301146e-001 3.980556e-001 2.262863e-001 2.671087e-001 4.581846e-001 2.896348e-001 4.589874e-001 3.841272e-001 3.908833e-001 1.688704e-001 4.744707e-001
<GCONST> 1.078907e+002
<TRANSP> 5
 0.000000e+000 1.000000e+000 0.000000e+000 0.000000e+000 0.000000e+000
 0.000000e+000 7.537013e-001 2.462987e-001 0.000000e+000 0.000000e+000
 0.000000e+000 0.000000e+000 8.168759e-001 1.831241e-001 0.000000e+000
 0.000000e+000 0.000000e+000 0.000000e+000 8.202248e-001 1.797753e-001
 0.000000e+000 0.000000e+000 0.000000e+000 0.000000e+000 0.000000e+000
<ENDHMM>
~h "dh"
<BEGINHMM>
<NUMSTATES> 5
<STATE> 2
<MEAN> 39
 -1.430280e+001 -3.563492e+000 -5.201560e+000 1.378973e+000 5.811148e-001 1.690490e-001 -5.276599e-001 2.865264e+000 4.358025e-001 -1.380566e+000 2.340992e-001 3.585093e+000 5.887521e+001 -2.316422e-002 1.051923e-001 3.556392e-002 -2.151692e-002 -9.518253e-003 -8.197706e-004 3.831360e-003 1.199626e-003 -8.124797e-003 -3.237136e-003 1.609697e-002 3.263514e-002 -5.577181e-002 -1.849891e-002 1.783776e-002 2.903512e-002 -8.762586e-003 1.136967e-002 1.874494e-002 1.588246e-002 1.284634e-002 1.245273e-002 2.654006e-002 2.569631e-003 -2.837342e-002 -7.341557e-003
<VARIANCE> 39
 2.151209e+000 1.109421e+001 3.895126e+000 4.632742e+000 8.245255e+000 7.887920e+000 8.865011e+000 7.202610e+000 9.292243e+000 1.064653e+001 7.158995e+000 7.082470e+000 1.181565e+001 9.335838e-002 2.837330e-001 3.088215e-001 4.306974e-001 5.584694e-001 7.005355e-001 6.941998e-001 6.919087e-001 8.038585e-001 7.763828e-001 5.695218e-001 7.221065e-001 8.612837e-002 1.465252e-002 3.426241e-002 5.853992e-002 8.542572e-002 1.222932e-001 1.432191e-001 1.392441e-001 1.347399e-001 1.594468e-001 1.589359e-001 1.206960e-001 1.399773e-001 8.752221e-003
<GCONST> 5.252170e+001
<STATE> 3
<MEAN> 39
 -1.616348e+001 1.572713e+000 -3.772242e+000 2.642064e-001 3.573317e-001 1.763858e+000 2.338674e+000 4.325040e+000 3.074743e+000 2.624487e+000 1.796264e+000 1.945862e+000 5.375256e+001 -1.385521e-001 5.390003e-002 1.871423e-001 -2.026745e-002 4.519217e-002 2.519301e-001 3.355135e-001 1.440809e-002 8.173934e-002 4.959566e-001 2.241290e-001 -2.452159e-001 -4.557765e-002 2.775577e-003 -4.749153e-002 1.029615e-001 -4.785670e-002 4.558699e-003 -2.927266e-002 -4.795984e-002 -8.348276e-002 -8.969052e-002 -6.051100e-002 -3.118054e-002 -5.294621e-002 9.576160e-002
<VARIANCE> 39
 1.336070e+000 3.272180e+000 1.962303e+000 4.641808e+000 5.513475e+000 5.523856e+000 6.892694e+000 6.480214e+000 8.952536e+000 9.439670e+000 7.223198e+000 7.137211e+000 6.187490e+000 1.626243e-001 2.451264e-001 3.132513e-001 4.444066e-001 1.212540e+000 5.853899e-001 8.037360e-001 5.576445e-001 1.078224e+000 1.142027e+000 9.348354e-001 9.457518e-001 1.137694e-001 3.222388e-002 5.984573e-002 1.057342e-001 1.204228e-001 2.304174e-001 1.060731e-001 1.611639e-001 1.420343e-001 1.746787e-001 2.067014e-001 2.056643e-001 2.079920e-001 3.587181e-002
<GCONST> 5.644719e+001
<STATE> 4
<MEAN> 39
 -1.605134e+001 1.367245e+000 -2.100206e+000 3.271919e-001 -1.679495e-001 2.851905e+000 2.884936e+000 2.852035e+000 1.313692e+000 3.955875e+000 2.924224e+000 5.822829e-001 5.520081e+001 9.289739e-002 6.559833e-001 1.930280e+000 -1.594831e-001 1.205099e+000 8.195995e-001 7.356725e-001 -1.752501e-001 -2.938852e-001 -5.376956e-001 -1.984204e-001 -6.376884e-001 9.854786e-001 3.765277e-001 2.670122e-001 4.503033e-001 2.656669e-001 5.447168e-001 1.969307e-001 2.204819e-001 1.068440e-002 -1.159371e-001 -6.274914e-001 -1.853958e-001 1.352344e-001 4.931422e-001
<VARIANCE> 39
 2.448649e+000 2.756573e+000 7.385907e+000 4.320091e+000 1.043892e+001 7.097776e+000 5.434126e+000 5.289789e+000 1.121635e+001 1.064074e+001 7.338288e+000 5.731611e+000 9.375349e+000 1.996517e+000 1.633155e+000 1.683995e+000 2.898905e+000 1.605575e+000 1.625850e+000 1.091898e+000 1.277532e+000 1.176800e+000 1.984427e+000 1.156347e+000 1.187407e+000 5.656513e-001 1.932466e-001 2.143496e-001 2.051433e-001 1.972416e-001 3.549072e-001 2.448095e-001 1.607591e-001 1.810204e-001 3.771456e-001 3.003893e-001 1.884344e-001 8.746590e-002 9.928638e-002
<GCONST> 7.916326e+001
<TRANSP> 5
 0.000000e+000 1.000000e+000 0.000000e+000 0.000000e+000 0.000000e+000
 0.000000e+000 9.600385e-001 3.996150e-002 0.000000e+000 0.000000e+000
 0.000000e+000 0.000000e+000 8.283894e-001 1.716105e-001 0.000000e+000
 0.000000e+000 0.000000e+000 0.000000e+000 5.542690e-001 4.457311e-001
 0.000000e+000 0.000000e+000 0.000000e+000 0.000000e+000 0.000000e+000
<ENDHMM>
~h "ea"
<BEGINHMM>
<NUMSTATES> 5
<STATE> 2
<MEAN> 39
 8.334778e-002 -7.446469e+000 -1.647412e+000 -2.167085e+000 -1.601894e+000 -1.563090e+001 1.207437e+001 9.006157e+000 -1.487599e+000 -3.806944e+000 -2.452547e+000 4.308670e+000 8.283007e+001 -1.111339e-001 2.675206e-001 -8.976758e-004 2.597567e-002 1.397057e-001 1.322602e-001 9.438504e-002 -6.103923e-001 -5.771784e-001 -1.411230e-001 1.964650e-001 6.087930e-002 -2.117778e-001 -2.619485e-002 9.022230e-003 -3.801766e-002 3.731395e-002 -9.448644e-002 1.068924e-002 2.783482e-002 -7.945778e-002 8.408984e-002 9.986656e-002 -2.754008e-002 4.786003e-002 -1.523029e-001
<VARIANCE> 39
