~o
<STREAMINFO> 1 26
<VECSIZE> 26<NULLD><MFCC_E_D><DIAGC>
~h "C"
<BEGINHMM>
<NUMSTATES> 5
<STATE> 2
<MEAN> 26
 -1.577203e+001 -3.819010e+000 -2.108174e+000 -5.125033e+000 -4.188587e+000 -3.474514e+000 -2.384302e+000 -1.462722e+000 -5.856509e-001 -1.748157e+000 -2.845349e+000 1.894461e-002 3.315708e-001 -2.400890e+000 -1.497230e-001 -9.812480e-001 -2.742478e-001 1.336555e+000 4.786875e-001 7.093509e-001 3.543431e-002 3.372588e-001 1.096040e-002 5.154299e-001 6.323187e-002 -2.700986e-002
<VARIANCE> 26
 3.449093e+001 4.372887e+001 3.733556e+001 3.598432e+001 3.008838e+001 3.338681e+001 2.441507e+001 2.690272e+001 1.588671e+001 1.905532e+001 1.896317e+001 1.456383e+001 6.631576e-002 6.365857e+000 5.367405e+000 4.868905e+000 6.022972e+000 5.607412e+000 4.200800e+000 4.803143e+000 3.952288e+000 3.351673e+000 2.133814e+000 2.349828e+000 1.694075e+000 5.000000e-002
<GCONST> 9.769260e+001
<STATE> 3
<MEAN> 26
 -2.227606e+001 -3.946886e+000 -6.174413e+000 -8.907335e+000 -2.505219e+000 -5.567448e+000 -7.250676e-002 -1.208398e+000 -3.573588e-001 -1.466540e+000 -2.076239e+000 1.225134e-001 4.719545e-001 1.183201e-001 -3.862638e-001 -1.776921e-001 -2.589536e-001 -2.146052e-001 -6.769654e-002 6.724152e-002 5.245458e-002 1.447528e-001 -1.675971e-002 -8.425227e-002 8.541461e-003 5.834436e-003
<VARIANCE> 26
 3.500237e+001 2.499551e+001 3.137167e+001 3.059590e+001 3.285167e+001 3.357821e+001 2.013860e+001 1.763195e+001 1.676211e+001 1.479709e+001 1.175015e+001 1.054479e+001 6.339657e-002 2.917178e+000 1.360034e+000 1.830419e+000 2.271936e+000 1.514026e+000 1.760479e+000 1.736936e+000 1.480636e+000 1.469456e+000 1.912379e+000 1.521933e+000 1.112305e+000 5.000000e-002
<GCONST> 8.517081e+001
<STATE> 4
<MEAN> 26
 -1.164585e+001 -7.446083e+000 -2.735083e+000 -6.472691e+000 -7.396932e+000 -4.658675e+000 -2.860617e+000 4.819342e-001 -1.068767e+000 -1.876013e+000 -3.620164e+000 -2.175526e-002 4.709929e-001 2.982388e+000 -6.317276e-001 7.998368e-001 -1.866938e-001 -1.630519e+000 8.987302e-002 -1.703105e+000 4.430065e-001 -5.722039e-001 7.949553e-002 2.112711e-002 -4.991526e-001 5.115468e-002
<VARIANCE> 26
 5.143380e+001 3.739841e+001 5.740825e+001 3.904383e+001 5.751963e+001 4.305638e+001 4.284555e+001 3.554300e+001 3.187229e+001 2.477021e+001 2.051793e+001 1.489387e+001 5.070245e-002 5.502445e+000 4.125661e+000 4.962941e+000 4.792964e+000 4.746476e+000 5.825131e+000 5.090839e+000 3.499958e+000 3.232834e+000 2.475655e+000 2.605453e+000 2.147187e+000 5.000000e-002
<GCONST> 1.009137e+002
<TRANSP> 5
 0.000000e+000 1.000000e+000 0.000000e+000 0.000000e+000 0.000000e+000
 0.000000e+000 4.403572e-001 5.596429e-001 0.000000e+000 0.000000e+000
 0.000000e+000 0.000000e+000 6.917962e-001 3.082038e-001 0.000000e+000
 0.000000e+000 0.000000e+000 0.000000e+000 5.669558e-001 4.330441e-001
 0.000000e+000 0.000000e+000 0.000000e+000 0.000000e+000 0.000000e+000
<ENDHMM>
