~o
<STREAMINFO> 1 26
<VECSIZE> 26<NULLD><MFCC_E_D><DIAGC>
~h "L"
<BEGINHMM>
<NUMSTATES> 5
<STATE> 2
<MEAN> 26
 2.673656e+000 -3.034126e+000 -9.772395e+000 -1.815511e+001 -1.285837e+001 5.267176e+000 -7.245344e+000 -2.130092e+000 -5.270806e+000 -2.087865e-001 -1.281947e-001 -1.619763e+000 7.744821e-001 6.372535e-001 -3.924898e-001 -3.731636e-001 -8.219123e-001 -1.872711e-001 6.576181e-001 -4.838291e-001 2.807896e-001 6.156178e-002 -2.876116e-001 2.885976e-001 3.151311e-002 2.431419e-002
<VARIANCE> 26
 9.059009e+000 3.992104e+001 4.692482e+001 5.782869e+001 3.838914e+001 6.260744e+001 3.272451e+001 2.279018e+001 3.516388e+001 2.804207e+001 2.082293e+001 1.452768e+001 5.000000e-002 1.312177e+000 2.370548e+000 2.596710e+000 2.193485e+000 2.964479e+000 2.841740e+000 2.283767e+000 2.036107e+000 2.791624e+000 2.361643e+000 1.855472e+000 1.015275e+000 5.000000e-002
<GCONST> 9.165679e+001
<STATE> 3
<MEAN> 26
 3.090306e+000 -8.779601e+000 -1.080427e+001 -1.201087e+001 -1.101303e+001 1.463184e+000 -1.280655e+001 3.475127e+000 -1.088475e+000 -2.099342e+000 -5.306837e-001 -8.924478e-001 8.076791e-001 -1.734203e-001 -8.426490e-002 4.538149e-002 3.574731e-001 -3.578535e-001 3.432547e-002 2.464157e-001 -2.631894e-001 6.624847e-004 5.160492e-001 3.665974e-003 -3.312076e-001 -1.501392e-003
<VARIANCE> 26
 7.851441e+000 2.989099e+001 7.149776e+001 8.146088e+001 3.668601e+001 1.421238e+002 3.712459e+001 4.361691e+001 3.884212e+001 3.712043e+001 1.695002e+001 1.498856e+001 5.000000e-002 4.770447e-001 1.654514e+000 1.457370e+000 2.184820e+000 3.143977e+000 2.634240e+000 2.035254e+000 2.149491e+000 1.789469e+000 2.267554e+000 1.442559e+000 1.413054e+000 5.000000e-002
<GCONST> 9.130569e+001
<STATE> 4
<MEAN> 26
 -1.976123e-001 -6.152539e+000 -6.838368e+000 -1.111879e+001 -1.073217e+001 9.095645e-002 -9.473228e+000 -5.860063e-001 -2.515874e+000 1.852956e+000 -1.003235e+000 -2.805949e+000 7.117128e-001 -1.723647e+000 5.253929e-001 7.940003e-001 1.429872e+000 1.173330e+000 -1.439173e+000 9.630917e-001 -4.964528e-001 4.612170e-001 3.431326e-001 -3.610124e-001 -5.126422e-002 -4.327087e-002
<VARIANCE> 26
 1.911843e+001 4.202263e+001 8.670807e+001 6.073624e+001 7.885838e+001 7.457556e+001 4.612760e+001 5.376278e+001 4.570631e+001 4.053772e+001 3.233218e+001 2.024485e+001 5.000000e-002 3.941813e+000 5.067099e+000 1.811691e+000 4.482302e+000 6.248829e+000 7.553535e+000 4.462973e+000 3.214272e+000 3.616850e+000 2.320196e+000 3.216887e+000 3.710222e+000 5.000000e-002
<GCONST> 1.037686e+002
<TRANSP> 5
 0.000000e+000 1.000000e+000 0.000000e+000 0.000000e+000 0.000000e+000
 0.000000e+000 7.089955e-001 2.910045e-001 0.000000e+000 0.000000e+000
 0.000000e+000 0.000000e+000 6.415142e-001 3.584858e-001 0.000000e+000
 0.000000e+000 0.000000e+000 0.000000e+000 3.453245e-001 6.546755e-001
 0.000000e+000 0.000000e+000 0.000000e+000 0.000000e+000 0.000000e+000
<ENDHMM>
