~o
<STREAMINFO> 1 26
<VECSIZE> 26<NULLD><MFCC_E_D><DIAGC>
~h "N"
<BEGINHMM>
<NUMSTATES> 5
<STATE> 2
<MEAN> 26
 -3.140737e+000 -4.410120e+000 2.739270e+000 -2.100987e-001 -1.121957e+001 1.288796e+000 -9.126470e+000 -8.149920e+000 -5.770349e+000 4.442814e-001 -5.391353e+000 8.337831e-002 4.519672e-001 -1.721689e-001 7.216788e-001 -6.746837e-002 7.374235e-001 1.353837e-001 5.066981e-001 1.826799e-001 -2.088806e+000 -8.615950e-001 2.587801e-001 2.026122e-001 7.601420e-001 -1.611999e-002
<VARIANCE> 26
 3.341673e+000 1.284339e+001 1.380675e+001 3.149473e+001 2.507928e+001 1.977846e+001 2.237132e+001 3.645869e+001 2.666324e+001 2.455632e+001 1.320872e+001 1.633364e+001 5.000000e-002 1.411940e+000 1.517096e+000 1.157533e+000 2.544739e+000 2.480422e+000 2.043828e+000 3.451849e+000 2.954293e+000 3.292663e+000 2.740356e+000 2.339517e+000 1.748946e+000 5.000000e-002
<GCONST> 8.579282e+001
<STATE> 3
<MEAN> 26
 -4.078335e+000 -9.247669e-001 9.954377e-001 -1.969944e+000 -1.110252e+001 1.414832e+000 -6.632910e+000 -9.233106e+000 -5.526102e+000 -8.219706e-001 -6.096302e+000 3.696102e+000 4.233258e-001 -7.290062e-001 3.740559e-001 -1.337573e+000 -8.322366e-001 7.318563e-001 -7.326812e-001 1.100942e+000 1.535170e+000 1.233905e+000 -1.087707e+000 1.069889e-001 -1.675306e-001 -2.397085e-003
<VARIANCE> 26
 3.783905e+000 3.667418e+001 1.929124e+001 2.346685e+001 2.297167e+001 1.579886e+001 3.392672e+001 4.104636e+001 2.586253e+001 1.516598e+001 1.927542e+001 1.499758e+001 5.000000e-002 3.771667e+000 2.872791e+000 2.479876e+000 4.743757e+000 4.290810e+000 2.214374e+000 2.470386e+000 3.310566e+000 1.895647e+000 1.219609e+000 1.225810e+000 1.469915e+000 5.000000e-002
<GCONST> 8.824075e+001
<STATE> 4
<MEAN> 26
 -4.453113e+000 -3.746506e+000 -4.469451e+000 -4.734687e+000 -8.362281e+000 2.412028e-001 -5.400944e+000 -4.203406e+000 -2.100771e+000 -2.402035e+000 -4.518457e+000 -1.898555e-001 4.743077e-001 -4.047358e-001 -1.428588e+000 -2.889886e+000 -2.616538e+000 9.007384e-001 -1.513321e-001 3.111248e-001 2.359329e+000 2.577078e+000 -8.493215e-001 2.174890e-001 -1.304582e+000 4.414500e-002
<VARIANCE> 26
 4.144213e+001 3.015314e+001 5.349435e+001 5.671660e+001 2.147717e+001 1.646322e+001 2.004081e+001 3.861948e+001 2.211253e+001 1.654732e+001 2.337787e+001 7.528370e+000 5.000000e-002 6.968201e+000 3.643432e+000 4.541259e+000 3.349708e+000 4.855267e+000 5.498320e+000 3.212928e+000 7.177435e+000 3.756216e+000 1.622012e+000 1.941905e+000 1.586895e+000 5.000000e-002
<GCONST> 9.584556e+001
<TRANSP> 5
 0.000000e+000 1.000000e+000 0.000000e+000 0.000000e+000 0.000000e+000
 0.000000e+000 6.857166e-001 3.142835e-001 0.000000e+000 0.000000e+000
 0.000000e+000 0.000000e+000 4.127495e-001 5.872505e-001 0.000000e+000
 0.000000e+000 0.000000e+000 0.000000e+000 2.791032e-001 7.208967e-001
 0.000000e+000 0.000000e+000 0.000000e+000 0.000000e+000 0.000000e+000
<ENDHMM>
