~o
<STREAMINFO> 1 26
<VECSIZE> 26<NULLD><MFCC_E_D><DIAGC>
~h "S"
<BEGINHMM>
<NUMSTATES> 5
<STATE> 2
<MEAN> 26
 -1.240943e+001 -7.544647e+000 -1.012920e+001 -9.039684e+000 -1.799340e+000 1.534968e+000 -3.375673e+000 2.291059e+000 2.906301e+000 1.518870e-001 -6.493698e+000 -3.415260e+000 1.603860e-001 -1.925813e-001 -1.117346e-001 -4.055270e-001 2.034137e-001 3.305400e-001 9.875121e-001 2.915004e-001 -3.661551e-002 -5.110615e-001 7.421130e-002 7.845133e-002 3.099965e-001 -2.872177e-002
<VARIANCE> 26
 2.929686e+001 3.284449e+001 2.112755e+001 3.935730e+001 2.431305e+001 2.691373e+001 3.125833e+001 2.439597e+001 1.370959e+001 1.359902e+001 2.925659e+001 6.042909e+001 5.000000e-002 2.770178e+000 2.253649e+000 1.474748e+000 1.738351e+000 1.271104e+000 2.809139e+000 1.601569e+000 3.253816e+000 9.711086e-001 1.569388e+000 2.326914e+000 2.640905e+000 5.000000e-002
<GCONST> 8.914537e+001
<STATE> 3
<MEAN> 26
 -1.659991e+001 -1.967794e+000 -7.260161e+000 -5.602445e+000 -2.639065e+000 7.470337e-002 -7.469079e-001 1.599835e+000 -1.370610e+000 -5.589590e-001 -1.805892e+000 -3.641498e-001 -6.862804e-002 9.408247e-002 2.373000e-001 1.755820e-001 1.145945e-001 -3.285899e-001 1.068365e-001 2.935637e-002 -9.424716e-002 -1.198418e-001 -1.175495e-001 3.115120e-002 -1.271931e-001 -4.864677e-003
<VARIANCE> 26
 7.938807e+000 5.245582e+000 1.073208e+001 1.909583e+001 1.618146e+001 1.220608e+001 1.329674e+001 1.683249e+001 1.201221e+001 1.448677e+001 1.811389e+001 1.139202e+001 5.000000e-002 4.943258e-001 5.079390e-001 8.955202e-001 1.444457e+000 1.213264e+000 1.111768e+000 1.293909e+000 1.944388e+000 1.370295e+000 1.446937e+000 1.845505e+000 1.376675e+000 5.000000e-002
<GCONST> 7.374478e+001
<STATE> 4
<MEAN> 26
 -1.271787e+001 -1.219315e+000 -5.608999e-001 -9.714218e+000 -9.074152e+000 2.139377e-001 -2.146224e+000 1.709831e+000 -5.679317e+000 -2.297124e+000 -2.483092e+000 -2.023906e+000 1.738768e-001 4.452620e-001 -2.657713e-001 6.713762e-001 -5.218753e-001 -3.272626e-001 5.695311e-002 -5.765780e-001 1.338120e-002 -3.561805e-001 -4.762899e-001 -1.830431e-001 -1.986571e-001 6.123782e-002
<VARIANCE> 26
 2.453692e+001 2.306721e+001 6.541458e+001 2.070987e+001 3.686578e+001 2.458331e+001 3.207500e+001 5.532711e+001 5.035934e+001 1.658662e+001 1.195656e+001 2.169625e+001 7.082019e-002 3.879326e+000 2.429058e+000 1.995691e+000 2.046342e+000 2.894292e+000 1.240370e+000 2.322722e+000 2.978446e+000 2.546004e+000 1.302808e+000 1.523749e+000 1.836077e+000 5.000000e-002
<GCONST> 9.135863e+001
<TRANSP> 5
 0.000000e+000 1.000000e+000 0.000000e+000 0.000000e+000 0.000000e+000
 0.000000e+000 6.013820e-001 3.986181e-001 0.000000e+000 0.000000e+000
 0.000000e+000 0.000000e+000 8.855098e-001 1.144903e-001 0.000000e+000
 0.000000e+000 0.000000e+000 0.000000e+000 6.837262e-001 3.162739e-001
 0.000000e+000 0.000000e+000 0.000000e+000 0.000000e+000 0.000000e+000
<ENDHMM>
