~o
<STREAMINFO> 1 26
<VECSIZE> 26<NULLD><MFCC_E_D><DIAGC>
~h "V"
<BEGINHMM>
<NUMSTATES> 5
<STATE> 2
<MEAN> 26
 5.099688e-001 -9.020107e+000 -4.083721e+000 -1.080661e+001 -1.284408e+001 1.070495e+000 -1.242977e+001 -1.481647e+000 -2.481183e+000 1.580385e+000 -1.508303e+000 -4.954652e+000 7.835653e-001 6.297964e-001 -7.590221e-001 -3.959281e-002 -8.542821e-002 -4.098940e-001 2.826470e-001 -6.787642e-001 1.889413e-001 4.086364e-001 2.308964e-001 -4.009403e-001 -4.256013e-001 2.161859e-002
<VARIANCE> 26
 1.445236e+001 3.092606e+001 1.161913e+002 3.128901e+001 6.025643e+001 9.150309e+001 5.502795e+001 3.507468e+001 4.598083e+001 3.349053e+001 2.923360e+001 2.751550e+001 5.000000e-002 1.380003e+000 1.685417e+000 2.226640e+000 1.506521e+000 2.944971e+000 2.770198e+000 2.255186e+000 2.135683e+000 2.092624e+000 1.498431e+000 1.947594e+000 1.601123e+000 5.000000e-002
<GCONST> 9.430972e+001
<STATE> 3
<MEAN> 26
 1.467250e+000 -1.545441e+001 -6.255376e+000 -8.685896e+000 -1.465862e+001 1.376118e+000 -8.749405e+000 5.129903e+000 1.010035e+000 -1.154242e+000 -7.240284e+000 -6.593209e+000 8.393874e-001 -3.600797e-001 3.628348e-001 8.881770e-001 2.267985e-001 -2.435826e-001 -9.201738e-001 3.912676e-001 4.179723e-001 -3.207682e-001 -1.100123e-001 -1.729386e-001 5.807678e-001 -1.327290e-002
<VARIANCE> 26
 9.461217e+000 3.079180e+001 6.785793e+001 1.615619e+001 3.650092e+001 5.933783e+001 2.960795e+001 3.443942e+001 3.499318e+001 1.899152e+001 2.565274e+001 2.041042e+001 5.000000e-002 6.010693e-001 1.755563e+000 3.006184e+000 1.596918e+000 2.508244e+000 2.728446e+000 2.229727e+000 2.954002e+000 1.874420e+000 1.354480e+000 1.973808e+000 1.648353e+000 5.000000e-002
<GCONST> 8.937748e+001
<STATE> 4
<MEAN> 26
 -3.647201e+000 -6.449308e+000 2.917851e+000 -8.289026e+000 -1.410931e+001 -5.391478e+000 -6.730322e+000 6.053751e-001 -4.353552e+000 1.852404e-001 -4.525704e+000 -1.178328e+000 6.554940e-001 -1.676686e+000 2.130667e+000 -6.271659e-001 9.523844e-001 2.065975e+000 1.828960e-001 1.398768e+000 -1.336573e+000 -6.952643e-003 -2.256223e-002 7.230549e-002 4.109918e-001 -6.752823e-002
<VARIANCE> 26
 1.856658e+001 3.265399e+001 6.836572e+001 2.959380e+001 6.121746e+001 5.519484e+001 4.664487e+001 4.257280e+001 5.458132e+001 3.686751e+001 2.825621e+001 1.913863e+001 5.000000e-002 3.332048e+000 2.770807e+000 5.469045e+000 3.871467e+000 6.300193e+000 3.558068e+000 4.500270e+000 3.533345e+000 6.137199e+000 3.671586e+000 2.312495e+000 2.062682e+000 5.000000e-002
<GCONST> 1.012612e+002
<TRANSP> 5
 0.000000e+000 1.000000e+000 0.000000e+000 0.000000e+000 0.000000e+000
 0.000000e+000 6.547117e-001 3.452883e-001 0.000000e+000 0.000000e+000
 0.000000e+000 0.000000e+000 7.150728e-001 2.849272e-001 0.000000e+000
 0.000000e+000 0.000000e+000 0.000000e+000 5.768897e-001 4.231103e-001
 0.000000e+000 0.000000e+000 0.000000e+000 0.000000e+000 0.000000e+000
<ENDHMM>
