~o
<STREAMINFO> 1 26
<VECSIZE> 26<NULLD><MFCC_E_D><DIAGC>
~h "C"
<BEGINHMM>
<NUMSTATES> 5
<STATE> 2
<MEAN> 26
 -1.362503e+001 -3.853103e+000 -1.929425e+000 -4.469196e+000 -5.273647e+000 -4.006740e+000 -2.730230e+000 -1.377050e+000 -1.271744e+000 -1.182839e+000 -3.121917e+000 -3.865954e-001 3.369403e-001 -2.138790e+000 1.343051e-001 -1.177271e+000 -2.942874e-001 1.649997e+000 5.606436e-001 5.954497e-001 -1.590508e-001 3.252531e-001 -4.197117e-002 1.934263e-001 6.849714e-003 -3.717498e-002
<VARIANCE> 26
 4.189642e+001 5.344756e+001 3.734537e+001 4.565220e+001 3.882027e+001 3.536911e+001 3.227436e+001 3.479501e+001 2.397399e+001 1.943503e+001 2.217437e+001 1.627112e+001 5.763407e-002 5.997054e+000 5.971262e+000 4.398798e+000 6.386828e+000 6.288950e+000 3.951210e+000 4.799508e+000 4.395461e+000 3.426674e+000 2.360661e+000 2.425647e+000 1.845477e+000 1.000000e-002
<GCONST> 9.852714e+001
<STATE> 3
<MEAN> 26
 -2.177685e+001 -4.282345e+000 -6.351747e+000 -8.812062e+000 -2.161859e+000 -5.015990e+000 -4.961659e-001 -1.411401e+000 -2.054624e-001 -1.499507e+000 -1.979944e+000 1.826201e-002 4.518027e-001 9.373771e-002 -4.558511e-001 -1.709359e-001 -3.407757e-001 -2.502547e-001 -7.688364e-002 -1.777686e-002 6.739575e-002 8.001441e-002 -1.039334e-001 -7.647625e-002 5.898939e-003 1.084806e-002
<VARIANCE> 26
 3.543683e+001 2.446918e+001 2.908985e+001 3.185474e+001 2.758618e+001 3.562225e+001 2.162923e+001 1.644559e+001 1.713527e+001 1.547085e+001 1.198620e+001 1.077593e+001 6.851978e-002 3.229170e+000 1.732454e+000 1.955349e+000 2.674780e+000 1.585558e+000 2.043590e+000 2.017591e+000 1.740713e+000 1.802042e+000 1.894791e+000 1.578649e+000 1.193739e+000 1.000000e-002
<GCONST> 8.497102e+001
<STATE> 4
<MEAN> 26
 -9.094798e+000 -8.376288e+000 -3.535721e+000 -7.117938e+000 -8.548685e+000 -4.029931e+000 -4.489839e+000 8.805080e-001 -1.321294e+000 -1.349874e+000 -3.460406e+000 -8.609385e-001 5.495582e-001 2.873743e+000 -7.298836e-001 6.136526e-001 -3.379046e-001 -1.772944e+000 1.925121e-001 -1.649560e+000 3.604008e-001 -4.784015e-001 1.950847e-001 2.624713e-003 -4.570634e-001 5.675241e-002
<VARIANCE> 26
 7.191366e+001 3.992178e+001 6.985438e+001 3.548960e+001 5.836275e+001 5.231523e+001 5.288073e+001 3.490634e+001 3.438856e+001 2.616576e+001 2.368104e+001 1.669147e+001 4.186240e-002 4.721776e+000 3.813252e+000 4.862651e+000 4.400242e+000 4.658333e+000 5.313652e+000 5.033780e+000 2.840947e+000 3.133693e+000 2.388751e+000 2.480276e+000 2.088931e+000 1.000000e-002
<GCONST> 9.959190e+001
<TRANSP> 5
 0.000000e+000 1.000000e+000 0.000000e+000 0.000000e+000 0.000000e+000
 0.000000e+000 5.263158e-001 4.736842e-001 0.000000e+000 0.000000e+000
 0.000000e+000 0.000000e+000 7.413793e-001 2.586207e-001 0.000000e+000
 0.000000e+000 0.000000e+000 0.000000e+000 6.442688e-001 3.557312e-001
 0.000000e+000 0.000000e+000 0.000000e+000 0.000000e+000 0.000000e+000
<ENDHMM>
