~o
<STREAMINFO> 1 26
<VECSIZE> 26<NULLD><MFCC_E_D><DIAGC>
~h "L"
<BEGINHMM>
<NUMSTATES> 5
<STATE> 2
<MEAN> 26
 1.987175e+000 -2.352508e+000 -7.526436e+000 -1.300703e+001 -1.165009e+001 1.018564e-001 -9.053732e+000 -2.704081e+000 -3.974730e+000 -7.636938e-001 -2.390881e+000 -8.547315e-001 6.965476e-001 6.109053e-001 -1.619341e-001 -1.032366e-001 -6.861306e-001 -2.692958e-001 1.760103e-001 -6.985615e-001 3.700103e-001 -1.802174e-001 -2.838027e-001 2.977088e-001 1.288669e-001 2.011033e-002
<VARIANCE> 26
 1.260738e+001 4.584381e+001 4.617097e+001 8.045242e+001 4.076424e+001 6.941742e+001 3.911658e+001 3.813475e+001 4.623542e+001 4.405792e+001 3.113058e+001 1.739586e+001 1.409135e-002 1.820634e+000 2.725696e+000 3.651283e+000 2.605652e+000 4.297141e+000 4.585667e+000 2.770704e+000 3.642840e+000 2.533803e+000 2.904605e+000 3.285111e+000 8.811034e-001 1.000000e-002
<GCONST> 9.487254e+001
<STATE> 3
<MEAN> 26
 2.870952e+000 -9.795765e+000 -7.762750e+000 -8.526178e+000 -1.405007e+001 -3.593357e+000 -1.116397e+001 4.810228e+000 -1.836592e+000 -8.206324e-001 -8.484716e-001 -2.074310e+000 7.914670e-001 -4.577560e-001 -5.973899e-002 2.904595e-001 2.276097e-001 -3.030611e-002 9.103888e-002 7.768406e-001 -4.173152e-001 -2.662061e-001 2.853496e-001 -2.298561e-002 -3.116461e-001 -4.172692e-003
<VARIANCE> 26
 8.995222e+000 4.313441e+001 9.017573e+001 5.810987e+001 2.975045e+001 7.913451e+001 3.553170e+001 6.266539e+001 4.328497e+001 2.830638e+001 1.748534e+001 1.096197e+001 1.037596e-002 3.747330e-001 2.469962e+000 2.193457e+000 2.252267e+000 3.533349e+000 3.423205e+000 2.544096e+000 1.885653e+000 1.907466e+000 1.212362e+000 1.827076e+000 1.703305e+000 1.000000e-002
<GCONST> 8.852998e+001
<STATE> 4
<MEAN> 26
 -2.097554e+000 -4.936176e+000 -3.528714e+000 -8.881397e+000 -1.065297e+001 -3.384001e+000 -8.478927e+000 -2.174866e+000 -4.017367e+000 1.393549e+000 -2.514522e+000 -1.152184e+000 6.927427e-001 -1.857922e+000 -3.395897e-002 9.499036e-001 1.016558e+000 2.815860e-001 -7.877102e-001 8.196799e-001 8.773766e-003 2.488336e-001 1.534215e-001 -3.220156e-001 2.938136e-001 -2.646288e-002
<VARIANCE> 26
 3.145816e+001 5.137146e+001 1.061244e+002 6.315361e+001 7.538988e+001 8.751305e+001 4.713251e+001 6.435435e+001 6.074418e+001 1.919231e+001 3.415688e+001 2.359936e+001 2.303618e-002 4.987121e+000 5.222386e+000 2.372970e+000 4.496640e+000 7.440400e+000 6.466990e+000 5.835975e+000 4.458094e+000 4.381414e+000 2.440934e+000 2.873488e+000 2.174802e+000 1.000000e-002
<GCONST> 1.031340e+002
<TRANSP> 5
 0.000000e+000 1.000000e+000 0.000000e+000 0.000000e+000 0.000000e+000
 0.000000e+000 6.031746e-001 3.968254e-001 0.000000e+000 0.000000e+000
 0.000000e+000 0.000000e+000 5.614035e-001 4.385965e-001 0.000000e+000
 0.000000e+000 0.000000e+000 0.000000e+000 5.192308e-001 4.807692e-001
 0.000000e+000 0.000000e+000 0.000000e+000 0.000000e+000 0.000000e+000
<ENDHMM>
