~o
<STREAMINFO> 1 39
<VECSIZE> 39<NULLD><MFCC_D_A_0><DIAGC>
~h "b"
<BEGINHMM>
<NUMSTATES> 5
<STATE> 2
<MEAN> 39
 -6.234363e+000 7.719217e+000 4.468098e+000 3.774961e+000 3.764835e+000 -3.710616e+000 1.060476e+000 8.031733e+000 2.984294e+000 3.244096e-001 1.509423e+000 -3.358992e+000 6.370449e+001 5.153745e-003 -4.295094e-002 -9.884781e-001 -1.878774e+000 -6.106120e-001 1.118459e+000 -6.388266e-001 -1.041293e+000 4.618472e-001 -5.777872e-001 -1.649667e-001 6.428563e-001 4.185619e-001 4.526523e-001 -5.729121e-001 1.927813e-001 -5.344619e-001 -6.019674e-002 -6.561470e-001 -3.288585e-001 3.454090e-002 -5.208462e-001 -3.663417e-001 6.433716e-002 -9.853336e-002 9.028694e-001
<VARIANCE> 39
 2.922725e+001 2.264001e+001 2.720563e+001 4.239373e+001 1.828264e+001 5.076032e+001 2.215837e+001 1.849952e+001 2.004741e+001 2.647771e+001 1.287575e+001 2.080024e+001 6.041265e+001 1.660022e+000 1.967580e+000 1.094064e+000 1.210750e+001 2.778103e+000 5.885681e+000 5.891681e+000 1.870648e+000 2.992858e+000 2.654177e+000 1.783794e+000 1.489128e+000 6.621608e+000 3.043316e-001 3.460785e-001 1.813695e-001 7.756413e-001 4.389006e-001 9.947008e-001 5.262236e-001 4.095941e-001 7.452774e-001 3.949810e-001 4.175433e-001 2.881668e-001 5.051155e-001
<GCONST> 1.173396e+002
<STATE> 3
<MEAN> 39
 -1.556961e+000 3.468345e+000 1.872900e+000 -7.520648e+000 2.419247e+000 -6.270502e+000 -3.824858e+000 5.130092e+000 2.481304e-001 -5.202407e+000 9.563797e-001 -1.907447e+000 7.361510e+001 2.084027e+000 -1.361433e+000 -8.238026e-002 -2.719120e+000 -7.156603e-001 -1.781091e+000 -1.162172e+000 4.919421e-001 -1.985856e+000 -1.345884e+000 6.411120e-001 3.374347e-001 2.909832e+000 -8.827578e-002 -1.791814e-001 1.194054e-001 6.850749e-001 5.917767e-002 -3.352712e-002 5.856666e-001 4.159910e-001 -4.698308e-001 2.817450e-001 2.171474e-001 -5.274623e-002 -2.779497e-001
<VARIANCE> 39
 4.852451e+001 2.220419e+001 1.903383e+001 4.035503e+001 1.422982e+001 7.900718e+001 2.793537e+001 2.348547e+001 3.810680e+001 3.790966e+001 2.790731e+001 1.643792e+001 4.415581e+001 2.417063e+000 3.210788e+000 1.796545e+000 4.588258e+000 2.754244e+000 1.120683e+001 2.403475e+000 2.917184e+000 4.881500e+000 4.672200e+000 3.699486e+000 2.607493e+000 5.274357e+000 6.044392e-001 3.955371e-001 3.061037e-001 7.987407e-001 4.337582e-001 1.700854e+000 7.534739e-001 5.225489e-001 7.503137e-001 5.564849e-001 4.320544e-001 3.215721e-001 6.858034e-001
<GCONST> 1.252986e+002
<STATE> 4
<MEAN> 39
 3.605395e+000 1.241454e+000 -9.342018e-001 -1.398591e+001 -9.071139e-001 -1.837518e+000 7.192053e-001 4.694943e+000 -1.106756e+001 -9.244327e+000 3.334165e+000 2.686000e+000 7.715004e+001 -1.035444e-001 8.535570e-002 1.470954e-001 1.785460e-001 1.328026e-002 3.962486e-001 7.269931e-001 -1.292479e-002 -7.636744e-001 -5.975174e-001 -7.601915e-002 3.721341e-001 -1.066287e-001 -2.127115e-001 1.262963e-001 1.078948e-001 3.898467e-001 1.235915e-001 9.030297e-003 7.457345e-002 -4.329058e-002 3.165154e-001 1.681755e-001 -1.579261e-001 -7.346099e-002 -1.765244e-001
<VARIANCE> 39
 1.000058e+001 3.346341e+001 1.684293e+001 4.632131e+001 1.959675e+001 4.802074e+001 2.344815e+001 3.250162e+001 4.047685e+001 6.814725e+001 4.133172e+001 1.329578e+001 3.018832e+001 5.938943e-001 1.445229e+000 5.782004e-001 1.729685e+000 1.499059e+000 2.502885e+000 1.540594e+000 1.705582e+000 2.134871e+000 1.348276e+000 1.710530e+000 1.015509e+000 1.600727e+000 1.271795e-001 1.701171e-001 9.630489e-002 3.033535e-001 1.656814e-001 4.153517e-001 2.805688e-001 3.003582e-001 4.124771e-001 2.951920e-001 2.690409e-001 1.788885e-001 1.935061e-001
<GCONST> 1.001888e+002
<TRANSP> 5
 0.000000e+000 1.000000e+000 0.000000e+000 0.000000e+000 0.000000e+000
 0.000000e+000 7.117347e-001 2.882653e-001 0.000000e+000 0.000000e+000
 0.000000e+000 0.000000e+000 5.099192e-001 4.900808e-001 0.000000e+000
 0.000000e+000 0.000000e+000 0.000000e+000 8.579775e-001 1.420225e-001
 0.000000e+000 0.000000e+000 0.000000e+000 0.000000e+000 0.000000e+000
<ENDHMM>
~h "d"
<BEGINHMM>
<NUMSTATES> 5
<STATE> 2
<MEAN> 39
 -5.216019e+000 3.640236e+000 5.364990e+000 9.268826e+000 8.645966e+000 -4.791185e-001 4.270717e+000 4.642601e+000 -3.910843e+000 -2.472966e+000 -3.486778e+000 -4.863525e+000 6.609338e+001 -1.244934e+000 4.838145e-001 2.364462e-001 -8.840905e-001 -5.879683e-001 8.294831e-001 -6.688979e-002 -4.948786e-001 1.260443e+000 -7.123879e-001 2.135845e-001 8.098658e-001 -5.203107e-001 -3.063087e-002 -6.118629e-001 -1.480990e-001 -6.646736e-001 -6.302887e-001 -4.995276e-001 -1.026275e-001 -4.103988e-001 -1.710492e-001 -5.565043e-002 3.481702e-001 4.586926e-001 7.287912e-001
<VARIANCE> 39
 2.421392e+001 3.473075e+001 2.132442e+001 5.416709e+001 5.375611e+001 3.743884e+001 3.018372e+001 3.776307e+001 3.458453e+001 4.153391e+001 4.391539e+001 3.785498e+001 5.521130e+001 1.309714e+000 2.312568e+000 1.940084e+000 4.695186e+000 2.782825e+000 3.643904e+000 2.590184e+000 3.161807e+000 2.682240e+000 4.022943e+000 2.439842e+000 3.105798e+000 4.698836e+000 2.552553e-001 3.898256e-001 4.865687e-001 6.022345e-001 7.350874e-001 7.386633e-001 5.420463e-001 6.880887e-001 5.393963e-001 5.208502e-001 4.553196e-001 6.881247e-001 6.802114e-001
<GCONST> 1.245472e+002
<STATE> 3
<MEAN> 39
 -9.676589e+000 3.490324e+000 5.917628e+000 4.921996e+000 5.083829e+000 2.092107e+000 4.120469e+000 2.607414e+000 1.615705e-001 -3.876657e+000 -2.043696e+000 -1.686070e+000 6.560792e+001 -8.082615e-001 -1.399341e+000 -2.252284e-002 -2.067845e+000 -1.678210e+000 -1.091898e+000 -4.425472e-001 -1.616672e+000 -7.286628e-002 -8.768852e-001 5.899596e-001 1.636308e+000 1.885240e+000 5.786824e-001 -5.206199e-001 -1.459374e-001 7.636003e-002 5.938360e-002 -7.530095e-001 -1.058698e-001 -1.069498e-001 -7.259872e-001 1.875496e-001 1.885670e-002 5.295976e-002 6.173005e-001
<VARIANCE> 39
 2.512772e+001 2.812475e+001 4.229920e+001 3.673491e+001 4.402855e+001 2.842352e+001 2.352534e+001 3.790646e+001 3.311494e+001 3.488216e+001 2.506362e+001 2.644868e+001 5.008643e+001 2.390290e+000 2.601341e+000 3.445135e+000 4.654232e+000 5.378260e+000 4.899098e+000 2.834903e+000 3.356782e+000 3.913207e+000 3.220217e+000 2.680721e+000 4.631761e+000 6.253370e+000 4.560519e-001 5.510585e-001 8.036981e-001 5.856113e-001 1.016681e+000 8.285331e-001 6.378533e-001 7.731358e-001 7.956939e-001 7.921278e-001 4.967940e-001 5.117331e-001 8.974104e-001
<GCONST> 1.290339e+002
<STATE> 4
<MEAN> 39
 -8.685040e+000 -4.172409e-002 4.215491e+000 1.790135e+000 1.510029e+000 -2.234821e+000 3.050694e+000 -1.193400e+000 -2.822394e+000 -3.581455e+000 -1.636705e+000 2.123855e+000 6.852039e+001 2.136527e-001 -1.023357e+000 -2.801555e-001 -8.968603e-001 -2.722106e-001 -1.225314e+000 -5.024306e-001 -5.334631e-001 -5.971910e-001 -1.435117e-001 6.081478e-001 9.151218e-001 1.337247e+000 2.811388e-001 2.398088e-002 -1.146954e-001 3.764003e-001 3.704995e-001 -8.331469e-002 -9.022232e-003 3.370233e-001 -1.460305e-001 2.798024e-001 1.991507e-002 -2.700047e-001 -1.087207e-001
<VARIANCE> 39
 3.119464e+001 1.964369e+001 3.196264e+001 2.587071e+001 3.196873e+001 3.653938e+001 2.523956e+001 3.574504e+001 3.873817e+001 2.938701e+001 2.896589e+001 2.417824e+001 5.943933e+001 4.214724e+000 2.796988e+000 4.705685e+000 3.903758e+000 6.223340e+000 6.235179e+000 2.754269e+000 4.316102e+000 5.523521e+000 3.037267e+000 2.796641e+000 4.058614e+000 9.719607e+000 7.113368e-001 4.941339e-001 6.845177e-001 6.394229e-001 8.643296e-001 1.078551e+000 4.708863e-001 6.947578e-001 9.999512e-001 6.298456e-001 5.671499e-001 4.592472e-001 1.014175e+000
<GCONST> 1.305371e+002
<TRANSP> 5
 0.000000e+000 1.000000e+000 0.000000e+000 0.000000e+000 0.000000e+000
 0.000000e+000 4.546597e-001 5.453403e-001 0.000000e+000 0.000000e+000
 0.000000e+000 0.000000e+000 3.701863e-001 6.298137e-001 0.000000e+000
 0.000000e+000 0.000000e+000 0.000000e+000 5.342674e-001 4.657327e-001
 0.000000e+000 0.000000e+000 0.000000e+000 0.000000e+000 0.000000e+000
<ENDHMM>
~h "f"
<BEGINHMM>
<NUMSTATES> 5
<STATE> 2
<MEAN> 39
 -2.182200e+001 -6.692966e-001 1.231581e+000 -4.210694e+000 4.800794e+000 1.257682e+000 4.910262e+000 -1.930756e+000 5.545182e+000 -1.636489e+000 7.393106e-001 2.790999e+000 6.732068e+001 -2.062734e+000 1.118935e-001 2.381657e-001 -8.717527e-001 3.070620e-001 3.188513e-002 3.366240e-001 -4.696356e-001 8.322943e-001 2.589083e-002 -1.376707e-001 2.310003e-001 7.625194e-001 -6.909296e-004 -8.663051e-003 -1.523775e-002 2.795615e-002 -1.081065e-001 -7.115191e-002 -1.129948e-001 1.007407e-001 -1.853592e-001 8.214349e-002 9.079955e-002 -1.093763e-001 -5.411497e-002
<VARIANCE> 39
 5.154293e+001 1.344431e+001 2.649316e+001 2.239859e+001 2.153093e+001 1.719700e+001 1.963228e+001 1.867195e+001 2.236596e+001 1.606188e+001 1.421101e+001 1.094498e+001 3.789820e+001 3.478576e+000 1.603342e+000 1.311588e+000 1.519253e+000 1.446493e+000 1.713651e+000 1.962274e+000 2.100443e+000 2.684000e+000 1.689833e+000 1.662117e+000 1.365764e+000 3.023356e+000 4.996818e-001 3.159216e-001 2.420172e-001 2.083738e-001 2.461697e-001 3.941463e-001 4.221693e-001 3.881565e-001 5.684808e-001 3.078214e-001 2.809149e-001 2.655429e-001 2.756573e-001
<GCONST> 1.045566e+002
<STATE> 3
<MEAN> 39
 -2.933973e+001 6.176144e-001 3.036691e+000 -7.641277e+000 5.341168e+000 1.136017e+000 5.582927e+000 -4.002244e+000 7.320395e+000 -1.447360e+000 5.477555e-001 2.316791e+000 7.019739e+001 3.798472e-001 -1.486634e-001 -7.544778e-002 -1.545461e-001 -3.839372e-001 -1.536124e-001 -3.592435e-001 -1.864934e-001 -9.988537e-002 -1.015050e-001 -1.485225e-001 -9.368381e-002 4.544979e-002 1.035652e+000 -3.199929e-002 -4.494339e-004 2.780077e-001 -1.223500e-001 -2.422196e-001 -2.222007e-001 1.694611e-001 -2.620029e-001 -6.225452e-002 1.639367e-002 -7.008320e-002 1.773002e-001
<VARIANCE> 39
 1.474695e+001 1.101636e+001 2.065799e+001 1.505525e+001 1.154239e+001 1.306670e+001 1.446061e+001 1.438145e+001 1.640035e+001 1.608118e+001 1.166800e+001 7.169864e+000 2.258293e+001 6.399368e+000 1.142939e+000 1.028750e+000 1.453025e+000 1.378353e+000 1.450969e+000 1.728333e+000 1.707368e+000 1.356950e+000 1.156639e+000 9.727752e-001 7.970122e-001 6.386057e-001 5.883288e-001 2.581146e-001 2.365468e-001 2.227236e-001 2.500466e-001 4.689611e-001 4.432271e-001 3.821333e-001 4.686562e-001 2.711884e-001 2.213290e-001 1.719572e-001 1.958511e-001
<GCONST> 9.418553e+001
<STATE> 4
<MEAN> 39
 -1.408259e+001 1.522183e+000 2.993277e+000 -5.616528e+000 1.666100e+000 -3.337350e+000 -2.945702e-001 -2.245137e+000 5.043775e+000 -2.261586e+000 -8.334278e-001 1.251593e+000 7.250254e+001 5.989739e+000 8.449054e-002 -3.020124e-001 8.806349e-001 -1.456288e+000 -3.422102e+000 -2.219162e+000 1.511877e+000 -1.009775e+000 -3.354517e-002 -6.179603e-002 -4.262713e-001 2.177768e+000 -1.338071e-001 -4.586589e-001 -1.896937e-001 -3.632767e-002 6.263857e-002 -6.471637e-001 1.652008e-001 4.170594e-001 -1.353540e-002 1.248460e-001 2.532076e-001 -5.016681e-003 3.719831e-001
<VARIANCE> 39
 1.377917e+002 2.343877e+001 2.174784e+001 1.850813e+001 2.681364e+001 5.564637e+001 3.763104e+001 3.090361e+001 1.935556e+001 1.480162e+001 1.292809e+001 1.150249e+001 2.752154e+001 1.091807e+001 2.979357e+000 4.056601e+000 2.897488e+000 2.359102e+000 9.888875e+000 4.262306e+000 4.069520e+000 5.682597e+000 2.238848e+000 1.730862e+000 1.421621e+000 2.681424e+000 2.298797e+000 5.365368e-001 4.419437e-001 3.593518e-001 3.773845e-001 1.182324e+000 1.046002e+000 5.669184e-001 9.996011e-001 3.690192e-001 1.998229e-001 3.022017e-001 5.078679e-001
<GCONST> 1.230342e+002
<TRANSP> 5
 0.000000e+000 1.000000e+000 0.000000e+000 0.000000e+000 0.000000e+000
 0.000000e+000 8.210924e-001 1.789076e-001 0.000000e+000 0.000000e+000
 0.000000e+000 0.000000e+000 8.366247e-001 1.633753e-001 0.000000e+000
 0.000000e+000 0.000000e+000 0.000000e+000 5.687222e-001 4.312778e-001
 0.000000e+000 0.000000e+000 0.000000e+000 0.000000e+000 0.000000e+000
<ENDHMM>
~h "g"
<BEGINHMM>
<NUMSTATES> 5
<STATE> 2
<MEAN> 39
 -1.054866e+001 -1.585786e+000 1.532635e+000 4.898661e-002 2.591187e+000 -4.188194e+000 1.650425e+000 3.584352e+000 -8.082810e-001 -5.242408e-001 9.521774e-001 -2.066207e-001 6.765821e+001 -9.893719e-004 4.370896e-003 2.936753e-003 2.220659e-004 -1.452296e-003 2.421478e-003 2.489385e-003 -1.808583e-003 5.971932e-003 7.519505e-003 2.081149e-003 -2.299958e-003 -4.203989e-003 -3.621638e-004 -1.582598e-004 1.881931e-006 5.654030e-005 1.692552e-004 -8.328774e-005 3.929678e-005 4.017694e-004 -1.114904e-004 -2.048553e-004 -4.068760e-004 -2.945460e-004 3.621318e-005
<VARIANCE> 39
 9.135812e+001 2.887483e+001 4.226160e+001 6.238169e+001 6.069485e+001 9.299902e+001 3.194183e+001 4.381314e+001 5.450549e+001 3.285281e+001 2.566368e+001 2.867520e+001 1.318052e+002 2.569712e+000 1.521167e+000 1.581442e+000 2.587913e+000 2.205244e+000 3.263843e+000 1.867969e+000 2.134392e+000 2.626611e+000 1.814599e+000 1.585299e+000 1.594031e+000 2.266492e+000 3.224897e-001 2.537074e-001 2.677446e-001 3.972005e-001 3.461457e-001 4.922199e-001 3.355976e-001 3.652808e-001 4.410312e-001 3.359493e-001 2.872582e-001 2.768144e-001 3.396754e-001
<GCONST> 1.175893e+002
<STATE> 3
<MEAN> 39
 -1.054866e+001 -1.585786e+000 1.532635e+000 4.898661e-002 2.591187e+000 -4.188194e+000 1.650425e+000 3.584352e+000 -8.082810e-001 -5.242408e-001 9.521774e-001 -2.066207e-001 6.765821e+001 -9.893719e-004 4.370896e-003 2.936753e-003 2.220659e-004 -1.452296e-003 2.421478e-003 2.489385e-003 -1.808583e-003 5.971932e-003 7.519505e-003 2.081149e-003 -2.299958e-003 -4.203989e-003 -3.621638e-004 -1.582598e-004 1.881931e-006 5.654030e-005 1.692552e-004 -8.328774e-005 3.929678e-005 4.017694e-004 -1.114904e-004 -2.048553e-004 -4.068760e-004 -2.945460e-004 3.621318e-005
<VARIANCE> 39
 9.135812e+001 2.887483e+001 4.226160e+001 6.238169e+001 6.069485e+001 9.299902e+001 3.194183e+001 4.381314e+001 5.450549e+001 3.285281e+001 2.566368e+001 2.867520e+001 1.318052e+002 2.569712e+000 1.521167e+000 1.581442e+000 2.587913e+000 2.205244e+000 3.263843e+000 1.867969e+000 2.134392e+000 2.626611e+000 1.814599e+000 1.585299e+000 1.594031e+000 2.266492e+000 3.224897e-001 2.537074e-001 2.677446e-001 3.972005e-001 3.461457e-001 4.922199e-001 3.355976e-001 3.652808e-001 4.410312e-001 3.359493e-001 2.872582e-001 2.768144e-001 3.396754e-001
<GCONST> 1.175893e+002
<STATE> 4
<MEAN> 39
 -1.054866e+001 -1.585786e+000 1.532635e+000 4.898661e-002 2.591187e+000 -4.188194e+000 1.650425e+000 3.584352e+000 -8.082810e-001 -5.242408e-001 9.521774e-001 -2.066207e-001 6.765821e+001 -9.893719e-004 4.370896e-003 2.936753e-003 2.220659e-004 -1.452296e-003 2.421478e-003 2.489385e-003 -1.808583e-003 5.971932e-003 7.519505e-003 2.081149e-003 -2.299958e-003 -4.203989e-003 -3.621638e-004 -1.582598e-004 1.881931e-006 5.654030e-005 1.692552e-004 -8.328774e-005 3.929678e-005 4.017694e-004 -1.114904e-004 -2.048553e-004 -4.068760e-004 -2.945460e-004 3.621318e-005
<VARIANCE> 39
 9.135812e+001 2.887483e+001 4.226160e+001 6.238169e+001 6.069485e+001 9.299902e+001 3.194183e+001 4.381314e+001 5.450549e+001 3.285281e+001 2.566368e+001 2.867520e+001 1.318052e+002 2.569712e+000 1.521167e+000 1.581442e+000 2.587913e+000 2.205244e+000 3.263843e+000 1.867969e+000 2.134392e+000 2.626611e+000 1.814599e+000 1.585299e+000 1.594031e+000 2.266492e+000 3.224897e-001 2.537074e-001 2.677446e-001 3.972005e-001 3.461457e-001 4.922199e-001 3.355976e-001 3.652808e-001 4.410312e-001 3.359493e-001 2.872582e-001 2.768144e-001 3.396754e-001
<GCONST> 1.175893e+002
<TRANSP> 5
 0.000000e+000 1.000000e+000 0.000000e+000 0.000000e+000 0.000000e+000
 0.000000e+000 6.000000e-001 4.000000e-001 0.000000e+000 0.000000e+000
 0.000000e+000 0.000000e+000 6.000000e-001 4.000000e-001 0.000000e+000
 0.000000e+000 0.000000e+000 0.000000e+000 7.000000e-001 3.000000e-001
 0.000000e+000 0.000000e+000 0.000000e+000 0.000000e+000 0.000000e+000
<ENDHMM>
~h "k"
<BEGINHMM>
<NUMSTATES> 5
<STATE> 2
<MEAN> 39
 -1.003682e+001 9.240509e-001 2.697546e+000 -4.747398e-001 8.995021e-001 -4.481271e+000 1.901543e+000 5.947748e+000 1.266479e-001 9.401023e-003 2.162783e+000 -2.486211e+000 6.597079e+001 -1.323468e+000 -4.194528e-002 -1.726104e+000 -2.275572e+000 -1.292157e+000 7.180737e-001 5.573370e-001 -3.407574e-001 4.687273e-001 -8.132145e-001 -4.866619e-001 9.088197e-001 -5.038941e-001 2.284574e-002 -4.122406e-001 9.006792e-002 -4.069509e-001 1.301717e-001 -2.631513e-001 -1.615170e-001 -2.234382e-001 -1.033924e-001 -2.293162e-001 -6.564048e-002 1.335090e-001 1.016835e+000
<VARIANCE> 39
 3.606249e+001 2.815308e+001 3.956155e+001 9.648577e+001 1.028131e+002 7.552278e+001 4.864922e+001 4.230348e+001 5.868975e+001 3.193171e+001 3.190491e+001 3.141640e+001 4.871003e+001 2.332187e+000 2.430822e+000 4.038228e+000 7.907649e+000 6.568351e+000 5.359608e+000 5.588564e+000 3.996850e+000 3.722788e+000 4.147930e+000 3.362803e+000 2.346787e+000 9.264865e+000 3.492443e-001 3.833571e-001 1.068830e+000 1.516380e+000 1.307108e+000 9.464778e-001 1.124953e+000 6.687245e-001 6.315460e-001 8.838128e-001 6.232772e-001 4.491111e-001 1.482011e+000
<GCONST> 1.375986e+002
<STATE> 3
<MEAN> 39
 -1.472204e+001 -2.599089e+000 -8.098428e-001 -9.150675e+000 1.488879e+000 -2.197802e+000 2.215929e+000 1.466773e+000 5.222425e-001 -4.508834e+000 3.982716e-001 7.299761e-001 7.349217e+001 -1.449088e-001 -8.103532e-001 5.612056e-001 -7.036887e-001 3.939013e-001 3.364242e-001 -4.655528e-001 -8.236316e-001 7.633133e-001 -4.096243e-001 -1.559819e-001 7.573808e-001 2.130419e+000 4.435220e-001 7.998683e-002 6.260642e-001 1.052421e+000 1.622974e-001 5.062876e-002 -1.208477e-001 2.325062e-001 1.577964e-001 6.402730e-001 2.340450e-001 -1.164105e-001 -6.135268e-001
<VARIANCE> 39
 1.101914e+001 1.493727e+001 2.371065e+001 4.744201e+001 4.586151e+001 2.288645e+001 4.608221e+001 5.612498e+001 2.741440e+001 3.450632e+001 2.692403e+001 2.638710e+001 6.956129e+001 2.893236e+000 2.213493e+000 3.296412e+000 9.994818e+000 5.084001e+000 4.845048e+000 3.392822e+000 4.245742e+000 3.697439e+000 5.073779e+000 3.243568e+000 2.495845e+000 1.054539e+001 3.775318e-001 3.651463e-001 1.022931e+000 1.347715e+000 1.030959e+000 8.011172e-001 7.781939e-001 7.479047e-001 5.625474e-001 1.013831e+000 6.266471e-001 5.839639e-001 2.242850e+000
<GCONST> 1.317307e+002
<STATE> 4
<MEAN> 39
 -1.379955e+001 -3.631546e+000 4.369041e-001 -4.555605e+000 2.563683e+000 1.099972e+000 1.442937e+000 6.397477e-001 1.865233e+000 -1.948790e+000 1.446554e+000 3.025689e+000 6.797615e+001 6.875919e-001 2.250983e-001 4.186056e-001 9.053241e-001 -2.382471e-001 4.612701e-002 1.358942e-001 3.879647e-001 4.360084e-001 9.293579e-001 1.078627e-001 -2.038470e-002 -6.645144e-001 1.750117e-001 1.490642e-001 -1.787269e-002 9.888054e-002 -1.373656e-001 -3.461617e-001 1.003115e-001 1.513792e-001 -3.237733e-001 4.676906e-002 -4.653566e-002 -2.158340e-001 6.686599e-002
<VARIANCE> 39
 2.483254e+001 2.065604e+001 2.060649e+001 2.306570e+001 3.472919e+001 2.423163e+001 2.329411e+001 4.792226e+001 3.911283e+001 2.142678e+001 2.327067e+001 1.489205e+001 7.852615e+001 3.230487e+000 1.910493e+000 2.866054e+000 3.612135e+000 2.428037e+000 3.322803e+000 1.851650e+000 2.852152e+000 2.809097e+000 2.640234e+000 2.226495e+000 1.743805e+000 2.991619e+000 4.077908e-001 4.042679e-001 5.172088e-001 7.365514e-001 5.869403e-001 6.223963e-001 3.913697e-001 5.892444e-001 6.527051e-001 5.341889e-001 4.069019e-001 3.206957e-001 7.351929e-001
<GCONST> 1.185027e+002
<TRANSP> 5
 0.000000e+000 1.000000e+000 0.000000e+000 0.000000e+000 0.000000e+000
 0.000000e+000 7.492169e-001 2.507832e-001 0.000000e+000 0.000000e+000
 0.000000e+000 0.000000e+000 6.620902e-001 3.379098e-001 0.000000e+000
 0.000000e+000 0.000000e+000 0.000000e+000 7.002538e-001 2.997461e-001
 0.000000e+000 0.000000e+000 0.000000e+000 0.000000e+000 0.000000e+000
<ENDHMM>
~h "l"
<BEGINHMM>
<NUMSTATES> 5
<STATE> 2
<MEAN> 39
 -1.439301e+000 -1.167134e-001 3.103175e+000 4.711954e+000 5.239082e+000 -4.185960e+000 5.687921e-001 6.271636e+000 -4.032944e+000 -3.366366e+000 -5.815060e+000 -2.950889e+000 7.145280e+001 1.265715e+000 -4.971543e-001 1.801283e-001 8.754298e-001 3.962414e-001 -1.301219e+000 -1.844307e-001 4.573230e-001 -1.262404e+000 -7.230597e-001 -8.059249e-001 -6.586858e-001 1.396187e+000 -3.297757e-001 -2.308123e-001 -2.667931e-002 -4.182938e-001 -2.714174e-001 -2.540329e-001 7.313570e-002 1.546646e-001 1.611799e-001 -1.008958e-001 3.422312e-001 1.389241e-001 1.099295e-001
<VARIANCE> 39
 3.402821e+001 3.060182e+001 2.764838e+001 4.255836e+001 5.722877e+001 7.989270e+001 3.130444e+001 3.190426e+001 5.806418e+001 4.646677e+001 4.968618e+001 5.220770e+001 8.254898e+001 3.059099e+000 2.092951e+000 2.218495e+000 3.436587e+000 3.717278e+000 4.055652e+000 2.706996e+000 2.514024e+000 5.043019e+000 3.850633e+000 3.807822e+000 2.558047e+000 2.096465e+000 4.580121e-001 3.763000e-001 4.562047e-001 6.075256e-001 4.891838e-001 8.141918e-001 5.344615e-001 5.165741e-001 9.342940e-001 7.272581e-001 5.717278e-001 4.616401e-001 3.066440e-001
<GCONST> 1.275568e+002
<STATE> 3
<MEAN> 39
 6.625541e-001 -5.003917e+000 2.489320e+000 3.636026e+000 3.300689e+000 -1.316570e+001 8.050724e-001 8.076149e+000 -6.702132e+000 -4.851718e+000 -5.770926e+000 -3.059644e+000 7.900674e+001 -1.470364e-001 -6.732836e-001 -1.060751e-001 -1.183938e+000 -1.035499e+000 -1.281328e+000 9.550489e-002 2.764509e-001 5.915831e-001 3.460848e-001 7.464800e-001 6.501285e-001 1.018574e+000 -8.206177e-002 2.565608e-002 2.497629e-002 -1.167798e-001 -4.785405e-003 1.819318e-001 5.444703e-002 -7.253388e-003 2.311956e-001 1.404988e-001 4.692727e-002 3.931096e-002 -1.217594e-001
<VARIANCE> 39
 9.066440e+000 1.398680e+001 2.259936e+001 4.423706e+001 8.621656e+001 7.306338e+001 2.291661e+001 4.749360e+001 4.725967e+001 3.848995e+001 5.684413e+001 5.125426e+001 2.984450e+001 5.009730e-001 7.894497e-001 1.415948e+000 3.025918e+000 3.615746e+000 3.335954e+000 2.040414e+000 2.437142e+000 2.062685e+000 2.964352e+000 3.209863e+000 3.545273e+000 9.010973e-001 1.372839e-001 1.356782e-001 2.125956e-001 5.031694e-001 5.571236e-001 5.253284e-001 2.702231e-001 3.769483e-001 4.364530e-001 5.514925e-001 5.558810e-001 5.746398e-001 1.681276e-001
<GCONST> 1.127274e+002
<STATE> 4
<MEAN> 39
 3.282653e-001 -5.411809e+000 -2.731528e-001 -3.717995e+000 -2.331119e+000 -1.797602e+001 2.283289e+000 7.662861e+000 -1.545118e+000 1.382798e+000 -2.760536e+000 -6.595343e-001 8.145494e+001 -1.207675e-001 2.191157e-001 6.408576e-002 2.470765e-002 -1.278522e-001 1.369856e-002 1.418503e-001 -1.127314e-001 1.889269e-001 8.091814e-002 -8.461177e-002 -6.790365e-002 -3.204309e-001 -3.217240e-002 9.206259e-002 3.405932e-002 8.714219e-002 2.095413e-002 1.073426e-001 1.349800e-002 -7.925911e-002 -6.648687e-002 -6.058807e-002 -4.681760e-003 2.895040e-003 -8.066021e-002
<VARIANCE> 39
 1.032019e+001 4.679697e+001 4.356336e+001 3.123269e+001 5.739972e+001 6.356657e+001 3.998864e+001 5.903422e+001 5.313943e+001 5.099818e+001 2.736599e+001 2.661334e+001 5.695610e+001 3.182980e-001 7.670033e-001 9.940591e-001 1.013060e+000 1.202006e+000 2.045891e+000 1.116984e+000 1.545149e+000 1.358309e+000 1.122220e+000 1.051517e+000 1.001916e+000 4.513816e-001 5.387857e-002 9.041712e-002 1.226228e-001 1.860382e-001 1.675834e-001 3.092017e-001 1.821370e-001 2.107314e-001 2.007250e-001 1.741548e-001 1.665710e-001 1.705957e-001 5.048930e-002
<GCONST> 9.407478e+001
<TRANSP> 5
 0.000000e+000 1.000000e+000 0.000000e+000 0.000000e+000 0.000000e+000
 0.000000e+000 6.275871e-001 3.724129e-001 0.000000e+000 0.000000e+000
 0.000000e+000 0.000000e+000 7.305476e-001 2.694525e-001 0.000000e+000
 0.000000e+000 0.000000e+000 0.000000e+000 9.004976e-001 9.950238e-002
 0.000000e+000 0.000000e+000 0.000000e+000 0.000000e+000 0.000000e+000
<ENDHMM>
~h "m"
<BEGINHMM>
<NUMSTATES> 5
<STATE> 2
<MEAN> 39
 -2.358710e+000 1.374957e+000 3.146418e+000 1.066367e+001 3.420525e+000 -5.350894e+000 9.931839e+000 8.747320e+000 -1.954937e+000 2.515237e+000 -1.740730e+000 -5.448005e+000 6.733516e+001 6.228514e-001 7.740256e-002 9.002693e-001 2.619585e+000 1.897232e+000 1.990452e+000 1.212388e+000 -2.643712e-001 -1.254057e+000 5.222299e-001 -4.674092e-001 -2.005375e+000 -3.682111e-001 6.345984e-002 -2.111824e-001 -1.065325e-001 -4.142280e-001 -7.787868e-002 -4.007092e-001 -2.585988e-001 1.254095e-001 4.515993e-002 -2.253534e-001 8.338457e-002 8.573386e-002 4.366753e-001
<VARIANCE> 39
 4.496489e+001 2.067002e+001 1.433303e+001 2.934649e+001 3.977612e+001 6.190600e+001 2.201665e+001 1.942212e+001 2.618102e+001 2.254591e+001 1.480980e+001 2.297687e+001 5.668846e+001 3.804901e+000 1.041754e+000 1.668742e+000 3.816783e+000 2.496982e+000 5.543837e+000 2.168559e+000 2.599919e+000 2.490836e+000 1.607323e+000 1.635278e+000 2.300036e+000 3.099961e+000 3.619924e-001 2.302177e-001 2.062890e-001 6.559253e-001 2.993940e-001 5.123091e-001 4.059423e-001 3.037669e-001 5.224407e-001 2.548802e-001 2.997504e-001 4.059775e-001 1.827247e-001
<GCONST> 1.118227e+002
<STATE> 3
<MEAN> 39
 1.396950e-001 -1.653457e-001 4.288071e+000 1.621045e+001 8.642391e+000 -3.296334e+000 1.193410e+001 8.452232e+000 -7.035611e+000 2.502476e+000 -2.875137e+000 -1.083326e+001 6.914512e+001 5.213273e-001 -3.770438e-001 -1.760213e-002 4.483256e-001 6.534660e-001 -4.576614e-001 -7.389813e-002 -2.616364e-002 -7.016053e-001 -6.959084e-002 1.949342e-001 -6.411080e-001 7.548510e-001 -3.397302e-001 8.415052e-002 -1.804657e-001 -9.581794e-001 -5.044329e-001 -5.887213e-001 -5.774024e-001 9.441832e-002 6.105121e-001 -2.089950e-001 2.907166e-001 7.571747e-001 1.006078e-001
<VARIANCE> 39
 5.658091e+000 1.374382e+001 8.262986e+000 1.084960e+001 3.637820e+001 2.040326e+001 2.284829e+001 1.973691e+001 2.444113e+001 1.658436e+001 1.880239e+001 1.357755e+001 1.856529e+001 2.247386e+000 1.456357e+000 1.129495e+000 3.300467e+000 2.631332e+000 4.945761e+000 2.325532e+000 1.221869e+000 2.894188e+000 1.208990e+000 1.752750e+000 3.188289e+000 2.280360e+000 2.168694e-001 2.902124e-001 2.180756e-001 2.926799e-001 2.639015e-001 4.659596e-001 2.796232e-001 2.559791e-001 4.208228e-001 2.808601e-001 2.422980e-001 3.537018e-001 2.401280e-001
<GCONST> 1.013567e+002
<STATE> 4
<MEAN> 39
 -9.596906e-001 1.374262e+000 4.548247e+000 1.369401e+001 8.421087e+000 -5.184577e+000 9.339013e+000 9.663206e+000 -5.133258e+000 1.943145e+000 -7.895355e-001 -9.736513e+000 6.913784e+001 -4.239621e-001 4.764188e-001 -1.934810e-001 -1.344073e+000 -3.793185e-001 -5.575482e-001 -9.973978e-001 1.556676e-001 9.508185e-001 -4.737980e-001 3.463019e-001 8.830274e-001 7.715240e-002 -3.369073e-002 -7.255408e-002 -1.558902e-001 -4.533017e-001 -3.500693e-001 -1.750902e-001 -1.420262e-001 -1.095103e-002 2.278930e-001 -9.219323e-002 -6.835997e-002 2.551032e-001 1.102052e-001
<VARIANCE> 39
 9.767824e+000 2.040436e+001 7.930768e+000 2.634485e+001 4.318402e+001 4.013001e+001 2.055833e+001 2.074091e+001 4.612938e+001 2.089043e+001 1.670999e+001 1.978302e+001 2.334429e+001 6.227688e-001 1.439017e+000 1.111050e+000 3.344736e+000 3.689697e+000 4.752726e+000 1.698160e+000 1.336215e+000 2.422756e+000 1.249304e+000 1.068809e+000 2.338424e+000 1.800066e+000 6.173505e-002 2.251891e-001 1.598379e-001 4.982447e-001 4.099327e-001 4.215262e-001 3.015925e-001 3.376765e-001 3.556084e-001 2.207590e-001 2.043949e-001 2.603086e-001 1.467684e-001
<GCONST> 1.009040e+002
<TRANSP> 5
 0.000000e+000 1.000000e+000 0.000000e+000 0.000000e+000 0.000000e+000
 0.000000e+000 5.156769e-001 4.843231e-001 0.000000e+000 0.000000e+000
 0.000000e+000 0.000000e+000 6.371569e-001 3.628430e-001 0.000000e+000
 0.000000e+000 0.000000e+000 0.000000e+000 7.985893e-001 2.014106e-001
 0.000000e+000 0.000000e+000 0.000000e+000 0.000000e+000 0.000000e+000
<ENDHMM>
~h "n"
<BEGINHMM>
<NUMSTATES> 5
<STATE> 2
<MEAN> 39
 -2.256825e+000 -1.667498e+000 4.425756e+000 7.545680e+000 8.233594e+000 -6.151717e+000 5.636098e+000 3.351131e+000 -8.700584e+000 6.151710e-001 1.829532e+000 -3.854831e+000 7.387613e+001 -1.575744e-001 8.471763e-001 8.907118e-001 1.468054e+000 1.031476e+000 1.666776e+000 3.269558e-002 -2.637731e-001 1.843814e-001 6.234057e-001 -6.744512e-001 -1.161866e+000 -1.258035e+000 -5.531852e-002 -7.512624e-003 -6.156635e-002 -4.933259e-002 -5.402181e-002 -2.707700e-002 -1.530895e-001 5.869037e-002 2.024730e-001 -2.261777e-002 -6.819068e-002 6.462139e-002 -1.763644e-002
<VARIANCE> 39
 1.294943e+001 2.240869e+001 2.062293e+001 2.894081e+001 4.676723e+001 6.187866e+001 3.628199e+001 3.760353e+001 4.010942e+001 2.563419e+001 3.093052e+001 3.125588e+001 4.404784e+001 1.076614e+000 1.048334e+000 1.707842e+000 2.947411e+000 2.149330e+000 3.276798e+000 1.886620e+000 1.897814e+000 1.966286e+000 1.825117e+000 2.007614e+000 2.338521e+000 1.561049e+000 1.903685e-001 1.860607e-001 2.318955e-001 3.992846e-001 3.115986e-001 5.813873e-001 3.449616e-001 3.856051e-001 4.291841e-001 2.968848e-001 3.284231e-001 3.568259e-001 1.751869e-001
<GCONST> 1.093654e+002
<STATE> 3
<MEAN> 39
 -2.010393e+000 1.523363e+000 6.805054e+000 1.300278e+001 1.106466e+001 -2.491267e-001 4.879829e+000 2.608864e+000 -6.873443e+000 2.343782e+000 -1.346182e+000 -8.301563e+000 6.928908e+001 -3.095559e-001 7.639046e-001 4.506713e-001 7.754091e-001 6.739538e-001 9.559599e-001 -1.840807e-001 -6.824912e-002 4.944707e-001 1.737218e-001 -4.269984e-001 -4.048175e-001 -8.184704e-001 -3.553229e-001 -1.121683e-001 -2.197037e-001 -7.303875e-001 -3.005384e-001 -3.575518e-001 -5.223559e-002 9.819975e-002 2.544507e-001 -3.734670e-001 2.650774e-001 5.767980e-001 2.560623e-001
<VARIANCE> 39
 9.666371e+000 1.729232e+001 1.233012e+001 2.657126e+001 3.953053e+001 3.641144e+001 3.168624e+001 3.440974e+001 3.052353e+001 1.896932e+001 3.371957e+001 2.501833e+001 2.936392e+001 1.900051e+000 1.563030e+000 1.301287e+000 2.806772e+000 2.023914e+000 3.038938e+000 1.639076e+000 1.917334e+000 3.084660e+000 1.594867e+000 1.585435e+000 2.307298e+000 2.093199e+000 2.504268e-001 2.898178e-001 2.883328e-001 4.315403e-001 3.859515e-001 5.252560e-001 3.209606e-001 4.384229e-001 4.777029e-001 3.375370e-001 3.452198e-001 3.921554e-001 2.566408e-001
<GCONST> 1.088587e+002
<STATE> 4
<MEAN> 39
 -5.254292e+000 4.014387e+000 6.586790e+000 1.240622e+001 1.091138e+001 2.885774e+000 5.487401e+000 2.929798e+000 -3.139087e+000 2.229116e+000 -1.334870e+000 -5.390350e+000 6.489616e+001 -1.072995e+000 3.298264e-002 -2.733395e-001 -1.084573e+000 -3.850624e-001 -3.998145e-003 -3.274435e-001 2.057805e-001 9.480745e-001 -4.917932e-001 1.404542e-001 7.072486e-001 -2.638281e-001 -1.375321e-001 -3.397417e-001 -1.907584e-001 -4.597656e-001 -3.013822e-001 -4.361833e-001 -1.043027e-001 -7.912019e-002 -7.076948e-002 -1.441120e-001 1.292491e-001 1.843787e-001 3.186913e-001
<VARIANCE> 39
 2.138168e+001 2.092463e+001 1.618178e+001 3.106942e+001 3.627631e+001 4.229285e+001 2.656228e+001 2.661779e+001 4.159717e+001 1.847481e+001 2.375801e+001 2.554521e+001 4.586740e+001 1.797547e+000 1.721673e+000 1.751375e+000 3.233381e+000 2.645543e+000 3.090341e+000 1.677592e+000 2.108022e+000 2.612034e+000 1.893408e+000 1.536044e+000 2.031955e+000 1.984962e+000 2.318530e-001 3.286974e-001 2.944644e-001 5.492527e-001 3.507047e-001 5.446830e-001 3.248633e-001 4.136528e-001 4.559605e-001 3.354304e-001 3.050503e-001 4.367139e-001 2.508054e-001
<GCONST> 1.110914e+002
<TRANSP> 5
 0.000000e+000 1.000000e+000 0.000000e+000 0.000000e+000 0.000000e+000
 0.000000e+000 5.899187e-001 4.100812e-001 0.000000e+000 0.000000e+000
 0.000000e+000 0.000000e+000 5.537288e-001 4.462712e-001 0.000000e+000
 0.000000e+000 0.000000e+000 0.000000e+000 6.647375e-001 3.352625e-001
 0.000000e+000 0.000000e+000 0.000000e+000 0.000000e+000 0.000000e+000
<ENDHMM>
~h "p"
<BEGINHMM>
<NUMSTATES> 5
<STATE> 2
<MEAN> 39
 -1.227757e+001 -1.573674e+000 -2.856452e+000 1.168374e+000 2.871782e+000 1.856921e+000 3.199883e-001 1.655307e+000 -1.701047e+000 -2.811653e+000 6.806741e-001 1.199195e+000 6.018016e+001 -5.880786e-001 -7.766971e-002 -1.860327e-001 -6.543415e-001 -5.648737e-001 1.587676e-001 -1.114073e-001 -1.108840e-001 5.134915e-001 -5.768119e-002 -1.291970e-001 2.618409e-001 -2.403749e-001 9.467546e-002 -6.510429e-002 1.415773e-001 -2.083161e-001 1.508514e-001 -1.314015e-001 -3.489461e-003 -5.902701e-002 -1.421174e-003 -4.772566e-002 1.818425e-002 6.156380e-002 4.457588e-001
<VARIANCE> 39
 1.109434e+001 3.081056e+001 1.237382e+001 4.577445e+001 3.304686e+001 1.223272e+001 1.396287e+001 1.350138e+001 2.388323e+001 2.164798e+001 1.115573e+001 1.860134e+001 3.088742e+001 1.336578e+000 1.428855e+000 1.258182e+000 3.175064e+000 2.177611e+000 1.653711e+000 1.599786e+000 1.956175e+000 2.277757e+000 1.865117e+000 1.262012e+000 1.116393e+000 3.082947e+000 2.020555e-001 2.689760e-001 2.163232e-001 4.804410e-001 2.448305e-001 2.759712e-001 3.768653e-001 4.990120e-001 4.179871e-001 3.608161e-001 2.163662e-001 2.139022e-001 5.231218e-001
<GCONST> 1.023203e+002
<STATE> 3
<MEAN> 39
 -1.176108e+001 6.622766e-001 1.118846e+000 2.527920e+000 7.668283e+000 6.732017e-002 -4.691150e-001 -1.172468e+000 -1.599310e+000 -2.244255e+000 1.048916e+000 -4.326354e-001 6.589098e+001 1.384682e-001 -4.459044e-002 3.419552e-001 -1.376864e+000 -2.335441e-001 -5.753446e-002 1.451341e-001 2.037032e-001 1.231493e+000 -1.752354e-001 1.362846e-002 6.455575e-001 1.332905e+000 4.137410e-001 2.522698e-002 1.166007e-001 7.146382e-002 -9.623516e-002 -1.987060e-001 1.375807e-001 4.565527e-001 2.662827e-001 2.038255e-001 7.219596e-002 -2.236587e-002 8.649530e-002
<VARIANCE> 39
 3.018081e+001 1.303030e+001 2.221095e+001 6.387807e+001 5.904104e+001 1.849388e+001 1.873355e+001 2.592819e+001 4.426685e+001 1.707484e+001 1.495284e+001 2.144366e+001 6.047095e+001 4.078461e+000 1.723831e+000 2.843114e+000 7.177556e+000 7.015610e+000 3.135915e+000 2.622367e+000 5.241199e+000 8.202611e+000 2.484971e+000 2.131532e+000 2.955810e+000 1.030688e+001 7.366927e-001 4.184480e-001 5.554946e-001 9.469780e-001 1.186835e+000 6.980370e-001 5.261431e-001 9.661775e-001 9.285347e-001 4.758842e-001 3.368503e-001 3.873435e-001 1.714384e+000
<GCONST> 1.274587e+002
<STATE> 4
<MEAN> 39
 -8.730884e+000 9.711931e-001 2.106214e+000 -6.514727e+000 1.954119e+000 -2.248961e+000 1.319806e+000 6.393914e+000 1.022533e+001 -1.255968e+000 1.457371e+000 3.929987e+000 7.107027e+001 2.143684e+000 -1.539274e-001 6.086789e-001 -1.514064e-001 -1.256472e+000 -1.655100e+000 2.960038e-001 1.898713e+000 1.680463e+000 9.866771e-001 -1.733454e-001 4.037912e-001 8.386504e-001 1.389137e-001 -1.887928e-001 -4.439837e-001 6.401027e-001 -8.304295e-002 -4.329256e-001 -1.576468e-001 -3.683054e-001 -9.904538e-001 3.564709e-002 -2.849351e-001 -4.311876e-001 -3.149976e-001
<VARIANCE> 39
 2.263313e+001 1.458137e+001 1.426907e+001 1.727413e+001 1.101682e+001 2.251995e+001 1.983213e+001 2.437180e+001 4.770529e+001 1.758782e+001 1.847070e+001 1.830158e+001 2.390750e+001 1.106380e+000 1.695400e+000 1.792095e+000 2.664119e+000 1.526755e+000 3.695828e+000 1.735429e+000 2.931012e+000 4.521150e+000 1.865774e+000 2.008363e+000 1.572270e+000 3.395129e+000 2.908695e-001 4.026816e-001 3.242389e-001 4.409069e-001 2.961568e-001 3.483475e-001 3.942500e-001 5.563270e-001 6.593795e-001 3.511116e-001 4.802494e-001 3.195085e-001 4.625744e-001
<GCONST> 1.084749e+002
<TRANSP> 5
 0.000000e+000 1.000000e+000 0.000000e+000 0.000000e+000 0.000000e+000
 0.000000e+000 8.801178e-001 1.198821e-001 0.000000e+000 0.000000e+000
 0.000000e+000 0.000000e+000 7.835141e-001 2.164859e-001 0.000000e+000
 0.000000e+000 0.000000e+000 0.000000e+000 6.125215e-001 3.874785e-001
 0.000000e+000 0.000000e+000 0.000000e+000 0.000000e+000 0.000000e+000
<ENDHMM>
~h "r"
<BEGINHMM>
<NUMSTATES> 5
<STATE> 2
<MEAN> 39
 -1.578627e+000 -2.641901e+000 -1.742220e+000 -5.703768e+000 3.166054e+000 -6.486681e+000 -2.600762e-002 4.882349e+000 -1.324582e+000 -2.966027e+000 1.430119e+000 1.960103e+000 7.625163e+001 9.745383e-001 -1.105845e-003 -1.684601e-001 -2.841549e-001 4.414676e-001 -9.215208e-001 -4.063226e-002 6.232786e-001 -5.240903e-001 -7.096671e-001 -1.324065e-001 -4.924662e-002 8.177674e-001 -3.475773e-001 -5.842061e-002 6.872692e-002 -1.059333e-001 -8.351950e-002 2.775328e-001 1.818762e-001 -1.581934e-001 4.147609e-002 -8.550258e-003 -1.160776e-001 6.782897e-003 -1.799597e-001
<VARIANCE> 39
 5.294769e+001 6.351627e+001 3.912616e+001 4.147329e+001 4.561650e+001 9.327475e+001 3.588928e+001 4.475920e+001 5.813454e+001 3.684278e+001 3.689920e+001 2.212590e+001 6.538836e+001 2.587563e+000 4.219276e+000 3.069776e+000 1.467335e+000 2.631742e+000 5.505893e+000 2.032978e+000 3.131791e+000 3.842687e+000 2.989863e+000 2.936207e+000 1.475398e+000 2.073198e+000 8.687610e-001 5.058475e-001 2.499905e-001 2.649969e-001 3.864373e-001 5.747126e-001 6.338032e-001 4.543672e-001 5.189173e-001 4.231891e-001 4.986419e-001 2.799414e-001 3.542356e-001
<GCONST> 1.237296e+002
<STATE> 3
<MEAN> 39
 -2.509114e-001 1.324241e+000 1.336402e+000 -6.351792e+000 5.392051e+000 -4.408498e+000 -8.547329e-002 5.571050e+000 -4.182470e+000 -5.808997e+000 -1.649810e+000 1.335621e-003 7.551152e+001 6.021118e-001 -3.370467e-001 -5.857975e-002 -5.317977e-001 -1.794788e-001 -1.278420e-001 2.485993e-001 -5.836484e-002 -1.800768e-001 -4.527584e-001 -6.098344e-001 -5.791848e-002 6.777430e-001 -4.568090e-001 -1.743632e-001 4.957685e-002 1.095931e-001 -1.780972e-001 2.270216e-001 1.191727e-001 -1.779236e-001 2.740285e-001 2.326643e-001 1.071713e-001 9.397981e-002 -2.678079e-001
<VARIANCE> 39
 3.138887e+001 4.187872e+001 3.038998e+001 5.052605e+001 5.582317e+001 1.050736e+002 3.674852e+001 4.567009e+001 8.669009e+001 4.011603e+001 4.758339e+001 2.234740e+001 3.591399e+001 1.775310e+000 3.025096e+000 2.081231e+000 1.660214e+000 2.036270e+000 3.684075e+000 2.244714e+000 4.083909e+000 4.261383e+000 2.154509e+000 3.630810e+000 1.696334e+000 2.296988e+000 3.667292e-001 4.751066e-001 3.501248e-001 3.224394e-001 3.929004e-001 6.542785e-001 3.548371e-001 5.116945e-001 6.132119e-001 3.562258e-001 5.379186e-001 3.024752e-001 2.713393e-001
<GCONST> 1.213855e+002
<STATE> 4
<MEAN> 39
 1.359536e+000 1.566391e-001 6.205301e-001 -7.598438e+000 4.967564e+000 -4.356563e+000 -5.810454e-001 2.332592e+000 -7.345004e+000 -6.705413e+000 -2.487092e+000 1.349460e+000 7.747047e+001 -2.087225e-002 -3.557094e-001 -1.007384e-001 5.354850e-001 -8.705690e-002 -7.432211e-001 -1.233635e-001 -4.000856e-001 1.239677e-001 3.842836e-001 1.057241e-001 1.365436e-001 1.770455e-001 -5.609977e-002 -3.474673e-003 5.836078e-002 1.274915e-001 -1.589529e-002 -9.034644e-002 -9.925155e-003 1.853902e-002 7.922481e-002 1.221329e-001 5.966680e-002 -5.368342e-002 -4.491855e-002
<VARIANCE> 39
 2.351124e+001 1.986068e+001 3.893491e+001 5.443945e+001 7.019169e+001 7.471424e+001 3.998545e+001 5.348060e+001 8.280353e+001 6.671336e+001 4.408178e+001 2.130501e+001 1.564450e+001 8.904698e-001 1.693032e+000 1.792384e+000 1.755271e+000 1.833084e+000 3.575762e+000 2.039769e+000 3.337615e+000 3.522593e+000 2.265578e+000 2.268415e+000 1.550256e+000 7.930881e-001 1.248009e-001 1.877422e-001 2.253146e-001 1.861736e-001 2.876685e-001 4.910608e-001 3.459936e-001 5.075791e-001 4.786589e-001 4.298722e-001 3.289438e-001 2.679341e-001 8.361513e-002
<GCONST> 1.112717e+002
<TRANSP> 5
 0.000000e+000 1.000000e+000 0.000000e+000 0.000000e+000 0.000000e+000
 0.000000e+000 3.785772e-001 6.214227e-001 0.000000e+000 0.000000e+000
 0.000000e+000 0.000000e+000 3.491737e-001 6.508262e-001 0.000000e+000
 0.000000e+000 0.000000e+000 0.000000e+000 8.271291e-001 1.728709e-001
 0.000000e+000 0.000000e+000 0.000000e+000 0.000000e+000 0.000000e+000
<ENDHMM>
~h "s"
<BEGINHMM>
<NUMSTATES> 5
<STATE> 2
<MEAN> 39
 -1.396302e+001 -1.003710e+000 9.605606e+000 -4.460708e+000 1.829805e+000 2.791469e+000 2.794149e+000 -7.949199e-001 -2.208208e-001 -2.077913e+000 2.186370e+000 9.089431e-001 7.182456e+001 -4.073881e+000 -7.502698e-001 1.530806e+000 -3.121811e+000 3.179356e-001 1.685276e+000 -7.826598e-001 -5.364162e-001 1.532907e+000 -1.110129e-001 1.067187e+000 1.907198e-002 1.085188e+000 -5.115003e-001 -4.266380e-001 -5.271879e-001 -6.554104e-001 -3.166657e-001 -7.578171e-001 -3.234001e-001 2.662109e-002 -1.534561e-001 -1.134308e-002 6.850509e-002 -1.583368e-001 3.432257e-001
<VARIANCE> 39
 4.738628e+001 1.411955e+001 4.421827e+001 3.132753e+001 3.274593e+001 3.389526e+001 2.150577e+001 3.032879e+001 4.027165e+001 2.370903e+001 2.589067e+001 1.746891e+001 8.953621e+001 7.665549e+000 3.453715e+000 4.783300e+000 5.280349e+000 4.546637e+000 5.447578e+000 2.659446e+000 3.208594e+000 6.533657e+000 2.124144e+000 3.247429e+000 2.029704e+000 2.790742e+000 7.414033e-001 4.064498e-001 8.386358e-001 7.857099e-001 6.094491e-001 7.692517e-001 4.067051e-001 4.709055e-001 9.098414e-001 3.765618e-001 4.911720e-001 3.042014e-001 2.700509e-001
<GCONST> 1.254726e+002
<STATE> 3
<MEAN> 39
 -2.654561e+001 -5.619796e+000 9.493142e+000 -1.563324e+001 -6.585292e-001 2.099396e+000 -1.218771e+000 -3.785853e+000 1.353066e+000 -2.538532e+000 4.756702e+000 -2.021759e-001 7.709732e+001 -2.966296e+000 -7.279354e-001 -3.181035e-001 -2.600655e+000 -7.919651e-001 -8.229566e-001 -9.397609e-001 -4.358531e-001 -1.563804e-001 -1.639884e-001 1.350003e-001 -5.779622e-001 1.119074e+000 7.963660e-001 3.628295e-001 -3.316602e-001 7.729372e-001 1.312378e-001 -2.540650e-001 2.924010e-001 2.932463e-001 -3.216707e-001 3.286894e-002 -3.345554e-001 -2.976358e-002 -3.965627e-001
<VARIANCE> 39
 1.576110e+001 1.088415e+001 1.668942e+001 1.610850e+001 2.103150e+001 2.303808e+001 2.318200e+001 1.916293e+001 2.556128e+001 1.745333e+001 1.244353e+001 1.134427e+001 3.172456e+001 2.443935e+000 1.158908e+000 3.237266e+000 2.372869e+000 1.686604e+000 1.672583e+000 1.986295e+000 1.886478e+000 1.799640e+000 1.295930e+000 1.232572e+000 9.104933e-001 2.675072e+000 5.551746e-001 3.060090e-001 5.045507e-001 4.142056e-001 5.586941e-001 6.620862e-001 3.903990e-001 4.389791e-001 6.291577e-001 2.432004e-001 2.909129e-001 2.354851e-001 1.603045e-001
<GCONST> 1.041022e+002
<STATE> 4
<MEAN> 39
 -3.122136e+001 -4.644755e+000 7.978836e+000 -1.732341e+001 1.733175e+000 8.756723e-001 -7.446882e-001 -1.158060e+000 2.539840e-001 -1.895589e+000 2.982359e+000 -9.894806e-001 7.667637e+001 7.075891e-001 3.322994e-001 -1.904253e-001 7.248300e-001 3.131647e-001 -1.574667e-001 2.279117e-001 3.078896e-001 -1.175814e-001 5.351606e-002 -2.374027e-001 9.119506e-002 -5.299821e-001 5.810227e-001 3.381016e-002 -5.669259e-003 4.235105e-001 3.037506e-002 -5.061778e-002 8.968414e-002 3.410973e-002 -7.900513e-002 -2.102954e-002 4.948398e-003 6.160201e-002 -9.095739e-002
<VARIANCE> 39
 2.678879e+001 1.159846e+001 2.400227e+001 2.202302e+001 2.493570e+001 1.895637e+001 2.295741e+001 1.973505e+001 1.710516e+001 1.991552e+001 1.385508e+001 1.106457e+001 2.638900e+001 5.281526e+000 9.283277e-001 1.170554e+000 2.990620e+000 1.433078e+000 1.388034e+000 1.322016e+000 1.560940e+000 1.535333e+000 1.474937e+000 1.036220e+000 9.049309e-001 1.790050e+000 5.044277e-001 1.799892e-001 2.333933e-001 4.611036e-001 3.269576e-001 2.986150e-001 2.750105e-001 2.909048e-001 3.282955e-001 2.592167e-001 2.115273e-001 1.785084e-001 2.305188e-001
<GCONST> 9.899881e+001
<TRANSP> 5
 0.000000e+000 1.000000e+000 0.000000e+000 0.000000e+000 0.000000e+000
 0.000000e+000 6.152719e-001 3.847281e-001 0.000000e+000 0.000000e+000
 0.000000e+000 0.000000e+000 6.293829e-001 3.706171e-001 0.000000e+000
 0.000000e+000 0.000000e+000 0.000000e+000 9.034148e-001 9.658518e-002
 0.000000e+000 0.000000e+000 0.000000e+000 0.000000e+000 0.000000e+000
<ENDHMM>
~h "t"
<BEGINHMM>
<NUMSTATES> 5
<STATE> 2
<MEAN> 39
 -1.214278e+001 -2.732253e-002 2.073611e+000 -5.198724e-001 2.034347e+000 -1.392698e+000 1.897782e+000 2.383450e+000 -2.445349e+000 -2.649558e+000 2.053055e+000 9.949671e-001 6.506171e+001 -1.369702e+000 -6.900524e-001 -1.258715e-001 -6.764212e-001 -3.672295e-001 -3.456012e-002 -5.810621e-001 -7.025065e-001 1.106868e+000 -3.573347e-001 4.008919e-002 3.072953e-001 6.155929e-001 -5.763514e-002 -4.189911e-001 3.828004e-001 -1.965614e-001 1.554225e-001 -2.035732e-001 -4.366707e-003 -3.016626e-001 3.090772e-002 -1.275585e-002 -2.598143e-002 -8.740541e-002 9.497554e-001
<VARIANCE> 39
 5.263723e+001 2.146512e+001 3.587896e+001 6.670535e+001 5.372060e+001 3.909875e+001 2.892089e+001 4.057597e+001 5.871790e+001 4.928640e+001 2.212039e+001 2.481558e+001 6.876219e+001 3.782269e+000 3.287894e+000 4.181269e+000 7.270605e+000 4.867239e+000 4.132435e+000 3.336391e+000 3.920231e+000 4.643156e+000 3.659305e+000 2.501875e+000 2.484864e+000 1.103613e+001 4.492341e-001 5.229737e-001 7.796636e-001 7.970877e-001 9.040332e-001 8.678456e-001 7.347761e-001 6.714498e-001 8.018230e-001 7.192665e-001 4.741428e-001 4.431756e-001 1.366968e+000
<GCONST> 1.336116e+002
<STATE> 3
<MEAN> 39
 -1.796869e+001 -5.073563e+000 6.072148e+000 -4.332505e+000 3.490791e+000 -1.435043e+000 4.828263e-001 -1.978246e+000 2.779791e+000 -3.118507e+000 2.194386e+000 1.471028e+000 7.499319e+001 3.222650e-002 -8.356264e-001 1.154159e+000 -1.598072e-001 6.484901e-001 -3.276074e-002 1.977124e-001 -7.066607e-001 9.812452e-002 4.556766e-002 2.927417e-002 -3.890301e-002 1.626347e+000 7.774354e-001 4.075618e-001 -1.650652e-001 5.510909e-001 7.012513e-002 -1.523138e-001 1.932441e-001 4.246191e-001 -5.233918e-001 1.865124e-001 -6.775371e-002 -2.341138e-001 -7.588405e-001
<VARIANCE> 39
 3.572789e+001 1.826106e+001 1.740344e+001 3.605914e+001 3.167768e+001 2.429407e+001 2.652611e+001 2.786169e+001 3.096837e+001 2.950513e+001 1.721145e+001 1.722196e+001 3.705941e+001 4.900717e+000 2.599334e+000 2.893316e+000 6.218930e+000 4.000002e+000 4.376146e+000 3.399376e+000 3.417061e+000 4.322453e+000 3.863635e+000 2.352924e+000 2.472782e+000 7.605810e+000 5.914372e-001 5.020715e-001 5.542927e-001 9.623402e-001 8.141852e-001 8.599938e-001 5.875118e-001 6.424486e-001 9.206446e-001 6.808639e-001 4.570068e-001 4.524777e-001 1.408930e+000
<GCONST> 1.264539e+002
<STATE> 4
<MEAN> 39
 -1.451340e+001 -4.279676e+000 6.851583e+000 -1.327306e+000 4.973298e+000 -1.889558e+000 1.265460e+000 -1.471359e+000 -2.914901e-001 -2.046536e+000 2.470598e+000 4.836719e-001 7.242657e+001 1.356677e+000 1.906344e-001 -1.804494e-001 9.239438e-001 2.513661e-001 -6.759249e-001 4.526959e-002 5.490049e-001 -8.935243e-001 3.747479e-001 -4.573889e-003 -4.985034e-001 -4.117176e-001 1.521032e-001 8.866359e-002 -2.807562e-001 2.203465e-002 -9.043703e-002 -1.375027e-001 -1.554423e-001 2.459684e-001 -8.421501e-002 2.690482e-002 -4.311189e-002 -8.720177e-002 -1.844771e-001
<VARIANCE> 39
 5.837152e+001 2.141685e+001 2.306402e+001 7.236504e+001 5.672099e+001 3.655904e+001 3.051248e+001 3.013675e+001 4.081369e+001 2.827771e+001 2.346059e+001 3.462463e+001 5.803614e+001 2.540128e+000 2.722425e+000 2.244282e+000 2.961831e+000 2.398996e+000 4.663269e+000 2.442249e+000 2.675735e+000 4.527622e+000 2.583208e+000 2.321689e+000 1.880988e+000 4.679228e+000 7.118242e-001 5.843748e-001 4.407524e-001 6.732001e-001 5.067134e-001 6.466058e-001 5.004629e-001 5.211802e-001 6.948330e-001 4.732284e-001 3.751554e-001 4.083167e-001 7.893416e-001
<GCONST> 1.243208e+002
<TRANSP> 5
 0.000000e+000 1.000000e+000 0.000000e+000 0.000000e+000 0.000000e+000
 0.000000e+000 7.340086e-001 2.659914e-001 0.000000e+000 0.000000e+000
 0.000000e+000 0.000000e+000 6.230138e-001 3.769862e-001 0.000000e+000
 0.000000e+000 0.000000e+000 0.000000e+000 6.025562e-001 3.974438e-001
 0.000000e+000 0.000000e+000 0.000000e+000 0.000000e+000 0.000000e+000
<ENDHMM>
~h "v"
<BEGINHMM>
<NUMSTATES> 5
<STATE> 2
<MEAN> 39
 1.112308e+000 -5.662037e+000 -7.417436e-001 1.917955e+000 -5.247363e-001 -1.407717e+001 4.586547e+000 6.920353e+000 -9.597935e+000 -5.344889e+000 -7.389607e-001 -2.769674e+000 8.064992e+001 -1.626216e-001 6.257839e-001 2.731943e-001 4.784928e-001 5.186350e-001 6.133671e-001 2.553074e-001 3.641024e-001 -6.531339e-002 -3.956332e-001 -8.892320e-002 -5.920318e-001 -5.883526e-001 -9.113228e-002 5.634829e-002 6.499832e-002 -1.219568e-002 8.914262e-002 4.966738e-002 1.728885e-002 -7.057872e-002 5.340993e-002 9.326970e-002 9.448195e-002 -4.995519e-003 -1.607455e-002
<VARIANCE> 39
 4.104876e+000 1.845904e+001 1.362998e+001 2.709793e+001 3.012040e+001 3.233395e+001 1.372139e+001 3.849247e+001 3.601847e+001 3.196306e+001 2.261826e+001 2.630767e+001 1.986062e+001 3.295458e-001 8.847774e-001 3.667774e-001 1.290347e+000 1.684948e+000 1.519736e+000 1.019233e+000 1.922783e+000 1.611964e+000 1.988128e+000 1.653799e+000 2.118174e+000 1.292700e+000 7.909685e-002 1.475264e-001 6.210500e-002 2.263672e-001 2.377277e-001 2.716623e-001 1.626832e-001 2.604189e-001 3.219829e-001 2.711388e-001 2.919254e-001 3.094843e-001 1.734900e-001
<GCONST> 9.259024e+001
<STATE> 3
<MEAN> 39
 -2.717265e-001 2.106640e+000 1.909832e+000 2.011796e+000 2.248366e+000 -8.619500e+000 5.172493e+000 6.132559e+000 -4.670200e+000 -2.562541e+000 -2.841619e+000 -3.516198e+000 7.249084e+001 -3.884943e-001 5.280795e-001 3.062335e-001 6.436820e-001 4.122708e-001 6.593397e-001 2.177270e-001 4.065961e-001 5.424843e-001 1.046619e-001 1.426616e-001 -4.104937e-001 -7.495595e-001 -1.180865e-001 -1.527081e-001 -1.365851e-002 -6.363032e-002 -3.350823e-002 4.500581e-002 -8.992305e-002 -1.747868e-001 1.116632e-001 7.719968e-002 1.671514e-001 1.929847e-001 8.571807e-002
<VARIANCE> 39
 1.177415e+001 4.204289e+001 1.918289e+001 4.525271e+001 4.041444e+001 6.550040e+001 2.167491e+001 4.259283e+001 6.100225e+001 2.138108e+001 2.239321e+001 1.523155e+001 3.845529e+001 1.616431e+000 1.808941e+000 5.961895e-001 2.237312e+000 2.699182e+000 4.510917e+000 2.600559e+000 2.370478e+000 4.480823e+000 1.963430e+000 2.062403e+000 1.621907e+000 1.374594e+000 2.904006e-001 2.828658e-001 1.870960e-001 3.802066e-001 4.123972e-001 8.263295e-001 4.464855e-001 3.241085e-001 5.234224e-001 2.322489e-001 3.567715e-001 3.619148e-001 2.827301e-001
<GCONST> 1.118221e+002
<STATE> 4
<MEAN> 39
 -5.978675e+000 3.715638e+000 2.378952e+000 2.669116e+000 4.085105e+000 -3.182067e+000 7.525815e+000 3.071002e+000 -3.442925e+000 -1.112597e+000 -1.936694e+000 -1.167279e+000 6.667460e+001 -6.302678e-001 1.063866e-001 -5.248255e-002 -9.463236e-003 2.005440e-001 7.690886e-001 9.467430e-002 -1.640130e-001 2.292123e-001 3.232602e-001 1.147388e-001 8.350155e-002 -8.029080e-001 3.261430e-002 -5.845366e-002 2.255849e-002 6.317303e-002 5.150467e-003 -4.118423e-002 -1.156663e-001 -6.230599e-002 -8.260323e-002 2.911471e-002 -6.215957e-002 -4.574266e-002 1.130433e-002
<VARIANCE> 39
 4.480531e+001 2.521299e+001 1.773389e+001 4.430973e+001 2.911395e+001 4.355211e+001 2.508881e+001 3.063781e+001 5.888813e+001 2.345875e+001 1.959625e+001 2.015499e+001 5.550955e+001 1.522200e+000 1.252989e+000 1.710618e+000 2.161027e+000 1.730736e+000 2.371931e+000 1.585262e+000 2.014872e+000 3.129812e+000 1.675271e+000 1.443183e+000 1.825212e+000 6.390616e-001 2.703570e-001 1.896014e-001 2.993523e-001 3.561824e-001 3.028298e-001 4.053011e-001 2.942540e-001 3.702456e-001 5.603676e-001 3.376935e-001 2.336510e-001 3.316636e-001 1.147748e-001
<GCONST> 1.071830e+002
<TRANSP> 5
 0.000000e+000 1.000000e+000 0.000000e+000 0.000000e+000 0.000000e+000
 0.000000e+000 7.971488e-001 2.028512e-001 0.000000e+000 0.000000e+000
 0.000000e+000 0.000000e+000 5.630736e-001 4.369264e-001 0.000000e+000
 0.000000e+000 0.000000e+000 0.000000e+000 8.427820e-001 1.572180e-001
 0.000000e+000 0.000000e+000 0.000000e+000 0.000000e+000 0.000000e+000
<ENDHMM>
~h "w"
<BEGINHMM>
<NUMSTATES> 5
<STATE> 2
<MEAN> 39
 -9.840946e+000 -2.926373e+000 8.748325e-001 -2.478440e-001 1.397366e+000 -6.149672e+000 -4.131436e-001 2.306306e-001 -8.918658e-001 -5.246866e-001 6.620822e-001 1.699425e+000 6.572641e+001 3.275125e-001 -1.901580e-001 -2.195156e-001 -2.898158e-001 2.769548e-001 5.229093e-001 2.939805e-001 3.196977e-001 -3.997152e-001 -5.298315e-001 -8.690705e-002 -3.390473e-001 3.508872e-001 -6.584350e-003 1.561772e-001 6.706882e-002 -1.352833e-001 1.768884e-001 2.410483e-001 1.261331e-001 1.529833e-001 -1.604393e-001 -2.229304e-001 9.467496e-002 -1.029935e-001 -8.708844e-002
<VARIANCE> 39
 1.393990e+002 2.543842e+001 1.559871e+001 2.173852e+001 5.542749e+001 1.123503e+002 2.334132e+001 6.615360e+001 9.364115e+001 2.455359e+001 2.251045e+001 1.706336e+001 3.127837e+002 2.190582e+000 3.350221e+000 2.819000e+000 1.595338e+000 2.331577e+000 3.448096e+000 1.984274e+000 1.704945e+000 1.999332e+000 2.428081e+000 1.635285e+000 1.651258e+000 2.944786e+000 4.267681e-001 4.006475e-001 4.177515e-001 3.715087e-001 6.603294e-001 1.227162e+000 3.849388e-001 4.798053e-001 5.741853e-001 4.337613e-001 3.462013e-001 2.943298e-001 5.193059e-001
<GCONST> 1.217881e+002
<STATE> 3
<MEAN> 39
 -1.337742e+000 -5.274563e+000 -4.993310e-001 -6.145191e-001 1.219705e+000 -1.085192e+001 2.294463e+000 2.867999e+000 -2.981935e+000 -1.492226e+000 1.194745e-001 1.674323e+000 7.826600e+001 4.305652e-001 7.328878e-002 -1.594165e-001 -4.229974e-001 1.014968e+000 1.074338e+000 4.329380e-001 4.964207e-001 -1.538064e+000 -1.158831e+000 4.258668e-001 -7.796437e-001 2.447510e-001 -4.772245e-002 4.514846e-001 3.453872e-001 4.835899e-002 3.586610e-002 -5.246208e-002 -9.991690e-002 3.413421e-002 -1.088322e-001 -6.682273e-002 1.814750e-001 -3.065228e-001 -1.640717e-001
<VARIANCE> 39
 4.037216e+001 2.125250e+001 1.386506e+001 1.741237e+001 5.313223e+001 9.802071e+001 2.892001e+001 1.034294e+002 1.039516e+002 1.728387e+001 3.413186e+001 2.153604e+001 7.782810e+001 1.082468e+000 2.749815e+000 2.809829e+000 1.620723e+000 2.607552e+000 2.437654e+000 2.088124e+000 1.716584e+000 2.396079e+000 1.304307e+000 3.356565e+000 1.598234e+000 1.095035e+000 1.750330e-001 2.530005e-001 1.831522e-001 3.451130e-001 4.543780e-001 8.017017e-001 3.404963e-001 7.453079e-001 9.013680e-001 2.122745e-001 4.403847e-001 2.692013e-001 2.924734e-001
<GCONST> 1.142957e+002
<STATE> 4
<MEAN> 39
 -8.149227e-001 4.039814e+000 8.349578e+000 -9.711387e-001 4.419815e+000 -1.099297e+001 -2.771586e+000 3.379207e+000 -6.373640e+000 -2.035272e-001 -1.128576e+000 -4.422874e+000 7.449284e+001 1.492056e-002 1.022716e+000 9.453458e-001 4.786071e-002 -3.798178e-001 -1.719887e+000 -6.423597e-001 1.113836e+000 8.745590e-001 3.503115e-001 -3.949995e-001 -4.390937e-001 -3.439458e-001 3.705765e-002 -2.350495e-001 -1.184442e-001 1.719465e-001 -1.936748e-001 -3.764687e-001 -6.546183e-002 -1.725384e-001 5.707817e-002 1.227289e-001 1.024572e-001 1.934567e-001 1.936373e-001
<VARIANCE> 39
 1.183719e+001 4.093098e+001 3.461870e+001 1.400777e+001 1.811432e+001 7.580941e+001 2.974422e+001 4.302048e+001 5.458001e+001 3.727176e+001 3.003575e+001 2.648823e+001 3.538059e+001 7.456487e-001 2.160482e+000 1.369742e+000 2.173763e+000 2.770024e+000 4.899164e+000 2.286629e+000 4.204534e+000 5.053298e+000 4.252323e+000 2.300008e+000 3.348469e+000 1.422031e+000 7.928159e-002 2.504366e-001 2.086992e-001 3.305851e-001 6.105323e-001 7.043118e-001 4.744141e-001 6.394196e-001 8.944712e-001 9.049795e-001 3.820555e-001 4.453261e-001 1.662244e-001
<GCONST> 1.157800e+002
<TRANSP> 5
 0.000000e+000 1.000000e+000 0.000000e+000 0.000000e+000 0.000000e+000
 0.000000e+000 3.965215e-001 6.034785e-001 0.000000e+000 0.000000e+000
 0.000000e+000 0.000000e+000 3.060249e-001 6.939750e-001 0.000000e+000
 0.000000e+000 0.000000e+000 0.000000e+000 8.212475e-001 1.787525e-001
 0.000000e+000 0.000000e+000 0.000000e+000 0.000000e+000 0.000000e+000
<ENDHMM>
~h "y"
<BEGINHMM>
<NUMSTATES> 5
<STATE> 2
<MEAN> 39
 -6.227892e+000 1.950037e+000 7.562966e+000 7.387015e+000 1.250085e+001 -1.374538e+000 1.424620e+000 5.237547e+000 -5.533389e+000 -2.943503e+000 1.407817e+000 -5.367191e+000 6.937934e+001 2.542417e-001 -6.592770e-001 1.824588e+000 6.077982e-001 1.186715e+000 -7.465061e-001 -6.061530e-001 2.916898e-002 -1.348979e+000 -1.050156e+000 6.635128e-001 1.023258e-001 1.785475e+000 1.000378e-001 -5.561953e-001 -1.188848e-001 -1.236779e-001 -3.536308e-002 -3.587173e-001 -1.924480e-001 -1.252976e-001 -1.604740e-001 -6.627335e-002 2.146825e-001 7.730608e-002 3.040659e-001
<VARIANCE> 39
 4.200673e+001 1.716905e+001 3.979402e+001 6.933485e+001 5.280625e+001 3.475406e+001 1.949198e+001 2.752599e+001 3.394157e+001 3.649739e+001 2.299674e+001 2.611746e+001 7.563232e+001 2.908220e+000 2.196506e+000 4.686300e+000 6.534966e+000 3.162554e+000 3.340477e+000 2.126473e+000 2.769883e+000 3.318397e+000 2.220182e+000 2.801527e+000 3.314599e+000 1.981831e+000 3.222091e-001 3.406483e-001 6.196659e-001 6.494236e-001 4.380591e-001 3.895958e-001 3.040486e-001 5.685487e-001 5.711291e-001 4.671736e-001 3.102587e-001 3.758155e-001 3.447568e-001
<GCONST> 1.209651e+002
<STATE> 3
<MEAN> 39
 -8.178569e+000 -4.493291e+000 1.449397e+001 1.126479e+001 1.572597e+001 -3.503494e+000 4.857121e-001 1.922053e+000 -5.308014e+000 -6.776273e+000 3.264190e+000 -4.477396e+000 7.581051e+001 1.233042e-001 -1.220223e+000 -1.902686e-001 -6.382198e-001 4.136403e-001 -4.430270e-001 -8.509597e-001 -5.028842e-001 -6.985650e-001 -3.528624e-001 9.427058e-001 4.203965e-001 1.308862e+000 1.959118e-001 2.323344e-001 -5.319268e-001 -1.905944e-001 -2.016811e-001 1.572938e-002 8.795500e-002 -2.510049e-002 -6.547492e-002 2.153407e-001 -1.204285e-001 4.853093e-002 -2.080964e-001
<VARIANCE> 39
 3.209600e+001 1.200488e+001 4.833085e+001 6.485368e+001 2.176288e+001 1.764975e+001 3.790839e+001 2.515843e+001 5.056855e+001 1.756647e+001 3.748792e+001 1.644035e+001 1.874598e+001 1.533390e+000 2.205027e+000 2.760087e+000 2.287540e+000 1.813594e+000 3.067002e+000 1.981410e+000 2.385972e+000 4.527193e+000 1.846384e+000 1.970637e+000 2.049664e+000 9.014612e-001 3.043717e-001 3.904904e-001 2.452997e-001 2.887898e-001 3.621680e-001 4.954616e-001 3.859488e-001 3.467064e-001 7.572069e-001 2.204372e-001 3.492509e-001 3.109784e-001 1.724583e-001
<GCONST> 1.101085e+002
<STATE> 4
<MEAN> 39
 -1.486260e+000 -5.535985e+000 3.571919e+000 1.057369e+000 1.232132e+001 -8.322348e+000 -4.457545e+000 3.838898e+000 -1.265762e+001 -6.361597e+000 7.136008e+000 -2.408865e+000 8.096327e+001 6.835732e-001 8.534744e-002 -9.792785e-001 -1.460660e+000 -1.606591e+000 -1.229167e+000 -4.625130e-002 8.081256e-001 5.505400e-001 1.759893e-001 -4.449074e-001 1.782382e-001 3.655241e-001 -2.467704e-002 1.388281e-001 1.419234e-001 -6.043164e-002 -3.472032e-001 -1.483784e-001 1.835535e-001 2.924322e-001 5.737021e-001 1.117612e-001 -1.984323e-001 -1.887574e-001 -1.549876e-001
<VARIANCE> 39
 1.058209e+001 1.042524e+001 2.632041e+001 4.190971e+001 4.388514e+001 4.235509e+001 1.422085e+001 4.135533e+001 3.226339e+001 1.891938e+001 3.639675e+001 1.796553e+001 9.672016e+000 5.889437e-001 6.778345e-001 1.003478e+000 1.575049e+000 2.359498e+000 2.534349e+000 1.664264e+000 2.411749e+000 5.194427e+000 1.861226e+000 2.424309e+000 1.704731e+000 3.804623e-001 8.007607e-002 1.454465e-001 1.337662e-001 3.071422e-001 3.533307e-001 4.310278e-001 2.957947e-001 3.820301e-001 5.494790e-001 2.702037e-001 5.000316e-001 2.746376e-001 7.302593e-002
<GCONST> 9.967953e+001
<TRANSP> 5
 0.000000e+000 1.000000e+000 0.000000e+000 0.000000e+000 0.000000e+000
 0.000000e+000 3.624656e-001 6.375343e-001 0.000000e+000 0.000000e+000
 0.000000e+000 0.000000e+000 7.161735e-001 2.838264e-001 0.000000e+000
 0.000000e+000 0.000000e+000 0.000000e+000 8.094529e-001 1.905471e-001
 0.000000e+000 0.000000e+000 0.000000e+000 0.000000e+000 0.000000e+000
<ENDHMM>
~h "z"
<BEGINHMM>
<NUMSTATES> 5
<STATE> 2
<MEAN> 39
 -1.954902e+001 -2.328132e+000 1.411655e+001 -8.044253e+000 3.627227e+000 2.804004e+000 1.566803e+000 -1.135944e+000 -2.144216e+000 -4.189436e+000 1.200748e+000 -2.569067e+000 7.682861e+001 -3.085815e+000 -1.323676e-001 1.560025e-002 -2.569257e+000 -1.063388e+000 7.688803e-001 6.005573e-002 3.786805e-002 1.063210e+000 9.864949e-002 3.152365e-001 2.521218e-001 1.846818e-001 3.554589e-001 -1.210326e-001 -2.909811e-001 4.672388e-001 2.192158e-001 -4.752030e-001 -3.252926e-002 6.596632e-004 -3.924697e-001 3.996307e-002 -1.346696e-001 -1.446019e-001 -1.146908e-001
<VARIANCE> 39
 1.446204e+002 1.686871e+001 2.513379e+001 6.768071e+001 4.267690e+001 7.561176e+001 1.514716e+001 2.806394e+001 3.561391e+001 2.412931e+001 3.286997e+001 1.246558e+001 1.628162e+001 5.829844e+000 1.900608e+000 2.522592e+000 7.052286e+000 3.845638e+000 4.594517e+000 1.634685e+000 2.328748e+000 4.323718e+000 1.337676e+000 2.231478e+000 1.299201e+000 1.220133e+000 8.883003e-001 3.459485e-001 4.629177e-001 8.505255e-001 5.340188e-001 8.271245e-001 2.564896e-001 3.208273e-001 8.101119e-001 3.506816e-001 3.605023e-001 2.384387e-001 1.711763e-001
<GCONST> 1.182158e+002
<STATE> 3
<MEAN> 39
 -2.629759e+001 -5.404729e+000 1.209810e+001 -1.391670e+001 4.492939e-002 9.875252e-001 6.349792e-001 -5.410955e-001 -1.697931e+000 -4.153600e+000 1.680110e+000 -1.312733e+000 7.481948e+001 8.824612e-001 2.142733e-001 -2.182233e-001 6.327268e-001 3.161049e-001 2.891060e-001 4.670320e-001 -1.422466e-001 3.531174e-002 1.035464e-001 -1.192699e-001 3.248248e-001 -9.374182e-001 5.678464e-001 1.883597e-001 -1.516245e-002 5.411468e-001 2.884130e-001 4.076042e-002 2.520591e-002 1.846454e-001 -2.959529e-003 9.648533e-002 -1.135016e-001 -1.438771e-001 -2.442524e-001
<VARIANCE> 39
 1.390622e+002 1.592281e+001 2.099378e+001 4.577293e+001 2.150541e+001 4.272319e+001 2.099982e+001 1.816836e+001 2.837001e+001 1.946186e+001 2.051564e+001 1.273131e+001 1.858429e+001 3.325405e+000 1.183177e+000 1.027496e+000 1.937887e+000 2.243000e+000 1.705258e+000 1.576875e+000 1.496253e+000 1.934157e+000 1.850169e+000 1.316678e+000 1.011014e+000 6.244501e-001 3.501747e-001 1.755073e-001 2.225295e-001 3.703974e-001 3.705939e-001 2.910493e-001 2.621684e-001 3.493206e-001 4.066958e-001 3.689101e-001 2.711711e-001 3.047060e-001 9.264530e-002
<GCONST> 1.024930e+002
<STATE> 4
<MEAN> 39
 -1.495654e+001 -9.357356e-001 8.416888e+000 -4.894295e+000 3.494057e+000 1.868343e+000 2.340166e+000 1.625659e+000 -3.110025e+000 -2.930336e+000 2.916097e-001 -5.784280e-001 6.671529e+001 1.507211e+000 6.712389e-001 -1.037438e+000 2.032749e+000 8.557698e-001 4.127520e-002 -1.493008e-002 5.132141e-001 -5.505088e-002 6.645498e-001 -7.578035e-002 -4.211558e-001 -1.257040e+000 -1.521015e-001 -2.061220e-001 -5.450084e-002 7.362554e-002 -6.853896e-002 -2.123070e-001 -1.402260e-001 1.510036e-002 -1.553233e-002 1.170588e-001 -1.506664e-003 -1.499081e-001 2.163964e-001
<VARIANCE> 39
 6.637223e+001 2.385685e+001 3.865078e+001 3.767719e+001 5.361954e+001 3.954434e+001 3.166874e+001 2.523173e+001 3.679536e+001 3.951445e+001 1.873250e+001 1.690972e+001 8.191237e+001 5.363746e+000 2.364133e+000 2.367193e+000 3.501383e+000 4.712256e+000 3.784010e+000 2.399400e+000 3.076694e+000 3.632966e+000 3.803690e+000 2.307410e+000 2.147763e+000 2.182866e+000 6.943384e-001 3.567612e-001 4.293280e-001 6.398830e-001 6.867048e-001 4.639675e-001 4.607042e-001 6.282581e-001 5.956181e-001 5.344072e-001 4.637586e-001 4.241174e-001 3.546882e-001
<GCONST> 1.237805e+002
<TRANSP> 5
 0.000000e+000 1.000000e+000 0.000000e+000 0.000000e+000 0.000000e+000
 0.000000e+000 7.001697e-001 2.998303e-001 0.000000e+000 0.000000e+000
 0.000000e+000 0.000000e+000 7.435117e-001 2.564884e-001 0.000000e+000
 0.000000e+000 0.000000e+000 0.000000e+000 7.017814e-001 2.982186e-001
 0.000000e+000 0.000000e+000 0.000000e+000 0.000000e+000 0.000000e+000
<ENDHMM>
~h "aa"
<BEGINHMM>
<NUMSTATES> 5
<STATE> 2
<MEAN> 39
 8.294648e-001 -3.121161e+000 -3.550760e-001 -7.125599e+000 -4.230897e+000 -1.623963e+001 1.961829e+000 1.029683e+001 9.173981e+000 2.117722e+000 -1.372338e+000 2.652224e+000 7.924613e+001 7.547202e-001 -1.183428e+000 -1.004212e+000 -4.808373e-001 -5.758177e-001 -1.196416e+000 -1.100720e-001 1.242658e-001 -1.011126e+000 -8.774020e-002 1.911431e-001 -2.512102e-001 1.110640e+000 -2.149260e-001 3.224532e-002 -1.179559e-001 -3.757513e-002 2.984224e-001 5.568117e-001 -4.716323e-002 -2.260217e-001 -3.107550e-001 -1.457983e-001 2.802632e-001 -1.215410e-002 -2.176058e-001
<VARIANCE> 39
 4.740123e+000 1.857558e+001 1.596757e+001 1.093210e+001 1.113060e+001 2.582095e+001 1.409525e+001 2.227951e+001 2.848232e+001 1.013793e+001 1.207754e+001 9.823929e+000 1.711320e+001 6.613048e-001 1.651450e+000 1.286356e+000 1.150138e+000 1.079351e+000 2.920673e+000 1.066082e+000 1.557540e+000 1.814944e+000 1.006667e+000 1.453561e+000 9.074802e-001 9.862724e-001 1.118329e-001 3.560006e-001 2.376927e-001 2.621759e-001 1.496605e-001 3.214049e-001 2.244224e-001 2.175229e-001 3.393457e-001 1.667915e-001 2.001033e-001 2.238282e-001 1.237448e-001
<GCONST> 8.888996e+001
<STATE> 3
<MEAN> 39
 3.142582e+000 -5.917239e+000 -5.702374e+000 -9.763192e+000 -3.618625e+000 -1.666540e+001 2.343328e+000 1.092828e+001 2.589725e+000 1.472049e+000 1.055285e-001 2.121796e+000 8.115048e+001 2.629022e-001 3.113075e-001 -1.549410e-001 -4.969025e-001 1.478696e-001 1.360654e+000 2.680010e-001 -9.623170e-001 -1.498642e+000 -1.559598e-001 2.310877e-001 6.396038e-001 -2.805883e-001 -1.218456e-001 2.069206e-001 3.102869e-001 -6.910709e-003 7.283857e-002 4.042279e-001 7.177840e-002 -1.316168e-001 -1.265010e-001 -1.537744e-001 -7.222895e-002 1.318469e-001 -1.272027e-001
<VARIANCE> 39
 6.833677e+000 7.642858e+000 1.460355e+001 1.389069e+001 1.920992e+001 2.635519e+001 1.315589e+001 5.072432e+001 3.039716e+001 2.022457e+001 2.404350e+001 1.518712e+001 8.631713e+000 4.312005e-001 5.029441e-001 1.378753e+000 8.921772e-001 9.041843e-001 1.630764e+000 8.870487e-001 1.084162e+000 1.801750e+000 1.254095e+000 6.947491e-001 8.907030e-001 2.883191e-001 5.905437e-002 9.595606e-002 1.053340e-001 1.341005e-001 1.456154e-001 2.629524e-001 1.654267e-001 1.617300e-001 1.956555e-001 2.467090e-001 1.335520e-001 1.742313e-001 6.247071e-002
<GCONST> 8.039095e+001
<STATE> 4
<MEAN> 39
 3.417376e+000 -1.270890e+000 -3.187459e+000 -1.411724e+001 -2.159183e+000 -3.352711e+000 4.213895e+000 4.080400e+000 -9.025803e+000 -5.665711e+000 2.823052e+000 7.455802e+000 7.840385e+001 -6.855168e-001 1.259983e+000 9.583030e-001 1.370832e-001 1.303283e+000 2.435793e+000 3.628256e-001 -2.983361e-001 -1.511490e+000 -2.053890e+000 4.710427e-002 2.705998e-001 -9.551800e-001 -3.281243e-001 4.444624e-002 -1.061551e-002 4.239804e-001 3.266841e-001 -1.872604e-001 -1.264990e-001 1.907156e-001 6.500960e-001 1.582794e-001 -9.170949e-002 -2.666750e-001 -1.606874e-001
<VARIANCE> 39
 7.823024e+000 1.335387e+001 1.942425e+001 2.386192e+001 1.855529e+001 4.142857e+001 1.234955e+001 1.789293e+001 4.517900e+001 4.649471e+001 1.765855e+001 1.649302e+001 1.380848e+001 7.429010e-001 8.598063e-001 1.132650e+000 1.911025e+000 2.222543e+000 1.480727e+000 1.024706e+000 1.932688e+000 3.895100e+000 2.594101e+000 1.131371e+000 1.174981e+000 9.571126e-001 1.455001e-001 2.166343e-001 1.971058e-001 4.620784e-001 3.121546e-001 4.432630e-001 2.228820e-001 3.744842e-001 8.301185e-001 7.314919e-001 2.892566e-001 1.846390e-001 1.234680e-001
<GCONST> 9.937457e+001
<TRANSP> 5
 0.000000e+000 1.000000e+000 0.000000e+000 0.000000e+000 0.000000e+000
 0.000000e+000 7.614166e-001 2.385834e-001 0.000000e+000 0.000000e+000
 0.000000e+000 0.000000e+000 7.910488e-001 2.089512e-001 0.000000e+000
 0.000000e+000 0.000000e+000 0.000000e+000 7.817326e-001 2.182674e-001
 0.000000e+000 0.000000e+000 0.000000e+000 0.000000e+000 0.000000e+000
<ENDHMM>
~h "ae"
<BEGINHMM>
<NUMSTATES> 5
<STATE> 2
<MEAN> 39
 -9.329878e+000 6.654267e-001 3.164687e+000 -1.371115e+000 -3.130693e+000 -5.725583e+000 5.678339e+000 9.795372e-001 -4.043989e-001 -2.689105e+000 -3.748007e+000 5.107835e+000 6.551563e+001 -2.076898e-002 -6.868545e-001 -1.759043e+000 -4.655096e-001 -1.446510e+000 -6.539683e-001 2.166398e-001 7.542716e-001 6.192839e-001 1.053975e+000 3.467139e-001 2.987130e-001 -9.481316e-001 5.375818e-002 -1.356592e-001 -5.718463e-002 3.250135e-001 1.416173e-001 1.659842e-001 9.712949e-002 3.354697e-001 2.639240e-001 3.780578e-001 -1.026627e-002 -5.664190e-001 5.408282e-002
<VARIANCE> 39
 2.257627e+001 1.597259e+001 2.861189e+001 1.710981e+001 3.362412e+001 3.310423e+001 3.033816e+001 1.682891e+001 3.028906e+001 2.323574e+001 3.808807e+001 2.052425e+001 6.457438e+001 3.806985e+000 2.459558e+000 1.841601e+000 2.782176e+000 3.936765e+000 4.797014e+000 3.542325e+000 1.842715e+000 3.178471e+000 2.892020e+000 3.862265e+000 4.470921e+000 4.890929e+000 7.252026e-001 4.197354e-001 4.058346e-001 6.936094e-001 8.286237e-001 1.062300e+000 7.783519e-001 3.910625e-001 6.266285e-001 7.318540e-001 8.313877e-001 1.101152e+000 1.255472e+000
<GCONST> 1.253199e+002
<STATE> 3
<MEAN> 39
 -7.312316e+000 -3.672596e+000 -2.882537e+000 -2.008480e+000 -7.810673e+000 -7.394440e+000 9.022922e+000 6.165559e+000 4.067409e+000 1.973257e+000 -2.526149e+000 3.727877e+000 6.640973e+001 1.781790e+000 -1.067843e+000 -7.233331e-001 4.602182e-002 -5.713821e-001 -1.294882e+000 1.344071e+000 1.227864e+000 3.635284e-001 7.962551e-001 -2.945339e-001 6.053404e-002 1.895339e+000 2.169766e-001 9.190767e-002 2.320900e-001 3.227906e-002 4.512136e-001 -6.222131e-002 -1.372801e-001 -1.405547e-001 -3.109239e-001 -2.527228e-001 -3.938540e-002 8.820678e-002 3.955037e-001
<VARIANCE> 39
 3.434809e+001 2.548839e+001 1.393569e+001 1.604210e+001 4.212183e+001 3.812794e+001 4.396255e+001 3.057634e+001 3.207079e+001 1.445025e+001 3.268487e+001 1.300789e+001 6.874722e+001 3.833531e+000 2.751621e+000 1.479234e+000 1.511793e+000 3.801653e+000 4.030136e+000 4.400975e+000 3.129042e+000 3.108549e+000 1.952937e+000 2.918370e+000 1.817631e+000 6.699614e+000 6.671702e-001 5.558301e-001 2.650960e-001 3.171347e-001 6.616280e-001 7.173966e-001 1.010928e+000 5.536425e-001 6.409088e-001 3.318838e-001 6.673256e-001 3.830543e-001 8.777657e-001
<GCONST> 1.209191e+002
<STATE> 4
<MEAN> 39
 5.540379e-001 -7.834472e+000 -4.934757e+000 -3.734548e-001 -6.035978e-001 -1.256198e+001 8.981952e+000 5.859122e+000 -2.515522e+000 2.355651e+000 1.646324e+000 4.344788e+000 7.944150e+001 2.681756e-001 3.439168e-001 2.419139e-001 6.273904e-001 1.034561e+000 2.927475e-001 -6.223909e-002 -4.824706e-001 -9.487796e-001 -8.645540e-002 4.009722e-001 -4.895518e-001 2.496330e-001 -2.768401e-001 3.047132e-001 2.641047e-001 3.257092e-001 1.470005e-001 4.841096e-001 -9.364042e-002 -1.698437e-001 2.036616e-002 -5.033815e-002 -2.041449e-001 -3.719288e-001 -5.482615e-001
<VARIANCE> 39
 5.659024e+000 1.627633e+001 1.457395e+001 1.610272e+001 3.044543e+001 2.538483e+001 4.048075e+001 3.257861e+001 3.697238e+001 2.059690e+001 4.312447e+001 1.434594e+001 2.106452e+001 1.193215e+000 2.024027e+000 1.621006e+000 2.589124e+000 2.283121e+000 3.488973e+000 1.679420e+000 3.075996e+000 1.825286e+000 1.385071e+000 1.828480e+000 2.401160e+000 2.518134e+000 2.068995e-001 2.322455e-001 1.954032e-001 2.881085e-001 2.513692e-001 5.072953e-001 3.428807e-001 4.666772e-001 3.365836e-001 3.067530e-001 5.183060e-001 3.472809e-001 2.409078e-001
<GCONST> 1.057539e+002
<TRANSP> 5
 0.000000e+000 1.000000e+000 0.000000e+000 0.000000e+000 0.000000e+000
 0.000000e+000 6.891079e-001 3.108921e-001 0.000000e+000 0.000000e+000
 0.000000e+000 0.000000e+000 7.452615e-001 2.547384e-001 0.000000e+000
 0.000000e+000 0.000000e+000 0.000000e+000 8.410257e-001 1.589743e-001
 0.000000e+000 0.000000e+000 0.000000e+000 0.000000e+000 0.000000e+000
<ENDHMM>
~h "ah"
<BEGINHMM>
<NUMSTATES> 5
<STATE> 2
<MEAN> 39
 -4.616262e+000 6.104611e+000 8.135246e+000 4.593575e+000 2.621864e+000 -9.103904e+000 1.125193e+000 7.293567e+000 -2.690350e+000 -2.118882e+000 -3.515427e+000 -4.173613e+000 6.678400e+001 5.742872e-001 -4.504152e-001 6.305184e-001 1.460650e-001 -9.342730e-001 -1.978371e+000 -2.374086e-001 1.466331e-001 -3.800665e-001 -3.194616e-001 -5.374998e-001 -1.333916e-001 1.047004e+000 7.750807e-002 -3.549231e-001 -2.223173e-001 -3.755955e-001 -3.976687e-001 -3.549917e-001 1.133498e-001 4.095873e-002 -1.426710e-002 -2.182666e-004 1.624356e-001 3.010388e-001 4.543577e-001
<VARIANCE> 39
 3.511541e+001 7.047682e+001 5.173253e+001 6.705818e+001 3.760771e+001 7.552637e+001 5.329438e+001 5.273832e+001 5.870092e+001 3.103489e+001 5.830436e+001 3.657968e+001 5.705473e+001 3.860003e+000 2.290189e+000 2.214853e+000 2.306349e+000 4.741151e+000 1.077860e+001 6.212706e+000 3.283372e+000 5.784248e+000 3.526358e+000 2.854937e+000 1.973241e+000 3.734011e+000 5.781099e-001 3.344504e-001 4.160796e-001 5.713766e-001 6.100560e-001 1.248744e+000 8.678284e-001 8.227143e-001 1.046720e+000 5.937726e-001 6.477330e-001 5.283452e-001 6.767308e-001
<GCONST> 1.339463e+002
<STATE> 3
<MEAN> 39
 -1.514607e+000 -1.906445e+000 5.395518e+000 2.973745e-001 -4.763599e+000 -1.857123e+001 3.895679e+000 8.275475e+000 -3.802133e+000 -2.538996e+000 -5.466871e+000 -9.309909e-001 7.597398e+001 7.715305e-001 -1.298370e+000 -9.949763e-001 -1.424985e+000 -1.029971e+000 -2.140537e+000 1.897311e-001 2.503951e-001 3.733119e-001 4.222143e-001 5.275579e-001 1.490636e+000 2.183450e+000 -1.634254e-001 2.286971e-003 -1.839452e-001 -9.681847e-003 4.256703e-001 5.663629e-001 -3.202672e-002 1.141395e-001 2.356811e-001 1.380964e-001 9.578349e-002 -6.327686e-002 -2.512458e-001
<VARIANCE> 39
 1.073060e+001 3.164196e+001 3.727390e+001 3.701980e+001 5.990508e+001 6.209737e+001 6.121483e+001 3.876091e+001 4.116068e+001 3.258782e+001 3.931455e+001 3.690010e+001 3.977749e+001 1.970121e+000 1.517259e+000 2.565355e+000 4.070856e+000 4.714400e+000 6.181654e+000 2.778435e+000 4.594066e+000 4.420662e+000 3.428182e+000 3.668325e+000 3.935830e+000 5.704244e+000 3.130288e-001 1.912562e-001 4.327006e-001 6.442639e-001 6.515926e-001 9.681200e-001 7.266166e-001 5.954391e-001 6.471912e-001 6.331248e-001 4.566755e-001 6.247209e-001 7.379081e-001
<GCONST> 1.275396e+002
<STATE> 4
<MEAN> 39
 3.283664e-001 -6.029758e+000 8.896027e-001 -3.499081e+000 -2.826859e+000 -2.182289e+001 5.890734e+000 1.165359e+001 -3.800526e+000 -1.500758e+000 -2.576294e+000 2.959819e-001 8.275105e+001 -3.985751e-002 1.450915e-001 -4.197026e-002 4.162984e-001 6.241407e-001 7.859794e-001 2.598444e-001 -4.668297e-001 -5.853008e-001 -2.571748e-001 3.210515e-001 -2.417791e-001 -1.931178e-001 -6.702239e-002 1.713225e-001 1.507831e-001 2.131257e-001 6.952914e-002 2.717661e-001 -2.865569e-002 -9.963608e-002 -4.629195e-002 -8.793023e-002 -2.354855e-003 -1.430709e-001 -2.543575e-001
<VARIANCE> 39
 2.981898e+000 9.772982e+000 1.543604e+001 1.029828e+001 2.351936e+001 5.279701e+001 3.079118e+001 6.624422e+001 3.668864e+001 1.454910e+001 3.153861e+001 2.470299e+001 1.210365e+001 2.403391e-001 9.098198e-001 8.708180e-001 1.271326e+000 1.241850e+000 1.867030e+000 1.618745e+000 1.983762e+000 1.558887e+000 1.091625e+000 1.108357e+000 1.095449e+000 8.707614e-001 5.079298e-002 7.765496e-002 9.690770e-002 1.617591e-001 1.799689e-001 2.712540e-001 2.111394e-001 3.285345e-001 3.100098e-001 2.109596e-001 1.850983e-001 1.821905e-001 1.061385e-001
<GCONST> 8.773201e+001
<TRANSP> 5
 0.000000e+000 1.000000e+000 0.000000e+000 0.000000e+000 0.000000e+000
 0.000000e+000 6.385768e-001 3.614232e-001 0.000000e+000 0.000000e+000
 0.000000e+000 0.000000e+000 7.111755e-001 2.888245e-001 0.000000e+000
 0.000000e+000 0.000000e+000 0.000000e+000 9.047859e-001 9.521414e-002
 0.000000e+000 0.000000e+000 0.000000e+000 0.000000e+000 0.000000e+000
<ENDHMM>
~h "ao"
<BEGINHMM>
<NUMSTATES> 5
<STATE> 2
<MEAN> 39
 -7.046406e-001 -2.078071e+000 2.908758e+000 -3.093134e+000 -5.201992e+000 -2.182611e+001 -4.311314e+000 9.483685e+000 2.390998e+000 -1.084501e+000 5.138810e-001 -2.301288e+000 7.946918e+001 1.775055e+000 -6.721705e-001 -4.448284e-001 3.070857e-002 -1.776694e+000 -4.438852e+000 -4.661432e-001 1.612865e+000 1.941484e+000 1.124581e+000 3.845541e-001 -6.246854e-001 1.529675e+000 -9.810145e-001 -1.844280e-001 -1.226774e-001 -8.959436e-002 3.145430e-001 7.485836e-001 3.543227e-001 -5.101457e-001 5.184278e-002 1.059515e-002 1.507802e-001 1.695509e-001 -1.677326e-001
<VARIANCE> 39
 3.268933e+001 1.581121e+001 2.615108e+001 1.466661e+001 2.495240e+001 8.246828e+001 4.402275e+001 2.406342e+001 2.701439e+001 2.562175e+001 1.527977e+001 1.538018e+001 6.451812e+001 4.373475e+000 8.843870e-001 2.180327e+000 1.335075e+000 2.228503e+000 7.261443e+000 2.845173e+000 2.247190e+000 2.918756e+000 2.627005e+000 1.203658e+000 1.258167e+000 3.859788e+000 1.247703e+000 2.834755e-001 4.365904e-001 4.841845e-001 3.421707e-001 1.414530e+000 8.099151e-001 4.034162e-001 4.098911e-001 5.013053e-001 2.607565e-001 1.642428e-001 3.635828e-001
<GCONST> 1.153162e+002
<STATE> 3
<MEAN> 39
 1.998371e+000 -3.630485e+000 6.432639e-001 -4.240526e+000 -7.644628e+000 -2.754207e+001 -5.328092e+000 1.137334e+001 6.544645e+000 1.435177e+000 3.427016e+000 -4.129334e+000 8.233765e+001 6.058926e-002 5.988333e-002 1.662777e-002 -1.830469e-002 -5.925077e-001 -7.795954e-001 3.703408e-002 1.168962e-001 5.877841e-001 6.516253e-001 1.377530e-002 7.680905e-002 -1.080084e-001 -9.918087e-002 9.702151e-002 1.314164e-001 4.822298e-003 1.750284e-001 5.260071e-001 4.843791e-002 -1.839812e-001 -4.639374e-001 -1.053663e-001 -1.159126e-001 7.304147e-002 -1.425648e-001
<VARIANCE> 39
 6.367507e+000 9.092972e+000 1.431141e+001 9.037864e+000 1.438213e+001 4.002998e+001 3.309158e+001 2.382530e+001 8.761037e+000 1.067640e+001 2.012399e+001 1.958683e+001 1.136417e+001 1.418243e-001 1.540121e-001 5.962945e-001 4.387880e-001 9.426880e-001 1.909709e+000 9.546313e-001 9.773597e-001 2.061867e+000 6.161594e-001 7.965345e-001 6.556046e-001 2.679632e-001 7.019179e-002 4.023724e-002 8.819891e-002 1.235817e-001 1.605010e-001 3.918422e-001 1.892490e-001 2.066225e-001 2.380908e-001 1.561057e-001 8.044881e-002 1.059983e-001 7.650031e-002
<GCONST> 7.317270e+001
<STATE> 4
<MEAN> 39
 7.663784e-001 -1.025924e+000 3.164481e+000 -5.244532e+000 -1.163739e+001 -2.442487e+001 -1.553895e+000 1.032232e+001 3.555186e+000 3.926071e+000 1.729272e+000 -1.459514e+000 7.882427e+001 -1.662179e-001 3.236140e-001 1.025292e-001 -8.447808e-002 1.883871e-001 1.093414e+000 4.304597e-001 -1.691082e-001 -3.958585e-001 -2.314782e-001 -2.149260e-001 1.122143e-001 -4.840425e-001 -8.793643e-002 5.017286e-002 1.614717e-002 4.973198e-002 6.598508e-002 1.624690e-001 3.327445e-002 6.455006e-003 1.315857e-002 -1.001692e-001 2.241611e-003 1.279771e-002 -8.862329e-002
<VARIANCE> 39
 1.233492e+001 3.254248e+001 2.697432e+001 1.839903e+001 3.190511e+001 1.122833e+002 3.011255e+001 3.010917e+001 2.596365e+001 1.515280e+001 2.590989e+001 1.866805e+001 4.075102e+001 5.196033e-001 8.052381e-001 9.474307e-001 9.357764e-001 1.286396e+000 2.284021e+000 1.146847e+000 9.953816e-001 1.361197e+000 1.136721e+000 1.006768e+000 7.921706e-001 4.596951e-001 9.409770e-002 1.001563e-001 1.079629e-001 1.648572e-001 2.022867e-001 3.438976e-001 1.573565e-001 1.658311e-001 2.375777e-001 1.642862e-001 1.763814e-001 1.386169e-001 7.287265e-002
<GCONST> 8.981013e+001
<TRANSP> 5
 0.000000e+000 1.000000e+000 0.000000e+000 0.000000e+000 0.000000e+000
 0.000000e+000 5.366150e-001 4.633850e-001 0.000000e+000 0.000000e+000
 0.000000e+000 0.000000e+000 8.014982e-001 1.985018e-001 0.000000e+000
 0.000000e+000 0.000000e+000 0.000000e+000 9.236149e-001 7.638516e-002
 0.000000e+000 0.000000e+000 0.000000e+000 0.000000e+000 0.000000e+000
<ENDHMM>
~h "aw"
<BEGINHMM>
<NUMSTATES> 5
<STATE> 2
<MEAN> 39
 -1.835217e+001 -6.146116e-001 7.277225e+000 -6.061759e+000 6.022535e+000 -3.141401e+000 1.130020e+000 4.148476e+000 8.645414e-001 -3.429099e+000 5.161104e-001 -1.263046e+000 7.098055e+001 1.048609e+000 2.267475e-001 3.498781e-001 6.625632e-002 -5.224733e-001 -5.605632e-001 -1.532593e-001 3.497387e-002 -1.408315e-001 -6.682171e-001 -2.476875e-001 -1.980757e-001 6.393534e-001 5.023115e-001 4.650778e-002 6.316084e-003 9.862931e-002 -3.812589e-001 -3.557057e-001 4.613547e-003 2.509421e-001 -8.186664e-002 -1.915375e-001 1.391243e-003 -1.132027e-001 2.599478e-001
<VARIANCE> 39
 1.135403e+002 1.832818e+001 2.470339e+001 2.183642e+001 1.820745e+001 7.899837e+001 4.309860e+001 6.670364e+001 1.881769e+001 2.472093e+001 1.623632e+001 3.466658e+001 3.611060e+001 9.058922e+000 1.741602e+000 1.704344e+000 2.053924e+000 3.062649e+000 7.122489e+000 4.804428e+000 5.339431e+000 1.794000e+000 3.074365e+000 1.362577e+000 2.540485e+000 3.320712e+000 1.007978e+000 2.581428e-001 2.766056e-001 3.342537e-001 5.754619e-001 1.378322e+000 8.987560e-001 8.469548e-001 3.346961e-001 5.374813e-001 2.420672e-001 4.007915e-001 7.071027e-001
<GCONST> 1.227668e+002
<STATE> 3
<MEAN> 39
 -5.977146e+000 -3.307378e-002 6.850389e+000 -5.508107e+000 -2.545005e+000 -1.062469e+001 6.490831e-001 6.288768e+000 5.722094e-002 -9.313297e+000 -1.333389e-001 -2.507659e+000 7.852342e+001 4.318833e+000 -1.013837e+000 -5.680687e-001 4.233684e-001 -3.494511e+000 -4.938810e+000 -7.271310e-002 2.678701e+000 4.926731e-002 -1.026288e+000 5.817164e-001 -9.641750e-001 2.858007e+000 -8.348211e-001 -5.310184e-001 -2.721198e-001 -2.918047e-001 3.323058e-002 -8.886855e-002 2.521482e-001 2.100350e-001 5.414867e-001 9.466376e-001 1.807723e-001 9.263553e-002 -2.185571e-001
<VARIANCE> 39
 5.462066e+001 2.289816e+001 1.226708e+001 1.056308e+001 4.960774e+001 8.787194e+001 2.534529e+001 4.300373e+001 1.691273e+001 2.638991e+001 1.209778e+001 9.845236e+000 3.106121e+001 6.867750e+000 2.121006e+000 1.527523e+000 1.685731e+000 4.462896e+000 3.478802e+000 2.601750e+000 3.323163e+000 2.239687e+000 5.398928e+000 1.662574e+000 1.247037e+000 1.276012e+000 9.036331e-001 3.163344e-001 2.407579e-001 3.033257e-001 7.631896e-001 1.159594e+000 4.724267e-001 8.459963e-001 3.600141e-001 6.630772e-001 3.173686e-001 2.290461e-001 5.855430e-001
<GCONST> 1.158557e+002
<STATE> 4
<MEAN> 39
 -1.034598e+000 -4.070075e+000 8.424051e+000 -3.760487e+000 -9.543850e+000 -2.300968e+001 2.282241e+000 1.468602e+001 3.197808e-001 -5.903141e+000 -2.534233e+000 -5.040359e+000 8.033415e+001 3.196605e-002 4.576604e-002 1.648271e-001 2.774350e-001 3.673951e-001 3.161644e-001 1.234396e-001 -1.231485e-001 -6.052023e-001 1.894215e-002 -3.532794e-001 2.458382e-002 -1.838405e-001 -1.117391e-001 1.234556e-001 1.707991e-002 3.792309e-002 1.892269e-001 3.039849e-001 3.171115e-002 -2.211614e-001 -7.881551e-002 -2.914192e-002 8.313837e-003 6.067819e-002 -1.165993e-001
<VARIANCE> 39
 5.136482e+000 1.050416e+001 1.265758e+001 1.303738e+001 5.887759e+001 5.318377e+001 1.485235e+001 1.374296e+001 5.320886e+001 3.309027e+001 2.728206e+001 1.511739e+001 1.932796e+001 3.824491e-001 1.076189e+000 8.772935e-001 8.862186e-001 3.452791e+000 4.486528e+000 1.341864e+000 2.175418e+000 2.928896e+000 2.823343e+000 1.215403e+000 1.671158e+000 1.445583e+000 1.399030e-001 2.042048e-001 1.633089e-001 1.777762e-001 3.731552e-001 6.282294e-001 2.709523e-001 3.533483e-001 4.578290e-001 4.532592e-001 2.302622e-001 3.130444e-001 3.689297e-001
<GCONST> 1.003670e+002
<TRANSP> 5
 0.000000e+000 1.000000e+000 0.000000e+000 0.000000e+000 0.000000e+000
 0.000000e+000 8.393557e-001 1.606443e-001 0.000000e+000 0.000000e+000
 0.000000e+000 0.000000e+000 7.182621e-001 2.817379e-001 0.000000e+000
 0.000000e+000 0.000000e+000 0.000000e+000 9.472117e-001 5.278835e-002
 0.000000e+000 0.000000e+000 0.000000e+000 0.000000e+000 0.000000e+000
<ENDHMM>
~h "ax"
<BEGINHMM>
<NUMSTATES> 5
<STATE> 2
<MEAN> 39
 -5.671016e+000 -8.487394e-001 3.414706e+000 -3.481227e+000 -3.172053e-001 -5.062904e+000 4.782949e+000 6.502103e+000 -2.869151e+000 -5.686128e+000 -3.404149e-001 1.729389e+000 7.357105e+001 5.804909e-001 -1.379226e-001 8.695838e-002 5.352173e-001 -6.763891e-001 -1.122866e+000 1.233111e-001 1.534797e-001 1.343589e-001 2.534512e-001 -4.324193e-001 1.793301e-002 8.046218e-001 2.999764e-003 -4.292311e-002 -7.225317e-002 -6.511994e-003 1.313508e-002 1.050262e-001 -9.658052e-002 -9.483543e-002 9.999418e-002 1.656830e-001 4.469075e-002 -7.876982e-002 -4.633223e-002
<VARIANCE> 39
 5.834455e+001 3.282389e+001 1.831764e+001 4.334673e+001 6.181903e+001 9.228839e+001 2.962851e+001 4.112259e+001 8.423796e+001 9.101854e+001 2.816538e+001 3.056865e+001 7.540371e+001 8.340359e+000 3.021503e+000 2.032460e+000 4.821652e+000 4.678993e+000 7.441964e+000 3.246958e+000 2.333035e+000 7.376436e+000 4.226844e+000 2.694436e+000 1.924426e+000 6.528695e+000 1.016150e+000 6.174669e-001 3.489220e-001 7.601292e-001 7.936893e-001 9.860641e-001 6.710175e-001 4.697313e-001 1.164789e+000 7.554645e-001 5.163366e-001 3.182863e-001 8.314937e-001
<GCONST> 1.344269e+002
<STATE> 3
<MEAN> 39
 -2.023311e+000 -1.344055e+000 3.679103e+000 -1.757768e+000 -6.535956e-001 -7.604401e+000 4.655202e+000 6.998272e+000 -6.208179e+000 -6.639634e+000 -1.779323e-001 8.308750e-001 7.721908e+001 -2.429132e-001 1.025402e-001 4.290178e-003 6.460892e-001 9.414987e-002 2.206651e-001 2.269855e-001 -2.273864e-001 3.713081e-001 1.000930e+000 -1.535350e-001 -1.060999e-001 -6.098743e-001 -3.659811e-001 1.131071e-001 -1.589797e-002 -7.590981e-002 2.524060e-001 5.011269e-001 -3.413094e-002 -2.113196e-001 3.739378e-001 2.117028e-001 5.891849e-002 -8.844012e-002 -4.405112e-001
<VARIANCE> 39
 2.410497e+001 2.957493e+001 1.309039e+001 3.642283e+001 5.325484e+001 8.901099e+001 2.226640e+001 4.322046e+001 5.410836e+001 7.375172e+001 3.006959e+001 2.660750e+001 4.675740e+001 3.089945e+000 1.991899e+000 1.817315e+000 2.851057e+000 2.267539e+000 4.796074e+000 2.492443e+000 2.863966e+000 5.280248e+000 4.267384e+000 2.091058e+000 1.767403e+000 3.819311e+000 4.291945e-001 3.882610e-001 2.893936e-001 7.531735e-001 3.891360e-001 8.219657e-001 4.031945e-001 3.709455e-001 7.315628e-001 5.765896e-001 4.844519e-001 4.134631e-001 4.296666e-001
<GCONST> 1.224736e+002
<STATE> 4
<MEAN> 39
 -3.838900e+000 -1.316096e+000 1.422970e+000 -1.121098e+000 -2.750003e+000 -7.119596e+000 6.019411e+000 5.535766e+000 -2.160723e+000 -1.809325e+000 -1.745426e+000 2.436273e+000 7.087539e+001 -3.670879e-001 3.055899e-001 -4.245796e-002 2.861495e-001 3.489997e-001 5.508483e-001 1.102838e-001 -2.857257e-002 2.382984e-001 2.809598e-001 9.552713e-002 -1.298270e-001 -7.649605e-001 -7.405844e-002 5.784353e-002 2.147790e-002 5.014544e-002 7.931473e-002 1.011897e-001 -1.467939e-002 -2.383205e-004 2.736844e-002 -2.031708e-002 1.032549e-002 -6.429043e-002 -9.957073e-002
<VARIANCE> 39
 4.182359e+001 3.365217e+001 2.227725e+001 2.361550e+001 5.673227e+001 1.185142e+002 2.708677e+001 4.267065e+001 7.705238e+001 3.801179e+001 2.165121e+001 1.814904e+001 1.196542e+002 9.499394e-001 1.376514e+000 9.515141e-001 1.417038e+000 1.530182e+000 2.247349e+000 1.734489e+000 1.637475e+000 2.176308e+000 1.657108e+000 1.349187e+000 1.172568e+000 1.127147e+000 1.071865e-001 1.733880e-001 1.658643e-001 2.799006e-001 2.493441e-001 3.926499e-001 2.990912e-001 2.524742e-001 3.458008e-001 2.848350e-001 2.411390e-001 1.978565e-001 1.701238e-001
<GCONST> 1.054119e+002
<TRANSP> 5
 0.000000e+000 1.000000e+000 0.000000e+000 0.000000e+000 0.000000e+000
 0.000000e+000 5.171955e-001 4.828045e-001 0.000000e+000 0.000000e+000
 0.000000e+000 0.000000e+000 3.111105e-001 6.888895e-001 0.000000e+000
 0.000000e+000 0.000000e+000 0.000000e+000 8.205759e-001 1.794241e-001
 0.000000e+000 0.000000e+000 0.000000e+000 0.000000e+000 0.000000e+000
<ENDHMM>
~h "ay"
<BEGINHMM>
<NUMSTATES> 5
<STATE> 2
<MEAN> 39
 -7.584288e+000 -1.304847e+000 -5.186868e-002 -1.217192e+000 -1.136536e+000 -6.662527e+000 4.259761e+000 7.666509e+000 4.377018e+000 5.240110e-001 1.657689e+000 4.686647e-001 6.958109e+001 1.884888e+000 -1.258479e+000 -1.321019e+000 -9.185895e-001 -2.329589e+000 -2.618736e+000 1.102355e+000 1.425174e+000 4.528142e-001 -1.875311e-001 -6.539354e-001 4.012286e-001 2.081378e+000 3.643258e-001 -3.689398e-001 -2.576422e-001 3.030012e-001 -5.385913e-003 -3.390749e-002 2.086795e-001 -3.987837e-002 -7.680994e-002 1.362453e-001 -3.875038e-001 -9.313045e-002 1.413296e-001
<VARIANCE> 39
 6.730194e+001 2.341919e+001 1.653809e+001 3.132827e+001 4.614791e+001 1.079499e+002 3.054147e+001 3.784487e+001 5.207183e+001 3.344099e+001 4.126534e+001 1.570015e+001 1.205875e+002 4.383180e+000 2.455634e+000 2.609376e+000 5.672750e+000 2.905229e+000 5.794980e+000 2.419625e+000 3.566136e+000 4.119032e+000 2.513959e+000 4.177597e+000 3.658009e+000 3.385418e+000 7.236803e-001 3.516216e-001 3.209834e-001 6.953706e-001 7.140739e-001 1.463561e+000 5.025678e-001 5.067455e-001 6.402478e-001 6.378364e-001 6.730232e-001 6.332315e-001 6.524903e-001
<GCONST> 1.295505e+002
<STATE> 3
<MEAN> 39
 1.913001e+000 -8.062154e+000 -5.412684e+000 -2.375251e+000 -8.262713e+000 -1.698228e+001 8.927058e+000 1.191093e+001 6.116348e+000 -5.514356e-002 -2.963022e+000 1.095868e+000 8.031490e+001 9.096957e-001 -1.595127e+000 -1.208171e+000 -6.010138e-001 -3.043415e-001 -3.706798e-001 5.603193e-001 3.284498e-001 5.392489e-001 -1.748406e-001 -6.170451e-001 3.325551e-001 1.501373e+000 -4.539327e-001 3.470616e-001 2.152739e-001 1.354083e-001 6.698825e-001 8.008538e-001 -2.979145e-001 -4.635219e-001 -2.310828e-001 5.457074e-002 2.194889e-001 -1.323831e-001 -5.061536e-001
<VARIANCE> 39
 8.145517e+000 1.652461e+001 1.231569e+001 1.237283e+001 4.432712e+001 4.989444e+001 3.050760e+001 3.834864e+001 5.026217e+001 1.330017e+001 3.596262e+001 1.509511e+001 2.747343e+001 1.708245e+000 1.366454e+000 8.107553e-001 1.023652e+000 2.050746e+000 4.035456e+000 1.555321e+000 2.477128e+000 1.563982e+000 1.559321e+000 1.474051e+000 9.381233e-001 3.121978e+000 3.201610e-001 2.578840e-001 1.721781e-001 3.985834e-001 2.703926e-001 6.048238e-001 2.927003e-001 3.722208e-001 4.009643e-001 2.616252e-001 3.665054e-001 2.577662e-001 2.120185e-001
<GCONST> 1.035986e+002
<STATE> 4
<MEAN> 39
 2.012391e+000 -1.025735e+001 -6.796530e+000 -2.140342e+000 6.305224e-002 -1.369507e+001 4.217768e+000 3.668831e+000 -1.840251e+000 9.170871e-001 2.651411e+000 2.890484e+000 8.276340e+001 -2.062061e-001 2.108159e-001 4.480719e-001 4.618207e-001 1.015073e+000 3.585433e-001 -7.146749e-001 -1.132941e+000 -1.180632e+000 8.595760e-002 5.236028e-001 7.436512e-002 -1.605994e-001 -5.693139e-002 1.315508e-001 1.769758e-001 8.440385e-002 1.904414e-002 2.047297e-002 -2.078081e-002 3.290401e-003 -4.542735e-002 -6.269941e-002 -6.021772e-002 -9.805272e-002 -9.010968e-002
<VARIANCE> 39
 4.904436e+000 1.038386e+001 1.990581e+001 2.387621e+001 4.857394e+001 2.630364e+001 3.870504e+001 8.960256e+001 7.142007e+001 1.746111e+001 4.188774e+001 2.009976e+001 1.168529e+001 2.666779e-001 5.175138e-001 1.402622e+000 1.231774e+000 1.124925e+000 1.418445e+000 1.610550e+000 1.952389e+000 1.885607e+000 1.124347e+000 2.606580e+000 1.214094e+000 2.914731e-001 3.744858e-002 6.817125e-002 1.387944e-001 1.489457e-001 1.462700e-001 2.408069e-001 2.384827e-001 2.835492e-001 2.739892e-001 1.902090e-001 4.205242e-001 2.099690e-001 3.036078e-002
<GCONST> 8.948287e+001
<TRANSP> 5
 0.000000e+000 1.000000e+000 0.000000e+000 0.000000e+000 0.000000e+000
 0.000000e+000 6.554363e-001 3.445636e-001 0.000000e+000 0.000000e+000
 0.000000e+000 0.000000e+000 7.020880e-001 2.979119e-001 0.000000e+000
 0.000000e+000 0.000000e+000 0.000000e+000 9.253892e-001 7.461077e-002
 0.000000e+000 0.000000e+000 0.000000e+000 0.000000e+000 0.000000e+000
<ENDHMM>
~h "ch"
<BEGINHMM>
<NUMSTATES> 5
<STATE> 2
<MEAN> 39
 -1.347232e+001 -6.472397e-002 9.171623e-001 -1.875022e+000 4.055463e+000 2.553385e+000 3.728163e+000 3.502459e+000 4.724880e-001 -4.384560e-001 8.621848e-001 4.064827e+000 6.568201e+001 -1.474225e+000 1.301184e-001 1.151906e+000 6.119705e-001 1.027571e+000 5.679812e-001 6.654699e-001 1.010172e-001 1.269120e+000 -1.856570e-001 -4.678627e-001 -3.674466e-001 3.658019e-001 1.284035e-001 -2.698283e-001 -3.113073e-001 1.955172e-002 -1.359038e-001 -1.181742e-001 -1.352059e-001 2.060210e-001 5.100224e-003 -1.158579e-001 -1.293408e-002 -2.243520e-003 1.248361e-001
<VARIANCE> 39
 6.442710e+001 2.805272e+001 3.085396e+001 1.954957e+001 2.762848e+001 3.156602e+001 1.564278e+001 1.671329e+001 1.542986e+001 2.029373e+001 1.968339e+001 2.550541e+001 7.330005e+001 2.418584e+000 1.900006e+000 3.002802e+000 2.009517e+000 3.107031e+000 1.688729e+000 1.683408e+000 2.032466e+000 5.372519e+000 4.077958e+000 1.617282e+000 2.207923e+000 3.771824e+000 2.313286e-001 4.158257e-001 4.777641e-001 5.598571e-001 7.350716e-001 6.756780e-001 4.414372e-001 4.258441e-001 3.426375e-001 5.732679e-001 2.844960e-001 3.637680e-001 4.983560e-001
<GCONST> 1.154499e+002
<STATE> 3
<MEAN> 39
 -1.619263e+001 1.045752e-002 1.695999e+000 6.919312e-002 6.246680e+000 4.288302e+000 4.863534e+000 5.008570e+000 3.175608e+000 -4.998555e-001 6.028056e-002 1.614256e+000 6.613586e+001 -5.506782e-001 -8.874563e-001 -2.383749e-001 1.378193e-002 -1.420613e-001 1.260047e-001 -3.260774e-001 3.057823e-001 7.017899e-001 1.476987e-001 -2.102617e-001 -4.550491e-003 -3.167069e-002 1.807026e-001 -3.115181e-001 -3.702209e-001 -3.244955e-001 -3.227257e-001 -3.079724e-001 -3.824450e-001 -2.899539e-001 -3.444293e-001 -1.442380e-001 8.665351e-002 2.553156e-001 7.887237e-002
<VARIANCE> 39
 4.602888e+001 3.515559e+001 2.463951e+001 1.927024e+001 2.401843e+001 3.257972e+001 1.393134e+001 1.518985e+001 2.269303e+001 2.740279e+001 1.690687e+001 2.948311e+001 6.130407e+001 3.207022e+000 2.466906e+000 3.091890e+000 2.328717e+000 3.474574e+000 2.173846e+000 2.188773e+000 2.457165e+000 2.786140e+000 3.372172e+000 2.036602e+000 3.214549e+000 2.161071e+000 4.340226e-001 6.671059e-001 6.481348e-001 7.883528e-001 7.934370e-001 3.913200e-001 3.727973e-001 5.026639e-001 6.261349e-001 8.877944e-001 4.522265e-001 7.100771e-001 8.961282e-001
<GCONST> 1.200551e+002
<STATE> 4
<MEAN> 39
 -1.838588e+001 -8.947483e+000 -1.182289e+000 -2.677568e+000 4.621136e+000 1.660859e+000 -2.243799e-001 -6.981483e-001 1.979190e+000 -3.165689e+000 -4.358212e-001 4.210409e+000 7.051711e+001 -5.132890e-001 -8.967962e-001 1.234536e-001 2.032911e-001 -5.260488e-002 -4.565883e-001 -5.305588e-001 -8.031222e-001 3.457815e-002 -2.316460e-001 1.532789e-001 1.476290e-001 1.046722e+000 8.193737e-002 1.159250e-001 1.240236e-001 8.569100e-002 9.654138e-002 1.872584e-002 3.090807e-002 1.684566e-002 -4.514999e-002 7.627557e-002 4.812532e-002 -6.131642e-002 2.357318e-002
<VARIANCE> 39
 2.739040e+001 5.588227e+001 3.922361e+001 4.761620e+001 1.617379e+001 2.225443e+001 1.969260e+001 5.074627e+001 3.885365e+001 1.926679e+001 2.126516e+001 1.422608e+001 8.670207e+001 2.921743e+000 5.069481e+000 5.482202e+000 2.553859e+000 2.208658e+000 2.246689e+000 2.153066e+000 3.846883e+000 1.865522e+000 2.605104e+000 2.308032e+000 1.568228e+000 6.003407e+000 5.262282e-001 6.751056e-001 1.064394e+000 4.629390e-001 3.982454e-001 4.071510e-001 4.214163e-001 5.588425e-001 3.566357e-001 5.243825e-001 4.952460e-001 2.502626e-001 7.885217e-001
<GCONST> 1.208291e+002
<TRANSP> 5
 0.000000e+000 1.000000e+000 0.000000e+000 0.000000e+000 0.000000e+000
 0.000000e+000 3.150874e-001 6.849125e-001 0.000000e+000 0.000000e+000
 0.000000e+000 0.000000e+000 6.446251e-001 3.553749e-001 0.000000e+000
 0.000000e+000 0.000000e+000 0.000000e+000 8.939638e-001 1.060362e-001
 0.000000e+000 0.000000e+000 0.000000e+000 0.000000e+000 0.000000e+000
<ENDHMM>
~h "dh"
<BEGINHMM>
<NUMSTATES> 5
<STATE> 2
<MEAN> 39
 -1.746110e+001 -2.262800e-001 3.145140e+000 -4.533175e+000 8.462148e-001 1.650390e+000 2.887612e+000 3.984699e+000 8.228051e-001 -1.398043e+000 1.464571e+000 -6.318207e-001 6.236859e+001 7.443160e-001 6.942018e-001 5.913849e-001 1.041928e-002 1.003048e+000 8.049119e-001 8.659500e-001 2.362161e-001 1.257903e-001 -3.379126e-001 4.606447e-001 -5.267148e-001 4.315759e-001 5.970427e-001 2.551495e-001 1.209582e-001 1.099917e+000 3.764065e-001 1.118100e-001 1.327245e-001 -6.951503e-002 -7.924980e-002 -9.867181e-002 4.151811e-002 2.107175e-001 1.935735e-001
<VARIANCE> 39
 4.800528e+001 1.565085e+001 2.704813e+001 3.163463e+001 1.169969e+001 6.806959e+000 4.510010e+000 1.002337e+001 2.303585e+001 4.374104e+001 1.502253e+001 9.842973e+000 1.113935e+002 1.691549e+000 1.490435e+000 3.772408e+000 3.164691e+000 1.427501e+000 2.167390e+000 1.611976e+000 1.572428e+000 1.971882e+000 1.275129e+000 1.428130e+000 8.979601e-001 1.902937e+000 8.860271e-001 2.480772e-001 8.422160e-001 6.961516e-001 3.934759e-001 2.570317e-001 1.717806e-001 2.306295e-001 3.941274e-001 1.045966e+000 2.565268e-001 1.781147e-001 5.133558e-001
<GCONST> 1.049351e+002
<STATE> 3
<MEAN> 39
 -1.525938e+001 2.036781e+000 2.208384e+000 -2.151496e-001 2.861995e+000 5.852448e+000 6.085661e+000 4.715473e+000 2.135741e+000 9.431212e-001 3.812940e+000 -1.273293e-001 5.980110e+001 2.312159e+000 1.167079e+000 1.845058e+000 2.056115e+000 1.005094e+000 7.617787e-001 4.187452e-001 -2.015071e-001 -1.667542e+000 -9.278741e-001 -3.904288e-001 -8.595554e-001 1.174673e+000 3.631790e-001 -5.243994e-002 3.261960e-001 1.134165e-001 4.028288e-002 -2.609326e-001 -2.066140e-001 -2.388667e-001 -4.942465e-001 -6.304804e-001 -2.017171e-001 -8.447130e-002 5.787071e-001
<VARIANCE> 39
 3.707281e+001 1.451826e+001 2.379182e+001 2.402666e+001 1.069001e+001 2.006955e+001 1.058055e+001 1.193351e+001 2.465217e+001 3.550412e+001 1.644633e+001 6.385255e+000 8.376566e+001 2.089594e+000 1.947809e+000 4.019223e+000 1.706533e+000 2.148856e+000 1.682867e+000 7.880756e-001 8.151052e-001 1.318044e+000 4.580470e+000 7.642212e-001 1.243262e+000 2.875979e+000 4.484278e-001 2.374420e-001 6.668643e-001 5.478013e-001 2.504516e-001 2.983623e-001 2.432671e-001 2.180664e-001 3.958274e-001 5.726226e-001 2.317416e-001 3.032671e-001 3.244527e-001
<GCONST> 1.033102e+002
<STATE> 4
<MEAN> 39
 -6.072678e+000 8.924115e-002 7.580953e+000 6.003804e-001 4.746274e+000 7.700706e-002 4.072244e+000 2.801699e+000 -4.907283e+000 -9.323056e+000 2.705070e-001 -2.090754e+000 7.685181e+001 4.450609e-001 -6.935315e-001 1.707971e-003 -4.867638e-001 -5.207264e-002 -9.410365e-001 -1.877698e-001 8.381318e-002 -2.604635e-001 -6.991504e-001 -1.623431e-001 1.061717e-001 1.546351e+000 -2.309189e-001 -7.146797e-002 -1.604882e-001 -1.118822e-001 -1.113854e-001 1.750204e-002 -2.636200e-002 5.698874e-002 1.858449e-001 2.009699e-001 -6.060474e-003 1.071287e-001 -2.283968e-001
<VARIANCE> 39
 2.412328e+001 3.491434e+001 1.105084e+001 1.702401e+001 1.707922e+001 9.953484e+001 2.176086e+001 1.258261e+001 2.217641e+001 3.231004e+001 9.484779e+000 9.058397e+000 1.049064e+002 3.699445e+000 1.080774e+000 1.360386e+000 1.626322e+000 1.640256e+000 3.547751e+000 1.491125e+000 1.462117e+000 3.541266e+000 3.598652e+000 9.006443e-001 6.342353e-001 2.236765e+000 6.704106e-001 2.822256e-001 3.346811e-001 3.250347e-001 2.760727e-001 5.866056e-001 2.810564e-001 2.890849e-001 6.855189e-001 6.552547e-001 1.735288e-001 1.358860e-001 2.708232e-001
<GCONST> 1.058247e+002
<TRANSP> 5
 0.000000e+000 1.000000e+000 0.000000e+000 0.000000e+000 0.000000e+000
 0.000000e+000 2.893139e-001 7.106861e-001 0.000000e+000 0.000000e+000
 0.000000e+000 0.000000e+000 4.646613e-001 5.353386e-001 0.000000e+000
 0.000000e+000 0.000000e+000 0.000000e+000 8.917576e-001 1.082424e-001
 0.000000e+000 0.000000e+000 0.000000e+000 0.000000e+000 0.000000e+000
<ENDHMM>
~h "ea"
<BEGINHMM>
<NUMSTATES> 5
<STATE> 2
<MEAN> 39
 4.356041e-001 -9.487291e+000 -8.543302e-001 -3.225277e+000 -5.888567e+000 -1.710638e+001 9.525338e+000 1.003616e+001 3.957309e+000 4.014572e-001 -4.837861e+000 3.908525e+000 8.221954e+001 3.121610e-001 -7.601703e-001 -4.856279e-001 -1.379436e-001 2.663805e-001 -1.017039e-001 3.234876e-001 -1.690873e-001 -5.916308e-001 -2.851180e-001 -6.240278e-002 4.064844e-001 7.750461e-001 -4.752946e-002 1.760883e-001 7.152557e-005 1.588501e-001 2.066507e-001 1.040752e-001 -4.051517e-002 -3.384372e-002 -1.085169e-001 -7.866868e-002 1.327397e-001 -1.054563e-003 -2.263732e-001
<VARIANCE> 39
 7.660977e+000 7.575856e+000 9.282744e+000 1.332504e+001 6.531891e+001 8.830950e+000 5.434144e+001 4.974571e+001 4.918878e+001 6.806938e+000 2.382374e+001 5.308322e+000 1.412104e+001 4.699443e-001 8.721792e-001 1.221092e+000 5.269208e-001 1.280282e+000 1.430723e+000 9.618040e-001 1.650066e+000 6.793183e-001 7.359442e-001 1.128322e+000 1.084313e+000 3.142838e-001 4.971159e-002 1.117781e-001 7.798462e-002 1.545585e-001 2.395107e-001 9.129499e-002 3.505224e-001 9.002164e-002 1.093414e-001 9.972947e-002 1.228931e-001 1.057889e-001 8.653993e-002
<GCONST> 7.800381e+001
<STATE> 3
<MEAN> 39
 -1.875803e+000 -7.212828e+000 -2.436327e+000 -9.136203e-001 -2.803499e+000 -1.437191e+001 1.156513e+001 4.290323e+000 -2.054328e+000 -4.545751e+000 -2.410581e+000 4.081275e+000 7.977904e+001 6.990808e-002 -1.435728e-001 -3.125295e-001 1.177914e-001 1.736094e-001 2.134289e-001 -2.528773e-001 -4.472115e-001 -1.122298e-001 3.318792e-002 4.567401e-001 2.682166e-001 1.315752e-002 -1.000936e-002 2.589354e-002 1.837533e-002 2.765142e-002 2.167793e-002 3.636677e-002 -9.865472e-002 -4.335137e-002 3.810638e-002 2.444690e-002 6.992447e-002 -2.675494e-002 -4.326604e-003
<VARIANCE> 39
