~o
<STREAMINFO> 1 39
<VECSIZE> 39<NULLD><MFCC_D_A_0><DIAGC>
~h "b"
<BEGINHMM>
<NUMSTATES> 5
<STATE> 2
<MEAN> 39
 -4.052040e+000 2.735979e+000 2.048522e+000 -2.298714e+000 2.293841e+000 -6.306415e+000 -2.019848e-001 7.119710e+000 6.550968e-002 -1.444019e+000 1.908395e+000 -1.795817e+000 7.053750e+001 3.633037e-001 1.012685e-001 -6.363357e-001 -1.538464e+000 -4.227375e-001 5.627965e-001 -3.649073e-001 -5.713607e-001 3.251481e-002 -6.713794e-001 -4.535291e-002 5.118526e-001 5.995970e-001 2.478051e-001 -2.640736e-001 1.703664e-001 -3.172681e-002 1.522201e-002 -1.534291e-001 4.470973e-002 -1.357950e-002 -3.283607e-001 -1.012875e-001 3.112189e-002 -6.375601e-002 3.676889e-001
<VARIANCE> 39
 7.196202e+001 5.929890e+001 4.362564e+001 8.249854e+001 2.678596e+001 8.028417e+001 3.996766e+001 2.678888e+001 3.839059e+001 3.659192e+001 1.728087e+001 2.540270e+001 1.050636e+002 2.259270e+000 2.630011e+000 1.606379e+000 9.253629e+000 2.732835e+000 5.869154e+000 5.564124e+000 2.219603e+000 4.015303e+000 2.525783e+000 2.145200e+000 1.507763e+000 6.292640e+000 4.223732e-001 4.561955e-001 2.062406e-001 9.647149e-001 4.114972e-001 8.734315e-001 6.703195e-001 4.472717e-001 7.760276e-001 4.300650e-001 4.130828e-001 2.089970e-001 9.064965e-001
<GCONST> 1.268259e+002
<STATE> 3
<MEAN> 39
 -1.818453e+000 1.588254e+000 1.246269e+000 -6.375493e+000 9.707754e-001 -6.493038e+000 -7.619451e-001 6.406312e+000 -1.923052e+000 -3.937153e+000 2.077838e+000 -4.517550e-001 7.352596e+001 7.851853e-001 -4.890931e-001 -1.867825e-001 -9.374843e-001 -2.588469e-001 -1.423177e-001 3.024364e-002 -1.783036e-001 -1.016670e+000 -7.595955e-001 1.135830e-001 3.181739e-001 1.160545e+000 1.731456e-002 -1.346216e-001 1.280722e-001 2.584083e-001 7.622017e-002 -8.066962e-002 1.216518e-001 7.382832e-002 -2.120226e-001 8.024886e-002 3.128177e-002 -5.804804e-002 4.422016e-002
<VARIANCE> 39
 6.678587e+001 5.139330e+001 3.490428e+001 7.696726e+001 1.855522e+001 8.078542e+001 3.424678e+001 2.805773e+001 5.748876e+001 5.425657e+001 2.676116e+001 2.284610e+001 8.241987e+001 2.924463e+000 3.022070e+000 1.430205e+000 6.566475e+000 2.396082e+000 8.328949e+000 3.696182e+000 2.641655e+000 4.516606e+000 3.240144e+000 2.807101e+000 1.532556e+000 7.865997e+000 5.066922e-001 4.035723e-001 2.054990e-001 8.096082e-001 3.582889e-001 1.266346e+000 6.897162e-001 4.308749e-001 7.401225e-001 5.183947e-001 4.598810e-001 2.169749e-001 9.502537e-001
<GCONST> 1.279654e+002
<STATE> 4
<MEAN> 39
 2.099614e+000 1.020545e+000 -4.727548e-001 -1.074157e+001 -2.436628e-001 -3.568897e+000 1.320301e+000 4.994048e+000 -9.348764e+000 -7.538262e+000 2.459681e+000 2.128054e+000 7.627554e+001 -9.018084e-002 4.606149e-002 1.591857e-001 2.878420e-001 1.696683e-001 4.874531e-001 4.982981e-001 -1.481332e-001 -6.350509e-001 -4.820137e-001 -1.049003e-001 2.675368e-001 3.849308e-003 -1.482315e-001 2.459101e-002 9.791657e-002 2.368502e-001 9.942108e-002 -2.356128e-002 -3.474646e-002 -2.985602e-002 2.110557e-001 1.111581e-001 -6.543480e-002 -7.345106e-002 -9.841018e-002
<VARIANCE> 39
 3.188476e+001 4.259026e+001 2.385010e+001 7.629451e+001 2.333735e+001 7.215444e+001 2.380471e+001 3.862917e+001 6.306450e+001 7.111505e+001 3.657916e+001 1.981853e+001 4.236983e+001 1.650547e+000 1.927746e+000 8.822381e-001 2.794721e+000 1.846673e+000 3.114731e+000 2.069544e+000 2.090347e+000 3.371317e+000 1.945486e+000 2.237176e+000 1.143632e+000 3.217773e+000 2.709689e-001 2.438961e-001 1.264787e-001 4.326201e-001 2.390602e-001 6.069137e-001 3.899895e-001 4.144236e-001 5.511892e-001 4.206489e-001 3.485652e-001 2.051001e-001 4.274306e-001
<GCONST> 1.143291e+002
<TRANSP> 5
 0.000000e+000 1.000000e+000 0.000000e+000 0.000000e+000 0.000000e+000
 0.000000e+000 6.009347e-001 3.990653e-001 0.000000e+000 0.000000e+000
 0.000000e+000 0.000000e+000 6.090481e-001 3.909520e-001 0.000000e+000
 0.000000e+000 0.000000e+000 0.000000e+000 7.675111e-001 2.324889e-001
 0.000000e+000 0.000000e+000 0.000000e+000 0.000000e+000 0.000000e+000
<ENDHMM>
~h "d"
<BEGINHMM>
<NUMSTATES> 5
<STATE> 2
<MEAN> 39
 -5.942416e+000 1.926841e+000 5.411446e+000 6.861796e+000 7.400537e+000 -9.611161e-001 4.247662e+000 3.679954e+000 -3.957600e+000 -2.750902e+000 -3.231592e+000 -3.854377e+000 6.818336e+001 -7.267364e-001 1.454833e-001 2.567094e-001 -2.605956e-001 -1.944382e-001 4.365437e-001 -2.733701e-002 -4.786993e-001 5.722842e-001 -3.893239e-001 -3.592696e-002 3.272990e-001 -1.756927e-001 1.672762e-002 -2.886795e-001 -3.988141e-002 -2.947495e-001 -3.200213e-001 -2.758884e-001 -7.260817e-002 -1.661407e-001 -4.382948e-002 -6.948643e-002 1.751957e-001 2.031552e-001 3.854679e-001
<VARIANCE> 39
 3.527777e+001 3.804984e+001 2.621013e+001 7.558680e+001 5.862988e+001 4.766338e+001 3.051012e+001 3.703904e+001 3.874088e+001 4.350515e+001 3.628817e+001 4.387592e+001 7.411057e+001 1.918555e+000 2.998627e+000 2.091666e+000 4.980359e+000 4.303844e+000 4.843908e+000 2.855478e+000 3.199631e+000 3.894519e+000 3.591371e+000 2.518398e+000 3.242898e+000 5.030443e+000 3.691417e-001 4.840584e-001 4.572666e-001 7.504157e-001 8.437561e-001 8.131812e-001 5.255237e-001 6.790481e-001 7.543942e-001 6.192290e-001 5.221176e-001 5.539734e-001 8.059109e-001
<GCONST> 1.298246e+002
<STATE> 3
<MEAN> 39
 -7.763093e+000 9.677020e-001 5.252244e+000 4.889558e+000 5.142260e+000 -9.540963e-001 3.676076e+000 1.977772e+000 -2.716427e+000 -3.238350e+000 -2.346047e+000 -2.075887e+000 6.856893e+001 -3.375404e-001 -6.098081e-001 4.274235e-002 -7.871119e-001 -7.287970e-001 -3.902631e-001 -2.811135e-001 -7.165339e-001 1.376472e-001 -2.640778e-001 3.261108e-001 6.660483e-001 7.546020e-001 2.350177e-001 -1.999076e-001 -5.917068e-002 -3.648888e-002 4.944491e-002 -3.143675e-001 -9.088518e-002 2.818581e-002 -2.392837e-001 7.382708e-002 1.208761e-001 5.699717e-002 2.632698e-001
<VARIANCE> 39
 3.796020e+001 3.297926e+001 2.804380e+001 6.184424e+001 5.731893e+001 4.171785e+001 2.948946e+001 4.097382e+001 3.871708e+001 3.899618e+001 3.431635e+001 4.309422e+001 6.331619e+001 3.302712e+000 3.720486e+000 3.332572e+000 5.823647e+000 6.137007e+000 6.190728e+000 3.111099e+000 4.118759e+000 4.926899e+000 3.789740e+000 2.784713e+000 3.720794e+000 8.463235e+000 5.671140e-001 5.953770e-001 5.982328e-001 9.326162e-001 1.115780e+000 1.019832e+000 5.725832e-001 8.006241e-001 8.945150e-001 7.311125e-001 5.260694e-001 6.209295e-001 1.086946e+000
<GCONST> 1.351942e+002
<STATE> 4
<MEAN> 39
 -7.393851e+000 -5.773047e-001 4.529567e+000 3.630963e+000 3.874559e+000 -2.485062e+000 2.973881e+000 5.660496e-001 -3.762822e+000 -2.816755e+000 -1.072059e+000 -3.778445e-001 6.971549e+001 1.359123e-001 -5.166217e-001 -1.027056e-001 -4.045389e-001 -5.080466e-002 -6.340183e-001 -4.116367e-001 -2.690571e-001 -2.234818e-001 1.689976e-002 5.151101e-001 4.743070e-001 6.926582e-001 1.468849e-001 -2.602639e-002 -1.054476e-001 4.494897e-002 9.816679e-002 -1.486279e-001 -1.715082e-002 1.369280e-001 -1.227675e-001 7.281680e-002 4.711325e-002 -3.666924e-002 3.403452e-002
<VARIANCE> 39
 3.554276e+001 2.879250e+001 2.588905e+001 4.675023e+001 4.939532e+001 4.645462e+001 3.384904e+001 3.891083e+001 4.458759e+001 3.408854e+001 3.292953e+001 4.064940e+001 6.987961e+001 3.878678e+000 3.039250e+000 3.494172e+000 4.788164e+000 5.005832e+000 6.065426e+000 2.690138e+000 3.966980e+000 5.049420e+000 3.196733e+000 2.611656e+000 3.187683e+000 9.093148e+000 6.211979e-001 5.353091e-001 5.497009e-001 8.532164e-001 8.477322e-001 1.060578e+000 5.027943e-001 6.890330e-001 9.037802e-001 6.218211e-001 4.985256e-001 5.703809e-001 1.149383e+000
<GCONST> 1.328550e+002
<TRANSP> 5
 0.000000e+000 1.000000e+000 0.000000e+000 0.000000e+000 0.000000e+000
 0.000000e+000 5.454407e-001 4.545592e-001 0.000000e+000 0.000000e+000
 0.000000e+000 0.000000e+000 6.115006e-001 3.884994e-001 0.000000e+000
 0.000000e+000 0.000000e+000 0.000000e+000 6.427268e-001 3.572732e-001
 0.000000e+000 0.000000e+000 0.000000e+000 0.000000e+000 0.000000e+000
<ENDHMM>
~h "f"
<BEGINHMM>
<NUMSTATES> 5
<STATE> 2
<MEAN> 39
 -2.190218e+001 -1.876724e-001 1.701921e+000 -4.467300e+000 4.654509e+000 1.141816e+000 4.683777e+000 -1.850595e+000 5.087414e+000 -1.550851e+000 7.342902e-001 2.371786e+000 6.706597e+001 -1.614447e+000 3.128738e-002 1.752485e-001 -7.285119e-001 9.260762e-002 4.252829e-002 1.829656e-001 -6.087727e-001 7.150925e-001 -1.226818e-002 -1.588039e-001 2.556660e-001 6.355087e-001 7.893705e-002 -4.040902e-002 -3.998701e-002 3.974580e-002 -7.252080e-002 -1.062600e-001 -6.787710e-002 8.712734e-002 -1.235734e-001 2.375391e-002 6.563167e-002 -5.761023e-002 4.976064e-002
<VARIANCE> 39
 6.928113e+001 1.360629e+001 2.831450e+001 2.714140e+001 2.096827e+001 1.856360e+001 2.302917e+001 2.262299e+001 2.938222e+001 1.673247e+001 1.471087e+001 1.091726e+001 4.407624e+001 4.196387e+000 1.752965e+000 1.348548e+000 1.501679e+000 1.438244e+000 2.009327e+000 2.183417e+000 2.335872e+000 2.962123e+000 1.713823e+000 1.457341e+000 1.357571e+000 2.918363e+000 6.986143e-001 3.137825e-001 2.499892e-001 2.344413e-001 2.364250e-001 4.052882e-001 4.637490e-001 4.266608e-001 5.532411e-001 3.094350e-001 2.774830e-001 2.456206e-001 2.816080e-001
<GCONST> 1.071843e+002
<STATE> 3
<MEAN> 39
 -2.595586e+001 2.738857e-001 2.647797e+000 -6.528293e+000 4.849286e+000 5.645545e-001 4.606645e+000 -3.324867e+000 6.437589e+000 -1.591002e+000 5.371512e-001 2.385745e+000 7.026514e+001 4.149386e-001 2.564852e-002 -5.891985e-002 -1.800555e-001 -3.529291e-001 -4.256868e-001 -3.945841e-001 -1.561471e-002 3.519240e-002 -1.177465e-002 -1.160617e-001 -2.965405e-002 4.854583e-001 6.880030e-001 -6.489427e-002 -4.141730e-002 1.747297e-001 -9.495907e-002 -2.794709e-001 -1.680565e-001 2.125626e-001 -1.909861e-001 -8.025522e-003 2.894479e-002 -7.359268e-002 1.246689e-001
<VARIANCE> 39
 5.856029e+001 1.483981e+001 2.334288e+001 1.940973e+001 1.652700e+001 1.976797e+001 2.330130e+001 1.894580e+001 2.199911e+001 1.663628e+001 1.257739e+001 8.924512e+000 2.794798e+001 1.247239e+001 1.508364e+000 1.602899e+000 1.794916e+000 1.766781e+000 3.611392e+000 2.981272e+000 2.506923e+000 2.791675e+000 1.420932e+000 1.187580e+000 1.046970e+000 1.966508e+000 9.314086e-001 3.155295e-001 2.993582e-001 2.500437e-001 2.741227e-001 6.423229e-001 5.409867e-001 4.774408e-001 5.645840e-001 3.082641e-001 2.278367e-001 2.022468e-001 3.372007e-001
<GCONST> 1.077012e+002
<STATE> 4
<MEAN> 39
 -1.996325e+001 3.371942e-001 2.270959e+000 -6.108202e+000 3.196564e+000 -2.551203e+000 2.261761e+000 -2.337360e+000 5.728739e+000 -1.880924e+000 3.292778e-001 1.658605e+000 7.278749e+001 2.980735e+000 -3.026924e-001 -2.567026e-001 4.416441e-001 -6.208636e-001 -1.669011e+000 -9.665166e-001 7.156399e-001 -6.043296e-001 -1.094512e-002 4.462988e-002 -2.572222e-001 1.049413e+000 2.223296e-001 -1.660784e-001 -4.794182e-002 6.822786e-002 9.756626e-003 -2.592638e-001 1.869188e-002 1.600742e-001 -1.045459e-001 1.040472e-002 7.915405e-002 -1.984926e-002 1.419662e-001
<VARIANCE> 39
 1.746308e+002 1.916191e+001 2.132069e+001 2.113417e+001 2.500999e+001 6.728602e+001 3.788282e+001 3.109941e+001 2.870187e+001 1.648252e+001 1.431754e+001 1.102613e+001 3.245366e+001 1.325019e+001 2.420571e+000 2.389331e+000 2.041832e+000 2.174104e+000 7.612020e+000 3.813738e+000 3.183709e+000 4.835895e+000 1.795610e+000 1.357717e+000 1.200272e+000 2.895676e+000 2.172638e+000 4.272967e-001 3.270406e-001 3.099075e-001 3.085338e-001 9.482070e-001 7.976779e-001 4.591559e-001 7.902200e-001 3.173153e-001 2.358383e-001 2.426877e-001 4.005628e-001
<GCONST> 1.194172e+002
<TRANSP> 5
 0.000000e+000 1.000000e+000 0.000000e+000 0.000000e+000 0.000000e+000
 0.000000e+000 8.070916e-001 1.929084e-001 0.000000e+000 0.000000e+000
 0.000000e+000 0.000000e+000 7.745984e-001 2.254016e-001 0.000000e+000
 0.000000e+000 0.000000e+000 0.000000e+000 7.881039e-001 2.118961e-001
 0.000000e+000 0.000000e+000 0.000000e+000 0.000000e+000 0.000000e+000
<ENDHMM>
~h "g"
<BEGINHMM>
<NUMSTATES> 5
<STATE> 2
<MEAN> 39
 -1.054866e+001 -1.585786e+000 1.532635e+000 4.898661e-002 2.591187e+000 -4.188194e+000 1.650425e+000 3.584352e+000 -8.082810e-001 -5.242408e-001 9.521774e-001 -2.066207e-001 6.765821e+001 -9.893719e-004 4.370896e-003 2.936753e-003 2.220659e-004 -1.452296e-003 2.421478e-003 2.489385e-003 -1.808583e-003 5.971932e-003 7.519505e-003 2.081149e-003 -2.299958e-003 -4.203989e-003 -3.621638e-004 -1.582598e-004 1.881931e-006 5.654030e-005 1.692552e-004 -8.328774e-005 3.929678e-005 4.017694e-004 -1.114904e-004 -2.048553e-004 -4.068760e-004 -2.945460e-004 3.621318e-005
<VARIANCE> 39
 9.135812e+001 2.887483e+001 4.226160e+001 6.238169e+001 6.069485e+001 9.299902e+001 3.194183e+001 4.381314e+001 5.450549e+001 3.285281e+001 2.566368e+001 2.867520e+001 1.318052e+002 2.569712e+000 1.521167e+000 1.581442e+000 2.587913e+000 2.205244e+000 3.263843e+000 1.867969e+000 2.134392e+000 2.626611e+000 1.814599e+000 1.585299e+000 1.594031e+000 2.266492e+000 3.224897e-001 2.537074e-001 2.677446e-001 3.972005e-001 3.461457e-001 4.922199e-001 3.355976e-001 3.652808e-001 4.410312e-001 3.359493e-001 2.872582e-001 2.768144e-001 3.396754e-001
<GCONST> 1.175893e+002
<STATE> 3
<MEAN> 39
 -1.054866e+001 -1.585786e+000 1.532635e+000 4.898661e-002 2.591187e+000 -4.188194e+000 1.650425e+000 3.584352e+000 -8.082810e-001 -5.242408e-001 9.521774e-001 -2.066207e-001 6.765821e+001 -9.893719e-004 4.370896e-003 2.936753e-003 2.220659e-004 -1.452296e-003 2.421478e-003 2.489385e-003 -1.808583e-003 5.971932e-003 7.519505e-003 2.081149e-003 -2.299958e-003 -4.203989e-003 -3.621638e-004 -1.582598e-004 1.881931e-006 5.654030e-005 1.692552e-004 -8.328774e-005 3.929678e-005 4.017694e-004 -1.114904e-004 -2.048553e-004 -4.068760e-004 -2.945460e-004 3.621318e-005
<VARIANCE> 39
 9.135812e+001 2.887483e+001 4.226160e+001 6.238169e+001 6.069485e+001 9.299902e+001 3.194183e+001 4.381314e+001 5.450549e+001 3.285281e+001 2.566368e+001 2.867520e+001 1.318052e+002 2.569712e+000 1.521167e+000 1.581442e+000 2.587913e+000 2.205244e+000 3.263843e+000 1.867969e+000 2.134392e+000 2.626611e+000 1.814599e+000 1.585299e+000 1.594031e+000 2.266492e+000 3.224897e-001 2.537074e-001 2.677446e-001 3.972005e-001 3.461457e-001 4.922199e-001 3.355976e-001 3.652808e-001 4.410312e-001 3.359493e-001 2.872582e-001 2.768144e-001 3.396754e-001
<GCONST> 1.175893e+002
<STATE> 4
<MEAN> 39
 -1.054866e+001 -1.585786e+000 1.532635e+000 4.898661e-002 2.591187e+000 -4.188194e+000 1.650425e+000 3.584352e+000 -8.082810e-001 -5.242408e-001 9.521774e-001 -2.066207e-001 6.765821e+001 -9.893719e-004 4.370896e-003 2.936753e-003 2.220659e-004 -1.452296e-003 2.421478e-003 2.489385e-003 -1.808583e-003 5.971932e-003 7.519505e-003 2.081149e-003 -2.299958e-003 -4.203989e-003 -3.621638e-004 -1.582598e-004 1.881931e-006 5.654030e-005 1.692552e-004 -8.328774e-005 3.929678e-005 4.017694e-004 -1.114904e-004 -2.048553e-004 -4.068760e-004 -2.945460e-004 3.621318e-005
<VARIANCE> 39
 9.135812e+001 2.887483e+001 4.226160e+001 6.238169e+001 6.069485e+001 9.299902e+001 3.194183e+001 4.381314e+001 5.450549e+001 3.285281e+001 2.566368e+001 2.867520e+001 1.318052e+002 2.569712e+000 1.521167e+000 1.581442e+000 2.587913e+000 2.205244e+000 3.263843e+000 1.867969e+000 2.134392e+000 2.626611e+000 1.814599e+000 1.585299e+000 1.594031e+000 2.266492e+000 3.224897e-001 2.537074e-001 2.677446e-001 3.972005e-001 3.461457e-001 4.922199e-001 3.355976e-001 3.652808e-001 4.410312e-001 3.359493e-001 2.872582e-001 2.768144e-001 3.396754e-001
<GCONST> 1.175893e+002
<TRANSP> 5
 0.000000e+000 1.000000e+000 0.000000e+000 0.000000e+000 0.000000e+000
 0.000000e+000 6.000000e-001 4.000000e-001 0.000000e+000 0.000000e+000
 0.000000e+000 0.000000e+000 6.000000e-001 4.000000e-001 0.000000e+000
 0.000000e+000 0.000000e+000 0.000000e+000 7.000000e-001 3.000000e-001
 0.000000e+000 0.000000e+000 0.000000e+000 0.000000e+000 0.000000e+000
<ENDHMM>
~h "k"
<BEGINHMM>
<NUMSTATES> 5
<STATE> 2
<MEAN> 39
 -1.145509e+001 -8.192419e-001 2.035952e+000 -3.307680e+000 7.031666e-001 -3.357412e+000 2.455677e+000 3.889872e+000 4.936319e-001 -9.826642e-001 1.658408e+000 -4.568140e-001 6.841145e+001 -6.934472e-001 -2.102892e-001 -8.462370e-001 -1.198367e+000 -6.012468e-001 5.705423e-001 1.822087e-001 -3.218620e-001 2.866021e-001 -3.850650e-001 -2.439614e-001 5.598910e-001 -1.382073e-001 1.073433e-001 -1.587973e-001 7.365476e-002 -1.502691e-002 8.754096e-002 -2.168878e-001 -1.585703e-001 -4.612587e-002 -3.993539e-002 -2.806851e-002 7.470689e-003 2.842115e-002 4.278190e-001
<VARIANCE> 39
 3.766327e+001 2.929574e+001 4.280516e+001 8.599376e+001 8.318645e+001 6.895620e+001 4.595042e+001 5.507214e+001 5.117575e+001 3.514705e+001 3.486540e+001 3.136436e+001 7.371497e+001 3.028074e+000 2.780203e+000 4.926538e+000 8.013127e+000 5.920491e+000 5.554577e+000 4.838771e+000 4.364460e+000 3.189178e+000 4.502902e+000 3.578992e+000 2.475979e+000 1.063965e+001 3.752087e-001 4.512519e-001 1.142468e+000 1.536354e+000 1.034153e+000 9.563857e-001 9.338199e-001 7.858550e-001 6.096368e-001 1.018437e+000 6.919549e-001 5.146641e-001 2.041191e+000
<GCONST> 1.394079e+002
<STATE> 3
<MEAN> 39
 -1.281289e+001 -2.505638e+000 5.087392e-001 -5.181009e+000 5.376227e-001 -2.544676e+000 1.876380e+000 1.939993e+000 7.585758e-001 -2.201565e+000 1.218028e+000 9.831756e-001 7.031789e+001 -2.261985e-002 -3.618287e-001 -6.448568e-003 -5.080279e-001 -1.203364e-001 5.928234e-002 -1.701390e-001 -3.632983e-001 4.103926e-001 -7.802155e-002 -1.005444e-001 4.134204e-001 9.030969e-001 1.790617e-001 -1.613503e-002 3.065668e-001 2.625425e-001 1.136521e-001 -1.083957e-001 -1.498416e-002 9.574837e-002 -1.173483e-002 1.678162e-001 1.395550e-002 -7.712182e-002 1.192006e-001
<VARIANCE> 39
 3.002007e+001 2.094409e+001 2.950599e+001 6.210647e+001 5.522973e+001 4.429582e+001 3.924364e+001 5.953172e+001 4.337304e+001 3.153422e+001 3.151261e+001 2.263037e+001 7.922260e+001 3.465322e+000 2.392146e+000 4.506740e+000 8.279227e+000 4.750481e+000 5.242317e+000 3.230876e+000 4.193054e+000 3.426627e+000 4.193049e+000 2.912849e+000 2.195835e+000 1.076290e+001 3.696843e-001 4.417934e-001 9.858152e-001 1.413756e+000 8.899362e-001 8.306766e-001 6.889109e-001 8.070727e-001 6.707316e-001 9.103780e-001 5.754051e-001 4.611585e-001 2.408608e+000
<GCONST> 1.344982e+002
<STATE> 4
<MEAN> 39
 -1.173262e+001 -3.348311e+000 9.540701e-001 -4.105849e+000 5.724267e-001 -2.596491e+000 2.232142e+000 1.415895e+000 5.347857e-001 -1.610252e+000 6.065859e-001 2.099740e+000 6.948795e+001 2.788387e-001 -4.131155e-002 2.590749e-001 2.070225e-001 -2.041722e-001 -1.572088e-001 4.249167e-002 1.896636e-001 9.567127e-002 3.641749e-001 -6.590819e-002 2.656736e-002 1.138140e-001 5.737028e-002 -9.997305e-003 4.238003e-002 9.070949e-002 -1.432893e-002 -1.650117e-001 3.571152e-002 1.156683e-001 -1.036578e-001 2.905371e-002 -2.612969e-002 -8.400559e-002 2.296404e-002
<VARIANCE> 39
 5.186437e+001 2.000114e+001 2.546074e+001 3.321328e+001 4.448326e+001 6.603194e+001 2.440364e+001 4.967112e+001 4.258289e+001 2.273884e+001 2.982072e+001 1.614261e+001 9.792300e+001 3.372334e+000 1.943374e+000 3.095920e+000 4.109145e+000 3.243657e+000 4.336699e+000 2.074030e+000 2.924920e+000 3.408510e+000 2.759752e+000 1.994952e+000 1.584705e+000 5.736179e+000 3.521474e-001 3.866740e-001 6.174864e-001 7.801433e-001 6.464241e-001 7.041556e-001 4.156401e-001 6.239180e-001 5.976148e-001 5.261319e-001 3.825156e-001 3.243742e-001 1.037438e+000
<GCONST> 1.240246e+002
<TRANSP> 5
 0.000000e+000 1.000000e+000 0.000000e+000 0.000000e+000 0.000000e+000
 0.000000e+000 7.510533e-001 2.489466e-001 0.000000e+000 0.000000e+000
 0.000000e+000 0.000000e+000 6.777503e-001 3.222497e-001 0.000000e+000
 0.000000e+000 0.000000e+000 0.000000e+000 7.121280e-001 2.878720e-001
 0.000000e+000 0.000000e+000 0.000000e+000 0.000000e+000 0.000000e+000
<ENDHMM>
~h "l"
<BEGINHMM>
<NUMSTATES> 5
<STATE> 2
<MEAN> 39
 -1.902702e+000 -1.772413e+000 2.298729e+000 2.503272e+000 3.172338e+000 -8.091499e+000 8.191726e-001 7.068437e+000 -4.005555e+000 -3.829848e+000 -3.564152e+000 -1.637666e+000 7.350949e+001 9.166439e-001 -4.277619e-001 1.236337e-001 1.833721e-001 3.063348e-001 -7.422246e-001 -6.791119e-002 3.747826e-001 -5.472631e-001 -3.491380e-001 -2.634959e-001 -4.204627e-001 1.203944e+000 -1.348456e-001 -7.009087e-002 -5.719592e-002 -1.411237e-001 -2.854368e-002 6.961435e-002 7.866605e-002 -3.819162e-003 7.303829e-002 5.668314e-003 7.720186e-002 -1.436433e-002 -9.076779e-003
<VARIANCE> 39
 4.651329e+001 3.465316e+001 2.465255e+001 6.373838e+001 6.291980e+001 1.025610e+002 3.145616e+001 4.334609e+001 5.910601e+001 4.625106e+001 5.222731e+001 3.791005e+001 1.081763e+002 3.150872e+000 1.732964e+000 1.898120e+000 3.626919e+000 3.815522e+000 3.076126e+000 2.360516e+000 2.203386e+000 4.603259e+000 3.642401e+000 3.507377e+000 2.862026e+000 2.061222e+000 4.464832e-001 3.232813e-001 2.842950e-001 5.116296e-001 4.620480e-001 5.061980e-001 3.877897e-001 3.673457e-001 7.214622e-001 5.402747e-001 5.223641e-001 4.818406e-001 2.975695e-001
<GCONST> 1.253887e+002
<STATE> 3
<MEAN> 39
 -1.453371e-001 -4.421380e+000 2.192241e+000 6.924817e-001 2.318324e+000 -1.250010e+001 9.679886e-001 8.064526e+000 -4.783849e+000 -3.812218e+000 -3.431594e+000 -1.911217e+000 7.878120e+001 3.175343e-002 -5.730242e-001 -1.883435e-001 -5.716259e-001 -3.200346e-001 -6.816709e-001 4.955272e-002 1.464130e-001 2.498340e-001 2.780533e-001 3.388296e-001 6.949106e-002 7.451764e-001 -1.375943e-001 5.577443e-002 1.657161e-002 1.264119e-002 1.809542e-002 1.559479e-001 3.185897e-002 -3.303068e-002 1.294613e-001 5.088422e-002 2.500432e-002 3.453931e-002 -1.765671e-001
<VARIANCE> 39
 3.101407e+001 2.490306e+001 2.640914e+001 7.043333e+001 8.314108e+001 9.308095e+001 3.306210e+001 5.503312e+001 5.744386e+001 4.858491e+001 5.401723e+001 3.944055e+001 4.643836e+001 1.155509e+000 9.942029e-001 1.198608e+000 2.285825e+000 3.078995e+000 3.013916e+000 1.891150e+000 1.775570e+000 2.765152e+000 2.373576e+000 2.736681e+000 2.493875e+000 1.221119e+000 2.091996e-001 1.786618e-001 2.001870e-001 4.195128e-001 4.114811e-001 4.682286e-001 3.170062e-001 3.286315e-001 4.777555e-001 4.136138e-001 4.333865e-001 4.664719e-001 1.462864e-001
<GCONST> 1.155246e+002
<STATE> 4
<MEAN> 39
 -7.087164e-001 -5.160824e+000 1.806426e+000 -2.140780e+000 -3.161664e-001 -1.672231e+001 1.416520e+000 8.379216e+000 -2.757838e+000 4.822356e-002 -2.366246e+000 -1.726233e+000 8.069688e+001 -1.320234e-001 1.369579e-001 2.639878e-002 -3.089648e-002 -1.479573e-001 1.970828e-002 1.219732e-001 -9.083930e-002 1.518067e-001 2.750032e-002 8.707307e-003 5.434393e-003 -2.348514e-001 -3.730489e-002 7.863192e-002 4.443156e-002 6.388647e-002 1.993517e-002 9.059870e-002 1.944147e-002 -7.726484e-002 -5.193098e-002 -3.677290e-002 -3.932392e-003 1.605062e-002 -7.345028e-002
<VARIANCE> 39
 1.913043e+001 4.885569e+001 5.079406e+001 5.260051e+001 1.090644e+002 7.998382e+001 4.322511e+001 4.864526e+001 7.002926e+001 6.351154e+001 2.848135e+001 2.545221e+001 6.000319e+001 3.670779e-001 8.640142e-001 1.006414e+000 1.152834e+000 1.446740e+000 2.407173e+000 1.249081e+000 1.428382e+000 1.362932e+000 1.189703e+000 1.041805e+000 1.040219e+000 6.765829e-001 6.212439e-002 9.933168e-002 1.327970e-001 1.897969e-001 1.987148e-001 3.453330e-001 1.984192e-001 2.217633e-001 2.180586e-001 2.063632e-001 1.566959e-001 1.797002e-001 6.030475e-002
<GCONST> 9.916254e+001
<TRANSP> 5
 0.000000e+000 1.000000e+000 0.000000e+000 0.000000e+000 0.000000e+000
 0.000000e+000 6.308219e-001 3.691781e-001 0.000000e+000 0.000000e+000
 0.000000e+000 0.000000e+000 5.553041e-001 4.446960e-001 0.000000e+000
 0.000000e+000 0.000000e+000 0.000000e+000 8.951603e-001 1.048398e-001
 0.000000e+000 0.000000e+000 0.000000e+000 0.000000e+000 0.000000e+000
<ENDHMM>
~h "m"
<BEGINHMM>
<NUMSTATES> 5
<STATE> 2
<MEAN> 39
 -2.862335e+000 1.416191e-001 2.217786e+000 9.463404e+000 4.009737e+000 -4.609226e+000 8.898221e+000 8.419229e+000 -2.498169e+000 2.047383e+000 -1.038697e+000 -5.597676e+000 6.787294e+001 5.967951e-001 1.316602e-001 5.702057e-001 1.394409e+000 1.136862e+000 6.810766e-001 5.256535e-001 5.909618e-002 -8.681584e-001 3.483641e-002 2.989428e-002 -1.003907e+000 1.563438e-001 8.794830e-003 9.383753e-003 -1.140945e-002 -2.849815e-001 -5.750277e-002 -3.396065e-001 -1.911582e-001 6.096601e-002 5.901847e-002 -1.513832e-001 1.742054e-002 1.572410e-001 2.215459e-001
<VARIANCE> 39
 4.839399e+001 2.400756e+001 1.948241e+001 6.810033e+001 4.612396e+001 6.474487e+001 3.470072e+001 2.575459e+001 2.875109e+001 2.374920e+001 1.745554e+001 3.519503e+001 8.483740e+001 2.300213e+000 1.265319e+000 1.524601e+000 4.753461e+000 2.810979e+000 4.102936e+000 2.426331e+000 1.716461e+000 2.717921e+000 1.650441e+000 1.593805e+000 2.856922e+000 2.484408e+000 3.207364e-001 2.572212e-001 2.348599e-001 8.618569e-001 4.045776e-001 5.513602e-001 4.487845e-001 3.095697e-001 5.946963e-001 3.057776e-001 2.695822e-001 5.384751e-001 2.854159e-001
<GCONST> 1.165030e+002
<STATE> 3
<MEAN> 39
 -9.528880e-001 4.631480e-001 3.569712e+000 1.250800e+001 6.651594e+000 -4.736841e+000 9.801150e+000 8.796511e+000 -4.697258e+000 1.798931e+000 -1.275436e+000 -8.039302e+000 6.926814e+001 3.833181e-001 -6.580932e-002 1.312045e-001 1.607954e-001 5.790155e-001 -3.755750e-001 -1.476558e-001 1.320171e-001 -3.978922e-001 -2.444589e-001 1.135969e-001 -3.380943e-001 6.072747e-001 -1.973546e-001 -1.544982e-002 -1.335678e-001 -5.500404e-001 -2.955217e-001 -2.976128e-001 -2.704336e-001 3.727574e-002 3.166363e-001 -1.067832e-001 5.119091e-002 3.670164e-001 4.453887e-002
<VARIANCE> 39
 1.936994e+001 2.287738e+001 1.440936e+001 5.845553e+001 4.606516e+001 5.403794e+001 4.074552e+001 2.483198e+001 3.468750e+001 2.258105e+001 2.270169e+001 2.887823e+001 5.092617e+001 2.362180e+000 1.702677e+000 1.375301e+000 5.309234e+000 3.277102e+000 4.712002e+000 3.091029e+000 1.471656e+000 3.940953e+000 1.518767e+000 1.751597e+000 3.712402e+000 2.751104e+000 2.079199e-001 2.986649e-001 2.508471e-001 6.191156e-001 4.140445e-001 5.808442e-001 4.486493e-001 2.772414e-001 5.403762e-001 3.091950e-001 2.868834e-001 4.684899e-001 2.429707e-001
<GCONST> 1.152694e+002
<STATE> 4
<MEAN> 39
 -1.156327e+000 8.438849e-002 2.865759e+000 1.044575e+001 6.399095e+000 -7.122268e+000 8.793173e+000 1.055432e+001 -3.552586e+000 1.662753e+000 -1.282950e+000 -7.709929e+000 7.052193e+001 -3.265690e-001 9.961575e-002 -2.581453e-001 -1.045000e+000 -2.751498e-001 -4.247181e-001 -6.959050e-001 1.042330e-001 5.621496e-001 -3.280805e-001 2.367566e-001 6.268447e-001 1.084615e-001 -5.110681e-002 -3.153915e-002 -9.004921e-002 -2.857926e-001 -2.408706e-001 -8.186778e-002 -9.096508e-002 -2.769496e-002 1.283194e-001 -3.317611e-002 -1.164420e-002 1.785996e-001 2.225764e-002
<VARIANCE> 39
 1.881501e+001 2.750258e+001 2.048024e+001 7.642094e+001 5.505293e+001 8.075203e+001 3.376213e+001 3.293988e+001 5.395504e+001 2.511364e+001 2.269421e+001 3.216063e+001 5.475562e+001 8.146707e-001 1.608220e+000 1.366935e+000 3.782750e+000 3.340700e+000 4.717505e+000 1.912316e+000 1.692288e+000 2.646827e+000 1.334419e+000 1.226839e+000 2.283409e+000 1.792943e+000 9.460505e-002 2.420193e-001 1.929161e-001 5.872869e-001 4.755929e-001 6.007602e-001 3.897299e-001 3.045426e-001 4.526664e-001 2.577167e-001 2.459449e-001 3.594972e-001 1.713389e-001
<GCONST> 1.115469e+002
<TRANSP> 5
 0.000000e+000 1.000000e+000 0.000000e+000 0.000000e+000 0.000000e+000
 0.000000e+000 5.197517e-001 4.802483e-001 0.000000e+000 0.000000e+000
 0.000000e+000 0.000000e+000 5.745103e-001 4.254897e-001 0.000000e+000
 0.000000e+000 0.000000e+000 0.000000e+000 7.932369e-001 2.067631e-001
 0.000000e+000 0.000000e+000 0.000000e+000 0.000000e+000 0.000000e+000
<ENDHMM>
~h "n"
<BEGINHMM>
<NUMSTATES> 5
<STATE> 2
<MEAN> 39
 -2.980040e+000 -1.355121e+000 4.164675e+000 7.607112e+000 7.414980e+000 -4.922255e+000 4.667871e+000 3.299295e+000 -6.514126e+000 8.134271e-001 7.672078e-001 -3.464189e+000 7.251818e+001 -1.193605e-001 5.095334e-001 5.472100e-001 8.506697e-001 8.480110e-001 8.656687e-001 2.202948e-002 -1.554381e-001 3.935741e-002 3.247627e-001 -2.324338e-001 -6.641752e-001 -5.470239e-001 -1.040777e-001 -6.514750e-003 -7.129354e-002 -1.498964e-001 -8.036455e-002 -7.107652e-002 -4.775411e-002 1.942548e-002 1.399988e-001 -9.814294e-002 -1.328183e-002 7.409231e-002 1.150789e-002
<VARIANCE> 39
 2.552300e+001 3.304456e+001 2.669163e+001 4.846780e+001 5.683625e+001 8.605785e+001 3.287415e+001 4.500753e+001 4.925705e+001 2.822239e+001 3.023185e+001 3.732734e+001 7.283582e+001 1.833164e+000 1.560687e+000 1.904723e+000 3.335422e+000 2.489291e+000 3.270823e+000 1.946787e+000 2.099709e+000 2.824759e+000 1.855491e+000 1.841744e+000 2.392331e+000 2.082917e+000 2.466416e-001 2.585687e-001 2.680619e-001 5.044509e-001 3.902161e-001 6.075361e-001 3.187778e-001 4.062438e-001 4.962300e-001 3.108477e-001 3.544312e-001 4.206819e-001 2.345592e-001
<GCONST> 1.167480e+002
<STATE> 3
<MEAN> 39
 -3.276985e+000 8.876753e-002 5.413899e+000 9.795182e+000 9.256409e+000 -2.407329e+000 4.720263e+000 2.759805e+000 -5.937253e+000 1.257613e+000 -1.784742e-003 -5.018481e+000 7.083287e+001 -4.390914e-001 3.619685e-001 2.718819e-001 2.860027e-001 4.425479e-001 5.609870e-001 -8.170751e-002 -5.234868e-002 4.283424e-001 2.267282e-002 -1.391369e-001 -2.198084e-001 -4.589354e-001 -1.699489e-001 -8.220067e-002 -1.310912e-001 -3.418696e-001 -1.957948e-001 -1.675403e-001 -5.428248e-002 4.355730e-002 1.199870e-001 -1.427045e-001 6.502855e-002 2.101017e-001 7.320107e-002
<VARIANCE> 39
 2.449762e+001 3.205487e+001 2.338468e+001 5.084001e+001 4.994683e+001 7.362563e+001 3.149113e+001 4.051993e+001 4.737791e+001 2.481815e+001 3.054539e+001 3.624334e+001 6.233629e+001 1.978436e+000 1.690900e+000 1.742633e+000 3.828341e+000 2.619689e+000 3.626078e+000 1.736967e+000 2.274477e+000 3.205370e+000 1.856493e+000 1.713986e+000 2.599857e+000 2.092558e+000 2.621104e-001 2.946874e-001 2.870981e-001 5.370671e-001 3.742119e-001 5.827941e-001 3.245820e-001 4.256076e-001 5.144699e-001 3.478997e-001 3.487055e-001 4.501108e-001 2.391302e-001
<GCONST> 1.168082e+002
<STATE> 4
<MEAN> 39
 -4.980514e+000 1.214038e+000 5.303119e+000 1.007510e+001 9.535835e+000 -7.582102e-001 5.041964e+000 2.574420e+000 -4.702970e+000 1.359012e+000 -3.925653e-001 -4.183164e+000 6.822721e+001 -7.484964e-001 6.255803e-002 -7.672108e-002 -5.770639e-001 -1.806443e-001 7.993270e-002 -2.362182e-001 9.528126e-002 5.944977e-001 -2.096455e-001 2.828743e-003 2.351618e-001 -3.049384e-001 -9.934802e-002 -1.277619e-001 -1.114999e-001 -2.673337e-001 -1.700485e-001 -1.643752e-001 -5.106334e-002 -6.848815e-003 -1.884888e-003 -7.622955e-002 4.482072e-002 9.907720e-002 1.095442e-001
<VARIANCE> 39
 3.138532e+001 3.316095e+001 2.499448e+001 5.055964e+001 4.652162e+001 6.821841e+001 3.085810e+001 3.226501e+001 4.789748e+001 2.389707e+001 2.670512e+001 3.031130e+001 7.755177e+001 1.883539e+000 1.679193e+000 1.799984e+000 3.705248e+000 2.719460e+000 3.676467e+000 1.693876e+000 2.221730e+000 2.655365e+000 1.769299e+000 1.484948e+000 2.124545e+000 1.821967e+000 2.304205e-001 2.946430e-001 2.706071e-001 5.336388e-001 3.637158e-001 5.314999e-001 3.135013e-001 3.945724e-001 4.634508e-001 3.299649e-001 2.799084e-001 3.914370e-001 2.313142e-001
<GCONST> 1.148843e+002
<TRANSP> 5
 0.000000e+000 1.000000e+000 0.000000e+000 0.000000e+000 0.000000e+000
 0.000000e+000 5.172994e-001 4.827006e-001 0.000000e+000 0.000000e+000
 0.000000e+000 0.000000e+000 5.079372e-001 4.920628e-001 0.000000e+000
 0.000000e+000 0.000000e+000 0.000000e+000 6.569451e-001 3.430548e-001
 0.000000e+000 0.000000e+000 0.000000e+000 0.000000e+000 0.000000e+000
<ENDHMM>
~h "p"
<BEGINHMM>
<NUMSTATES> 5
<STATE> 2
<MEAN> 39
 -1.247727e+001 -1.003015e+000 -1.772987e+000 9.961730e-001 3.012105e+000 1.032813e+000 3.930547e-001 1.786379e+000 -7.134193e-001 -2.163142e+000 1.041943e+000 1.397785e+000 6.102347e+001 -3.148087e-001 5.154390e-003 -7.629092e-002 -8.747611e-001 -5.781512e-001 -1.031095e-001 -1.055724e-001 5.121642e-002 7.996839e-001 7.327588e-002 -8.227570e-002 3.206626e-001 8.024351e-002 1.639408e-001 -4.038718e-002 1.493532e-001 -9.086289e-002 1.755967e-001 -1.308395e-001 2.072863e-002 -8.108228e-003 -1.940879e-003 -5.119003e-002 2.001302e-003 2.349446e-002 4.465699e-001
<VARIANCE> 39
 1.455215e+001 3.216760e+001 1.741649e+001 4.342625e+001 3.217844e+001 1.445466e+001 1.522385e+001 1.731604e+001 2.660844e+001 1.867015e+001 1.226820e+001 2.051343e+001 4.159764e+001 2.060284e+000 1.641695e+000 1.983623e+000 4.013757e+000 2.678760e+000 1.754866e+000 1.664623e+000 2.579829e+000 3.300332e+000 1.901892e+000 1.414691e+000 1.748402e+000 5.436395e+000 3.546844e-001 3.140014e-001 3.516158e-001 5.675157e-001 3.654586e-001 3.441990e-001 3.583721e-001 5.939079e-001 5.305074e-001 3.865721e-001 2.646166e-001 3.057519e-001 8.096117e-001
<GCONST> 1.106324e+002
<STATE> 3
<MEAN> 39
 -1.115735e+001 6.176567e-001 7.211659e-001 -2.777994e-001 5.196097e+000 -7.909439e-001 1.112143e-001 1.284398e+000 1.553576e+000 -1.876560e+000 1.162248e+000 7.640542e-001 6.623639e+001 4.716229e-001 -1.783131e-001 3.617914e-001 -1.261075e+000 -4.849079e-001 -5.246234e-001 1.386582e-001 4.819461e-001 1.305648e+000 2.236805e-002 -1.062422e-001 5.815122e-001 1.436208e+000 2.754945e-001 -7.247781e-002 3.403183e-002 1.972405e-001 9.624199e-003 -1.642258e-001 9.379573e-002 1.848129e-001 -9.367025e-002 7.451978e-002 -2.651904e-002 -8.925289e-002 9.673399e-002
<VARIANCE> 39
 2.801136e+001 1.606780e+001 2.092471e+001 6.351580e+001 4.215396e+001 2.297135e+001 1.437383e+001 2.852720e+001 6.310746e+001 1.759754e+001 1.496441e+001 2.395949e+001 6.045243e+001 3.911456e+000 1.818646e+000 2.549158e+000 5.571301e+000 4.352155e+000 3.404485e+000 1.866157e+000 4.373688e+000 6.015616e+000 2.473830e+000 1.843624e+000 2.372334e+000 7.054469e+000 5.335400e-001 3.803343e-001 5.132551e-001 8.426185e-001 7.074605e-001 5.225434e-001 3.918426e-001 8.402287e-001 9.509858e-001 4.485647e-001 3.522911e-001 4.117786e-001 1.379829e+000
<GCONST> 1.234074e+002
<STATE> 4
<MEAN> 39
 -8.532289e+000 -7.300162e-002 1.331071e+000 -3.842859e+000 2.852447e+000 -3.248317e+000 8.323017e-001 4.453915e+000 6.061877e+000 -1.450507e+000 5.290165e-001 2.295460e+000 7.034651e+001 1.131201e+000 -3.585173e-001 4.708570e-002 -6.260942e-001 -8.868059e-001 -1.103038e+000 3.135398e-001 9.175397e-001 8.039045e-001 3.288370e-001 -3.730873e-001 2.317884e-001 1.092759e+000 1.085288e-001 -1.023553e-001 -2.003776e-001 2.724703e-001 1.336560e-002 -1.184292e-001 -4.979235e-002 -7.092515e-002 -4.571122e-001 3.694192e-002 -1.048627e-002 -1.924285e-001 -1.436299e-001
<VARIANCE> 39
 3.999106e+001 1.606488e+001 1.855988e+001 4.926159e+001 3.771831e+001 4.044232e+001 1.704924e+001 2.831370e+001 8.084100e+001 2.129457e+001 1.767322e+001 2.407197e+001 4.654687e+001 2.526659e+000 1.765504e+000 1.970330e+000 4.233600e+000 2.484831e+000 3.671656e+000 1.650104e+000 3.229526e+000 5.488132e+000 2.111607e+000 1.975800e+000 1.855051e+000 4.180863e+000 4.050905e-001 3.654038e-001 3.865629e-001 6.497489e-001 4.420321e-001 4.551328e-001 3.654917e-001 6.457756e-001 8.385099e-001 3.871328e-001 4.167269e-001 3.636270e-001 6.513885e-001
<GCONST> 1.187146e+002
<TRANSP> 5
 0.000000e+000 1.000000e+000 0.000000e+000 0.000000e+000 0.000000e+000
 0.000000e+000 8.004717e-001 1.995283e-001 0.000000e+000 0.000000e+000
 0.000000e+000 0.000000e+000 6.923169e-001 3.076831e-001 0.000000e+000
 0.000000e+000 0.000000e+000 0.000000e+000 6.672513e-001 3.327487e-001
 0.000000e+000 0.000000e+000 0.000000e+000 0.000000e+000 0.000000e+000
<ENDHMM>
~h "r"
<BEGINHMM>
<NUMSTATES> 5
<STATE> 2
<MEAN> 39
 -1.673049e+000 -2.468157e+000 -1.523850e+000 -5.440879e+000 3.562977e+000 -6.131557e+000 -3.172101e-001 3.616839e+000 -3.317683e+000 -3.712758e+000 9.778355e-001 1.652336e+000 7.627190e+001 6.257537e-001 1.349141e-001 7.897933e-002 -6.378980e-002 2.531136e-001 -4.550934e-001 1.248216e-001 2.318676e-001 -3.886598e-001 -1.784395e-001 -2.028600e-001 7.153720e-002 4.323821e-001 -1.267279e-001 8.419992e-002 9.426851e-002 -5.898250e-003 6.245386e-003 1.507009e-001 9.925511e-002 7.358141e-003 1.199114e-002 2.346261e-002 -2.042168e-002 -4.234713e-002 -1.469489e-001
<VARIANCE> 39
 5.489932e+001 4.657532e+001 3.117049e+001 5.556526e+001 4.809342e+001 8.406008e+001 3.067885e+001 4.524889e+001 7.911408e+001 3.646040e+001 3.885410e+001 2.158993e+001 7.033575e+001 2.314849e+000 3.332986e+000 2.268709e+000 2.063732e+000 2.363797e+000 4.340266e+000 1.811731e+000 3.028353e+000 4.044290e+000 2.668597e+000 2.749938e+000 1.427261e+000 1.977516e+000 5.825396e-001 4.186588e-001 2.942406e-001 2.776178e-001 3.421659e-001 5.849446e-001 4.096090e-001 4.203683e-001 5.425870e-001 3.794064e-001 4.367141e-001 2.632253e-001 3.026733e-001
<GCONST> 1.212965e+002
<STATE> 3
<MEAN> 39
 -5.783019e-001 -7.591199e-001 -1.547648e-001 -5.571092e+000 4.623606e+000 -5.473499e+000 -1.290542e-001 3.447691e+000 -4.956431e+000 -4.641398e+000 -6.367950e-001 1.279242e+000 7.624854e+001 4.636539e-001 4.386348e-002 7.733718e-002 -1.125271e-001 -1.222534e-002 -2.782706e-001 1.526443e-001 6.736398e-002 -1.378180e-001 -7.482607e-002 -2.698655e-001 1.770224e-002 3.200153e-001 -1.655861e-001 -2.126860e-002 4.784412e-002 2.064465e-002 -9.094834e-002 1.053464e-001 1.212888e-002 -4.093672e-002 1.335025e-001 7.704769e-002 3.530320e-002 -3.168676e-002 -1.366899e-001
<VARIANCE> 39
 3.898949e+001 4.146824e+001 3.156868e+001 6.426023e+001 5.875224e+001 9.610764e+001 3.226998e+001 5.000201e+001 9.400764e+001 3.845809e+001 4.986773e+001 2.314569e+001 4.738002e+001 2.085513e+000 2.715180e+000 1.999641e+000 1.835646e+000 2.015904e+000 3.440031e+000 1.970862e+000 3.347732e+000 4.187113e+000 2.322769e+000 3.252384e+000 1.664400e+000 1.895818e+000 3.360069e-001 4.273668e-001 3.081636e-001 2.837809e-001 3.437142e-001 5.571379e-001 3.246804e-001 4.457061e-001 5.508927e-001 3.578168e-001 4.837495e-001 2.742246e-001 2.481284e-001
<GCONST> 1.202676e+002
<STATE> 4
<MEAN> 39
 -7.216549e-002 -2.040694e-001 7.457454e-001 -5.882840e+000 4.666835e+000 -5.439260e+000 -3.421699e-001 1.552243e+000 -5.857655e+000 -5.254780e+000 -1.938202e+000 1.318297e+000 7.673738e+001 -2.620468e-002 -1.281952e-001 -5.915948e-002 2.668250e-001 -1.453936e-001 -5.441793e-001 -6.425860e-002 -1.306737e-001 2.308314e-001 2.974938e-001 8.414131e-002 1.163656e-002 1.211338e-003 -5.009259e-002 -1.381560e-002 3.823829e-002 9.078985e-002 -4.846045e-002 -2.122416e-002 1.655103e-002 -2.493864e-003 5.994152e-002 8.850711e-002 2.047846e-002 -4.203707e-002 -6.122169e-002
<VARIANCE> 39
 3.320042e+001 2.829343e+001 4.237383e+001 5.905580e+001 7.339034e+001 9.732510e+001 4.058807e+001 5.554692e+001 8.667455e+001 5.978140e+001 5.201730e+001 2.080556e+001 3.267958e+001 1.338313e+000 1.787798e+000 1.910267e+000 1.752234e+000 2.106668e+000 4.473967e+000 2.254696e+000 3.479974e+000 3.586293e+000 2.443495e+000 2.402354e+000 1.540819e+000 1.064471e+000 1.889478e-001 2.350460e-001 2.358618e-001 2.209715e-001 3.249721e-001 6.197527e-001 3.941205e-001 5.324112e-001 4.993129e-001 4.280613e-001 3.675175e-001 2.474750e-001 1.059950e-001
<GCONST> 1.164769e+002
<TRANSP> 5
 0.000000e+000 1.000000e+000 0.000000e+000 0.000000e+000 0.000000e+000
 0.000000e+000 5.329525e-001 4.670475e-001 0.000000e+000 0.000000e+000
 0.000000e+000 0.000000e+000 5.341217e-001 4.658783e-001 0.000000e+000
 0.000000e+000 0.000000e+000 0.000000e+000 8.102626e-001 1.897374e-001
 0.000000e+000 0.000000e+000 0.000000e+000 0.000000e+000 0.000000e+000
<ENDHMM>
~h "s"
<BEGINHMM>
<NUMSTATES> 5
<STATE> 2
<MEAN> 39
 -1.774696e+001 -1.852643e+000 7.329517e+000 -6.946415e+000 1.166605e+000 2.371983e+000 1.768778e+000 -9.672470e-001 3.540628e-001 -1.628793e+000 2.826943e+000 8.816919e-001 7.136304e+001 -3.113415e+000 -6.503148e-001 1.069897e+000 -2.595008e+000 4.404411e-002 8.946024e-001 -7.435946e-001 -5.161144e-001 7.058022e-001 -1.750514e-001 5.120094e-001 -1.978901e-001 8.944187e-001 -1.107900e-001 -2.099240e-001 -2.763963e-001 -2.394931e-001 -1.198063e-001 -5.089543e-001 -1.318341e-001 3.382541e-002 -1.887302e-001 -2.830977e-002 -3.723416e-002 -1.409084e-001 1.633881e-001
<VARIANCE> 39
 7.280077e+001 1.803879e+001 4.809858e+001 5.281527e+001 2.726919e+001 2.791858e+001 2.127835e+001 2.872938e+001 3.301552e+001 2.089223e+001 1.882201e+001 1.439085e+001 1.138319e+002 7.257736e+000 2.548696e+000 5.335993e+000 4.766299e+000 3.277393e+000 4.966852e+000 2.252883e+000 2.608632e+000 5.343306e+000 1.773845e+000 2.580817e+000 1.695547e+000 2.646479e+000 9.118059e-001 4.774125e-001 9.524741e-001 1.092081e+000 6.219493e-001 7.552492e-001 4.181366e-001 4.310988e-001 7.450438e-001 3.193745e-001 3.881903e-001 2.772905e-001 3.816195e-001
<GCONST> 1.241445e+002
<STATE> 3
<MEAN> 39
 -2.589116e+001 -4.332918e+000 8.984230e+000 -1.449614e+001 4.887534e-001 2.087416e+000 -3.538897e-001 -2.590114e+000 9.861107e-001 -2.208032e+000 3.709882e+000 -2.618383e-001 7.582954e+001 -2.407726e+000 -5.032762e-001 1.072849e-001 -1.985506e+000 -2.175298e-001 -2.731824e-001 -6.230370e-001 -2.687738e-001 7.699049e-002 -8.800005e-002 1.640760e-001 -3.170029e-001 7.255138e-001 5.056831e-001 1.279968e-001 -2.510415e-001 4.530133e-001 1.820324e-002 -2.721099e-001 1.397614e-001 1.416522e-001 -1.976151e-001 4.525110e-002 -1.414446e-001 1.373200e-002 -1.627671e-001
<VARIANCE> 39
 4.894740e+001 1.353583e+001 2.549550e+001 3.830717e+001 2.496576e+001 2.170164e+001 2.266331e+001 2.029724e+001 2.503020e+001 1.746650e+001 1.598079e+001 1.269252e+001 4.872931e+001 5.408337e+000 1.733565e+000 3.263181e+000 4.366955e+000 2.091684e+000 2.451688e+000 2.061736e+000 2.216901e+000 2.642099e+000 1.366962e+000 1.813397e+000 1.193969e+000 3.019368e+000 7.124771e-001 3.593777e-001 5.559437e-001 6.457997e-001 5.289540e-001 6.570855e-001 3.867472e-001 3.976858e-001 6.107920e-001 2.641100e-001 3.498864e-001 2.443342e-001 2.576736e-001
<GCONST> 1.130182e+002
<STATE> 4
<MEAN> 39
 -2.986022e+001 -4.433517e+000 8.355985e+000 -1.628599e+001 1.773622e+000 8.501709e-001 -6.280440e-001 -1.064385e+000 4.758930e-002 -1.977050e+000 3.002266e+000 -9.282248e-001 7.613431e+001 8.272883e-001 2.103644e-001 -2.188871e-001 7.348849e-001 2.259261e-001 -2.653270e-001 1.420414e-001 2.379698e-001 -2.142140e-001 -4.443002e-003 -1.717069e-001 4.033229e-002 -3.386348e-001 5.033106e-001 9.417320e-003 -5.770855e-002 3.668249e-001 2.152853e-002 -8.587733e-002 8.473173e-002 5.693185e-002 -8.960782e-002 -1.330031e-002 -3.722145e-003 3.923483e-002 -5.633416e-002
<VARIANCE> 39
 4.520894e+001 1.347612e+001 2.672047e+001 3.285173e+001 2.556607e+001 2.054387e+001 2.315516e+001 2.145650e+001 1.872922e+001 2.120146e+001 1.497054e+001 1.154961e+001 3.441277e+001 7.423001e+000 1.152544e+000 1.443243e+000 4.277151e+000 1.741740e+000 1.801461e+000 1.515156e+000 1.789472e+000 1.899157e+000 1.569986e+000 1.232727e+000 9.840892e-001 2.334933e+000 6.526429e-001 2.310217e-001 2.907340e-001 5.340662e-001 3.499118e-001 3.394386e-001 2.983946e-001 3.447898e-001 3.664921e-001 2.938893e-001 2.527885e-001 1.874667e-001 2.958155e-001
<GCONST> 1.056006e+002
<TRANSP> 5
 0.000000e+000 1.000000e+000 0.000000e+000 0.000000e+000 0.000000e+000
 0.000000e+000 5.981145e-001 4.018855e-001 0.000000e+000 0.000000e+000
 0.000000e+000 0.000000e+000 6.625447e-001 3.374554e-001 0.000000e+000
 0.000000e+000 0.000000e+000 0.000000e+000 9.082962e-001 9.170380e-002
 0.000000e+000 0.000000e+000 0.000000e+000 0.000000e+000 0.000000e+000
<ENDHMM>
~h "t"
<BEGINHMM>
<NUMSTATES> 5
<STATE> 2
<MEAN> 39
 -1.258368e+001 -1.834123e+000 3.781188e+000 -7.877263e-001 3.929232e+000 -1.926457e+000 1.425230e+000 1.117754e+000 -1.640049e+000 -2.479294e+000 2.101147e+000 6.477691e-001 6.954793e+001 -6.385197e-001 -4.768244e-001 2.455182e-001 -3.301930e-001 -6.611407e-002 1.907676e-002 -1.753020e-001 -4.572564e-001 4.753776e-001 -1.770740e-001 1.095827e-001 1.721672e-001 5.470470e-001 1.201316e-001 -1.355029e-001 1.290539e-001 2.986358e-003 4.004866e-002 -1.980190e-001 -3.807667e-002 -8.944498e-002 -6.503731e-002 4.664225e-002 -1.380273e-002 -1.000197e-001 3.442013e-001
<VARIANCE> 39
 7.000173e+001 2.684908e+001 3.141241e+001 7.597419e+001 5.129153e+001 4.370671e+001 2.897512e+001 4.406094e+001 5.720237e+001 4.210009e+001 2.402389e+001 2.727342e+001 8.291093e+001 4.249045e+000 3.576364e+000 3.176152e+000 6.581614e+000 4.235991e+000 4.663311e+000 3.420331e+000 3.976467e+000 4.336765e+000 3.537490e+000 2.476043e+000 2.599133e+000 9.611223e+000 5.909751e-001 6.899054e-001 6.287247e-001 9.834183e-001 7.921687e-001 8.421115e-001 6.486653e-001 7.318689e-001 7.976531e-001 6.847485e-001 4.691829e-001 4.493788e-001 1.785409e+000
<GCONST> 1.346502e+002
<STATE> 3
<MEAN> 39
 -1.369569e+001 -3.399637e+000 5.201490e+000 -1.739061e+000 4.226473e+000 -2.305919e+000 9.729346e-001 -3.134336e-001 -6.619950e-001 -2.438164e+000 2.496775e+000 6.979719e-001 7.214042e+001 1.841062e-001 -3.963003e-001 4.311376e-001 9.898585e-002 2.633226e-001 -3.789478e-001 -6.857665e-002 -2.789963e-001 -7.941455e-002 -3.021547e-003 5.989849e-002 -1.840932e-001 7.495939e-001 2.436494e-001 7.028023e-002 -8.108418e-002 1.138058e-001 1.678612e-002 -1.332557e-001 2.108820e-002 1.282106e-001 -1.540968e-001 3.980238e-002 -4.254549e-002 -1.124936e-001 -7.649295e-002
<VARIANCE> 39
 6.528105e+001 2.356312e+001 2.674133e+001 6.061916e+001 5.041181e+001 3.788506e+001 3.050574e+001 3.887090e+001 5.217528e+001 3.347259e+001 2.387573e+001 2.486461e+001 6.779722e+001 4.629769e+000 3.135824e+000 3.283361e+000 5.926535e+000 3.771591e+000 4.973704e+000 3.247403e+000 3.828163e+000 4.571365e+000 3.583561e+000 2.435229e+000 2.418052e+000 8.359050e+000 6.584190e-001 6.071701e-001 6.094230e-001 9.001021e-001 6.765890e-001 8.269100e-001 6.336562e-001 6.757845e-001 8.162311e-001 6.248583e-001 4.514825e-001 4.322291e-001 1.615502e+000
<GCONST> 1.321218e+002
<STATE> 4
<MEAN> 39
 -1.241531e+001 -3.958854e+000 5.814229e+000 -7.974699e-001 5.328152e+000 -3.375118e+000 8.236865e-001 -1.656055e-001 -1.972465e+000 -2.030277e+000 2.934178e+000 -1.003264e-001 7.266787e+001 6.553826e-001 -7.582986e-002 -1.456932e-001 3.984023e-001 1.220776e-001 -5.539163e-001 -5.500961e-002 2.730988e-001 -3.643172e-001 1.266349e-001 -8.262560e-002 -3.359583e-001 2.025130e-002 6.986215e-002 6.187329e-002 -1.231694e-001 1.971935e-002 -6.016286e-002 -5.705555e-002 -4.673730e-002 1.201300e-001 1.749880e-002 1.373683e-002 -4.870604e-002 -3.635416e-002 -9.264868e-002
<VARIANCE> 39
 7.083540e+001 2.131923e+001 2.788240e+001 6.986339e+001 5.997973e+001 4.987688e+001 3.445248e+001 3.986343e+001 5.624051e+001 3.117593e+001 2.703300e+001 3.306325e+001 7.085773e+001 3.200066e+000 2.601677e+000 2.680689e+000 3.591267e+000 2.549624e+000 4.270616e+000 2.623496e+000 3.220740e+000 3.847222e+000 2.731565e+000 2.111712e+000 1.841435e+000 5.446086e+000 5.596954e-001 5.010158e-001 5.191411e-001 6.361028e-001 4.916742e-001 6.925139e-001 5.591884e-001 5.932812e-001 6.545073e-001 5.042107e-001 3.690541e-001 3.714761e-001 9.980086e-001
<GCONST> 1.269788e+002
<TRANSP> 5
 0.000000e+000 1.000000e+000 0.000000e+000 0.000000e+000 0.000000e+000
 0.000000e+000 6.353413e-001 3.646587e-001 0.000000e+000 0.000000e+000
 0.000000e+000 0.000000e+000 5.771104e-001 4.228896e-001 0.000000e+000
 0.000000e+000 0.000000e+000 0.000000e+000 5.377193e-001 4.622807e-001
 0.000000e+000 0.000000e+000 0.000000e+000 0.000000e+000 0.000000e+000
<ENDHMM>
~h "v"
<BEGINHMM>
<NUMSTATES> 5
<STATE> 2
<MEAN> 39
 2.711692e-001 -4.384958e+000 8.569777e-001 2.412276e+000 1.727810e+000 -1.262144e+001 3.014502e+000 6.275985e+000 -8.305380e+000 -3.296997e+000 -1.270631e-001 -3.067308e+000 7.869683e+001 2.539536e-002 5.511787e-001 2.105580e-001 6.803036e-001 3.382931e-001 4.410612e-001 1.504360e-001 3.787481e-001 -1.720136e-001 -3.521461e-001 -2.096170e-001 -7.366191e-001 -5.505487e-001 -8.241591e-002 2.455603e-002 3.748136e-002 3.437622e-002 2.667185e-002 1.579408e-002 3.655720e-002 -6.495497e-003 6.543073e-002 3.097489e-002 6.439153e-002 3.046074e-002 -3.547638e-002
<VARIANCE> 39
 9.934835e+000 3.940572e+001 3.328567e+001 4.981079e+001 7.115595e+001 5.836094e+001 3.388085e+001 4.985220e+001 4.836318e+001 4.137879e+001 2.517707e+001 3.191978e+001 4.389614e+001 7.431483e-001 1.142496e+000 8.069124e-001 2.288307e+000 2.373725e+000 2.567997e+000 1.707833e+000 2.240349e+000 2.636282e+000 2.116729e+000 1.624113e+000 2.084683e+000 1.517772e+000 1.273505e-001 1.929004e-001 1.195023e-001 3.445783e-001 3.163932e-001 3.827645e-001 2.521902e-001 3.140160e-001 3.679211e-001 3.399529e-001 2.767462e-001 3.474807e-001 1.957506e-001
<GCONST> 1.082569e+002
<STATE> 3
<MEAN> 39
 -3.008933e-001 -8.539278e-001 2.679333e+000 4.269856e+000 2.184095e+000 -1.122711e+001 3.918804e+000 7.111830e+000 -6.622393e+000 -3.007041e+000 -1.538417e+000 -4.859559e+000 7.517249e+001 -2.242666e-001 3.291117e-001 1.923024e-001 5.815244e-001 3.490776e-001 6.240407e-001 2.904110e-001 1.726790e-001 1.999718e-001 1.195231e-001 -3.132230e-002 -3.102667e-001 -6.068717e-001 -8.797906e-002 -6.891288e-002 1.245822e-002 -8.540119e-002 1.522327e-002 3.789632e-002 -1.873541e-002 -9.801946e-002 6.809328e-002 4.571637e-002 6.968340e-002 1.147954e-001 3.547214e-002
<VARIANCE> 39
 1.005906e+001 3.637132e+001 3.082159e+001 4.565344e+001 6.833192e+001 7.113158e+001 3.951870e+001 3.733125e+001 5.092448e+001 3.087788e+001 2.712045e+001 2.182810e+001 4.407280e+001 9.718371e-001 1.376045e+000 1.283499e+000 3.384655e+000 2.719082e+000 3.584144e+000 2.287184e+000 2.178846e+000 3.223988e+000 1.801678e+000 1.635536e+000 2.229087e+000 1.421937e+000 1.624293e-001 1.951545e-001 1.672422e-001 4.242393e-001 3.206138e-001 5.236435e-001 3.480398e-001 2.976982e-001 4.378708e-001 3.157135e-001 2.855704e-001 3.338606e-001 2.124023e-001
<GCONST> 1.111642e+002
<STATE> 4
<MEAN> 39
 -3.609005e+000 1.217176e+000 2.970296e+000 5.600517e+000 5.333635e+000 -4.289584e+000 6.965095e+000 4.063182e+000 -6.255361e+000 -1.681755e+000 -1.308204e+000 -3.737188e+000 7.012637e+001 -4.420063e-001 2.443564e-001 7.567765e-002 8.814634e-002 3.354608e-001 8.034006e-001 5.944344e-002 -1.513022e-001 2.224471e-001 3.259935e-001 9.015651e-002 5.515162e-002 -7.221692e-001 -1.021131e-002 5.520903e-003 -1.160601e-002 -9.833758e-002 -4.773373e-002 -2.540731e-002 -8.796203e-002 -2.665733e-002 3.335837e-002 -1.601248e-002 -2.169989e-002 3.475100e-002 1.573654e-002
<VARIANCE> 39
 3.512610e+001 2.954252e+001 1.525336e+001 5.417205e+001 4.448162e+001 5.637196e+001 3.082705e+001 2.980300e+001 5.036024e+001 2.262226e+001 2.331303e+001 3.120404e+001 6.993199e+001 1.025310e+000 1.056064e+000 1.318472e+000 2.137678e+000 1.533758e+000 1.979632e+000 1.399065e+000 1.690007e+000 2.390688e+000 1.407525e+000 1.214408e+000 1.607011e+000 7.041511e-001 1.936172e-001 1.662697e-001 2.204265e-001 3.752977e-001 2.793725e-001 3.462807e-001 2.665031e-001 3.364649e-001 4.419528e-001 2.932563e-001 2.017230e-001 3.012020e-001 1.229346e-001
<GCONST> 1.048666e+002
<TRANSP> 5
 0.000000e+000 1.000000e+000 0.000000e+000 0.000000e+000 0.000000e+000
 0.000000e+000 7.663616e-001 2.336384e-001 0.000000e+000 0.000000e+000
 0.000000e+000 0.000000e+000 7.356454e-001 2.643546e-001 0.000000e+000
 0.000000e+000 0.000000e+000 0.000000e+000 8.922711e-001 1.077289e-001
 0.000000e+000 0.000000e+000 0.000000e+000 0.000000e+000 0.000000e+000
<ENDHMM>
~h "w"
<BEGINHMM>
<NUMSTATES> 5
<STATE> 2
<MEAN> 39
 -1.139499e+001 -1.691694e+000 -1.972848e+000 -3.550597e-001 4.208122e-001 -2.756093e+000 2.807214e+000 3.549596e+000 7.822396e-001 4.290879e-001 1.125829e+000 2.614229e+000 6.449819e+001 1.821730e-001 -8.718158e-002 -7.882125e-002 2.912665e-002 1.859654e-001 3.932029e-003 -5.601324e-003 6.246569e-002 -3.465472e-001 -2.191978e-001 6.745414e-002 -2.689976e-002 1.376886e-001 -4.889670e-002 6.514177e-002 1.049704e-001 2.362497e-002 1.140974e-001 4.504946e-002 4.007102e-003 -4.237172e-002 -5.026653e-002 -3.342947e-002 3.152736e-002 -7.301391e-002 -9.941076e-003
<VARIANCE> 39
 1.043196e+002 2.335771e+001 2.151104e+001 1.772689e+001 2.428165e+001 8.226421e+001 1.742511e+001 3.875016e+001 5.349964e+001 2.401369e+001 1.940767e+001 1.765584e+001 2.029201e+002 1.216168e+000 1.479985e+000 1.762977e+000 1.702039e+000 1.731862e+000 2.131164e+000 1.459690e+000 1.651778e+000 2.148618e+000 2.538769e+000 1.427603e+000 1.256832e+000 1.495083e+000 2.410406e-001 2.407804e-001 3.224603e-001 3.802007e-001 3.236373e-001 4.897854e-001 2.550873e-001 3.051030e-001 3.676882e-001 5.188499e-001 2.669048e-001 2.250335e-001 2.603221e-001
<GCONST> 1.092420e+002
<STATE> 3
<MEAN> 39
 -3.515841e+000 -3.993907e+000 -1.696387e+000 -8.210821e-001 1.156471e+000 -8.400954e+000 1.621427e+000 1.558443e+000 -2.950990e+000 -6.326441e-001 1.305644e+000 2.473874e+000 7.441496e+001 2.670125e-001 1.492943e-001 2.267327e-001 1.405686e-001 6.165780e-001 6.975700e-002 -7.199007e-002 5.334308e-002 -7.323236e-001 -4.018618e-001 8.152814e-002 -5.244856e-001 2.421149e-001 -1.411646e-002 1.776455e-001 2.342288e-001 8.244047e-002 6.160679e-002 -5.999993e-002 -2.937720e-002 -1.396339e-002 -1.881271e-002 4.056306e-002 -4.630146e-002 -1.855312e-001 -5.705698e-002
<VARIANCE> 39
 7.830911e+001 2.913454e+001 3.260142e+001 1.764729e+001 2.973103e+001 7.049448e+001 2.491354e+001 6.559591e+001 8.163004e+001 2.497481e+001 2.471753e+001 2.721696e+001 1.689940e+002 1.092641e+000 2.244644e+000 2.119395e+000 1.585520e+000 2.502795e+000 2.440639e+000 1.742908e+000 2.348266e+000 3.288932e+000 2.270391e+000 2.658540e+000 1.737099e+000 1.385245e+000 2.282968e-001 2.833722e-001 1.954799e-001 3.043240e-001 3.110164e-001 4.854277e-001 3.422756e-001 4.085751e-001 4.892883e-001 3.914349e-001 3.205943e-001 2.958243e-001 2.473322e-001
<GCONST> 1.144439e+002
<STATE> 4
<MEAN> 39
 -1.194995e+000 4.692049e-001 4.708257e+000 -3.904409e-001 3.853801e+000 -1.101188e+001 -1.164383e+000 1.935184e+000 -6.951663e+000 -1.684839e-001 5.454590e-001 -1.483147e+000 7.551720e+001 -2.321096e-002 7.539446e-001 7.821287e-001 6.879310e-002 8.820346e-002 -7.042803e-001 -3.460410e-001 5.025812e-001 1.935087e-001 -9.374169e-002 -2.496919e-001 -4.058776e-001 -1.911483e-001 1.541615e-002 -2.190942e-002 4.863423e-002 6.736957e-002 -1.052377e-001 -2.095521e-001 -8.899620e-003 -3.479569e-002 9.031615e-002 5.875375e-002 -2.151077e-002 5.535445e-003 6.336703e-002
<VARIANCE> 39
 2.772065e+001 5.988048e+001 7.370045e+001 1.387556e+001 2.317320e+001 6.388028e+001 3.409048e+001 6.065329e+001 6.778017e+001 2.944421e+001 2.251546e+001 3.602654e+001 6.405252e+001 8.979980e-001 2.015384e+000 1.347575e+000 1.500926e+000 2.282297e+000 4.211406e+000 2.038835e+000 3.100674e+000 4.337280e+000 3.063715e+000 2.583099e+000 2.691396e+000 1.363941e+000 1.070390e-001 2.456766e-001 1.845197e-001 2.466874e-001 3.496948e-001 6.032652e-001 3.605703e-001 4.846694e-001 5.525356e-001 6.087297e-001 3.341192e-001 3.945636e-001 1.772836e-001
<GCONST> 1.147797e+002
<TRANSP> 5
 0.000000e+000 1.000000e+000 0.000000e+000 0.000000e+000 0.000000e+000
 0.000000e+000 6.195288e-001 3.804711e-001 0.000000e+000 0.000000e+000
 0.000000e+000 0.000000e+000 3.465184e-001 6.534816e-001 0.000000e+000
 0.000000e+000 0.000000e+000 0.000000e+000 7.225037e-001 2.774963e-001
 0.000000e+000 0.000000e+000 0.000000e+000 0.000000e+000 0.000000e+000
<ENDHMM>
~h "y"
<BEGINHMM>
<NUMSTATES> 5
<STATE> 2
<MEAN> 39
 -5.097082e+000 -1.901347e+000 4.101741e+000 4.451656e+000 9.447507e+000 -4.516962e+000 4.008172e-001 5.324648e+000 -5.208705e+000 -2.601450e+000 2.987290e+000 -3.602551e+000 7.191132e+001 2.262797e-001 -1.611953e-001 1.085318e+000 3.060440e-001 8.076253e-001 1.035969e-001 -3.064160e-001 2.343687e-002 -7.136051e-001 -5.589594e-001 2.318230e-001 -3.547840e-001 7.192087e-001 4.285109e-002 -1.200748e-001 7.076907e-003 1.357874e-002 2.541580e-002 -9.116261e-002 -7.604399e-004 -1.127171e-001 -1.318738e-001 2.525805e-002 1.972978e-002 2.872003e-003 8.138396e-002
<VARIANCE> 39
 5.740467e+001 2.724963e+001 7.375552e+001 6.846303e+001 6.432130e+001 5.052227e+001 2.484020e+001 2.407729e+001 4.691262e+001 3.187224e+001 3.007156e+001 2.738972e+001 1.034502e+002 1.674065e+000 2.457692e+000 3.639245e+000 4.206301e+000 2.517812e+000 2.686188e+000 1.771464e+000 2.501063e+000 3.249348e+000 2.477248e+000 1.967344e+000 2.146858e+000 2.675286e+000 2.678961e-001 3.574311e-001 5.167206e-001 5.286143e-001 4.241906e-001 4.559347e-001 3.408676e-001 5.006360e-001 6.420002e-001 4.472447e-001 3.483087e-001 2.934232e-001 3.251412e-001
<GCONST> 1.210486e+002
<STATE> 3
<MEAN> 39
 -4.449980e+000 -3.337986e+000 8.864112e+000 6.723265e+000 1.341595e+001 -4.635870e+000 -7.483225e-001 4.146317e+000 -7.740252e+000 -5.383154e+000 4.101467e+000 -4.707530e+000 7.578150e+001 1.618781e-002 -5.967910e-001 2.898996e-001 -4.182410e-001 2.890846e-001 -2.129697e-001 -3.497620e-001 -2.841097e-001 -5.581868e-001 -4.240686e-001 5.362076e-001 3.268844e-002 8.803413e-001 1.609233e-002 6.877923e-002 -2.711620e-001 -1.752963e-001 -2.339589e-001 -8.257372e-002 8.044562e-002 -1.973854e-002 8.931851e-002 1.193322e-001 -4.629975e-002 6.366551e-002 -7.361504e-002
<VARIANCE> 39
 3.185911e+001 2.210865e+001 8.424811e+001 8.245754e+001 5.236755e+001 3.424596e+001 3.077413e+001 2.904296e+001 4.963420e+001 2.367181e+001 4.094571e+001 2.077904e+001 3.464839e+001 1.323145e+000 2.352252e+000 2.724746e+000 3.075184e+000 2.846961e+000 2.825999e+000 1.740454e+000 2.581465e+000 4.541050e+000 1.960934e+000 2.341046e+000 2.022786e+000 1.781722e+000 2.399505e-001 4.275297e-001 3.820794e-001 4.235480e-001 4.062454e-001 4.760020e-001 3.399651e-001 4.768778e-001 7.937052e-001 2.875014e-001 4.372835e-001 3.090375e-001 2.638737e-001
<GCONST> 1.175241e+002
<STATE> 4
<MEAN> 39
 -3.310960e+000 -5.697433e+000 6.112540e+000 2.844596e+000 1.145559e+001 -8.015080e+000 -2.510762e+000 3.103305e+000 -9.684779e+000 -5.983305e+000 5.373457e+000 -3.208341e+000 8.032818e+001 4.655219e-001 -3.705799e-002 -7.260187e-001 -1.040881e+000 -1.098091e+000 -1.021900e+000 -4.300896e-002 3.133806e-001 2.726433e-001 2.159706e-001 -1.938311e-001 8.208535e-002 4.419124e-001 2.169762e-002 1.013302e-001 1.417491e-002 7.610040e-003 -1.724984e-001 -1.443831e-001 9.047268e-002 1.424922e-001 2.835611e-001 8.257294e-002 -1.202335e-001 -6.806076e-002 -1.159212e-001
<VARIANCE> 39
 3.028658e+001 1.338427e+001 6.448099e+001 7.348146e+001 5.785601e+001 5.725214e+001 2.831804e+001 4.880527e+001 5.595442e+001 2.109817e+001 4.849879e+001 2.728799e+001 1.571677e+001 8.793390e-001 8.487263e-001 1.771765e+000 1.803866e+000 3.028788e+000 3.168975e+000 2.157657e+000 2.441888e+000 5.821586e+000 1.601465e+000 2.240443e+000 1.555357e+000 7.172651e-001 1.180830e-001 1.426122e-001 2.217986e-001 2.909973e-001 3.953699e-001 4.592012e-001 3.561187e-001 3.987136e-001 6.797304e-001 2.328414e-001 3.898415e-001 2.486583e-001 9.526949e-002
<GCONST> 1.094290e+002
<TRANSP> 5
 0.000000e+000 1.000000e+000 0.000000e+000 0.000000e+000 0.000000e+000
 0.000000e+000 6.432410e-001 3.567590e-001 0.000000e+000 0.000000e+000
 0.000000e+000 0.000000e+000 6.821706e-001 3.178295e-001 0.000000e+000
 0.000000e+000 0.000000e+000 0.000000e+000 8.354000e-001 1.646000e-001
 0.000000e+000 0.000000e+000 0.000000e+000 0.000000e+000 0.000000e+000
<ENDHMM>
~h "z"
<BEGINHMM>
<NUMSTATES> 5
<STATE> 2
<MEAN> 39
 -1.802003e+001 -3.241833e+000 1.226522e+001 -7.143528e+000 3.189018e+000 -1.310633e+000 1.066782e+000 1.008529e+000 -3.856697e+000 -4.900990e+000 5.839666e-001 -3.428452e+000 7.640657e+001 -1.351837e+000 -1.257881e-001 7.166973e-002 -1.240937e+000 -4.564717e-001 6.492600e-001 1.298474e-001 -9.577230e-002 2.605793e-001 -1.069766e-001 1.132122e-001 2.956372e-001 9.623340e-002 2.570469e-001 1.524857e-002 -1.276716e-001 2.671068e-001 9.479235e-002 -1.587349e-001 -1.394204e-002 -1.806558e-002 -8.780988e-002 9.108742e-002 -1.643824e-002 1.171219e-002 -1.051473e-001
<VARIANCE> 39
 1.888348e+002 2.464946e+001 2.484760e+001 8.755797e+001 4.815678e+001 1.102840e+002 1.917753e+001 5.835032e+001 4.067184e+001 3.000134e+001 3.063414e+001 1.574370e+001 3.305867e+001 6.895556e+000 2.170611e+000 2.168863e+000 6.450483e+000 3.398815e+000 4.663120e+000 1.652408e+000 2.251619e+000 4.538027e+000 1.926990e+000 1.785088e+000 1.651740e+000 1.601805e+000 7.407746e-001 3.431607e-001 3.670945e-001 7.292725e-001 4.860180e-001 8.352294e-001 3.132359e-001 3.727778e-001 7.403206e-001 4.207755e-001 3.179117e-001 3.606184e-001 1.731550e-001
<GCONST> 1.225090e+002
<STATE> 3
<MEAN> 39
 -1.823445e+001 -3.584567e+000 1.154170e+001 -8.628439e+000 1.763568e+000 -1.350538e+000 1.587294e+000 2.308355e+000 -3.911335e+000 -5.635178e+000 -1.775897e-001 -2.482870e+000 7.537889e+001 5.249700e-001 2.737297e-001 -3.569036e-001 4.042200e-001 2.867073e-001 3.165461e-001 2.798768e-001 -2.531269e-001 -1.593090e-001 2.044017e-001 -7.385968e-002 2.942100e-001 -5.483372e-001 3.433495e-001 1.003628e-001 -9.654515e-002 4.398852e-001 1.825180e-001 -7.473557e-002 1.224697e-002 5.905301e-002 -5.523446e-003 1.538628e-001 -4.067481e-002 -1.205963e-001 -1.603161e-001
<VARIANCE> 39
 1.835184e+002 2.150978e+001 2.369181e+001 6.619364e+001 3.768065e+001 9.864854e+001 2.225573e+001 5.253051e+001 3.747943e+001 3.173434e+001 2.953623e+001 1.632204e+001 3.605243e+001 6.348502e+000 1.734823e+000 1.686482e+000 5.346546e+000 3.907209e+000 3.048869e+000 1.908313e+000 2.626879e+000 3.134001e+000 2.557212e+000 1.746765e+000 1.705396e+000 1.835027e+000 6.531112e-001 3.061499e-001 2.724656e-001 5.493544e-001 5.530277e-001 5.496863e-001 3.619520e-001 4.450078e-001 6.328480e-001 4.562601e-001 3.312533e-001 3.655886e-001 1.945164e-001
<GCONST> 1.203962e+002
<STATE> 4
<MEAN> 39
 -1.482748e+001 -1.714488e+000 9.205650e+000 -4.943802e+000 3.579516e+000 8.591461e-002 2.158405e+000 2.056331e+000 -4.209152e+000 -3.867116e+000 -1.789970e-001 -1.542041e+000 7.049023e+001 1.338422e+000 3.189783e-001 -7.940223e-001 1.564440e+000 6.620169e-001 -2.519835e-001 1.101385e-001 -2.088134e-002 -2.266826e-001 5.193234e-001 -1.335124e-001 -1.418348e-001 -6.302290e-001 -1.731627e-002 -8.610968e-002 -5.373286e-002 1.206941e-001 -3.974653e-002 -1.347726e-001 -4.412679e-002 4.062575e-002 3.356094e-002 8.971732e-002 1.255590e-003 -7.102509e-002 6.818414e-002
<VARIANCE> 39
 1.205337e+002 2.571032e+001 3.817039e+001 7.207816e+001 5.800942e+001 6.986492e+001 2.926964e+001 3.538890e+001 3.705742e+001 3.967710e+001 2.652594e+001 2.219965e+001 7.641815e+001 5.153151e+000 2.331039e+000 2.212384e+000 4.242928e+000 4.217635e+000 4.229735e+000 2.084166e+000 3.129622e+000 3.015181e+000 3.396823e+000 2.021257e+000 2.348848e+000 2.779309e+000 7.543700e-001 3.884819e-001 3.652048e-001 6.609972e-001 7.027457e-001 5.361172e-001 4.093609e-001 5.537161e-001 5.352362e-001 5.088854e-001 3.619176e-001 3.968214e-001 3.732611e-001
<GCONST> 1.259461e+002
<TRANSP> 5
 0.000000e+000 1.000000e+000 0.000000e+000 0.000000e+000 0.000000e+000
 0.000000e+000 7.348162e-001 2.651838e-001 0.000000e+000 0.000000e+000
 0.000000e+000 0.000000e+000 6.324512e-001 3.675489e-001 0.000000e+000
 0.000000e+000 0.000000e+000 0.000000e+000 7.482997e-001 2.517002e-001
 0.000000e+000 0.000000e+000 0.000000e+000 0.000000e+000 0.000000e+000
<ENDHMM>
~h "aa"
<BEGINHMM>
<NUMSTATES> 5
<STATE> 2
<MEAN> 39
 2.404537e-001 -2.896522e+000 -1.563339e+000 -8.014883e+000 -3.066808e+000 -1.379447e+001 1.833601e+000 9.013765e+000 7.470142e+000 9.129710e-001 -5.336086e-001 3.073427e+000 7.800901e+001 6.276503e-001 -5.618844e-001 -5.135015e-001 -3.457754e-001 -4.601490e-001 -5.502713e-001 5.160168e-002 -1.649208e-001 -1.049378e+000 -6.719251e-003 1.352511e-001 7.122897e-002 5.762767e-001 -1.873949e-001 4.863974e-002 -3.186901e-002 3.630551e-002 1.874087e-001 4.170969e-001 -2.916779e-003 -1.751679e-001 -2.757562e-001 -1.300532e-001 1.191256e-001 -1.276704e-002 -1.866396e-001
<VARIANCE> 39
 1.837473e+001 1.674120e+001 2.556482e+001 1.829139e+001 1.742135e+001 4.453442e+001 1.623956e+001 2.574372e+001 5.034883e+001 1.797565e+001 1.412493e+001 1.313215e+001 2.764778e+001 1.199083e+000 2.266486e+000 2.086988e+000 1.891222e+000 1.419120e+000 4.915812e+000 1.241300e+000 2.485345e+000 3.023332e+000 1.530478e+000 1.378943e+000 1.253431e+000 1.793513e+000 1.196429e-001 3.233254e-001 3.129797e-001 3.561320e-001 2.072536e-001 4.379633e-001 2.458996e-001 3.385642e-001 5.373855e-001 2.649703e-001 2.558590e-001 2.390718e-001 1.594841e-001
<GCONST> 1.027881e+002
<STATE> 3
<MEAN> 39
 1.155051e+000 -3.935398e+000 -3.039750e+000 -8.970886e+000 -3.474219e+000 -1.276697e+001 2.324764e+000 7.729033e+000 3.022242e+000 1.647257e-001 6.100385e-001 3.697929e+000 7.861298e+001 1.052494e-001 -1.401026e-001 -1.322219e-001 -2.904364e-001 2.158321e-002 6.418056e-001 1.310058e-001 -4.601107e-001 -1.288026e+000 -3.974883e-001 3.072278e-001 2.477982e-001 4.077053e-002 -1.802095e-001 1.394867e-001 1.561550e-001 1.035199e-002 1.875646e-001 3.820442e-001 1.606069e-003 -2.919774e-002 -2.658662e-002 -9.944126e-002 4.437603e-002 3.385202e-002 -1.687948e-001
<VARIANCE> 39
 2.620987e+001 1.508512e+001 2.127100e+001 2.178833e+001 1.730737e+001 5.676591e+001 1.647200e+001 3.180793e+001 5.254737e+001 2.399875e+001 1.528153e+001 1.702055e+001 2.888703e+001 1.508242e+000 2.256800e+000 2.532001e+000 1.765269e+000 1.093068e+000 3.995579e+000 1.179958e+000 1.966340e+000 3.079268e+000 1.947063e+000 1.005223e+000 1.220011e+000 1.680425e+000 1.518647e-001 3.142986e-001 2.443846e-001 3.399595e-001 1.985441e-001 4.599459e-001 2.455185e-001 3.268756e-001 5.111557e-001 3.480132e-001 2.191942e-001 2.240022e-001 1.820109e-001
<GCONST> 1.036733e+002
<STATE> 4
<MEAN> 39
 7.341423e-001 -2.981695e+000 -3.880975e+000 -1.146532e+001 -1.790850e+000 -7.270266e+000 3.060046e+000 6.200772e+000 -3.278986e+000 -2.344297e+000 1.372027e+000 5.275257e+000 7.694921e+001 -4.171495e-001 4.262411e-001 3.411390e-001 -1.846078e-001 5.928119e-001 1.527308e+000 1.870524e-001 -4.506831e-001 -1.163127e+000 -9.715499e-001 1.901767e-001 2.932103e-001 -4.188593e-001 -1.609767e-001 7.477032e-002 8.990315e-002 1.572270e-001 1.604888e-001 7.750744e-002 -5.010245e-002 2.679575e-002 1.744159e-001 -1.449434e-002 -2.327196e-002 -8.423926e-002 -9.570782e-002
<VARIANCE> 39
 4.592854e+001 2.500902e+001 2.231801e+001 3.077194e+001 2.067365e+001 7.701814e+001 1.418026e+001 4.411270e+001 6.167521e+001 4.152872e+001 1.863797e+001 2.177422e+001 4.920988e+001 1.495950e+000 2.045812e+000 2.054957e+000 2.121988e+000 1.864202e+000 2.661759e+000 1.090353e+000 2.129995e+000 3.351686e+000 3.142498e+000 1.149447e+000 1.325929e+000 1.485912e+000 1.735714e-001 2.487309e-001 3.155876e-001 4.779907e-001 2.735656e-001 4.208145e-001 2.150385e-001 3.887027e-001 6.002397e-001 4.726754e-001 2.569108e-001 2.230545e-001 2.167737e-001
<GCONST> 1.096991e+002
<TRANSP> 5
 0.000000e+000 1.000000e+000 0.000000e+000 0.000000e+000 0.000000e+000
 0.000000e+000 6.205189e-001 3.794810e-001 0.000000e+000 0.000000e+000
 0.000000e+000 0.000000e+000 6.175400e-001 3.824600e-001 0.000000e+000
 0.000000e+000 0.000000e+000 0.000000e+000 8.582306e-001 1.417693e-001
 0.000000e+000 0.000000e+000 0.000000e+000 0.000000e+000 0.000000e+000
<ENDHMM>
~h "ae"
<BEGINHMM>
<NUMSTATES> 5
<STATE> 2
<MEAN> 39
 -8.323537e+000 4.538269e-001 3.207834e+000 1.361234e+000 -1.194136e+000 -4.900476e+000 6.229663e+000 3.308904e+000 1.293318e+000 -1.253859e+000 -3.826996e+000 2.066918e+000 6.672325e+001 2.258665e-002 -8.980112e-001 -9.470919e-001 -9.043019e-001 -1.284958e+000 -8.032218e-001 3.219293e-001 2.464575e-001 4.507446e-001 1.425226e-001 1.538710e-001 9.868197e-001 4.057613e-001 1.348792e-001 -1.800751e-001 -1.191483e-001 1.331010e-001 -4.394734e-003 -1.077472e-001 5.897012e-002 1.293006e-001 8.224273e-003 2.043873e-001 8.573900e-003 -1.503519e-001 1.248282e-001
<VARIANCE> 39
 3.565095e+001 3.366734e+001 3.980321e+001 4.733317e+001 8.026499e+001 4.848793e+001 3.169143e+001 2.709967e+001 3.599740e+001 3.153164e+001 3.129650e+001 3.977386e+001 6.100999e+001 4.348568e+000 3.643033e+000 2.720058e+000 5.126266e+000 5.540553e+000 5.684878e+000 3.362916e+000 2.849900e+000 3.439215e+000 3.763353e+000 3.426796e+000 5.829198e+000 6.546934e+000 6.328956e-001 7.340419e-001 5.488437e-001 7.542552e-001 9.350474e-001 1.103684e+000 6.515237e-001 4.934298e-001 6.282287e-001 8.098992e-001 6.785508e-001 1.005667e+000 1.155621e+000
<GCONST> 1.344797e+002
<STATE> 3
<MEAN> 39
 -7.698716e+000 -3.702581e+000 5.021238e-002 4.434495e-001 -2.805058e+000 -7.023342e+000 6.814129e+000 4.568584e+000 2.373852e+000 8.729511e-002 -2.588731e+000 3.065284e+000 6.986652e+001 9.164795e-001 -7.447692e-001 -5.138080e-001 -5.779325e-002 -3.303334e-001 -8.157009e-001 4.520212e-001 3.660589e-001 -7.534769e-002 3.781677e-001 1.481149e-001 1.680299e-001 1.028315e+000 1.482648e-001 1.010714e-001 6.801156e-002 1.276703e-001 2.387560e-001 9.525773e-003 -1.056537e-002 -8.475692e-003 -1.475362e-001 -1.575651e-002 2.465891e-002 -9.882037e-002 6.924095e-002
<VARIANCE> 39
 6.322421e+001 4.439956e+001 3.031753e+001 3.964428e+001 7.695681e+001 5.192618e+001 4.598338e+001 3.730247e+001 3.874214e+001 2.684967e+001 2.910616e+001 2.481135e+001 7.201421e+001 5.345823e+000 4.995263e+000 2.657844e+000 3.247741e+000 5.696534e+000 5.845963e+000 4.261541e+000 3.670167e+000 4.312916e+000 2.645530e+000 3.064362e+000 3.292037e+000 6.684528e+000 8.089231e-001 9.087446e-001 4.778242e-001 6.185708e-001 8.911869e-001 9.892413e-001 8.192425e-001 5.903260e-001 7.127690e-001 5.648490e-001 6.067306e-001 6.588268e-001 1.098689e+000
<GCONST> 1.344852e+002
<STATE> 4
<MEAN> 39
 -1.477444e+000 -4.958730e+000 -8.149583e-001 2.524854e+000 1.053125e+000 -9.031807e+000 7.995458e+000 4.604404e+000 -2.892498e+000 5.258948e-001 -1.548889e+000 2.030045e+000 7.536252e+001 4.056494e-001 3.964095e-002 5.956755e-002 4.378365e-001 4.650259e-001 -1.099834e-002 -1.791343e-001 -2.696432e-001 -4.976322e-001 2.429115e-002 9.229645e-002 -2.231227e-001 3.115921e-001 -1.193698e-001 8.202566e-002 6.278136e-002 4.560829e-002 4.539330e-002 1.272663e-001 -8.747596e-002 -2.822437e-002 2.216452e-002 -1.757951e-002 -4.977086e-002 -8.255380e-002 -1.580646e-001
<VARIANCE> 39
 2.867684e+001 3.175776e+001 2.933827e+001 5.088438e+001 5.797065e+001 5.767781e+001 4.266780e+001 4.246172e+001 4.337994e+001 3.165254e+001 4.144365e+001 3.735745e+001 5.013770e+001 2.479255e+000 2.819561e+000 2.586532e+000 4.469466e+000 3.671637e+000 5.218072e+000 2.725255e+000 3.048100e+000 3.139590e+000 2.567173e+000 3.318537e+000 4.452857e+000 4.193012e+000 3.559347e-001 4.300806e-001 3.745639e-001 7.303961e-001 5.348319e-001 8.797638e-001 5.325809e-001 5.372031e-001 5.503975e-001 5.477078e-001 6.475549e-001 7.751878e-001 6.576971e-001
<GCONST> 1.280909e+002
<TRANSP> 5
 0.000000e+000 1.000000e+000 0.000000e+000 0.000000e+000 0.000000e+000
 0.000000e+000 8.091350e-001 1.908650e-001 0.000000e+000 0.000000e+000
 0.000000e+000 0.000000e+000 7.832351e-001 2.167650e-001 0.000000e+000
 0.000000e+000 0.000000e+000 0.000000e+000 8.999227e-001 1.000773e-001
 0.000000e+000 0.000000e+000 0.000000e+000 0.000000e+000 0.000000e+000
<ENDHMM>
~h "ah"
<BEGINHMM>
<NUMSTATES> 5
<STATE> 2
<MEAN> 39
 -2.610797e+000 2.065164e+000 5.712271e+000 2.541200e+000 2.008773e+000 -1.088595e+001 1.175437e+000 8.067513e+000 -3.606112e+000 -4.464051e-001 -1.534185e+000 -4.403887e+000 7.079943e+001 2.910785e-001 1.269460e-001 4.114020e-001 4.007038e-002 -6.603583e-001 -1.263903e+000 -2.044002e-001 2.747326e-001 1.620499e-001 2.497102e-001 -2.569137e-001 -2.446158e-002 5.106084e-001 2.255044e-002 -1.933627e-001 -5.471928e-002 -1.144942e-001 -2.398602e-001 -2.549963e-001 4.831962e-002 -4.963754e-002 -2.851837e-002 -2.130944e-002 -1.423665e-003 1.998160e-001 2.866344e-001
<VARIANCE> 39
 2.426586e+001 6.015480e+001 3.809258e+001 4.440107e+001 6.048086e+001 9.330619e+001 3.274749e+001 3.675219e+001 4.984591e+001 3.440295e+001 3.762590e+001 2.841248e+001 7.819487e+001 2.236917e+000 2.873544e+000 2.704628e+000 3.661880e+000 5.195431e+000 1.124287e+001 4.920684e+000 3.936217e+000 5.761615e+000 3.929907e+000 2.265369e+000 2.458997e+000 4.494589e+000 2.954084e-001 2.843659e-001 3.251233e-001 6.229045e-001 8.423833e-001 1.467383e+000 5.998346e-001 5.948028e-001 9.438210e-001 6.889781e-001 4.861416e-001 4.187945e-001 6.303331e-001
<GCONST> 1.310575e+002
<STATE> 3
<MEAN> 39
 -1.797460e+000 -5.210854e-001 5.672943e+000 7.446051e-001 -3.044668e+000 -1.526811e+001 3.499110e+000 8.751915e+000 -2.338748e+000 -9.041315e-001 -3.204739e+000 -2.324680e+000 7.430193e+001 4.054117e-001 -6.225491e-001 -1.218791e-001 -4.743946e-001 -7.419932e-001 -1.158142e+000 2.489630e-001 1.361366e-001 -5.632812e-002 8.208023e-002 -2.159255e-001 4.678298e-001 1.153818e+000 -2.245701e-002 -7.963102e-002 -7.043363e-002 4.314672e-002 1.039845e-001 2.167851e-001 -2.917826e-002 1.537697e-002 4.728447e-002 1.365585e-003 1.890240e-002 6.616193e-003 -6.531858e-002
<VARIANCE> 39
 1.905469e+001 4.817167e+001 3.266871e+001 3.969451e+001 7.122881e+001 9.263529e+001 5.244331e+001 3.730075e+001 5.155141e+001 3.027882e+001 3.860090e+001 2.989538e+001 5.960381e+001 2.114289e+000 2.357544e+000 2.177715e+000 4.243100e+000 5.599798e+000 1.200377e+001 3.653566e+000 4.341138e+000 4.705971e+000 3.586546e+000 2.617436e+000 2.946572e+000 6.057043e+000 3.283366e-001 2.995339e-001 3.733144e-001 5.983495e-001 7.724836e-001 1.695071e+000 6.316482e-001 6.487250e-001 7.641257e-001 6.606646e-001 4.460481e-001 4.241459e-001 7.608741e-001
<GCONST> 1.309412e+002
<STATE> 4
<MEAN> 39
 -2.341166e-001 -2.581671e+000 4.030062e+000 -4.737257e-001 -3.432174e+000 -2.115022e+001 4.094123e+000 1.195066e+001 -2.979291e+000 -9.925197e-001 -1.864071e+000 -1.249568e+000 7.951533e+001 -1.918789e-002 -6.332267e-004 2.434383e-002 3.127054e-001 3.007604e-001 6.393390e-001 2.187115e-001 -2.511759e-001 -1.720587e-001 -1.275203e-001 9.339508e-002 -1.620369e-001 -1.605916e-001 -6.276989e-002 6.407709e-002 5.400895e-002 7.927106e-002 8.790819e-002 2.029416e-001 -2.990477e-002 -2.842307e-002 -1.722708e-003 -2.696947e-002 1.785527e-002 -5.469491e-002 -1.478444e-001
<VARIANCE> 39
 5.938324e+000 4.263491e+001 4.365145e+001 2.979490e+001 4.876080e+001 9.062234e+001 6.235239e+001 5.168739e+001 4.480669e+001 1.854482e+001 2.645803e+001 2.220558e+001 5.021272e+001 3.757223e-001 1.521775e+000 1.642218e+000 1.872846e+000 2.224910e+000 4.198735e+000 2.324856e+000 2.188803e+000 2.184481e+000 1.431650e+000 1.444444e+000 1.426111e+000 1.740108e+000 6.950743e-002 1.477741e-001 1.864995e-001 2.378251e-001 2.647712e-001 4.665054e-001 3.670254e-001 3.677237e-001 4.120426e-001 2.459637e-001 2.221335e-001 1.929257e-001 1.363861e-001
<GCONST> 1.054916e+002
<TRANSP> 5
 0.000000e+000 1.000000e+000 0.000000e+000 0.000000e+000 0.000000e+000
 0.000000e+000 5.884439e-001 4.115561e-001 0.000000e+000 0.000000e+000
 0.000000e+000 0.000000e+000 7.652633e-001 2.347367e-001 0.000000e+000
 0.000000e+000 0.000000e+000 0.000000e+000 9.255817e-001 7.441834e-002
 0.000000e+000 0.000000e+000 0.000000e+000 0.000000e+000 0.000000e+000
<ENDHMM>
~h "ao"
<BEGINHMM>
<NUMSTATES> 5
<STATE> 2
<MEAN> 39
 -1.128241e+000 -2.226136e+000 2.349801e+000 -3.647247e+000 -6.342690e+000 -2.186571e+001 -5.231684e+000 8.792938e+000 4.521195e+000 -3.250237e-001 3.135656e+000 -3.542302e+000 7.850570e+001 7.794564e-001 -2.788567e-001 -3.005262e-001 -2.715430e-002 -1.041396e+000 -2.555206e+000 -1.039424e-001 8.555119e-001 1.226193e+000 8.428457e-001 2.707760e-001 -3.153652e-001 6.108654e-001 -4.633342e-001 -5.596432e-002 -4.854569e-002 2.939009e-003 2.314686e-001 4.710141e-001 2.367350e-001 -2.319495e-001 -2.112686e-001 -2.363400e-002 -5.922081e-002 1.181075e-001 -1.092859e-001
<VARIANCE> 39
 5.487897e+001 1.678788e+001 2.841084e+001 1.539178e+001 2.738494e+001 1.157256e+002 3.874530e+001 3.079918e+001 2.306824e+001 1.515439e+001 2.790913e+001 2.890145e+001 8.271060e+001 2.658559e+000 7.103482e-001 1.546233e+000 9.735371e-001 2.138521e+000 8.064074e+000 2.488784e+000 2.106710e+000 3.012371e+000 1.693992e+000 1.451555e+000 1.108053e+000 2.298280e+000 8.766557e-001 1.878936e-001 4.089636e-001 3.001818e-001 3.066333e-001 1.144533e+000 4.761828e-001 3.678129e-001 4.214240e-001 2.940188e-001 2.487313e-001 1.758746e-001 2.672065e-001
<GCONST> 1.119531e+002
<STATE> 3
<MEAN> 39
 2.333364e-001 -3.286614e+000 9.544495e-001 -4.307700e+000 -8.235122e+000 -2.688230e+001 -3.518601e+000 1.117077e+001 5.994036e+000 1.807393e+000 2.330956e+000 -2.650891e+000 8.089606e+001 1.760347e-001 -2.127442e-002 -4.305426e-002 -4.837634e-002 -5.684071e-001 -1.022251e+000 1.813130e-001 2.598463e-001 5.574940e-001 5.969375e-001 -6.630526e-003 5.051307e-002 2.625834e-001 -1.715557e-001 1.038636e-001 9.198490e-002 8.961539e-003 2.090004e-001 5.801919e-001 1.594740e-002 -1.853721e-001 -3.610599e-001 -1.242948e-001 -5.619411e-002 2.848130e-002 -1.871231e-001
<VARIANCE> 39
 3.396976e+001 1.148882e+001 1.665335e+001 1.324929e+001 2.474003e+001 7.758679e+001 3.731629e+001 3.028044e+001 1.331729e+001 1.207370e+001 1.956474e+001 1.874526e+001 3.491753e+001 1.005173e+000 4.453130e-001 8.184246e-001 6.090235e-001 1.385958e+000 4.416499e+000 1.275531e+000 1.487135e+000 1.937034e+000 1.129945e+000 1.005104e+000 7.581420e-001 2.185521e+000 2.591607e-001 7.627066e-002 1.707239e-001 1.617886e-001 2.289606e-001 6.219330e-001 2.915687e-001 2.604416e-001 2.671065e-001 2.164129e-001 1.411137e-001 1.333591e-001 1.842796e-001
<GCONST> 9.385857e+001
<STATE> 4
<MEAN> 39
 6.266136e-001 -9.737338e-001 2.930657e+000 -5.261636e+000 -1.085196e+001 -2.364534e+001 -1.484020e+000 1.032499e+001 3.703575e+000 3.381553e+000 1.541890e+000 -1.422522e+000 7.878161e+001 -2.852469e-001 2.997171e-001 1.863672e-001 -2.006660e-002 1.756392e-001 9.924728e-001 3.769968e-001 -1.244172e-001 -2.333118e-001 -1.703552e-001 -2.058702e-001 1.027988e-001 -4.897127e-001 -1.024224e-001 3.781498e-002 1.534746e-002 2.085972e-002 7.488429e-002 1.676402e-001 1.620135e-002 -2.019829e-002 -2.549618e-002 -5.687105e-002 1.966313e-002 1.519186e-002 -9.343866e-002
<VARIANCE> 39
 1.661765e+001 3.157248e+001 2.696390e+001 1.916829e+001 3.363974e+001 1.195305e+002 3.417603e+001 2.969803e+001 2.661040e+001 1.825841e+001 2.477268e+001 1.870241e+001 4.164014e+001 8.369482e-001 8.481318e-001 1.096429e+000 1.152090e+000 1.392398e+000 2.794176e+000 1.163262e+000 9.911357e-001 1.690845e+000 1.236426e+000 1.065716e+000 8.732069e-001 5.745559e-001 1.135577e-001 1.058761e-001 1.276579e-001 2.006402e-001 2.314944e-001 3.759252e-001 1.739747e-001 1.825275e-001 2.772600e-001 1.718853e-001 2.071907e-001 1.549524e-001 8.031938e-002
<GCONST> 9.398508e+001
<TRANSP> 5
 0.000000e+000 1.000000e+000 0.000000e+000 0.000000e+000 0.000000e+000
 0.000000e+000 6.854556e-001 3.145443e-001 0.000000e+000 0.000000e+000
 0.000000e+000 0.000000e+000 6.296242e-001 3.703758e-001 0.000000e+000
 0.000000e+000 0.000000e+000 0.000000e+000 9.328846e-001 6.711536e-002
 0.000000e+000 0.000000e+000 0.000000e+000 0.000000e+000 0.000000e+000
<ENDHMM>
~h "aw"
<BEGINHMM>
<NUMSTATES> 5
<STATE> 2
<MEAN> 39
 -1.593168e+001 -8.909514e-001 7.733867e+000 -5.379326e+000 5.022641e+000 -4.730414e+000 5.912329e-001 4.809804e+000 1.325002e+000 -4.111996e+000 9.924676e-001 -1.529567e+000 7.165343e+001 1.056630e+000 1.284868e-001 4.133389e-001 9.243799e-003 -4.958364e-001 -7.820199e-001 -1.421216e-001 1.876268e-001 -8.285989e-002 -6.362013e-001 -1.572660e-001 -2.456761e-001 9.633235e-001 2.859344e-001 2.037963e-002 -3.342195e-002 3.254057e-002 -2.383205e-001 -2.560232e-001 -1.952273e-002 2.259094e-001 -2.893832e-002 -5.901560e-002 1.461884e-002 -8.752032e-002 1.344710e-001
<VARIANCE> 39
 1.108926e+002 1.754454e+001 2.851859e+001 1.987196e+001 2.218125e+001 9.914420e+001 4.552625e+001 6.846636e+001 1.607277e+001 2.536389e+001 1.464567e+001 2.918596e+001 4.343662e+001 9.837870e+000 1.882283e+000 1.861152e+000 2.310700e+000 3.488522e+000 9.913719e+000 5.192289e+000 5.924905e+000 1.864675e+000 3.189369e+000 1.489863e+000 2.349708e+000 4.770176e+000 9.960645e-001 3.175650e-001 2.754783e-001 3.979924e-001 5.043486e-001 1.648395e+000 9.985538e-001 9.371026e-001 3.316538e-001 5.715367e-001 2.819789e-001 3.721670e-001 8.700850e-001
<GCONST> 1.254466e+002
<STATE> 3
<MEAN> 39
 -1.118445e+001 -9.298720e-001 7.411994e+000 -5.578241e+000 3.044365e-001 -9.094523e+000 9.519525e-001 6.405745e+000 1.202295e+000 -5.771416e+000 4.098106e-001 -2.243332e+000 7.598146e+001 2.441000e+000 -1.725170e-001 -5.326567e-002 2.319520e-001 -1.928873e+000 -2.424498e+000 -1.588255e-001 1.366880e+000 4.581485e-002 -5.804027e-001 8.746091e-003 -5.419528e-001 1.312618e+000 -1.998713e-001 -1.927812e-001 -8.472472e-002 -1.036863e-001 -8.553191e-002 -1.607041e-001 2.101774e-002 1.540914e-001 1.314884e-001 2.651194e-001 8.236098e-002 2.721788e-002 -8.028426e-003
<VARIANCE> 39
 1.264871e+002 2.214139e+001 1.619276e+001 1.690793e+001 6.476917e+001 1.340923e+002 3.239522e+001 5.809424e+001 2.082284e+001 3.291079e+001 1.569474e+001 2.367224e+001 3.884815e+001 1.124238e+001 2.258780e+000 1.486311e+000 1.694610e+000 5.424108e+000 1.102646e+001 3.388353e+000 5.308694e+000 2.334787e+000 4.560234e+000 1.725051e+000 2.221703e+000 3.315152e+000 1.212188e+000 4.049891e-001 2.876717e-001 3.120946e-001 5.614101e-001 1.508243e+000 5.621998e-001 8.461257e-001 4.246393e-001 7.905228e-001 3.174861e-001 3.521377e-001 5.935071e-001
<GCONST> 1.261546e+002
<STATE> 4
<MEAN> 39
 -2.637116e+000 -3.019455e+000 8.275700e+000 -3.703291e+000 -8.167875e+000 -2.015369e+001 2.209307e+000 1.301620e+001 1.670696e+000 -5.145016e+000 -1.649309e+000 -4.372908e+000 7.965543e+001 1.765860e-001 -5.478855e-002 1.307929e-001 1.975754e-001 1.282010e-001 -3.419702e-002 6.921480e-002 2.002888e-001 -3.824853e-001 -1.305386e-001 -3.451643e-001 -1.155275e-001 -1.145929e-002 -1.455793e-001 1.116247e-002 -2.012345e-002 -7.963264e-003 1.681182e-001 2.082779e-001 2.426542e-002 -1.524811e-001 -6.555000e-002 2.258326e-002 9.531912e-005 6.531078e-002 -7.497506e-002
<VARIANCE> 39
 3.530114e+001 2.204415e+001 1.460699e+001 1.918705e+001 7.603312e+001 1.142747e+002 2.300281e+001 3.241688e+001 3.751593e+001 3.582243e+001 2.385729e+001 2.209357e+001 2.469654e+001 2.484376e+000 2.189887e+000 1.147711e+000 1.286142e+000 4.708115e+000 7.136177e+000 2.247602e+000 2.901234e+000 3.071510e+000 3.343799e+000 1.388114e+000 2.158763e+000 2.243959e+000 3.321557e-001 3.803841e-001 2.038428e-001 2.443371e-001 4.685332e-001 7.933784e-001 4.195039e-001 4.351250e-001 5.042762e-001 6.290370e-001 2.553699e-001 3.908073e-001 4.204057e-001
<GCONST> 1.159611e+002
<TRANSP> 5
 0.000000e+000 1.000000e+000 0.000000e+000 0.000000e+000 0.000000e+000
 0.000000e+000 8.326939e-001 1.673061e-001 0.000000e+000 0.000000e+000
 0.000000e+000 0.000000e+000 7.358278e-001 2.641722e-001 0.000000e+000
 0.000000e+000 0.000000e+000 0.000000e+000 9.515169e-001 4.848312e-002
 0.000000e+000 0.000000e+000 0.000000e+000 0.000000e+000 0.000000e+000
<ENDHMM>
~h "ax"
<BEGINHMM>
<NUMSTATES> 5
<STATE> 2
<MEAN> 39
 -4.208413e+000 -8.919598e-001 2.675747e+000 -3.070551e+000 4.809145e-001 -4.836585e+000 4.277861e+000 5.157403e+000 -5.063353e+000 -4.577382e+000 -1.637274e-002 1.602774e+000 7.365619e+001 2.237003e-001 8.841491e-002 2.924277e-001 2.577735e-001 3.107360e-002 1.493658e-002 1.792710e-001 -1.532896e-001 -2.388890e-002 -9.736935e-002 -2.402037e-001 3.631669e-002 2.927809e-001 -4.036692e-002 -1.838662e-002 -1.562432e-002 3.963422e-002 -1.606176e-003 7.552025e-002 -3.942975e-002 -6.018706e-002 2.214843e-001 1.099804e-001 1.225142e-002 -8.031982e-002 -4.136694e-002
<VARIANCE> 39
 6.202443e+001 3.444202e+001 2.177703e+001 6.157952e+001 4.928744e+001 8.558401e+001 2.631641e+001 3.859319e+001 7.251665e+001 5.842596e+001 2.643074e+001 2.778431e+001 8.038664e+001 5.093249e+000 2.276279e+000 1.869754e+000 3.632550e+000 3.790827e+000 5.525797e+000 2.654292e+000 2.180501e+000 4.641549e+000 3.252510e+000 2.051699e+000 1.533117e+000 4.440886e+000 7.508302e-001 4.296951e-001 3.428971e-001 7.146266e-001 6.231382e-001 7.548189e-001 4.738402e-001 3.951349e-001 8.038362e-001 6.547993e-001 3.897953e-001 2.734559e-001 6.171911e-001
<GCONST> 1.273379e+002
<STATE> 3
<MEAN> 39
 -2.938837e+000 -2.606236e-001 3.298484e+000 -2.417459e+000 7.954803e-001 -4.709040e+000 4.658594e+000 4.831674e+000 -5.425574e+000 -5.084744e+000 -4.338599e-001 1.283265e+000 7.471257e+001 2.152300e-002 7.328449e-002 1.508973e-001 4.259146e-001 2.173314e-001 1.985165e-001 6.584579e-002 -2.226036e-001 2.854616e-001 2.588037e-001 -4.596420e-002 -1.675535e-001 -5.599374e-002 -1.244023e-001 -5.663582e-003 -3.646001e-002 1.590993e-002 7.203249e-002 7.954416e-002 -4.900520e-002 -2.224567e-002 1.530191e-001 1.256375e-001 3.961680e-002 -7.145146e-002 -1.445193e-001
<VARIANCE> 39
 4.104420e+001 3.186262e+001 1.889591e+001 5.955068e+001 5.514031e+001 8.667504e+001 2.778050e+001 3.954263e+001 6.491566e+001 6.132748e+001 2.648002e+001 2.916948e+001 6.514612e+001 3.565762e+000 2.198252e+000 1.534434e+000 3.093125e+000 2.751973e+000 5.085585e+000 2.369389e+000 2.618467e+000 3.875641e+000 3.205945e+000 1.925282e+000 1.545544e+000 3.753576e+000 5.525160e-001 3.478682e-001 2.811040e-001 6.164675e-001 4.430525e-001 6.502464e-001 4.049313e-001 3.714898e-001 6.881765e-001 5.716856e-001 3.809508e-001 2.816176e-001 4.396155e-001
<GCONST> 1.229537e+002
<STATE> 4
<MEAN> 39
 -3.771454e+000 -6.284200e-001 1.116077e+000 -2.226722e+000 -1.292632e+000 -4.813589e+000 5.132615e+000 5.219667e+000 -2.664539e+000 -3.141362e+000 -9.546911e-001 2.135541e+000 7.066635e+001 -3.387955e-001 1.525470e-001 2.177735e-002 3.168746e-001 3.263639e-001 4.072474e-001 7.220005e-003 1.047907e-002 2.879267e-001 2.339924e-001 7.204039e-002 -1.544426e-001 -5.504802e-001 -6.493551e-002 2.956359e-002 4.528168e-003 2.772495e-002 2.910504e-002 1.624365e-002 -1.553195e-002 3.765810e-004 2.447820e-002 1.929699e-002 -1.605351e-002 -2.018569e-002 -7.038860e-002
<VARIANCE> 39
 4.541291e+001 4.058770e+001 2.338282e+001 4.837365e+001 5.412119e+001 1.263936e+002 2.959846e+001 3.513876e+001 7.276086e+001 4.100403e+001 2.178090e+001 2.206949e+001 1.099578e+002 1.300154e+000 1.449148e+000 1.021583e+000 1.849446e+000 1.643937e+000 2.574613e+000 1.772860e+000 1.709036e+000 2.439947e+000 1.921939e+000 1.441070e+000 1.183291e+000 1.637849e+000 1.908281e-001 1.957820e-001 1.807101e-001 3.274187e-001 2.561929e-001 4.060118e-001 3.311892e-001 2.629447e-001 4.063213e-001 3.094119e-001 2.535214e-001 2.214755e-001 2.044556e-001
<GCONST> 1.099152e+002
<TRANSP> 5
 0.000000e+000 1.000000e+000 0.000000e+000 0.000000e+000 0.000000e+000
 0.000000e+000 5.682549e-001 4.317451e-001 0.000000e+000 0.000000e+000
 0.000000e+000 0.000000e+000 5.124194e-001 4.875806e-001 0.000000e+000
 0.000000e+000 0.000000e+000 0.000000e+000 7.632419e-001 2.367581e-001
 0.000000e+000 0.000000e+000 0.000000e+000 0.000000e+000 0.000000e+000
<ENDHMM>
~h "ay"
<BEGINHMM>
<NUMSTATES> 5
<STATE> 2
<MEAN> 39
 -6.609537e+000 -2.732110e+000 -2.326082e+000 -2.099722e+000 -2.592026e+000 -7.931856e+000 5.122673e+000 8.693968e+000 4.621841e+000 8.233908e-001 1.460871e+000 1.014093e+000 6.964682e+001 1.406275e+000 -1.075114e+000 -7.909616e-001 -3.638918e-001 -1.226265e+000 -1.438459e+000 7.448615e-001 7.606186e-001 4.576753e-001 -7.598352e-002 -7.390414e-001 -2.960124e-002 1.605882e+000 1.976506e-001 -1.338169e-001 -4.184433e-002 2.052435e-001 6.556087e-002 4.552136e-002 3.921343e-002 -1.193928e-001 -5.486150e-002 7.833624e-003 -1.912882e-001 -5.788945e-002 1.387859e-001
<VARIANCE> 39
 8.637339e+001 4.087337e+001 1.903002e+001 3.037156e+001 4.711409e+001 1.048603e+002 2.989238e+001 3.739679e+001 4.664933e+001 1.910521e+001 3.860088e+001 1.539182e+001 1.551690e+002 3.879458e+000 2.124493e+000 2.440357e+000 3.099761e+000 3.743614e+000 5.229274e+000 2.189266e+000 3.127239e+000 3.164224e+000 1.858207e+000 3.303974e+000 1.787295e+000 3.519977e+000 7.079237e-001 3.794240e-001 3.137827e-001 6.179323e-001 7.099774e-001 9.751657e-001 4.469528e-001 4.247326e-001 5.873258e-001 4.062707e-001 6.561422e-001 4.069141e-001 5.792128e-001
<GCONST> 1.255073e+002
<STATE> 3
<MEAN> 39
 2.435007e-001 -7.445724e+000 -5.200592e+000 -2.174749e+000 -5.859846e+000 -1.404023e+001 7.531900e+000 1.046104e+001 5.045717e+000 2.998229e-001 -1.269538e+000 1.030447e+000 7.834195e+001 9.487311e-001 -1.167347e+000 -8.945730e-001 -2.721148e-001 -2.812929e-001 -6.725382e-001 3.695302e-001 1.359415e-001 2.128294e-001 -1.462511e-001 -4.303200e-001 2.434624e-001 1.462592e+000 -2.829236e-001 2.032674e-001 1.728487e-001 8.892002e-002 4.223441e-001 4.122017e-001 -2.184439e-001 -3.159691e-001 -1.712719e-001 2.874648e-002 1.834515e-001 -3.002558e-002 -2.691121e-001
<VARIANCE> 39
 3.257468e+001 3.360226e+001 2.064096e+001 2.326841e+001 5.471873e+001 6.798616e+001 3.249044e+001 4.175417e+001 5.623457e+001 1.452785e+001 4.198147e+001 1.669602e+001 7.305455e+001 2.728609e+000 1.763712e+000 1.384839e+000 1.460385e+000 2.995246e+000 4.233858e+000 2.133374e+000 2.898448e+000 2.351161e+000 1.304383e+000 2.475851e+000 1.112509e+000 3.590743e+000 4.077338e-001 3.175695e-001 2.341940e-001 3.414299e-001 3.842764e-001 6.733732e-001 3.198541e-001 3.412150e-001 3.885078e-001 2.528641e-001 4.273013e-001 2.547708e-001 3.598289e-001
<GCONST> 1.141854e+002
<STATE> 4
<MEAN> 39
 1.111777e+000 -9.464651e+000 -6.354889e+000 -1.496001e+000 9.094954e-002 -1.338048e+001 4.626838e+000 3.602325e+000 -5.884168e-001 1.177509e+000 1.553194e+000 2.656573e+000 8.132909e+001 -1.951489e-001 1.972500e-001 3.525672e-001 2.994345e-001 7.755792e-001 3.414894e-001 -5.554978e-001 -9.043275e-001 -8.600541e-001 7.427610e-002 3.750305e-001 8.167141e-002 -1.986640e-001 -5.823454e-002 1.275766e-001 1.525467e-001 6.357244e-002 3.518518e-002 1.878892e-002 -3.985251e-002 -6.210799e-003 -4.397330e-002 -3.540991e-002 -3.000300e-002 -7.489058e-002 -9.619357e-002
<VARIANCE> 39
 1.563094e+001 1.939863e+001 2.738414e+001 3.110642e+001 5.347637e+001 4.025418e+001 3.696061e+001 9.675554e+001 7.313298e+001 1.976746e+001 3.863080e+001 2.165728e+001 3.559961e+001 4.092844e-001 7.626715e-001 1.444491e+000 1.305343e+000 1.281896e+000 1.820246e+000 1.678257e+000 2.608207e+000 2.255831e+000 1.210919e+000 2.523347e+000 1.328405e+000 5.481228e-001 6.718268e-002 9.004365e-002 1.543726e-001 1.602657e-001 1.652686e-001 3.170991e-001 2.429114e-001 3.139853e-001 2.881731e-001 2.116713e-001 4.057364e-001 2.283039e-001 5.912930e-002
<GCONST> 9.864709e+001
<TRANSP> 5
 0.000000e+000 1.000000e+000 0.000000e+000 0.000000e+000 0.000000e+000
 0.000000e+000 5.863501e-001 4.136499e-001 0.000000e+000 0.000000e+000
 0.000000e+000 0.000000e+000 5.700255e-001 4.299745e-001 0.000000e+000
 0.000000e+000 0.000000e+000 0.000000e+000 9.169778e-001 8.302224e-002
 0.000000e+000 0.000000e+000 0.000000e+000 0.000000e+000 0.000000e+000
<ENDHMM>
~h "ch"
<BEGINHMM>
<NUMSTATES> 5
<STATE> 2
<MEAN> 39
 -1.494026e+001 -3.843644e+000 -9.706348e-001 -2.955527e+000 3.297205e+000 1.166698e-001 3.049850e+000 3.447913e+000 1.539758e+000 -2.617423e-001 1.405208e+000 4.211277e+000 6.802914e+001 -4.901232e-001 -3.822642e-001 4.510687e-001 4.439924e-002 4.549649e-001 3.485368e-001 2.310899e-001 8.971582e-002 5.729060e-002 -2.125754e-001 1.136245e-001 -3.013957e-001 4.647854e-001 2.369308e-001 1.183830e-002 2.061229e-002 1.078332e-001 -2.436629e-002 1.236625e-001 -8.078340e-002 6.469712e-002 2.512022e-002 -1.016183e-001 -1.339251e-001 -3.576967e-003 6.525341e-003
<VARIANCE> 39
 6.974952e+001 3.342902e+001 1.889555e+001 3.348146e+001 2.865013e+001 7.462576e+001 1.564408e+001 2.601409e+001 1.694538e+001 1.657748e+001 1.019843e+001 1.386483e+001 1.158880e+002 1.334324e+000 2.525752e+000 3.119650e+000 1.146548e+000 2.274164e+000 2.096014e+000 1.584749e+000 1.710608e+000 2.202348e+000 2.408540e+000 1.742394e+000 1.842924e+000 2.704367e+000 2.494050e-001 3.852993e-001 5.964137e-001 2.297465e-001 4.759341e-001 3.890520e-001 3.752881e-001 3.228565e-001 3.176740e-001 4.898438e-001 3.347962e-001 4.011442e-001 5.154349e-001
<GCONST> 1.111205e+002
<STATE> 3
<MEAN> 39
 -1.606612e+001 -3.949384e+000 -6.315782e-001 -2.705833e+000 3.825108e+000 1.834117e+000 3.368539e+000 4.027740e+000 2.352329e+000 -6.391277e-001 1.110034e+000 3.472167e+000 6.782453e+001 -3.047482e-002 -5.092614e-001 3.185348e-001 9.499576e-002 1.654996e-001 3.503959e-001 -1.407924e-001 5.668276e-002 4.853102e-002 -1.594259e-001 -1.281123e-001 -7.553673e-003 3.236830e-001 2.295039e-001 -3.514493e-002 -7.255147e-002 5.936649e-002 -7.650474e-002 -9.649315e-002 -1.924186e-001 -1.076106e-001 -1.308359e-001 -8.848513e-002 -7.283781e-002 8.726915e-002 5.596171e-004
<VARIANCE> 39
 6.611457e+001 4.427680e+001 1.947586e+001 3.430228e+001 2.995886e+001 7.083857e+001 1.767788e+001 3.042042e+001 2.009636e+001 1.731756e+001 1.106816e+001 1.638795e+001 1.060346e+002 1.470714e+000 2.422821e+000 2.328944e+000 1.164673e+000 2.569278e+000 2.177349e+000 2.303339e+000 2.001188e+000 2.426204e+000 2.167567e+000 1.942245e+000 1.850262e+000 2.824885e+000 2.725514e-001 5.015094e-001 6.357896e-001 3.505399e-001 5.405913e-001 3.623269e-001 4.427153e-001 3.527756e-001 3.289927e-001 6.605518e-001 4.042791e-001 5.130810e-001 5.483086e-001
<GCONST> 1.146451e+002
<STATE> 4
<MEAN> 39
 -1.721261e+001 -7.462014e+000 -1.491031e+000 -2.757485e+000 4.771395e+000 2.523170e+000 7.591751e-001 4.249516e-001 2.794104e-001 -2.157712e+000 2.323785e-001 4.112977e+000 6.773943e+001 1.056623e-001 -4.158444e-001 -3.572882e-002 2.336556e-001 -2.500738e-002 -1.812091e-001 -3.264270e-001 -3.730848e-001 -8.437112e-002 -2.588693e-001 -4.198536e-002 -2.650662e-002 5.048333e-001 -3.441924e-002 3.644446e-002 8.986560e-002 3.766946e-002 3.955657e-002 -2.111673e-002 2.338704e-003 -9.438616e-002 -2.641626e-003 3.255401e-002 7.574512e-002 -6.916179e-002 1.012375e-001
<VARIANCE> 39
 3.116639e+001 6.128924e+001 2.288100e+001 3.200867e+001 1.636810e+001 2.476030e+001 1.766117e+001 4.294854e+001 3.379841e+001 2.166719e+001 1.887997e+001 1.169641e+001 7.163242e+001 1.873670e+000 3.937569e+000 3.752208e+000 1.567967e+000 1.871548e+000 1.837729e+000 2.116148e+000 2.849392e+000 1.712327e+000 3.553412e+000 2.075406e+000 1.468058e+000 4.013947e+000 3.938433e-001 5.454220e-001 7.079517e-001 3.431737e-001 4.005278e-001 3.409872e-001 3.980775e-001 3.918411e-001 2.731014e-001 7.558773e-001 4.383889e-001 2.874280e-001 4.643250e-001
<GCONST> 1.146236e+002
<TRANSP> 5
 0.000000e+000 1.000000e+000 0.000000e+000 0.000000e+000 0.000000e+000
 0.000000e+000 3.791798e-001 6.208202e-001 0.000000e+000 0.000000e+000
 0.000000e+000 0.000000e+000 4.066864e-001 5.933135e-001 0.000000e+000
 0.000000e+000 0.000000e+000 0.000000e+000 8.030509e-001 1.969491e-001
 0.000000e+000 0.000000e+000 0.000000e+000 0.000000e+000 0.000000e+000
<ENDHMM>
~h "dh"
<BEGINHMM>
<NUMSTATES> 5
<STATE> 2
<MEAN> 39
 -1.602553e+001 -1.436373e+000 2.602536e+000 -1.545087e+000 9.249754e-001 7.833401e-001 3.067040e+000 3.960145e+000 7.818244e-001 -2.419740e+000 2.885637e+000 4.328287e-002 6.478347e+001 3.485164e-001 5.635149e-001 6.812590e-001 3.895574e-001 6.773236e-001 6.899339e-001 7.441053e-001 -2.782147e-001 -1.094108e-002 -2.957962e-001 2.937191e-001 -3.526587e-001 6.849602e-001 4.686453e-001 4.046298e-001 4.377136e-002 5.133418e-001 3.934003e-001 1.593859e-001 6.088058e-002 -2.815868e-002 -1.085219e-001 -8.599054e-003 -2.316757e-001 5.502687e-002 -8.054677e-002
<VARIANCE> 39
 6.647831e+001 4.353211e+001 2.424645e+001 2.555730e+001 1.412984e+001 1.222307e+001 1.038354e+001 1.195254e+001 3.684232e+001 6.263581e+001 1.163945e+001 1.286820e+001 1.749086e+002 1.582669e+000 1.513035e+000 3.128490e+000 1.793086e+000 1.166713e+000 2.319491e+000 1.926002e+000 1.153438e+000 1.733496e+000 2.379778e+000 1.576550e+000 1.051270e+000 1.693858e+000 6.035179e-001 3.246418e-001 6.818497e-001 5.638063e-001 4.433472e-001 3.260106e-001 2.173756e-001 2.322468e-001 4.785655e-001 8.664614e-001 1.949426e-001 2.782418e-001 5.697916e-001
<GCONST> 1.089444e+002
<STATE> 3
<MEAN> 39
 -1.435166e+001 -3.695784e-001 2.676837e+000 1.460360e-001 1.743378e+000 2.128887e+000 3.867071e+000 3.169880e+000 1.069572e+000 -2.827345e+000 2.977943e+000 -7.593441e-002 6.582476e+001 1.268965e+000 8.383304e-001 9.701653e-001 8.319971e-001 9.046417e-001 5.540232e-001 4.621881e-001 -3.205156e-001 -8.956083e-001 -4.799263e-001 -3.438798e-001 -3.664978e-001 8.003590e-001 4.038520e-001 1.098088e-001 1.796443e-001 1.087658e-001 1.376657e-001 -9.934217e-002 -9.708156e-002 -1.209606e-002 -3.719961e-001 -1.824571e-001 -2.001554e-001 -9.187627e-002 1.612333e-001
<VARIANCE> 39
 5.570750e+001 4.012463e+001 2.395747e+001 1.407143e+001 9.069017e+000 3.194429e+001 2.027644e+001 1.521888e+001 4.356424e+001 6.367265e+001 1.660734e+001 8.004276e+000 1.959638e+002 1.834948e+000 2.189986e+000 3.303856e+000 2.516173e+000 1.874189e+000 2.684038e+000 1.466815e+000 1.001670e+000 2.095493e+000 4.599925e+000 1.055676e+000 1.106902e+000 3.346700e+000 3.189272e-001 2.964406e-001 6.774642e-001 4.043334e-001 2.108462e-001 3.303283e-001 3.908644e-001 3.001761e-001 5.007915e-001 6.852851e-001 2.437644e-001 2.400235e-001 5.125952e-001
<GCONST> 1.108079e+002
<STATE> 4
<MEAN> 39
 -7.271343e+000 -1.515851e+000 5.863195e+000 1.454666e-001 3.583791e+000 -2.311818e+000 3.129323e+000 3.129356e+000 -3.774097e+000 -7.939324e+000 1.114766e+000 -5.242839e-001 7.679701e+001 9.986075e-001 5.534734e-002 5.098668e-001 9.044601e-003 3.439341e-001 -4.725538e-001 1.568780e-001 -2.311408e-001 -6.912113e-001 -5.127310e-001 -2.427308e-001 -5.969035e-002 1.186919e+000 -4.232995e-002 -6.638683e-002 -9.470110e-002 -3.715255e-002 -8.005956e-002 4.577930e-002 1.157994e-003 2.158948e-002 1.575089e-002 2.013776e-002 -1.739998e-002 2.694272e-003 -6.813627e-002
<VARIANCE> 39
 4.579336e+001 4.585377e+001 1.946930e+001 1.700618e+001 1.433991e+001 1.113785e+002 1.505231e+001 1.245356e+001 2.513196e+001 4.951421e+001 1.012738e+001 1.361042e+001 1.955509e+002 2.522037e+000 1.666879e+000 2.782721e+000 2.322734e+000 1.664751e+000 3.427761e+000 7.962300e-001 1.238518e+000 2.661196e+000 4.206260e+000 1.016062e+000 1.191241e+000 3.321482e+000 3.720092e-001 2.846236e-001 4.823254e-001 3.002276e-001 2.230832e-001 4.862937e-001 2.489306e-001 2.504953e-001 3.966599e-001 5.169279e-001 2.205514e-001 1.921357e-001 3.058115e-001
<GCONST> 1.087992e+002
<TRANSP> 5
 0.000000e+000 1.000000e+000 0.000000e+000 0.000000e+000 0.000000e+000
 0.000000e+000 2.299057e-001 7.700943e-001 0.000000e+000 0.000000e+000
 0.000000e+000 0.000000e+000 2.804599e-001 7.195401e-001 0.000000e+000
 0.000000e+000 0.000000e+000 0.000000e+000 6.570000e-001 3.430000e-001
 0.000000e+000 0.000000e+000 0.000000e+000 0.000000e+000 0.000000e+000
<ENDHMM>
~h "ea"
<BEGINHMM>
<NUMSTATES> 5
<STATE> 2
<MEAN> 39
 -1.315817e+000 -7.995165e+000 1.425668e-001 -1.601568e+000 -4.135032e+000 -1.648354e+001 8.671940e+000 7.469085e+000 2.377759e+000 -1.349150e+000 -3.734520e+000 2.450743e+000 8.083278e+001 3.277435e-001 -3.964863e-001 -6.036553e-001 -4.246150e-001 6.790176e-003 -1.223604e-001 8.810445e-002 2.170666e-002 -3.613015e-001 9.173296e-002 3.950458e-001 3.900133e-001 7.341714e-001 -3.747291e-002 4.650637e-002 -3.753702e-002 1.406295e-001 1.112346e-001 1.429282e-001 -9.022319e-002 1.460174e-002 -2.160914e-001 -3.080115e-002 1.672940e-001 -6.000979e-004 -1.638737e-001
<VARIANCE> 39
 2.143565e+001 1.912929e+001 1.580028e+001 2.272110e+001 1.067992e+002 2.064491e+001 5.946980e+001 7.268128e+001 6.122912e+001 2.490382e+001 2.640710e+001 1.176578e+001 3.164423e+001 1.778513e+000 9.375842e-001 1.466474e+000 1.212160e+000 2.357747e+000 3.438089e+000 2.796246e+000 3.129254e+000 1.400309e+000 1.667531e+000 1.427468e+000 1.421188e+000 2.230936e+000 2.276435e-001 1.765215e-001 1.699530e-001 1.776153e-001 3.616366e-001 3.535036e-001 5.826193e-001 2.771707e-001 3.030064e-001 2.168789e-001 1.930923e-001 1.274360e-001 1.958306e-001
<GCONST> 1.052233e+002
<STATE> 3
<MEAN> 39
 -1.157413e+000 -8.186516e+000 -2.044596e+000 -1.872537e+000 -3.446870e+000 -1.516247e+001 9.281281e+000 6.003036e+000 -1.390363e-001 -2.330315e+000 -2.097700e+000 3.036152e+000 8.118240e+001 1.725642e-001 -2.748685e-001 -4.967628e-001 4.395702e-002 4.868207e-001 7.422693e-002 -1.235485e-001 -4.281729e-001 -6.255302e-001 -1.788323e-002 6.781136e-001 3.014047e-001 2.343729e-001 -5.056259e-002 7.967835e-002 5.171257e-002 1.253915e-001 9.548920e-002 -4.252575e-003 -3.949795e-002 -7.972908e-002 -3.041487e-002 -2.983819e-002 7.094548e-002 -2.178032e-002 -7.110050e-002
<VARIANCE> 39
