~o
<STREAMINFO> 1 39
<VECSIZE> 39<NULLD><MFCC_D_A_0><DIAGC>
~s "silst"
<MEAN> 39
 -1.592854e+001 1.248031e+000 -3.643792e+000 1.883868e-001 -3.852625e-001 1.191953e+000 2.196427e+000 3.829764e+000 2.733783e+000 2.017956e+000 1.198426e+000 1.766880e+000 5.331917e+001 -2.579955e-002 2.384635e-002 -1.601809e-002 -2.698383e-003 -7.763857e-003 2.747746e-002 1.116387e-002 2.452113e-002 2.892354e-002 2.572068e-002 3.334698e-002 2.243358e-002 -4.137202e-002 -2.908055e-007 -8.935515e-003 1.735033e-002 -6.763553e-003 1.236240e-002 1.061938e-003 -4.654981e-004 -1.064687e-003 -3.786379e-003 -7.684554e-003 -8.159393e-003 -8.560414e-003 1.986185e-002
<VARIANCE> 39
 1.862877e+000 3.800401e+000 4.664365e+000 4.621645e+000 5.938443e+000 7.215590e+000 7.287630e+000 8.485530e+000 8.436065e+000 1.083035e+001 8.272631e+000 8.151171e+000 1.461273e+000 9.504578e-002 1.990855e-001 2.950190e-001 3.912882e-001 5.071591e-001 6.211967e-001 6.977352e-001 7.555341e-001 7.836933e-001 8.403607e-001 7.859536e-001 7.265135e-001 5.183096e-002 1.898516e-002 4.041096e-002 6.170519e-002 8.183919e-002 1.048493e-001 1.280289e-001 1.434639e-001 1.542126e-001 1.598369e-001 1.726743e-001 1.605176e-001 1.483289e-001 1.145322e-002
<GCONST> 4.945308e+001
~h "b"
<BEGINHMM>
<NUMSTATES> 5
<STATE> 2
<MEAN> 39
 -6.629417e+000 8.047055e+000 4.714601e+000 4.209934e+000 3.872230e+000 -3.205760e+000 1.245651e+000 7.975958e+000 3.221351e+000 2.961888e-001 1.430697e+000 -3.358819e+000 6.256518e+001 -2.099267e-002 -3.113192e-002 -9.048840e-001 -1.789347e+000 -6.238011e-001 1.073485e+000 -6.339487e-001 -1.121284e+000 5.262528e-001 -5.627964e-001 -2.482449e-001 6.022596e-001 4.619549e-001 4.660322e-001 -5.642605e-001 2.162229e-001 -5.490733e-001 -7.598560e-002 -7.496290e-001 -3.404554e-001 2.939843e-002 -5.152038e-001 -3.168993e-001 6.293824e-002 -1.191053e-001 9.378957e-001
<VARIANCE> 39
 2.726470e+001 1.820558e+001 2.661025e+001 3.940368e+001 1.805568e+001 5.144460e+001 2.117281e+001 1.901510e+001 1.960859e+001 2.705204e+001 1.277162e+001 1.963045e+001 5.042811e+001 1.504876e+000 1.937579e+000 1.189925e+000 1.261772e+001 2.762025e+000 6.387298e+000 5.807887e+000 1.772858e+000 2.825585e+000 2.600949e+000 1.671838e+000 1.601893e+000 7.382365e+000 2.761394e-001 3.617499e-001 1.711043e-001 7.453782e-001 4.564741e-001 1.045987e+000 4.783478e-001 4.206306e-001 7.027004e-001 4.117763e-001 3.991621e-001 2.848676e-001 4.950113e-001
<GCONST> 1.165271e+002
<STATE> 3
<MEAN> 39
 -2.221313e+000 4.221104e+000 2.573643e+000 -6.858332e+000 2.869105e+000 -6.501676e+000 -3.961208e+000 4.531839e+000 1.197392e+000 -5.340682e+000 1.076916e-001 -2.380756e+000 7.302034e+001 2.409370e+000 -1.354842e+000 1.091047e-001 -3.071152e+000 -9.017484e-001 -2.641531e+000 -1.635194e+000 5.390989e-001 -1.889499e+000 -1.200417e+000 5.828429e-001 1.592230e-001 3.355774e+000 2.206702e-002 -2.921498e-001 6.055293e-002 6.737688e-001 -1.072773e-002 -1.766482e-001 5.806801e-001 5.621825e-001 -6.251223e-001 3.332775e-001 2.747309e-001 -3.868286e-002 -3.048940e-001
<VARIANCE> 39
 4.637334e+001 1.402420e+001 1.540248e+001 3.555979e+001 1.427378e+001 9.813005e+001 2.752968e+001 2.656457e+001 3.613702e+001 3.000984e+001 2.577271e+001 1.933615e+001 2.630341e+001 2.293536e+000 3.823339e+000 1.789673e+000 5.141284e+000 3.774829e+000 1.310961e+001 2.075251e+000 3.403944e+000 4.915388e+000 5.295544e+000 3.977432e+000 2.937278e+000 5.164654e+000 5.931298e-001 3.829583e-001 3.182068e-001 8.843363e-001 4.576958e-001 1.875163e+000 8.195696e-001 5.353547e-001 8.048339e-001 5.680568e-001 4.257019e-001 3.955115e-001 6.419301e-001
<GCONST> 1.256420e+002
<STATE> 4
<MEAN> 39
 2.063096e+000 1.194209e+000 1.845284e+000 -1.530769e+001 9.419977e-001 -3.382710e+000 -1.685489e+000 8.093504e+000 -1.040885e+001 -1.426865e+001 6.818839e+000 7.679719e-001 7.795647e+001 -4.327812e-002 -5.888097e-001 1.546214e-001 -9.718250e-002 -3.399890e-001 2.177468e-001 8.111044e-001 2.746696e-001 -1.053306e+000 -5.080012e-001 -1.155778e-001 6.110600e-001 5.062404e-001 -3.446083e-001 1.923606e-001 1.036382e-001 6.078328e-001 8.944587e-002 1.173785e-001 2.851370e-001 -8.642390e-002 3.728594e-001 3.525021e-001 -3.155244e-001 -9.620005e-002 -3.553050e-001
<VARIANCE> 39
 1.433797e+001 6.495834e+000 8.244416e+000 4.439721e+001 1.393898e+001 6.367601e+001 3.110853e+001 1.692241e+001 6.523055e+001 7.292722e+001 3.177814e+001 1.733054e+001 6.008834e+000 1.924474e+000 1.297328e+000 7.119305e-001 4.481819e+000 1.694208e+000 4.106222e+000 1.620894e+000 1.513860e+000 5.267177e+000 3.430282e+000 2.439379e+000 1.729862e+000 1.981632e+000 1.774546e-001 1.470846e-001 1.191667e-001 6.407855e-001 1.908826e-001 7.333415e-001 4.254576e-001 2.741268e-001 6.754934e-001 4.876233e-001 2.954567e-001 3.135017e-001 2.383162e-001
<GCONST> 1.064140e+002
<TRANSP> 5
 0.000000e+000 1.000000e+000 0.000000e+000 0.000000e+000 0.000000e+000
 0.000000e+000 7.395836e-001 2.604164e-001 0.000000e+000 0.000000e+000
 0.000000e+000 0.000000e+000 4.524736e-001 5.475264e-001 0.000000e+000
 0.000000e+000 0.000000e+000 0.000000e+000 7.433143e-001 2.566857e-001
 0.000000e+000 0.000000e+000 0.000000e+000 0.000000e+000 0.000000e+000
<ENDHMM>
~h "d"
<BEGINHMM>
<NUMSTATES> 5
<STATE> 2
<MEAN> 39
 -5.997572e+000 4.242281e+000 5.769539e+000 9.029100e+000 8.753647e+000 1.066557e+000 5.006360e+000 3.429464e+000 -3.615929e+000 -1.125071e+000 -3.375999e+000 -4.758312e+000 6.437856e+001 -1.070785e+000 3.044232e-001 5.517341e-001 -9.323040e-001 -1.833408e-001 7.619640e-001 -3.448896e-001 -2.562260e-001 1.109443e+000 -9.543073e-001 2.331469e-001 6.054963e-001 3.694124e-002 -4.082034e-002 -5.203649e-001 -1.584523e-001 -6.465865e-001 -5.926601e-001 -4.603627e-001 -9.092331e-002 -3.974148e-001 -1.210734e-001 -1.354345e-001 2.954649e-001 4.639696e-001 6.771377e-001
<VARIANCE> 39
 2.927747e+001 3.114394e+001 2.240985e+001 5.226290e+001 4.343624e+001 4.805782e+001 2.951413e+001 3.309753e+001 3.266246e+001 3.229399e+001 4.477354e+001 3.352444e+001 4.977308e+001 1.772207e+000 2.157115e+000 1.715071e+000 4.099259e+000 2.343797e+000 3.524896e+000 2.007648e+000 2.440845e+000 3.424956e+000 3.582282e+000 2.516285e+000 2.605258e+000 3.437187e+000 3.054395e-001 3.587400e-001 4.671435e-001 5.771934e-001 6.300081e-001 7.551737e-001 4.211144e-001 6.678149e-001 5.599702e-001 5.688546e-001 4.426595e-001 6.472864e-001 6.427754e-001
<GCONST> 1.225140e+002
<STATE> 3
<MEAN> 39
 -9.342623e+000 3.853271e+000 6.991956e+000 5.540591e+000 6.903876e+000 3.316161e+000 4.031425e+000 1.793014e+000 -1.316786e-002 -3.290673e+000 -2.472594e+000 -2.308957e+000 6.571326e+001 -5.478504e-001 -1.262033e+000 -4.175603e-002 -2.013880e+000 -1.808018e+000 -1.206752e+000 -3.873404e-001 -1.316035e+000 -1.492413e-001 -1.054155e+000 4.691867e-001 1.644057e+000 1.856867e+000 5.334620e-001 -4.841728e-001 -2.560408e-001 4.702235e-002 -1.471671e-001 -8.640650e-001 3.712141e-002 -8.541737e-002 -7.505921e-001 1.331037e-001 -6.203242e-003 1.053908e-001 4.505705e-001
<VARIANCE> 39
 2.462648e+001 2.645390e+001 3.509164e+001 3.498245e+001 4.134642e+001 2.611404e+001 2.282489e+001 3.851891e+001 2.987694e+001 3.163279e+001 2.480503e+001 2.564394e+001 5.229647e+001 2.676257e+000 2.523768e+000 2.789798e+000 3.930139e+000 4.061686e+000 5.623476e+000 2.854289e+000 3.712908e+000 4.316446e+000 3.196483e+000 2.597141e+000 3.950124e+000 5.165541e+000 4.391963e-001 4.426255e-001 6.718875e-001 5.806783e-001 9.105721e-001 7.710777e-001 4.849231e-001 8.213861e-001 8.067024e-001 8.220200e-001 4.804456e-001 5.359754e-001 7.068522e-001
<GCONST> 1.267172e+002
<STATE> 4
<MEAN> 39
 -8.203979e+000 -9.672899e-001 3.185412e+000 1.192969e+000 7.939470e-001 -2.625618e+000 3.446100e+000 1.331195e+000 -3.573567e+000 -5.008764e+000 -1.154972e+000 1.700612e+000 6.815532e+001 -5.694671e-002 -6.198981e-001 -3.299760e-001 -5.714772e-001 -3.903289e-001 -8.012772e-001 -3.352095e-001 -3.240358e-001 -2.700687e-001 -2.405814e-002 4.016543e-001 5.965203e-001 4.539552e-001 1.071725e-001 5.719573e-002 -7.476931e-003 2.068826e-001 2.896671e-001 2.496313e-002 1.369986e-002 1.040173e-001 -4.148182e-002 2.051462e-001 1.272590e-002 -1.847770e-001 -1.831897e-002
<VARIANCE> 39
 2.910086e+001 2.172988e+001 3.232866e+001 2.431212e+001 2.346941e+001 4.192257e+001 2.426634e+001 3.687505e+001 3.616861e+001 3.663773e+001 2.384606e+001 2.237475e+001 9.386951e+001 2.625350e+000 2.539836e+000 3.667286e+000 3.241568e+000 4.263964e+000 5.840276e+000 2.754554e+000 3.727322e+000 3.999133e+000 3.057619e+000 2.227738e+000 3.170429e+000 8.754416e+000 5.140764e-001 4.306526e-001 5.721632e-001 5.392946e-001 6.852670e-001 1.045232e+000 5.709373e-001 6.241109e-001 8.442528e-001 5.619183e-001 4.555526e-001 3.611049e-001 9.682567e-001
<GCONST> 1.264053e+002
<TRANSP> 5
 0.000000e+000 1.000000e+000 0.000000e+000 0.000000e+000 0.000000e+000
 0.000000e+000 4.184867e-001 5.815133e-001 0.000000e+000 0.000000e+000
 0.000000e+000 0.000000e+000 3.942379e-001 6.057621e-001 0.000000e+000
 0.000000e+000 0.000000e+000 0.000000e+000 7.035996e-001 2.964004e-001
 0.000000e+000 0.000000e+000 0.000000e+000 0.000000e+000 0.000000e+000
<ENDHMM>
~h "f"
<BEGINHMM>
<NUMSTATES> 5
<STATE> 2
<MEAN> 39
 -1.984222e+001 -1.150088e+000 2.609768e-001 -3.721813e+000 4.359501e+000 1.439130e+000 5.007973e+000 -2.198503e+000 4.806099e+000 -1.911726e+000 6.205269e-001 3.084591e+000 6.627792e+001 -2.402551e+000 5.551179e-002 2.052011e-001 -1.041623e+000 4.116933e-001 -1.418104e-001 4.542153e-001 -5.534289e-001 1.040386e+000 1.022359e-002 -2.616581e-001 3.045618e-001 1.183926e+000 -1.421237e-001 4.980888e-002 3.429661e-002 1.913522e-002 -1.321732e-001 -8.783734e-002 -1.490975e-001 1.627789e-001 -2.044367e-001 1.474151e-001 1.307945e-001 -1.564486e-001 -7.969825e-002
<VARIANCE> 39
 3.824809e+001 1.324471e+001 2.327848e+001 1.961194e+001 2.231464e+001 1.539477e+001 1.954626e+001 2.055547e+001 2.201340e+001 1.610405e+001 1.515392e+001 1.092099e+001 3.764303e+001 3.434572e+000 1.835166e+000 1.497160e+000 1.692211e+000 1.642698e+000 1.678746e+000 1.942421e+000 2.476141e+000 3.027769e+000 1.940767e+000 1.961909e+000 1.507297e+000 3.534175e+000 4.934499e-001 3.485556e-001 2.673076e-001 1.825004e-001 2.572606e-001 4.835357e-001 4.210463e-001 4.298421e-001 5.960297e-001 3.253182e-001 3.098322e-001 2.897507e-001 3.483181e-001
<GCONST> 1.062650e+002
<STATE> 3
<MEAN> 39
 -2.952524e+001 5.800198e-001 3.040639e+000 -7.510151e+000 5.292874e+000 1.107440e+000 5.785807e+000 -3.642472e+000 7.445573e+000 -1.278424e+000 3.666553e-001 2.346783e+000 6.922956e+001 2.179481e-002 -2.586784e-002 1.157295e-002 -1.875862e-001 -2.619017e-001 -1.027068e-001 -2.987436e-001 -1.390675e-001 1.933545e-003 -1.947023e-002 -9.903108e-002 -1.020865e-001 -3.396365e-002 8.654355e-001 -2.976555e-002 -1.342177e-002 2.268868e-001 -1.108176e-001 -1.635181e-001 -1.642950e-001 1.103072e-001 -2.271636e-001 -5.755041e-002 1.484100e-002 -5.106593e-002 1.179777e-001
<VARIANCE> 39
 1.117525e+001 1.016549e+001 2.176058e+001 1.527504e+001 1.023237e+001 1.065020e+001 1.318314e+001 1.389243e+001 1.477822e+001 1.668107e+001 1.010398e+001 7.684891e+000 2.108970e+001 4.862721e+000 9.640784e-001 9.706445e-001 1.162958e+000 1.240792e+000 1.192291e+000 1.443243e+000 1.550085e+000 1.334257e+000 1.141508e+000 9.003659e-001 8.290352e-001 5.783756e-001 5.560403e-001 2.102342e-001 2.087783e-001 1.954266e-001 2.402393e-001 3.771084e-001 3.740067e-001 3.494168e-001 4.512551e-001 2.702636e-001 2.095072e-001 1.795061e-001 1.755878e-001
<GCONST> 9.056377e+001
<STATE> 4
<MEAN> 39
 -1.355452e+001 1.711570e+000 2.786504e+000 -5.748045e+000 1.189015e+000 -4.145897e+000 -4.437333e-001 -1.896363e+000 5.256814e+000 -2.006264e+000 -1.288913e+000 1.042158e+000 7.181245e+001 6.211732e+000 6.961483e-002 -4.073833e-001 8.312420e-001 -1.616832e+000 -3.803350e+000 -2.329587e+000 1.579448e+000 -8.982578e-001 -3.875444e-002 -8.206759e-002 -3.725878e-001 2.397079e+000 -1.862081e-001 -4.973429e-001 -2.067818e-001 -6.606051e-002 3.644897e-002 -6.381196e-001 2.296769e-001 4.463446e-001 3.740714e-002 1.314578e-001 2.747949e-001 2.805404e-002 3.928363e-001
<VARIANCE> 39
 1.539654e+002 2.247503e+001 2.374206e+001 1.765433e+001 2.837666e+001 6.660734e+001 4.243338e+001 3.295768e+001 2.016860e+001 1.477680e+001 1.141186e+001 1.141074e+001 2.668376e+001 9.549930e+000 3.135138e+000 4.256809e+000 2.589396e+000 2.006502e+000 8.136818e+000 3.550451e+000 4.217656e+000 5.885755e+000 2.093263e+000 1.731230e+000 1.572307e+000 2.065818e+000 2.661849e+000 5.189077e-001 4.640874e-001 3.270101e-001 3.841899e-001 1.348560e+000 1.158073e+000 6.109979e-001 1.028255e+000 3.798435e-001 1.972539e-001 3.210176e-001 5.490952e-001
<GCONST> 1.231739e+002
<TRANSP> 5
 0.000000e+000 1.000000e+000 0.000000e+000 0.000000e+000 0.000000e+000
 0.000000e+000 7.592964e-001 2.407036e-001 0.000000e+000 0.000000e+000
 0.000000e+000 0.000000e+000 8.767185e-001 1.232815e-001 0.000000e+000
 0.000000e+000 0.000000e+000 0.000000e+000 6.151999e-001 3.848001e-001
 0.000000e+000 0.000000e+000 0.000000e+000 0.000000e+000 0.000000e+000
<ENDHMM>
~h "g"
<BEGINHMM>
<NUMSTATES> 5
<STATE> 2
<MEAN> 39
 -1.019258e+001 -1.349235e+000 1.496435e+000 -1.000674e-001 2.146475e+000 -4.687040e+000 1.914047e+000 3.619069e+000 -7.628375e-001 -2.998221e-001 7.609732e-001 -3.708823e-001 6.683527e+001 -1.248089e-003 5.227942e-003 2.659844e-003 -3.444016e-004 -8.836363e-004 2.550178e-003 2.931105e-003 -1.472328e-003 6.282371e-003 8.163264e-003 2.528877e-003 -2.038243e-003 -4.746584e-003 -4.418558e-004 -3.045039e-004 -1.408464e-004 -1.038098e-004 9.234394e-005 -3.276009e-004 -3.678608e-005 3.364285e-004 -3.188887e-004 -1.759190e-004 -1.827233e-004 -1.567342e-004 -4.303211e-005
<VARIANCE> 39
 9.167006e+001 2.934647e+001 4.407549e+001 6.457423e+001 6.220945e+001 9.634994e+001 3.252906e+001 4.593910e+001 5.675373e+001 3.253341e+001 2.632482e+001 2.972611e+001 1.312725e+002 2.550928e+000 1.511606e+000 1.606481e+000 2.604123e+000 2.271194e+000 3.390491e+000 1.870607e+000 2.178643e+000 2.666786e+000 1.791392e+000 1.601890e+000 1.612961e+000 2.330216e+000 3.219935e-001 2.495312e-001 2.693298e-001 3.940682e-001 3.531721e-001 5.091046e-001 3.340584e-001 3.702532e-001 4.453263e-001 3.296812e-001 2.885351e-001 2.783844e-001 3.440708e-001
<GCONST> 1.181056e+002
<STATE> 3
<MEAN> 39
 -1.019258e+001 -1.349235e+000 1.496435e+000 -1.000674e-001 2.146475e+000 -4.687040e+000 1.914047e+000 3.619069e+000 -7.628375e-001 -2.998221e-001 7.609732e-001 -3.708823e-001 6.683527e+001 -1.248089e-003 5.227942e-003 2.659844e-003 -3.444016e-004 -8.836363e-004 2.550178e-003 2.931105e-003 -1.472328e-003 6.282371e-003 8.163264e-003 2.528877e-003 -2.038243e-003 -4.746584e-003 -4.418558e-004 -3.045039e-004 -1.408464e-004 -1.038098e-004 9.234394e-005 -3.276009e-004 -3.678608e-005 3.364285e-004 -3.188887e-004 -1.759190e-004 -1.827233e-004 -1.567342e-004 -4.303211e-005
<VARIANCE> 39
 9.167006e+001 2.934647e+001 4.407549e+001 6.457423e+001 6.220945e+001 9.634994e+001 3.252906e+001 4.593910e+001 5.675373e+001 3.253341e+001 2.632482e+001 2.972611e+001 1.312725e+002 2.550928e+000 1.511606e+000 1.606481e+000 2.604123e+000 2.271194e+000 3.390491e+000 1.870607e+000 2.178643e+000 2.666786e+000 1.791392e+000 1.601890e+000 1.612961e+000 2.330216e+000 3.219935e-001 2.495312e-001 2.693298e-001 3.940682e-001 3.531721e-001 5.091046e-001 3.340584e-001 3.702532e-001 4.453263e-001 3.296812e-001 2.885351e-001 2.783844e-001 3.440708e-001
<GCONST> 1.181056e+002
<STATE> 4
<MEAN> 39
 -1.019258e+001 -1.349235e+000 1.496435e+000 -1.000674e-001 2.146475e+000 -4.687040e+000 1.914047e+000 3.619069e+000 -7.628375e-001 -2.998221e-001 7.609732e-001 -3.708823e-001 6.683527e+001 -1.248089e-003 5.227942e-003 2.659844e-003 -3.444016e-004 -8.836363e-004 2.550178e-003 2.931105e-003 -1.472328e-003 6.282371e-003 8.163264e-003 2.528877e-003 -2.038243e-003 -4.746584e-003 -4.418558e-004 -3.045039e-004 -1.408464e-004 -1.038098e-004 9.234394e-005 -3.276009e-004 -3.678608e-005 3.364285e-004 -3.188887e-004 -1.759190e-004 -1.827233e-004 -1.567342e-004 -4.303211e-005
<VARIANCE> 39
 9.167006e+001 2.934647e+001 4.407549e+001 6.457423e+001 6.220945e+001 9.634994e+001 3.252906e+001 4.593910e+001 5.675373e+001 3.253341e+001 2.632482e+001 2.972611e+001 1.312725e+002 2.550928e+000 1.511606e+000 1.606481e+000 2.604123e+000 2.271194e+000 3.390491e+000 1.870607e+000 2.178643e+000 2.666786e+000 1.791392e+000 1.601890e+000 1.612961e+000 2.330216e+000 3.219935e-001 2.495312e-001 2.693298e-001 3.940682e-001 3.531721e-001 5.091046e-001 3.340584e-001 3.702532e-001 4.453263e-001 3.296812e-001 2.885351e-001 2.783844e-001 3.440708e-001
<GCONST> 1.181056e+002
<TRANSP> 5
 0.000000e+000 1.000000e+000 0.000000e+000 0.000000e+000 0.000000e+000
 0.000000e+000 6.000000e-001 4.000000e-001 0.000000e+000 0.000000e+000
 0.000000e+000 0.000000e+000 6.000000e-001 4.000000e-001 0.000000e+000
 0.000000e+000 0.000000e+000 0.000000e+000 7.000000e-001 3.000000e-001
 0.000000e+000 0.000000e+000 0.000000e+000 0.000000e+000 0.000000e+000
<ENDHMM>
~h "k"
<BEGINHMM>
<NUMSTATES> 5
<STATE> 2
<MEAN> 39
 -9.549707e+000 1.350393e+000 2.152381e+000 -1.126366e+000 -1.255847e+000 -6.167160e+000 1.624576e+000 6.686947e+000 1.028892e+000 3.745618e-001 1.964604e+000 -2.297065e+000 6.434005e+001 -1.313729e+000 -1.471352e-001 -1.685345e+000 -2.276194e+000 -1.077012e+000 8.220758e-001 4.173985e-001 -4.583501e-001 3.173056e-001 -1.008722e+000 -2.592110e-001 1.041388e+000 -3.870357e-001 3.287017e-003 -4.147737e-001 1.343821e-001 -3.478067e-001 2.806090e-001 -1.386863e-001 -8.049066e-002 -3.160653e-001 -1.501188e-001 -1.542127e-001 -1.022450e-001 5.823125e-002 1.051966e+000
<VARIANCE> 39
 3.471336e+001 2.908567e+001 3.942622e+001 1.072856e+002 8.648380e+001 6.598608e+001 4.697950e+001 4.217044e+001 5.890092e+001 3.620712e+001 3.105662e+001 3.289960e+001 3.886967e+001 2.205365e+000 2.494551e+000 4.226125e+000 7.894845e+000 6.920418e+000 4.597670e+000 5.122453e+000 3.831316e+000 4.057326e+000 4.349669e+000 2.806058e+000 2.103929e+000 9.842832e+000 3.368326e-001 3.733838e-001 1.103807e+000 1.743283e+000 1.434328e+000 7.899787e-001 1.037837e+000 5.965037e-001 7.167326e-001 1.058813e+000 5.721408e-001 4.028996e-001 1.471613e+000
<GCONST> 1.368919e+002
<STATE> 3
<MEAN> 39
 -1.490233e+001 -2.966137e+000 -9.133737e-001 -8.585201e+000 2.198614e+000 -2.068475e+000 1.946054e+000 -1.433849e-003 1.075788e-001 -3.562492e+000 1.081957e+000 5.022985e-001 7.223727e+001 -3.807430e-001 -7.027851e-001 6.745925e-001 -4.594351e-001 7.875274e-001 5.802153e-001 -4.574627e-001 -1.053742e+000 7.282948e-001 -1.998022e-001 -1.648833e-001 5.152469e-001 2.088692e+000 4.515171e-001 1.249215e-001 6.158826e-001 9.596623e-001 1.013408e-002 -8.745849e-002 -2.104206e-001 3.334182e-001 1.856972e-001 5.773143e-001 2.529451e-001 -9.704133e-002 -6.448242e-001
<VARIANCE> 39
 1.237737e+001 1.423027e+001 2.815986e+001 4.554183e+001 4.781582e+001 2.292653e+001 5.059378e+001 4.699612e+001 2.976453e+001 3.129934e+001 2.866456e+001 2.597237e+001 5.722013e+001 3.115548e+000 2.149212e+000 3.675158e+000 1.039365e+001 4.536854e+000 4.958937e+000 3.532761e+000 4.095920e+000 3.431932e+000 4.693386e+000 3.703049e+000 2.378342e+000 1.112638e+001 4.074529e-001 3.134392e-001 1.272909e+000 1.338360e+000 1.052052e+000 8.712616e-001 7.718381e-001 7.141328e-001 5.487077e-001 9.530501e-001 6.455947e-001 5.615557e-001 2.281060e+000
<GCONST> 1.319228e+002
<STATE> 4
<MEAN> 39
 -1.394414e+001 -3.465998e+000 -5.603737e-002 -4.108965e+000 2.697161e+000 1.223963e+000 1.080909e+000 3.625432e-001 1.486717e+000 -1.489645e+000 2.022229e+000 2.904780e+000 6.602829e+001 6.140268e-001 2.437445e-001 2.684589e-001 7.153686e-001 -3.140703e-001 -1.837192e-002 1.303020e-001 4.320833e-001 3.046613e-001 7.859496e-001 1.473813e-001 -2.327416e-002 -6.059779e-001 1.155918e-001 5.910687e-002 -3.279669e-002 6.007535e-002 -1.643463e-001 -3.081077e-001 9.172967e-002 9.994772e-002 -2.555907e-001 2.181838e-002 -4.439399e-002 -1.604257e-001 4.956500e-002
<VARIANCE> 39
 2.511842e+001 2.289786e+001 2.146913e+001 2.093238e+001 3.259652e+001 1.933735e+001 2.433270e+001 4.268003e+001 3.780335e+001 2.101508e+001 2.342812e+001 1.440591e+001 7.471104e+001 3.095666e+000 1.699504e+000 2.742206e+000 3.218927e+000 2.343403e+000 3.194309e+000 1.783967e+000 2.711624e+000 2.991146e+000 2.309061e+000 2.005686e+000 1.684211e+000 3.058933e+000 4.016608e-001 3.581484e-001 5.388413e-001 7.310221e-001 5.706275e-001 6.211157e-001 3.294980e-001 5.873759e-001 5.959756e-001 4.737343e-001 3.823286e-001 2.974682e-001 6.965665e-001
<GCONST> 1.166895e+002
<TRANSP> 5
 0.000000e+000 1.000000e+000 0.000000e+000 0.000000e+000 0.000000e+000
 0.000000e+000 7.501006e-001 2.498994e-001 0.000000e+000 0.000000e+000
 0.000000e+000 0.000000e+000 6.385012e-001 3.614988e-001 0.000000e+000
 0.000000e+000 0.000000e+000 0.000000e+000 7.492514e-001 2.507486e-001
 0.000000e+000 0.000000e+000 0.000000e+000 0.000000e+000 0.000000e+000
<ENDHMM>
~h "l"
<BEGINHMM>
<NUMSTATES> 5
<STATE> 2
<MEAN> 39
 -8.877303e-001 2.783616e-001 3.313084e+000 6.296077e+000 7.822083e+000 -1.982777e+000 1.824833e-001 6.491569e+000 -5.205942e+000 -3.903175e+000 -6.880279e+000 -5.728796e+000 6.949757e+001 9.384570e-001 -7.174714e-001 1.747615e-001 1.109463e+000 8.246751e-001 -9.046373e-001 -1.623909e-001 5.782838e-001 -8.890374e-001 -8.324811e-001 -1.203207e+000 -8.610170e-001 1.149136e+000 -3.038553e-001 -1.598093e-001 1.320438e-001 -2.606529e-001 -4.497382e-001 -4.975237e-001 1.224416e-001 1.293845e-001 1.075687e-001 -3.110769e-002 2.769756e-001 1.950416e-001 9.307870e-002
<VARIANCE> 39
 2.822515e+001 3.064314e+001 2.496391e+001 4.657433e+001 4.024969e+001 6.790533e+001 3.076132e+001 3.797249e+001 6.083722e+001 4.836203e+001 6.090674e+001 5.635983e+001 6.105735e+001 3.238614e+000 1.619173e+000 1.638802e+000 2.388946e+000 2.937925e+000 4.333777e+000 2.896940e+000 2.917953e+000 5.325180e+000 3.424854e+000 3.084805e+000 2.398479e+000 2.287303e+000 4.115147e-001 3.498234e-001 4.061317e-001 4.806578e-001 4.498997e-001 9.107878e-001 5.654957e-001 7.581232e-001 9.392227e-001 5.953748e-001 5.907735e-001 5.801865e-001 2.733605e-001
<GCONST> 1.258872e+002
<STATE> 3
<MEAN> 39
 1.192909e+000 -4.959149e+000 3.261990e+000 4.783720e+000 3.923094e+000 -1.340946e+001 3.810132e-001 9.075915e+000 -6.593457e+000 -6.332384e+000 -8.035285e+000 -5.213269e+000 7.738604e+001 -1.247636e-001 -6.614679e-001 -1.456068e-001 -1.169731e+000 -1.560556e+000 -1.658184e+000 1.891429e-001 -1.647808e-001 6.402839e-001 2.588632e-001 1.087259e+000 1.298735e+000 1.193132e+000 -3.838781e-002 4.577980e-002 -5.562946e-002 -2.709468e-001 -1.109976e-001 1.869720e-001 7.589673e-002 -2.276416e-002 1.865039e-001 2.125005e-001 2.136166e-001 1.393460e-001 -4.814220e-002
<VARIANCE> 39
 6.018052e+000 9.615608e+000 2.312794e+001 3.555207e+001 6.594697e+001 6.840279e+001 2.608745e+001 4.189626e+001 3.185429e+001 3.400964e+001 5.871238e+001 6.098135e+001 2.061104e+001 5.425184e-001 7.324739e-001 1.833334e+000 3.371583e+000 3.608804e+000 3.635913e+000 1.720367e+000 3.396801e+000 2.211401e+000 3.272177e+000 4.006183e+000 5.059332e+000 9.996127e-001 1.159285e-001 9.193023e-002 2.740133e-001 5.024899e-001 6.302167e-001 5.379550e-001 3.034985e-001 5.772932e-001 4.364844e-001 5.455923e-001 6.252834e-001 8.844820e-001 1.951109e-001
<GCONST> 1.132721e+002
<STATE> 4
<MEAN> 39
 -2.101097e-001 -3.864149e+000 1.834821e+000 -1.148589e+000 -7.177281e-002 -1.608389e+001 1.368705e+000 6.264839e+000 -3.995050e+000 6.449465e-001 -2.782204e+000 -1.978275e+000 7.855768e+001 -1.901060e-001 2.869331e-001 1.246582e-001 -1.157035e-001 -1.813129e-001 2.117355e-001 1.652637e-001 1.173590e-001 3.116567e-001 4.840381e-004 -3.538400e-002 -2.073008e-002 -3.711191e-001 -1.222145e-002 8.306822e-002 -3.114280e-003 9.851643e-002 2.777296e-002 8.862311e-002 -2.364335e-003 -3.653345e-002 -7.249430e-002 -8.314246e-002 -6.165428e-002 -4.657970e-002 -1.003813e-001
<VARIANCE> 39
 1.226296e+001 5.349953e+001 5.139836e+001 4.306585e+001 8.632480e+001 8.727265e+001 3.944364e+001 4.212755e+001 7.125938e+001 7.577092e+001 3.419135e+001 2.976549e+001 6.021212e+001 3.483583e-001 8.697359e-001 1.108296e+000 1.536949e+000 1.771040e+000 2.847222e+000 1.309854e+000 1.586430e+000 1.383865e+000 1.444825e+000 1.363039e+000 1.213560e+000 6.598482e-001 5.631804e-002 1.077828e-001 1.512244e-001 2.323052e-001 2.222335e-001 4.599616e-001 1.841659e-001 2.434047e-001 2.227473e-001 2.132615e-001 1.976457e-001 2.395535e-001 7.235760e-002
<GCONST> 1.017320e+002
<TRANSP> 5
 0.000000e+000 1.000000e+000 0.000000e+000 0.000000e+000 0.000000e+000
 0.000000e+000 7.003375e-001 2.996626e-001 0.000000e+000 0.000000e+000
 0.000000e+000 0.000000e+000 7.709039e-001 2.290961e-001 0.000000e+000
 0.000000e+000 0.000000e+000 0.000000e+000 8.736610e-001 1.263390e-001
 0.000000e+000 0.000000e+000 0.000000e+000 0.000000e+000 0.000000e+000
<ENDHMM>
~h "m"
<BEGINHMM>
<NUMSTATES> 5
<STATE> 2
<MEAN> 39
 -2.796670e+000 2.087585e+000 2.785381e+000 9.941659e+000 2.272415e+000 -5.738687e+000 9.848927e+000 8.842132e+000 -1.127266e+000 3.225824e+000 -1.801262e+000 -4.953759e+000 6.589053e+001 5.095108e-001 1.087674e-001 1.023717e+000 2.616428e+000 2.052664e+000 2.160224e+000 1.335733e+000 -3.286674e-001 -1.144590e+000 3.926983e-001 -5.438330e-001 -1.967661e+000 -3.273319e-001 1.137535e-001 -2.465980e-001 -5.335009e-002 -2.810792e-001 -3.767235e-002 -3.474651e-001 -1.200680e-001 1.513556e-001 -3.538199e-003 -1.907295e-001 2.512908e-002 -2.782199e-002 3.988670e-001
<VARIANCE> 39
 4.985092e+001 2.079622e+001 1.504079e+001 3.011980e+001 3.596957e+001 7.361267e+001 2.253830e+001 2.127090e+001 2.531911e+001 1.863878e+001 1.407296e+001 2.220272e+001 5.559895e+001 3.540600e+000 1.048822e+000 1.651285e+000 4.448998e+000 2.477979e+000 5.896525e+000 2.210910e+000 2.569034e+000 2.442288e+000 1.513723e+000 1.359252e+000 2.465734e+000 3.237224e+000 3.838865e-001 2.066626e-001 1.907045e-001 6.746843e-001 3.177034e-001 5.410510e-001 3.968256e-001 3.120589e-001 5.569809e-001 2.290719e-001 2.990792e-001 3.279144e-001 1.544111e-001
<GCONST> 1.114436e+002
<STATE> 3
<MEAN> 39
 -7.686496e-003 3.421612e-001 4.440597e+000 1.615184e+001 7.093700e+000 -3.440851e+000 1.262493e+001 8.866160e+000 -5.985115e+000 2.882302e+000 -3.608001e+000 -1.037988e+001 6.768507e+001 6.174408e-001 -6.082653e-001 2.128673e-001 1.252097e+000 1.203486e+000 1.068957e-001 5.787029e-001 -1.145688e-001 -1.165081e+000 1.060942e-001 -2.036283e-001 -1.359283e+000 6.521512e-001 -3.518908e-001 9.216495e-002 -2.007061e-001 -9.145637e-001 -4.748260e-001 -5.176354e-001 -5.618974e-001 3.987647e-002 4.728743e-001 -1.559047e-001 3.427300e-001 6.468310e-001 4.860315e-002
<VARIANCE> 39
 7.859485e+000 1.524280e+001 9.668782e+000 1.081976e+001 3.799333e+001 2.609092e+001 1.730948e+001 2.121778e+001 2.408646e+001 1.473877e+001 1.129769e+001 1.142560e+001 1.501065e+001 2.528245e+000 1.222986e+000 1.112245e+000 2.170057e+000 1.780883e+000 5.181681e+000 1.517791e+000 1.421555e+000 2.415060e+000 1.094222e+000 1.564919e+000 1.608638e+000 2.798297e+000 2.214206e-001 2.635375e-001 2.302694e-001 2.296102e-001 2.028627e-001 3.925608e-001 2.235140e-001 2.366092e-001 3.191056e-001 2.756432e-001 1.728523e-001 2.476300e-001 2.261651e-001
<GCONST> 9.696542e+001
<STATE> 4
<MEAN> 39
 -4.708918e-001 9.981663e-001 4.709039e+000 1.434890e+001 8.394804e+000 -5.574060e+000 1.017524e+001 9.600533e+000 -6.027486e+000 1.869861e+000 -1.138793e+000 -1.024034e+001 6.873866e+001 -3.390854e-001 5.768065e-001 -1.238721e-001 -1.309709e+000 -2.775424e-001 -6.016725e-001 -1.004676e+000 1.135749e-001 8.146094e-001 -5.358489e-001 4.647406e-001 8.757975e-001 1.674130e-001 -2.917518e-002 -2.038752e-002 -1.880247e-001 -5.913410e-001 -4.435873e-001 -2.720474e-001 -2.355017e-001 1.662192e-002 3.365032e-001 -1.234582e-001 -2.560627e-002 3.890942e-001 1.511886e-001
<VARIANCE> 39
 6.490309e+000 1.898844e+001 7.205031e+000 2.321396e+001 4.090720e+001 2.858564e+001 1.768542e+001 2.006530e+001 4.191987e+001 1.878777e+001 1.616558e+001 1.771276e+001 1.534917e+001 5.827038e-001 1.301129e+000 1.010621e+000 3.313740e+000 3.685166e+000 4.699889e+000 1.515328e+000 1.243741e+000 2.420238e+000 1.174947e+000 1.076551e+000 2.308283e+000 1.636273e+000 7.354172e-002 2.353532e-001 1.495357e-001 4.844519e-001 3.757127e-001 4.299882e-001 3.114797e-001 3.508864e-001 3.817401e-001 2.221574e-001 2.300990e-001 2.776805e-001 1.665968e-001
<GCONST> 9.874094e+001
<TRANSP> 5
 0.000000e+000 1.000000e+000 0.000000e+000 0.000000e+000 0.000000e+000
 0.000000e+000 4.456415e-001 5.543585e-001 0.000000e+000 0.000000e+000
 0.000000e+000 0.000000e+000 5.715079e-001 4.284922e-001 0.000000e+000
 0.000000e+000 0.000000e+000 0.000000e+000 8.212246e-001 1.787754e-001
 0.000000e+000 0.000000e+000 0.000000e+000 0.000000e+000 0.000000e+000
<ENDHMM>
~h "n"
<BEGINHMM>
<NUMSTATES> 5
<STATE> 2
<MEAN> 39
 -2.454600e+000 -1.492214e+000 3.537416e+000 6.863376e+000 7.376230e+000 -6.868226e+000 6.545185e+000 3.240182e+000 -8.473205e+000 8.293538e-001 1.832442e+000 -3.354732e+000 7.326292e+001 -1.477523e-001 8.042497e-001 9.039329e-001 1.517810e+000 1.030387e+000 1.669291e+000 1.022446e-001 -3.447374e-001 1.024038e-001 5.151024e-001 -6.991149e-001 -1.140543e+000 -1.221061e+000 -9.531379e-003 -3.006255e-002 -4.315400e-002 2.583800e-002 -7.730415e-002 3.602554e-002 -1.556504e-001 5.899744e-002 1.979133e-001 1.304754e-002 -1.280363e-001 1.064608e-002 -5.533492e-002
<VARIANCE> 39
 1.472465e+001 2.573581e+001 2.551127e+001 3.111834e+001 4.928722e+001 6.156539e+001 3.550200e+001 3.899391e+001 4.308003e+001 2.392945e+001 3.167474e+001 2.864509e+001 5.008647e+001 1.154969e+000 1.064248e+000 1.811561e+000 3.050496e+000 2.121629e+000 3.255665e+000 1.689395e+000 2.001234e+000 1.961895e+000 1.915547e+000 1.988867e+000 2.213558e+000 1.771652e+000 1.492874e-001 1.806283e-001 2.260474e-001 3.791066e-001 2.996743e-001 5.037923e-001 3.481282e-001 3.754932e-001 4.204099e-001 2.891288e-001 3.276817e-001 3.239803e-001 1.769163e-001
<GCONST> 1.095715e+002
<STATE> 3
<MEAN> 39
 -2.120779e+000 1.598619e+000 6.457367e+000 1.331019e+001 1.016309e+001 -6.539059e-001 6.344774e+000 2.005194e+000 -7.104936e+000 2.787005e+000 -2.168327e+000 -7.728625e+000 6.801266e+001 -2.066281e-001 6.792808e-001 5.143553e-001 1.005443e+000 6.264192e-001 1.066156e+000 -2.365525e-001 -8.111288e-002 4.236968e-001 2.599464e-001 -5.443407e-001 -5.848451e-001 -9.182050e-001 -2.961807e-001 -8.290016e-002 -2.131920e-001 -7.231723e-001 -2.788127e-001 -3.325259e-001 -1.214963e-001 1.280558e-001 2.433795e-001 -3.608111e-001 3.088003e-001 5.354106e-001 2.366270e-001
<VARIANCE> 39
 1.097068e+001 1.650277e+001 1.299652e+001 2.627601e+001 3.691199e+001 3.372390e+001 2.767659e+001 3.355880e+001 3.087753e+001 1.707221e+001 3.023636e+001 2.390661e+001 2.220017e+001 1.585676e+000 1.498964e+000 1.308429e+000 2.946012e+000 1.912252e+000 3.073379e+000 1.510851e+000 1.713950e+000 2.884842e+000 1.614640e+000 1.600026e+000 2.103101e+000 2.067958e+000 1.987273e-001 2.674571e-001 2.763325e-001 4.358685e-001 3.582770e-001 4.641812e-001 3.150308e-001 3.939433e-001 4.435371e-001 3.264586e-001 3.292654e-001 3.650481e-001 2.395729e-001
<GCONST> 1.066252e+002
<STATE> 4
<MEAN> 39
 -5.083328e+000 4.382916e+000 6.415491e+000 1.283348e+001 1.047786e+001 3.072624e+000 6.377901e+000 2.845762e+000 -3.137202e+000 2.353332e+000 -1.805238e+000 -5.284758e+000 6.373843e+001 -9.963770e-001 5.213469e-002 -2.301477e-001 -1.032558e+000 -3.312920e-001 1.017625e-001 -4.463078e-001 2.470068e-001 9.729732e-001 -4.706776e-001 1.901263e-001 6.458318e-001 -3.137267e-001 -1.372222e-001 -3.401670e-001 -1.832521e-001 -4.930146e-001 -2.885467e-001 -4.430583e-001 -1.240866e-001 -7.474115e-002 -7.817102e-002 -1.497613e-001 1.700729e-001 2.030827e-001 3.293423e-001
<VARIANCE> 39
 2.193405e+001 1.965312e+001 1.570897e+001 2.987410e+001 3.489581e+001 3.840785e+001 2.321916e+001 2.649484e+001 4.075175e+001 1.631970e+001 2.266784e+001 2.496740e+001 3.326366e+001 1.421597e+000 1.660409e+000 1.699138e+000 3.299569e+000 2.570900e+000 2.979347e+000 1.610360e+000 1.988430e+000 2.456944e+000 1.752851e+000 1.437401e+000 1.920474e+000 1.913021e+000 2.099189e-001 3.123439e-001 2.953007e-001 5.522658e-001 3.312699e-001 5.231807e-001 3.187889e-001 4.161788e-001 4.387123e-001 3.376398e-001 2.926284e-001 4.260191e-001 2.509799e-001
<GCONST> 1.090820e+002
<TRANSP> 5
 0.000000e+000 1.000000e+000 0.000000e+000 0.000000e+000 0.000000e+000
 0.000000e+000 5.845740e-001 4.154260e-001 0.000000e+000 0.000000e+000
 0.000000e+000 0.000000e+000 5.665010e-001 4.334990e-001 0.000000e+000
 0.000000e+000 0.000000e+000 0.000000e+000 6.768736e-001 3.231264e-001
 0.000000e+000 0.000000e+000 0.000000e+000 0.000000e+000 0.000000e+000
<ENDHMM>
~h "p"
<BEGINHMM>
<NUMSTATES> 5
<STATE> 2
<MEAN> 39
 -1.171328e+001 -1.095859e+000 -2.682444e+000 2.984406e+000 3.057693e+000 1.768329e+000 4.434458e-001 1.557216e+000 -1.844930e+000 -1.989951e+000 6.205240e-001 4.831523e-002 5.850719e+001 -7.168777e-001 -6.249721e-002 -3.118938e-001 -7.433116e-001 -8.479663e-001 2.532975e-001 -2.093137e-001 -2.217197e-001 6.396852e-001 -5.285491e-002 -2.173417e-001 3.055595e-001 -4.162356e-001 1.008853e-001 -1.467509e-001 1.452774e-001 -3.410101e-001 1.580259e-001 -2.162402e-001 -5.567498e-002 -7.915121e-002 3.460971e-002 -7.306880e-002 1.861309e-002 5.965098e-002 6.059244e-001
<VARIANCE> 39
 1.331516e+001 3.330513e+001 1.586584e+001 5.113083e+001 4.485233e+001 1.185788e+001 1.385820e+001 1.536073e+001 2.990919e+001 2.126961e+001 1.044248e+001 1.996930e+001 2.222709e+001 1.359435e+000 1.292139e+000 1.394688e+000 3.591568e+000 2.530172e+000 1.816575e+000 1.566552e+000 2.233176e+000 2.456906e+000 1.788250e+000 1.194736e+000 1.114730e+000 4.099511e+000 2.252283e-001 3.002931e-001 2.275061e-001 4.916349e-001 2.761522e-001 2.995537e-001 3.916657e-001 6.031896e-001 5.189165e-001 3.332577e-001 1.926208e-001 2.294906e-001 5.433510e-001
<GCONST> 1.048308e+002
<STATE> 3
<MEAN> 39
 -1.187348e+001 6.984826e-001 7.818462e-001 1.468917e+000 7.272432e+000 5.027130e-001 -1.633244e-001 -8.181436e-001 -2.559648e-001 -2.337980e+000 4.080771e-001 -8.772935e-001 6.616199e+001 3.471093e-001 -9.214193e-002 4.484349e-001 -1.440641e+000 -8.995339e-002 -6.963223e-002 1.278212e-001 3.584821e-001 1.438558e+000 -2.545123e-001 4.346247e-002 8.294724e-001 1.666364e+000 4.681567e-001 4.645363e-002 1.961819e-001 1.908088e-001 -7.844755e-002 -2.840211e-001 1.130693e-001 4.909480e-001 2.595815e-001 2.893297e-001 1.322302e-001 -3.722362e-003 -1.220433e-002
<VARIANCE> 39
 2.737678e+001 1.383520e+001 2.302879e+001 6.559667e+001 6.019109e+001 1.723966e+001 1.814053e+001 2.449648e+001 4.086076e+001 1.828566e+001 1.464392e+001 2.053728e+001 6.219318e+001 3.953799e+000 1.839303e+000 2.871874e+000 6.592795e+000 7.327425e+000 3.005978e+000 2.259038e+000 4.887280e+000 8.214289e+000 2.601173e+000 2.013027e+000 2.709564e+000 1.036860e+001 7.210234e-001 4.617675e-001 5.503140e-001 9.160120e-001 1.188872e+000 6.433491e-001 4.716079e-001 8.737508e-001 9.373747e-001 5.371652e-001 3.530362e-001 3.504564e-001 1.650592e+000
<GCONST> 1.267304e+002
<STATE> 4
<MEAN> 39
 -7.849363e+000 1.158821e+000 2.790088e+000 -7.088097e+000 2.116033e+000 -2.048707e+000 1.704454e+000 6.911576e+000 1.143717e+001 -1.104584e+000 4.526765e-001 3.248874e+000 7.068667e+001 2.468107e+000 5.392730e-002 8.724542e-001 5.318171e-002 -1.125999e+000 -2.136109e+000 1.041254e-001 1.961138e+000 1.426422e+000 1.035874e+000 4.220556e-002 3.393738e-001 8.800501e-001 1.083722e-001 -2.109157e-001 -5.134177e-001 5.858083e-001 -1.505981e-001 -5.062819e-001 -1.788245e-001 -3.700910e-001 -1.153455e+000 4.989840e-004 -2.464581e-001 -4.394041e-001 -2.710494e-001
<VARIANCE> 39
 1.968522e+001 1.561468e+001 1.365802e+001 1.719631e+001 1.049431e+001 3.102745e+001 2.047677e+001 2.411960e+001 3.442377e+001 1.618375e+001 2.682862e+001 1.867012e+001 1.515416e+001 1.235090e+000 2.446743e+000 2.126541e+000 2.069489e+000 1.493730e+000 3.347623e+000 1.679296e+000 3.145245e+000 7.168640e+000 1.434015e+000 2.476355e+000 1.416272e+000 3.042526e+000 2.803245e-001 4.496082e-001 3.266682e-001 4.335499e-001 3.207213e-001 4.058324e-001 3.650235e-001 6.008353e-001 5.896397e-001 3.686655e-001 4.755980e-001 2.834285e-001 5.826941e-001
<GCONST> 1.090168e+002
<TRANSP> 5
 0.000000e+000 1.000000e+000 0.000000e+000 0.000000e+000 0.000000e+000
 0.000000e+000 8.624560e-001 1.375440e-001 0.000000e+000 0.000000e+000
 0.000000e+000 0.000000e+000 7.811667e-001 2.188333e-001 0.000000e+000
 0.000000e+000 0.000000e+000 0.000000e+000 6.348438e-001 3.651562e-001
 0.000000e+000 0.000000e+000 0.000000e+000 0.000000e+000 0.000000e+000
<ENDHMM>
~h "r"
<BEGINHMM>
<NUMSTATES> 5
<STATE> 2
<MEAN> 39
 3.472303e-001 -2.409948e+000 -1.872989e+000 -6.604782e+000 2.783645e+000 -8.361219e+000 -7.118316e-002 4.649415e+000 -1.196433e+000 -2.786509e+000 9.693635e-001 2.116141e+000 7.738858e+001 9.590259e-001 -1.797422e-001 -3.439699e-001 -3.097183e-001 2.974065e-001 -1.095652e+000 2.311555e-002 5.309784e-001 -6.161983e-001 -6.795902e-001 -1.191096e-001 2.257034e-003 7.808525e-001 -4.817257e-001 -1.048190e-001 7.114983e-002 -9.172471e-002 -1.065181e-001 3.778007e-001 2.444670e-001 -1.109796e-001 4.599720e-002 1.687069e-002 -4.360654e-002 -8.834090e-003 -1.866982e-001
<VARIANCE> 39
 2.885601e+001 5.918240e+001 4.538792e+001 3.977658e+001 4.572742e+001 8.559897e+001 3.272775e+001 4.549009e+001 6.010976e+001 3.790015e+001 3.693459e+001 2.279928e+001 4.994183e+001 3.010558e+000 3.365519e+000 2.980962e+000 1.521349e+000 2.224475e+000 5.779864e+000 2.183880e+000 3.117113e+000 4.578461e+000 3.361729e+000 2.649871e+000 1.521924e+000 2.100076e+000 8.066342e-001 4.321855e-001 3.096684e-001 2.444581e-001 3.283441e-001 6.291135e-001 5.007929e-001 4.339080e-001 4.998707e-001 3.365660e-001 3.897154e-001 2.895674e-001 3.053870e-001
<GCONST> 1.218558e+002
<STATE> 3
<MEAN> 39
 1.330260e+000 7.790787e-001 5.979720e-001 -7.212989e+000 5.002735e+000 -6.222124e+000 -2.540416e-001 5.243100e+000 -4.824921e+000 -5.699495e+000 -1.552488e+000 4.435196e-001 7.626686e+001 3.317247e-001 -6.268550e-001 -1.766258e-001 -3.824123e-001 -2.333813e-001 -2.666233e-001 3.673359e-001 5.546048e-003 -3.360569e-001 -3.153531e-001 -3.920292e-001 -4.209021e-003 6.911292e-001 -4.924345e-001 -9.916034e-002 1.099191e-001 8.064146e-002 -1.967540e-001 2.734628e-001 1.131096e-001 -1.377513e-001 3.567561e-001 2.570541e-001 1.321654e-001 3.639643e-002 -2.655821e-001
<VARIANCE> 39
 1.037268e+001 2.516221e+001 3.372777e+001 5.124497e+001 5.925399e+001 1.061596e+002 2.994500e+001 4.372778e+001 8.916919e+001 4.669968e+001 4.779523e+001 2.458073e+001 2.865045e+001 1.441000e+000 3.019348e+000 2.550697e+000 2.175950e+000 1.879786e+000 4.430205e+000 2.211050e+000 4.715642e+000 5.043634e+000 2.396223e+000 3.405467e+000 2.179122e+000 2.098963e+000 2.922436e-001 4.011961e-001 3.309472e-001 3.218058e-001 3.548058e-001 6.563612e-001 2.648802e-001 4.453609e-001 6.577295e-001 3.897157e-001 4.675742e-001 3.392102e-001 2.427836e-001
<GCONST> 1.196692e+002
<STATE> 4
<MEAN> 39
 1.723980e+000 1.615635e-001 3.333705e-001 -8.794657e+000 3.814864e+000 -4.938727e+000 -6.327263e-001 2.115478e+000 -6.334681e+000 -5.668118e+000 -2.476878e+000 1.310812e+000 7.756632e+001 -2.725393e-002 -3.025383e-001 -1.664453e-001 4.947650e-001 -2.160316e-001 -8.292575e-001 -9.357337e-002 -3.426263e-001 1.952859e-001 4.801523e-001 6.085077e-002 9.498262e-002 1.555995e-001 -5.140446e-002 -9.719547e-003 5.225407e-002 1.332065e-001 -1.771790e-002 -8.297279e-002 1.152847e-002 1.062816e-002 7.924345e-002 1.059347e-001 2.880331e-002 -4.534264e-002 -4.695642e-002
<VARIANCE> 39
 2.122474e+001 1.645247e+001 4.305394e+001 4.618229e+001 6.935377e+001 8.009113e+001 4.025629e+001 4.833133e+001 8.083498e+001 6.632930e+001 4.771564e+001 2.295743e+001 1.446538e+001 8.026868e-001 1.381227e+000 1.816145e+000 1.700024e+000 1.748141e+000 3.588148e+000 1.923171e+000 3.451463e+000 3.587222e+000 2.339611e+000 2.295773e+000 1.580958e+000 6.274909e-001 1.199713e-001 1.645682e-001 2.264460e-001 1.814079e-001 2.698628e-001 4.978409e-001 3.560337e-001 5.312174e-001 4.818411e-001 4.392446e-001 3.180664e-001 2.765642e-001 7.565268e-002
<GCONST> 1.101362e+002
<TRANSP> 5
 0.000000e+000 1.000000e+000 0.000000e+000 0.000000e+000 0.000000e+000
 0.000000e+000 3.825336e-001 6.174664e-001 0.000000e+000 0.000000e+000
 0.000000e+000 0.000000e+000 3.906957e-001 6.093043e-001 0.000000e+000
 0.000000e+000 0.000000e+000 0.000000e+000 8.366365e-001 1.633635e-001
 0.000000e+000 0.000000e+000 0.000000e+000 0.000000e+000 0.000000e+000
<ENDHMM>
~h "s"
<BEGINHMM>
<NUMSTATES> 5
<STATE> 2
<MEAN> 39
 -1.436484e+001 -1.220485e+000 9.407566e+000 -4.681230e+000 1.613612e+000 3.461918e+000 2.866545e+000 -1.252228e+000 -3.402759e-001 -1.931806e+000 2.037981e+000 6.640234e-001 7.032726e+001 -4.145141e+000 -8.516683e-001 1.590943e+000 -3.176009e+000 2.943746e-001 1.534718e+000 -7.503161e-001 -6.142808e-001 1.649039e+000 -1.384551e-001 1.111358e+000 -1.136340e-002 1.254679e+000 -5.079855e-001 -3.587421e-001 -5.165180e-001 -6.471167e-001 -3.211126e-001 -7.788366e-001 -3.367623e-001 3.227066e-002 -1.501569e-001 -6.110036e-002 7.383388e-002 -1.670318e-001 3.032490e-001
<VARIANCE> 39
 4.358624e+001 1.412272e+001 4.386178e+001 3.090291e+001 2.934253e+001 2.639029e+001 2.219791e+001 3.082341e+001 4.380978e+001 2.715396e+001 2.438744e+001 1.774374e+001 8.126020e+001 7.722692e+000 3.395111e+000 5.260279e+000 5.776157e+000 5.137261e+000 5.229460e+000 2.524931e+000 3.325221e+000 7.405629e+000 2.459787e+000 3.368636e+000 2.203007e+000 3.015454e+000 7.535848e-001 4.343296e-001 8.300127e-001 8.476257e-001 6.771704e-001 7.851818e-001 4.238993e-001 4.612303e-001 9.565225e-001 3.887903e-001 4.834469e-001 3.324661e-001 2.822962e-001
<GCONST> 1.263362e+002
<STATE> 3
<MEAN> 39
 -2.688775e+001 -5.698112e+000 9.448165e+000 -1.575462e+001 -1.122996e+000 2.189906e+000 -1.023326e+000 -4.404235e+000 1.479679e+000 -2.486050e+000 4.713955e+000 -6.529913e-001 7.608604e+001 -2.953114e+000 -6.019435e-001 -3.633963e-001 -2.569449e+000 -7.100805e-001 -7.805016e-001 -9.256985e-001 -3.742103e-001 -5.031592e-002 -1.665537e-001 1.391827e-001 -5.865337e-001 1.040933e+000 7.886022e-001 3.493789e-001 -3.457480e-001 7.578685e-001 1.682447e-001 -2.266515e-001 2.684815e-001 3.236604e-001 -3.128273e-001 4.938324e-002 -3.270856e-001 -1.026232e-002 -3.972629e-001
<VARIANCE> 39
 1.503366e+001 1.027571e+001 1.615270e+001 1.620796e+001 1.967211e+001 2.099508e+001 2.338812e+001 1.841927e+001 2.438805e+001 1.934733e+001 1.217743e+001 1.087618e+001 2.425924e+001 2.398526e+000 1.167145e+000 2.883262e+000 2.396344e+000 1.772616e+000 1.659175e+000 1.933821e+000 1.916542e+000 1.644555e+000 1.350833e+000 1.196076e+000 9.172703e-001 2.721173e+000 5.148365e-001 3.009287e-001 5.360675e-001 3.748980e-001 6.131832e-001 6.661171e-001 3.591837e-001 4.323271e-001 6.353538e-001 2.508009e-001 2.697054e-001 2.388928e-001 1.473759e-001
<GCONST> 1.031278e+002
<STATE> 4
<MEAN> 39
 -3.195429e+001 -4.032408e+000 7.320347e+000 -1.771589e+001 2.059201e+000 8.771380e-001 -6.829617e-001 -1.568025e+000 4.867902e-001 -1.542159e+000 2.703718e+000 -1.347595e+000 7.590318e+001 7.820655e-001 3.326858e-001 -1.619931e-001 7.042159e-001 3.325728e-001 -2.216524e-001 2.478752e-001 3.183462e-001 -1.387095e-001 3.138983e-002 -2.611527e-001 1.675877e-001 -4.695590e-001 6.127526e-001 1.356075e-002 1.146581e-003 4.345901e-001 5.814914e-003 -7.145172e-002 9.630974e-002 2.996056e-002 -1.088679e-001 -2.348112e-002 6.848171e-003 6.686541e-002 -7.881540e-002
<VARIANCE> 39
 2.272143e+001 1.006525e+001 2.346506e+001 1.894570e+001 2.470812e+001 1.789650e+001 2.460606e+001 1.907333e+001 1.669577e+001 1.999945e+001 1.442325e+001 1.046991e+001 2.257747e+001 5.823507e+000 8.440495e-001 1.070130e+000 2.995435e+000 1.458952e+000 1.308759e+000 1.278536e+000 1.585891e+000 1.580696e+000 1.485727e+000 1.072822e+000 8.636174e-001 2.070674e+000 5.204487e-001 1.827187e-001 2.279504e-001 4.649968e-001 3.332216e-001 2.807339e-001 2.663937e-001 2.924916e-001 3.286582e-001 2.701017e-001 2.257402e-001 1.767545e-001 2.795163e-001
<GCONST> 9.857468e+001
<TRANSP> 5
 0.000000e+000 1.000000e+000 0.000000e+000 0.000000e+000 0.000000e+000
 0.000000e+000 5.934991e-001 4.065009e-001 0.000000e+000 0.000000e+000
 0.000000e+000 0.000000e+000 6.575027e-001 3.424973e-001 0.000000e+000
 0.000000e+000 0.000000e+000 0.000000e+000 9.018379e-001 9.816211e-002
 0.000000e+000 0.000000e+000 0.000000e+000 0.000000e+000 0.000000e+000
<ENDHMM>
~h "t"
<BEGINHMM>
<NUMSTATES> 5
<STATE> 2
<MEAN> 39
 -1.221462e+001 2.144355e-001 2.051661e+000 -4.994267e-001 1.013954e+000 -1.805290e+000 2.206683e+000 2.830852e+000 -1.915730e+000 -1.920670e+000 1.907205e+000 8.325063e-001 6.315051e+001 -1.363946e+000 -7.522234e-001 -1.743539e-001 -6.504459e-001 -3.131776e-001 -6.449272e-002 -6.995256e-001 -7.122808e-001 9.629683e-001 -3.725707e-001 1.575973e-001 3.227931e-001 5.916594e-001 -8.443273e-002 -4.016663e-001 3.572972e-001 -2.492041e-001 1.933387e-001 -1.675619e-001 4.896958e-002 -3.151554e-001 1.139692e-002 -5.461357e-002 -5.455825e-002 -7.338843e-002 9.704853e-001
<VARIANCE> 39
 4.537834e+001 1.996490e+001 4.000103e+001 5.713580e+001 5.170758e+001 4.144677e+001 2.900337e+001 4.177267e+001 5.360070e+001 4.660416e+001 2.209499e+001 2.507134e+001 6.304818e+001 3.634502e+000 3.219894e+000 4.510284e+000 6.755111e+000 4.857629e+000 4.407448e+000 3.331170e+000 4.008055e+000 4.424537e+000 3.510031e+000 2.514331e+000 2.507032e+000 1.132672e+001 4.320329e-001 4.745428e-001 8.461332e-001 6.987246e-001 8.424892e-001 8.909487e-001 7.278427e-001 6.664011e-001 7.716216e-001 6.124712e-001 4.696494e-001 4.298663e-001 1.327973e+000
<GCONST> 1.326309e+002
<STATE> 3
<MEAN> 39
 -1.847245e+001 -5.040856e+000 5.835539e+000 -5.033827e+000 2.844807e+000 -1.760179e+000 7.634082e-001 -1.754580e+000 2.429292e+000 -3.288857e+000 2.560519e+000 1.556642e+000 7.390648e+001 -4.559782e-001 -9.972305e-001 1.223350e+000 -5.531856e-001 6.294847e-001 1.173856e-001 3.742159e-001 -9.215776e-001 3.716502e-001 -4.593292e-004 8.544663e-003 4.957442e-002 2.027152e+000 7.945498e-001 4.570646e-001 -1.449267e-001 5.433398e-001 4.596336e-002 -6.852668e-002 2.621498e-001 4.079301e-001 -4.459437e-001 2.892737e-001 -1.156033e-001 -2.376888e-001 -9.016625e-001
<VARIANCE> 39
 3.294600e+001 1.450837e+001 1.736397e+001 3.280184e+001 2.628480e+001 2.210502e+001 2.665147e+001 2.727469e+001 2.921249e+001 2.835903e+001 1.469408e+001 1.633397e+001 3.923017e+001 4.041200e+000 2.381348e+000 2.968253e+000 5.863873e+000 3.665637e+000 4.032313e+000 3.600939e+000 3.340994e+000 4.040884e+000 3.754392e+000 2.128324e+000 2.329066e+000 8.177478e+000 5.653623e-001 4.323009e-001 5.958534e-001 1.013820e+000 8.896375e-001 8.245421e-001 5.793728e-001 6.746189e-001 9.116219e-001 5.983106e-001 4.424147e-001 4.695144e-001 1.337031e+000
<GCONST> 1.246888e+002
<STATE> 4
<MEAN> 39
 -1.537499e+001 -4.359519e+000 6.992341e+000 -2.076066e+000 4.593526e+000 -1.851564e+000 1.971075e+000 -1.761679e+000 4.897488e-001 -1.456412e+000 2.233607e+000 3.035388e-001 7.155553e+001 1.466746e+000 2.731993e-001 -3.792879e-002 1.026250e+000 2.867193e-001 -6.012261e-001 2.073565e-001 4.883830e-001 -8.096572e-001 5.017074e-001 -1.375070e-001 -5.223443e-001 -6.262175e-001 2.910043e-001 1.653224e-001 -2.807427e-001 1.285299e-001 -1.330333e-001 -2.527962e-001 -2.088883e-001 3.093184e-001 -1.835593e-001 3.336254e-002 -6.565369e-002 -1.392649e-001 -2.448653e-001
<VARIANCE> 39
 5.285371e+001 1.979012e+001 2.199292e+001 7.601081e+001 5.168623e+001 2.456842e+001 3.249685e+001 2.985514e+001 4.310858e+001 2.568596e+001 1.919321e+001 3.383391e+001 4.716069e+001 2.701272e+000 2.296934e+000 2.215198e+000 3.294725e+000 2.791703e+000 4.705091e+000 2.297185e+000 2.796025e+000 4.753057e+000 2.247460e+000 2.389232e+000 1.901877e+000 4.222884e+000 7.356892e-001 5.593069e-001 4.368418e-001 7.180875e-001 5.213261e-001 6.597025e-001 5.405934e-001 5.457488e-001 7.728658e-001 4.435105e-001 3.925378e-001 4.192354e-001 8.597233e-001
<GCONST> 1.236243e+002
<TRANSP> 5
 0.000000e+000 1.000000e+000 0.000000e+000 0.000000e+000 0.000000e+000
 0.000000e+000 7.290322e-001 2.709678e-001 0.000000e+000 0.000000e+000
 0.000000e+000 0.000000e+000 5.962477e-001 4.037523e-001 0.000000e+000
 0.000000e+000 0.000000e+000 0.000000e+000 5.951231e-001 4.048769e-001
 0.000000e+000 0.000000e+000 0.000000e+000 0.000000e+000 0.000000e+000
<ENDHMM>
~h "v"
<BEGINHMM>
<NUMSTATES> 5
<STATE> 2
<MEAN> 39
 6.702998e-001 -5.315166e+000 -6.798191e-001 1.308237e+000 -1.855002e+000 -1.478049e+001 5.845271e+000 6.351799e+000 -9.490008e+000 -3.673191e+000 -1.857337e+000 -3.001783e+000 8.051145e+001 -9.243472e-002 5.623911e-001 2.128055e-001 4.484699e-001 3.504880e-001 6.249611e-001 3.050242e-001 1.133519e-001 2.098344e-003 -3.649479e-001 -1.577454e-001 -4.232839e-001 -5.784361e-001 -6.362411e-002 7.384557e-002 5.509707e-002 3.892602e-002 9.700143e-002 4.537733e-002 -8.134615e-003 -1.313503e-002 2.877482e-002 3.386556e-002 9.546239e-002 -2.702174e-002 -6.333259e-002
<VARIANCE> 39
 3.874344e+000 1.547143e+001 1.396442e+001 2.777191e+001 2.397657e+001 3.113732e+001 1.283896e+001 3.463124e+001 3.597954e+001 2.763375e+001 1.739348e+001 2.870340e+001 1.799079e+001 2.840299e-001 7.698830e-001 3.808922e-001 1.198034e+000 1.322516e+000 1.405564e+000 1.035249e+000 1.626147e+000 1.686262e+000 1.735780e+000 1.258402e+000 2.041819e+000 1.139013e+000 6.141655e-002 1.053861e-001 6.228320e-002 2.083300e-001 1.434307e-001 2.142483e-001 1.642514e-001 2.158124e-001 2.940638e-001 2.210371e-001 2.010586e-001 2.667799e-001 1.401158e-001
<GCONST> 8.760143e+001
<STATE> 3
<MEAN> 39
 1.665948e-001 1.577344e+000 7.974346e-001 2.857173e+000 2.963516e+000 -8.529415e+000 6.362973e+000 5.554327e+000 -5.661834e+000 -2.617343e+000 -2.639796e+000 -3.000147e+000 7.239088e+001 -4.425620e-001 6.646314e-001 2.201863e-001 8.267918e-001 5.109861e-001 7.373679e-001 4.883056e-001 3.844506e-001 6.944884e-001 -4.945762e-002 2.828678e-001 -4.324050e-001 -9.154894e-001 -1.368845e-001 -1.965233e-001 3.840043e-002 -5.891420e-002 -5.976005e-002 -2.322432e-002 -1.246097e-001 -1.510976e-001 3.832849e-002 6.890363e-002 1.987599e-001 2.294976e-001 1.493908e-001
<VARIANCE> 39
 9.233704e+000 3.096430e+001 1.524485e+001 4.979637e+001 3.980662e+001 5.677785e+001 1.984324e+001 4.820445e+001 5.066864e+001 1.918312e+001 1.724881e+001 1.298611e+001 2.510469e+001 1.594746e+000 2.074891e+000 5.471788e-001 2.701043e+000 2.625033e+000 3.521843e+000 2.209365e+000 2.559026e+000 5.267677e+000 1.797521e+000 1.889030e+000 1.629238e+000 1.516956e+000 2.254684e-001 3.171785e-001 1.514261e-001 3.704039e-001 3.757563e-001 7.623563e-001 3.420951e-001 3.409508e-001 4.703686e-001 2.616650e-001 3.324105e-001 3.348407e-001 2.605611e-001
<GCONST> 1.088453e+002
<STATE> 4
<MEAN> 39
 -6.776418e+000 5.043583e+000 2.549107e+000 1.869320e+000 3.680193e+000 -2.633795e+000 7.276372e+000 3.303673e+000 -1.592731e+000 -8.735564e-001 -2.073096e+000 -7.292545e-001 6.497546e+001 -6.820296e-001 2.655755e-002 -5.609604e-002 -7.987277e-002 1.262898e-001 5.751166e-001 -1.804361e-002 7.808612e-002 1.874803e-001 2.720911e-001 1.521974e-001 7.669633e-002 -7.659726e-001 4.832308e-002 -9.545057e-002 3.717266e-003 4.044557e-002 2.192482e-003 -3.208629e-002 -1.227458e-001 -9.432173e-002 -1.302415e-001 3.649561e-002 -7.747377e-002 -4.143657e-002 3.393159e-002
<VARIANCE> 39
 4.385998e+001 2.349254e+001 2.074427e+001 4.664753e+001 3.010620e+001 4.219610e+001 2.754519e+001 3.345398e+001 5.224922e+001 2.466308e+001 2.140671e+001 2.008021e+001 3.663050e+001 1.802110e+000 1.277110e+000 1.883280e+000 2.154875e+000 1.864666e+000 2.760433e+000 1.832259e+000 2.139563e+000 3.363887e+000 1.701108e+000 1.627300e+000 1.945793e+000 6.427904e-001 3.184575e-001 1.981288e-001 3.433439e-001 3.778015e-001 3.371317e-001 4.970895e-001 3.590201e-001 4.095027e-001 6.149743e-001 3.589625e-001 2.543086e-001 3.840558e-001 1.282869e-001
<GCONST> 1.095831e+002
<TRANSP> 5
 0.000000e+000 1.000000e+000 0.000000e+000 0.000000e+000 0.000000e+000
 0.000000e+000 8.466102e-001 1.533898e-001 0.000000e+000 0.000000e+000
 0.000000e+000 0.000000e+000 5.285616e-001 4.714384e-001 0.000000e+000
 0.000000e+000 0.000000e+000 0.000000e+000 8.435189e-001 1.564811e-001
 0.000000e+000 0.000000e+000 0.000000e+000 0.000000e+000 0.000000e+000
<ENDHMM>
~h "w"
<BEGINHMM>
<NUMSTATES> 5
<STATE> 2
<MEAN> 39
 -1.169268e+001 -2.223355e+000 1.821181e+000 -1.478128e+000 9.209137e-001 -3.306130e+000 3.205514e-002 6.773518e-001 1.255617e-001 -7.729532e-001 3.506097e-001 1.874146e+000 6.214831e+001 8.271631e-001 2.359586e-001 -1.427012e-002 -1.307723e-001 -3.626760e-001 -2.741371e-001 2.311705e-001 6.300526e-001 -1.057025e-001 -3.389963e-001 -4.955527e-001 -3.586375e-001 3.901656e-001 8.652806e-003 1.001915e-001 4.398853e-002 -5.306171e-002 1.321475e-001 -1.246923e-001 9.253167e-002 2.694100e-001 4.744250e-002 -1.815106e-001 1.445694e-002 -1.829593e-001 1.226215e-001
<VARIANCE> 39
 1.327043e+002 2.554905e+001 1.408660e+001 2.361484e+001 5.962234e+001 1.032340e+002 2.495668e+001 5.148669e+001 1.045065e+002 2.446810e+001 2.295371e+001 1.240646e+001 2.454790e+002 3.019227e+000 4.986685e+000 3.020450e+000 2.632482e+000 3.228651e+000 6.203393e+000 2.297922e+000 2.360720e+000 2.188839e+000 3.377103e+000 1.788998e+000 1.857643e+000 3.754055e+000 4.963676e-001 6.888365e-001 4.749323e-001 4.923904e-001 8.086820e-001 1.673669e+000 5.363324e-001 5.864260e-001 7.655706e-001 6.534142e-001 4.972920e-001 3.474537e-001 7.373818e-001
<GCONST> 1.283621e+002
<STATE> 3
<MEAN> 39
 -1.713424e+000 -2.174933e+000 2.271924e+000 -1.059390e+000 2.593569e+000 -5.108815e+000 2.260637e+000 -1.012909e-001 -6.921243e+000 -2.684817e+000 -5.819362e-001 2.834464e-001 7.460095e+001 8.531245e-001 1.347755e+000 6.788423e-001 -7.459762e-001 -4.785548e-001 -3.242922e-001 3.401270e-001 2.129292e+000 4.672007e-001 -1.014944e+000 -1.035640e+000 -1.748828e+000 2.990612e-002 -6.398099e-002 2.120935e-001 2.209742e-001 1.638451e-001 -2.459513e-002 -7.283307e-001 -2.489168e-001 2.936553e-001 3.968373e-001 3.488058e-001 1.465287e-001 -3.195848e-001 8.473435e-002
<VARIANCE> 39
 3.422791e+001 2.057189e+001 1.102600e+001 1.261207e+001 5.352959e+001 8.230423e+001 1.467411e+001 7.053265e+001 1.397112e+002 1.990844e+001 2.687428e+001 1.958669e+001 6.212046e+001 2.378225e+000 2.887266e+000 3.258977e+000 3.350353e+000 3.563279e+000 4.577899e+000 2.231439e+000 3.121107e+000 6.003005e+000 1.632170e+000 2.890989e+000 2.237697e+000 1.909600e+000 1.313312e-001 3.556048e-001 1.558198e-001 2.208600e-001 5.181134e-001 1.150842e+000 3.139850e-001 6.328009e-001 1.129264e+000 5.663342e-001 5.000130e-001 2.111072e-001 5.900775e-001
<GCONST> 1.188844e+002
<STATE> 4
<MEAN> 39
 -1.109459e+000 7.474772e+000 1.105924e+001 -1.469640e-001 3.089662e+000 -1.430077e+001 -3.613274e+000 5.176989e+000 -4.067327e+000 1.204103e+000 -2.466064e+000 -4.989117e+000 7.160972e+001 2.480851e-001 4.197920e-001 6.000919e-001 3.434537e-001 -7.345371e-001 -2.507744e+000 -7.964939e-001 8.039014e-001 8.569897e-001 5.492159e-001 -2.238469e-001 -6.695500e-002 2.780467e-001 1.081750e-002 -4.862680e-001 -2.952171e-001 4.769565e-002 -1.993073e-001 -7.379339e-002 8.576487e-002 -2.291470e-001 -6.823950e-002 9.481050e-003 2.012181e-001 2.955554e-001 2.925296e-001
<VARIANCE> 39
 7.279681e+000 2.718242e+001 2.667740e+001 1.662757e+001 1.688234e+001 8.377138e+001 3.050886e+001 1.913278e+001 2.852584e+001 2.960464e+001 1.875730e+001 2.585802e+001 2.168159e+001 1.155617e+000 2.943278e+000 1.844489e+000 1.415856e+000 3.804709e+000 3.809183e+000 2.008221e+000 3.250867e+000 4.090955e+000 3.749232e+000 1.692848e+000 2.733508e+000 2.500967e+000 9.214324e-002 2.002985e-001 1.972075e-001 3.581122e-001 6.276163e-001 8.108808e-001 4.964795e-001 4.910730e-001 6.453664e-001 8.157887e-001 3.223862e-001 3.806884e-001 1.569844e-001
<GCONST> 1.112753e+002
<TRANSP> 5
 0.000000e+000 1.000000e+000 0.000000e+000 0.000000e+000 0.000000e+000
 0.000000e+000 5.556191e-001 4.443810e-001 0.000000e+000 0.000000e+000
 0.000000e+000 0.000000e+000 3.411634e-001 6.588366e-001 0.000000e+000
 0.000000e+000 0.000000e+000 0.000000e+000 8.298316e-001 1.701684e-001
 0.000000e+000 0.000000e+000 0.000000e+000 0.000000e+000 0.000000e+000
<ENDHMM>
~h "y"
<BEGINHMM>
<NUMSTATES> 5
<STATE> 2
<MEAN> 39
 -6.186945e+000 1.754454e+000 6.879449e+000 6.610571e+000 1.104667e+001 -2.104994e+000 2.408739e+000 5.143439e+000 -5.411742e+000 -1.912972e+000 1.020400e+000 -5.339161e+000 6.868108e+001 5.637943e-001 -6.679882e-001 1.954850e+000 6.549535e-001 1.462865e+000 -6.974243e-001 -6.438233e-001 9.449721e-002 -1.657203e+000 -1.139882e+000 5.469373e-001 -2.794498e-002 1.894299e+000 6.026421e-002 -5.503290e-001 -1.336707e-001 -2.062308e-001 -3.289999e-003 -4.006450e-001 -2.338419e-001 -1.143643e-001 -1.683031e-001 -1.995638e-001 2.426697e-001 1.172488e-001 3.432015e-001
<VARIANCE> 39
 4.873072e+001 1.695410e+001 4.512428e+001 7.210271e+001 4.508496e+001 3.892540e+001 1.584059e+001 3.052454e+001 3.720409e+001 3.982698e+001 2.300826e+001 2.777485e+001 7.567156e+001 2.575152e+000 1.893624e+000 4.930794e+000 6.682974e+000 2.777406e+000 3.612778e+000 1.817722e+000 2.233990e+000 3.329902e+000 2.440012e+000 3.061077e+000 3.206117e+000 2.445748e+000 2.697204e-001 3.244444e-001 4.766457e-001 4.590078e-001 3.349315e-001 3.953163e-001 1.848654e-001 5.448564e-001 5.772798e-001 4.650096e-001 3.547496e-001 3.923851e-001 3.721427e-001
<GCONST> 1.197318e+002
<STATE> 3
<MEAN> 39
 -8.117233e+000 -3.409503e+000 1.427611e+001 1.185460e+001 1.589916e+001 -2.942741e+000 1.164008e+000 2.076854e+000 -4.846302e+000 -6.706201e+000 2.411152e+000 -4.712910e+000 7.450220e+001 -4.427725e-002 -1.208125e+000 6.109789e-002 -4.676408e-001 2.817053e-001 -3.817076e-001 -7.923943e-001 -5.762070e-001 -4.903631e-001 -4.852576e-001 9.326755e-001 3.052318e-001 1.415252e+000 1.413849e-001 1.289366e-001 -4.752876e-001 -1.980033e-001 -2.076042e-001 -6.604075e-003 3.481751e-002 -3.625973e-002 -7.222742e-002 2.430236e-001 -6.023317e-002 4.772522e-002 -1.555165e-001
<VARIANCE> 39
 3.401797e+001 1.815374e+001 5.971013e+001 6.415234e+001 2.589469e+001 1.806508e+001 3.319382e+001 2.560336e+001 4.504600e+001 1.780392e+001 3.088689e+001 1.713821e+001 1.742433e+001 1.727705e+000 2.441117e+000 3.051774e+000 2.397540e+000 2.062014e+000 2.725961e+000 2.145139e+000 2.366736e+000 4.574782e+000 1.990956e+000 1.989589e+000 2.008783e+000 1.071524e+000 3.482349e-001 4.504806e-001 4.057660e-001 4.255717e-001 3.704545e-001 4.842460e-001 4.283223e-001 4.396380e-001 7.884563e-001 2.020252e-001 2.987794e-001 3.141840e-001 2.064565e-001
<GCONST> 1.127308e+002
<STATE> 4
<MEAN> 39
 -1.922709e+000 -5.796000e+000 3.750010e+000 2.069092e+000 1.201157e+001 -8.235153e+000 -3.563720e+000 2.924883e+000 -1.213939e+001 -6.135776e+000 6.988383e+000 -3.063769e+000 8.052248e+001 7.047117e-001 4.953708e-002 -1.010330e+000 -1.440088e+000 -1.394690e+000 -1.225253e+000 -1.972243e-001 7.712698e-001 2.366297e-001 1.651219e-001 -3.413104e-001 2.200789e-001 4.547966e-001 -1.013509e-002 1.832176e-001 1.233063e-001 -9.928821e-002 -3.276753e-001 -1.512594e-001 1.741057e-001 3.219742e-001 5.550368e-001 1.077705e-001 -2.209817e-001 -1.701602e-001 -1.884682e-001
<VARIANCE> 39
 1.635068e+001 1.129878e+001 4.376961e+001 4.834344e+001 4.666968e+001 4.101573e+001 1.671121e+001 3.870197e+001 4.127893e+001 2.218558e+001 4.146354e+001 1.463382e+001 9.107316e+000 7.639751e-001 8.029277e-001 1.305361e+000 1.715508e+000 2.758322e+000 2.859181e+000 1.763511e+000 2.551479e+000 5.497849e+000 1.968093e+000 2.648076e+000 1.756145e+000 4.623238e-001 8.963810e-002 1.700734e-001 1.793916e-001 2.830994e-001 3.873932e-001 4.845420e-001 3.143116e-001 3.697389e-001 6.238912e-001 2.809769e-001 5.456430e-001 2.728263e-001 9.526319e-002
<GCONST> 1.040671e+002
<TRANSP> 5
 0.000000e+000 1.000000e+000 0.000000e+000 0.000000e+000 0.000000e+000
 0.000000e+000 2.716855e-001 7.283145e-001 0.000000e+000 0.000000e+000
 0.000000e+000 0.000000e+000 7.252475e-001 2.747525e-001 0.000000e+000
 0.000000e+000 0.000000e+000 0.000000e+000 8.124739e-001 1.875261e-001
 0.000000e+000 0.000000e+000 0.000000e+000 0.000000e+000 0.000000e+000
<ENDHMM>
~h "z"
<BEGINHMM>
<NUMSTATES> 5
<STATE> 2
<MEAN> 39
 -2.473600e+001 -3.536510e+000 1.367771e+001 -1.177392e+001 1.897478e+000 2.901384e+000 8.032423e-001 -1.134848e+000 -1.392603e+000 -3.708707e+000 1.851464e+000 -2.234535e+000 7.624760e+001 -2.082161e+000 -2.265569e-001 1.736547e-002 -1.666988e+000 -7.582762e-001 4.439572e-001 -2.169378e-002 9.319010e-002 6.478757e-001 9.596486e-002 2.162756e-001 2.302508e-001 -1.273651e-001 5.260258e-001 -3.501960e-002 -1.544799e-001 4.888159e-001 2.123414e-001 -2.821787e-001 1.332721e-002 -3.899894e-002 -2.590788e-001 3.044699e-002 -7.518651e-002 -6.151912e-002 -1.230074e-001
<VARIANCE> 39
 1.480966e+002 1.343010e+001 2.245878e+001 6.544518e+001 3.436427e+001 5.537341e+001 1.714714e+001 1.997135e+001 2.707808e+001 1.904141e+001 2.799509e+001 1.180211e+001 9.398373e+000 6.634668e+000 1.442280e+000 1.981304e+000 6.163008e+000 2.886731e+000 3.661383e+000 1.315965e+000 1.782538e+000 3.119789e+000 1.108036e+000 1.673289e+000 1.099156e+000 7.869762e-001 7.055012e-001 2.699113e-001 3.835551e-001 6.887394e-001 4.362893e-001 7.063255e-001 2.311384e-001 2.628468e-001 6.718783e-001 2.596140e-001 3.318908e-001 2.269898e-001 1.128930e-001
<GCONST> 1.103394e+002
<STATE> 3
<MEAN> 39
 -2.233621e+001 -5.739962e+000 1.171040e+001 -1.191013e+001 -1.763916e-001 -2.047675e-001 1.521302e+000 -3.031216e-001 -2.269645e+000 -4.380235e+000 8.028697e-001 -3.059332e-001 7.302449e+001 1.601399e+000 4.677889e-001 -3.136665e-001 1.124951e+000 5.358160e-001 5.734642e-001 7.280793e-001 -2.828013e-001 -7.437294e-002 9.343773e-004 -2.345321e-001 3.502247e-001 -1.194590e+000 3.994286e-001 2.581877e-001 -9.389423e-002 5.141836e-001 3.231614e-001 1.848143e-002 -3.047217e-002 3.317098e-001 -4.461522e-002 7.772389e-002 -1.669926e-001 -3.003966e-001 -2.797475e-001
<VARIANCE> 39
 1.463181e+002 1.795510e+001 2.140499e+001 4.865575e+001 2.511664e+001 4.720320e+001 2.210846e+001 2.147985e+001 3.346732e+001 2.147599e+001 2.662639e+001 1.191949e+001 1.786771e+001 3.760708e+000 1.224170e+000 1.275900e+000 2.062897e+000 2.581502e+000 2.041641e+000 1.996590e+000 1.897959e+000 2.576479e+000 2.274736e+000 1.772882e+000 1.181141e+000 8.385383e-001 3.448825e-001 1.743390e-001 2.363954e-001 3.738166e-001 4.143345e-001 3.311370e-001 3.092131e-001 4.222673e-001 5.037017e-001 4.499722e-001 3.198624e-001 3.267131e-001 1.156322e-001
<GCONST> 1.076213e+002
<STATE> 4
<MEAN> 39
 -1.554779e+001 -4.324106e-001 8.565929e+000 -5.147208e+000 3.152283e+000 2.492200e+000 2.585946e+000 1.627197e+000 -3.130674e+000 -2.548158e+000 5.700234e-001 -5.118480e-001 6.607442e+001 1.125805e+000 7.100989e-001 -9.671568e-001 1.756076e+000 7.576687e-001 9.569560e-002 1.538496e-002 5.140817e-001 1.222010e-001 6.301017e-001 -2.841820e-002 -3.351591e-001 -1.149778e+000 -1.402676e-001 -1.958014e-001 -4.664134e-002 1.031654e-001 -2.783739e-002 -2.166014e-001 -1.184117e-001 2.418735e-002 3.907092e-003 1.215775e-001 -3.928440e-002 -1.382405e-001 1.805297e-001
<VARIANCE> 39
 5.993850e+001 2.646137e+001 4.206761e+001 3.178304e+001 4.907285e+001 4.343475e+001 3.328018e+001 2.354246e+001 3.259203e+001 3.899950e+001 1.793528e+001 1.618456e+001 7.922068e+001 5.066550e+000 2.300639e+000 2.580395e+000 3.514603e+000 4.552670e+000 3.476803e+000 2.410429e+000 3.153093e+000 3.367537e+000 3.635174e+000 2.300991e+000 2.032011e+000 2.653366e+000 6.571420e-001 3.275935e-001 4.516948e-001 5.911125e-001 6.294852e-001 4.148014e-001 4.516836e-001 6.120861e-001 5.453165e-001 5.611336e-001 4.728616e-001 4.053464e-001 3.777019e-001
<GCONST> 1.229426e+002
<TRANSP> 5
 0.000000e+000 1.000000e+000 0.000000e+000 0.000000e+000 0.000000e+000
 0.000000e+000 7.897850e-001 2.102150e-001 0.000000e+000 0.000000e+000
 0.000000e+000 0.000000e+000 6.126412e-001 3.873588e-001 0.000000e+000
 0.000000e+000 0.000000e+000 0.000000e+000 7.063569e-001 2.936431e-001
 0.000000e+000 0.000000e+000 0.000000e+000 0.000000e+000 0.000000e+000
<ENDHMM>
~h "aa"
<BEGINHMM>
<NUMSTATES> 5
<STATE> 2
<MEAN> 39
 4.489233e-001 -1.617689e+000 1.186719e+000 -7.109611e+000 -4.369445e+000 -1.549418e+001 1.202747e+000 9.745502e+000 1.086400e+001 2.493765e+000 -1.213225e+000 2.591156e+000 7.726778e+001 9.080180e-001 -1.454781e+000 -1.192765e+000 -6.698412e-001 -8.709417e-001 -1.687849e+000 -1.350506e-001 1.885945e-001 -1.263078e+000 1.603956e-001 2.072741e-001 -2.157284e-001 1.436555e+000 -2.405925e-001 -3.660467e-002 -2.625790e-001 -1.004127e-001 3.579844e-001 5.953025e-001 -4.219561e-002 -2.077573e-001 -3.645080e-001 -2.040020e-001 2.852157e-001 5.048936e-003 -2.153102e-001
<VARIANCE> 39
 4.295450e+000 1.573224e+001 1.391270e+001 1.204362e+001 1.186562e+001 2.377983e+001 9.994627e+000 1.457798e+001 2.514307e+001 8.252730e+000 9.970458e+000 1.009867e+001 1.124819e+001 5.267110e-001 1.395402e+000 9.625831e-001 1.611837e+000 1.357214e+000 2.246423e+000 1.013216e+000 1.510710e+000 1.784298e+000 7.885097e-001 1.472066e+000 1.211332e+000 8.030601e-001 1.301819e-001 3.983607e-001 2.156123e-001 2.020753e-001 1.464016e-001 2.180127e-001 2.170828e-001 2.672292e-001 3.999349e-001 1.209078e-001 1.978848e-001 2.181606e-001 1.345900e-001
<GCONST> 8.581388e+001
<STATE> 3
<MEAN> 39
 4.046837e+000 -4.717388e+000 -5.249712e+000 -1.189994e+001 -4.824064e+000 -1.330476e+001 2.225469e+000 8.004068e+000 1.365368e-001 4.214596e-001 2.768921e+000 4.214203e+000 7.981095e+001 2.545908e-001 3.374416e-001 -2.007025e-001 -8.163701e-001 1.656480e-001 1.738906e+000 4.371804e-001 -7.300876e-001 -1.910529e+000 -8.897638e-001 2.963828e-001 7.718574e-001 -1.254191e-001 -1.412826e-001 2.061477e-001 2.984139e-001 7.240228e-002 1.653869e-001 3.937418e-001 2.855512e-002 -2.261793e-002 -1.105559e-001 -3.145837e-001 -8.272472e-002 1.431528e-002 -1.442829e-001
<VARIANCE> 39
 5.459912e+000 4.457365e+000 7.464031e+000 1.642432e+001 1.039205e+001 3.786597e+001 1.195766e+001 2.714038e+001 4.653707e+001 1.834038e+001 9.205463e+000 2.008873e+001 4.130161e+000 4.311391e-001 5.504006e-001 1.245008e+000 6.610106e-001 7.860827e-001 1.492507e+000 7.490745e-001 1.145543e+000 1.648672e+000 1.666655e+000 7.640958e-001 9.604937e-001 3.100565e-001 4.990553e-002 8.845910e-002 1.075450e-001 1.834767e-001 1.466169e-001 2.307670e-001 1.713177e-001 2.047668e-001 1.396381e-001 2.423866e-001 1.320746e-001 2.314944e-001 7.396597e-002
<GCONST> 7.716462e+001
<STATE> 4
<MEAN> 39
 2.377745e+000 1.031286e+000 -1.961620e+000 -1.415314e+001 1.601993e+000 1.801372e+000 4.399854e+000 5.207306e+000 -1.263604e+001 -1.200464e+001 3.498927e+000 7.689056e+000 7.631422e+001 -1.074414e+000 1.303031e+000 4.177789e-001 1.472635e+000 2.017278e+000 1.560893e+000 -5.614910e-002 -7.688832e-002 1.605165e-002 -1.552128e+000 -4.146014e-001 -4.334334e-001 -1.126622e+000 -2.741985e-001 -2.404417e-001 -2.935722e-002 8.152643e-001 -7.165618e-002 -7.275499e-001 -2.795676e-001 -2.799344e-001 9.068723e-001 8.787233e-001 -7.138951e-002 -3.799895e-001 1.326717e-001
<VARIANCE> 39
 5.561650e+000 1.602826e+001 8.401603e+000 2.248280e+001 3.153477e+001 4.222573e+001 1.228957e+001 2.416868e+001 3.555174e+001 3.820947e+001 1.578661e+001 1.485871e+001 1.298878e+001 9.132920e-001 1.492430e+000 1.203498e+000 3.957029e+000 2.190582e+000 3.109383e+000 1.412291e+000 2.444889e+000 7.361552e+000 5.478648e+000 1.544035e+000 1.316034e+000 1.377445e+000 9.295847e-002 5.445570e-001 2.755200e-001 2.658019e-001 8.032406e-001 4.810508e-001 3.480353e-001 6.252010e-001 6.919239e-001 7.723633e-001 4.277768e-001 2.245678e-001 5.633485e-001
<GCONST> 1.076704e+002
<TRANSP> 5
 0.000000e+000 1.000000e+000 0.000000e+000 0.000000e+000 0.000000e+000
 0.000000e+000 7.683220e-001 2.316780e-001 0.000000e+000 0.000000e+000
 0.000000e+000 0.000000e+000 8.509005e-001 1.490995e-001 0.000000e+000
 0.000000e+000 0.000000e+000 0.000000e+000 7.685583e-001 2.314417e-001
 0.000000e+000 0.000000e+000 0.000000e+000 0.000000e+000 0.000000e+000
<ENDHMM>
~h "ae"
<BEGINHMM>
<NUMSTATES> 5
<STATE> 2
<MEAN> 39
 -9.507542e+000 4.072631e-001 3.573928e+000 -1.524534e+000 -3.421742e+000 -6.126049e+000 5.695634e+000 8.285565e-001 -2.902050e-001 -2.802121e+000 -4.008566e+000 5.106680e+000 6.509883e+001 -1.032906e-001 -5.890594e-001 -1.795371e+000 -4.504817e-001 -1.415165e+000 -6.289817e-001 1.477707e-001 6.299632e-001 4.593605e-001 9.889849e-001 3.805880e-001 3.007969e-001 -1.149514e+000 2.406487e-002 -1.314197e-001 -1.048090e-001 3.322119e-001 1.464363e-001 2.090805e-001 1.596876e-001 2.958019e-001 2.497627e-001 3.927454e-001 -2.761676e-002 -5.376042e-001 3.175332e-002
<VARIANCE> 39
 2.356798e+001 1.394214e+001 3.018118e+001 1.594080e+001 3.057558e+001 2.955746e+001 3.124472e+001 1.774042e+001 2.847594e+001 2.358234e+001 3.985391e+001 2.071936e+001 6.108424e+001 3.975641e+000 2.352798e+000 1.733985e+000 3.031521e+000 3.831579e+000 4.773716e+000 3.633698e+000 1.881069e+000 3.911777e+000 2.923544e+000 4.123045e+000 4.955475e+000 3.995220e+000 7.660330e-001 4.127655e-001 4.346187e-001 6.948655e-001 7.667285e-001 9.479159e-001 8.100182e-001 3.741626e-001 6.044797e-001 7.070227e-001 8.484063e-001 1.103188e+000 1.300371e+000
<GCONST> 1.251580e+002
<STATE> 3
<MEAN> 39
 -7.751688e+000 -3.912344e+000 -2.899520e+000 -2.067122e+000 -7.933030e+000 -7.245945e+000 9.279793e+000 5.887625e+000 4.043380e+000 2.026761e+000 -2.795083e+000 3.591761e+000 6.566885e+001 1.833181e+000 -1.013801e+000 -7.516293e-001 6.897694e-002 -5.599442e-001 -1.337985e+000 1.450365e+000 1.129900e+000 2.940451e-001 7.542065e-001 -4.024612e-001 1.070540e-001 1.965774e+000 2.396235e-001 7.928142e-002 2.187811e-001 1.769550e-002 4.465352e-001 -1.395932e-001 -1.475407e-001 -9.492008e-002 -2.767141e-001 -2.478077e-001 -2.533861e-002 1.294602e-001 4.399717e-001
<VARIANCE> 39
 3.291066e+001 2.507418e+001 1.363693e+001 1.768883e+001 4.398055e+001 3.546989e+001 4.459152e+001 3.204375e+001 3.373116e+001 1.601878e+001 3.223295e+001 1.310494e+001 6.569011e+001 4.008069e+000 2.629094e+000 1.544064e+000 1.520742e+000 3.438656e+000 3.794209e+000 4.422980e+000 3.303554e+000 3.296435e+000 1.844904e+000 3.027436e+000 1.713994e+000 6.968377e+000 6.866047e-001 5.635363e-001 2.601316e-001 3.142017e-001 6.815392e-001 6.303132e-001 1.034673e+000 5.554775e-001 6.704329e-001 3.387200e-001 7.027848e-001 3.672560e-001 8.384948e-001
<GCONST> 1.210053e+002
<STATE> 4
<MEAN> 39
 4.999999e-001 -7.839056e+000 -4.481711e+000 -5.209515e-001 -9.087062e-001 -1.314955e+001 9.350340e+000 5.831845e+000 -1.973371e+000 2.167644e+000 6.411262e-001 5.160079e+000 7.853618e+001 2.829490e-001 3.447073e-001 1.694124e-001 6.978581e-001 1.229353e+000 2.370128e-001 -1.486020e-001 -5.279366e-001 -1.037961e+000 -4.640803e-002 5.369180e-001 -3.914906e-001 3.404641e-001 -3.262775e-001 3.216881e-001 2.846246e-001 3.407322e-001 1.206962e-001 5.578076e-001 -6.754193e-002 -1.631287e-001 3.239925e-002 -3.892530e-002 -1.939135e-001 -4.217836e-001 -6.022197e-001
<VARIANCE> 39
 5.129555e+000 1.686683e+001 9.980651e+000 1.585050e+001 3.290902e+001 1.940133e+001 4.572784e+001 3.755291e+001 3.619828e+001 2.150691e+001 4.169205e+001 1.106923e+001 1.889454e+001 1.160681e+000 2.035936e+000 1.443683e+000 2.778297e+000 2.134070e+000 3.731181e+000 1.689478e+000 3.483466e+000 1.639227e+000 1.401121e+000 1.748268e+000 2.549251e+000 2.819477e+000 2.298303e-001 2.165206e-001 1.703963e-001 2.863473e-001 2.801814e-001 5.090116e-001 3.668071e-001 5.364408e-001 3.434782e-001 2.906167e-001 5.679740e-001 3.188306e-001 2.414520e-001
<GCONST> 1.052701e+002
<TRANSP> 5
 0.000000e+000 1.000000e+000 0.000000e+000 0.000000e+000 0.000000e+000
 0.000000e+000 7.101579e-001 2.898422e-001 0.000000e+000 0.000000e+000
 0.000000e+000 0.000000e+000 7.524581e-001 2.475419e-001 0.000000e+000
 0.000000e+000 0.000000e+000 0.000000e+000 8.315490e-001 1.684510e-001
 0.000000e+000 0.000000e+000 0.000000e+000 0.000000e+000 0.000000e+000
<ENDHMM>
~h "ah"
<BEGINHMM>
<NUMSTATES> 5
<STATE> 2
<MEAN> 39
 -4.805129e+000 3.758534e+000 5.537470e+000 2.605602e+000 9.748417e-001 -9.228310e+000 2.168639e+000 6.910498e+000 -2.275715e+000 -3.912909e+000 -2.520448e+000 -2.417563e+000 6.799016e+001 3.053194e-001 -8.316391e-001 -1.081727e-002 -4.602889e-001 -1.243175e+000 -1.758408e+000 3.576377e-001 -9.700720e-002 -1.637406e-001 9.560455e-002 -5.144690e-001 3.940918e-001 1.246112e+000 1.924180e-001 -4.795759e-001 -7.606491e-002 -3.460980e-001 -3.028254e-001 -4.315866e-001 1.517597e-001 8.674347e-002 -2.517347e-001 1.166185e-001 1.081424e-001 3.199518e-002 6.789414e-001
<VARIANCE> 39
 3.949119e+001 5.452182e+001 5.233278e+001 8.662875e+001 6.504230e+001 9.409043e+001 4.794020e+001 4.812984e+001 4.781758e+001 4.454056e+001 3.222351e+001 2.473880e+001 7.857787e+001 4.000144e+000 2.491159e+000 1.992684e+000 4.072938e+000 5.019537e+000 8.899592e+000 5.084255e+000 3.421072e+000 6.132863e+000 3.631782e+000 3.258948e+000 2.162148e+000 5.898876e+000 6.485987e-001 4.363497e-001 3.977751e-001 7.850785e-001 7.729678e-001 1.031757e+000 7.196016e-001 6.669204e-001 1.224590e+000 6.818669e-001 5.836211e-001 3.841776e-001 9.756511e-001
<GCONST> 1.357357e+002
<STATE> 3
<MEAN> 39
 -1.819468e+000 -4.019773e+000 4.130083e+000 -1.056002e+000 -6.030086e+000 -1.861769e+001 5.464243e+000 7.332819e+000 -4.018525e+000 -1.948261e+000 -4.385993e+000 7.081361e-001 7.751884e+001 1.019044e+000 -1.431336e+000 -7.641262e-001 -8.729415e-001 -7.193820e-001 -2.167252e+000 3.333465e-001 5.762703e-001 -2.052374e-001 6.616329e-001 -1.135951e-001 7.466359e-001 2.105435e+000 -2.178561e-001 2.560414e-001 -5.260976e-002 1.209827e-001 5.459037e-001 6.686628e-001 -1.320603e-001 2.159314e-003 1.813549e-001 -3.203457e-002 4.760150e-002 -6.553660e-002 -5.150093e-001
<VARIANCE> 39
 9.905406e+000 1.891014e+001 2.802828e+001 2.691350e+001 6.067284e+001 7.504692e+001 3.480148e+001 3.705162e+001 5.480126e+001 3.528671e+001 3.141707e+001 2.125861e+001 3.641438e+001 2.062956e+000 2.207772e+000 2.115238e+000 3.663060e+000 5.266071e+000 6.990853e+000 2.704500e+000 3.512357e+000 5.130656e+000 3.388156e+000 2.409244e+000 1.910611e+000 7.461554e+000 3.786302e-001 2.740412e-001 3.079888e-001 5.621675e-001 6.853069e-001 1.135632e+000 7.286981e-001 5.104087e-001 6.471995e-001 6.148701e-001 4.757708e-001 2.932517e-001 7.545108e-001
<GCONST> 1.241687e+002
<STATE> 4
<MEAN> 39
 3.112056e-001 -6.424282e+000 7.508004e-001 -3.317775e+000 -3.348341e+000 -2.124455e+001 7.552018e+000 9.631124e+000 -4.901259e+000 -7.681301e-001 -4.287824e+000 1.513366e+000 8.203143e+001 -3.946225e-002 3.577985e-001 -2.552678e-002 4.641031e-001 6.507078e-001 8.873944e-001 3.301600e-001 -6.258979e-001 -6.809258e-001 -3.097701e-001 2.815799e-001 -2.125089e-001 -3.216661e-001 -9.407550e-002 1.783122e-001 1.310987e-001 1.971692e-001 6.021472e-002 2.815899e-001 -9.886745e-003 -7.579112e-002 9.043215e-003 -8.003120e-002 4.285192e-002 -1.250285e-001 -2.748963e-001
<VARIANCE> 39
 3.019854e+000 7.891497e+000 1.225302e+001 1.127739e+001 2.031630e+001 5.823139e+001 1.952886e+001 7.365427e+001 4.947603e+001 1.085793e+001 2.108762e+001 2.085734e+001 1.547619e+001 2.901393e-001 8.192094e-001 5.625436e-001 1.189348e+000 1.324455e+000 1.648914e+000 1.387862e+000 1.905641e+000 1.544757e+000 9.659353e-001 1.012145e+000 1.196205e+000 9.826189e-001 5.794595e-002 8.162896e-002 8.710504e-002 1.412123e-001 1.967258e-001 2.561330e-001 2.151301e-001 3.331603e-001 3.239565e-001 1.893103e-001 1.620118e-001 1.543750e-001 1.265221e-001
<GCONST> 8.580199e+001
<TRANSP> 5
 0.000000e+000 1.000000e+000 0.000000e+000 0.000000e+000 0.000000e+000
 0.000000e+000 5.561766e-001 4.438234e-001 0.000000e+000 0.000000e+000
 0.000000e+000 0.000000e+000 6.275425e-001 3.724575e-001 0.000000e+000
 0.000000e+000 0.000000e+000 0.000000e+000 8.913624e-001 1.086376e-001
 0.000000e+000 0.000000e+000 0.000000e+000 0.000000e+000 0.000000e+000
<ENDHMM>
~h "ao"
<BEGINHMM>
<NUMSTATES> 5
<STATE> 2
<MEAN> 39
 -9.877707e-001 -2.518434e+000 2.545399e+000 -3.175671e+000 -6.609143e+000 -2.372959e+001 -3.905154e+000 9.108575e+000 2.349339e+000 -2.102969e-001 1.590906e+000 -2.459218e+000 7.826893e+001 1.193794e+000 -8.108437e-001 -8.675347e-002 -3.635455e-001 -1.869478e+000 -3.806795e+000 -9.081731e-002 1.537893e+000 2.118707e+000 8.419021e-001 6.371974e-001 -4.596116e-001 1.701146e+000 -6.807841e-001 -6.847733e-002 -1.917919e-001 9.254377e-002 3.381432e-001 7.689303e-001 2.763126e-001 -4.426655e-001 8.543624e-002 -9.251942e-002 -1.291998e-002 1.415660e-001 -1.964389e-001
<VARIANCE> 39
 3.534029e+001 1.119473e+001 2.828758e+001 1.805019e+001 3.289936e+001 8.357738e+001 4.555772e+001 3.296937e+001 3.659854e+001 2.184446e+001 1.878324e+001 2.433714e+001 6.324803e+001 2.904228e+000 5.996248e-001 9.858738e-001 1.002053e+000 1.908247e+000 8.724747e+000 1.380394e+000 2.386366e+000 3.496693e+000 2.389674e+000 1.012637e+000 1.186726e+000 4.797389e+000 1.262891e+000 1.862229e-001 3.666488e-001 3.615683e-001 3.999850e-001 1.563376e+000 7.121151e-001 4.204333e-001 3.895468e-001 4.059552e-001 2.168114e-001 1.959293e-001 4.699377e-001
<GCONST> 1.136032e+002
<STATE> 3
<MEAN> 39
 1.753658e+000 -3.697025e+000 4.833840e-001 -4.968794e+000 -8.651294e+000 -2.847034e+001 -5.314134e+000 1.170060e+001 6.341453e+000 1.450219e+000 4.202301e+000 -4.233646e+000 8.118475e+001 7.987866e-002 7.281464e-002 1.858681e-002 2.464175e-002 -5.788149e-001 -6.400816e-001 1.078379e-001 1.801553e-001 5.939799e-001 6.031557e-001 -6.794922e-002 5.247674e-002 -2.210733e-001 -7.031512e-002 1.258271e-001 1.068690e-001 6.808119e-002 1.842360e-001 4.596081e-001 6.506415e-002 -1.632646e-001 -4.612594e-001 -6.133007e-002 -1.403952e-001 4.014182e-002 -1.662688e-001
<VARIANCE> 39
 3.797205e+000 8.263737e+000 1.418332e+001 7.805924e+000 9.266124e+000 3.898397e+001 2.307262e+001 2.596968e+001 1.216576e+001 1.232419e+001 1.955879e+001 2.115382e+001 5.648191e+000 1.248452e-001 1.617315e-001 7.369182e-001 4.071953e-001 8.765509e-001 2.160765e+000 8.297127e-001 7.989850e-001 2.619448e+000 6.940885e-001 8.720146e-001 6.514215e-001 2.870861e-001 5.612863e-002 4.060679e-002 8.033084e-002 1.194006e-001 1.130508e-001 2.550848e-001 1.294986e-001 1.570383e-001 2.549322e-001 1.656206e-001 6.502116e-002 8.741102e-002 5.781605e-002
<GCONST> 6.943015e+001
<STATE> 4
<MEAN> 39
 5.565674e-001 -8.109184e-001 3.575931e+000 -5.376776e+000 -1.245786e+001 -2.414088e+001 -7.685784e-001 1.041765e+001 3.300480e+000 4.180894e+000 1.591036e+000 -1.147788e+000 7.826824e+001 -1.693436e-001 3.534679e-001 7.577981e-002 -9.238042e-002 2.561622e-001 1.081241e+000 3.883358e-001 -1.828959e-001 -3.200426e-001 -1.686929e-001 -2.394390e-001 1.324895e-001 -5.079772e-001 -6.094171e-002 2.633076e-002 -1.270757e-002 5.989905e-002 5.325671e-002 1.005382e-001 1.116398e-002 5.141308e-003 2.827918e-002 -7.502549e-002 2.070895e-002 -1.398714e-003 -7.724209e-002
<VARIANCE> 39
 1.210146e+001 3.748874e+001 3.047381e+001 2.099564e+001 3.387276e+001 1.231379e+002 2.796268e+001 3.040373e+001 2.800721e+001 1.455139e+001 2.918531e+001 2.024323e+001 3.986970e+001 5.134149e-001 8.336619e-001 8.092453e-001 9.650844e-001 1.313162e+000 2.220696e+000 1.093794e+000 9.988685e-001 1.380375e+000 9.072073e-001 9.360973e-001 7.254389e-001 4.345599e-001 8.510450e-002 1.010474e-001 9.273563e-002 1.547479e-001 2.059265e-001 3.054905e-001 1.603343e-001 1.526555e-001 2.297086e-001 1.319359e-001 1.711548e-001 1.172390e-001 7.074348e-002
<GCONST> 8.895193e+001
<TRANSP> 5
 0.000000e+000 1.000000e+000 0.000000e+000 0.000000e+000 0.000000e+000
 0.000000e+000 5.271238e-001 4.728762e-001 0.000000e+000 0.000000e+000
 0.000000e+000 0.000000e+000 8.338344e-001 1.661656e-001 0.000000e+000
 0.000000e+000 0.000000e+000 0.000000e+000 9.304881e-001 6.951191e-002
 0.000000e+000 0.000000e+000 0.000000e+000 0.000000e+000 0.000000e+000
<ENDHMM>
~h "aw"
<BEGINHMM>
<NUMSTATES> 5
<STATE> 2
<MEAN> 39
 -2.204245e+001 -2.193367e+000 6.197622e+000 -6.832959e+000 7.256497e+000 -2.982996e+000 2.937869e+000 2.980365e+000 7.678397e-001 -2.472914e+000 6.909584e-001 -4.015924e-001 7.076620e+001 2.838505e+000 6.511618e-001 6.302876e-001 6.135588e-001 -1.673366e+000 -1.453603e+000 -3.039417e-001 2.090226e-002 -3.314348e-001 -1.557542e+000 -5.916624e-001 -4.122741e-001 1.035824e+000 9.467613e-001 -1.399634e-002 2.191856e-002 1.095910e-001 -8.177391e-001 -8.215049e-001 1.331630e-002 5.439914e-001 -1.202592e-001 -4.161417e-001 6.406143e-002 -2.226156e-001 6.937228e-001
<VARIANCE> 39
 7.104567e+001 1.317944e+001 1.207208e+001 1.731630e+001 1.676690e+001 5.899870e+001 3.268676e+001 5.535506e+001 1.972762e+001 2.169426e+001 1.252908e+001 3.708413e+001 1.990929e+001 1.084811e+001 1.477544e+000 1.282894e+000 1.841676e+000 4.301888e+000 7.140872e+000 3.629599e+000 4.377716e+000 1.788226e+000 3.548644e+000 1.262400e+000 3.055766e+000 3.064860e+000 9.653426e-001 2.582191e-001 2.069251e-001 2.187052e-001 6.039379e-001 1.449490e+000 6.818500e-001 7.579389e-001 3.113773e-001 5.263301e-001 2.096714e-001 4.279049e-001 6.991783e-001
<GCONST> 1.177381e+002
<STATE> 3
<MEAN> 39
 -6.175274e+000 -1.258926e+000 6.794127e+000 -5.847385e+000 -5.200718e+000 -1.341115e+001 1.470666e+000 6.444500e+000 4.661104e-001 -1.065983e+001 5.354990e-001 -2.572619e+000 7.870066e+001 4.809353e+000 -1.155032e+000 -5.523438e-001 1.698604e-001 -4.034115e+000 -5.154732e+000 1.122769e-001 3.065394e+000 1.146873e-001 -1.140936e+000 7.094469e-001 -1.322037e+000 3.089658e+000 -1.117444e+000 -5.614132e-001 -3.348938e-001 -3.434041e-001 2.990525e-001 1.376729e-001 1.554096e-001 2.029550e-001 5.887889e-001 1.174798e+000 1.806642e-001 1.585407e-001 -4.103436e-001
<VARIANCE> 39
 4.138131e+001 1.646659e+001 9.565769e+000 9.638247e+000 3.395592e+001 6.589749e+001 1.008921e+001 3.609493e+001 1.343642e+001 1.984626e+001 1.199924e+001 9.894702e+000 2.491337e+001 4.772523e+000 2.028487e+000 1.232267e+000 1.264669e+000 2.390466e+000 2.300584e+000 1.198666e+000 1.488743e+000 1.942176e+000 5.265861e+000 1.483287e+000 8.434725e-001 1.287382e+000 7.069294e-001 3.306530e-001 2.045299e-001 2.322696e-001 5.605987e-001 1.071467e+000 1.797681e-001 6.987754e-001 2.746056e-001 4.854812e-001 3.496514e-001 2.551612e-001 6.158214e-001
<GCONST> 1.057125e+002
<STATE> 4
<MEAN> 39
 -1.346477e+000 -4.035771e+000 8.709686e+000 -4.328122e+000 -9.903792e+000 -2.335630e+001 2.611415e+000 1.451163e+001 4.410160e-002 -6.090096e+000 -3.019207e+000 -5.332464e+000 7.970658e+001 2.176279e-002 1.014105e-001 1.380696e-001 2.358434e-001 4.628425e-001 3.568836e-001 5.012588e-002 -1.511133e-001 -6.378812e-001 -3.330410e-005 -4.502939e-001 7.805100e-002 -1.921292e-001 -9.981664e-002 1.147076e-001 7.808503e-003 3.874826e-002 1.591528e-001 2.744054e-001 5.021574e-002 -2.265419e-001 -6.405426e-002 -2.772246e-002 1.373428e-002 8.067705e-002 -1.007723e-001
<VARIANCE> 39
 5.066815e+000 9.337824e+000 1.100621e+001 1.025786e+001 6.264353e+001 4.867373e+001 1.321274e+001 1.342662e+001 5.500407e+001 3.012109e+001 2.774544e+001 1.478841e+001 1.540422e+001 3.661060e-001 8.597078e-001 8.712494e-001 8.264512e-001 3.271274e+000 4.205915e+000 1.200047e+000 2.281450e+000 2.778096e+000 2.771535e+000 1.168906e+000 1.689015e+000 1.355937e+000 1.194595e-001 1.785450e-001 1.668539e-001 1.781987e-001 3.697403e-001 5.830609e-001 2.663409e-001 3.651498e-001 4.369918e-001 4.198550e-001 2.296579e-001 3.150052e-001 3.516431e-001
<GCONST> 9.820082e+001
<TRANSP> 5
 0.000000e+000 1.000000e+000 0.000000e+000 0.000000e+000 0.000000e+000
 0.000000e+000 6.726718e-001 3.273282e-001 0.000000e+000 0.000000e+000
 0.000000e+000 0.000000e+000 7.013823e-001 2.986177e-001 0.000000e+000
 0.000000e+000 0.000000e+000 0.000000e+000 9.499486e-001 5.005142e-002
 0.000000e+000 0.000000e+000 0.000000e+000 0.000000e+000 0.000000e+000
<ENDHMM>
~h "ax"
<BEGINHMM>
<NUMSTATES> 5
<STATE> 2
<MEAN> 39
 -3.745474e+000 -1.300128e+000 2.643568e+000 -1.962310e+000 -3.280844e+000 -8.262451e+000 4.297940e+000 7.244866e+000 -2.679420e+000 -1.355711e+000 -2.578377e-001 -1.389422e-001 7.230894e+001 9.661137e-001 -3.357379e-001 2.567826e-001 1.639935e-001 -8.712713e-001 -9.351142e-001 5.010980e-001 -1.701959e-001 -3.055611e-001 2.398623e-001 -4.967430e-001 6.037990e-002 1.293939e+000 -1.689740e-001 1.210566e-001 -1.799672e-002 2.915438e-002 1.918920e-001 3.798109e-001 7.353500e-002 -2.101841e-001 2.698328e-001 -1.445393e-002 -6.539282e-003 5.580059e-002 -2.138259e-001
<VARIANCE> 39
 5.866265e+001 2.491824e+001 1.370850e+001 4.881054e+001 7.287881e+001 9.088859e+001 2.587870e+001 3.985419e+001 1.002003e+002 7.094937e+001 2.540407e+001 1.907528e+001 9.085407e+001 4.421806e+000 2.456736e+000 1.709163e+000 1.928178e+000 4.611689e+000 6.056556e+000 2.060448e+000 1.788843e+000 3.410711e+000 3.288211e+000 1.559393e+000 1.354099e+000 5.231718e+000 7.242988e-001 4.357024e-001 2.683689e-001 4.197577e-001 7.120020e-001 8.387543e-001 4.235601e-001 2.989334e-001 6.440108e-001 5.007902e-001 3.111234e-001 2.081948e-001 6.444926e-001
<GCONST> 1.235743e+002
<STATE> 3
<MEAN> 39
 -2.056292e+000 4.565876e-001 3.746109e+000 -8.583544e-001 -9.183400e-001 -5.250657e+000 6.262767e+000 3.482074e+000 -7.013827e+000 -1.556274e+000 -9.903312e-001 6.336257e-001 7.265375e+001 -4.414083e-001 4.741769e-001 1.471990e-001 2.826283e-001 2.166812e-001 9.306095e-001 5.707402e-001 -6.110492e-001 3.901640e-001 1.595313e-001 -1.804278e-001 5.894558e-002 -6.642303e-001 -2.104792e-001 1.117730e-001 -3.580193e-002 4.484049e-002 1.799398e-001 2.044345e-001 -1.531998e-002 2.801403e-002 3.232297e-001 6.471920e-003 1.029565e-002 -3.639030e-002 -2.882704e-001
<VARIANCE> 39
 3.512825e+001 2.798545e+001 1.650327e+001 7.856422e+001 5.020127e+001 8.425105e+001 2.918152e+001 5.443322e+001 5.920166e+001 5.332196e+001 2.786204e+001 3.070262e+001 6.151921e+001 1.265570e+000 1.772748e+000 1.531058e+000 2.580463e+000 2.375745e+000 2.642638e+000 2.080681e+000 2.217265e+000 2.649711e+000 2.733817e+000 1.597917e+000 1.376245e+000 2.079074e+000 2.333805e-001 3.076226e-001 2.820549e-001 4.697829e-001 3.865719e-001 5.332001e-001 2.859545e-001 3.272883e-001 4.931382e-001 4.625433e-001 3.298829e-001 2.455789e-001 2.732832e-001
<GCONST> 1.155405e+002
<STATE> 4
<MEAN> 39
 -3.473500e+000 8.865198e-001 -3.939820e-001 -4.824655e+000 -3.607578e+000 -3.566841e+000 5.626288e+000 4.371186e+000 -2.654140e+000 -1.259139e+000 -1.399240e+000 3.137177e+000 6.836900e+001 -4.038244e-001 3.230954e-001 4.624617e-002 3.232004e-001 3.427629e-001 4.644789e-001 2.510946e-001 6.994107e-002 1.898388e-001 1.653920e-001 9.381734e-002 -7.953221e-002 -6.460115e-001 -4.150463e-002 -4.564480e-003 2.970631e-002 5.193765e-002 5.759482e-002 3.059296e-003 -6.067017e-002 4.441619e-002 2.718636e-002 1.223885e-002 8.161470e-003 -6.834559e-002 -4.490898e-002
<VARIANCE> 39
 6.615394e+001 4.018032e+001 2.237158e+001 5.212474e+001 4.553864e+001 1.306695e+002 2.174821e+001 4.160146e+001 8.317179e+001 2.579704e+001 2.177052e+001 1.530353e+001 1.039796e+002 8.623540e-001 1.198451e+000 9.773272e-001 1.233117e+000 1.128087e+000 1.535308e+000 1.343940e+000 1.424279e+000 2.208840e+000 1.547711e+000 1.237105e+000 9.001193e-001 7.816707e-001 9.615602e-002 1.649030e-001 1.578060e-001 2.112172e-001 1.749669e-001 2.696586e-001 2.199593e-001 2.019438e-001 3.518480e-001 2.438098e-001 2.238489e-001 1.703328e-001 9.009941e-002
<GCONST> 1.009126e+002
<TRANSP> 5
 0.000000e+000 1.000000e+000 0.000000e+000 0.000000e+000 0.000000e+000
 0.000000e+000 4.894921e-001 5.105079e-001 0.000000e+000 0.000000e+000
 0.000000e+000 0.000000e+000 4.652638e-001 5.347362e-001 0.000000e+000
 0.000000e+000 0.000000e+000 0.000000e+000 8.564919e-001 1.435081e-001
 0.000000e+000 0.000000e+000 0.000000e+000 0.000000e+000 0.000000e+000
<ENDHMM>
~h "ay"
<BEGINHMM>
<NUMSTATES> 5
<STATE> 2
<MEAN> 39
 -7.500978e+000 -1.696348e+000 -8.733916e-002 -2.083825e+000 -2.891902e+000 -7.482275e+000 5.254208e+000 8.527012e+000 4.559333e+000 -4.255576e-001 1.241701e+000 6.501145e-001 6.935614e+001 2.114847e+000 -1.433985e+000 -1.419710e+000 -8.362877e-001 -2.489262e+000 -2.903025e+000 1.216421e+000 1.363557e+000 5.723470e-001 -7.827028e-002 -8.156484e-001 3.910503e-001 2.395034e+000 3.194541e-001 -3.464806e-001 -2.941898e-001 3.255938e-001 9.993155e-002 4.747979e-002 1.367500e-001 -4.100668e-002 -1.163164e-002 1.637874e-001 -3.456683e-001 -7.999067e-002 9.890836e-002
<VARIANCE> 39
 7.251883e+001 2.490686e+001 2.047181e+001 2.530278e+001 4.493771e+001 1.204940e+002 2.949405e+001 3.035310e+001 5.497420e+001 2.731524e+001 4.323907e+001 1.295950e+001 1.229929e+002 4.213998e+000 2.635280e+000 2.826323e+000 5.584947e+000 2.765169e+000 4.826390e+000 2.053746e+000 3.194449e+000 3.605241e+000 2.603169e+000 4.101002e+000 3.340386e+000 3.645468e+000 8.547956e-001 4.155311e-001 4.012866e-001 7.367725e-001 8.413523e-001 1.569397e+000 4.850933e-001 5.098295e-001 5.662218e-001 6.896255e-001 7.700337e-001 6.299240e-001 7.134261e-001
<GCONST> 1.296894e+002
<STATE> 3
<MEAN> 39
 2.168613e+000 -8.892758e+000 -5.294789e+000 -2.852987e+000 -8.886569e+000 -1.779444e+001 8.422219e+000 1.252880e+001 6.435491e+000 -3.369694e-001 -2.963235e+000 1.359945e+000 8.072520e+001 7.106773e-001 -1.499973e+000 -1.204062e+000 -5.187814e-001 -1.542295e-001 -9.270662e-002 4.334687e-001 2.664186e-001 5.168847e-001 -1.544972e-001 -5.410237e-001 2.783487e-001 1.216528e+000 -4.062320e-001 3.887823e-001 2.071792e-001 1.298686e-001 6.305131e-001 7.282705e-001 -2.523680e-001 -4.611570e-001 -2.528134e-001 3.983058e-002 2.297667e-001 -1.323963e-001 -5.050600e-001
<VARIANCE> 39
 5.265324e+000 1.317913e+001 1.378794e+001 1.049222e+001 4.217587e+001 5.011853e+001 3.067947e+001 4.148466e+001 5.190589e+001 1.290018e+001 4.023111e+001 1.504206e+001 1.584573e+001 1.298455e+000 1.339172e+000 7.623896e-001 8.690629e-001 1.830948e+000 3.750357e+000 1.328652e+000 2.618257e+000 1.466010e+000 1.416746e+000 1.385472e+000 8.768681e-001 2.514555e+000 3.124631e-001 2.432831e-001 1.641369e-001 3.293048e-001 2.725173e-001 5.740008e-001 2.358931e-001 3.587266e-001 3.584208e-001 2.378291e-001 3.196841e-001 2.190324e-001 2.151422e-001
<GCONST> 1.000572e+002
<STATE> 4
<MEAN> 39
 1.749875e+000 -9.979291e+000 -6.524995e+000 -1.856620e+000 1.435697e-001 -1.387924e+001 4.196625e+000 2.972830e+000 -2.066628e+000 1.306009e+000 2.406584e+000 2.746583e+000 8.202444e+001 -1.929663e-001 2.760404e-001 4.057200e-001 4.127041e-001 9.386216e-001 3.851201e-001 -5.837225e-001 -1.011166e+000 -1.060856e+000 9.717684e-002 4.387716e-001 5.537085e-003 -2.299019e-001 -4.019905e-002 1.074573e-001 1.433179e-001 4.393419e-002 -4.892524e-003 2.121074e-002 -1.428861e-002 3.384994e-002 -2.636885e-002 -6.695001e-002 -6.276764e-002 -8.121322e-002 -7.339098e-002
<VARIANCE> 39
 5.581063e+000 1.233268e+001 2.174314e+001 2.801560e+001 5.275158e+001 2.883070e+001 3.644195e+001 1.013489e+002 7.362894e+001 1.928087e+001 3.995880e+001 1.982069e+001 1.159434e+001 2.721520e-001 4.889860e-001 1.215797e+000 1.177462e+000 1.127573e+000 1.425894e+000 1.510666e+000 2.012069e+000 2.024995e+000 1.084542e+000 2.495288e+000 1.154487e+000 2.858723e-001 3.922883e-002 6.718677e-002 1.276497e-001 1.497604e-001 1.406917e-001 2.384026e-001 2.124441e-001 2.685832e-001 2.755425e-001 1.782861e-001 3.777119e-001 1.896476e-001 2.808151e-002
<GCONST> 8.938985e+001
<TRANSP> 5
 0.000000e+000 1.000000e+000 0.000000e+000 0.000000e+000 0.000000e+000
 0.000000e+000 6.464503e-001 3.535496e-001 0.000000e+000 0.000000e+000
 0.000000e+000 0.000000e+000 7.239116e-001 2.760884e-001 0.000000e+000
 0.000000e+000 0.000000e+000 0.000000e+000 9.358592e-001 6.414077e-002
 0.000000e+000 0.000000e+000 0.000000e+000 0.000000e+000 0.000000e+000
<ENDHMM>
~h "ch"
<BEGINHMM>
<NUMSTATES> 5
<STATE> 2
<MEAN> 39
 3.430780e+000 -5.840647e+000 -8.829707e+000 -9.477137e+000 -2.291730e-001 -1.782569e+001 3.162213e+000 1.668078e+001 3.656390e+000 2.459241e+000 -5.447177e+000 4.787312e-001 8.065250e+001 1.237904e-001 5.070652e-001 -2.234534e-001 -4.016430e-001 3.729892e-001 1.050550e+000 3.429941e-002 -9.290250e-001 -7.814488e-001 7.452534e-002 2.000734e-001 3.838809e-001 -5.346660e-001 -2.819601e-002 1.377566e-001 9.820886e-002 5.038403e-002 7.405452e-002 7.067876e-002 2.887108e-002 -1.071981e-001 -1.734766e-001 -2.496296e-002 -7.077448e-003 1.932643e-002 -1.154776e-001
<VARIANCE> 39
 5.260699e+000 2.079976e+001 1.036821e+001 1.518658e+001 2.157083e+001 6.778189e+001 6.093146e+000 8.149954e+001 3.029232e+001 2.628824e+001 1.731660e+001 1.464513e+001 1.837214e+001 2.440272e-001 7.528019e-001 7.790257e-001 8.732893e-001 1.483413e+000 2.110620e+000 7.079435e-001 1.543065e+000 2.099362e+000 1.966119e+000 9.561550e-001 8.672792e-001 4.205290e-001 4.357479e-002 6.776511e-002 8.349549e-002 1.495610e-001 1.947542e-001 3.152662e-001 1.462733e-001 1.690173e-001 2.889992e-001 2.626674e-001 1.948149e-001 1.307310e-001 3.663715e-002
<GCONST> 8.331429e+001
<STATE> 3
<MEAN> 39
 -4.170733e+000 5.185042e+000 -6.355133e+000 -1.070789e+001 3.752016e+000 -1.294036e-001 5.507010e+000 3.255562e+000 -3.745322e+000 -3.144435e+000 -3.517434e+000 5.238787e+000 6.605091e+001 -2.302659e+000 -9.753493e-001 1.754410e-001 -2.574994e-001 7.058567e-002 4.970547e-001 -2.757991e-001 -8.205020e-001 7.552997e-001 -2.924642e-001 -3.311664e-003 7.222697e-002 -2.873952e-001 -2.433183e-001 -6.285623e-001 2.290524e-001 3.981665e-003 -9.256921e-002 -9.269518e-002 -1.964956e-001 -8.390899e-002 1.211339e-001 1.781547e-001 2.440001e-001 -1.308413e-002 4.641254e-001
<VARIANCE> 39
 5.295349e+001 2.865150e+001 2.031398e+001 5.262150e+001 1.379808e+001 2.303698e+001 1.247011e+001 3.386026e+001 6.711591e+001 1.691899e+001 1.294841e+001 2.131307e+001 2.824890e+001 1.962986e+000 5.822703e+000 4.284548e+000 8.341700e+000 1.903449e+000 4.585716e+000 2.003937e+000 4.756929e+000 6.569246e+000 2.636991e+000 1.976584e+000 1.964621e+000 6.048331e+000 2.538882e-001 3.364053e-001 1.035397e+000 2.132102e+000 3.620645e-001 9.344954e-001 3.682353e-001 8.840764e-001 1.643427e+000 4.669292e-001 3.699225e-001 3.886063e-001 6.629939e-001
<GCONST> 1.237323e+002
<STATE> 4
<MEAN> 39
 -1.841671e+001 -1.193276e+001 -1.343864e+000 -8.565100e+000 5.625158e+000 3.226204e+000 -1.501468e+000 -4.773925e+000 -4.621686e+000 -2.848298e+000 1.593196e+000 6.867157e+000 6.985591e+001 9.720009e-002 9.586255e-002 5.437397e-001 7.482802e-001 2.752404e-002 1.803460e-001 -2.419449e-002 4.721837e-001 2.788118e-002 -9.444435e-002 2.865969e-001 1.673910e-001 -5.608850e-001 2.405343e-001 4.417789e-001 -1.365291e-001 1.728191e-002 -7.466619e-002 -2.892579e-002 1.800380e-001 2.159568e-001 1.083677e-001 9.635473e-003 -9.548392e-002 -9.730922e-002 -2.985292e-001
<VARIANCE> 39
 1.494525e+001 2.813554e+001 1.847475e+001 2.162613e+001 8.530309e+000 1.224101e+001 9.853951e+000 2.558838e+001 1.797262e+001 8.051565e+000 1.089123e+001 1.043182e+001 4.171569e+001 1.965547e+000 4.439690e+000 2.765559e+000 7.583945e-001 1.042435e+000 2.060201e+000 1.925882e+000 2.417797e+000 1.307412e+000 1.196071e+000 1.754024e+000 1.116467e+000 1.958295e+000 2.941998e-001 3.792325e-001 4.191634e-001 1.737559e-001 1.581097e-001 4.623201e-001 2.995070e-001 4.174663e-001 1.696082e-001 2.543682e-001 3.157312e-001 2.022775e-001 1.845091e-001
<GCONST> 9.723459e+001
<TRANSP> 5
 0.000000e+000 1.000000e+000 0.000000e+000 0.000000e+000 0.000000e+000
 0.000000e+000 9.377186e-001 6.228141e-002 0.000000e+000 0.000000e+000
 0.000000e+000 0.000000e+000 8.854827e-001 1.145173e-001 0.000000e+000
 0.000000e+000 0.000000e+000 0.000000e+000 9.278535e-001 7.214645e-002
 0.000000e+000 0.000000e+000 0.000000e+000 0.000000e+000 0.000000e+000
<ENDHMM>
~h "dh"
<BEGINHMM>
<NUMSTATES> 5
<STATE> 2
<MEAN> 39
 -1.438382e+001 -1.964749e+000 -4.978513e+000 6.972603e-001 -9.066960e-001 4.360657e-001 9.758264e-001 3.583570e+000 7.011874e-001 -9.438926e-001 3.265694e-002 2.967809e+000 5.534045e+001 -3.074486e-002 1.238217e-001 7.093187e-003 2.623571e-002 1.161032e-002 -2.677688e-003 4.772165e-002 3.777656e-002 6.972347e-002 6.015465e-002 2.532327e-002 2.370854e-002 -8.493643e-002 -1.087387e-002 -1.836681e-003 2.231969e-002 -1.129232e-002 1.450939e-002 1.282081e-002 4.531783e-003 -4.621068e-003 -8.849623e-003 1.446042e-002 9.524508e-003 -1.068582e-002 3.777826e-003
<VARIANCE> 39
 2.400826e+000 1.272639e+001 3.485510e+000 4.765055e+000 4.564630e+000 8.633543e+000 6.600099e+000 6.956263e+000 8.268575e+000 1.130049e+001 6.513255e+000 7.402905e+000 5.230573e+000 8.858345e-002 2.564780e-001 2.586253e-001 4.037760e-001 5.842249e-001 6.861773e-001 6.751556e-001 7.076132e-001 7.564082e-001 7.762241e-001 6.401115e-001 6.761920e-001 8.433858e-002 1.289801e-002 3.464881e-002 4.808847e-002 7.258101e-002 1.317303e-001 1.361268e-001 1.332820e-001 1.382777e-001 1.445415e-001 1.496850e-001 1.297449e-001 1.325941e-001 9.098511e-003
<GCONST> 4.995392e+001
<STATE> 3
<MEAN> 39
 -1.615842e+001 1.490304e+000 -4.087289e+000 2.801048e-001 8.434559e-001 1.500926e+000 3.020388e+000 4.769843e+000 3.258651e+000 2.786572e+000 2.531826e+000 3.087725e+000 5.323651e+001 -6.086513e-002 1.252617e-001 1.673915e-001 -3.673307e-002 -6.245673e-002 3.916673e-001 2.931771e-001 -6.680225e-002 -2.578861e-002 6.352906e-001 4.512228e-001 -2.452719e-001 -6.624092e-002 1.476850e-002 -1.325271e-002 1.648965e-001 -1.183369e-001 -1.386373e-001 -5.170707e-002 -1.526411e-001 -2.177373e-001 -1.793843e-001 -1.316797e-001 -1.184750e-001 -2.727019e-001 9.906154e-002
<VARIANCE> 39
 1.629572e+000 3.634298e+000 2.025761e+000 7.110496e+000 5.937456e+000 9.519297e+000 8.822605e+000 7.584194e+000 1.360843e+001 1.435952e+001 8.812796e+000 6.909600e+000 1.920641e+000 1.899979e-001 2.113614e-001 3.769427e-001 6.541032e-001 1.158650e+000 4.744904e-001 7.983476e-001 6.178024e-001 1.410598e+000 1.224612e+000 9.314468e-001 1.312813e+000 2.232746e-001 5.196393e-002 5.021050e-002 1.527900e-001 1.915312e-001 2.498249e-001 1.231359e-001 1.979494e-001 1.635205e-001 2.605194e-001 2.301681e-001 1.951472e-001 2.380270e-001 4.905410e-002
<GCONST> 6.243623e+001
<STATE> 4
<MEAN> 39
 -1.600795e+001 1.859622e+000 -2.580724e+000 -4.221168e-001 -1.292679e+000 2.518537e+000 2.844583e+000 3.017603e+000 1.520983e+000 4.514623e+000 2.966084e+000 1.213990e-001 5.324635e+001 -1.343876e-001 3.710682e-001 1.573693e+000 -5.061846e-001 3.009866e-001 6.886364e-001 2.449413e-001 -4.293619e-001 -4.170987e-001 -2.064438e-001 1.144022e-001 -1.020948e+000 5.796221e-001 3.559312e-001 4.318947e-001 5.055388e-001 2.653936e-001 6.251293e-001 2.853566e-001 3.192657e-001 9.784855e-002 1.049948e-002 -5.440133e-001 -6.146688e-002 2.519212e-002 4.043448e-001
<VARIANCE> 39
 2.195909e+000 6.030161e-001 3.723815e+000 3.114133e+000 7.414412e+000 3.419210e+000 2.937814e+000 4.281663e+000 1.351974e+001 8.299702e+000 5.813920e+000 3.333786e+000 1.312725e+000 1.062874e+000 7.875339e-001 9.837708e-001 2.894193e+000 1.578758e+000 1.186888e+000 1.030399e+000 1.169837e+000 1.249302e+000 9.087994e-001 9.020911e-001 7.043878e-001 1.649859e-001 1.927826e-001 1.164378e-001 1.739163e-001 2.817702e-001 2.209669e-001 1.159645e-001 7.225491e-002 1.199109e-001 3.418685e-001 2.769826e-001 1.550681e-001 8.446119e-002 6.831229e-002
<GCONST> 6.308384e+001
<TRANSP> 5
 0.000000e+000 1.000000e+000 0.000000e+000 0.000000e+000 0.000000e+000
 0.000000e+000 9.707544e-001 2.924555e-002 0.000000e+000 0.000000e+000
 0.000000e+000 0.000000e+000 6.902723e-001 3.097277e-001 0.000000e+000
 0.000000e+000 0.000000e+000 0.000000e+000 5.689712e-001 4.310288e-001
 0.000000e+000 0.000000e+000 0.000000e+000 0.000000e+000 0.000000e+000
<ENDHMM>
~h "ea"
<BEGINHMM>
<NUMSTATES> 5
<STATE> 2
<MEAN> 39
 -3.950191e-001 -8.043533e+000 -3.874702e-001 -2.017031e+000 -9.230487e-001 -1.684766e+001 1.170132e+001 7.960129e+000 -1.158119e+000 -2.922013e+000 -3.471700e+000 4.095993e+000 8.379832e+001 -1.359427e-002 -3.130621e-002 8.610988e-002 1.184087e-001 2.153119e-001 -8.684693e-002 2.275148e-001 -4.598141e-001 -6.738347e-001 -3.055809e-001 1.197762e-001 1.192218e-001 1.185404e-001 -1.406387e-002 8.956515e-002 -3.195839e-002 4.844375e-002 -3.888944e-002 1.057857e-001 -5.592915e-002 2.844548e-002 1.788810e-002 -4.144112e-002 6.069142e-002 -5.603855e-002 -2.082390e-001
<VARIANCE> 39
